-8.358481340110301971e-03
-1.115067675709724426e-02
8.269616402685642242e-03
-1.590336672961711884e-02
2.267251722514629364e-03
-9.127705357968807220e-03
-1.748601533472537994e-02
7.771538104861974716e-03
-5.262134131044149399e-03
3.743709239643067122e-04
2.061307244002819061e-02
1.298149954527616501e-02
-2.657647419255226851e-04
-5.824479274451732635e-03
2.005445305258035660e-03
-2.075386978685855865e-02
9.052103385329246521e-03
1.338757481426000595e-02
-1.410296838730573654e-02
4.995075054466724396e-03
6.757287192158401012e-04
-1.093419082462787628e-02
4.947264213114976883e-03
2.226960659027099609e-02
3.219765424728393555e-02
-6.034241523593664169e-03
-1.162767992354929447e-03
1.898906193673610687e-02
1.916340901516377926e-03
7.229462731629610062e-03
-6.632623262703418732e-04
-3.693461418151855469e-03
2.228445373475551605e-03
-2.918620035052299500e-02
-8.793947286903858185e-03
-1.498376298695802689e-02
3.557736752554774284e-03
-4.927062895148992538e-03
-4.429189953953027725e-03
-4.422016069293022156e-02
-8.058790117502212524e-03
-6.766007281839847565e-04
2.512932009994983673e-02
7.826359011232852936e-03
-1.100632455199956894e-02
-3.025203384459018707e-02
1.823583617806434631e-03
7.106744684278964996e-03
7.732668891549110413e-03
1.001231838017702103e-02
-4.894643556326627731e-03
-4.245106596499681473e-03
3.617186844348907471e-02
-2.002843975787982345e-04
1.444123871624469757e-02
-1.639999262988567352e-02
-2.191494591534137726e-02
9.333921596407890320e-03
-1.968468911945819855e-02
3.480318933725357056e-03
-1.519924495369195938e-03
-2.690269611775875092e-03
-1.494884956628084183e-03
8.223309181630611420e-03
1.837232033722102642e-03
1.989899436011910439e-03
-6.441059522330760956e-03
-2.079143188893795013e-03
1.051197480410337448e-02
6.538227200508117676e-03
8.992902585305273533e-04
-8.497035130858421326e-03
8.541954681277275085e-03
-2.161123976111412048e-02
-2.477155067026615143e-03
6.460715085268020630e-04
-1.494246721267700195e-02
1.412377599626779556e-02
-6.369582377374172211e-03
-7.820267230272293091e-03
4.973303526639938354e-03
7.463096175342798233e-03
-3.767809364944696426e-03
3.874806454405188560e-03
2.461536414921283722e-02
4.773259162902832031e-03
6.733579561114311218e-03
3.740622196346521378e-03
1.942090922966599464e-03
5.891738459467887878e-03
6.420623045414686203e-03
2.144959382712841034e-02
2.083978615701198578e-03
-2.536662667989730835e-02
7.949340157210826874e-03
-5.368896760046482086e-03
2.498513460159301758e-02
1.580083929002285004e-02
-2.383221499621868134e-02
1.671345718204975128e-02
4.985448904335498810e-03
-5.086692050099372864e-03
9.410492144525051117e-03
-1.512706745415925980e-03
1.788539998233318329e-02
-7.459646556526422501e-03
-2.229125425219535828e-02
2.529871650040149689e-02
-8.209072984755039215e-03
3.192538861185312271e-04
-1.393395103514194489e-02
4.439187468960881233e-04
4.230279475450515747e-03
3.738548373803496361e-03
1.389329601079225540e-02
1.899955421686172485e-02
1.364708505570888519e-02
-5.617002490907907486e-03
-6.117149721831083298e-03
-9.153913706541061401e-03
-4.023989196866750717e-03
-7.617729902267456055e-02
-9.228538721799850464e-03
-3.882613265886902809e-03
-1.376393996179103851e-02
1.761582307517528534e-02
-1.075641135685145855e-03
4.772355023305863142e-04
