-2.349862009286880493e-01 -1.391665786504745483e-01 4.724214598536491394e-02 4.761065542697906494e-02 1.500267833471298218e-01 -1.382231414318084717e-01 -1.276388168334960938e-01 2.107626013457775116e-02 -7.166473660618066788e-03 -6.970595568418502808e-02 -1.213225051760673523e-01 1.760863065719604492e-01 -5.115297436714172363e-02 -2.522589638829231262e-02 -2.340721338987350464e-02 3.836656734347343445e-02 1.368572413921356201e-01 1.677068620920181274e-01 -4.486052691936492920e-02 3.604329377412796021e-02 9.058495052158832550e-03 8.503691107034683228e-02 -3.090547397732734680e-02 6.819406896829605103e-02 2.478168457746505737e-01 -3.468428924679756165e-02 -7.953795790672302246e-02 -5.170106887817382812e-02 1.694017797708511353e-01 2.204037457704544067e-01 -2.609564363956451416e-01 -1.391456127166748047e-01 6.144128274172544479e-04 -2.826288342475891113e-01 -4.913792014122009277e-02 -2.828045785427093506e-01 2.975600361824035645e-01 1.502250432968139648e-01 -9.237023442983627319e-02 -1.790703237056732178e-01 1.256310045719146729e-01 1.269159913063049316e-01 1.185140758752822876e-01 6.232867389917373657e-02 3.955568075180053711e-01 -1.919820159673690796e-01 5.110480263829231262e-02 7.166519761085510254e-02 2.415900379419326782e-01 1.810657083988189697e-01 -2.644726075232028961e-02 1.036277040839195251e-01 4.762467741966247559e-02 -3.068918734788894653e-02 -2.292186468839645386e-01 8.908069878816604614e-02 -2.790801227092742920e-01 -1.109323501586914062e-01 -1.756341010332107544e-01 -2.608759514987468719e-02 1.077334955334663391e-01 -9.506022930145263672e-02 -3.229476511478424072e-02 -8.843456208705902100e-02 1.629078201949596405e-02 -9.336256980895996094e-02 2.699754536151885986e-01 -2.316145747900009155e-01 9.276145696640014648e-02 4.253319650888442993e-02 -2.475762814283370972e-01 -1.677965670824050903e-01 -5.391074717044830322e-02 9.261562675237655640e-02 -3.212530612945556641e-01 1.315580755472183228e-01 7.585046440362930298e-02 -2.328671216964721680e-01 1.808150261640548706e-01 1.973390430212020874e-01 1.071322858333587646e-01 -6.491474807262420654e-03 2.883212454617023468e-02 1.999464631080627441e-01 9.629861265420913696e-02 -6.156475096940994263e-02 -1.354242265224456787e-01 9.975764155387878418e-02 7.435456663370132446e-02 -2.391147427260875702e-02 -2.400756031274795532e-01 -1.093666777014732361e-01 1.265167891979217529e-01 -1.357850134372711182e-01 -4.860288649797439575e-02 2.269614487886428833e-01 1.399228870868682861e-01 2.833087444305419922e-01 1.083930805325508118e-01 1.732015162706375122e-01 6.698658317327499390e-02 -1.479523181915283203e-01 -5.389653891324996948e-02 1.652001589536666870e-01 -1.966434270143508911e-01 -1.238651275634765625e-01 -1.056729108095169067e-01 2.201636582612991333e-01 6.638461351394653320e-02 -1.074678003787994385e-01 -2.165458053350448608e-01 2.040777206420898438e-01 -2.182063758373260498e-01 -1.520037353038787842e-01 -3.727227076888084412e-02 -8.848866820335388184e-02 6.327232718467712402e-02 2.093316167593002319e-01 -3.075185604393482208e-02 1.259214729070663452e-01 -3.859354648739099503e-03 -1.643881499767303467e-01 -2.732759118080139160e-01 1.742066256701946259e-02 -1.674088388681411743e-01 9.388126432895660400e-03 1.208938956260681152e-01 5.817889794707298279e-02
1.780505180358886719e-01 -7.480975240468978882e-02 -1.704470217227935791e-01 -2.794122397899627686e-01 -3.594274446368217468e-02 1.456960886716842651e-01 -6.749441474676132202e-02 -1.195737719535827637e-01 1.309366971254348755e-01 1.315863579511642456e-01 1.851035654544830322e-01 -1.976958066225051880e-01 2.663064301013946533e-01 -1.205509603023529053e-01 -1.483488827943801880e-01 -1.815513074398040771e-01 -1.728730648756027222e-01 -1.736022382974624634e-01 9.991063177585601807e-02 -2.345273345708847046e-01 4.392528533935546875e-02 -1.675811409950256348e-01 -6.305491179227828979e-02 -1.279056072235107422e-02 1.967974454164505005e-01 -3.810947388410568237e-02 8.346938341856002808e-02 2.062217891216278076e-01 -2.622831165790557861e-01 -2.270504087209701538e-02 1.910811215639114380e-01 2.782276868820190430e-01 -1.160503700375556946e-01 1.867814362049102783e-01 1.063318923115730286e-01 1.633693873882293701e-01 -1.974923610687255859e-01 6.468331068754196167e-02 1.114421412348747253e-01 -1.106301322579383850e-01 4.540060646831989288e-03 3.763383952900767326e-03 1.386887282133102417e-01 -1.723628491163253784e-02 -5.700878798961639404e-02 -5.763378739356994629e-02 -7.351973652839660645e-02 3.356230631470680237e-02 -7.417615503072738647e-02 -1.251836121082305908e-01 1.678708493709564209e-01 -1.041366904973983765e-01 1.002573668956756592e-01 -4.768045991659164429e-02 -9.330092370510101318e-02 -4.456691443920135498e-02 -2.420825883746147156e-02 2.063241600990295410e-01 8.301898837089538574e-02 2.699465751647949219e-01 -2.059620916843414307e-01 1.417746394872665405e-01 -3.003723174333572388e-02 -1.844133734703063965e-01 -1.320139169692993164e-01 4.352896213531494141e-01 5.287531018257141113e-02 5.756231769919395447e-02 -1.206126958131790161e-01 6.404329836368560791e-02 8.986832946538925171e-02 1.127990409731864929e-01 1.653181612491607666e-01 -6.338217854499816895e-02 -1.202852949500083923e-01 -2.467514723539352417e-01 2.078896015882492065e-01 -1.604854762554168701e-01 8.014522492885589600e-03 3.012300096452236176e-02 2.542302906513214111e-01 3.021941892802715302e-02 1.276286989450454712e-01 1.586185693740844727e-01 8.001197874546051025e-02 9.024961292743682861e-02 -4.328091070055961609e-02 -1.136033311486244202e-01 1.118159890174865723e-01 9.109970182180404663e-02 -5.878062173724174500e-02 2.060248143970966339e-02 -2.911678142845630646e-02 2.809251286089420319e-02 3.008093833923339844e-01 2.834163047373294830e-02 1.406874656677246094e-01 -9.491169825196266174e-03 4.672104492783546448e-02 -1.681456863880157471e-01 -8.217570185661315918e-02 1.038384363055229187e-01 1.001051738858222961e-01 -1.119098905473947525e-02 -1.098352111876010895e-02 -5.916754901409149170e-02 -1.042964309453964233e-01 -7.398568838834762573e-02 3.137349784374237061e-01 -4.292060807347297668e-02 -6.215786933898925781e-02 -1.398056447505950928e-01 -5.117951333522796631e-02 2.127885371446609497e-01 5.350108817219734192e-02 -8.816938102245330811e-02 -2.142777293920516968e-01 -3.596995174884796143e-01 8.226586878299713135e-02 3.651951625943183899e-02 -3.560802340507507324e-01 2.177955210208892822e-01 7.411880046129226685e-02 -1.695386692881584167e-02 -8.208279311656951904e-02 -2.726911306381225586e-01 6.086544319987297058e-02 -3.639111295342445374e-02
2.147458493709564209e-02 7.135054562240839005e-03 1.550631821155548096e-01 -2.098087817430496216e-01 9.373492002487182617e-02 1.540166586637496948e-01 1.673812866210937500e-01 5.352678149938583374e-02 3.092853911221027374e-02 -8.191565424203872681e-02 -6.790858507156372070e-02 1.832204610109329224e-01 1.036876589059829712e-01 2.314351499080657959e-01 -2.199495956301689148e-02 2.209981232881546021e-01 -1.171494424343109131e-01 2.354890108108520508e-02 1.176666468381881714e-01 1.182260289788246155e-01 -1.858516931533813477e-01 6.215696409344673157e-02 1.392896175384521484e-01 1.846766769886016846e-01 -4.049390256404876709e-01 5.122370123863220215e-01 2.146743535995483398e-01 -1.501767635345458984e-01 6.559187173843383789e-02 -1.390579938888549805e-01 -3.827642649412155151e-02 -4.015934839844703674e-02 8.356136083602905273e-02 8.792808279395103455e-03 1.094981953501701355e-01 5.135494470596313477e-02 -7.401715219020843506e-02 7.666042447090148926e-02 -6.265749782323837280e-02 -4.897786676883697510e-02 -1.282936930656433105e-01 -9.747424721717834473e-02 9.017632901668548584e-02 8.583104610443115234e-02 1.263750791549682617e-01 2.163306176662445068e-01 -1.862410572357475758e-03 2.029542773962020874e-01 -2.167400866746902466e-01 -8.113116770982742310e-02 1.200410947203636169e-01 -1.773865222930908203e-01 4.017619416117668152e-02 7.844676077365875244e-02 2.344050109386444092e-01 -4.386289045214653015e-02 -2.036479488015174866e-02 -3.330757841467857361e-02 5.006341636180877686e-02 1.077942028641700745e-01 4.445592164993286133e-01 -1.560400426387786865e-01 2.283653169870376587e-01 -1.943399906158447266e-01 -9.978885948657989502e-02 -5.180713534355163574e-01 -1.340911835432052612e-01 -7.233493775129318237e-02 1.236478686332702637e-01 -1.659642457962036133e-01 -2.022469975054264069e-02 1.209715288132429123e-02 -5.113942548632621765e-02 1.776466816663742065e-01 -1.152208000421524048e-01 -1.186943501234054565e-01 2.624631226062774658e-01 -4.017576575279235840e-02 -1.047092229127883911e-01 5.008780397474765778e-03 -1.688413918018341064e-01 -1.387415975332260132e-01 3.111818991601467133e-02 -3.051460087299346924e-01 -1.488933563232421875e-01 -1.355093717575073242e-02 7.786535471677780151e-02 8.596158772706985474e-02 1.195277422666549683e-01 -7.301587611436843872e-02 -4.701834619045257568e-01 -2.711164057254791260e-01 -2.473147660493850708e-01 9.322174638509750366e-02 2.523714601993560791e-01 -1.673548221588134766e-01 -8.327954262495040894e-02 1.766964346170425415e-01 6.346311420202255249e-02 -6.451446563005447388e-02 -1.205178350210189819e-01 -7.647119462490081787e-02 -2.303361892700195312e-01 -2.474021017551422119e-01 -1.679170429706573486e-01 -8.269634842872619629e-02 -3.589927405118942261e-02 1.361174285411834717e-01 -8.137562870979309082e-02 9.509082883596420288e-02 1.419665962457656860e-01 5.273088440299034119e-02 -2.573495209217071533e-01 1.737264394760131836e-01 1.036680769175291061e-02 1.680404692888259888e-01 3.184411823749542236e-01 5.095422267913818359e-02 -2.604493498802185059e-01 1.095260828733444214e-01 9.291806071996688843e-02 -7.005925476551055908e-02 -1.278519779443740845e-01 5.327412486076354980e-02 2.298709601163864136e-01 -2.795168459415435791e-01 -1.747461706399917603e-01 2.225040644407272339e-01
-5.975514277815818787e-02 -1.878406107425689697e-02 1.015541981905698776e-02 -1.173124928027391434e-02 -8.058263361454010010e-02 -4.502817243337631226e-02 2.601687982678413391e-02 -8.043625392019748688e-03 7.432214915752410889e-02 3.677231818437576294e-02 4.588127881288528442e-02 1.896194368600845337e-02 -3.344070911407470703e-02 6.695067882537841797e-02 -8.463875204324722290e-02 1.551399938762187958e-02 -4.584233462810516357e-02 1.806131005287170410e-01 1.966705918312072754e-01 6.723116338253021240e-02 -6.841623038053512573e-02 7.229440659284591675e-02 -1.122364774346351624e-01 -1.039974913001060486e-01 1.372336000204086304e-01 6.957347691059112549e-02 -8.940128609538078308e-03 -1.990426182746887207e-01 2.812474407255649567e-02 -7.924888283014297485e-03 -9.714952111244201660e-02 8.919348567724227905e-02 -1.058654859662055969e-01 4.634555894881486893e-03 8.392745256423950195e-02 -3.535583615303039551e-02 -8.267019689083099365e-02 -2.365427911281585693e-01 -1.249523609876632690e-01 1.442995071411132812e-01 2.115394324064254761e-01 6.739619374275207520e-02 -1.157901249825954437e-03 -1.242027953267097473e-01 1.998820006847381592e-01 1.429324150085449219e-01 -6.422555446624755859e-02 1.071262657642364502e-01 6.701336801052093506e-02 -1.136175170540809631e-01 2.644436955451965332e-01 -7.517600059509277344e-02 -2.170018553733825684e-01 3.479440510272979736e-02 -5.923838540911674500e-02 -6.911881268024444580e-02 4.928880184888839722e-02 -4.342850670218467712e-02 6.942556053400039673e-02 -5.068583041429519653e-02 4.643679037690162659e-02 1.463887542486190796e-01 1.452109068632125854e-01 -6.812476087361574173e-03 -1.573223769664764404e-01 -1.661895215511322021e-01 9.933876991271972656e-02 -4.962632432579994202e-02 -2.897247858345508575e-02 4.472571238875389099e-02 3.224381804466247559e-02 4.445613175630569458e-02 -1.524381190538406372e-01 4.648793116211891174e-02 -1.917397528886795044e-01 1.759811118245124817e-02 5.074810469523072243e-04 -1.943786069750785828e-02 -8.228319883346557617e-02 1.611332446336746216e-01 8.537080883979797363e-02 -9.093593806028366089e-03 -7.147392630577087402e-02 -8.722475171089172363e-02 8.208698034286499023e-02 -6.396690756082534790e-02 1.228814497590065002e-01 -7.428635656833648682e-02 -4.814188182353973389e-02 -4.772208258509635925e-02 -3.638821095228195190e-02 -1.381519883871078491e-01 -4.623636975884437561e-02 8.703256398439407349e-02 2.035609036684036255e-01 9.302172809839248657e-02 -4.120408743619918823e-02 4.181361198425292969e-02 7.931415736675262451e-02 -2.094011604785919189e-01 -1.072445586323738098e-01 9.572850912809371948e-02 4.119551926851272583e-02 5.179624632000923157e-02 5.038018897175788879e-02 1.505888998508453369e-02 2.364648878574371338e-02 -1.022039279341697693e-01 8.909567445516586304e-02 -1.635632067918777466e-01 2.896902151405811310e-02 -1.343007236719131470e-01 2.186296731233596802e-01 1.687603294849395752e-01 1.228148043155670166e-01 1.107720583677291870e-01 -8.958323299884796143e-02 -2.247827649116516113e-01 -4.915771633386611938e-02 1.490745544433593750e-01 4.422692290972918272e-04 -4.438251629471778870e-02 -5.974156409502029419e-02 5.193687602877616882e-02 1.355560570955276489e-01 -1.709769293665885925e-02 -1.362468749284744263e-01 -7.106196135282516479e-02
-2.203534096479415894e-01 7.425403594970703125e-02 9.217797964811325073e-02 -1.126067861914634705e-01 2.950431704521179199e-01 -1.633371412754058838e-01 -2.383523061871528625e-02 -6.765151023864746094e-02 -9.855619072914123535e-02 1.790808513760566711e-02 -4.758637771010398865e-02 2.009672224521636963e-01 -2.766822874546051025e-01 1.951169520616531372e-01 1.113046258687973022e-01 -8.355124853551387787e-03 1.627552509307861328e-01 9.479407221078872681e-02 -8.395080268383026123e-02 -1.519259251654148102e-02 4.901968315243721008e-02 5.487554147839546204e-02 6.289619952440261841e-02 1.221905872225761414e-01 -1.060793027281761169e-01 -2.986975014209747314e-01 -1.303260177373886108e-01 -5.895178392529487610e-02 2.123305797576904297e-01 -2.086535245180130005e-01 -1.158918291330337524e-01 -1.617710143327713013e-01 1.995653659105300903e-01 -1.045366302132606506e-01 -2.424777485430240631e-03 -1.437636315822601318e-01 -1.354041695594787598e-01 -8.440490067005157471e-02 -8.733280003070831299e-02 -1.494918614625930786e-01 2.917678654193878174e-01 5.663362145423889160e-02 -1.377654541283845901e-02 -3.966287896037101746e-02 7.871066778898239136e-02 -8.173032104969024658e-02 1.987573504447937012e-01 1.563799232244491577e-01 -1.563992351293563843e-02 1.084929183125495911e-01 -1.984079331159591675e-01 3.379300236701965332e-01 1.135338246822357178e-01 1.274679452180862427e-01 2.545791268348693848e-01 1.827578619122505188e-02 -3.992503881454467773e-02 -7.461902499198913574e-02 -9.175004810094833374e-02 -1.259572058916091919e-01 -6.830119341611862183e-02 -5.140136927366256714e-02 -8.545790612697601318e-02 2.788162231445312500e-01 1.291718482971191406e-01 -1.599156558513641357e-01 7.061279565095901489e-02 -2.007277905941009521e-01 7.900258898735046387e-02 -1.244243681430816650e-01 -1.367475092411041260e-01 -1.456081122159957886e-01 4.691453650593757629e-03 1.631576009094715118e-02 2.246025353670120239e-01 9.822321683168411255e-02 -1.272086352109909058e-01 -1.977755129337310791e-01 1.059631332755088806e-01 7.883640378713607788e-02 -1.874217092990875244e-01 -7.967633754014968872e-02 -1.441491395235061646e-01 -2.993880212306976318e-02 5.971417576074600220e-02 -1.919188052415847778e-01 7.362046092748641968e-02 9.395413100719451904e-02 9.965141117572784424e-02 -7.252873480319976807e-02 -1.772851198911666870e-01 -3.002779483795166016e-01 -1.254163980484008789e-01 1.154000908136367798e-01 -8.535400778055191040e-02 5.277721211314201355e-02 -5.973710119724273682e-02 1.441730260848999023e-01 -9.556460380554199219e-02 7.477996498346328735e-02 1.074288487434387207e-01 -5.646539852023124695e-02 3.790898248553276062e-02 -1.407167525030672550e-03 -2.404307015240192413e-02 1.236789114773273468e-02 4.440531879663467407e-02 6.869729608297348022e-02 -1.458507329225540161e-01 2.749003004282712936e-03 -1.045794859528541565e-01 1.310785710811614990e-01 -3.386376798152923584e-02 -2.242533117532730103e-01 -8.230023831129074097e-02 6.521441787481307983e-02 2.274290472269058228e-01 3.689026460051536560e-02 -9.901884198188781738e-02 1.081138774752616882e-01 1.811010688543319702e-01 -1.971758753061294556e-01 -6.032876297831535339e-02 -9.220036119222640991e-02 -8.717927336692810059e-02 1.234003975987434387e-01 2.188096195459365845e-01 6.924762576818466187e-02
3.361839056015014648e-02 3.461936861276626587e-02 -2.752788960933685303e-01 8.927423506975173950e-02 -4.977440088987350464e-02 1.325635612010955811e-01 -8.458686619997024536e-02 -1.749901175498962402e-01 7.677815109491348267e-02 -1.409829966723918915e-02 1.242325305938720703e-01 -6.653764098882675171e-02 -2.168978750705718994e-02 4.739150032401084900e-02 1.121151149272918701e-01 -1.897006630897521973e-01 -1.730598887661471963e-04 -1.782084815204143524e-02 -3.858087211847305298e-02 -1.069619059562683105e-01 1.698729768395423889e-02 -1.787582188844680786e-01 7.442393898963928223e-02 1.409959793090820312e-01 -7.184498757123947144e-02 -2.434856295585632324e-01 -1.569815576076507568e-01 2.496059387922286987e-01 -1.965603381395339966e-01 1.031099334359169006e-01 1.618339419364929199e-01 -1.069562360644340515e-01 -6.464978214353322983e-03 -7.251219451427459717e-02 -9.376496821641921997e-02 -9.917243570089340210e-02 -2.021199166774749756e-01 2.665745094418525696e-02 3.361967578530311584e-02 3.101564245298504829e-03 5.887126177549362183e-02 -6.286458671092987061e-02 -4.583529755473136902e-02 -9.211573004722595215e-02 -3.528944849967956543e-01 -1.678325831890106201e-01 -2.109160088002681732e-02 -5.185841023921966553e-02 1.486691236495971680e-01 8.928109705448150635e-02 6.771457940340042114e-02 -1.014205887913703918e-01 6.461860146373510361e-03 -5.676006525754928589e-02 3.746252879500389099e-02 9.631058201193809509e-03 5.130531731992959976e-03 -5.258455500006675720e-02 -1.565259099006652832e-01 1.696783117949962616e-02 -1.433021575212478638e-01 -6.236121058464050293e-02 -9.203259646892547607e-02 3.590495884418487549e-02 4.117016494274139404e-02 1.997680068016052246e-01 8.735625445842742920e-02 -1.047551482915878296e-01 1.367863267660140991e-01 1.959946304559707642e-01 -1.374499220401048660e-02 1.569601520895957947e-02 -3.230342641472816467e-02 -4.104787111282348633e-02 1.000661104917526245e-01 4.377194121479988098e-02 -5.398363992571830750e-02 6.085005402565002441e-02 -1.061930805444717407e-01 -2.532939910888671875e-01 3.093795776367187500e-01 4.590973258018493652e-02 7.205262780189514160e-03 1.054327860474586487e-01 -7.783170044422149658e-02 -3.464859351515769958e-02 9.370908141136169434e-02 2.901262976229190826e-02 1.128715928643941879e-03 2.504062950611114502e-01 1.313198506832122803e-01 7.677721232175827026e-02 1.550503969192504883e-01 -5.509692057967185974e-02 -7.452312111854553223e-02 1.581090390682220459e-01 1.065493077039718628e-01 -1.818575151264667511e-02 8.245445042848587036e-02 4.739736393094062805e-02 6.139338482171297073e-03 -1.783420294523239136e-01 1.491984426975250244e-01 8.188816159963607788e-02 2.605833709239959717e-01 -4.516527429223060608e-02 8.428310602903366089e-02 -4.387633409351110458e-03 -1.289897318929433823e-02 7.848462462425231934e-02 -6.691757589578628540e-02 7.989548146724700928e-02 2.738955616950988770e-01 -5.741462856531143188e-02 -1.443093921989202499e-02 -9.303618222475051880e-02 -1.185792014002799988e-01 -6.776827573776245117e-02 8.290148526430130005e-02 -3.788656368851661682e-02 -1.128267422318458557e-01 -4.140967875719070435e-02 3.607931733131408691e-02 1.556240860372781754e-02 -1.039549559354782104e-01 2.329406514763832092e-02 -1.559348106384277344e-01 -3.936687484383583069e-02
-1.703910678625106812e-01 -1.474760919809341431e-01 -7.081687450408935547e-02 1.698739230632781982e-01 -6.013663951307535172e-04 -2.218676498159766197e-03 1.457232534885406494e-01 2.732750177383422852e-01 -9.877201169729232788e-03 1.512358188629150391e-01 -5.353212356567382812e-02 -1.472366750240325928e-01 -1.251350715756416321e-02 -4.371354877948760986e-01 -6.690713018178939819e-02 5.673246830701828003e-02 -1.024394854903221130e-01 -2.038612365722656250e-01 6.198552623391151428e-02 4.176693037152290344e-02 2.755171358585357666e-01 1.535703092813491821e-01 -3.453369438648223877e-02 -2.942471392452716827e-02 -8.231678605079650879e-02 -4.837233573198318481e-02 1.569543778896331787e-01 -5.966094508767127991e-02 -3.504640161991119385e-01 -6.590182334184646606e-02 3.644727170467376709e-01 3.163089752197265625e-01 1.771001517772674561e-01 1.494265049695968628e-01 1.263757646083831787e-01 5.473725795745849609e-01 -6.246913224458694458e-02 -3.393209576606750488e-01 8.255001157522201538e-02 2.194300144910812378e-01 -4.171204268932342529e-01 -5.999559536576271057e-02 -1.728418618440628052e-01 2.206727564334869385e-01 4.075196683406829834e-01 -1.156893223524093628e-01 8.640974760055541992e-03 2.438371814787387848e-02 5.783254280686378479e-02 -2.983555570244789124e-02 1.574756205081939697e-01 1.842390187084674835e-02 -9.317488968372344971e-02 -1.408107578754425049e-01 1.531151235103607178e-01 8.621683344244956970e-03 2.957702577114105225e-01 1.996972560882568359e-01 2.168569117784500122e-01 2.176685929298400879e-01 -2.834050953388214111e-01 6.065148860216140747e-02 -4.370655417442321777e-01 1.904238313436508179e-01 -1.676176339387893677e-01 -9.842950850725173950e-02 -2.863159179687500000e-01 6.725083291530609131e-02 -1.161369159817695618e-01 1.020871624350547791e-01 2.791291475296020508e-01 3.322375714778900146e-01 -2.838052511215209961e-01 -1.389617025852203369e-01 6.725674867630004883e-01 -8.942717686295509338e-03 4.176525399088859558e-02 -6.161393225193023682e-02 -3.057766556739807129e-01 -9.722147881984710693e-02 -4.316994845867156982e-01 -2.752150781452655792e-02 5.530330166220664978e-02 -2.051683068275451660e-01 -2.442789971828460693e-01 1.181648462079465389e-03 1.352637261152267456e-01 -1.057387366890907288e-01 7.896345853805541992e-02 -3.042494654655456543e-01 3.527848720550537109e-01 -3.627605736255645752e-01 -5.466506257653236389e-02 3.022851943969726562e-01 -9.963069111108779907e-03 -3.683011531829833984e-01 -1.739465445280075073e-01 -4.986702203750610352e-01 -6.684565544128417969e-02 -5.749497935175895691e-02 1.160818561911582947e-01 2.022003829479217529e-01 1.110748797655105591e-01 -1.494754403829574585e-01 -3.830967843532562256e-01 2.448621541261672974e-01 -4.071422293782234192e-02 -2.027884572744369507e-01 4.172993078827857971e-02 5.856274440884590149e-02 -3.701245039701461792e-02 -2.711988687515258789e-01 -4.512840509414672852e-02 3.295876458287239075e-02 -1.566171944141387939e-01 2.565929889678955078e-01 -1.937426924705505371e-01 1.128448620438575745e-01 2.358154654502868652e-01 -1.150622591376304626e-01 3.144508004188537598e-01 -1.647876948118209839e-01 1.350186169147491455e-01 6.585855036973953247e-02 1.655529439449310303e-01 1.736338883638381958e-01 -2.734854519367218018e-01 -6.740652769804000854e-02
6.165086850523948669e-02 7.019596546888351440e-02 1.547060906887054443e-01 -1.199373975396156311e-01 4.775689542293548584e-02 -5.847075954079627991e-02 -3.592718392610549927e-02 2.077219262719154358e-02 1.485943049192428589e-01 -2.524165250360965729e-02 8.128348737955093384e-02 -4.700570926070213318e-02 -2.986801564693450928e-01 -4.651623964309692383e-02 -3.908898681402206421e-03 3.307132795453071594e-02 -1.479234099388122559e-01 6.134722754359245300e-02 -8.608359843492507935e-02 -1.096196770668029785e-01 3.517888486385345459e-02 -5.388562381267547607e-02 8.521387353539466858e-03 1.974831521511077881e-01 3.471359610557556152e-01 1.060759127140045166e-01 1.076301336288452148e-01 -4.627463966608047485e-02 8.220284432172775269e-02 -1.775611042976379395e-01 -1.887905001640319824e-01 -9.673549979925155640e-02 -4.029058292508125305e-02 -1.763077080249786377e-01 -2.751080505549907684e-02 2.842601155862212181e-03 2.121137082576751709e-01 9.037442505359649658e-02 -1.545693129301071167e-01 2.059481665492057800e-02 -6.509689847007393837e-04 3.556317463517189026e-02 -8.393854647874832153e-02 -1.508888788521289825e-03 3.423564136028289795e-01 1.707292199134826660e-01 4.409944266080856323e-02 1.804670393466949463e-01 -3.507757559418678284e-02 9.832368791103363037e-02 1.408157031983137131e-02 1.010083407163619995e-01 7.107300311326980591e-02 -1.545106619596481323e-02 -2.464653402566909790e-01 -9.868694096803665161e-02 -7.027725130319595337e-02 -2.860623896121978760e-01 3.232213109731674194e-02 1.022812351584434509e-02 3.983461111783981323e-02 3.427660837769508362e-02 -2.243186086416244507e-01 -5.907842516899108887e-02 -1.622084155678749084e-02 -9.559024125337600708e-02 1.236134842038154602e-01 8.689497411251068115e-02 2.196769788861274719e-02 -4.918446391820907593e-02 -1.090964227914810181e-01 1.677783578634262085e-02 1.943927109241485596e-01 -1.696470566093921661e-02 -4.471612721681594849e-02 -2.615163922309875488e-01 1.743707954883575439e-01 -1.494693309068679810e-01 -3.294599801301956177e-02 3.762906491756439209e-01 1.450575292110443115e-01 3.030342608690261841e-02 1.675231903791427612e-01 8.513087034225463867e-02 -1.986318826675415039e-02 8.986664563417434692e-02 -7.387712597846984863e-02 1.521340310573577881e-01 -1.099421549588441849e-02 -1.618729084730148315e-01 -3.120375871658325195e-01 -2.415986359119415283e-01 4.313742741942405701e-02 -1.318265199661254883e-01 1.687412559986114502e-01 7.224283367395401001e-02 -9.450948797166347504e-03 1.640710234642028809e-01 2.400766499340534210e-02 6.134777888655662537e-02 -8.331326395273208618e-02 1.823497377336025238e-02 -1.369455009698867798e-01 2.345338091254234314e-02 -1.535758078098297119e-01 -1.340581476688385010e-01 6.196270883083343506e-02 -5.859888717532157898e-02 2.568105980753898621e-02 -8.848749101161956787e-02 -3.273183479905128479e-02 -9.443181753158569336e-02 -9.112084656953811646e-02 -1.110567301511764526e-01 7.953010499477386475e-02 3.351998701691627502e-02 -1.551038324832916260e-01 -2.042953670024871826e-01 1.875480636954307556e-02 1.414242833852767944e-01 5.763861909508705139e-02 3.154730796813964844e-02 -1.446632891893386841e-01 1.110712736845016479e-01 1.360522210597991943e-01 7.382108271121978760e-02 1.474211551249027252e-02 -1.049321517348289490e-01
1.078287065029144287e-01 -1.181359738111495972e-01 -1.296926438808441162e-01 1.047114580869674683e-01 -1.439691781997680664e-01 3.264852799475193024e-03 -4.125371575355529785e-02 -5.271649919450283051e-03 6.231804937124252319e-02 1.011744514107704163e-01 2.130623310804367065e-01 -5.032673850655555725e-02 1.175266578793525696e-01 -9.194640442728996277e-03 8.982003480195999146e-02 -1.660230159759521484e-01 1.047332510352134705e-01 5.705320462584495544e-02 2.267445996403694153e-02 3.566145431250333786e-03 -1.890321820974349976e-01 -8.857379108667373657e-02 -1.812289655208587646e-01 -2.117272466421127319e-01 -3.046199381351470947e-01 -1.213875040411949158e-01 -1.002517268061637878e-01 -5.196780338883399963e-02 -9.630161523818969727e-02 1.090085692703723907e-02 1.059318110346794128e-01 3.892549872398376465e-02 -3.241655826568603516e-01 1.245191171765327454e-01 -8.903031796216964722e-02 -2.540224418044090271e-02 -3.831559419631958008e-01 1.484114527702331543e-01 8.115193247795104980e-02 2.723531611263751984e-02 3.806846141815185547e-01 -2.953367494046688080e-02 4.211554303765296936e-02 -2.527303695678710938e-01 -4.862965345382690430e-01 1.260813623666763306e-01 -1.172618102282285690e-02 6.009089993312954903e-04 -1.448367685079574585e-01 -1.010574325919151306e-01 -7.106381654739379883e-02 -3.300393819808959961e-01 -9.033120423555374146e-02 -8.883409202098846436e-02 1.326508074998855591e-01 -1.977232098579406738e-01 5.907110869884490967e-02 5.615590140223503113e-03 1.406280230730772018e-02 -1.075697019696235657e-01 -8.807070553302764893e-02 1.172563806176185608e-01 1.817275881767272949e-01 -1.587922126054763794e-01 2.355410717427730560e-02 4.432258903980255127e-01 -8.047795295715332031e-02 1.101483851671218872e-01 -2.814009487628936768e-01 -6.022392585873603821e-02 8.417001366615295410e-02 6.652101874351501465e-02 1.308394670486450195e-01 3.694485872983932495e-02 8.871834725141525269e-03 7.353467494249343872e-02 -5.361846834421157837e-02 -5.979242548346519470e-02 -5.224658921360969543e-02 -7.993535697460174561e-02 5.170358419418334961e-01 5.866046994924545288e-02 -2.205142825841903687e-01 -4.832608252763748169e-02 9.756188839673995972e-02 1.993040144443511963e-01 2.007504254579544067e-01 -1.384244412183761597e-01 -3.577882656827569008e-03 2.442999631166458130e-01 1.521389037370681763e-01 3.038552105426788330e-01 1.055304426699876785e-02 -6.033362075686454773e-02 2.079360187053680420e-01 1.096174940466880798e-01 -8.662201464176177979e-02 8.678495883941650391e-02 1.776663027703762054e-02 -7.750121504068374634e-02 -6.187825463712215424e-03 2.005410641431808472e-01 7.426287978887557983e-02 -1.205210089683532715e-01 2.826151251792907715e-01 7.668375968933105469e-02 -1.798540502786636353e-01 -9.533414989709854126e-02 2.201782912015914917e-01 2.659739181399345398e-02 -3.527523577213287354e-02 -1.554927527904510498e-01 1.293834447860717773e-01 1.150488257408142090e-01 1.543314903974533081e-01 1.356548070907592773e-01 -4.324334487318992615e-02 -4.611501693725585938e-01 -2.393977530300617218e-02 5.098842084407806396e-03 -1.423586308956146240e-01 2.035402357578277588e-01 2.865154445171356201e-01 1.306094229221343994e-01 -2.519496716558933258e-02 -6.375828385353088379e-02 7.848531939089298248e-03 -9.300992637872695923e-02
1.043951213359832764e-01 4.412136971950531006e-02 1.496142596006393433e-01 -2.751201093196868896e-01 -1.270288378000259399e-01 4.359347745776176453e-02 -1.457050144672393799e-01 -9.046645835041999817e-03 -5.381604190915822983e-03 8.424685895442962646e-02 4.262158181518316269e-03 -2.063535749912261963e-01 -3.157046064734458923e-02 -4.969577491283416748e-02 1.706316322088241577e-01 -3.142626881599426270e-01 -1.049689948558807373e-01 -1.865994371473789215e-02 -4.740817844867706299e-02 -1.956792920827865601e-02 7.586231082677841187e-02 -2.254335954785346985e-02 -4.693029820919036865e-02 -7.934597134590148926e-02 1.250478774309158325e-01 -7.358847558498382568e-02 1.003065183758735657e-01 1.917140930891036987e-01 4.271513223648071289e-02 2.282646298408508301e-01 9.471570700407028198e-02 -8.573985099792480469e-02 -9.982219338417053223e-02 1.423185020685195923e-01 5.408009141683578491e-02 -1.088289543986320496e-01 -3.818824291229248047e-01 -2.292005568742752075e-01 2.137261629104614258e-01 6.448484957218170166e-02 2.899994514882564545e-02 -1.690907180309295654e-01 -4.290410503745079041e-02 1.908731609582901001e-01 1.636767536401748657e-01 1.572522372007369995e-01 -1.340543776750564575e-01 -9.317295253276824951e-02 6.060962378978729248e-02 -1.022583991289138794e-01 -9.904003888368606567e-02 -5.778869241476058960e-02 -7.385326176881790161e-02 -1.249848008155822754e-01 -1.388127505779266357e-01 -6.398043781518936157e-02 5.932220071554183960e-02 1.876496672630310059e-01 9.404480457305908203e-02 3.086969815194606781e-02 -8.116342127323150635e-02 -1.164121776819229126e-01 -3.058868050575256348e-01 1.865126378834247589e-02 -4.155152663588523865e-02 -5.166898667812347412e-02 -1.300164759159088135e-01 1.196894347667694092e-01 6.622717250138521194e-03 -1.204166114330291748e-01 7.234996557235717773e-02 4.835792258381843567e-02 2.425684928894042969e-01 -2.520668134093284607e-02 2.176481932401657104e-01 7.020944356918334961e-02 -4.627270996570587158e-02 4.707912728190422058e-02 1.324255764484405518e-01 3.230565786361694336e-01 -2.939465641975402832e-01 -7.842946797609329224e-02 -5.848844349384307861e-02 -6.945100426673889160e-02 3.316175937652587891e-02 2.337823659181594849e-01 -4.980856552720069885e-02 -9.256496280431747437e-02 -1.326455026865005493e-01 7.987245917320251465e-02 -1.442981064319610596e-01 3.907918184995651245e-02 -1.314706355333328247e-01 7.276906818151473999e-02 2.220227196812629700e-02 -6.751997768878936768e-02 -8.034688979387283325e-02 2.672095596790313721e-01 2.705571949481964111e-01 2.954835258424282074e-02 -2.953790314495563507e-02 2.581563591957092285e-02 -1.227553561329841614e-01 -2.349883466958999634e-01 1.808431297540664673e-01 1.597084663808345795e-02 6.834857910871505737e-02 2.413780242204666138e-02 -7.785682380199432373e-02 9.452848881483078003e-02 2.971769077703356743e-03 6.575857847929000854e-02 -6.507133692502975464e-02 3.111232444643974304e-02 6.910505890846252441e-02 1.249807793647050858e-02 4.009585455060005188e-02 -1.521304696798324585e-01 6.514789164066314697e-02 -4.310366511344909668e-02 -8.343860507011413574e-02 -9.692617505788803101e-02 9.957946091890335083e-02 1.574209183454513550e-01 -7.929967716336250305e-03 -2.727011404931545258e-02 -1.156655251979827881e-01 -3.069074591621756554e-03
-7.251036167144775391e-02 4.631610959768295288e-02 5.254624783992767334e-02 -4.483579471707344055e-02 2.381659746170043945e-01 -9.275041520595550537e-02 1.432122010737657547e-02 -1.000168994069099426e-01 -2.851966954767704010e-02 -1.740028858184814453e-01 -5.944542959332466125e-02 -1.919856481254100800e-02 -6.882366538047790527e-02 -1.284904628992080688e-01 -8.708102256059646606e-02 -6.136019155383110046e-02 6.631707400083541870e-02 4.962485283613204956e-02 9.363138675689697266e-02 -6.475888192653656006e-02 -7.517096400260925293e-02 -1.359936594963073730e-01 9.438106417655944824e-02 1.881307065486907959e-01 8.261498063802719116e-02 -1.185542419552803040e-01 4.340613260865211487e-02 -1.042972281575202942e-01 -1.050692424178123474e-01 2.999996580183506012e-02 1.363387703895568848e-01 -7.921336591243743896e-02 6.433087587356567383e-02 -1.328627616167068481e-01 -9.051159024238586426e-02 1.643785834312438965e-01 1.691543608903884888e-01 3.533754870295524597e-02 2.216867357492446899e-02 -5.384014919400215149e-02 -1.426391005516052246e-01 -1.282413303852081299e-01 3.317476063966751099e-02 8.556077955290675163e-04 5.275542289018630981e-02 -1.472349278628826141e-02 1.328435242176055908e-01 -1.537603586912155151e-01 -6.881963461637496948e-02 3.235267847776412964e-02 -7.888907194137573242e-02 2.661026716232299805e-01 1.949861943721771240e-01 1.319780349731445312e-01 -9.781005233526229858e-02 1.865380555391311646e-01 -1.249087974429130554e-03 -1.823029294610023499e-02 4.717436805367469788e-02 -6.831698864698410034e-02 -7.985765486955642700e-02 5.890829861164093018e-02 -1.868648082017898560e-01 -3.896358981728553772e-02 7.874769717454910278e-02 7.337513566017150879e-02 -9.736823290586471558e-02 -4.234223440289497375e-02 -6.613332778215408325e-02 -2.748539857566356659e-02 -1.077817007899284363e-01 -1.182654425501823425e-01 4.819096624851226807e-02 4.188384488224983215e-02 3.771933913230895996e-01 1.101816911250352859e-02 1.366716474294662476e-01 -8.742098510265350342e-02 -1.057988591492176056e-02 -4.401968047022819519e-02 -1.848238147795200348e-02 4.270866513252258301e-02 -1.190002039074897766e-01 6.667269859462976456e-03 2.665569260716438293e-02 -8.346335962414741516e-03 -2.764819562435150146e-01 1.151853427290916443e-01 2.094356110319495201e-03 -1.217864826321601868e-02 -1.581481248140335083e-01 -1.192817613482475281e-01 -2.127803117036819458e-02 -1.167179271578788757e-01 8.767032623291015625e-02 6.179048493504524231e-02 -1.909240186214447021e-01 -1.589658297598361969e-02 -1.417264342308044434e-01 6.419379264116287231e-02 -5.648592486977577209e-02 2.720548398792743683e-02 -5.701131373643875122e-02 -6.769467890262603760e-02 1.670427806675434113e-02 6.830926239490509033e-02 2.594186365604400635e-02 1.362324059009552002e-01 -2.802211791276931763e-03 -5.703521310351788998e-05 7.024890929460525513e-02 -6.903582811355590820e-02 -1.568920612335205078e-01 -1.197823733091354370e-01 -1.611264608800411224e-02 3.483480215072631836e-02 5.938779097050428391e-03 6.941647827625274658e-02 7.237954437732696533e-02 8.538929373025894165e-02 1.371026486158370972e-01 -3.007535450160503387e-02 4.696162045001983643e-02 -8.243422210216522217e-02 7.278848439455032349e-02 9.513918310403823853e-02 1.294652223587036133e-01 6.836198270320892334e-02
-8.108574897050857544e-02 1.511829197406768799e-01 -1.848193109035491943e-01 3.029057085514068604e-01 3.377490118145942688e-02 -3.645526617765426636e-02 -1.526790857315063477e-01 -1.317047029733657837e-01 -1.981050521135330200e-02 5.416844412684440613e-02 -3.061391972005367279e-02 6.402073800563812256e-02 3.547194972634315491e-02 -7.927729189395904541e-02 -1.415078490972518921e-01 1.465423405170440674e-01 2.407053485512733459e-02 1.030851006507873535e-01 -8.501328527927398682e-02 6.042248755693435669e-02 1.079359278082847595e-01 2.095431648194789886e-02 6.766755878925323486e-02 4.735137522220611572e-02 2.502266466617584229e-01 7.157503813505172729e-02 -1.942903250455856323e-01 -4.598614573478698730e-02 -3.582521528005599976e-02 -7.127127051353454590e-02 -3.242546617984771729e-01 2.552342973649501801e-02 -4.763728380203247070e-02 -6.235693395137786865e-02 -1.282775253057479858e-01 3.864395245909690857e-02 3.991834521293640137e-01 2.559819631278514862e-02 -1.163788214325904846e-01 -1.804990470409393311e-01 1.233538612723350525e-01 9.188799187541007996e-03 3.334512934088706970e-02 -1.030620709061622620e-01 -6.811493635177612305e-02 -1.335195749998092651e-01 1.232224926352500916e-01 1.478767395019531250e-01 -4.761929437518119812e-02 1.883233636617660522e-01 1.156609728932380676e-01 6.921917200088500977e-02 1.452143937349319458e-01 -1.880387216806411743e-02 -6.948821991682052612e-02 1.328003592789173126e-02 -1.133569031953811646e-01 -9.962970763444900513e-02 -1.384432911872863770e-01 -2.526529505848884583e-02 -4.196827858686447144e-02 -4.179709404706954956e-02 4.159242212772369385e-01 8.506850898265838623e-02 9.566099941730499268e-02 5.849313363432884216e-02 3.570809364318847656e-01 -7.391700893640518188e-02 5.093389004468917847e-02 6.633915007114410400e-02 -1.367514580488204956e-01 -2.087805867195129395e-01 -4.265251755714416504e-02 -9.612740576267242432e-02 -2.012060433626174927e-01 1.479015797376632690e-01 -1.596033722162246704e-01 -4.745280370116233826e-02 -4.299070220440626144e-03 -1.871326118707656860e-01 1.636718213558197021e-01 1.862309426069259644e-01 6.201081350445747375e-02 2.055663466453552246e-01 4.665822722017765045e-03 -1.240315139293670654e-01 -1.402382273226976395e-02 7.848937064409255981e-02 5.145811289548873901e-02 8.406774699687957764e-02 1.836652159690856934e-01 8.559430390596389771e-02 5.161150917410850525e-02 -4.189664497971534729e-02 -9.093791246414184570e-02 1.662046015262603760e-01 2.464990019798278809e-01 -9.781677275896072388e-02 -1.171483658254146576e-02 9.316766262054443359e-02 2.068846374750137329e-01 -1.428169459104537964e-01 -4.873375594615936279e-02 4.219055771827697754e-01 -1.677329689264297485e-01 7.353749591857194901e-03 1.198666617274284363e-01 -3.553709387779235840e-02 1.293536573648452759e-01 -1.105186268687248230e-01 -1.393323242664337158e-01 7.943617552518844604e-02 1.183073688298463821e-02 -1.726101338863372803e-01 -1.532191038131713867e-01 -3.127126395702362061e-01 -1.201772391796112061e-01 -2.166186869144439697e-01 -1.167280878871679306e-02 2.171077392995357513e-02 -1.918449811637401581e-02 1.300929933786392212e-01 -1.965759545564651489e-01 -1.857525110244750977e-01 -1.587017476558685303e-01 -1.107866037636995316e-02 2.611062824726104736e-01 9.832466021180152893e-03
-3.575993329286575317e-02 7.850624620914459229e-02 -1.043350249528884888e-02 2.690972089767456055e-01 8.298923261463642120e-03 5.604107305407524109e-02 -5.287059023976325989e-02 -9.216062724590301514e-02 3.818636387586593628e-02 -1.469266507774591446e-02 -1.494030654430389404e-02 -1.103536412119865417e-02 1.461902409791946411e-01 -1.106354221701622009e-01 -2.480680793523788452e-01 -1.758019328117370605e-01 5.935425404459238052e-03 1.105541661381721497e-01 2.672636322677135468e-02 7.930038124322891235e-02 1.200915649533271790e-01 5.753249675035476685e-02 5.650461837649345398e-02 -8.412393927574157715e-02 2.952439188957214355e-01 2.092042267322540283e-01 -1.002337634563446045e-01 -4.629674181342124939e-02 1.312113404273986816e-01 1.216282099485397339e-01 -3.778320252895355225e-01 1.449214965105056763e-01 -5.189686641097068787e-02 -1.029895618557929993e-01 -2.650384791195392609e-02 5.554495379328727722e-02 6.229614615440368652e-01 3.854205310344696045e-01 -1.468498110771179199e-01 -1.137598827481269836e-01 1.216649189591407776e-01 -4.624114837497472763e-03 1.285249460488557816e-02 -7.699494808912277222e-02 3.106278181076049805e-01 -2.757726013660430908e-01 5.015951022505760193e-02 9.912433475255966187e-02 -1.014559296891093254e-03 8.414785377681255341e-03 -6.422048062086105347e-02 -3.165974339935928583e-04 -2.696481160819530487e-02 -4.737139120697975159e-02 -2.286817282438278198e-01 2.110561169683933258e-02 1.758918166160583496e-02 -1.034661680459976196e-01 -8.933290839195251465e-02 7.849128544330596924e-02 1.909482926130294800e-01 -1.161597371101379395e-01 2.574599683284759521e-01 -1.277552694082260132e-01 -1.301815211772918701e-01 4.396894946694374084e-02 2.717331945896148682e-01 -1.401078104972839355e-01 -6.536117941141128540e-02 -6.391103565692901611e-02 -1.565082073211669922e-01 -1.414544731378555298e-01 5.699682980775833130e-02 -4.565560072660446167e-02 -4.863337427377700806e-02 1.195099055767059326e-01 -2.283502519130706787e-01 -1.061294153332710266e-01 1.588907241821289062e-01 -1.256031543016433716e-01 9.377858787775039673e-02 2.550953924655914307e-01 1.886662691831588745e-01 1.720225363969802856e-01 2.655562162399291992e-01 5.302023142576217651e-02 9.098687767982482910e-02 8.949665725231170654e-02 -4.566350579261779785e-02 1.207320615649223328e-01 -1.375251561403274536e-01 1.887452788650989532e-02 5.428745225071907043e-02 7.074015587568283081e-02 -7.731011509895324707e-02 5.300717800855636597e-02 2.193178832530975342e-01 1.000019237399101257e-01 7.600356638431549072e-02 5.065858364105224609e-02 1.882910430431365967e-01 -1.159304901957511902e-01 -6.829164177179336548e-02 2.287779748439788818e-01 -8.665062487125396729e-02 -1.292876601219177246e-01 2.069576643407344818e-02 -6.145297363400459290e-02 -4.969892278313636780e-02 -1.441696882247924805e-01 -1.657163053750991821e-01 6.682310998439788818e-02 5.024978891015052795e-03 -1.343625485897064209e-01 -4.396493732929229736e-02 -1.982232034206390381e-01 -6.281095091253519058e-03 -1.707371324300765991e-01 4.715583100914955139e-02 -8.867363631725311279e-02 -1.083020344376564026e-01 7.030798494815826416e-02 -8.179008215665817261e-02 1.620000414550304413e-02 -2.185017913579940796e-01 -1.879990547895431519e-01 3.223641216754913330e-02 3.428354859352111816e-02
-1.956192590296268463e-02 7.765257265418767929e-03 1.447273651137948036e-03 1.001292839646339417e-01 5.426598340272903442e-02 3.246263042092323303e-02 -2.919210866093635559e-02 4.429040849208831787e-02 -1.012630686163902283e-01 -3.933568298816680908e-02 1.009087041020393372e-01 1.991581544280052185e-02 -8.083997666835784912e-02 -7.791390642523765564e-03 7.621183246374130249e-02 1.303226947784423828e-01 1.541471388190984726e-02 -5.513395369052886963e-02 1.085199341177940369e-01 -5.988904833793640137e-02 -3.603024408221244812e-03 -7.543451339006423950e-02 4.808400571346282959e-02 9.496780484914779663e-02 2.464372515678405762e-01 -1.583369970321655273e-01 3.728345036506652832e-02 -1.365400701761245728e-01 1.652882620692253113e-02 -1.419813483953475952e-01 -2.387161925435066223e-02 2.073339931666851044e-02 2.673545852303504944e-02 -1.029449403285980225e-01 -9.204607456922531128e-03 7.587303221225738525e-02 1.827811747789382935e-01 -3.941326141357421875e-01 6.549658626317977905e-02 4.152758121490478516e-01 -3.240646421909332275e-01 -2.759314328432083130e-02 1.326871216297149658e-01 7.241180166602134705e-03 -1.755109429359436035e-02 -1.810072362422943115e-01 5.490398406982421875e-02 2.502135559916496277e-02 -1.567948013544082642e-01 1.083151027560234070e-01 3.186599537730216980e-02 6.841273605823516846e-02 -1.421471834182739258e-01 -1.010142266750335693e-02 6.596629321575164795e-02 1.971716247498989105e-02 -3.867784747853875160e-03 -1.405803114175796509e-02 3.512941300868988037e-02 -1.095266863703727722e-01 -2.081334143877029419e-01 -6.253378093242645264e-02 1.396818011999130249e-01 1.927670240402221680e-01 3.266224265098571777e-02 -1.092339828610420227e-01 -9.054330736398696899e-02 -1.480383798480033875e-02 3.415285050868988037e-02 4.791838303208351135e-02 6.724255532026290894e-02 5.355663597583770752e-03 6.270837783813476562e-02 -1.450662463903427124e-01 -1.489794552326202393e-01 -1.075025349855422974e-01 1.755016893148422241e-01 -1.555081363767385483e-02 -4.826930537819862366e-02 2.605824731290340424e-02 -2.352805994451045990e-02 -2.734951674938201904e-02 7.297217845916748047e-02 1.098606362938880920e-01 -5.647794902324676514e-02 4.293238744139671326e-02 2.734409458935260773e-02 -3.107767179608345032e-02 -1.649185270071029663e-01 1.862293807789683342e-03 1.506511420011520386e-01 -1.449554711580276489e-01 -1.942961476743221283e-02 -6.837802357040345669e-04 3.907653316855430603e-02 6.425577402114868164e-02 4.374156147241592407e-02 -2.218696624040603638e-01 -7.882212288677692413e-03 7.566629350185394287e-02 4.279932379722595215e-02 -1.093321517109870911e-01 6.572119146585464478e-02 1.301395744085311890e-01 -1.394535154104232788e-01 -8.318500220775604248e-02 4.531015083193778992e-02 -1.707924455404281616e-01 1.120492666959762573e-01 1.679536551237106323e-01 -6.853643059730529785e-02 5.736672133207321167e-02 -1.132330819964408875e-01 -8.904427289962768555e-02 -1.078985407948493958e-01 1.455587148666381836e-02 1.926529221236705780e-02 -2.045650482177734375e-01 5.929593741893768311e-02 6.523039657622575760e-03 7.644906640052795410e-02 1.520578861236572266e-01 -5.028262361884117126e-02 -1.029726266860961914e-01 7.632049173116683960e-02 1.477580517530441284e-01 1.789713092148303986e-02 -5.574119463562965393e-02
1.527397781610488892e-01 -7.136393338441848755e-02 -1.111043766140937805e-01 -5.749303102493286133e-02 -1.382223665714263916e-01 8.518097549676895142e-02 1.607046425342559814e-01 6.515941768884658813e-02 8.120199292898178101e-02 -6.568693369626998901e-02 -8.786340057849884033e-02 -9.425760805606842041e-02 1.851108223199844360e-01 -1.802255660295486450e-01 5.836811289191246033e-02 -1.950291544198989868e-01 -1.422050446271896362e-01 -2.273278832435607910e-01 6.027827039361000061e-02 -9.494886733591556549e-03 1.691289991140365601e-01 -5.690522119402885437e-02 2.860052138566970825e-02 -1.345529705286026001e-01 1.004528924822807312e-01 1.456588059663772583e-01 2.427846044301986694e-01 3.505860641598701477e-02 -2.405752241611480713e-02 -2.249562367796897888e-02 -8.709637820720672607e-02 1.116877123713493347e-01 1.157675608992576599e-01 2.174229733645915985e-02 5.044491589069366455e-02 2.170106768608093262e-01 1.933773458003997803e-01 2.192280143499374390e-01 5.319606978446245193e-03 1.539457291364669800e-01 -2.760255038738250732e-01 1.957178115844726562e-02 3.282374143600463867e-02 -6.450008600950241089e-02 -1.454485207796096802e-01 -7.913208007812500000e-02 -1.107289716601371765e-01 -6.905728578567504883e-02 -1.573810577392578125e-01 1.681187562644481659e-02 2.900729142129421234e-02 -2.410184293985366821e-01 -1.594993285834789276e-02 -2.046174928545951843e-02 -1.485272496938705444e-02 -4.425263404846191406e-02 1.237525716423988342e-01 3.252195939421653748e-02 3.828852996230125427e-02 2.014859914779663086e-01 4.373679310083389282e-02 1.995668374001979828e-02 -1.720505533739924431e-03 -1.338952779769897461e-01 -1.607975661754608154e-01 6.550010293722152710e-02 8.854700624942779541e-02 1.597252190113067627e-01 4.559343308210372925e-02 5.913726985454559326e-02 4.755550250411033630e-02 1.375636756420135498e-01 -2.213696576654911041e-02 -9.898146986961364746e-02 -1.065261289477348328e-01 -1.688819825649261475e-01 -1.110053509473800659e-01 1.702551245689392090e-01 -1.226427778601646423e-01 6.001527607440948486e-02 -8.662804029881954193e-03 1.245147660374641418e-01 2.344721108675003052e-01 -2.465111669152975082e-03 3.731270506978034973e-02 8.870447427034378052e-02 -1.188964098691940308e-01 -3.187754005193710327e-02 -1.970957368612289429e-01 -1.233254298567771912e-01 -6.781470030546188354e-02 -1.462539751082658768e-02 -4.092244803905487061e-02 1.797267794609069824e-01 -2.740302868187427521e-02 -1.633981168270111084e-01 1.108991205692291260e-01 -3.581363335251808167e-02 8.513632416725158691e-02 -1.775832846760749817e-02 -6.387347728013992310e-02 -4.964635521173477173e-02 -1.849499158561229706e-02 -1.640601158142089844e-01 3.694863244891166687e-02 -9.215436875820159912e-02 -2.570579014718532562e-02 -1.123514473438262939e-01 -4.460952710360288620e-03 1.005259454250335693e-01 4.821420088410377502e-02 -8.111371099948883057e-02 -1.523911207914352417e-01 1.147600114345550537e-01 3.664788603782653809e-02 5.164135247468948364e-02 -8.904712647199630737e-02 -1.335427016019821167e-01 1.882743984460830688e-01 -2.372146248817443848e-01 -1.071664690971374512e-01 1.173722743988037109e-02 1.164414733648300171e-01 1.190122961997985840e-01 2.070931345224380493e-02 -2.093691527843475342e-01 -1.370065659284591675e-01 -8.769853413105010986e-02
-1.284745186567306519e-01 -2.982317819260060787e-04 1.457817554473876953e-01 1.103970184922218323e-01 1.611020416021347046e-01 6.623193621635437012e-02 2.171699889004230499e-02 -9.582275897264480591e-02 -8.623795956373214722e-02 7.688406854867935181e-02 -1.009343266487121582e-01 1.874292492866516113e-01 -1.347590535879135132e-01 2.211737930774688721e-01 1.692738831043243408e-01 -1.729253120720386505e-02 2.012782692909240723e-01 1.086689159274101257e-01 -1.489092260599136353e-01 1.631273329257965088e-02 5.018177255988121033e-02 1.035351119935512543e-02 6.490032374858856201e-02 -5.488837882876396179e-02 9.769468754529953003e-02 -2.105203419923782349e-01 -1.128136813640594482e-01 -3.314909040927886963e-01 1.633111089468002319e-01 -1.910417713224887848e-02 -2.311822324991226196e-01 -8.206418156623840332e-02 3.999319076538085938e-01 -2.069422006607055664e-01 -6.632545590400695801e-02 2.243605256080627441e-02 -5.256609618663787842e-02 4.286372661590576172e-02 -3.721729665994644165e-02 -1.324216276407241821e-01 1.049691438674926758e-01 8.281871676445007324e-02 1.336186379194259644e-01 -7.051023095846176147e-02 -7.713443599641323090e-03 -9.780295193195343018e-02 1.029028296470642090e-01 -5.348607152700424194e-02 -1.934177242219448090e-02 9.252107888460159302e-02 -1.347428560256958008e-01 1.411941647529602051e-01 -1.218175068497657776e-01 4.131661728024482727e-02 -6.102926284074783325e-02 1.387964040040969849e-01 -3.622056543827056885e-02 -5.099410563707351685e-02 -6.505197286605834961e-02 -6.912161409854888916e-02 9.287524223327636719e-02 -7.129358500242233276e-02 1.758245229721069336e-01 1.285748183727264404e-01 9.302339702844619751e-02 -1.134846359491348267e-01 2.802458591759204865e-02 -6.776232272386550903e-02 1.197129935026168823e-01 1.735644191503524780e-01 -1.710099279880523682e-01 -1.487198024988174438e-01 -3.691781684756278992e-02 -1.332413554191589355e-01 -2.497105598449707031e-01 2.684356570243835449e-01 5.156918242573738098e-02 -1.156532689929008484e-01 3.091296739876270294e-02 -3.426815196871757507e-02 -3.411466479301452637e-01 4.268819838762283325e-02 -5.695410817861557007e-02 -4.040522128343582153e-02 -7.530598342418670654e-02 -1.337087601423263550e-01 -1.267743557691574097e-01 1.540966182947158813e-01 -4.192845523357391357e-02 -7.570558786392211914e-02 -7.019342482089996338e-02 4.241500049829483032e-02 1.185414716601371765e-01 -2.174753695726394653e-02 -1.871899366378784180e-01 3.453660383820533752e-02 6.598579883575439453e-02 -1.978870332241058350e-01 -1.817874014377593994e-01 1.270956695079803467e-01 8.338367938995361328e-02 -7.173772156238555908e-02 1.037173420190811157e-01 2.844473347067832947e-02 1.126706600189208984e-01 1.343636214733123779e-01 9.045705199241638184e-03 -2.620927058160305023e-02 -1.454417705535888672e-01 2.096939384937286377e-01 1.396694034337997437e-02 2.484621480107307434e-02 6.606553215533494949e-03 -1.946532577276229858e-01 -8.983372896909713745e-02 -1.587746888399124146e-01 8.645550161600112915e-02 2.543987333774566650e-01 -9.788139909505844116e-02 -6.578535586595535278e-02 3.213824927806854248e-01 -1.655658483505249023e-01 -8.095413446426391602e-02 -1.141143888235092163e-01 -7.533786445856094360e-02 1.349952816963195801e-01 1.909228712320327759e-01 1.927510946989059448e-01
-3.480564653873443604e-01 -1.458773971535265446e-03 -7.321976870298385620e-02 3.143566250801086426e-01 2.507484555244445801e-01 -1.330068567767739296e-03 1.445898264646530151e-01 7.614249829202890396e-03 -1.695970296859741211e-01 1.706680655479431152e-02 -4.413836896419525146e-01 -1.674676537513732910e-01 1.546060144901275635e-01 -2.885175347328186035e-01 -1.475794762372970581e-01 -2.539672255516052246e-01 -1.345416009426116943e-01 5.226945877075195312e-01 -4.459815472364425659e-02 -2.371672391891479492e-01 4.491211473941802979e-02 4.954227805137634277e-02 1.446469873189926147e-01 1.861908882856369019e-01 -1.823347955942153931e-01 2.443261295557022095e-01 -1.175627261400222778e-01 -5.286871921271085739e-03 -1.322068274021148682e-01 -2.258918881416320801e-01 -1.275799125432968140e-01 8.779496699571609497e-02 -1.007622256875038147e-01 -9.861095249652862549e-02 1.372072845697402954e-01 3.968708962202072144e-02 1.796332746744155884e-01 4.672524631023406982e-01 -1.225360259413719177e-01 2.712349295616149902e-01 2.219236791133880615e-01 -8.929980546236038208e-02 6.440464407205581665e-02 1.893000304698944092e-02 3.091399967670440674e-01 -2.119061499834060669e-01 -1.143644154071807861e-01 -4.201512783765792847e-02 2.349211573600769043e-01 6.474583595991134644e-02 5.766809359192848206e-02 -2.336198389530181885e-01 -2.541896998882293701e-01 -1.120719499886035919e-02 2.296381294727325439e-01 9.383898228406906128e-03 1.002258807420730591e-01 -2.769556641578674316e-01 -9.459424763917922974e-02 -3.756687417626380920e-02 1.805516928434371948e-01 -1.481426805257797241e-01 2.809531390666961670e-01 9.929133206605911255e-02 1.825801432132720947e-01 -1.778874546289443970e-01 5.272173509001731873e-02 -1.126371771097183228e-01 2.754619121551513672e-01 -4.079790785908699036e-02 -2.046880424022674561e-01 -6.429514288902282715e-02 -8.119611442089080811e-02 -3.490253002382814884e-04 6.696454286575317383e-01 2.864968962967395782e-02 -7.425291836261749268e-02 3.028610944747924805e-01 5.715381819754838943e-03 2.079084329307079315e-02 -4.656582325696945190e-02 -6.541128456592559814e-02 1.368868257850408554e-02 -1.971904039382934570e-01 -1.467803772538900375e-02 3.769095987081527710e-02 2.917436063289642334e-01 -1.411452740430831909e-01 1.855434328317642212e-01 -2.019614130258560181e-01 -2.245678752660751343e-01 -6.327293347567319870e-03 -1.807119101285934448e-01 -7.942377030849456787e-02 -1.619638949632644653e-01 -1.764324158430099487e-01 1.973210424184799194e-01 3.908213675022125244e-01 1.289779096841812134e-01 -3.527636453509330750e-02 1.913880705833435059e-01 1.285793930292129517e-01 -7.289713621139526367e-02 9.153301268815994263e-02 -1.822335571050643921e-01 4.770074784755706787e-02 -7.155542820692062378e-02 9.291507303714752197e-02 4.772514849901199341e-02 -2.992214858531951904e-01 -7.322349399328231812e-02 3.019349277019500732e-02 1.229595765471458435e-01 9.020457416772842407e-02 1.265986561775207520e-01 8.690663427114486694e-02 -6.459481269121170044e-02 -3.064960539340972900e-01 3.355316519737243652e-01 -8.750648051500320435e-02 1.214792132377624512e-01 -1.129717156291007996e-01 6.032348424196243286e-02 -5.270493030548095703e-02 4.877066984772682190e-02 1.087981313467025757e-01 1.270039975643157959e-01 -1.082818135619163513e-01
4.195552691817283630e-02 -5.518171004951000214e-03 4.410448297858238220e-02 -1.032073795795440674e-01 -1.991251409053802490e-01 -8.722063899040222168e-02 3.295538201928138733e-02 1.957166492938995361e-01 1.971539109945297241e-03 -1.479185521602630615e-01 3.004007041454315186e-01 -1.969366148114204407e-02 -1.751644313335418701e-01 9.529676288366317749e-03 -1.240249872207641602e-01 4.079776406288146973e-01 -2.213409990072250366e-01 -2.466447278857231140e-02 1.199163496494293213e-01 -4.794152081012725830e-02 -1.690541952848434448e-01 -6.544860452413558960e-02 2.219575829803943634e-02 6.110234186053276062e-02 -3.298490047454833984e-01 8.272162824869155884e-02 -6.073906086385250092e-03 -3.322168067097663879e-02 -6.706665456295013428e-02 -2.142368257045745850e-01 2.751159071922302246e-01 -6.265543866902589798e-03 -3.405793011188507080e-01 2.173989862203598022e-01 2.335227131843566895e-01 -8.024597540497779846e-03 -1.046267747879028320e-01 -5.466178655624389648e-01 -9.745202027261257172e-03 1.975538879632949829e-01 3.499793633818626404e-02 -1.543628126382827759e-01 5.034321919083595276e-02 9.886513650417327881e-02 -1.266624331474304199e-01 3.580543696880340576e-01 -6.357254087924957275e-02 7.001873850822448730e-02 7.387396693229675293e-02 -3.056048974394798279e-02 1.241296529769897461e-01 6.179457157850265503e-02 5.338214337825775146e-02 5.785243585705757141e-02 9.260535985231399536e-02 -1.256270557641983032e-01 5.882178619503974915e-02 3.302954137325286865e-02 6.986767053604125977e-02 1.504074335098266602e-01 -1.384198963642120361e-01 4.990689456462860107e-02 -6.384064257144927979e-02 1.246078833937644958e-01 -1.811826229095458984e-01 4.870201647281646729e-02 2.717523369938135147e-03 -5.963586270809173584e-02 -7.482860703021287918e-03 -6.796997040510177612e-02 2.791039049625396729e-01 1.539080291986465454e-01 4.322530329227447510e-02 1.000828668475151062e-01 3.074127482250332832e-03 -2.630783617496490479e-01 1.559881865978240967e-01 -2.957656979560852051e-01 -7.111721485853195190e-02 1.615037908777594566e-03 2.559066712856292725e-01 -1.566115915775299072e-01 -6.204322911798954010e-03 -4.352450370788574219e-02 -1.155936419963836670e-01 -8.361586183309555054e-02 4.122215807437896729e-01 -1.612854152917861938e-01 -2.110918797552585602e-02 8.630228042602539062e-02 2.128084562718868256e-02 -3.999588787555694580e-01 -8.334417641162872314e-02 2.632924318313598633e-01 2.199400365352630615e-01 -9.156816452741622925e-02 -1.293730586767196655e-01 3.981570526957511902e-02 1.209819391369819641e-01 -5.668628588318824768e-02 -2.066474594175815582e-02 4.315340891480445862e-02 5.685156956315040588e-02 -1.493516117334365845e-01 1.094508096575737000e-01 -3.128559589385986328e-01 -9.642136096954345703e-02 2.198956720530986786e-02 -4.760898277163505554e-02 -1.594456136226654053e-01 -5.024453997611999512e-02 6.695176661014556885e-02 1.955941319465637207e-02 1.581329256296157837e-01 9.240512549877166748e-02 2.825253605842590332e-01 -1.359179732389748096e-03 -3.178723752498626709e-01 -6.805041804909706116e-03 3.468993902206420898e-01 -1.530898809432983398e-01 1.815147995948791504e-01 -7.883567363023757935e-02 -5.027887597680091858e-02 7.443048059940338135e-02 6.525649875402450562e-02 7.883840054273605347e-02 -2.124823182821273804e-01
1.123611703515052795e-01 -1.243196800351142883e-01 -2.736008726060390472e-02 -2.977212518453598022e-02 -7.203243672847747803e-02 -1.536019742488861084e-01 7.085951417684555054e-02 -4.147869348526000977e-02 8.483063429594039917e-02 -1.509406417608261108e-02 -5.377345532178878784e-02 -2.854237556457519531e-01 3.536269664764404297e-01 -2.537927925586700439e-01 -1.654764264822006226e-01 -3.212387263774871826e-01 1.284993020817637444e-03 -1.675146520137786865e-01 -5.175016820430755615e-02 -1.045675277709960938e-01 2.353869974613189697e-01 1.188110094517469406e-02 2.824945747852325439e-02 5.145850032567977905e-02 6.137177944183349609e-01 8.630433678627014160e-02 1.975575685501098633e-01 1.979722082614898682e-01 -3.218896314501762390e-02 -2.450072467327117920e-01 6.469035148620605469e-02 1.669878065586090088e-01 -1.198450997471809387e-01 -4.825003072619438171e-02 -1.280713379383087158e-01 2.045006901025772095e-01 3.868497908115386963e-01 3.946712017059326172e-01 1.078555081039667130e-02 -1.290612071752548218e-01 -2.255497574806213379e-01 -4.664180055260658264e-02 1.525384038686752319e-01 5.166253075003623962e-02 1.495165973901748657e-01 -2.979130446910858154e-01 -1.129349321126937866e-01 4.531008377671241760e-02 -4.970953240990638733e-02 -3.095109015703201294e-02 1.200367435812950134e-01 -2.021849900484085083e-01 6.533875316381454468e-02 -3.916214779019355774e-02 -5.957412067800760269e-03 1.790910512208938599e-01 2.847509458661079407e-04 1.821222007274627686e-01 -4.167313745710998774e-04 1.725548952817916870e-01 1.288069784641265869e-01 -2.245966531336307526e-02 -1.441745311021804810e-01 -1.335105895996093750e-01 -7.845223881304264069e-03 4.333197474479675293e-01 2.943087518215179443e-01 1.108815297484397888e-01 6.004030629992485046e-02 1.071772500872612000e-01 -1.043663732707500458e-02 -1.602256894111633301e-01 1.959536969661712646e-01 -1.351285129785537720e-01 2.747314870357513428e-01 -3.395246863365173340e-01 2.273623831570148468e-02 4.425138235092163086e-01 -3.972367942333221436e-02 -2.370855361223220825e-01 2.027086615562438965e-01 2.065277546644210815e-01 1.183158457279205322e-01 1.810194700956344604e-01 2.708438597619533539e-02 3.188835978507995605e-01 -2.986472547054290771e-01 -9.858972579240798950e-02 3.178732469677925110e-02 1.053534299135208130e-01 5.567578971385955811e-02 2.414414733648300171e-01 4.215680807828903198e-02 -1.350786536931991577e-01 1.050603836774826050e-01 -1.225343942642211914e-01 2.984401583671569824e-01 -7.960465550422668457e-02 -5.004746839404106140e-02 -8.223253488540649414e-02 -3.519159555435180664e-02 7.103265821933746338e-02 -1.760607957839965820e-01 3.348512649536132812e-01 -4.150867462158203125e-01 -6.210560351610183716e-02 -1.184103190898895264e-01 -1.919864416122436523e-01 8.756343275308609009e-02 2.375210635364055634e-02 -4.186529666185379028e-02 -1.983681619167327881e-01 -1.596845984458923340e-01 2.610345482826232910e-01 8.572603017091751099e-02 -4.358884096145629883e-01 -2.675070762634277344e-01 -3.309915959835052490e-02 1.096585020422935486e-01 -9.176346659660339355e-02 -1.327493786811828613e-01 3.838367462158203125e-01 -1.301918178796768188e-01 -6.418683379888534546e-02 -1.052739545702934265e-01 -1.293407976627349854e-01 -8.431588113307952881e-02 -9.410737454891204834e-02
-9.791170805692672729e-02 2.029960229992866516e-02 4.650969058275222778e-02 -1.902809739112854004e-01 2.358418107032775879e-01 -1.076661050319671631e-01 -4.204940982162952423e-03 -1.005955934524536133e-01 1.657370775938034058e-01 -2.053814679384231567e-01 2.237336337566375732e-01 -2.271397411823272705e-01 4.092186689376831055e-02 5.258986260741949081e-03 -5.218718200922012329e-02 -1.005183067172765732e-02 -2.706857584416866302e-02 1.396298315376043320e-02 7.724086195230484009e-02 -1.077187582850456238e-01 1.096485853195190430e-01 -3.003617525100708008e-01 7.843322306871414185e-02 4.693054854869842529e-01 -4.102558642625808716e-02 -1.652190983295440674e-01 -1.197972372174263000e-01 1.702453494071960449e-01 -1.387971639633178711e-01 -8.736845850944519043e-02 2.840020954608917236e-01 1.174471154808998108e-01 -1.734327524900436401e-01 8.579615503549575806e-03 1.753499060869216919e-01 -6.113763898611068726e-02 3.296685218811035156e-02 1.541246287524700165e-02 8.225267380475997925e-02 -1.305485963821411133e-01 -3.226327002048492432e-01 -8.400277793407440186e-02 -2.425622940063476562e-02 -6.777118891477584839e-02 -1.810902208089828491e-01 2.784752286970615387e-02 4.906213283538818359e-02 1.770274639129638672e-01 2.581273615360260010e-01 1.078608110547065735e-01 -9.671556949615478516e-02 2.848045229911804199e-01 1.219627410173416138e-01 2.177554368972778320e-01 -2.354202605783939362e-02 2.707999646663665771e-01 5.549009144306182861e-02 2.756278403103351593e-02 -1.477655768394470215e-01 3.330292925238609314e-02 -3.021877110004425049e-01 6.061580032110214233e-02 -2.978327274322509766e-01 -1.033023074269294739e-01 4.169006645679473877e-02 -2.410381287336349487e-02 -9.328328818082809448e-02 -2.077441811561584473e-01 1.955131888389587402e-01 -1.020722836256027222e-01 2.422319501638412476e-01 -2.140225470066070557e-01 -5.146783962845802307e-02 1.362753063440322876e-01 4.178318083286285400e-01 -5.754042267799377441e-01 -3.134613111615180969e-02 -1.289054155349731445e-01 -8.745298534631729126e-02 -2.842630743980407715e-01 1.334732472896575928e-01 -7.354116532951593399e-03 2.100599929690361023e-02 1.651120036840438843e-01 -1.298059374094009399e-01 -2.217440456151962280e-01 -4.115812852978706360e-02 8.962546288967132568e-02 3.431618958711624146e-02 3.762501478195190430e-02 -1.869467087090015411e-02 -1.616959720849990845e-01 -5.965858325362205505e-02 -5.525245144963264465e-02 1.160387694835662842e-01 -1.672334782779216766e-02 -2.311566323041915894e-01 -1.225078403949737549e-01 4.313191771507263184e-02 7.801428437232971191e-02 1.938791573047637939e-02 -1.766417175531387329e-01 1.010404154658317566e-01 8.538027107715606689e-02 5.127070844173431396e-02 2.795789949595928192e-02 1.544213891029357910e-01 2.190109193325042725e-01 3.045652508735656738e-01 -1.212984174489974976e-01 9.408349543809890747e-02 1.978472769260406494e-01 1.845323145389556885e-01 -8.741574734449386597e-02 2.817190811038017273e-02 4.024618491530418396e-02 6.068331003189086914e-02 1.189957410097122192e-01 6.532369554042816162e-02 2.011781781911849976e-01 9.340168535709381104e-02 -6.621707975864410400e-02 -1.635991483926773071e-01 -1.721247136592864990e-01 8.001996576786041260e-02 3.502928093075752258e-02 -1.059620603919029236e-01 -4.470381513237953186e-02
4.107182472944259644e-02 1.773011870682239532e-02 -8.327803760766983032e-02 1.028124336153268814e-02 -2.343190461397171021e-01 -5.204234644770622253e-02 -1.278842538595199585e-01 -7.492545992136001587e-03 -1.238069310784339905e-02 5.245020985603332520e-02 -4.572096746414899826e-03 -2.160220406949520111e-02 2.095780801028013229e-04 -1.021728850901126862e-03 -2.235447019338607788e-01 4.565314203500747681e-02 6.412085145711898804e-02 1.530141830444335938e-01 6.710238009691238403e-02 4.188359901309013367e-02 1.522000730037689209e-01 1.302176862955093384e-01 -4.436048865318298340e-02 -2.030591964721679688e-01 -9.964364767074584961e-02 -2.914637885987758636e-02 -1.113386601209640503e-01 -1.239568516612052917e-01 -6.807605177164077759e-02 4.304119199514389038e-02 8.339777588844299316e-02 3.178250491619110107e-01 -5.768936872482299805e-02 2.154562920331954956e-01 2.934422530233860016e-02 -6.626886874437332153e-02 -3.636215627193450928e-02 4.932923242449760437e-02 -9.639891237020492554e-02 -2.645142674446105957e-01 2.426082789897918701e-01 -7.800003886222839355e-02 -3.445929661393165588e-02 -5.621059238910675049e-02 3.407966792583465576e-01 6.125640869140625000e-02 -8.245514333248138428e-02 2.546186447143554688e-01 3.005657196044921875e-01 -7.403977960348129272e-02 4.141090437769889832e-02 1.023927927017211914e-01 -5.478409305214881897e-02 -2.391054183244705200e-01 -2.984170913696289062e-01 -4.177001118659973145e-02 -4.771268740296363831e-02 -6.669255346059799194e-02 1.524939667433500290e-02 8.801485598087310791e-02 3.775448352098464966e-02 -5.471422150731086731e-02 -3.349878266453742981e-02 4.117865115404129028e-02 -1.161525100469589233e-01 4.555120691657066345e-02 2.431919425725936890e-01 -6.947495788335800171e-02 -1.280067414045333862e-01 -2.479965426027774811e-02 3.125025704503059387e-02 1.105994507670402527e-01 -2.625685371458530426e-02 1.380572766065597534e-01 -5.034201964735984802e-02 1.395062655210494995e-01 5.739517882466316223e-02 -1.354599893093109131e-01 6.686222553253173828e-02 -7.951705157756805420e-02 -9.450904093682765961e-03 3.139134123921394348e-02 4.199289903044700623e-02 1.621685922145843506e-01 1.160795241594314575e-01 1.104017421603202820e-01 1.214279979467391968e-02 -1.837670505046844482e-01 -1.932000182569026947e-02 -8.528225123882293701e-02 3.356311842799186707e-02 7.557109743356704712e-02 -1.238146349787712097e-01 -3.310076426714658737e-03 1.824761554598808289e-02 2.258401550352573395e-02 2.933574467897415161e-02 2.224265970289707184e-02 6.258530914783477783e-02 -9.824057668447494507e-02 3.484768047928810120e-02 8.082860708236694336e-02 1.047142148017883301e-01 1.654750406742095947e-01 -3.646833002567291260e-01 -1.237736195325851440e-01 1.881337724626064301e-02 -1.335229873657226562e-01 -1.217256709933280945e-01 -1.362155228853225708e-01 -6.639951467514038086e-02 -7.996929436922073364e-02 5.414976552128791809e-02 7.376892119646072388e-02 1.100522875785827637e-01 6.880781054496765137e-02 -1.329880505800247192e-01 1.657334566116333008e-01 -3.397244215011596680e-02 1.095862090587615967e-01 5.806710198521614075e-02 2.519459836184978485e-02 -1.077746301889419556e-01 6.189803127199411392e-03 -2.714041993021965027e-02 -5.202070623636245728e-02 3.441224619746208191e-02 -5.999423563480377197e-02
-1.504687964916229248e-01 -3.567285090684890747e-02 8.093743026256561279e-02 -9.339647740125656128e-02 4.799078404903411865e-02 2.335342206060886383e-02 9.732526540756225586e-02 -6.307756900787353516e-02 9.256584942340850830e-02 4.775273054838180542e-02 -1.526981443166732788e-01 -4.108691215515136719e-02 1.787909567356109619e-01 1.107783839106559753e-01 -1.113922614604234695e-02 -2.161294668912887573e-01 -7.017870992422103882e-02 1.261972337961196899e-01 -2.499597705900669098e-02 1.625730991363525391e-01 -1.806099861860275269e-01 1.669025421142578125e-01 -2.849044837057590485e-02 -2.999350242316722870e-02 -3.534193336963653564e-01 1.512025296688079834e-01 -7.398209720849990845e-02 2.348254248499870300e-02 2.508357726037502289e-02 -5.660093203186988831e-02 -3.891215100884437561e-02 3.298440948128700256e-02 -1.417397242039442062e-02 1.213467195630073547e-01 5.296689271926879883e-02 -9.431333281099796295e-03 -1.029625982046127319e-01 4.321300387382507324e-01 2.275642007589340210e-02 -2.293279021978378296e-01 1.765003353357315063e-01 6.003155931830406189e-02 -1.203541681170463562e-01 -3.762284177355468273e-04 -1.852862238883972168e-01 8.704013377428054810e-02 -2.274094382300972939e-03 5.093662999570369720e-03 -5.472804233431816101e-02 1.455173939466476440e-01 4.379095509648323059e-02 -7.043682970106601715e-03 -2.785785794258117676e-01 2.033054232597351074e-01 2.169307507574558258e-02 2.470287494361400604e-02 -3.003863058984279633e-02 1.542372852563858032e-01 -9.496116638183593750e-02 1.571985185146331787e-01 1.774336546659469604e-01 8.145703375339508057e-02 1.301223635673522949e-01 3.419850021600723267e-02 -1.552012376487255096e-02 -2.072677947580814362e-02 -8.001343160867691040e-02 -8.613220602273941040e-02 -2.555694058537483215e-02 -7.443214952945709229e-02 7.844912260770797729e-02 -6.041927635669708252e-02 3.718459978699684143e-02 2.771297097206115723e-01 1.716087013483047485e-01 -7.892981916666030884e-02 2.792565226554870605e-01 1.561842393130064011e-02 6.598498672246932983e-02 -2.145080417394638062e-01 -1.962994039058685303e-01 6.810588389635086060e-02 -1.442289799451828003e-01 -2.081239223480224609e-01 1.631843671202659607e-02 -2.309986501932144165e-01 1.077020317316055298e-01 -2.317743189632892609e-02 1.234647631645202637e-01 -2.122362703084945679e-01 -4.467875137925148010e-02 1.793054938316345215e-01 2.742402814328670502e-02 2.360427677631378174e-01 -4.749184846878051758e-02 -7.300192117691040039e-02 -1.644441634416580200e-01 2.591007947921752930e-01 -7.636896520853042603e-02 -1.633820123970508575e-02 5.487664416432380676e-02 1.631026715040206909e-02 1.994541883468627930e-01 1.489752903580665588e-02 1.024129539728164673e-01 -2.686906233429908752e-02 -1.716991215944290161e-01 2.786876857280731201e-01 -1.128841489553451538e-01 -2.144943773746490479e-01 -2.058441005647182465e-02 3.841119259595870972e-02 3.976502269506454468e-02 1.740143895149230957e-01 6.521905213594436646e-02 -2.939192205667495728e-02 -7.007943838834762573e-02 1.530561298131942749e-01 -2.384041436016559601e-02 -1.815319806337356567e-01 2.204116433858871460e-01 -1.058579683303833008e-01 1.395078152418136597e-01 -7.910268008708953857e-02 -6.793578714132308960e-02 -2.281195074319839478e-01 -3.189656510949134827e-02 1.088400855660438538e-01
-1.468959152698516846e-01 1.697910428047180176e-01 -5.316389724612236023e-04 2.571346163749694824e-01 -9.556845575571060181e-02 -4.151985049247741699e-02 -1.976443380117416382e-01 2.569063752889633179e-02 -2.088507823646068573e-02 1.167023461312055588e-02 -1.458594053983688354e-01 6.981375813484191895e-02 7.300942391157150269e-02 6.510248780250549316e-02 -7.982829958200454712e-02 -2.456569373607635498e-01 -3.157458826899528503e-02 3.332351446151733398e-01 1.279138326644897461e-01 2.630541920661926270e-01 -8.464922010898590088e-02 2.863697707653045654e-01 -4.914842918515205383e-02 -2.202886790037155151e-01 -2.078668177127838135e-01 -1.114023476839065552e-01 -1.641733795404434204e-01 -4.389405623078346252e-02 -8.119982667267322540e-04 -2.513018064200878143e-02 1.212547793984413147e-01 1.304516941308975220e-01 8.831909857690334320e-03 -4.370679333806037903e-02 -2.021156437695026398e-02 2.294315099716186523e-01 -2.095135748386383057e-01 -1.691800653934478760e-01 -6.006224080920219421e-02 1.364664733409881592e-01 3.657487928867340088e-01 3.188064694404602051e-02 -1.707166433334350586e-01 3.914027288556098938e-02 3.301075994968414307e-01 -3.131309896707534790e-02 -4.308476112782955170e-03 -4.545895010232925415e-02 -1.192321479320526123e-01 -1.446243673563003540e-01 -4.097865149378776550e-02 8.062549680471420288e-02 -3.462032377719879150e-01 -5.300946906208992004e-02 -1.303057819604873657e-01 -6.896162778139114380e-02 9.622274339199066162e-02 -2.178567051887512207e-01 1.204620674252510071e-02 -1.189623102545738220e-01 -8.057063817977905273e-02 1.989116966724395752e-01 8.019009232521057129e-02 2.321285754442214966e-01 -1.457055360078811646e-01 -1.056710332632064819e-01 2.346313744783401489e-01 9.256366640329360962e-03 -3.245200514793395996e-01 1.512994170188903809e-01 8.725503087043762207e-02 2.116641998291015625e-01 -7.127550989389419556e-02 -1.503097712993621826e-01 1.636291444301605225e-01 3.026410043239593506e-01 -9.836743026971817017e-02 -1.392490565776824951e-01 1.075064204633235931e-02 1.111876815557479858e-01 -2.688702642917633057e-01 8.278885483741760254e-02 7.322148885577917099e-03 -1.293185204267501831e-01 5.363088101148605347e-03 3.164053428918123245e-03 3.634895086288452148e-01 -1.485981196165084839e-01 6.886752694845199585e-02 -1.947586089372634888e-01 1.317237019538879395e-01 5.812535062432289124e-02 1.979902014136314392e-02 -5.778815597295761108e-02 -6.122396513819694519e-02 1.863170862197875977e-01 -4.961559176445007324e-02 -9.808102995157241821e-02 -8.332644402980804443e-02 -1.563459187746047974e-01 3.919263184070587158e-02 2.772637307643890381e-01 4.403332620859146118e-02 6.457715481519699097e-02 -1.013982966542243958e-01 -1.031846366822719574e-02 2.597676813602447510e-01 -2.288463562726974487e-01 -3.047732710838317871e-01 -5.860674381256103516e-02 -1.756059378385543823e-02 -1.749163269996643066e-01 3.139117062091827393e-01 1.268043965101242065e-01 9.567037224769592285e-02 8.815230429172515869e-02 -1.531691998243331909e-01 -3.444951772689819336e-01 8.494091778993606567e-02 5.565614253282546997e-02 2.988881617784500122e-02 -1.411705464124679565e-01 -4.877752438187599182e-02 1.451116800308227539e-01 1.747189015150070190e-01 2.035841494798660278e-01 1.829993911087512970e-02 -2.647674083709716797e-01
3.406454622745513916e-01 -2.418794669210910797e-02 6.843435019254684448e-02 -2.249823138117790222e-02 -9.905448555946350098e-02 -1.153737828135490417e-01 7.135248184204101562e-02 2.023448422551155090e-02 7.177837193012237549e-02 1.104998514056205750e-01 1.025582626461982727e-01 -6.322098523378372192e-02 -1.328659057617187500e-01 -1.576719433069229126e-01 3.210920989513397217e-01 1.037596985697746277e-01 3.821587190032005310e-03 -1.224458590149879456e-01 -3.257029503583908081e-02 -4.074485898017883301e-01 -7.653684169054031372e-02 -1.629920750856399536e-01 5.533789098262786865e-02 -5.285320058465003967e-02 1.476177722215652466e-01 -1.078485101461410522e-01 2.346525788307189941e-01 2.603739965707063675e-03 7.035113405436277390e-03 1.385030448436737061e-01 -2.407408356666564941e-01 -4.283275306224822998e-01 -3.123374283313751221e-01 -3.298288583755493164e-02 -4.660660773515701294e-02 -2.567841708660125732e-01 -2.371413111686706543e-01 3.337258473038673401e-02 1.242485120892524719e-01 4.523403644561767578e-01 1.053250879049301147e-01 -4.616698995232582092e-02 2.023641169071197510e-01 3.540272265672683716e-02 -2.942682206630706787e-01 3.629661202430725098e-01 -1.498177945613861084e-01 -8.419886976480484009e-02 -3.403889834880828857e-01 9.118832647800445557e-02 -1.290086954832077026e-01 -1.539964079856872559e-01 3.958147019147872925e-02 4.256272315979003906e-02 -4.878636449575424194e-02 -2.074223309755325317e-01 6.354872137308120728e-02 -1.550916284322738647e-01 6.757443398237228394e-02 -1.092805787920951843e-01 -1.226827055215835571e-01 6.648481637239456177e-02 1.627814769744873047e-01 -1.609633415937423706e-01 7.332587242126464844e-02 9.991962462663650513e-02 -9.795250743627548218e-02 2.144634164869785309e-02 4.826710000634193420e-02 1.116844126954674721e-03 -9.928657114505767822e-02 8.680456876754760742e-02 1.284548342227935791e-01 -8.321488648653030396e-02 -1.623144745826721191e-01 7.709167152643203735e-02 -1.269474178552627563e-01 1.876699030399322510e-01 -9.192416071891784668e-02 3.229733407497406006e-01 4.657470881938934326e-01 2.773066237568855286e-02 7.459668908268213272e-03 -4.210746288299560547e-02 1.472972482442855835e-01 1.085109263658523560e-01 7.766715437173843384e-02 -3.690748661756515503e-02 -6.872890144586563110e-02 1.199834942817687988e-01 -2.570724785327911377e-01 9.500691294670104980e-02 -7.059895247220993042e-02 1.575962081551551819e-02 3.087585270404815674e-01 6.270442157983779907e-02 6.130851805210113525e-03 2.982957959175109863e-01 1.926507651805877686e-01 -6.449718773365020752e-02 -2.015254646539688110e-01 -1.040966734290122986e-01 -1.903491765260696411e-01 -3.235271275043487549e-01 4.631811678409576416e-01 1.488605141639709473e-01 8.672519773244857788e-02 1.879325136542320251e-02 1.776118874549865723e-01 1.669902354478836060e-01 6.371743977069854736e-02 -3.220905736088752747e-02 -5.635506473481655121e-03 -1.078358218073844910e-01 1.822867095470428467e-01 2.731598615646362305e-01 6.106930598616600037e-02 -6.747722625732421875e-01 -5.264188162982463837e-03 -1.771815717220306396e-01 -2.131039649248123169e-01 1.034692898392677307e-01 2.335958629846572876e-01 1.963928788900375366e-01 1.621206253767013550e-01 -1.147700622677803040e-01 -1.350151654332876205e-02 -9.862003475427627563e-02
3.874994069337844849e-02 -1.743185520172119141e-01 -4.110329225659370422e-02 -1.587289012968540192e-02 -2.799747288227081299e-01 1.652774214744567871e-01 -4.469921812415122986e-02 -7.724177837371826172e-02 4.275508597493171692e-02 -2.760766074061393738e-02 -1.506050080060958862e-01 7.880941033363342285e-02 2.244460880756378174e-01 8.566227555274963379e-02 -1.899791210889816284e-01 2.713021636009216309e-01 -1.308641433715820312e-01 -1.011353954672813416e-01 -4.541696235537528992e-02 2.347366660833358765e-01 1.941652297973632812e-01 -4.954920709133148193e-02 -1.412297338247299194e-01 -3.205514252185821533e-01 2.940411269664764404e-01 5.509298667311668396e-02 3.012679517269134521e-02 7.487245649099349976e-02 6.450312212109565735e-03 5.868436023592948914e-02 -1.098028197884559631e-01 2.989775314927101135e-02 -9.141277521848678589e-03 -9.371998161077499390e-02 3.403314948081970215e-02 -2.673767209053039551e-01 1.786448210477828979e-01 1.732612848281860352e-01 -2.804735116660594940e-02 -3.016362488269805908e-01 4.397456347942352295e-01 -8.101454004645347595e-03 2.588849700987339020e-02 -7.642754912376403809e-02 2.312629222869873047e-01 -2.942617423832416534e-02 -1.180348172783851624e-01 1.956755965948104858e-01 2.246911525726318359e-01 -2.111877053976058960e-01 -4.886224493384361267e-02 -1.033645719289779663e-01 -8.936166763305664062e-02 8.262735605239868164e-02 1.283270679414272308e-02 -2.686632275581359863e-01 4.913779906928539276e-03 9.480955451726913452e-02 9.170878678560256958e-02 -3.536649513989686966e-03 2.236197441816329956e-01 1.091039329767227173e-01 2.674488425254821777e-01 -7.714422047138214111e-02 -7.674133777618408203e-02 -1.202445663511753082e-02 2.393911033868789673e-01 2.611228078603744507e-02 -1.343152523040771484e-01 1.358191221952438354e-01 -8.628754317760467529e-02 6.521350890398025513e-02 5.279374867677688599e-02 1.585633158683776855e-01 -6.880196928977966309e-01 2.194024175405502319e-01 1.703806035220623016e-02 -1.144017502665519714e-01 1.435912251472473145e-01 4.564903303980827332e-02 1.937202811241149902e-01 -8.206550776958465576e-02 5.457379855215549469e-03 -4.048741981387138367e-02 -2.881834656000137329e-02 2.295610606670379639e-01 -5.174859613180160522e-02 -6.002952158451080322e-02 3.244259580969810486e-02 -1.706136390566825867e-02 1.023411154747009277e-01 2.980269789695739746e-01 1.219452619552612305e-01 1.180439963936805725e-01 9.567853808403015137e-02 1.156307663768529892e-02 1.968032270669937134e-01 2.547779679298400879e-01 9.066879004240036011e-02 -1.296998411417007446e-01 -1.938140243291854858e-01 1.581127196550369263e-01 -3.437923267483711243e-02 2.572289705276489258e-01 -1.371696442365646362e-01 -2.599776387214660645e-01 7.216968806460499763e-04 -2.224723100662231445e-01 -1.206890195608139038e-01 -4.228487238287925720e-02 -1.101935505867004395e-01 5.260932445526123047e-02 -2.728304639458656311e-02 2.978023290634155273e-01 2.993546128273010254e-01 -1.509421020746231079e-01 -5.290454626083374023e-02 2.286943979561328888e-02 -2.443969696760177612e-01 1.092363428324460983e-02 -2.528600990772247314e-01 -2.888682670891284943e-02 -1.050822883844375610e-01 5.661075562238693237e-02 1.201051272801123559e-04 -1.528282761573791504e-01 1.172394603490829468e-01 -1.172933354973793030e-01
1.045828685164451599e-01 5.616645514965057373e-02 9.205850213766098022e-02 8.436618000268936157e-02 8.336769044399261475e-02 -9.511691518127918243e-03 -2.294852025806903839e-02 -9.709345549345016479e-02 -4.600054770708084106e-02 -1.102717518806457520e-01 -3.936101868748664856e-02 -1.720365583896636963e-01 2.103240340948104858e-01 -9.763575345277786255e-02 -4.624094441533088684e-02 -1.048920378088951111e-01 1.082158535718917847e-01 1.605693064630031586e-02 1.084311828017234802e-01 -8.570101112127304077e-02 -1.711852103471755981e-02 -1.697765439748764038e-01 -7.991196960210800171e-02 -1.323851197957992554e-01 -1.753434389829635620e-01 1.585168540477752686e-01 -1.310877501964569092e-02 6.599579751491546631e-02 2.843433432281017303e-02 -3.694231435656547546e-02 -4.483059048652648926e-02 2.681160569190979004e-01 7.937573641538619995e-02 6.149678677320480347e-02 5.019775032997131348e-02 1.318405419588088989e-01 -1.765774376690387726e-02 2.444642782211303711e-01 1.528335213661193848e-01 1.666002571582794189e-01 -7.316171377897262573e-02 -2.347915768623352051e-01 -8.244966715574264526e-02 7.014598697423934937e-02 -1.650408655405044556e-01 1.931730285286903381e-02 -5.496109649538993835e-02 -5.251665785908699036e-02 -2.929898202419281006e-01 6.688831001520156860e-02 -5.034684017300605774e-02 -3.332040458917617798e-02 -2.861392796039581299e-01 -3.971507400274276733e-02 2.755367755889892578e-02 -5.183750763535499573e-02 1.316971033811569214e-01 -1.117169857025146484e-01 5.170719698071479797e-02 -7.083172351121902466e-02 1.965630799531936646e-02 -6.778064370155334473e-02 -3.429260849952697754e-02 -6.498380005359649658e-02 3.871691972017288208e-02 -4.302185401320457458e-02 -1.061741709709167480e-01 -1.839174889028072357e-02 -6.297728419303894043e-02 -9.703371673822402954e-02 1.769896447658538818e-01 -3.279375657439231873e-02 8.468388020992279053e-02 -2.988148014992475510e-03 3.106288313865661621e-01 -5.318517982959747314e-02 1.470992565155029297e-01 2.233311682939529419e-01 6.987347267568111420e-03 1.200734637677669525e-02 -1.541212499141693115e-01 -7.026021834462881088e-03 8.721105009317398071e-02 -1.356656849384307861e-01 1.034662202000617981e-01 2.136750370264053345e-01 -4.747074469923973083e-02 -8.348210901021957397e-02 -1.619757115840911865e-01 -3.580057295039296150e-03 -1.442176103591918945e-01 1.362017355859279633e-02 -1.720072031021118164e-01 8.496880531311035156e-03 1.969200186431407928e-02 -1.545288562774658203e-01 -3.047395348548889160e-01 -9.935191273689270020e-02 -6.688991934061050415e-02 -1.453619897365570068e-01 -1.214051246643066406e-01 2.375976294279098511e-01 -2.561025619506835938e-01 -3.899665549397468567e-02 -2.225062698125839233e-01 2.365688234567642212e-01 3.376162424683570862e-02 3.559323493391275406e-03 3.915646672248840332e-02 2.858309447765350342e-01 7.558345049619674683e-02 1.170988194644451141e-02 2.457526698708534241e-02 1.185266003012657166e-01 1.127707511186599731e-01 8.218061923980712891e-02 2.988262847065925598e-02 -9.108056128025054932e-02 1.841576546430587769e-01 -1.486511379480361938e-01 5.203413963317871094e-02 1.435966938734054565e-01 7.250557839870452881e-02 8.100572228431701660e-02 8.897644281387329102e-02 -5.099431797862052917e-02 -2.299293726682662964e-01 -4.123279824852943420e-03
-1.726907677948474884e-02 -8.589800447225570679e-02 5.780466273427009583e-02 -6.632359325885772705e-02 -5.824194848537445068e-02 7.481545209884643555e-02 -5.100562795996665955e-02 -4.269817098975181580e-02 1.241916865110397339e-01 6.922701001167297363e-02 -5.876754876226186752e-03 3.458228707313537598e-02 -4.445554316043853760e-02 6.852442026138305664e-02 2.470977753400802612e-01 2.537950128316879272e-02 1.493981331586837769e-01 -8.652462065219879150e-02 -8.540102094411849976e-02 -4.580819234251976013e-02 -1.354398764669895172e-02 -5.469094589352607727e-02 5.207644030451774597e-02 5.897780135273933411e-02 -8.006928116083145142e-02 -2.332624644041061401e-01 -3.630048409104347229e-02 1.740853339433670044e-01 -7.430323958396911621e-02 -1.458436064422130585e-02 -5.719874054193496704e-03 -1.022603213787078857e-01 5.841609835624694824e-02 -1.067740693688392639e-01 -8.569224923849105835e-02 -1.277613341808319092e-01 3.437097184360027313e-03 2.699873968958854675e-02 -9.679608792066574097e-02 -8.389612287282943726e-02 1.496704518795013428e-01 1.804267317056655884e-01 3.834242373704910278e-02 -1.285331398248672485e-01 -2.687725126743316650e-01 -9.203953295946121216e-02 5.363437533378601074e-02 -5.505632236599922180e-02 -6.363641470670700073e-02 1.580475717782974243e-01 -1.141586899757385254e-01 1.853369921445846558e-02 9.457384794950485229e-02 -2.660587802529335022e-02 7.044140994548797607e-02 -2.851208671927452087e-03 -2.199619449675083160e-02 -8.844491839408874512e-02 -3.263180330395698547e-02 -1.802046038210391998e-02 -1.480059325695037842e-02 -1.167636550962924957e-02 -9.345918893814086914e-02 -5.008080974221229553e-02 1.949267648160457611e-02 1.353756487369537354e-01 2.116660028696060181e-02 4.687675833702087402e-02 -2.321592345833778381e-02 -4.448346793651580811e-02 -5.035179108381271362e-02 -3.175473213195800781e-02 4.048939049243927002e-02 -5.703463219106197357e-03 -5.074355006217956543e-02 1.211773678660392761e-01 -7.103087753057479858e-02 -1.538899168372154236e-02 7.709394395351409912e-02 1.575684994459152222e-01 8.965871483087539673e-02 9.671584516763687134e-02 8.436293341219425201e-03 6.004681810736656189e-02 6.549607496708631516e-04 -2.444286830723285675e-03 -1.911334097385406494e-01 1.350672841072082520e-01 -1.250163763761520386e-01 -2.501061651855707169e-03 -1.776984632015228271e-01 7.779705524444580078e-02 1.382093597203493118e-02 -7.097910344600677490e-02 -9.228606522083282471e-02 3.410882502794265747e-02 -5.899567157030105591e-02 1.441635340452194214e-01 -7.305170595645904541e-02 8.540140837430953979e-02 -4.067102447152137756e-02 -6.472538411617279053e-02 1.538906618952751160e-02 -5.951055139303207397e-02 2.204165756702423096e-01 7.917992770671844482e-02 -5.079820007085800171e-02 9.520553797483444214e-02 1.274542044848203659e-02 3.453828096389770508e-01 -1.708797551691532135e-02 3.045580349862575531e-03 -1.226412355899810791e-01 -5.266576632857322693e-02 -7.980388402938842773e-02 2.095890603959560394e-02 7.258194684982299805e-02 6.874264776706695557e-02 -2.351539023220539093e-02 -1.687491498887538910e-02 7.509290426969528198e-02 -1.111685633659362793e-01 4.077827557921409607e-02 2.020054683089256287e-02 -1.353226322680711746e-02 2.833348140120506287e-02 -3.615211695432662964e-02 3.914315253496170044e-02
2.328784614801406860e-01 -1.277307718992233276e-01 1.996499300003051758e-01 4.567497074604034424e-01 -7.591275125741958618e-02 6.750165671110153198e-02 1.808233410120010376e-01 1.038489416241645813e-01 -8.492031693458557129e-02 2.261620163917541504e-01 -4.800081998109817505e-02 -1.809575855731964111e-01 1.927495449781417847e-01 -4.707853794097900391e-01 8.934051543474197388e-02 -1.566049754619598389e-01 -2.017776519060134888e-01 -1.579151004552841187e-01 1.440819948911666870e-01 -2.912573516368865967e-01 2.043345123529434204e-01 9.844695776700973511e-02 3.611044585704803467e-02 -4.015592634677886963e-01 1.751288920640945435e-01 3.931677639484405518e-01 2.232800722122192383e-01 -4.589024558663368225e-02 -1.921409517526626587e-01 8.178923279047012329e-02 -3.050868213176727295e-01 3.088437020778656006e-01 1.755577623844146729e-01 2.878691554069519043e-01 1.475990470498800278e-02 3.488326370716094971e-01 2.752472758293151855e-01 -1.110507920384407043e-01 2.567550539970397949e-01 3.502482175827026367e-01 -2.735408246517181396e-01 -3.040984570980072021e-01 5.784865841269493103e-02 -4.542580246925354004e-02 1.302555054426193237e-01 -1.418088227510452271e-01 -2.891975641250610352e-01 -6.068994849920272827e-02 -1.208676993846893311e-01 -1.162435263395309448e-01 1.914047151803970337e-01 -1.873387992382049561e-01 -3.180649876594543457e-01 -3.898142278194427490e-02 1.258818525820970535e-02 -1.277867108583450317e-01 2.333262264728546143e-01 3.762610852718353271e-01 2.965666949748992920e-01 1.390599608421325684e-01 -2.657268345355987549e-01 -1.789474636316299438e-01 1.918566077947616577e-01 -6.098837777972221375e-02 -1.266233026981353760e-01 5.060214176774024963e-02 -3.315060138702392578e-01 5.099463462829589844e-01 7.977993041276931763e-02 -9.365544468164443970e-02 -5.878878757357597351e-03 1.188883110880851746e-01 -7.756690680980682373e-02 -3.021072447299957275e-01 1.244584545493125916e-01 9.797964245080947876e-02 4.311045259237289429e-02 5.019267797470092773e-01 -2.064397633075714111e-01 -2.011275738477706909e-01 -4.048029780387878418e-01 9.878819435834884644e-02 2.674407064914703369e-01 -9.848677366971969604e-02 -2.714151144027709961e-01 2.317566722631454468e-01 -6.555850058794021606e-02 -2.994287312030792236e-01 -1.106918081641197205e-01 -5.038928985595703125e-02 1.215827912092208862e-01 2.078958898782730103e-01 -2.724255621433258057e-02 1.621833741664886475e-01 -5.372616276144981384e-02 -3.730119466781616211e-01 9.021207690238952637e-02 -4.212534427642822266e-01 -8.686798391863703728e-04 -2.253699600696563721e-01 3.892661631107330322e-02 8.155697584152221680e-02 -9.212771058082580566e-02 -3.443273007869720459e-01 -6.723164767026901245e-02 5.378748103976249695e-02 5.274050310254096985e-02 -3.483005166053771973e-01 5.171069502830505371e-02 1.964462548494338989e-01 8.296668529510498047e-02 -3.565101325511932373e-02 -6.021730601787567139e-02 6.862757354974746704e-02 1.805077493190765381e-02 -1.408582478761672974e-01 -2.049820572137832642e-01 1.517042219638824463e-01 3.100155889987945557e-01 -5.457364916801452637e-01 3.042663261294364929e-02 -2.402934432029724121e-02 1.740323156118392944e-01 1.353551447391510010e-01 7.146353274583816528e-02 -9.627565741539001465e-02 1.029637753963470459e-01 -3.598886355757713318e-02
-1.641779243946075439e-01 -5.555602908134460449e-02 -1.755981594324111938e-01 -1.750310063362121582e-01 8.485174179077148438e-02 -3.607153519988059998e-02 -5.401149019598960876e-02 5.686366185545921326e-02 9.084164351224899292e-02 -1.147994250059127808e-01 1.251459419727325439e-01 1.197635680437088013e-01 -2.817856967449188232e-01 -7.046125829219818115e-02 1.180306542664766312e-02 2.471888065338134766e-02 -5.307640135288238525e-02 3.075540363788604736e-01 1.400523120537400246e-03 6.865081377327442169e-03 -2.038112431764602661e-01 -8.500529080629348755e-02 2.888154983520507812e-02 2.976766526699066162e-01 -3.455977737903594971e-01 -6.284328410401940346e-04 -3.319334387779235840e-01 -1.901040412485599518e-02 5.146721005439758301e-02 -2.969179153442382812e-01 1.617553234100341797e-01 1.146795973181724548e-01 -3.897819519042968750e-01 -2.195851877331733704e-02 8.505674451589584351e-02 5.076084285974502563e-03 -4.005271196365356445e-01 -1.181016117334365845e-01 -6.331567466259002686e-02 1.320781372487545013e-02 -9.978929534554481506e-03 1.138478368520736694e-01 -1.933665946125984192e-02 3.063822984695434570e-01 6.745921075344085693e-02 1.151849776506423950e-01 2.383927069604396820e-02 6.426007300615310669e-02 8.452011644840240479e-02 5.672402307391166687e-02 4.999958351254463196e-02 7.596433162689208984e-02 8.912509679794311523e-02 3.034759499132633209e-02 -1.159421280026435852e-01 -1.623866334557533264e-02 -1.112474277615547180e-01 -2.834849953651428223e-01 -1.186461225152015686e-01 -2.741224132478237152e-02 -3.256735503673553467e-01 1.328808516263961792e-01 -2.920039743185043335e-02 1.743325740098953247e-01 5.102200433611869812e-02 1.269696950912475586e-01 2.807088494300842285e-01 -2.933073937892913818e-01 -8.420059829950332642e-02 1.662692576646804810e-01 1.155816242098808289e-01 4.087738692760467529e-03 -1.132089868187904358e-01 4.795899242162704468e-02 2.203055024147033691e-01 -3.231394290924072266e-01 1.312761157751083374e-01 -3.580208718776702881e-01 -5.671264976263046265e-02 -5.012439191341400146e-02 5.778936743736267090e-01 -7.369609922170639038e-02 -9.592770598828792572e-03 2.228220850229263306e-01 2.715834677219390869e-01 -2.318472415208816528e-01 2.342508137226104736e-01 1.017258465290069580e-01 3.031612336635589600e-01 -2.424214966595172882e-02 5.040744319558143616e-02 -3.077455163002014160e-01 1.753910779953002930e-01 -1.492461264133453369e-01 2.801814377307891846e-01 3.280235528945922852e-01 -4.976484179496765137e-02 -4.581008478999137878e-02 -9.810745716094970703e-02 7.812158670276403427e-03 7.013250887393951416e-02 -1.344991847872734070e-02 1.107755899429321289e-01 1.696449369192123413e-01 -2.224899232387542725e-01 -1.641058176755905151e-01 1.456192135810852051e-02 1.151593923568725586e-01 3.231256306171417236e-01 -3.079094886779785156e-01 -1.927061825990676880e-01 -8.606952428817749023e-02 1.500308662652969360e-01 -9.976383298635482788e-03 -2.372396737337112427e-02 2.061718106269836426e-01 -2.087024003267288208e-01 -2.779716849327087402e-01 2.561734989285469055e-02 4.084437191486358643e-01 -3.472568392753601074e-01 1.859525889158248901e-01 -3.225336968898773193e-01 -9.406425058841705322e-02 7.266217842698097229e-03 1.912160366773605347e-01 9.542919695377349854e-02 5.124508962035179138e-02
-2.212229818105697632e-01 2.392503246665000916e-02 -1.351989060640335083e-01 4.046689867973327637e-01 2.803621292114257812e-01 -6.101024150848388672e-02 -6.532057374715805054e-02 -2.643335238099098206e-02 -1.409862935543060303e-01 -6.945952773094177246e-03 -7.042762637138366699e-02 1.073673889040946960e-01 2.623854391276836395e-02 3.161262487992644310e-03 9.466472268104553223e-02 6.167034804821014404e-02 1.215060725808143616e-01 -1.649274975061416626e-01 -6.345084309577941895e-02 2.543167909607291222e-03 9.833473712205886841e-02 -2.225658744573593140e-01 7.976705580949783325e-02 1.286559551954269409e-01 -1.312541365623474121e-01 1.143630668520927429e-01 1.096961926668882370e-02 -7.974477484822273254e-03 -6.543546915054321289e-02 -7.068163901567459106e-02 -1.498815417289733887e-01 -6.724149733781814575e-02 -1.946001797914505005e-01 -5.225218087434768677e-02 -1.057048514485359192e-02 2.176695317029953003e-01 2.082158178091049194e-01 -1.677166484296321869e-02 1.450922619551420212e-02 4.781324043869972229e-02 -2.070469558238983154e-01 -3.061706433072686195e-03 -7.670683413743972778e-02 -7.839349657297134399e-02 -3.703206181526184082e-01 -5.010452270507812500e-01 1.110747531056404114e-01 -1.707997471094131470e-01 -1.914454102516174316e-01 5.490476265549659729e-02 -1.014298126101493835e-01 1.012613326311111450e-01 4.711592197418212891e-02 2.121911011636257172e-02 1.615387201309204102e-01 -2.250322885811328888e-02 -6.976191420108079910e-03 -8.648255467414855957e-02 1.997758448123931885e-02 -5.402632057666778564e-03 -6.262318044900894165e-02 7.192958146333694458e-02 3.769578039646148682e-01 1.097254455089569092e-01 9.825418144464492798e-02 1.367956399917602539e-01 -9.334909170866012573e-02 6.082027405500411987e-02 -1.054194793105125427e-01 -4.607418924570083618e-02 -8.203963190317153931e-02 -1.787016242742538452e-01 4.622703418135643005e-02 -2.517521679401397705e-01 2.064776122570037842e-01 2.137736082077026367e-01 -1.592540144920349121e-01 6.431569159030914307e-02 3.512261062860488892e-02 -2.950200438499450684e-01 1.367553770542144775e-01 1.312987506389617920e-02 1.272489037364721298e-02 8.043340593576431274e-02 3.348545357584953308e-02 -1.659126579761505127e-02 -2.173241525888442993e-01 9.253165870904922485e-02 -1.007428020238876343e-01 2.145926207304000854e-01 2.020104080438613892e-01 2.344823628664016724e-02 1.271265447139739990e-01 -5.614395067095756531e-02 -1.662077158689498901e-01 1.022842302918434143e-01 2.142362482845783234e-02 -3.709358572959899902e-01 -9.464996308088302612e-02 8.161070197820663452e-02 2.717065513134002686e-01 -2.374398708343505859e-02 -9.444731287658214569e-03 1.779307425022125244e-01 1.919848173856735229e-01 2.143500894308090210e-01 1.519111692905426025e-01 -6.842629611492156982e-02 4.054111242294311523e-01 -2.838278561830520630e-02 -2.025295794010162354e-02 -1.141288578510284424e-01 5.656580626964569092e-02 -2.488542348146438599e-01 -5.670036748051643372e-02 -1.027931571006774902e-01 1.179413646459579468e-01 -7.518037408590316772e-02 1.208094879984855652e-01 3.875077515840530396e-02 5.193737894296646118e-02 4.259750247001647949e-02 2.557062804698944092e-01 -1.239087954163551331e-01 -2.218261919915676117e-02 5.073758587241172791e-02 -3.393403813242912292e-02 1.584437936544418335e-01
