-1.374350581318140030e-02
-1.409261859953403473e-02
1.558587700128555298e-02
-1.341131702065467834e-02
-6.486888229846954346e-02
1.080845110118389130e-02
2.016979828476905823e-02
8.613019250333309174e-03
-2.515213191509246826e-02
2.892505750060081482e-02
1.047876924276351929e-01
-1.234731450676918030e-02
4.490792378783226013e-02
1.919152773916721344e-02
-1.250845193862915039e-02
2.522794716060161591e-02
4.055287688970565796e-02
1.369291637092828751e-02
1.412616949528455734e-02
-3.684565890580415726e-03
8.127824217081069946e-02
-1.132668461650609970e-02
-3.014659695327281952e-02
-4.992167465388774872e-03
-5.537490919232368469e-02
-3.222380951046943665e-02
2.136221528053283691e-02
3.260067850351333618e-02
2.283066324889659882e-02
-5.366080254316329956e-02
2.725682966411113739e-02
3.672705963253974915e-02
-4.534382373094558716e-02
8.074045926332473755e-02
-2.055743522942066193e-02
-2.609514072537422180e-02
-7.902660220861434937e-02
2.810990624129772186e-02
-2.639605477452278137e-02
-1.915316283702850342e-02
5.158980935811996460e-02
-3.481473773717880249e-02
-3.692536149173974991e-03
-9.006236679852008820e-03
2.809506654739379883e-02
-3.202452883124351501e-02
3.333654999732971191e-02
4.120219126343727112e-02
-1.635322161018848419e-02
4.394928738474845886e-02
5.913643632084131241e-03
-3.582067415118217468e-02
1.043776720762252808e-01
-6.292982492595911026e-03
-1.804620958864688873e-02
2.254785783588886261e-02
-1.897866837680339813e-02
-2.000784128904342651e-02
-1.168113946914672852e-02
1.755227521061897278e-02
4.608406871557235718e-02
2.802338637411594391e-02
-1.680828630924224854e-02
5.104386433959007263e-02
6.818771362304687500e-02
-2.389908768236637115e-02
1.839376427233219147e-02
-5.029447749257087708e-02
2.708098664879798889e-02
-5.198824405670166016e-02
-3.463743999600410461e-02
-3.966890275478363037e-02
-3.161022812128067017e-02
2.077415026724338531e-02
-4.894023016095161438e-02
-4.815375432372093201e-02
-6.472190469503402710e-02
5.231811851263046265e-02
-2.926643472164869308e-03
4.904408380389213562e-02
4.872136563062667847e-02
-4.915865883231163025e-02
-6.609824020415544510e-03
1.686540246009826660e-02
-1.440309733152389526e-02
-4.062555357813835144e-02
-8.307692594826221466e-03
-1.260941289365291595e-02
-4.799507558345794678e-02
-7.126155542209744453e-04
4.286509007215499878e-02
4.425987228751182556e-02
4.874947667121887207e-02
4.254893958568572998e-02
1.049097161740064621e-02
-4.738588631153106689e-02
-2.826983481645584106e-02
-2.160370536148548126e-02
2.929852716624736786e-02
4.476766288280487061e-02
2.085268683731555939e-02
-3.348610177636146545e-02
3.433939069509506226e-02
-3.525920957326889038e-02
-7.955416105687618256e-03
-2.519753761589527130e-02
-4.254836216568946838e-02
-4.908991605043411255e-02
-5.473007261753082275e-02
5.503617599606513977e-02
-1.421682070940732956e-02
-5.215475335717201233e-02
-2.969246357679367065e-02
3.004755079746246338e-02
-2.626133523881435394e-02
-7.326373457908630371e-02
5.616380274295806885e-02
-4.382523149251937866e-02
3.379459679126739502e-02
2.327248640358448029e-02
2.566714026033878326e-02
-1.146212145686149597e-01
2.839589305222034454e-02
2.988143265247344971e-02
3.106738813221454620e-02
-4.543215502053499222e-03
-4.275252297520637512e-02
4.662783071398735046e-02
