-2.335193008184432983e-01
-6.093459203839302063e-02
-6.232841312885284424e-02
-2.597137093544006348e-01
-1.990412473678588867e-01
6.604535877704620361e-02
2.029802203178405762e-01
9.051127731800079346e-02
-9.691726416349411011e-02
3.185845911502838135e-01
2.854889929294586182e-01
-8.247613161802291870e-02
5.850942060351371765e-02
-7.405541837215423584e-02
2.671736776828765869e-01
1.217255443334579468e-01
1.027945652604103088e-01
3.350263237953186035e-01
3.071909248828887939e-01
-2.933499217033386230e-01
5.192577466368675232e-02
3.522782325744628906e-01
-3.018830120563507080e-01
2.106895670294761658e-02
-2.213264256715774536e-01
-2.393651008605957031e-01
-2.157171517610549927e-01
4.637545347213745117e-02
-2.570266425609588623e-01
-2.418840974569320679e-01
8.203101903200149536e-02
2.883181571960449219e-01
-2.061453759670257568e-01
1.361908018589019775e-01
-1.940099895000457764e-01
-2.523364126682281494e-01
-2.940291166305541992e-01
2.120831012725830078e-01
7.916031032800674438e-02
-3.331311643123626709e-01
2.841764986515045166e-01
-9.340394288301467896e-02
2.416173368692398071e-01
1.550396531820297241e-01
2.093102633953094482e-01
-2.112886607646942139e-01
2.719969451427459717e-01
1.192364245653152466e-01
-6.697709858417510986e-02
2.626974284648895264e-01
1.714578596875071526e-03
-9.709163755178451538e-02
3.781419619917869568e-02
1.926081329584121704e-01
-2.307316064834594727e-01
2.425760179758071899e-01
-2.107797563076019287e-01
2.116230502724647522e-02
-3.591577410697937012e-01
7.981198281049728394e-02
3.132870495319366455e-01
2.157313674688339233e-01
-2.053032219409942627e-01
1.448716968297958374e-01
2.476402819156646729e-01
-9.896499663591384888e-02
2.345227450132369995e-01
-2.000824958086013794e-01
1.456276625394821167e-01
-1.122020706534385681e-01
-5.096296668052673340e-01
-2.859707549214363098e-02
-1.837698072195053101e-01
2.077471613883972168e-01
-3.882049918174743652e-01
-1.365529447793960571e-01
-4.037716984748840332e-01
1.828560084104537964e-01
1.225732825696468353e-02
1.948403865098953247e-01
1.402576118707656860e-01
-3.304641544818878174e-01
-2.278650552034378052e-01
1.984057575464248657e-02
-1.665058284997940063e-01
-3.397584557533264160e-01
4.772502288687974215e-04
-1.423262953758239746e-01
-3.161404728889465332e-01
2.930901646614074707e-01
3.136857450008392334e-01
1.341742575168609619e-01
1.980255693197250366e-01
1.871404051780700684e-01
1.598230451345443726e-01
-2.350664585828781128e-01
-2.773802876472473145e-01
-2.366291135549545288e-01
1.289117336273193359e-01
3.644020259380340576e-01
1.035907194018363953e-01
-2.090422660112380981e-01
3.191440403461456299e-01
-1.471986770629882812e-01
8.646289259195327759e-02
-5.927273631095886230e-02
6.429012119770050049e-02
-2.753537707030773163e-02
-2.392086535692214966e-01
1.213371455669403076e-01
-1.153210178017616272e-01
-1.736132353544235229e-01
-2.743037641048431396e-01
1.341927051544189453e-01
-2.792227566242218018e-01
-2.598702013492584229e-01
2.620337903499603271e-01
-1.069434359669685364e-01
1.008604988455772400e-01
3.782869875431060791e-01
1.981407105922698975e-01
-1.482473313808441162e-01
3.960454091429710388e-02
3.907381892204284668e-01
1.592375934123992920e-01
-1.911769658327102661e-01
-1.316366791725158691e-01
1.766511648893356323e-01
