-3.205892071127891541e-02 1.049757823348045349e-01 3.333349898457527161e-02 1.159774418920278549e-02 2.264124453067779541e-01 -8.362700790166854858e-02 -1.009336411952972412e-01 8.698034286499023438e-02 -7.430636882781982422e-02 -3.468776494264602661e-02 -8.994630724191665649e-02 -1.002191826701164246e-01 -1.410918384790420532e-01 -1.331833750009536743e-01 -1.182588934898376465e-01 -2.066052705049514771e-01 -5.091617256402969360e-02 -4.676463454961776733e-02 1.598736643791198730e-01 1.315013468265533447e-01 -1.661940366029739380e-01 -1.255186200141906738e-01 8.304881863296031952e-03 -5.062643438577651978e-02 8.087629824876785278e-02 7.018592208623886108e-02 -7.771974802017211914e-02 -3.328169882297515869e-02 3.157588541507720947e-01 -1.744829416275024414e-01 1.711692959070205688e-01 2.299924939870834351e-01 1.390656083822250366e-01 1.922170072793960571e-01 6.906860508024692535e-04 1.332842111587524414e-01 -1.770787984132766724e-01 -5.894174054265022278e-02 5.890541523694992065e-02 1.326478421688079834e-01 -1.768220067024230957e-01 1.806144714355468750e-01 -9.880734980106353760e-02 1.371412277221679688e-01 -8.083604276180267334e-02 9.255233220756053925e-03 -2.762852050364017487e-02 1.320127118378877640e-02 -1.234383955597877502e-01 -1.617606580257415771e-01 -6.773617863655090332e-02 -1.579568237066268921e-01 1.103637591004371643e-01 1.847366541624069214e-01 1.267802119255065918e-01 2.354685030877590179e-02 1.160342544317245483e-01 -1.711611300706863403e-01 3.062501084059476852e-03 -4.098803997039794922e-01 -6.027097627520561218e-02 -1.666318029165267944e-01 2.303330451250076294e-01 1.486813277006149292e-01 5.986839905381202698e-02 1.153098270297050476e-01 6.634165998548269272e-03 -8.344183862209320068e-02 -9.613072872161865234e-02 7.062327349558472633e-04 2.675764448940753937e-02 4.386882856488227844e-02 1.788853295147418976e-02 1.799869723618030548e-02 1.753561198711395264e-02 -1.209028959274291992e-01 1.163683310151100159e-01 -1.837048120796680450e-02 -4.538157209753990173e-02 8.328893035650253296e-02 -1.213296223431825638e-02 -2.434075176715850830e-01 -4.421163350343704224e-02 1.348611246794462204e-02 -2.114218473434448242e-02 -3.539867233484983444e-03 1.877912878990173340e-01 1.731455028057098389e-01 3.569635450839996338e-01 -1.280977725982666016e-01 1.229349896311759949e-02 3.199336677789688110e-02 2.571291029453277588e-01 1.538779288530349731e-01 1.393923908472061157e-02 -1.077729538083076477e-01 1.047109253704547882e-02 -2.332073599100112915e-01 -4.969590529799461365e-02 -2.324406206607818604e-01 8.172370493412017822e-02 1.168839335441589355e-01 -2.260949760675430298e-01 1.846302449703216553e-01 -6.478524208068847656e-02 5.330509040504693985e-03 -7.164937257766723633e-02 -4.149517416954040527e-02 2.332696467638015747e-01 -1.893894970417022705e-01 -1.804668903350830078e-01 -1.594915986061096191e-01 -9.866424649953842163e-02 5.647243559360504150e-02 -2.302503883838653564e-01 1.520066112279891968e-01 1.388237029314041138e-01 3.262353315949440002e-02 1.824552267789840698e-01 -6.076410040259361267e-02 1.234126165509223938e-01 1.849052757024765015e-01 -1.857411349192261696e-03 -2.951664030551910400e-01 2.819059789180755615e-02 7.165039330720901489e-02 1.294260770082473755e-01 2.868854440748691559e-02
7.998859137296676636e-02 -7.471793144941329956e-02 1.393054127693176270e-01 -5.766122136265039444e-03 -3.501090779900550842e-02 -1.370338052511215210e-01 7.843310385942459106e-02 -2.072008103132247925e-01 6.455838680267333984e-02 7.909547537565231323e-02 -6.104269996285438538e-02 -4.515105485916137695e-02 6.635974347591400146e-02 -3.128335112705826759e-03 -1.679268628358840942e-01 -2.374336421489715576e-01 2.028933763504028320e-01 -1.281927973031997681e-01 5.062093585729598999e-02 -1.377347856760025024e-01 -6.656676530838012695e-02 2.810657918453216553e-01 1.847204118967056274e-01 1.632945053279399872e-02 -2.944299485534429550e-03 -9.828712046146392822e-02 -8.231077343225479126e-02 5.385056138038635254e-02 -1.877916976809501648e-02 9.989720582962036133e-02 1.072079166769981384e-01 2.617236673831939697e-01 -6.181949749588966370e-02 -7.368589751422405243e-03 1.754765063524246216e-01 -2.966884374618530273e-01 -5.664656311273574829e-02 7.236928492784500122e-02 6.032587215304374695e-02 -1.257768124341964722e-01 -9.922149777412414551e-02 1.456609368324279785e-01 -1.817099750041961670e-01 7.814457267522811890e-02 6.434293091297149658e-02 -7.554406672716140747e-02 6.725231558084487915e-02 1.501348167657852173e-01 -1.037655211985111237e-02 -1.172688324004411697e-02 -1.164371520280838013e-01 -6.841711699962615967e-03 7.459699362516403198e-02 -1.215364318341016769e-02 -8.530607074499130249e-02 -1.035561971366405487e-02 -2.265667766332626343e-01 -1.283925920724868774e-01 -6.190676614642143250e-02 -1.662479043006896973e-01 1.001471206545829773e-01 5.667110159993171692e-02 1.338269412517547607e-01 3.354216367006301880e-02 -1.094009354710578918e-01 -5.970316380262374878e-02 1.080031394958496094e-01 3.175914287567138672e-02 1.592439711093902588e-01 4.774918779730796814e-02 3.039904870092868805e-02 2.681309282779693604e-01 8.420111984014511108e-02 8.166494220495223999e-02 -2.469812184572219849e-01 6.630518287420272827e-02 -2.454562671482563019e-02 -3.144027292728424072e-02 2.069002091884613037e-01 -2.921664528548717499e-02 -8.138584345579147339e-02 -1.336795836687088013e-01 -5.513490363955497742e-02 -2.998965233564376831e-02 9.143833816051483154e-02 -2.248292788863182068e-02 1.495444327592849731e-01 -1.351645588874816895e-01 -3.536153212189674377e-02 2.750066220760345459e-01 2.412165701389312744e-01 3.030279092490673065e-02 6.470350176095962524e-02 -3.552936017513275146e-02 4.088528081774711609e-02 -4.017239436507225037e-02 4.485815390944480896e-02 1.149791199713945389e-02 -9.115958213806152344e-02 1.700070649385452271e-01 -1.017473712563514709e-01 3.669807314872741699e-02 6.754112243652343750e-02 -4.474937543272972107e-02 -9.125730395317077637e-02 -1.288078874349594116e-01 2.723435163497924805e-01 -8.702092617750167847e-02 -1.899636350572109222e-02 3.852686583995819092e-01 2.496961355209350586e-01 1.496386826038360596e-01 -1.382490694522857666e-01 -3.007578290998935699e-02 2.542326748371124268e-01 -2.610612213611602783e-01 1.682456932030618191e-03 -3.609760105609893799e-01 -2.363475561141967773e-01 -7.022459059953689575e-02 1.570770889520645142e-01 -8.836080878973007202e-02 1.238779500126838684e-01 -1.566200256347656250e-01 -4.433257132768630981e-02 -2.171408683061599731e-01 1.671112477779388428e-01 -8.461271971464157104e-02
-1.240975111722946167e-01 1.139073539525270462e-02 3.173502162098884583e-02 7.433686405420303345e-02 -4.826905578374862671e-02 2.749365009367465973e-02 -8.113078773021697998e-02 -1.982607245445251465e-01 -5.840625613927841187e-02 7.545660436153411865e-02 -1.377152651548385620e-01 4.969491064548492432e-02 2.866635099053382874e-03 -7.377316802740097046e-02 1.069696322083473206e-01 1.714947074651718140e-02 -1.475680470466613770e-01 -6.053194776177406311e-02 -2.323075234889984131e-01 -1.559949368238449097e-01 -1.059433221817016602e-01 -2.687135152518749237e-02 2.933933399617671967e-02 2.629762589931488037e-01 -1.177097335457801819e-01 -4.913051147013902664e-03 -4.334404133260250092e-03 -2.465591430664062500e-01 -1.588158607482910156e-01 2.125933170318603516e-01 -1.208181027323007584e-02 9.110581874847412109e-02 2.403544634580612183e-01 1.567266434431076050e-01 -1.011063382029533386e-01 -6.083259731531143188e-02 2.676229774951934814e-01 -2.890290319919586182e-02 1.666809022426605225e-01 2.145940661430358887e-01 1.061466485261917114e-01 9.532932937145233154e-02 8.684476464986801147e-02 2.635116921737790108e-03 -1.554047912359237671e-01 2.992309443652629852e-02 4.929101094603538513e-02 7.494083791971206665e-02 4.678743705153465271e-02 -7.733805477619171143e-02 3.599177896976470947e-01 5.898164585232734680e-03 7.994636893272399902e-03 -1.430526077747344971e-01 2.716659307479858398e-01 -7.582633197307586670e-02 -2.230677194893360138e-02 -5.690106004476547241e-02 3.295911103487014771e-02 4.546448215842247009e-02 7.238607108592987061e-02 2.164116315543651581e-02 -2.944357227534055710e-03 -1.982480138540267944e-01 -1.952007599174976349e-02 1.224701553583145142e-01 -2.554313838481903076e-01 2.607933282852172852e-01 5.555469077080488205e-03 -3.704785183072090149e-02 3.242163360118865967e-01 1.769998073577880859e-01 -4.212428629398345947e-02 -2.061858028173446655e-01 -1.637732088565826416e-01 3.009055256843566895e-01 1.298235803842544556e-01 -9.619695693254470825e-02 -1.381106376647949219e-01 2.061526291072368622e-02 -3.271837159991264343e-02 7.331138849258422852e-02 5.702560767531394958e-02 -1.499191969633102417e-01 -9.285115450620651245e-02 -1.353218555450439453e-01 -3.288332745432853699e-02 -2.573935780674219131e-03 -3.459610044956207275e-02 -3.103025071322917938e-02 -5.245381221175193787e-02 7.099408656358718872e-02 -1.127718463540077209e-01 5.722024943679571152e-03 1.504326518625020981e-02 -1.827101968228816986e-02 -5.954736471176147461e-02 -1.130094602704048157e-01 9.165330231189727783e-02 2.186729107052087784e-03 -3.178329169750213623e-01 -1.871467977762222290e-01 1.313046514987945557e-01 -9.471179544925689697e-02 -1.295471787452697754e-01 1.354442536830902100e-01 2.079563140869140625e-01 -1.140092611312866211e-01 2.112864106893539429e-01 6.076241284608840942e-02 1.251196712255477905e-01 -2.372774109244346619e-02 -4.996547102928161621e-02 -2.511216700077056885e-01 -1.083965413272380829e-02 -8.710850030183792114e-02 -1.266977488994598389e-01 2.406607270240783691e-01 1.162152141332626343e-01 4.907608032226562500e-03 1.882953345775604248e-01 3.456367552280426025e-02 -5.085028707981109619e-02 4.192111268639564514e-02 -6.346876919269561768e-02 -1.091793701052665710e-01 1.082421317696571350e-01 8.368694782257080078e-02
-4.050248302519321442e-03 2.238195538520812988e-01 3.070564270019531250e-01 1.074246987700462341e-01 6.250844150781631470e-02 -4.419893771409988403e-02 -1.893905848264694214e-01 2.605581283569335938e-01 -1.153312623500823975e-01 1.806975342333316803e-02 -2.270901203155517578e-01 -1.136455219238996506e-02 -8.138587325811386108e-02 2.058128267526626587e-01 4.901682585477828979e-02 -5.207975208759307861e-02 5.079501122236251831e-02 6.159559264779090881e-02 -1.002188250422477722e-01 -8.053802698850631714e-02 -8.383771032094955444e-02 7.271356880664825439e-02 1.970041356980800629e-02 7.289064116775989532e-03 9.141842275857925415e-02 9.801606833934783936e-02 -1.705773472785949707e-01 -1.375678740441799164e-02 -1.568821072578430176e-01 -8.007477223873138428e-02 3.151257336139678955e-02 -1.533283889293670654e-01 -9.567395597696304321e-02 3.762188553810119629e-02 -1.463101506233215332e-01 -2.531334944069385529e-02 1.459269784390926361e-02 2.562830746173858643e-01 -9.209219366312026978e-02 -2.364174872636795044e-01 2.337988913059234619e-01 7.346564531326293945e-02 -1.570634730160236359e-02 1.823387891054153442e-01 -4.856572672724723816e-02 -2.206694781780242920e-01 -1.018254533410072327e-01 -2.714234404265880585e-02 9.935837984085083008e-02 1.105028018355369568e-01 -1.218065544962882996e-01 7.859028875827789307e-02 2.160139530897140503e-01 -1.886730194091796875e-01 8.325679600238800049e-02 7.545121759176254272e-02 -2.744934558868408203e-01 2.662443555891513824e-02 -1.700673550367355347e-01 1.676175557076931000e-02 -1.431599631905555725e-02 -8.283920586109161377e-03 1.274771839380264282e-01 2.999915778636932373e-01 1.128810867667198181e-01 -8.847795426845550537e-02 -5.504226312041282654e-02 -1.655327081680297852e-01 7.943839579820632935e-02 -1.058557704091072083e-01 -2.992579527199268341e-02 -2.959918975830078125e-01 4.137119650840759277e-02 1.516576707363128662e-01 6.000714749097824097e-02 4.725098982453346252e-02 2.990094386041164398e-02 2.286337018013000488e-01 -3.947445377707481384e-02 2.770328521728515625e-01 -1.120114773511886597e-01 1.837137714028358459e-02 -6.464815698564052582e-03 1.727022379636764526e-01 1.278254017233848572e-02 -2.530560195446014404e-01 -2.492573298513889313e-02 6.091739982366561890e-03 1.535085886716842651e-01 1.332820802927017212e-01 2.161548137664794922e-01 -3.519104793667793274e-02 1.950596272945404053e-01 -5.261748656630516052e-02 1.584012433886528015e-02 8.284883201122283936e-02 -2.050144970417022705e-01 6.362737715244293213e-02 -1.375324837863445282e-02 1.535832788795232773e-02 1.510407868772745132e-02 -2.720267176628112793e-01 -2.581381238996982574e-02 1.651967130601406097e-02 -3.915769979357719421e-02 5.604139342904090881e-02 3.516639396548271179e-02 1.357521265745162964e-01 2.666215971112251282e-02 5.095508322119712830e-02 -1.727272868156433105e-01 2.987034432590007782e-02 5.717866495251655579e-02 1.785416603088378906e-01 7.463449146598577499e-03 9.010965004563331604e-03 3.400100767612457275e-02 -1.884768903255462646e-01 1.428479049354791641e-02 1.263263523578643799e-01 1.495815366506576538e-01 -1.266265511512756348e-01 1.150955706834793091e-01 4.246049746870994568e-02 -2.133017182350158691e-01 -5.207048356533050537e-02 -2.369462549686431885e-01 1.377902776002883911e-01
2.325885444879531860e-01 1.616943068802356720e-02 -1.862530782818794250e-02 -2.030479460954666138e-01 -8.276752196252346039e-03 -1.285156905651092529e-01 1.918104588985443115e-01 1.546495710499584675e-03 1.718297600746154785e-01 1.746508628129959106e-01 4.231616482138633728e-02 -1.055077463388442993e-01 -6.295474618673324585e-02 1.452370434999465942e-01 -8.042737841606140137e-02 6.934360414743423462e-02 -1.569441705942153931e-02 -1.127791777253150940e-01 -1.999135501682758331e-02 6.213493645191192627e-02 5.651382356882095337e-02 -2.791860103607177734e-01 1.485449522733688354e-01 1.672258973121643066e-01 2.773365564644336700e-02 1.932411044836044312e-01 1.755074597895145416e-02 5.943470448255538940e-02 2.430549412965774536e-01 -1.765670627355575562e-02 3.496925532817840576e-02 1.374253630638122559e-01 1.745741516351699829e-01 1.181495115160942078e-01 5.073022097349166870e-02 1.817532181739807129e-01 -8.185476809740066528e-02 -2.385053969919681549e-02 -9.697163105010986328e-02 1.064446568489074707e-01 -1.931745186448097229e-02 2.020061761140823364e-01 -1.634702235460281372e-01 -1.596294157207012177e-02 -1.440046131610870361e-01 4.648956283926963806e-02 -8.509150147438049316e-02 -1.376658082008361816e-01 3.809521719813346863e-02 -2.741090394556522369e-02 -4.680516198277473450e-02 5.821107700467109680e-02 -1.703507751226425171e-01 -3.733021318912506104e-01 2.670125663280487061e-01 -2.017404884099960327e-02 1.677855998277664185e-01 2.076057940721511841e-01 2.475710660219192505e-01 -9.368294477462768555e-02 9.226576238870620728e-02 -1.201231628656387329e-01 2.272662371397018433e-01 -3.636626601219177246e-01 2.197456061840057373e-01 7.819698750972747803e-02 -4.499317333102226257e-02 1.938932538032531738e-01 9.112229198217391968e-02 -8.457525074481964111e-02 2.909251451492309570e-01 -8.138518035411834717e-02 -2.524628937244415283e-01 -8.786455541849136353e-02 -9.056745097041130066e-03 1.777936369180679321e-01 -2.108757048845291138e-01 -1.177124008536338806e-01 -3.451394662261009216e-02 -5.283210426568984985e-02 5.053333565592765808e-02 2.983163893222808838e-01 8.853629976511001587e-02 1.131969764828681946e-01 -1.987190991640090942e-01 3.053394891321659088e-02 -9.740233421325683594e-02 -1.119316369295120239e-01 7.129126694053411484e-03 -8.074600994586944580e-02 5.273241549730300903e-02 6.051746010780334473e-02 -2.554789483547210693e-01 6.124521046876907349e-02 -7.093253731727600098e-02 9.514451026916503906e-02 4.378528520464897156e-02 -1.949066668748855591e-02 -2.323028817772865295e-02 -1.962416321039199829e-01 -9.537198394536972046e-02 -7.678482681512832642e-02 -2.233782112598419189e-01 -1.712439954280853271e-01 -7.890390604734420776e-02 -2.502047717571258545e-01 1.470900475978851318e-01 -3.333830237388610840e-01 1.046122238039970398e-01 9.379058144986629486e-03 2.380153089761734009e-01 -1.102433279156684875e-01 -2.097578495740890503e-01 -3.923172131180763245e-02 -9.190401434898376465e-02 -1.225071623921394348e-01 -6.737987697124481201e-02 -1.272592246532440186e-01 -2.767631709575653076e-01 -6.390807032585144043e-02 -4.856437072157859802e-02 4.835521429777145386e-02 -3.080249205231666565e-02 6.100223585963249207e-02 1.039100717753171921e-02 -1.583983451128005981e-01 3.477679789066314697e-01 6.308186799287796021e-02
1.498751789331436157e-01 1.410329341888427734e-01 1.061429753899574280e-01 -1.042421068996191025e-02 -2.928665280342102051e-02 -3.878875449299812317e-02 1.118806749582290649e-01 8.999662846326828003e-02 6.788837164640426636e-02 -1.758758723735809326e-01 -7.019030302762985229e-02 -2.184542119503021240e-01 1.084758192300796509e-01 -1.501247137784957886e-01 -2.427578903734683990e-02 -4.321772605180740356e-02 -7.950791716575622559e-02 3.171953186392784119e-02 -1.552699953317642212e-01 1.246251836419105530e-01 1.966326311230659485e-02 -9.727681428194046021e-02 -1.421125978231430054e-01 2.396084666252136230e-01 1.997387558221817017e-01 -2.332855015993118286e-02 6.139244511723518372e-02 1.328523606061935425e-01 -1.050241887569427490e-01 2.484025619924068451e-02 -3.159246593713760376e-02 2.061024606227874756e-01 1.174453347921371460e-01 2.252642661333084106e-01 -2.121016681194305420e-01 -1.592080295085906982e-01 1.029102578759193420e-01 -1.068448424339294434e-01 -2.337264865636825562e-01 -5.730941891670227051e-02 2.507471293210983276e-02 6.193805858492851257e-02 1.865408718585968018e-01 9.590598940849304199e-02 -1.385507732629776001e-01 3.566771745681762695e-02 -2.366873174905776978e-01 4.722514376044273376e-02 -1.721756458282470703e-01 1.323387026786804199e-01 2.117633633315563202e-02 -1.072865165770053864e-02 5.814442411065101624e-03 1.532159745693206787e-01 -7.549612200818955898e-04 -2.033875435590744019e-01 6.977556645870208740e-02 -6.818397343158721924e-02 -1.440118849277496338e-01 1.050734072923660278e-01 1.188006699085235596e-01 2.379201203584671021e-01 1.019042283296585083e-01 9.886303916573524475e-03 1.670101284980773926e-01 -7.386994361877441406e-02 -3.500230610370635986e-02 2.140289247035980225e-01 -4.822375625371932983e-02 1.770204454660415649e-01 -2.715465985238552094e-02 7.298091053962707520e-02 4.327997565269470215e-02 1.333409696817398071e-01 -1.031108014285564423e-02 -1.322107315063476562e-01 -7.663653790950775146e-02 -1.169755160808563232e-01 -1.050368696451187134e-01 -1.028741449117660522e-01 -3.939621523022651672e-02 1.130625531077384949e-01 5.032438784837722778e-02 -1.136439591646194458e-01 -1.064598709344863892e-01 -5.560250952839851379e-02 1.767271570861339569e-02 -7.749404013156890869e-02 1.358939260244369507e-01 1.938275545835494995e-01 1.109002530574798584e-01 -2.416734769940376282e-02 -2.215910255908966064e-01 -1.549247466027736664e-02 -5.338766425848007202e-02 -3.538687154650688171e-02 -8.478926122188568115e-02 6.478876620531082153e-02 1.293625086545944214e-01 -9.848336130380630493e-02 -8.863142877817153931e-02 -1.109746173024177551e-01 -8.399403095245361328e-02 1.223892439156770706e-02 4.629166796803474426e-03 -6.240859627723693848e-02 -3.451734036207199097e-02 2.039311230182647705e-01 6.411219388246536255e-02 -2.247021347284317017e-01 -6.745009124279022217e-02 3.928266465663909912e-02 -1.234756261110305786e-01 -1.774165183305740356e-01 4.534966126084327698e-02 6.070985272526741028e-02 3.327287733554840088e-02 1.466058939695358276e-01 -1.020629405975341797e-01 -1.345746815204620361e-01 -1.166890710592269897e-01 -1.952149160206317902e-02 1.784587502479553223e-01 4.169707000255584717e-02 -7.920911163091659546e-02 -1.712315082550048828e-01 -1.123818308115005493e-01 -7.815535366535186768e-02
-5.460015311837196350e-02 -5.452299118041992188e-02 1.151784285902976990e-01 -4.046501219272613525e-02 7.774280756711959839e-02 -1.012563854455947876e-01 5.866955593228340149e-02 -2.313288450241088867e-01 -1.221058145165443420e-02 6.665703654289245605e-02 -5.680633336305618286e-02 -2.471895217895507812e-01 1.591706834733486176e-02 2.363515943288803101e-01 3.092054426670074463e-01 -2.811382710933685303e-01 1.962977945804595947e-01 2.148821204900741577e-01 -4.817532375454902649e-03 1.540721505880355835e-01 9.694350510835647583e-02 -7.415637373924255371e-02 6.372144818305969238e-02 -4.629735648632049561e-02 -1.627051532268524170e-01 -7.813680917024612427e-02 4.835833329707384109e-03 -2.376438379287719727e-01 1.590203680098056793e-02 -7.855595648288726807e-02 -1.438600122928619385e-01 1.105495467782020569e-01 -1.109479367733001709e-01 -3.744875639677047729e-02 1.043007336556911469e-02 7.449954748153686523e-02 -1.523158326745033264e-02 -9.367220103740692139e-02 -2.687565982341766357e-01 -2.112006768584251404e-03 -4.437264427542686462e-02 4.767463356256484985e-02 8.213406428694725037e-03 -1.907237917184829712e-01 -7.890401780605316162e-02 8.089872449636459351e-02 6.115971133112907410e-02 1.613171547651290894e-01 7.207863032817840576e-02 4.016317799687385559e-02 -1.306934654712677002e-01 -1.332313008606433868e-02 3.503485396504402161e-02 -1.056627556681632996e-01 7.172914594411849976e-02 -8.624768257141113281e-02 -1.557682156562805176e-01 3.144884482026100159e-02 -1.060040667653083801e-01 2.121804654598236084e-02 1.989137530326843262e-01 -7.741818577051162720e-02 -1.833148067817091942e-03 -2.208133973181247711e-02 1.297447979450225830e-01 -6.457949429750442505e-02 -6.345748156309127808e-02 -1.895743757486343384e-01 2.657252252101898193e-01 -1.693905889987945557e-01 -1.750652939081192017e-01 1.434464305639266968e-01 1.299101263284683228e-01 -1.266515403985977173e-01 1.646457016468048096e-01 -4.563324525952339172e-02 1.643614470958709717e-01 7.610712200403213501e-02 1.668254733085632324e-01 -1.126981824636459351e-01 -1.017926260828971863e-02 5.901673063635826111e-02 -2.514406740665435791e-01 1.786584109067916870e-01 -4.551886394619941711e-02 3.237001299858093262e-01 -9.180456399917602539e-03 3.134714365005493164e-01 -2.527264319360256195e-02 -1.733767613768577576e-02 2.792894095182418823e-02 8.369557559490203857e-02 1.803897321224212646e-01 1.577233970165252686e-01 -4.214161634445190430e-02 -2.065796554088592529e-01 -6.601610220968723297e-03 1.683475263416767120e-02 -1.177923455834388733e-01 6.641297042369842529e-02 -5.090888217091560364e-02 1.521105319261550903e-01 2.113389521837234497e-01 3.683012351393699646e-02 1.250187158584594727e-01 1.158623918890953064e-01 -1.201651468873023987e-01 2.204332500696182251e-01 -3.982853889465332031e-02 -4.152650386095046997e-02 -2.805332839488983154e-01 1.259860675781965256e-02 -4.034988582134246826e-02 9.220237284898757935e-02 1.379834115505218506e-01 8.905299752950668335e-02 -2.777670621871948242e-01 -7.035987079143524170e-02 2.722066082060337067e-02 -2.000483870506286621e-01 1.439503729343414307e-01 -1.331693977117538452e-01 -4.056168347597122192e-02 -1.117049753665924072e-01 1.756549812853336334e-02 -3.371831029653549194e-02 1.395231336355209351e-01 -9.169853478670120239e-02
-1.026266068220138550e-01 -2.675297111272811890e-02 -1.177511513233184814e-01 -9.334240108728408813e-02 -3.111946284770965576e-01 3.741464763879776001e-02 -4.252013936638832092e-02 -6.720753014087677002e-02 -7.677533477544784546e-02 -1.286550313234329224e-01 2.167570739984512329e-01 -2.158449739217758179e-01 2.471582591533660889e-02 -1.988360583782196045e-01 8.850812166929244995e-02 1.002450957894325256e-01 1.257936060428619385e-01 7.410517334938049316e-02 -7.841257005929946899e-02 1.397799253463745117e-01 -1.033332273364067078e-01 6.596475839614868164e-02 9.438947588205337524e-02 -2.131297290325164795e-01 2.232324145734310150e-02 8.100092411041259766e-02 -8.352398872375488281e-03 6.613235920667648315e-02 2.544385753571987152e-02 -1.061769295483827591e-02 4.163376986980438232e-02 2.016426473855972290e-01 -1.118318811058998108e-01 7.882793992757797241e-02 4.609950352460145950e-03 1.397879868745803833e-01 -4.480108022689819336e-01 -8.993340656161308289e-03 -8.509272336959838867e-02 1.016496717929840088e-01 -3.460321808233857155e-03 1.736800670623779297e-01 2.670391201972961426e-01 -4.188796970993280411e-03 -1.571767218410968781e-02 -7.929332554340362549e-02 4.141609743237495422e-02 6.723818928003311157e-02 2.420080266892910004e-02 1.272604316473007202e-01 -3.903359919786453247e-02 1.978100240230560303e-01 8.382388204336166382e-02 9.283670037984848022e-02 -7.061265408992767334e-02 2.517788112163543701e-01 -2.389570325613021851e-02 4.558479040861129761e-02 -1.467896550893783569e-01 4.907995462417602539e-02 2.708874084055423737e-02 -2.274385243654251099e-01 3.218746557831764221e-02 -1.175894960761070251e-01 1.567329168319702148e-01 -1.125637069344520569e-02 1.114549189805984497e-01 -1.112606003880500793e-01 2.387133091688156128e-01 -1.043915674090385437e-01 -2.659751847386360168e-02 -9.292720258235931396e-02 -1.504946383647620678e-03 -3.791196038946509361e-03 -8.910131640732288361e-03 1.665794253349304199e-01 5.116103962063789368e-02 3.976127132773399353e-02 5.317810922861099243e-02 -9.232892096042633057e-02 3.366948338225483894e-03 -1.397624909877777100e-01 -6.284593045711517334e-02 2.182206064462661743e-01 1.169767156243324280e-01 -1.042592227458953857e-01 -1.234673778526484966e-03 1.413690298795700073e-01 1.829689890146255493e-01 6.321279704570770264e-02 -2.279543727636337280e-01 6.008550897240638733e-02 -1.713635772466659546e-01 -9.895166754722595215e-02 3.165202960371971130e-02 -2.271961234509944916e-02 -1.638660728931427002e-01 -1.037899330258369446e-01 -5.047105252742767334e-02 -1.632390767335891724e-01 1.554277390241622925e-01 8.048772811889648438e-02 -6.896833330392837524e-02 -2.577793896198272705e-01 -6.575559079647064209e-02 3.837094083428382874e-02 -1.321703940629959106e-01 -5.953697860240936279e-02 -7.398580014705657959e-02 2.210916019976139069e-02 -6.381917744874954224e-02 1.615410745143890381e-01 7.715038489550352097e-03 -4.932620376348495483e-02 -3.741726651787757874e-02 -4.411209747195243835e-02 1.947251111268997192e-01 -2.178546637296676636e-01 -2.866170741617679596e-02 5.552408471703529358e-02 -2.249979414045810699e-02 8.146830648183822632e-02 1.379984915256500244e-01 -3.516919538378715515e-02 -1.227156519889831543e-01 2.160658091306686401e-01 1.936040371656417847e-01 -6.859502941370010376e-02
-4.079469665884971619e-02 -7.781887799501419067e-02 1.189509481191635132e-01 4.174481704831123352e-02 2.079057097434997559e-01 6.544549018144607544e-02 -6.772350519895553589e-02 -8.543115854263305664e-02 -6.148635875433683395e-03 4.197806119918823242e-02 7.747546583414077759e-02 3.227380514144897461e-01 1.549386680126190186e-01 -5.942164361476898193e-02 8.453282713890075684e-02 2.461683936417102814e-02 -6.769236177206039429e-02 -2.390443161129951477e-02 1.114166155457496643e-01 -1.620853692293167114e-01 9.831526875495910645e-02 1.179395541548728943e-01 -2.305194437503814697e-01 1.551928115077316761e-03 -2.356532402336597443e-02 -6.183432787656784058e-02 -2.663264572620391846e-01 -2.641230821609497070e-01 2.360211461782455444e-01 1.007976606488227844e-01 3.647117912769317627e-01 -6.976491212844848633e-02 1.229775398969650269e-01 -2.127806842327117920e-02 -4.005970805883407593e-02 -3.043608963489532471e-01 2.268611043691635132e-01 -8.206757158041000366e-02 -7.677526026964187622e-02 -2.640155553817749023e-01 8.136938512325286865e-02 -6.461758166551589966e-02 6.824083626270294189e-02 6.573170889168977737e-03 1.033588424324989319e-01 -3.168116807937622070e-01 -4.579259082674980164e-02 5.068095773458480835e-02 -1.280748844146728516e-01 -1.757136546075344086e-02 -1.490597277879714966e-01 -2.707801386713981628e-02 6.540039926767349243e-02 1.998646259307861328e-01 1.678053438663482666e-01 4.345777258276939392e-02 -2.327290736138820648e-02 -3.762423992156982422e-02 1.310663670301437378e-02 2.382179349660873413e-02 -9.406743198633193970e-02 -1.443558931350708008e-01 -5.553513765335083008e-02 1.632635295391082764e-01 2.707787454128265381e-01 2.517763338983058929e-02 -3.278015181422233582e-02 1.537152379751205444e-01 -9.083461761474609375e-02 -2.083281129598617554e-01 -7.971368730068206787e-02 -7.529778033494949341e-02 -2.256505750119686127e-02 -1.281582713127136230e-01 1.821932755410671234e-02 -9.093227796256542206e-03 -1.239993795752525330e-01 -1.598258614540100098e-01 -2.287336625158786774e-02 -3.560427948832511902e-02 1.763123124837875366e-01 9.074940532445907593e-02 -3.239386081695556641e-01 1.241603866219520569e-01 -9.102890640497207642e-02 -5.554475635290145874e-02 -1.251641511917114258e-01 -8.323104679584503174e-02 1.055831685662269592e-01 6.520090252161026001e-02 6.818156689405441284e-02 1.730431243777275085e-02 -1.339625865221023560e-01 -1.363564878702163696e-01 1.289816498756408691e-01 -1.344873607158660889e-01 1.902559250593185425e-01 1.061545163393020630e-01 -1.533913016319274902e-01 7.972316443920135498e-02 7.634745538234710693e-02 1.106307376176118851e-02 2.700833082199096680e-01 9.233344346284866333e-02 -1.882732957601547241e-01 -2.694063782691955566e-01 -1.426613479852676392e-01 5.915112793445587158e-02 1.367555409669876099e-01 -4.613249897956848145e-01 -4.400169849395751953e-02 -7.598851621150970459e-02 -1.122978404164314270e-01 6.247558817267417908e-02 1.316346675157546997e-01 -1.158542558550834656e-01 4.299061745405197144e-02 1.013893038034439087e-01 4.198058322072029114e-02 1.356964707374572754e-01 2.392397075891494751e-01 -2.140539325773715973e-02 -4.585248604416847229e-02 -4.740140959620475769e-02 1.418186873197555542e-01 1.032895594835281372e-01 1.963808089494705200e-01 7.846006006002426147e-02
1.214288249611854553e-01 7.569894194602966309e-02 1.235132962465286255e-01 -6.631024181842803955e-02 -2.446854412555694580e-01 2.503568120300769806e-02 -2.255850285291671753e-01 -1.335830241441726685e-01 4.098140448331832886e-02 -1.537461429834365845e-01 -1.285517215728759766e-01 -6.830139458179473877e-02 5.307501927018165588e-02 7.325344532728195190e-02 2.538955770432949066e-02 4.178609326481819153e-02 -3.480198979377746582e-02 4.089031368494033813e-02 -6.563072651624679565e-02 -9.013085067272186279e-02 -1.195620521903038025e-01 -1.742950528860092163e-01 2.123116143047809601e-02 3.106973767280578613e-01 5.224225670099258423e-02 -4.414968658238649368e-03 -1.663373783230781555e-02 3.144015744328498840e-02 2.551005184650421143e-01 8.587437123060226440e-02 -3.558000922203063965e-02 6.177473440766334534e-02 9.279052168130874634e-02 -1.071901917457580566e-01 -1.545744240283966064e-01 1.872804611921310425e-01 5.647624656558036804e-02 -2.302463501691818237e-01 1.456266045570373535e-01 -1.062334477901458740e-01 -6.022807583212852478e-02 -2.426688820123672485e-01 4.247969686985015869e-01 -2.437076158821582794e-02 -2.406498789787292480e-01 -3.596257418394088745e-02 1.243284121155738831e-01 1.345236003398895264e-01 4.414777457714080811e-01 -1.278321892023086548e-01 -4.352633655071258545e-01 -7.748684287071228027e-02 -2.507546357810497284e-02 -5.423481389880180359e-02 -1.426815390586853027e-01 1.408210545778274536e-01 -1.789125800132751465e-01 -1.862415820360183716e-01 -7.024873793125152588e-02 4.698226694017648697e-03 -1.422854661941528320e-01 -1.583514511585235596e-01 -7.535927742719650269e-02 2.733005285263061523e-01 4.137929156422615051e-02 4.241802692413330078e-01 -5.405783280730247498e-02 -1.172592192888259888e-01 2.258261740207672119e-01 -1.071972697973251343e-01 1.502233445644378662e-01 3.537124022841453552e-02 -3.589829057455062866e-02 -6.012664642184972763e-03 -9.983678162097930908e-02 -4.858921468257904053e-02 5.679423809051513672e-01 -1.499224454164505005e-01 5.696979910135269165e-02 9.783978015184402466e-02 5.989401042461395264e-02 -3.958230372518301010e-03 1.666877120733261108e-01 -1.680589616298675537e-01 -1.260989457368850708e-01 1.805469579994678497e-02 -4.855220019817352295e-02 1.714024543762207031e-01 -2.417548447847366333e-01 -4.281279817223548889e-02 5.251489207148551941e-02 2.200803011655807495e-01 2.220656163990497589e-02 1.594449877738952637e-01 8.192316442728042603e-02 -7.025644928216934204e-02 1.588204652070999146e-01 8.617068827152252197e-02 9.342618286609649658e-02 2.017051875591278076e-01 1.524805873632431030e-01 -1.209084242582321167e-01 1.328364908695220947e-01 8.168248087167739868e-02 -9.454625099897384644e-02 -1.176351401954889297e-02 -2.838384509086608887e-01 -5.949911102652549744e-02 -1.708171069622039795e-01 -3.234842047095298767e-02 -2.969579696655273438e-01 4.341052472591400146e-02 6.074800342321395874e-02 -1.959667950868606567e-01 1.407212615013122559e-01 -1.992150582373142242e-02 -4.347714129835367203e-03 1.473085433244705200e-01 1.582647562026977539e-01 5.179036408662796021e-02 -3.213359117507934570e-01 -8.350156247615814209e-02 -1.086256466805934906e-02 -3.244568109512329102e-01 -1.439717561006546021e-01 1.927284747362136841e-01 -4.173918813467025757e-02 -1.567486822605133057e-01
-2.919264435768127441e-01 -1.249586883932352066e-02 -1.444372534751892090e-01 6.215439643710851669e-03 1.274447422474622726e-02 3.340570256114006042e-02 7.821589708328247070e-02 -2.747398614883422852e-01 3.633137419819831848e-02 -1.328322803601622581e-03 -5.419562803581357002e-04 -4.178224503993988037e-02 -1.503332853317260742e-01 1.724449992179870605e-01 4.010454192757606506e-02 1.589578837156295776e-01 -1.028419937938451767e-02 -1.502333581447601318e-01 -2.751219272613525391e-01 -2.752470411360263824e-02 7.218040525913238525e-02 6.624269485473632812e-02 -4.208795726299285889e-02 -1.667853444814682007e-01 -1.313384920358657837e-01 5.071277171373367310e-02 1.178140938282012939e-02 -4.233057796955108643e-02 -2.677443027496337891e-01 -2.904763519763946533e-01 -9.264694526791572571e-03 -2.188371419906616211e-01 6.043400615453720093e-02 1.458164490759372711e-02 1.560199912637472153e-02 -1.047134399414062500e-01 -1.106596365571022034e-02 -1.454756706953048706e-01 1.744128763675689697e-01 1.414586007595062256e-01 1.548360884189605713e-01 -1.726146489381790161e-01 -1.739419400691986084e-01 2.553345859050750732e-01 -5.287360027432441711e-02 1.033229082822799683e-01 -1.808536201715469360e-01 1.328285038471221924e-01 1.378807276487350464e-01 1.028376165777444839e-02 -3.038601577281951904e-01 1.754273772239685059e-01 -2.029876224696636200e-03 1.084652766585350037e-01 1.056175008416175842e-01 -1.024696417152881622e-02 -1.211665757000446320e-02 2.258068323135375977e-01 6.867245584726333618e-02 -2.637691609561443329e-02 -1.734796166419982910e-02 2.048137634992599487e-01 2.777110040187835693e-01 2.402060106396675110e-02 4.310151189565658569e-02 1.483202129602432251e-01 -7.767181098461151123e-02 3.917989879846572876e-02 -2.081028372049331665e-01 1.354953199625015259e-01 -1.299000997096300125e-02 -1.975623518228530884e-02 -1.413934230804443359e-01 -6.845062226057052612e-02 -1.884906589984893799e-01 -2.715127542614936829e-02 -2.983288466930389404e-01 1.174136251211166382e-01 -1.753261238336563110e-01 1.862287521362304688e-01 -5.031580477952957153e-02 -1.530277580022811890e-01 -2.113237529993057251e-01 -1.676606535911560059e-01 2.590719461441040039e-01 8.649741858243942261e-02 -8.620585314929485321e-03 -4.817026108503341675e-02 1.400499939918518066e-01 2.433730810880661011e-01 -6.082412600517272949e-02 2.729322016239166260e-01 -6.295651942491531372e-02 -5.302832275629043579e-02 1.070628240704536438e-01 -1.433344930410385132e-01 -3.884409740567207336e-02 -2.629374265670776367e-01 1.623502373695373535e-02 -3.217403590679168701e-02 -1.166468951851129532e-02 -2.333105914294719696e-02 1.675182431936264038e-01 -1.241965889930725098e-01 1.597514897584915161e-01 -9.936828166246414185e-02 5.061353370547294617e-02 1.125519424676895142e-01 -2.116457223892211914e-01 7.016594987362623215e-03 -2.952272258698940277e-02 2.412645146250724792e-02 -8.998989313840866089e-02 -6.397265195846557617e-02 2.585653029382228851e-02 -7.522065658122301102e-03 -3.416101261973381042e-02 1.454706937074661255e-01 -1.194790899753570557e-01 8.190628886222839355e-02 -1.724734902381896973e-01 7.773541659116744995e-02 -1.603736728429794312e-01 4.015995562076568604e-02 2.835132926702499390e-02 1.437700390815734863e-01 2.866032421588897705e-01 -1.234000250697135925e-01
-3.698311978951096535e-03 -2.081580758094787598e-01 -1.367862820625305176e-01 -6.442718952894210815e-02 7.738359272480010986e-02 9.426029026508331299e-02 6.243989616632461548e-02 2.743951976299285889e-02 1.213710755109786987e-01 1.044926568865776062e-01 1.686031222343444824e-01 -2.802526205778121948e-02 1.005054637789726257e-01 -2.398904561996459961e-01 2.983395569026470184e-02 -3.412979468703269958e-02 1.624972932040691376e-02 -1.271379441022872925e-01 -2.354484647512435913e-01 -2.834201417863368988e-02 -2.338629215955734253e-01 7.725176867097616196e-03 1.538001894950866699e-01 6.580216437578201294e-02 5.661119148135185242e-02 -8.212814107537269592e-03 4.908228293061256409e-02 1.325158327817916870e-01 -8.360561914741992950e-03 5.434066057205200195e-02 1.714450865983963013e-01 1.028321962803602219e-02 2.488122731447219849e-01 -5.197853222489356995e-02 -1.492137163877487183e-01 -5.631944909691810608e-02 1.559540443122386932e-02 1.464464962482452393e-01 1.077829524874687195e-01 1.008147299289703369e-01 1.531161367893218994e-01 -1.094278320670127869e-01 -5.464281514286994934e-02 1.493403315544128418e-01 -1.002300530672073364e-01 -5.406713113188743591e-02 3.274712711572647095e-02 -2.188881486654281616e-02 9.953465312719345093e-02 -5.755387246608734131e-03 -2.533073537051677704e-02 -2.489323616027832031e-01 7.246505934745073318e-03 1.375395059585571289e-01 1.826692223548889160e-01 -4.442290589213371277e-02 1.724084317684173584e-01 -1.308157145977020264e-01 -1.285561919212341309e-01 4.638441652059555054e-02 2.494286894798278809e-01 -1.277375221252441406e-01 -1.442011743783950806e-01 -4.915294237434864044e-03 1.523389518260955811e-01 -1.081493124365806580e-01 -9.658842347562313080e-03 -2.498670071363449097e-01 -2.085615321993827820e-02 3.073638863861560822e-02 -1.185810714960098267e-01 -3.750127926468849182e-02 -6.289625167846679688e-02 1.005910485982894897e-01 2.016609534621238708e-02 5.305310338735580444e-02 -9.519130736589431763e-02 -4.418770596385002136e-02 -1.092106848955154419e-01 4.209496080875396729e-02 -9.141684323549270630e-02 -3.475489839911460876e-02 4.299266263842582703e-02 -5.792291089892387390e-02 -9.466480463743209839e-02 2.273032069206237793e-02 1.267755031585693359e-01 1.636513173580169678e-01 4.549644142389297485e-02 2.657235264778137207e-01 1.205365881323814392e-01 -2.100360840559005737e-01 6.785042583942413330e-02 -1.234881728887557983e-01 -3.310590237379074097e-02 5.420145019888877869e-02 -1.357285492122173309e-02 1.370448619127273560e-01 -1.004902459681034088e-02 1.044368892908096313e-01 2.202495336532592773e-01 -9.221943467855453491e-02 -4.303305596113204956e-02 -6.175249442458152771e-02 1.774090230464935303e-01 -1.188938841223716736e-01 -1.549583207815885544e-02 3.925329148769378662e-01 1.053907051682472229e-01 1.930913478136062622e-01 -1.276820749044418335e-01 1.740612834692001343e-01 -3.279029950499534607e-02 -9.550281614065170288e-02 -5.717178061604499817e-02 -3.045358061790466309e-01 8.216704428195953369e-02 -9.464953839778900146e-02 -2.616985738277435303e-01 3.455414995551109314e-02 -1.163013800978660583e-01 5.549958720803260803e-02 6.903164088726043701e-02 -2.384663373231887817e-01 -9.564190357923507690e-02 -2.214850299060344696e-02 5.519557371735572815e-02 1.412735730409622192e-01
1.830323785543441772e-02 1.818453073501586914e-01 -1.274563819169998169e-01 2.781002037227153778e-02 -3.468935564160346985e-02 7.093182951211929321e-02 2.223512530326843262e-01 9.393814206123352051e-02 1.107857972383499146e-01 1.054081395268440247e-01 -1.424341499805450439e-01 -6.864584237337112427e-02 6.389766186475753784e-02 -1.208760216832160950e-01 4.706253856420516968e-02 -7.449568249285221100e-03 -3.534976243972778320e-01 -2.023743987083435059e-01 -2.225054651498794556e-01 3.653680905699729919e-02 -1.270979642868041992e-01 -2.655257284641265869e-01 1.922987699508666992e-01 1.582450047135353088e-02 7.182631641626358032e-02 2.953658811748027802e-02 2.193646132946014404e-01 6.463909149169921875e-02 7.317190617322921753e-02 1.194352060556411743e-01 -1.447059363126754761e-01 1.686383225023746490e-02 -6.989318877458572388e-02 1.806206442415714264e-02 1.665513366460800171e-01 5.723539367318153381e-02 -5.525595322251319885e-02 -1.570453941822052002e-01 -1.623612940311431885e-01 2.077975124120712280e-01 -2.033642865717411041e-02 3.306766152381896973e-01 -3.378169834613800049e-01 5.355843529105186462e-02 4.367449507117271423e-02 6.960356980562210083e-02 -1.154901087284088135e-01 -1.706949025392532349e-01 2.609840035438537598e-01 3.062624856829643250e-02 -2.367277443408966064e-02 2.293377369642257690e-01 -1.914640963077545166e-01 -1.728619933128356934e-01 2.792397141456604004e-01 4.299485310912132263e-02 3.133266866207122803e-01 1.249825283885002136e-01 8.307799696922302246e-02 -2.257110476493835449e-01 -1.723271757364273071e-01 -1.178831383585929871e-01 5.371877551078796387e-02 -9.882298856973648071e-02 3.300412325188517570e-03 -4.637382552027702332e-02 2.202111110091209412e-02 -2.472660876810550690e-02 1.849524378776550293e-01 9.055599570274353027e-02 2.202177941799163818e-01 -2.659566514194011688e-02 -1.596502959728240967e-01 -2.550538629293441772e-03 1.394964605569839478e-01 2.767067551612854004e-01 1.918337792158126831e-01 -2.007589787244796753e-01 -5.618740990757942200e-02 7.553453557193279266e-03 -1.158588975667953491e-01 1.055584400892257690e-01 -7.115684449672698975e-02 1.462935507297515869e-01 -1.959721744060516357e-01 2.102359533309936523e-01 5.289047956466674805e-02 -9.820228815078735352e-02 1.524876952171325684e-01 2.315774373710155487e-02 -1.168123334646224976e-01 -1.023169904947280884e-01 -1.817482113838195801e-01 1.228189989924430847e-01 -1.269554048776626587e-01 2.339297533035278320e-02 8.837038278579711914e-02 -8.169134706258773804e-02 1.054956689476966858e-01 1.029886305332183838e-01 5.919774062931537628e-03 6.255590915679931641e-02 -1.743738353252410889e-01 3.293100744485855103e-02 7.856469601392745972e-02 9.612505882978439331e-02 1.329896897077560425e-01 -1.190752908587455750e-01 1.925430633127689362e-02 -1.000515595078468323e-01 -8.298804983496665955e-03 1.433334648609161377e-01 1.222781930118799210e-02 -1.677954345941543579e-01 -2.270675078034400940e-02 -1.223432645201683044e-01 -2.548474073410034180e-02 1.645717769861221313e-02 -1.259060502052307129e-01 -1.422571241855621338e-01 -1.121180783957242966e-02 1.106264162808656693e-02 3.227538662031292915e-03 -8.101836591958999634e-02 9.146815538406372070e-02 -3.154515102505683899e-02 9.391340613365173340e-02 -7.824817299842834473e-02
1.460599452257156372e-01 -9.992731362581253052e-02 -1.096097677946090698e-01 -1.401516646146774292e-01 -3.180205821990966797e-01 -7.592681050300598145e-02 1.117244288325309753e-01 -1.126899197697639465e-01 2.218638956546783447e-01 2.507359385490417480e-01 4.011873900890350342e-02 -1.306734681129455566e-01 -7.645024359226226807e-02 3.609404861927032471e-01 -2.828771770000457764e-01 -2.658436000347137451e-01 -4.739730432629585266e-02 -2.373275905847549438e-01 1.339327096939086914e-01 -6.518513709306716919e-02 6.076179072260856628e-02 -2.260559052228927612e-01 2.189161330461502075e-01 7.614106871187686920e-04 1.122171804308891296e-01 -5.926342681050300598e-02 2.409550547599792480e-01 -5.281236767768859863e-02 -2.380382418632507324e-01 1.381239742040634155e-01 -1.193637698888778687e-01 8.360306918621063232e-02 7.507728785276412964e-02 1.360127031803131104e-01 2.720377221703529358e-02 -1.274291127920150757e-01 -1.946760267019271851e-01 6.334895640611648560e-02 1.940513215959072113e-02 8.046389371156692505e-02 -2.624975740909576416e-01 7.630277425050735474e-02 -1.357819736003875732e-01 1.313126385211944580e-01 -8.054437488317489624e-02 2.391831018030643463e-03 -1.099145486950874329e-01 6.618954241275787354e-02 1.988853067159652710e-01 -6.861854344606399536e-02 2.267037183046340942e-01 -3.052760362625122070e-01 -1.049056798219680786e-01 -1.955542266368865967e-01 3.736372664570808411e-02 1.688836067914962769e-01 2.538599073886871338e-01 -1.007760614156723022e-01 2.038061767816543579e-01 1.722174435853958130e-01 1.513871848583221436e-01 2.879910171031951904e-01 -3.285314142704010010e-02 -3.697437345981597900e-01 -2.204376459121704102e-02 1.477100402116775513e-01 -1.853501647710800171e-01 -3.201128542423248291e-01 -1.961243748664855957e-01 -8.468019217252731323e-02 1.090196818113327026e-01 6.828707456588745117e-02 3.436022996902465820e-01 9.145102649927139282e-02 -1.358103901147842407e-01 6.000778079032897949e-02 1.146621406078338623e-01 2.312503159046173096e-01 1.511976718902587891e-01 5.178938806056976318e-02 -2.657381817698478699e-02 3.177956938743591309e-01 6.587089598178863525e-02 -1.487114876508712769e-01 -9.366659075021743774e-02 1.203740611672401428e-01 3.121054172515869141e-01 -2.508560717105865479e-01 -2.585988342761993408e-01 -6.992647796869277954e-02 1.037201881408691406e-01 -1.367506235837936401e-01 4.421260952949523926e-02 1.497458815574645996e-01 -1.013474985957145691e-01 1.330107748508453369e-01 2.349082380533218384e-01 -4.682454094290733337e-02 2.414548844099044800e-01 1.047447510063648224e-02 -3.340160846710205078e-02 5.480595305562019348e-02 -1.331114768981933594e-01 1.188119594007730484e-02 1.599671095609664917e-01 -4.165503680706024170e-01 2.330166697502136230e-01 -1.433538049459457397e-01 1.248936876654624939e-01 -4.124153777956962585e-02 -4.460079595446586609e-02 -9.511329978704452515e-02 -2.581371963024139404e-01 -2.251210436224937439e-02 1.221692189574241638e-01 3.783398494124412537e-02 -2.002736777067184448e-01 1.191946789622306824e-01 -9.342625737190246582e-02 -1.508160680532455444e-01 1.847025156021118164e-01 6.015294045209884644e-02 -1.568607091903686523e-01 -1.410175263881683350e-01 1.564761400222778320e-01 -3.777470886707305908e-01 -8.262261748313903809e-03 6.994337309151887894e-05
4.479590058326721191e-02 3.261253982782363892e-02 5.009296536445617676e-02 -2.160822153091430664e-01 1.846715435385704041e-02 1.138596981763839722e-01 5.246633887290954590e-01 -2.907979786396026611e-01 6.836318224668502808e-02 4.528332501649856567e-02 4.770530015230178833e-02 8.897507935762405396e-02 -8.251470513641834259e-03 -5.037496611475944519e-02 4.843551293015480042e-02 -9.973417967557907104e-02 -1.378106027841567993e-01 -4.902089759707450867e-02 1.083079725503921509e-01 2.604527026414871216e-02 -1.489022970199584961e-01 2.527415156364440918e-01 -1.444733291864395142e-01 5.098933354020118713e-02 1.408676989376544952e-02 2.112724445760250092e-02 1.121031027287244797e-02 1.204065233469009399e-01 1.126451231539249420e-02 1.445840001106262207e-01 5.787609517574310303e-02 -2.856745012104511261e-02 3.762213140726089478e-02 1.271519958972930908e-01 1.046427637338638306e-01 1.203592792153358459e-01 -3.520110994577407837e-02 -5.201824754476547241e-02 4.674679338932037354e-01 6.204618886113166809e-02 1.971687376499176025e-02 -8.342736214399337769e-02 -1.321982443332672119e-01 -1.420098841190338135e-01 -3.785033151507377625e-02 -2.102515250444412231e-01 -8.656575530767440796e-02 2.814301289618015289e-02 -1.106780990958213806e-01 -1.162356659770011902e-01 1.400173455476760864e-01 6.178671866655349731e-02 2.163010835647583008e-02 1.020369082689285278e-01 -3.687274158000946045e-01 1.992138624191284180e-01 -7.103802636265754700e-04 2.530665695667266846e-01 1.636881567537784576e-02 -1.140186563134193420e-02 6.004495546221733093e-02 -1.300876885652542114e-01 -4.146794788539409637e-03 -1.947722584009170532e-01 7.626372575759887695e-02 -7.699887454509735107e-02 8.336479961872100830e-02 1.745535582304000854e-01 -3.161036595702171326e-02 7.934349775314331055e-02 -3.933407366275787354e-02 -6.313189864158630371e-02 -2.856624424457550049e-01 3.028248436748981476e-02 9.306488931179046631e-02 -1.427968889474868774e-01 1.637850999832153320e-01 2.287748968228697777e-03 -8.508426696062088013e-02 -1.567208580672740936e-02 2.239205874502658844e-02 1.914559751749038696e-01 1.720958352088928223e-01 5.050043389201164246e-02 -2.242877632379531860e-01 -1.580421626567840576e-01 -1.489933878183364868e-01 -8.282342553138732910e-02 -5.558276921510696411e-02 1.652412712574005127e-01 -2.606489881873130798e-02 5.903757363557815552e-02 7.280778139829635620e-02 -1.003662049770355225e-01 9.755639731884002686e-02 -2.312706410884857178e-02 -1.562648564577102661e-01 1.112997531890869141e-01 2.470316141843795776e-01 -1.656766384840011597e-01 -8.524900674819946289e-02 -2.146251201629638672e-01 -1.317103207111358643e-01 4.870366305112838745e-02 -7.271530479192733765e-02 -6.776959449052810669e-02 2.020452357828617096e-02 -1.707823947072029114e-03 -2.022612094879150391e-01 5.922083556652069092e-02 7.807975262403488159e-02 -9.381544659845530987e-04 -1.741727069020271301e-02 2.314487285912036896e-02 1.990898977965116501e-03 -1.761240959167480469e-01 2.460071444511413574e-02 1.396010518074035645e-01 5.750399827957153320e-02 -2.303559631109237671e-01 1.621388792991638184e-01 1.006582751870155334e-01 -4.588007461279630661e-03 4.092317819595336914e-02 -9.483860339969396591e-04 -9.461709856986999512e-02 -4.200199246406555176e-02 8.465663343667984009e-02
-1.055892836302518845e-02 2.136690467596054077e-01 1.012942567467689514e-01 1.105971857905387878e-01 -3.845608793199062347e-03 6.940025370568037033e-03 -1.546732038259506226e-01 7.854720950126647949e-02 2.270258963108062744e-01 -1.529293358325958252e-01 -1.431012004613876343e-01 9.932585060596466064e-03 -1.804760284721851349e-02 3.205634057521820068e-01 1.460024416446685791e-01 1.091884821653366089e-01 1.312620043754577637e-01 -1.789157241582870483e-01 -4.593874812126159668e-01 -1.280819177627563477e-01 -6.367339193820953369e-02 5.311125889420509338e-03 5.885732546448707581e-02 1.185741946101188660e-01 -1.844971030950546265e-01 4.252482578158378601e-02 -2.297948747873306274e-01 1.153152436017990112e-01 6.850314140319824219e-02 7.757768779993057251e-02 -2.499371394515037537e-02 -2.490290850400924683e-01 -6.252430845052003860e-03 2.082600593566894531e-01 1.040616631507873535e-01 5.628711730241775513e-02 -3.203505277633666992e-02 -1.801175996661186218e-02 1.999174952507019043e-01 -5.036279186606407166e-02 -8.166532218456268311e-02 3.427231311798095703e-02 -1.433076113462448120e-01 8.752907812595367432e-02 -4.531596973538398743e-02 9.776332415640354156e-03 2.630472183227539062e-01 -8.343271166086196899e-02 -2.547122836112976074e-01 -7.725711166858673096e-02 5.756875500082969666e-02 -1.541879624128341675e-01 -4.596478492021560669e-02 -1.526397466659545898e-01 -2.425532937049865723e-01 5.334707349538803101e-02 7.693872600793838501e-02 -1.052948385477066040e-01 4.417917691171169281e-03 -1.020373255014419556e-01 1.963292509317398071e-01 -1.870544441044330597e-02 2.287149578332901001e-01 1.121708005666732788e-01 -1.317307949066162109e-01 -5.774788558483123779e-03 -1.366746425628662109e-01 1.212469711899757385e-01 7.225950248539447784e-03 -8.147974312305450439e-02 1.460427343845367432e-01 -9.744135290384292603e-02 -5.795176327228546143e-02 6.237427704036235809e-03 -4.935294389724731445e-03 -7.530898600816726685e-02 -8.814253658056259155e-02 -2.790336012840270996e-01 -2.685952000319957733e-03 2.450714074075222015e-02 5.185208097100257874e-02 -1.300396919250488281e-01 -6.293755769729614258e-02 4.340581968426704407e-02 1.003233864903450012e-01 2.056001685559749603e-02 3.907688707113265991e-02 1.541283130645751953e-01 -4.676714073866605759e-03 4.608862847089767456e-02 4.587130993604660034e-02 5.873130634427070618e-02 -1.946625411510467529e-01 7.921327836811542511e-03 3.814711049199104309e-02 1.545850187540054321e-01 2.033234201371669769e-02 -5.621269345283508301e-02 -1.018349230289459229e-01 -2.116223573684692383e-01 9.787566214799880981e-02 -2.082054167985916138e-01 8.452350646257400513e-02 -4.474508762359619141e-02 2.197737991809844971e-02 4.381285980343818665e-02 -1.227678731083869934e-02 -7.929996401071548462e-02 7.995707914233207703e-03 1.309844106435775757e-01 -6.295025348663330078e-02 -9.304927289485931396e-02 5.796072259545326233e-02 1.053052395582199097e-01 3.069089949131011963e-01 1.254540383815765381e-01 -4.550716653466224670e-02 2.442400343716144562e-02 -7.496774941682815552e-02 1.986270546913146973e-01 1.243385523557662964e-01 -7.667463272809982300e-02 6.542402505874633789e-02 -2.464714497327804565e-01 -2.982485666871070862e-02 4.005377292633056641e-01 -9.910114109516143799e-02 -1.773805171251296997e-01
-1.613125354051589966e-01 -3.542033722624182701e-03 -5.808579176664352417e-02 1.230466142296791077e-01 8.468344807624816895e-02 -6.706292182207107544e-02 1.559091359376907349e-01 1.118058189749717712e-01 -8.250146359205245972e-02 1.911768876016139984e-02 -2.537553571164608002e-02 -6.462581455707550049e-02 2.627192735671997070e-01 -1.019641906023025513e-01 -1.355166882276535034e-01 -1.071368157863616943e-02 2.339623123407363892e-01 -3.020096719264984131e-01 -3.932089358568191528e-02 5.019067972898483276e-02 -1.692169159650802612e-01 1.861257292330265045e-02 1.598942875862121582e-01 4.586253315210342407e-02 -9.036681056022644043e-02 -1.193525195121765137e-01 1.251329630613327026e-01 5.520317330956459045e-02 -1.854317784309387207e-01 -1.230189725756645203e-01 -1.355257779359817505e-01 -1.655858308076858521e-01 -3.793086484074592590e-02 2.907083332538604736e-01 -1.407029777765274048e-01 -1.764945089817047119e-01 7.200042158365249634e-02 2.661868743598461151e-02 7.868491858243942261e-02 -1.655817180871963501e-01 1.426444798707962036e-01 2.177962660789489746e-01 -2.366695255041122437e-01 -4.785683378577232361e-02 -9.260957129299640656e-03 1.647570729255676270e-02 5.853471159934997559e-02 -2.335454076528549194e-01 -2.128081396222114563e-02 -1.584454029798507690e-01 -1.958292163908481598e-02 1.548899710178375244e-01 2.680359780788421631e-02 -1.677219420671463013e-01 -9.875702857971191406e-02 -2.637336403131484985e-02 3.695760965347290039e-01 7.093751337379217148e-03 -9.951021522283554077e-02 -1.966957896947860718e-01 -8.086945861577987671e-02 2.234275341033935547e-01 -3.344740271568298340e-01 1.122070625424385071e-01 2.907995134592056274e-02 8.791566826403141022e-03 -4.770786315202713013e-02 1.356962919235229492e-01 1.520486921072006226e-01 -4.905999079346656799e-02 2.600143253803253174e-01 -9.858621656894683838e-02 -1.732805073261260986e-01 -1.730286628007888794e-01 8.984465152025222778e-02 -1.898652017116546631e-01 3.003060221672058105e-01 -1.083166152238845825e-01 -9.874007105827331543e-02 1.138496100902557373e-01 2.007904462516307831e-02 8.062321692705154419e-02 6.697754561901092529e-02 5.724305287003517151e-02 1.666828095912933350e-01 -3.560561686754226685e-02 -3.422285988926887512e-02 3.999972715973854065e-02 -4.164642468094825745e-02 -4.453118145465850830e-02 -1.714771389961242676e-01 -6.190511612658156082e-06 -2.156256139278411865e-01 3.037273138761520386e-02 -1.961799152195453644e-02 6.947480887174606323e-02 1.142439432442188263e-02 2.812168896198272705e-01 -8.101205527782440186e-02 9.923367202281951904e-02 2.182694226503372192e-01 3.738219738006591797e-01 5.941862240433692932e-02 1.900296658277511597e-01 -1.321004927158355713e-01 1.314898133277893066e-01 -3.349964320659637451e-02 -6.745079159736633301e-02 8.453876525163650513e-02 -1.382289081811904907e-01 -8.875554054975509644e-02 -6.159692257642745972e-02 9.184107184410095215e-02 -2.915995121002197266e-01 -1.244852840900421143e-01 1.405320465564727783e-01 -1.944521069526672363e-01 7.347010076045989990e-02 -7.142647355794906616e-02 -3.463325276970863342e-02 2.786144614219665527e-02 1.588747054338455200e-01 3.657891452312469482e-01 3.567375242710113525e-02 2.260718494653701782e-02 -2.150478959083557129e-01 8.323920518159866333e-02 1.225088238716125488e-01
-4.880216345191001892e-02 -1.110136285424232483e-01 1.012544855475425720e-01 1.029703021049499512e-01 -1.178888827562332153e-01 1.915800943970680237e-02 3.217283263802528381e-02 -2.386386543512344360e-01 -5.091098602861166000e-03 -4.929853603243827820e-02 2.490955591201782227e-02 2.586873248219490051e-02 1.648860275745391846e-01 -1.637671142816543579e-01 2.527650818228721619e-02 1.354019939899444580e-01 1.330994814634323120e-02 8.302959799766540527e-02 -1.142422854900360107e-01 -7.951561361551284790e-02 2.252018302679061890e-01 1.628457158803939819e-01 1.962126046419143677e-01 -5.593273416161537170e-02 2.271546237170696259e-02 6.115300953388214111e-02 8.499380946159362793e-02 1.501625180244445801e-01 8.151055127382278442e-02 4.423790797591209412e-02 -1.849453896284103394e-01 -3.208295628428459167e-02 -7.583243399858474731e-02 -3.343926370143890381e-01 -6.783200055360794067e-02 -3.608354181051254272e-02 1.401163339614868164e-01 -1.332975029945373535e-01 -3.328878059983253479e-02 -5.497840046882629395e-02 -4.612822085618972778e-02 -1.460706293582916260e-01 3.652684763073921204e-02 -1.342965941876173019e-02 -2.154668271541595459e-01 -6.649143062531948090e-03 -1.955622248351573944e-02 -2.037126123905181885e-01 2.097370028495788574e-01 2.997260354459285736e-02 7.738325744867324829e-02 -2.636943757534027100e-01 1.886888407170772552e-02 4.254456609487533569e-02 3.033864311873912811e-02 -3.652815520763397217e-02 -4.953692853450775146e-02 -1.572094112634658813e-01 9.761783480644226074e-02 -1.991994529962539673e-01 -3.074482381343841553e-01 1.743748337030410767e-01 8.419594913721084595e-02 4.250328242778778076e-02 1.368659734725952148e-02 -1.175371631979942322e-01 3.538080677390098572e-02 -6.230067461729049683e-02 8.647464960813522339e-02 -6.417275220155715942e-02 5.690734460949897766e-02 2.730323188006877899e-02 8.086994290351867676e-02 3.464204370975494385e-01 -4.164126142859458923e-02 -1.374051719903945923e-01 4.222115129232406616e-02 -2.760187387466430664e-01 -5.337411910295486450e-02 1.618941277265548706e-01 1.212885305285453796e-01 -9.106356650590896606e-02 -1.137768924236297607e-01 1.578970849514007568e-01 -1.258918177336454391e-02 6.127732619643211365e-02 4.477349221706390381e-01 9.733913838863372803e-02 9.116661548614501953e-02 -2.049433253705501556e-02 -8.127924799919128418e-02 -1.169074848294258118e-01 1.493231859058141708e-02 -1.898383349180221558e-01 7.050975225865840912e-03 -1.130122467875480652e-01 -1.976592540740966797e-01 -6.177378818392753601e-02 2.364384233951568604e-01 -1.848934739828109741e-01 -1.728054694831371307e-02 -1.714343577623367310e-02 5.412205308675765991e-02 -4.792984575033187866e-02 -7.149339467287063599e-02 1.466601435095071793e-02 -1.725223474204540253e-02 -1.360511034727096558e-01 -1.991085708141326904e-02 -1.389942318201065063e-01 4.481552541255950928e-02 -2.102424390614032745e-03 -5.404934287071228027e-02 7.902012020349502563e-02 2.172426320612430573e-02 -1.241451967507600784e-02 -1.087637804448604584e-02 6.602485477924346924e-02 -2.632174193859100342e-01 -7.495242636650800705e-03 2.714813053607940674e-01 2.871951460838317871e-02 -4.384357109665870667e-02 1.077526286244392395e-01 -7.677637040615081787e-02 -1.085480302572250366e-02 -9.374019689857959747e-03 -2.133321389555931091e-02
-1.463311840780079365e-03 2.546042799949645996e-01 2.280063740909099579e-02 -1.148736104369163513e-01 1.092535629868507385e-01 -6.432074308395385742e-02 1.849105209112167358e-01 1.818181574344635010e-01 1.037652567028999329e-01 1.790424287319183350e-01 -1.972542516887187958e-02 1.647221110761165619e-02 -6.786295771598815918e-02 -1.495023965835571289e-01 -9.520228952169418335e-02 -9.250981360673904419e-02 3.734734281897544861e-02 7.018886506557464600e-02 -6.474495679140090942e-02 -1.008377522230148315e-01 9.391380846500396729e-02 1.084341183304786682e-01 -5.740116164088249207e-02 1.625419780611991882e-02 1.688802689313888550e-01 -7.630394771695137024e-03 -4.612609744071960449e-02 7.294947654008865356e-02 1.502888370305299759e-02 -2.033211737871170044e-01 2.169741541147232056e-01 6.430745590478181839e-03 -2.577995955944061279e-01 -1.750706732273101807e-01 3.123058378696441650e-02 7.060697674751281738e-02 -7.207520306110382080e-02 3.821704594884067774e-04 1.850651763379573822e-02 -1.091341301798820496e-01 1.690142899751663208e-01 -3.165620565414428711e-02 1.335040032863616943e-01 6.259498745203018188e-02 2.049323469400405884e-01 -1.079060733318328857e-01 1.331259757280349731e-01 -4.390718415379524231e-02 -1.120461896061897278e-01 3.303796285763382912e-03 -1.937058120965957642e-01 1.170373260974884033e-01 7.266595214605331421e-02 3.184303641319274902e-02 -1.254523992538452148e-01 -1.663499884307384491e-02 -1.258761137723922729e-01 -1.434956789016723633e-01 -1.063775643706321716e-01 -7.834659516811370850e-02 4.493340104818344116e-02 1.633533090353012085e-01 -3.130479902029037476e-02 4.088235273957252502e-02 -6.300299614667892456e-02 -5.357217788696289062e-02 3.373314440250396729e-02 5.015458166599273682e-02 1.059472486376762390e-01 2.970066154375672340e-03 -8.989940583705902100e-02 1.108421534299850464e-01 1.238396838307380676e-01 4.175170511007308960e-02 -2.139202952384948730e-01 1.706130336970090866e-03 3.939851373434066772e-02 4.851096123456954956e-02 -9.823574125766754150e-02 3.659556061029434204e-02 1.759097278118133545e-01 -9.427282214164733887e-02 -6.784860789775848389e-02 -8.600597083568572998e-02 -8.078185468912124634e-02 -1.163966655731201172e-01 1.240792125463485718e-01 -3.286654502153396606e-02 -1.853337138891220093e-02 -3.969473764300346375e-02 1.940952613949775696e-02 -6.186547130346298218e-02 -1.628858782351016998e-02 2.025158610194921494e-03 -1.246121618896722794e-02 7.108379900455474854e-02 6.867529451847076416e-02 -1.584070920944213867e-01 1.051551401615142822e-01 6.987196207046508789e-02 5.889568105340003967e-02 -1.354535371065139771e-01 2.171497344970703125e-01 -2.001719772815704346e-01 5.758874118328094482e-03 -1.490298062562942505e-01 -9.791191667318344116e-02 1.501824557781219482e-01 -4.724170640110969543e-02 -6.139156967401504517e-02 -2.104295343160629272e-01 6.942372769117355347e-02 -1.085406467318534851e-01 -2.052560739684849977e-05 -3.171652182936668396e-02 8.085693232715129852e-03 2.320063672959804535e-02 9.685534238815307617e-02 1.056202352046966553e-01 1.683321036398410797e-02 -1.054693683981895447e-01 -1.168923825025558472e-01 1.255299150943756104e-01 -1.910419911146163940e-01 -3.904522210359573364e-02 4.605872184038162231e-02 -2.856515720486640930e-02 1.426266431808471680e-01
1.638718992471694946e-01 -1.249115169048309326e-01 -7.702247239649295807e-03 -3.154275566339492798e-02 -3.513442724943161011e-02 -1.606456376612186432e-02 -8.151750266551971436e-02 -5.479515343904495239e-02 -2.531450092792510986e-01 -1.627371273934841156e-02 8.123505860567092896e-03 2.688883841037750244e-01 -1.105910614132881165e-01 1.619516909122467041e-01 -1.082615181803703308e-01 1.905979365110397339e-01 1.133529767394065857e-01 3.657094016671180725e-02 -1.919140219688415527e-01 9.162732213735580444e-02 -8.724065870046615601e-02 -1.077221408486366272e-01 5.777918919920921326e-02 -9.683522582054138184e-02 7.167506963014602661e-02 -3.491490706801414490e-02 -8.251658827066421509e-02 -6.153278425335884094e-02 -1.101573854684829712e-01 2.205387689173221588e-03 1.090830266475677490e-01 3.805369138717651367e-02 -1.421053893864154816e-03 1.482983212918043137e-02 1.749533861875534058e-01 -1.156026721000671387e-01 1.434415131807327271e-01 2.103056162595748901e-01 9.913134574890136719e-02 -2.185707539319992065e-01 -1.210848391056060791e-01 -3.242388963699340820e-01 -1.493545025587081909e-01 1.850401759147644043e-01 -5.702298134565353394e-02 1.802528649568557739e-01 -7.601581048220396042e-03 -4.110801592469215393e-02 1.474024504423141479e-01 1.212117969989776611e-01 -1.318374574184417725e-01 -2.363616973161697388e-01 1.440070420503616333e-01 -1.357468515634536743e-01 1.244667991995811462e-01 -4.829819872975349426e-02 -1.477246582508087158e-01 -5.829508602619171143e-02 -1.149942204356193542e-01 -5.379692092537879944e-02 2.125160098075866699e-01 -3.224068880081176758e-02 1.643565855920314789e-02 1.632434874773025513e-02 1.113500818610191345e-01 2.803923189640045166e-02 7.513522356748580933e-02 -1.802785322070121765e-02 5.409609060734510422e-03 -4.803084582090377808e-02 1.225946545600891113e-01 -1.294448822736740112e-01 6.854043900966644287e-02 2.182874828577041626e-03 1.578864455223083496e-01 -1.423828303813934326e-01 2.225664556026458740e-01 1.294593811035156250e-01 7.629369944334030151e-02 -1.124822050333023071e-01 9.582770615816116333e-02 -1.150130555033683777e-01 1.963842064142227173e-01 2.700962722301483154e-01 -6.133028492331504822e-02 -8.204310387372970581e-02 1.402659248560667038e-02 1.614736020565032959e-02 2.793501829728484154e-03 1.443783640861511230e-01 -6.695393472909927368e-02 1.494161039590835571e-01 -1.581193953752517700e-01 -5.525387823581695557e-02 -5.096469819545745850e-02 -6.690262258052825928e-02 6.569731235504150391e-02 -1.834777593612670898e-01 1.020027697086334229e-01 -2.412872910499572754e-01 6.167286261916160583e-02 4.153639450669288635e-02 -2.660647779703140259e-02 -6.027122959494590759e-02 -7.281532883644104004e-02 -1.461573541164398193e-01 -7.689578831195831299e-02 1.421297192573547363e-01 -1.253222674131393433e-01 1.530583668500185013e-02 -1.123993769288063049e-01 -1.178954541683197021e-01 2.455830425024032593e-01 3.659379109740257263e-02 4.444548860192298889e-02 3.035647980868816376e-02 1.670971140265464783e-02 2.776128351688385010e-01 -1.418583393096923828e-01 -9.089715778827667236e-02 -1.071118712425231934e-01 -1.854216307401657104e-02 8.856971561908721924e-02 7.247474975883960724e-03 3.043497167527675629e-02 -2.311399206519126892e-02 -1.650837063789367676e-01 5.311737954616546631e-02
9.363909065723419189e-02 -1.010281965136528015e-01 -9.664152562618255615e-02 5.067655444145202637e-02 3.882587188854813576e-03 2.006153389811515808e-02 -1.397978421300649643e-02 4.110550507903099060e-02 6.470987200736999512e-02 2.239805646240711212e-03 9.058897197246551514e-02 3.112917393445968628e-02 2.134803682565689087e-02 2.735910564661026001e-02 1.473946422338485718e-01 1.916152387857437134e-01 8.819055743515491486e-03 8.341510593891143799e-02 -1.202284172177314758e-01 5.164230242371559143e-02 2.524010092020034790e-02 -6.205482408404350281e-02 -9.735218435525894165e-02 1.939863115549087524e-01 -5.925256758928298950e-02 -4.808638244867324829e-02 3.171272575855255127e-02 -8.022134006023406982e-02 -1.406944692134857178e-01 -1.624943315982818604e-01 -4.779322445392608643e-02 -1.857718825340270996e-02 -5.638295039534568787e-02 -1.030902490019798279e-01 -6.258453428745269775e-02 1.890306710265576839e-03 -9.530011564493179321e-02 -5.425222963094711304e-02 -8.811887353658676147e-02 -9.933180361986160278e-02 6.275916099548339844e-02 -3.020105138421058655e-02 -8.959738910198211670e-02 -8.565919101238250732e-02 -5.487905442714691162e-02 1.284349262714385986e-01 -2.143650501966476440e-02 3.056715056300163269e-02 -1.348753869533538818e-01 -1.382613182067871094e-02 1.146920211613178253e-02 -3.434902057051658630e-02 -5.115034058690071106e-02 2.227389626204967499e-02 -5.132377520203590393e-02 -5.289865285158157349e-02 -8.269581943750381470e-02 -1.274371892213821411e-01 -1.251771599054336548e-01 -1.021440327167510986e-01 -1.727710664272308350e-02 1.327190548181533813e-01 -2.003450319170951843e-02 1.109467223286628723e-01 -6.627660244703292847e-02 4.324689134955406189e-02 -1.274285763502120972e-01 3.753185272216796875e-02 1.499198726378381252e-03 -6.837698072195053101e-02 1.478521153330802917e-02 2.236614190042018890e-02 1.718331314623355865e-02 -1.514765471220016479e-01 1.832372248172760010e-01 1.118624210357666016e-01 -7.952535152435302734e-02 1.463702023029327393e-01 -2.651066705584526062e-02 -3.336531296372413635e-02 -9.340981394052505493e-02 -8.513097465038299561e-02 -9.747745096683502197e-02 8.687259256839752197e-02 4.068457335233688354e-02 1.876905187964439392e-02 1.871325075626373291e-01 -1.276465058326721191e-01 -6.072602048516273499e-02 1.573291793465614319e-02 6.454864889383316040e-02 2.545029157772660255e-03 8.482556790113449097e-02 5.107751861214637756e-02 -9.118852019309997559e-02 -1.501252949237823486e-01 -7.904397696256637573e-02 9.771910496056079865e-03 7.483409345149993896e-02 5.022900179028511047e-02 -4.865470156073570251e-02 -9.788925200700759888e-02 5.208528600633144379e-03 8.354493230581283569e-02 2.143384143710136414e-02 2.694878540933132172e-02 7.516051828861236572e-02 1.927620619535446167e-01 -3.916835784912109375e-02 -1.061733532696962357e-02 1.801170557737350464e-01 -1.139589026570320129e-02 3.990065306425094604e-02 1.800316423177719116e-01 -1.194756105542182922e-02 -1.711050122976303101e-01 -4.202140495181083679e-02 5.119006708264350891e-02 1.480719000101089478e-01 -1.336561888456344604e-01 5.793533101677894592e-02 -7.324589043855667114e-02 1.061176061630249023e-01 -3.038831427693367004e-02 6.012105941772460938e-02 -4.623844474554061890e-02 1.237628757953643799e-01 2.783543169498443604e-01
9.303604066371917725e-02 -3.306678235530853271e-01 1.643538326025009155e-01 7.433561235666275024e-02 9.445127099752426147e-03 -9.452399611473083496e-02 1.092300638556480408e-01 -2.423588000237941742e-02 2.128657847642898560e-01 -1.606794446706771851e-01 -1.093019619584083557e-01 -2.702517211437225342e-01 -2.010516375303268433e-01 -2.179275155067443848e-01 5.531472712755203247e-02 -1.621462702751159668e-01 6.183169316500425339e-04 -2.234166562557220459e-01 1.030303537845611572e-02 -1.341582834720611572e-01 1.700843125581741333e-01 2.460701949894428253e-02 2.593202516436576843e-03 2.910771220922470093e-02 -4.227131232619285583e-02 -8.217849582433700562e-02 1.108114197850227356e-01 -2.123720496892929077e-01 1.665385812520980835e-01 -2.514580031856894493e-03 -1.508072167634963989e-01 2.910802960395812988e-01 -1.154252048581838608e-02 4.700260981917381287e-02 7.709909975528717041e-02 1.564728468656539917e-01 2.120950222015380859e-01 1.153013631701469421e-01 -5.886606127023696899e-02 2.940532267093658447e-01 8.296891115605831146e-03 6.210433319211006165e-02 -1.224591583013534546e-01 1.385249048471450806e-01 3.792766248807311058e-03 1.899808943271636963e-01 -1.058730557560920715e-01 -1.174026504158973694e-01 -9.798228740692138672e-02 -1.214230135083198547e-01 1.037740821629995480e-05 -2.546659708023071289e-01 -2.378738224506378174e-01 3.403817070648074150e-03 -3.211420029401779175e-02 -6.029062718152999878e-02 4.819754138588905334e-02 5.330044776201248169e-02 1.208928599953651428e-01 1.517568379640579224e-01 -2.108692973852157593e-01 4.970876872539520264e-02 5.310812219977378845e-02 7.721734582446515560e-04 1.526521425694227219e-02 1.279283314943313599e-01 1.758127287030220032e-02 -4.211521148681640625e-02 -1.150074135512113571e-02 -3.957533091306686401e-02 -1.237885355949401855e-01 -1.043714676052331924e-02 1.143882349133491516e-01 9.412733465433120728e-02 1.950839906930923462e-01 6.415049731731414795e-02 -1.990722119808197021e-02 2.659887634217739105e-02 6.893671303987503052e-02 -1.430459767580032349e-01 2.342326380312442780e-02 3.952775895595550537e-02 1.077531501650810242e-01 -6.603938341140747070e-02 -9.238991886377334595e-02 -2.485707551240921021e-01 -1.945447325706481934e-01 -2.184865474700927734e-01 1.033188868314027786e-02 8.162687718868255615e-02 1.885957717895507812e-01 -9.758909791707992554e-02 2.487867772579193115e-01 2.578319609165191650e-01 4.793713986873626709e-02 2.154947258532047272e-02 4.098075628280639648e-02 1.205857247114181519e-01 -1.221081987023353577e-01 9.066397696733474731e-02 1.322299689054489136e-01 -5.083661153912544250e-02 -2.615077653899788857e-03 5.136295035481452942e-02 6.376177817583084106e-02 3.697423730045557022e-03 -7.222374528646469116e-02 -7.278265058994293213e-02 -3.856097757816314697e-01 -1.327972207218408585e-02 2.643634080886840820e-01 -1.611115783452987671e-01 -3.644501268863677979e-01 -1.043357104063034058e-01 -2.334769070148468018e-02 -1.705968081951141357e-01 -3.744230419397354126e-02 -1.162440478801727295e-01 -1.643035560846328735e-01 1.323013603687286377e-01 1.447416562587022781e-02 -1.912848092615604401e-02 1.716228574514389038e-01 1.538499444723129272e-01 -5.526062846183776855e-02 -2.680374309420585632e-02 1.806414574384689331e-01 2.170052081346511841e-01
-7.572206202894449234e-03 4.830512031912803650e-02 5.036260117776691914e-04 8.709637448191642761e-03 3.521991521120071411e-02 -3.293280303478240967e-02 -1.320496350526809692e-01 -2.358631603419780731e-02 -1.411511898040771484e-01 4.776632785797119141e-02 1.161833778023719788e-01 -1.858742982149124146e-01 8.664074540138244629e-02 -1.742329299449920654e-01 8.693666756153106689e-02 -1.277867853641510010e-01 2.198516428470611572e-01 -1.131016016006469727e-01 -9.492780268192291260e-02 -1.746672242879867554e-01 7.439222652465105057e-03 -2.767373919486999512e-01 -6.814046949148178101e-02 -7.843907177448272705e-02 -3.272888809442520142e-02 1.263921707868576050e-01 -1.037495881319046021e-01 -1.092794463038444519e-01 -1.196080744266510010e-01 1.933878511190414429e-01 -3.983987122774124146e-02 9.803701937198638916e-02 -1.723899841308593750e-01 -2.092194110155105591e-01 -2.048968710005283356e-02 -1.715830564498901367e-01 -1.352493911981582642e-01 -9.096349775791168213e-02 3.698076307773590088e-01 -1.136511787772178650e-01 1.240876615047454834e-01 -2.808164060115814209e-01 -1.526684910058975220e-01 -9.931606054306030273e-02 -2.083369158208370209e-02 -2.114445269107818604e-01 -2.510185837745666504e-01 -5.278537794947624207e-02 -1.540321707725524902e-01 9.891280904412269592e-03 -1.750664710998535156e-01 4.119092226028442383e-02 -2.914452925324440002e-02 -4.316619783639907837e-02 -8.660181611776351929e-02 -9.530666470527648926e-02 -1.583667993545532227e-01 3.669070452451705933e-02 3.460319340229034424e-02 1.237375810742378235e-01 -3.263723850250244141e-02 7.681909203529357910e-02 2.360353320837020874e-01 -3.895774483680725098e-02 1.526489257812500000e-01 2.113857865333557129e-01 1.949224807322025299e-02 -5.834861472249031067e-02 7.887071371078491211e-02 -3.317815065383911133e-02 1.907164044678211212e-02 -3.125997260212898254e-02 1.249829456210136414e-01 -9.337570518255233765e-02 5.249362811446189880e-02 -1.364431232213973999e-01 3.103913366794586182e-01 7.280193269252777100e-02 -1.043404415249824524e-01 -5.961659550666809082e-02 2.253906428813934326e-01 -2.169917151331901550e-02 -6.223732978105545044e-02 -1.961204558610916138e-01 -9.038563817739486694e-03 -3.924713283777236938e-02 2.203019559383392334e-01 9.429559856653213501e-02 6.324119120836257935e-02 1.710544526576995850e-01 2.699024509638547897e-03 1.381796002388000488e-01 -2.014132961630821228e-02 -5.685033649206161499e-02 -5.847999826073646545e-03 -1.477478295564651489e-01 -9.255257248878479004e-02 1.176091507077217102e-01 -1.580628901720046997e-01 3.295934572815895081e-02 2.568574547767639160e-01 9.453689306974411011e-02 -5.196559429168701172e-02 -1.476657018065452576e-02 1.902656406164169312e-01 -8.185470849275588989e-02 5.030059814453125000e-02 2.215006351470947266e-01 -3.661234676837921143e-02 -4.004843905568122864e-02 1.652407795190811157e-01 1.706731319427490234e-02 1.508549600839614868e-01 1.673376411199569702e-01 4.097737744450569153e-02 2.821612656116485596e-01 1.742132194340229034e-02 -2.569017745554447174e-02 1.222783885896205902e-02 2.201807349920272827e-01 5.285937339067459106e-02 4.662115871906280518e-02 -8.238758891820907593e-02 -5.787895619869232178e-02 -8.470224589109420776e-02 -1.750322729349136353e-01 -1.620831042528152466e-01 1.441186964511871338e-01
-1.067016124725341797e-01 1.240211818367242813e-02 3.047109246253967285e-01 1.383727136999368668e-02 -2.718009352684020996e-01 -6.110389903187751770e-02 -1.066881883889436722e-02 1.365881115198135376e-01 3.115567006170749664e-02 -2.532883286476135254e-01 6.219380348920822144e-02 -1.080103144049644470e-01 1.953189820051193237e-01 -1.041609123349189758e-01 6.267298012971878052e-02 2.915752828121185303e-01 1.884978264570236206e-01 -4.002845380455255508e-03 1.719669550657272339e-01 -1.005428507924079895e-01 1.532516907900571823e-02 -3.898791596293449402e-02 -3.260473534464836121e-02 8.882901817560195923e-02 1.191675066947937012e-01 1.722112745046615601e-01 1.681234836578369141e-01 3.612285852432250977e-02 1.245922744274139404e-01 -1.962727159261703491e-01 3.506287038326263428e-01 1.407183706760406494e-02 9.651820361614227295e-02 6.087154150009155273e-02 1.127782985568046570e-01 1.381321344524621964e-02 -7.965674996376037598e-02 1.810959540307521820e-02 -2.148092240095138550e-01 -3.552428483963012695e-01 3.623998165130615234e-02 -2.499684318900108337e-02 1.630128175020217896e-01 1.516369283199310303e-01 1.644402146339416504e-01 -1.371203362941741943e-01 -8.937519975006580353e-03 -4.613214358687400818e-02 3.920472040772438049e-02 1.263899654150009155e-01 -1.780377924442291260e-01 -1.953135579824447632e-01 1.098254919052124023e-01 -1.432063877582550049e-01 1.808847039937973022e-01 2.103581130504608154e-01 -3.788843750953674316e-02 -1.934793144464492798e-01 -9.782721102237701416e-02 -4.393696784973144531e-02 2.191731706261634827e-02 -3.211180865764617920e-01 2.324337512254714966e-01 -2.542690336704254150e-01 2.614540280774235725e-03 -8.791467547416687012e-02 -1.367810219526290894e-01 -7.914891093969345093e-02 6.427230685949325562e-02 -1.723773479461669922e-01 8.607688546180725098e-02 -1.664382666349411011e-01 8.168563246726989746e-02 -2.673090100288391113e-01 1.267368197441101074e-01 -5.871043354272842407e-02 -1.435555517673492432e-01 -1.444345712661743164e-02 3.093124926090240479e-01 -6.205806136131286621e-02 2.613716721534729004e-01 -5.587114766240119934e-02 -1.213063970208168030e-01 -1.680602729320526123e-01 1.201833337545394897e-01 -1.487234979867935181e-01 7.501544896513223648e-03 -2.826782464981079102e-01 -3.053738735616207123e-02 1.281225532293319702e-01 -3.280386030673980713e-01 5.079227313399314880e-02 8.696800470352172852e-02 4.491959884762763977e-02 -1.844600960612297058e-02 -3.096016347408294678e-01 4.909912496805191040e-02 9.704996645450592041e-02 -6.290019303560256958e-02 -3.605222329497337341e-02 3.083329498767852783e-01 -1.624016761779785156e-01 -9.108582511544227600e-03 1.465255469083786011e-01 -3.394557908177375793e-02 -1.008884012699127197e-01 -2.569105327129364014e-01 3.193651884794235229e-02 -3.795468434691429138e-02 2.854117937386035919e-02 -2.587088942527770996e-01 4.885265603661537170e-02 -7.196480408310890198e-03 2.197548151016235352e-01 2.711125016212463379e-01 1.681104749441146851e-01 -4.113994538784027100e-02 -2.706294357776641846e-01 3.269611299037933350e-01 6.361582875251770020e-02 5.102788098156452179e-03 -7.191182672977447510e-02 -1.628355830907821655e-01 -1.126432791352272034e-02 -1.682437360286712646e-01 3.065203428268432617e-01 -2.859327383339405060e-02 2.699231803417205811e-01
-1.257042437791824341e-01 9.522886015474796295e-03 -8.428854495286941528e-02 5.534276738762855530e-02 -5.668868869543075562e-02 -6.853123009204864502e-02 -1.024769023060798645e-01 -1.040078923106193542e-01 -1.010362505912780762e-01 8.032498881220817566e-03 1.060567051172256470e-01 -6.484278291463851929e-02 -7.039733976125717163e-02 -1.869930513203144073e-02 -6.569448858499526978e-02 -8.114339411258697510e-02 4.229021817445755005e-02 1.886504441499710083e-01 2.737450040876865387e-02 1.127949804067611694e-01 8.937702327966690063e-02 6.920951604843139648e-02 1.171702593564987183e-01 1.012747213244438171e-01 3.653568029403686523e-02 7.853414863348007202e-02 -3.143998980522155762e-02 1.197320669889450073e-01 -1.497319191694259644e-01 -9.474361687898635864e-02 -3.065109997987747192e-02 1.915700286626815796e-01 -1.290919817984104156e-02 6.881032604724168777e-03 -7.779537234455347061e-03 -5.717060342431068420e-02 1.023162230849266052e-01 -4.729956761002540588e-02 2.446116320788860321e-02 -1.249472703784704208e-02 -1.927456259727478027e-01 -2.659637928009033203e-01 -8.956955745816230774e-03 -1.848490675911307335e-03 1.575542092323303223e-01 -5.400405451655387878e-02 2.664342708885669708e-02 1.137395203113555908e-01 7.437389343976974487e-02 8.102668821811676025e-02 2.801356911659240723e-01 3.117792494595050812e-02 -1.465629786252975464e-01 -5.598355084657669067e-02 -2.510164678096771240e-01 4.311383888125419617e-02 -4.168755561113357544e-02 1.013263538479804993e-01 -1.834402419626712799e-02 -5.209694057703018188e-02 1.169283092021942139e-01 -1.046474426984786987e-01 1.224902123212814331e-01 8.265952020883560181e-02 -2.595648542046546936e-02 2.446101009845733643e-01 -5.155876278877258301e-02 2.457019872963428497e-02 -2.552207112312316895e-01 1.628136038780212402e-01 -2.000356018543243408e-01 1.415713969618082047e-02 -1.136650592088699341e-01 1.035133004188537598e-01 1.248521879315376282e-01 -1.401194278150796890e-02 -7.103198766708374023e-02 -1.616386324167251587e-01 -1.285091191530227661e-01 -2.544030919671058655e-02 3.567416965961456299e-02 2.205994166433811188e-02 9.329785406589508057e-02 -1.868753880262374878e-02 -1.445984393358230591e-01 8.772117644548416138e-02 -3.934865817427635193e-02 -5.847831256687641144e-03 7.649996131658554077e-02 -8.799223601818084717e-02 4.344077780842781067e-02 7.128471136093139648e-02 4.677570611238479614e-02 -9.393072873353958130e-02 1.919732391834259033e-01 -1.157673597335815430e-01 -9.378054738044738770e-02 1.795532740652561188e-02 -2.638714201748371124e-02 -1.853536963462829590e-01 3.502068668603897095e-02 -5.400189012289047241e-02 -9.996619075536727905e-02 -4.202582407742738724e-03 -4.893495142459869385e-02 -1.177475154399871826e-01 2.261425703763961792e-01 2.021416127681732178e-01 -4.183034598827362061e-01 7.593945600092411041e-03 -8.406040817499160767e-02 3.914384171366691589e-03 1.531363874673843384e-01 -4.419966042041778564e-02 -1.724124848842620850e-01 2.261363714933395386e-01 -1.407204270362854004e-01 -2.757984213531017303e-02 6.548945326358079910e-03 1.729628890752792358e-01 1.542252451181411743e-01 -1.141895260661840439e-02 4.993776604533195496e-02 2.051876857876777649e-02 -5.867538973689079285e-02 8.267784491181373596e-03 9.167623519897460938e-02 -1.216618046164512634e-01
2.451218515634536743e-01 -1.265881508588790894e-01 -1.097731515765190125e-01 8.827509731054306030e-02 -1.129492446780204773e-01 -7.080405205488204956e-02 -1.162995845079421997e-01 9.469181299209594727e-02 -8.887463808059692383e-02 1.259012222290039062e-01 2.089362405240535736e-02 -2.039643973112106323e-01 1.267296634614467621e-02 -7.737998664379119873e-02 -1.785328239202499390e-01 -4.823558032512664795e-01 -8.792620152235031128e-02 -1.550067961215972900e-01 6.314310710877180099e-03 -7.980518043041229248e-02 -2.136685997247695923e-01 3.871366381645202637e-01 8.299680054187774658e-02 1.897492557764053345e-01 2.432759478688240051e-02 5.471043288707733154e-02 2.425591647624969482e-01 1.296947151422500610e-01 1.841452717781066895e-01 9.701488912105560303e-02 -1.279146522283554077e-01 -1.045968905091285706e-01 1.275323890149593353e-02 -1.631423830986022949e-01 1.577318296767771244e-03 -2.320526540279388428e-01 2.060185670852661133e-01 3.754354640841484070e-02 1.045085787773132324e-01 1.313056200742721558e-01 1.368900686502456665e-01 4.921790957450866699e-02 -5.515921488404273987e-02 8.873165398836135864e-02 3.606672585010528564e-02 1.900498270988464355e-01 -1.851995587348937988e-01 -5.341904610395431519e-02 5.247422307729721069e-02 -1.638260483741760254e-01 1.017445027828216553e-01 -4.015352576971054077e-02 5.412168800830841064e-02 1.864296942949295044e-01 5.557012930512428284e-02 -1.051827371120452881e-01 2.103803157806396484e-01 1.123814061284065247e-01 1.034712865948677063e-01 7.430689409375190735e-03 8.456728607416152954e-02 -3.503990918397903442e-02 -2.057857625186443329e-02 -4.247451666742563248e-03 -1.146377325057983398e-01 1.295619308948516846e-01 -5.894163250923156738e-02 8.910501748323440552e-02 4.742022976279258728e-02 1.003873944282531738e-01 2.472700774669647217e-01 1.111460626125335693e-01 3.848830610513687134e-02 -1.656379103660583496e-01 3.435957804322242737e-02 -7.813633233308792114e-02 -6.700138747692108154e-02 -9.788794815540313721e-02 1.451907902956008911e-01 -3.070777654647827148e-01 -7.180868834257125854e-02 2.173366770148277283e-02 1.141629666090011597e-01 -2.433166466653347015e-02 -2.652597986161708832e-02 -1.065647527575492859e-01 -1.160614863038063049e-01 -1.964234858751296997e-01 -7.529592514038085938e-02 -1.846380382776260376e-01 -3.404580056667327881e-01 1.065234541893005371e-01 7.626854628324508667e-02 3.282179534435272217e-01 -5.308851599693298340e-02 -7.753949612379074097e-02 1.004613786935806274e-01 -1.099934279918670654e-01 -5.657109990715980530e-02 3.118871748447418213e-01 -1.413099616765975952e-01 -2.779178023338317871e-01 6.610114872455596924e-02 -1.039073690772056580e-01 3.447555378079414368e-02 1.581410467624664307e-01 -6.148620322346687317e-02 2.982155084609985352e-01 -1.943123936653137207e-01 6.583970785140991211e-02 7.037794217467308044e-03 1.051197499036788940e-01 6.354074925184249878e-03 -5.480744689702987671e-02 -2.167937457561492920e-01 1.158121898770332336e-01 3.522133827209472656e-01 -5.468576680868864059e-03 -1.191105246543884277e-01 -1.601979732513427734e-01 -8.687432855367660522e-02 1.538453903049230576e-02 1.959258131682872772e-02 2.148644626140594482e-01 -4.984909296035766602e-02 1.631041467189788818e-01 -2.404907019808888435e-03 -9.563694149255752563e-02
-1.415264010429382324e-01 -1.003715842962265015e-01 -2.219642698764801025e-01 3.374756500124931335e-02 -8.905760198831558228e-02 1.805306226015090942e-01 -5.573775991797447205e-02 -2.148959338665008545e-01 -1.037814244627952576e-01 1.055018417537212372e-02 -6.911388784646987915e-02 1.705174148082733154e-01 6.573583930730819702e-02 -1.629704087972640991e-01 2.510425746440887451e-01 -9.087040275335311890e-02 8.008841425180435181e-03 1.156345754861831665e-01 -7.464003562927246094e-02 2.118953168392181396e-01 -3.578733280301094055e-02 6.456970423460006714e-02 -2.371312379837036133e-01 1.316539645195007324e-01 -4.388415440917015076e-02 -6.396812945604324341e-02 -2.457950636744499207e-02 -1.139198169112205505e-01 -1.426529437303543091e-01 -2.093334794044494629e-01 -2.473582029342651367e-01 -1.599435199750587344e-04 9.683976322412490845e-02 -6.005437299609184265e-02 -9.645014256238937378e-02 -9.790302067995071411e-02 3.028046153485774994e-02 7.206021994352340698e-02 -7.637897972017526627e-03 -8.565434813499450684e-02 7.620677817612886429e-03 -2.096632421016693115e-01 1.192916259169578552e-01 1.400799751281738281e-01 1.486458629369735718e-01 1.845982372760772705e-01 -2.082928083837032318e-02 1.412912607192993164e-01 -1.796994805335998535e-01 -8.447439409792423248e-03 -1.881983876228332520e-02 -1.920562535524368286e-01 1.273262053728103638e-01 -5.925556644797325134e-02 4.113357886672019958e-02 2.302799373865127563e-01 -1.871736347675323486e-02 -5.489210132509469986e-03 1.434782594442367554e-01 2.234141342341899872e-02 3.127351030707359314e-02 1.341101378202438354e-01 -1.078216508030891418e-01 1.589138954877853394e-01 1.374531239271163940e-01 -6.297391373664140701e-03 8.490640670061111450e-02 8.366008847951889038e-02 9.868112392723560333e-03 1.046730428934097290e-01 5.026218667626380920e-02 1.004557013511657715e-01 1.880381070077419281e-02 3.741607442498207092e-02 4.044694826006889343e-02 2.095857709646224976e-01 1.618909239768981934e-01 -2.543793059885501862e-02 1.988678798079490662e-02 6.680833548307418823e-02 1.115566194057464600e-01 1.325734108686447144e-01 1.045794263482093811e-01 -1.361766904592514038e-01 -2.988585643470287323e-02 -3.199005126953125000e-01 -1.690892130136489868e-01 7.047932595014572144e-02 -2.523732371628284454e-02 3.510867431759834290e-02 1.588966846466064453e-01 -6.783670932054519653e-02 -9.302622824907302856e-02 1.756633669137954712e-01 -8.616928011178970337e-02 -1.453303098678588867e-01 -6.046899780631065369e-02 -2.703896164894104004e-01 -2.800099551677703857e-02 6.988239288330078125e-02 2.679104208946228027e-01 -1.598553266376256943e-03 -7.956460118293762207e-02 -1.472851932048797607e-01 -1.842942088842391968e-01 -2.069655656814575195e-01 1.705088764429092407e-01 -2.188254594802856445e-01 -6.705912202596664429e-02 1.197113245725631714e-01 -5.035009607672691345e-02 -8.319110423326492310e-02 1.088790129870176315e-02 1.768630295991897583e-01 3.655204782262444496e-03 1.125940978527069092e-01 2.084983699023723602e-02 -2.102778106927871704e-01 -1.227906644344329834e-01 -4.307120665907859802e-02 2.354907542467117310e-01 4.520443826913833618e-02 -4.119305405765771866e-03 -2.802903577685356140e-02 -3.705637936946004629e-04 -1.283835619688034058e-01 9.938567876815795898e-02 -2.082090228796005249e-01
1.082008425146341324e-02 -7.357835769653320312e-02 1.841714084148406982e-01 -2.699435949325561523e-01 1.292673796415328979e-01 7.246795296669006348e-02 -1.079555228352546692e-01 -5.272407457232475281e-02 -6.979322433471679688e-02 -8.540964126586914062e-02 2.108318805694580078e-01 7.186540216207504272e-02 2.802311442792415619e-02 1.301251631230115891e-02 -6.156423315405845642e-02 -2.775931060314178467e-01 -1.036554109305143356e-02 3.508382290601730347e-02 2.416894137859344482e-01 -1.487290710210800171e-01 3.659773766994476318e-01 -2.940488159656524658e-01 2.241416275501251221e-02 -7.563922088593244553e-03 4.649338871240615845e-02 -5.775452032685279846e-02 5.074780434370040894e-03 3.427639976143836975e-02 1.076274961233139038e-01 -9.587805718183517456e-02 -8.089323341846466064e-02 -6.903590261936187744e-02 2.264863997697830200e-01 -6.939157843589782715e-02 3.493556007742881775e-02 -3.115071654319763184e-01 8.723924309015274048e-02 -2.924881130456924438e-02 2.649552002549171448e-02 -5.644933134317398071e-02 2.074341922998428345e-01 8.222270011901855469e-02 8.410631120204925537e-02 -3.042046912014484406e-02 7.918627560138702393e-02 2.147032693028450012e-02 7.277929037809371948e-02 -1.783653795719146729e-01 2.933839857578277588e-01 1.921528428792953491e-01 -5.769362300634384155e-02 -7.254969328641891479e-02 -1.101898178458213806e-01 3.367934376001358032e-02 -1.584751009941101074e-01 -4.432023689150810242e-02 9.045041352510452271e-02 4.050812497735023499e-02 -3.780874609947204590e-02 1.189812645316123962e-02 2.603045403957366943e-01 -2.264207154512405396e-01 -1.975434869527816772e-01 -9.286964684724807739e-02 -7.032047212123870850e-02 1.252487897872924805e-01 1.152800619602203369e-01 -8.643203182145953178e-04 -2.077798843383789062e-01 -7.086163759231567383e-02 -6.295689940452575684e-02 -9.335990250110626221e-02 -8.232219517230987549e-02 2.564126253128051758e-02 -6.411556899547576904e-02 1.377647370100021362e-01 -7.795634120702743530e-02 -1.997641175985336304e-01 8.735937881283462048e-04 1.032780408859252930e-01 -2.411972582340240479e-01 1.238535940647125244e-01 -1.050275713205337524e-01 -1.528474837541580200e-01 -2.396375127136707306e-02 -1.689509898424148560e-01 2.636957466602325439e-01 2.086784094572067261e-01 -5.549170449376106262e-02 -4.409669712185859680e-02 -1.485574245452880859e-01 -1.132279112935066223e-01 -1.538367569446563721e-01 1.751493215560913086e-01 1.205138266086578369e-01 4.219996184110641479e-02 -1.803225427865982056e-01 -2.035404443740844727e-01 -2.744476199150085449e-01 2.435070574283599854e-01 1.176324263215065002e-01 -6.313589960336685181e-02 6.152528524398803711e-02 6.835878640413284302e-02 1.869911402463912964e-01 3.959976509213447571e-02 1.190972253680229187e-01 -1.314978897571563721e-01 6.665512919425964355e-02 5.890287458896636963e-02 2.237808555364608765e-01 2.261503487825393677e-01 -1.151127833873033524e-02 -3.894221782684326172e-02 4.421765450388193130e-03 -1.198308318853378296e-01 4.716442152857780457e-02 1.019070744514465332e-01 4.866417031735181808e-03 1.474194228649139404e-01 1.667233109474182129e-01 7.794389501214027405e-03 1.217239871621131897e-01 1.561808288097381592e-01 4.183233156800270081e-02 -2.205184400081634521e-01 -2.620118111371994019e-02 8.928499184548854828e-03
-2.777352035045623779e-01 5.472622066736221313e-02 1.690154075622558594e-01 -5.528406798839569092e-02 1.191053763031959534e-01 -9.406856447458267212e-02 2.344417572021484375e-02 2.003163397312164307e-01 -6.133274361491203308e-02 -1.195807084441184998e-01 -1.155414283275604248e-01 -8.014152199029922485e-02 7.522262632846832275e-02 1.539311744272708893e-02 -5.874836817383766174e-02 -1.989324986934661865e-01 -9.448038414120674133e-03 9.123377501964569092e-03 -5.521902441978454590e-02 -6.456873565912246704e-02 1.665938347578048706e-01 -1.228596419095993042e-01 -1.152922399342060089e-02 1.816911101341247559e-01 -1.308511197566986084e-01 -6.972765922546386719e-02 -9.202958643436431885e-02 -7.630122359842061996e-03 1.716503202915191650e-01 -8.523773401975631714e-02 1.604385860264301300e-02 -6.861485540866851807e-03 -1.170114241540431976e-02 3.107713721692562103e-02 1.921827904880046844e-02 -4.312868416309356689e-02 -1.863611340522766113e-01 1.734657436609268188e-01 -1.455785781145095825e-01 -1.111686080694198608e-01 -1.147877797484397888e-01 8.671164512634277344e-02 1.887355297803878784e-01 -3.025302849709987640e-02 -2.069024592638015747e-01 1.045505106449127197e-01 5.783720687031745911e-02 -4.098199680447578430e-02 -1.027000397443771362e-01 6.119567900896072388e-02 3.041598498821258545e-01 -4.217728972434997559e-02 5.091185681521892548e-03 -1.751037538051605225e-01 -6.912723183631896973e-02 5.897092446684837341e-02 -1.382514089345932007e-01 -1.367535162717103958e-02 2.286431752145290375e-02 1.025132462382316589e-01 2.651432342827320099e-02 1.505657285451889038e-01 -8.809070289134979248e-02 -2.603412605822086334e-02 6.246949546039104462e-03 2.654793299734592438e-02 1.917242854833602905e-01 -1.455465555191040039e-01 2.364278212189674377e-02 -4.262489825487136841e-02 -5.034189205616712570e-03 -1.243987977504730225e-01 -3.819174319505691528e-02 -4.331532865762710571e-02 -7.456211745738983154e-02 -8.798837661743164062e-02 -3.049075007438659668e-01 -1.039073765277862549e-01 1.387172341346740723e-01 4.339868575334548950e-02 1.552812103182077408e-02 -1.036331728100776672e-01 -3.821141645312309265e-02 1.427297294139862061e-01 -4.322964698076248169e-03 1.329519450664520264e-01 5.848674103617668152e-03 7.670950144529342651e-02 -5.668031424283981323e-02 2.316837906837463379e-01 -5.444357916712760925e-02 8.657689392566680908e-02 -9.952513128519058228e-02 3.969216719269752502e-02 -1.359139531850814819e-01 9.349942207336425781e-02 1.771455444395542145e-02 6.022564694285392761e-02 2.258440293371677399e-02 1.875060051679611206e-01 1.394505351781845093e-01 -9.560050442814826965e-03 -1.225537806749343872e-01 1.932728141546249390e-01 1.267867088317871094e-01 -1.107813939452171326e-01 1.745162159204483032e-02 -1.086300909519195557e-01 -1.777101755142211914e-01 -7.802877575159072876e-02 -5.427507311105728149e-02 1.442963927984237671e-01 -1.108543127775192261e-01 -3.206668198108673096e-01 1.057439446449279785e-01 -6.657144427299499512e-02 2.114462703466415405e-01 1.139045283198356628e-01 -1.532647013664245605e-01 1.191190257668495178e-01 7.771363854408264160e-02 -1.091808546334505081e-02 1.630010455846786499e-02 3.506492823362350464e-02 1.022654399275779724e-01 1.225079149007797241e-01 3.653715923428535461e-02 1.247307807207107544e-01
3.052423894405364990e-01 1.804352104663848877e-01 -1.883536130189895630e-01 3.181191906332969666e-02 7.057569175958633423e-02 -1.131023615598678589e-01 5.372758209705352783e-02 3.066772036254405975e-02 3.249776661396026611e-01 -1.898850500583648682e-01 -9.314138442277908325e-02 5.464897304773330688e-02 1.450254917144775391e-01 -1.565505862236022949e-01 -1.233722865581512451e-01 -1.064903289079666138e-01 2.157362550497055054e-01 -3.931663557887077332e-02 1.976810991764068604e-01 -1.016923040151596069e-01 -1.309248805046081543e-01 1.049448028206825256e-01 7.508049160242080688e-02 -1.432984024286270142e-01 2.019658870995044708e-02 -1.645705401897430420e-01 4.523000493645668030e-02 -5.249032005667686462e-02 -4.781979322433471680e-02 -1.896151751279830933e-01 4.399525746703147888e-02 4.909808561205863953e-02 -9.830404072999954224e-02 1.524752378463745117e-01 -1.624071598052978516e-01 4.293453320860862732e-02 1.383130848407745361e-01 2.352549694478511810e-02 1.100064367055892944e-01 -1.773993484675884247e-02 1.773607879877090454e-01 -3.695586463436484337e-03 4.387202858924865723e-02 2.463514804840087891e-01 7.431421428918838501e-02 2.832781895995140076e-02 3.225920349359512329e-02 3.885473683476448059e-02 -2.121123373508453369e-01 -2.161553800106048584e-01 1.114191710948944092e-01 6.513070315122604370e-02 4.574149847030639648e-02 7.537820783909410238e-05 1.397842168807983398e-01 -9.004672616720199585e-02 1.607529968023300171e-01 9.779457747936248779e-02 -4.407435655593872070e-02 7.002481818199157715e-02 2.119669914245605469e-01 2.768114507198333740e-01 -2.472289204597473145e-01 -1.303239762783050537e-01 -1.971191316843032837e-01 -1.188131328672170639e-02 2.231915742158889771e-01 -9.251910261809825897e-03 1.000998839735984802e-01 1.330094784498214722e-01 5.277852341532707214e-02 7.905652374029159546e-02 -1.472617238759994507e-01 -1.069813743233680725e-01 -1.347704138606786728e-02 2.713184952735900879e-01 1.110036671161651611e-01 1.810199618339538574e-01 -1.447951644659042358e-01 -1.180812194943428040e-01 1.485566943883895874e-01 2.042858749628067017e-01 1.945376396179199219e-01 -2.683991789817810059e-01 -9.173735976219177246e-02 -7.783497124910354614e-02 1.228256076574325562e-01 -2.911054529249668121e-02 -5.178038775920867920e-02 -1.001500785350799561e-01 -9.648937731981277466e-02 -2.179932445287704468e-01 -1.142186224460601807e-01 -3.883402794599533081e-02 -6.615378707647323608e-02 -1.604031026363372803e-02 2.032787166535854340e-02 -1.242583338171243668e-02 1.440883129835128784e-01 -3.648640587925910950e-02 -2.166539132595062256e-01 9.673693776130676270e-02 -1.300792843103408813e-01 -1.852470785379409790e-01 -4.048863425850868225e-02 7.390797883272171021e-02 4.728355631232261658e-02 3.479749336838722229e-02 5.081987753510475159e-02 5.252473056316375732e-02 -4.531172662973403931e-02 1.445075729861855507e-03 -2.844118177890777588e-01 1.179491505026817322e-01 -2.152560837566852570e-02 -2.934782393276691437e-02 -1.769149154424667358e-01 -2.306793779134750366e-01 -6.209859624505043030e-02 9.377815760672092438e-03 -2.116388827562332153e-02 -2.016246144194155931e-04 -1.655101589858531952e-02 3.845170512795448303e-02 4.117542412132024765e-03 -7.280334830284118652e-02 1.061893161386251450e-02 1.689118146896362305e-01
