5.781946703791618347e-03
-3.420490305870771408e-03
2.607628004625439644e-03
3.614912554621696472e-02
-4.793529398739337921e-03
1.743855886161327362e-02
2.695269137620925903e-02
-5.790588632225990295e-02
4.426856711506843567e-02
4.067576676607131958e-02
-3.796663880348205566e-02
-8.920273743569850922e-03
1.033130381256341934e-02
-1.176138408482074738e-02
-8.792251348495483398e-03
-1.305555831640958786e-02
-1.637839153409004211e-02
-2.121984027326107025e-02
9.254004806280136108e-03
-4.412554949522018433e-02
-1.483878958970308304e-02
-1.181210111826658249e-02
-1.780897960998117924e-03
2.404423896223306656e-03
3.343961015343666077e-02
1.427823118865489960e-02
2.387266792356967926e-02
-5.876197945326566696e-03
1.303016114979982376e-02
-1.195254176855087280e-02
-1.300850603729486465e-02
-2.235291898250579834e-02
2.708594314754009247e-03
-1.717567630112171173e-02
7.763019297271966934e-03
1.407848391681909561e-02
2.030166797339916229e-02
-2.651716396212577820e-02
-2.807581052184104919e-02
4.317699000239372253e-02
-2.743542008101940155e-02
2.291713841259479523e-03
-2.351664938032627106e-02
3.600274212658405304e-03
1.370420213788747787e-02
4.891913384199142456e-03
-1.931581646203994751e-02
-3.280324861407279968e-02
9.948504157364368439e-03
-4.331653472036123276e-04
5.066015943884849548e-02
-9.728490374982357025e-03
-1.991344988346099854e-02
-1.211513951420783997e-02
-7.414303719997406006e-03
-1.272204611450433731e-02
1.613971963524818420e-02
5.095543805509805679e-03
1.055320259183645248e-02
2.563810721039772034e-02
-1.735009998083114624e-02
2.597526414319872856e-03
-4.249899211572483182e-05
-3.207131102681159973e-02
-2.621755376458168030e-02
1.426096819341182709e-02
-3.147019073367118835e-02
6.684928201138973236e-03
4.938800819218158722e-03
3.952071443200111389e-02
2.099855430424213409e-02
2.610936528071761131e-03
-1.015970390290021896e-02
-5.456771235913038254e-03
1.635678298771381378e-02
4.714936763048171997e-02
2.558326907455921173e-02
-8.999611251056194305e-03
-2.055735513567924500e-02
-1.843276992440223694e-02
-1.837995834648609161e-02
2.176511660218238831e-02
5.390714481472969055e-02
-1.840617693960666656e-02
-1.167475432157516479e-02
-2.227121964097023010e-02
4.422784782946109772e-03
-2.415795112028717995e-03
2.723641321063041687e-02
-1.441098563373088837e-02
-1.804376393556594849e-02
-3.938540071249008179e-02
2.335564419627189636e-02
9.726283140480518341e-03
8.031845092773437500e-03
-1.239957474172115326e-02
3.072866052389144897e-02
7.301720324903726578e-03
9.885365143418312073e-03
-1.172683201730251312e-02
-5.669026076793670654e-02
-4.635738674551248550e-03
-1.839551888406276703e-02
-1.226859819144010544e-02
4.143205471336841583e-03
-2.078013931168243289e-04
1.566139236092567444e-02
-1.212871167808771133e-02
1.174677722156047821e-02
-6.345346104353666306e-03
2.362621575593948364e-02
8.549841120839118958e-03
1.300794258713722229e-02
-1.449194177985191345e-02
8.762810379266738892e-03
-1.095266360789537430e-02
-4.492309689521789551e-02
-9.723061230033636093e-04
1.150110736489295959e-02
-3.186657279729843140e-02
-4.465254396200180054e-02
2.251641452312469482e-02
9.417102672159671783e-03
1.926373690366744995e-02
-7.862968370318412781e-03
-1.172135677188634872e-02
3.868662193417549133e-02
-1.346144173294305801e-02
