-6.117166578769683838e-02 1.825563237071037292e-02 -9.557171911001205444e-02 4.409940540790557861e-02 -4.986599460244178772e-02 -2.111877501010894775e-02 1.226008236408233643e-01 -4.748371243476867676e-02 -1.418436467647552490e-01 3.016577847301959991e-02 3.625000268220901489e-02 -9.761669486761093140e-02 1.695831492543220520e-02 4.903688654303550720e-02 -6.397928111255168915e-03 -2.573855966329574585e-02 9.401997923851013184e-02 3.451130166649818420e-02 -9.470731765031814575e-02 -1.492380443960428238e-02 8.032440394163131714e-02 -1.368351131677627563e-01 -8.777853846549987793e-02 -1.809733361005783081e-02 1.324540078639984131e-01 -1.488241367042064667e-02 -5.700680613517761230e-02 -1.123523041605949402e-01 3.071577847003936768e-02 1.639270782470703125e-02 -3.025893121957778931e-02 -1.238769218325614929e-01 1.655219681560993195e-02 -2.481591515243053436e-02 1.804371364414691925e-02 2.471494115889072418e-02 -6.589882820844650269e-02 -8.127272129058837891e-03 1.363051980733871460e-01 -1.887985505163669586e-02 9.468302130699157715e-03 5.842596665024757385e-02 1.046820804476737976e-01 -1.295868754386901855e-01 4.913871735334396362e-02 9.154806286096572876e-02 1.779663376510143280e-02 -2.255909889936447144e-02 1.368424743413925171e-01 5.925748497247695923e-02 1.101066395640373230e-01 -3.698685765266418457e-02 -3.278873115777969360e-02 3.793070465326309204e-02 -2.578519284725189209e-02 2.412865310907363892e-01 2.542739734053611755e-02 1.551776528358459473e-01 -2.596746431663632393e-03 2.408528141677379608e-02 1.121745482087135315e-01 -1.268398575484752655e-02 -3.798156604170799255e-02 -2.109237946569919586e-02 7.744736969470977783e-02 -2.503884956240653992e-03 1.525327190756797791e-02 4.901302233338356018e-02 -4.921273887157440186e-02 -8.720225095748901367e-02 6.809891015291213989e-02 -6.113093346357345581e-02 -8.284483104944229126e-02 8.999757468700408936e-02 6.412687152624130249e-02 -1.093862694688141346e-03 -8.152610808610916138e-02 -9.029082208871841431e-02 -1.987452618777751923e-02 -4.174146428704261780e-02 2.185542834922671318e-03 1.181928440928459167e-01 -2.949139103293418884e-02 -5.844942852854728699e-02 -2.578783780336380005e-02 1.644174568355083466e-02 9.982480853796005249e-02 -3.509136661887168884e-02 2.827707864344120026e-02 -2.645352855324745178e-02 1.787898945622146130e-03 -4.072583839297294617e-02 -1.037691384553909302e-01 3.426227346062660217e-02 2.263728342950344086e-02 -6.119190901517868042e-02 -3.800907405093312263e-03 4.005162790417671204e-02 7.788532227277755737e-02 2.886861860752105713e-01 -2.290443144738674164e-02 2.662617340683937073e-02 8.303291350603103638e-02 4.454512521624565125e-02 7.249150425195693970e-02 -1.225980594754219055e-01 -4.456663969904184341e-03 -1.125254333019256592e-01 -1.905472725629806519e-01 -3.911061212420463562e-02 4.560562968254089355e-02 -7.090283036231994629e-01 1.108033731579780579e-01 1.064744442701339722e-01 -1.938643865287303925e-02 -4.406177997589111328e-02 2.772014215588569641e-02 7.533855736255645752e-02 2.880167029798030853e-02 7.114176452159881592e-02 4.798095673322677612e-02 -4.611394181847572327e-02 -9.275651536881923676e-03 1.351496428251266479e-01 2.009791322052478790e-03 2.603160683065652847e-03 1.851352490484714508e-02 -2.245022729039192200e-02
-3.523831069469451904e-02 6.811166554689407349e-02 4.240102693438529968e-02 -3.409412130713462830e-02 -5.368929356336593628e-02 -9.350667893886566162e-02 5.000774189829826355e-02 -1.451122574508190155e-02 6.588879227638244629e-02 1.925408691167831421e-01 -1.500931102782487869e-02 7.219611853361129761e-02 8.144326508045196533e-03 -1.257086079567670822e-02 -1.061866059899330139e-01 -5.819618701934814453e-02 8.480983227491378784e-02 -1.562374532222747803e-01 -1.334074735641479492e-01 -1.843732222914695740e-02 -1.051661521196365356e-01 -2.266350015997886658e-02 1.500593870878219604e-02 -9.239190816879272461e-02 6.466559320688247681e-02 -3.973386809229850769e-02 4.726711288094520569e-02 3.659849241375923157e-02 -1.678420156240463257e-01 7.280242443084716797e-02 7.015327364206314087e-02 -6.084067746996879578e-02 9.223168715834617615e-03 -7.430998980998992920e-02 3.768043825402855873e-03 -8.415707945823669434e-02 -9.677708894014358521e-02 1.100459843873977661e-01 7.961039990186691284e-02 1.852986961603164673e-02 -8.966033905744552612e-02 -2.383522875607013702e-02 3.154893219470977783e-02 2.280177175998687744e-01 6.477016210556030273e-02 -2.091878950595855713e-01 -1.274568438529968262e-01 1.224345993250608444e-02 3.090986013412475586e-01 -1.543550342321395874e-01 2.426617778837680817e-02 4.901629406958818436e-03 5.656674876809120178e-02 -1.549200862646102905e-01 -6.698100268840789795e-02 -5.440087988972663879e-02 1.059600710868835449e-01 1.625908538699150085e-02 1.454281434416770935e-02 9.040767699480056763e-02 -2.674721926450729370e-02 -8.048156648874282837e-02 -2.284208312630653381e-02 -2.112569659948348999e-01 -9.377355873584747314e-02 9.501840919256210327e-02 3.137621656060218811e-02 -7.266612350940704346e-02 5.048197135329246521e-02 -7.315719127655029297e-02 1.404840052127838135e-01 4.786057688761502504e-04 3.087797574698925018e-02 5.298034101724624634e-02 -3.763740882277488708e-02 6.708084791898727417e-02 1.059675440192222595e-01 1.051431968808174133e-01 -3.488127142190933228e-02 4.820364527404308319e-03 8.181849867105484009e-02 8.534029871225357056e-02 6.362948566675186157e-02 -1.328694075345993042e-01 2.526081725955009460e-02 -3.073287196457386017e-02 1.232613176107406616e-01 -3.795602619647979736e-01 -1.500167846679687500e-01 1.821115016937255859e-01 -1.270707231014966965e-02 3.171711787581443787e-02 1.861464828252792358e-01 1.166628114879131317e-02 -7.927737198770046234e-03 1.963442005217075348e-02 3.646969795227050781e-02 -4.680744186043739319e-02 6.599726527929306030e-02 6.101340055465698242e-02 -1.334751676768064499e-02 2.133580669760704041e-02 -4.980641417205333710e-03 1.424796227365732193e-02 1.045760363340377808e-01 -1.263601183891296387e-01 -4.559163004159927368e-02 2.847980707883834839e-02 -1.593901067972183228e-01 1.774845644831657410e-02 -2.187130786478519440e-02 1.427031308412551880e-01 -8.178686350584030151e-02 -3.392560034990310669e-02 -3.135449066758155823e-02 1.438590735197067261e-01 3.549959138035774231e-02 -8.434037119150161743e-02 4.929275810718536377e-02 -1.131573785096406937e-02 -1.475859731435775757e-01 -7.982803136110305786e-02 1.268360018730163574e-01 2.414646148681640625e-01 -9.793148189783096313e-02 -2.122246772050857544e-01 -5.792193859815597534e-02 6.221149489283561707e-02
-1.644148863852024078e-02 -3.107388620264828205e-04 -3.104662522673606873e-02 -3.085541725158691406e-02 -5.945116654038429260e-02 4.539616871625185013e-03 1.806235313415527344e-02 -2.342329919338226318e-02 -4.348339140415191650e-02 -3.297512233257293701e-02 1.203648373484611511e-02 1.178159564733505249e-01 -1.243857573717832565e-02 -3.153770044445991516e-02 -8.059279061853885651e-04 4.202053323388099670e-02 1.404539309442043304e-02 1.672862446866929531e-03 -7.106006890535354614e-02 -9.464207291603088379e-02 1.767349243164062500e-02 -1.909521408379077911e-02 1.791899651288986206e-02 1.738833525450900197e-04 4.820507392287254333e-02 -4.359791800379753113e-02 -5.039303004741668701e-02 2.923226915299892426e-02 7.237442582845687866e-02 -3.974742069840431213e-02 1.003303285688161850e-02 -2.239778451621532440e-02 8.438982069492340088e-02 -1.029323786497116089e-01 -2.260725572705268860e-02 -4.460256174206733704e-02 -3.452121838927268982e-02 7.477507740259170532e-02 2.734805829823017120e-02 4.312738031148910522e-02 6.114149466156959534e-02 -4.324781298637390137e-01 1.097533628344535828e-01 7.232527434825897217e-02 3.054002299904823303e-02 5.880944803357124329e-02 -1.398141980171203613e-01 -3.667063638567924500e-02 1.263608783483505249e-01 -4.242806229740381241e-03 5.415564402937889099e-02 -3.932763263583183289e-02 -7.447039335966110229e-02 -1.606328189373016357e-01 1.553798764944076538e-01 3.514670580625534058e-02 -4.748116806149482727e-02 -7.124757766723632812e-02 8.331584744155406952e-03 -3.661521524190902710e-02 1.937662018463015556e-03 -4.392628744244575500e-02 -5.966231971979141235e-02 7.333581801503896713e-03 3.637545183300971985e-02 2.935907617211341858e-02 6.063648313283920288e-02 -7.092609256505966187e-02 1.068781781941652298e-02 -4.415826406329870224e-03 -2.440847456455230713e-02 1.035551819950342178e-02 -7.546088099479675293e-02 4.228673875331878662e-02 -1.552791055291891098e-02 1.860524713993072510e-02 1.880686543881893158e-02 1.466171815991401672e-03 8.269397914409637451e-02 8.124783635139465332e-03 1.082208976149559021e-01 7.659464608877897263e-03 -4.318550974130630493e-02 2.361503429710865021e-02 -6.012242659926414490e-02 1.349767204374074936e-02 -7.374605536460876465e-02 1.100235059857368469e-02 -1.907463930547237396e-02 1.725809872150421143e-01 -1.010169684886932373e-01 -1.235656626522541046e-02 6.946317385882139206e-03 7.469949126243591309e-02 5.469189211726188660e-02 6.114339828491210938e-02 -7.808329910039901733e-02 1.781060919165611267e-02 9.049291908740997314e-02 3.240513801574707031e-02 -2.994832396507263184e-02 -1.004461869597434998e-01 4.817711189389228821e-03 -1.947456598281860352e-02 3.963698446750640869e-02 -1.510092169046401978e-01 3.584153205156326294e-02 1.089871898293495178e-01 -1.967582106590270996e-01 9.590571373701095581e-02 -4.525090381503105164e-02 5.001137256622314453e-01 -1.551059931516647339e-01 -2.668842859566211700e-02 8.870434015989303589e-02 -9.399481862783432007e-02 1.315082050859928131e-02 1.131426766514778137e-01 -5.726563930511474609e-02 -4.789854213595390320e-02 -8.689218014478683472e-02 7.524996995925903320e-02 -1.139887720346450806e-01 1.557000260800123215e-02 9.739310294389724731e-02 -1.732404157519340515e-02 5.225203186273574829e-02 -5.879893433302640915e-03
-4.598604515194892883e-02 5.857016146183013916e-02 -3.888755664229393005e-02 -2.925470657646656036e-02 6.126369908452033997e-02 5.781741812825202942e-02 -7.285558432340621948e-02 -5.289840046316385269e-03 5.238195881247520447e-02 -1.960179395973682404e-02 -2.978752367198467255e-02 -4.709131270647048950e-02 -1.915986090898513794e-01 4.815609008073806763e-02 1.080902442336082458e-01 -1.818117499351501465e-02 -2.885481156408786774e-02 -9.309197217226028442e-02 9.561368264257907867e-03 -1.065882220864295959e-01 4.007550701498985291e-02 -1.095112264156341553e-01 4.632967337965965271e-02 -8.252491056919097900e-02 -7.127679139375686646e-02 -4.335694015026092529e-02 8.498556166887283325e-02 2.116990275681018829e-02 2.122669108211994171e-02 -9.941728413105010986e-02 -6.584791094064712524e-02 -4.925592616200447083e-02 8.415661007165908813e-02 3.462885692715644836e-02 -2.737572789192199707e-02 3.693882841616868973e-03 7.776368875056505203e-03 4.310875013470649719e-02 -4.319173842668533325e-02 6.665259599685668945e-02 1.118333935737609863e-01 2.759366668760776520e-02 6.626347312703728676e-04 3.502628579735755920e-02 4.921794310212135315e-02 5.863552540540695190e-02 1.152405980974435806e-02 5.763083696365356445e-02 3.986720368266105652e-02 1.655789464712142944e-01 1.317184120416641235e-01 -1.041545420885086060e-01 8.654990792274475098e-02 3.583719953894615173e-02 3.928496316075325012e-02 4.541325941681861877e-02 5.643399059772491455e-02 -5.340100079774856567e-02 -4.202413186430931091e-02 -3.890093788504600525e-02 -1.116209197789430618e-02 -5.271825939416885376e-02 1.705458573997020721e-02 9.887409210205078125e-02 5.680669844150543213e-02 1.193302795290946960e-01 2.875439822673797607e-02 9.472705423831939697e-02 -3.326544165611267090e-02 -3.575409576296806335e-02 4.125399980694055557e-03 4.300232976675033569e-02 -1.133465021848678589e-02 -4.055900126695632935e-02 -6.414052098989486694e-02 1.153898313641548157e-01 -4.577200487256050110e-02 1.649571582674980164e-03 -5.174460355192422867e-03 -1.711415126919746399e-02 -6.399050354957580566e-02 -1.192499604076147079e-02 -1.038438901305198669e-01 -2.502680569887161255e-02 1.067814975976943970e-01 -1.879815943539142609e-02 5.232328549027442932e-03 1.057142391800880432e-01 1.673408448696136475e-01 -1.154088079929351807e-01 -3.094507940113544464e-02 -8.407594636082649231e-03 -6.983209401369094849e-02 8.254953473806381226e-02 -2.398008480668067932e-02 4.649141430854797363e-02 -1.071935296058654785e-01 -1.968191005289554596e-02 1.228054389357566833e-01 4.745746031403541565e-02 5.798784550279378891e-03 3.590300306677818298e-02 -4.821096733212471008e-02 -1.737990230321884155e-02 -6.862934678792953491e-02 8.244520053267478943e-03 1.893318630754947662e-02 -1.731480509042739868e-01 4.368374496698379517e-02 -9.030027687549591064e-02 3.679943457245826721e-02 -3.911539018154144287e-01 -4.154394939541816711e-02 1.075881943106651306e-01 -6.790596246719360352e-02 8.061335235834121704e-02 -1.594754494726657867e-02 1.069105938076972961e-01 6.506812758743762970e-03 2.746584266424179077e-02 2.389285564422607422e-01 -6.599295139312744141e-02 5.081710219383239746e-02 -2.833499573171138763e-02 6.929759867489337921e-03 -5.850797519087791443e-03 1.194235756993293762e-01 -9.191921912133693695e-03
-7.237302511930465698e-02 1.208166107535362244e-01 -7.323135435581207275e-02 -5.050216987729072571e-02 5.717821046710014343e-02 -1.932592242956161499e-01 7.344036549329757690e-02 1.090993210673332214e-01 1.688446663320064545e-02 3.919194042682647705e-01 5.304688122123479843e-03 -2.562447488307952881e-01 -2.180117927491664886e-02 7.471866160631179810e-02 1.123154815286397934e-02 6.616383325308561325e-03 -7.642593234777450562e-02 8.217796683311462402e-02 1.405569016933441162e-01 5.122380331158638000e-02 -4.453014116734266281e-03 -4.915009811520576477e-02 -5.000441148877143860e-02 5.303601175546646118e-02 -3.958586230874061584e-02 -8.777387440204620361e-02 -3.114441595971584320e-02 3.759456565603613853e-03 -9.764919430017471313e-02 -2.383756786584854126e-01 -1.191633269190788269e-01 6.603746116161346436e-02 1.005358621478080750e-01 6.494626402854919434e-02 6.247463822364807129e-02 9.492399543523788452e-02 3.452814125921577215e-04 8.306469768285751343e-03 8.337661623954772949e-03 -2.522807195782661438e-02 2.083360962569713593e-02 -2.375399880111217499e-02 -5.802460759878158569e-02 4.166204482316970825e-02 -9.977574646472930908e-02 -3.159074485301971436e-02 -8.524673432111740112e-02 -5.956087727099657059e-03 -4.903484880924224854e-02 -1.219570636749267578e-01 1.349511593580245972e-01 -1.435300856828689575e-01 -2.634149231016635895e-02 3.592844307422637939e-02 -7.005834486335515976e-03 1.954625360667705536e-02 2.033222615718841553e-01 -5.913827195763587952e-02 1.671845838427543640e-02 -9.268532693386077881e-02 6.340152025222778320e-02 9.256971627473831177e-02 -4.349394887685775757e-02 -2.946350956335663795e-03 -1.230619475245475769e-01 3.339827433228492737e-02 5.760581791400909424e-02 6.862124800682067871e-02 8.765324950218200684e-03 3.981154039502143860e-02 7.891395688056945801e-02 1.880425028502941132e-02 -3.811229486018419266e-03 -2.940259873867034912e-02 -1.323151774704456329e-02 -1.183904781937599182e-01 -2.609614096581935883e-02 2.875168621540069580e-02 -5.911585316061973572e-02 6.201442703604698181e-02 3.083219937980175018e-02 -4.724701493978500366e-02 2.518421038985252380e-02 3.452438861131668091e-02 7.347697764635086060e-02 -1.349334716796875000e-01 3.461476042866706848e-02 -3.064713180065155029e-01 -1.508403290063142776e-02 -1.931453309953212738e-02 -3.476643189787864685e-02 -7.709605991840362549e-02 8.356019109487533569e-02 -3.710377961397171021e-02 -8.550196141004562378e-02 1.444800794124603271e-01 8.431827649474143982e-03 4.979104176163673401e-02 -1.369158853776752949e-04 4.475033655762672424e-02 -9.939993172883987427e-02 -4.926422983407974243e-02 4.380906373262405396e-02 1.295412778854370117e-01 -3.213976696133613586e-02 -2.315805107355117798e-01 -1.071500964462757111e-02 -1.750805675983428955e-01 -9.103763103485107422e-02 1.106694936752319336e-01 1.530953347682952881e-01 -1.098389998078346252e-01 -5.947418883442878723e-02 -2.115403674542903900e-02 -2.046772092580795288e-02 7.204011082649230957e-02 2.517125802114605904e-03 -1.269136965274810791e-01 -2.495791390538215637e-02 -2.723708748817443848e-02 1.241188049316406250e-01 -1.356033533811569214e-01 2.989716455340385437e-02 1.411141157150268555e-01 6.355515867471694946e-02 -6.961796432733535767e-02 1.821963042020797729e-01 6.185422837734222412e-02
-4.192396625876426697e-02 -2.767244353890419006e-02 -1.946078427135944366e-02 -4.066231846809387207e-02 4.168250411748886108e-02 7.074443995952606201e-02 4.393398389220237732e-02 2.946851402521133423e-02 -1.066613662987947464e-02 2.439916692674160004e-02 -2.076051570475101471e-02 -3.416938940063118935e-03 7.914268644526600838e-04 1.289810612797737122e-02 -3.664985671639442444e-02 7.073109596967697144e-02 3.999115142505615950e-04 8.393342606723308563e-03 -2.687367796897888184e-02 -1.345723867416381836e-03 -2.494736015796661377e-02 3.089077398180961609e-02 -4.661881178617477417e-02 -5.205304361879825592e-03 3.902769088745117188e-02 -8.146487921476364136e-02 6.283783912658691406e-02 1.564951799809932709e-02 3.344539180397987366e-02 -3.677680715918540955e-02 -1.135217547416687012e-01 -1.674589365720748901e-01 2.014113590121269226e-02 1.614534528926014900e-03 5.333494022488594055e-02 3.438441827893257141e-02 1.381214335560798645e-02 -4.704983439296483994e-03 -5.175460502505302429e-02 -8.022706955671310425e-03 -9.484295547008514404e-02 -2.813250720500946045e-01 -3.537952527403831482e-02 6.186579912900924683e-02 1.412114035338163376e-02 1.329064965248107910e-01 -8.021874725818634033e-02 -6.221965327858924866e-02 1.086090505123138428e-01 1.676994189620018005e-02 -6.613429635763168335e-02 8.487156033515930176e-02 -5.705516319721937180e-03 -7.061200216412544250e-03 6.499853916466236115e-03 7.155430316925048828e-02 4.770264495164155960e-04 1.834252476692199707e-02 1.362073328346014023e-02 -2.630622312426567078e-02 9.461810439825057983e-02 -2.589372359216213226e-02 2.828186936676502228e-02 -2.928755618631839752e-02 -5.284897983074188232e-02 -7.019933313131332397e-02 6.092522665858268738e-02 -1.009229570627212524e-02 -1.708817295730113983e-02 9.307733178138732910e-02 1.687174849212169647e-02 -2.568567357957363129e-02 -1.875765994191169739e-02 -8.643829077482223511e-02 -6.682641804218292236e-02 3.955134376883506775e-02 -3.718617558479309082e-02 4.888843372464179993e-02 7.426593452692031860e-02 -2.159455791115760803e-02 1.846946589648723602e-02 1.877729408442974091e-02 2.808975242078304291e-02 5.541831627488136292e-02 -3.027729876339435577e-02 1.168970391154289246e-01 -2.523959428071975708e-02 1.679427735507488251e-02 7.584705948829650879e-02 -5.690449103713035583e-02 -8.535921573638916016e-03 8.482954651117324829e-02 1.151999458670616150e-02 9.748263657093048096e-02 -5.830246210098266602e-02 -2.085619568824768066e-01 -2.062264271080493927e-02 -9.067322313785552979e-02 7.805624604225158691e-02 1.126596238464117050e-02 -4.846475645899772644e-02 -3.862740099430084229e-02 1.704820804297924042e-02 3.796897828578948975e-03 -1.328761968761682510e-02 1.112457662820816040e-01 -2.769960649311542511e-02 -2.225077478215098381e-03 3.873135894536972046e-02 -3.464868292212486267e-02 -1.321576186455786228e-03 5.788074731826782227e-01 -3.393736481666564941e-02 6.095023360103368759e-03 -3.439012169837951660e-02 -2.446234412491321564e-02 2.049072179943323135e-03 3.543946146965026855e-02 2.804011804983019829e-03 -8.017996698617935181e-02 -1.027336493134498596e-01 3.745999559760093689e-02 1.412916183471679688e-01 3.267882764339447021e-02 -5.734276957809925079e-03 -9.212565422058105469e-02 -6.212886422872543335e-02 -1.467173993587493896e-01
-2.559857070446014404e-02 9.244594722986221313e-02 8.981671184301376343e-02 -3.722190856933593750e-02 -1.973765343427658081e-02 6.946210563182830811e-02 -5.396825447678565979e-02 9.703114628791809082e-02 4.933434352278709412e-02 2.991710901260375977e-01 -1.468391809612512589e-02 6.000807508826255798e-02 -4.786236211657524109e-03 -1.343741565942764282e-01 -1.379533410072326660e-01 -1.053276062011718750e-01 7.959029823541641235e-02 -2.112457150360569358e-04 1.199702620506286621e-01 -2.430762350559234619e-02 -3.047501668334007263e-02 3.640072420239448547e-02 1.076940968632698059e-01 1.231670081615447998e-01 5.515690520405769348e-02 1.931193657219409943e-02 1.223108358681201935e-02 7.253775745630264282e-02 -2.561029791831970215e-02 3.706049174070358276e-02 -6.566611677408218384e-02 -5.978560075163841248e-02 7.664466649293899536e-02 2.664604457095265388e-03 -6.673183292150497437e-02 -6.216745078563690186e-02 1.809181421995162964e-01 -5.457616597414016724e-02 -5.883678421378135681e-02 -1.359680742025375366e-01 -2.773012965917587280e-04 1.853898316621780396e-01 2.107965527102351189e-03 2.357352524995803833e-02 -6.688783317804336548e-02 -5.072501674294471741e-02 -1.400530617684125900e-02 6.698813289403915405e-02 6.800217926502227783e-02 -2.012957185506820679e-01 2.136682420969009399e-01 -9.650506079196929932e-02 -5.548919364809989929e-02 -2.042607218027114868e-01 3.328011929988861084e-02 -3.732999041676521301e-02 3.916849941015243530e-02 -2.349612675607204437e-02 8.736594766378402710e-02 -4.108207300305366516e-02 1.473459303379058838e-01 1.018788479268550873e-02 -1.178998872637748718e-01 6.831864267587661743e-02 2.967644855380058289e-02 -7.461542636156082153e-02 -8.150964044034481049e-03 -5.454806983470916748e-02 1.329323090612888336e-02 6.229541450738906860e-02 2.888906514272093773e-03 -1.052857190370559692e-02 6.436518579721450806e-02 3.308863565325737000e-02 1.818040013313293457e-02 1.234928891062736511e-02 1.202158257365226746e-02 4.567309841513633728e-02 -3.743913397192955017e-02 -1.981849782168865204e-02 -3.765856847167015076e-02 -3.302293643355369568e-02 -3.852782305330038071e-03 1.266916692256927490e-01 -3.349626809358596802e-02 -1.795095507986843586e-03 1.086638867855072021e-01 -1.678401380777359009e-01 -3.472555056214332581e-02 -6.740385293960571289e-02 1.099219992756843567e-01 1.137666055001318455e-03 8.792216330766677856e-02 4.803150519728660583e-02 9.160057455301284790e-02 -6.801453977823257446e-02 -6.647748500108718872e-02 -2.901086024940013885e-02 2.879210747778415680e-02 -6.724143773317337036e-02 7.877779006958007812e-02 -5.706932395696640015e-03 -5.800876021385192871e-02 -2.665408328175544739e-02 3.019208274781703949e-02 8.072587102651596069e-02 1.093663871288299561e-01 -1.155799701809883118e-01 -1.580362170934677124e-01 4.387789964675903320e-02 4.384245723485946655e-02 -6.548030376434326172e-01 -7.522409409284591675e-02 -6.418201327323913574e-02 2.199397049844264984e-02 2.312136255204677582e-02 -1.470752805471420288e-01 1.397384889423847198e-02 -5.776789411902427673e-02 -1.049280241131782532e-01 1.869085989892482758e-02 1.630175486207008362e-02 -6.365159992128610611e-03 5.799921229481697083e-02 -1.052072644233703613e-01 -1.486171036958694458e-01 4.482705891132354736e-02 -1.134028658270835876e-02
-2.104631625115871429e-02 1.001208275556564331e-01 -4.837451502680778503e-02 3.343589603900909424e-02 -1.037728488445281982e-01 9.378700703382492065e-02 -1.683874428272247314e-02 2.900290861725807190e-02 1.981219835579395294e-02 2.426286786794662476e-01 2.903030626475811005e-02 3.717222064733505249e-02 6.743741780519485474e-02 -5.812870338559150696e-03 -1.197319552302360535e-01 -2.076506018638610840e-01 -5.171375721693038940e-02 -1.699470728635787964e-02 -9.000135213136672974e-02 5.948824808001518250e-02 -3.010771935805678368e-03 -2.960658073425292969e-02 -7.104182988405227661e-02 -2.507792413234710693e-02 -2.151421643793582916e-02 -1.544163562357425690e-02 4.016462340950965881e-02 -4.759162291884422302e-02 1.804867982864379883e-01 4.497914388775825500e-02 3.188027068972587585e-02 5.305593833327293396e-02 -1.096203625202178955e-01 -1.908064931631088257e-01 4.553788527846336365e-02 1.472197622060775757e-01 -7.131188362836837769e-02 -9.034398943185806274e-02 1.707947552204132080e-01 5.911257863044738770e-02 4.442107304930686951e-02 1.557398140430450439e-01 -3.777192160487174988e-02 -2.758737839758396149e-02 5.423356778919696808e-03 -1.510748565196990967e-01 1.709317602217197418e-02 -3.886464983224868774e-02 1.658256649971008301e-01 -1.098945736885070801e-01 -1.531936377286911011e-01 -4.357376694679260254e-02 -3.115356527268886566e-02 2.932130917906761169e-02 -3.298240527510643005e-02 7.018662244081497192e-02 1.295781284570693970e-01 -9.444297850131988525e-02 4.661491513252258301e-02 1.031632348895072937e-01 -2.031724900007247925e-03 -6.503286212682723999e-02 -4.491025209426879883e-02 -4.692042618989944458e-02 1.600261032581329346e-01 -3.778798133134841919e-02 -3.253449220210313797e-03 -1.132389158010482788e-01 -3.133026883006095886e-02 -1.328711956739425659e-01 1.739175468683242798e-01 3.519516065716743469e-02 -8.859673142433166504e-02 -2.055157721042633057e-02 -1.482317131012678146e-02 -3.609965089708566666e-03 -7.744924724102020264e-02 1.511697098612785339e-02 -3.859097510576248169e-02 7.222470361739397049e-03 1.172321140766143799e-01 1.265944689512252808e-01 7.353930175304412842e-02 1.190290693193674088e-02 -3.398750443011522293e-03 1.990071963518857956e-03 -2.451363950967788696e-02 -1.481181830167770386e-01 1.474611908197402954e-01 -2.599539980292320251e-02 -6.806385517120361328e-02 9.386427700519561768e-02 6.834712624549865723e-02 1.028262376785278320e-01 3.279827907681465149e-02 3.460689634084701538e-02 -5.869394913315773010e-02 7.024812698364257812e-02 -1.057923398911952972e-02 7.381041068583726883e-03 -5.885680019855499268e-02 -4.854372236877679825e-03 -3.177117556333541870e-02 -7.535561919212341309e-02 4.021476209163665771e-02 3.260903432965278625e-02 5.096438899636268616e-02 -8.117714524269104004e-02 -1.183388605713844299e-01 1.807367652654647827e-01 2.890347503125667572e-02 -6.650030016899108887e-01 -8.140691369771957397e-02 -6.918180733919143677e-02 9.776332229375839233e-02 1.138819307088851929e-01 6.781680136919021606e-02 -8.454319089651107788e-02 -1.378445178270339966e-01 1.452711075544357300e-01 4.064150899648666382e-02 -4.899067804217338562e-02 -7.352890446782112122e-03 1.702298671007156372e-01 -9.384081512689590454e-02 -4.645469412207603455e-02 -1.379955466836690903e-02 -7.907103747129440308e-02
4.708713386207818985e-03 -3.217334300279617310e-02 -2.699305862188339233e-02 -8.996313810348510742e-02 -3.580844774842262268e-02 -2.842615544795989990e-02 7.765605114400386810e-03 4.275125637650489807e-02 -2.027313783764839172e-02 7.059981673955917358e-02 -1.413181982934474945e-02 2.633182145655155182e-02 3.310953965410590172e-03 -6.420331448316574097e-02 -1.854725927114486694e-02 6.647300906479358673e-03 4.854635149240493774e-02 4.414291307330131531e-02 2.683022432029247284e-02 1.100369840860366821e-01 4.916039481759071350e-02 -2.646915381774306297e-03 -1.990784890949726105e-02 -2.620974555611610413e-02 -2.095036208629608154e-02 3.380661085247993469e-02 4.636907950043678284e-02 -8.150294423103332520e-03 -1.121672056615352631e-02 -2.397207170724868774e-02 3.485807776451110840e-02 2.149674110114574432e-03 2.746491320431232452e-02 4.446509107947349548e-02 -3.883887827396392822e-02 -9.372033923864364624e-02 2.186321280896663666e-02 2.677035145461559296e-02 -1.575890928506851196e-02 -8.058200776576995850e-02 7.186356931924819946e-02 3.484904766082763672e-01 1.938095130026340485e-02 2.176137454807758331e-02 9.283784031867980957e-02 -1.090149488300085068e-02 3.438027948141098022e-02 3.576409816741943359e-02 -7.871855795383453369e-02 -3.577825799584388733e-02 7.733983453363180161e-03 -8.515267819166183472e-02 -5.459539964795112610e-02 -7.384002953767776489e-02 -3.732608258724212646e-02 -3.496878594160079956e-02 1.800304837524890900e-02 -8.730034530162811279e-02 1.669141836464405060e-02 -1.040604859590530396e-01 -8.844074606895446777e-02 -5.090148746967315674e-02 1.255219243466854095e-02 -8.666266687214374542e-03 5.409264937043190002e-02 -2.726454660296440125e-02 -8.431344479322433472e-02 2.286796830594539642e-02 3.558896016329526901e-03 2.023620344698429108e-02 2.465620636940002441e-02 -4.988219588994979858e-02 -3.799733519554138184e-02 7.664670795202255249e-02 4.928004741668701172e-02 -1.376650929450988770e-01 3.393153473734855652e-02 1.150836702436208725e-02 -3.884872049093246460e-02 2.399111725389957428e-02 -1.211115159094333649e-02 1.099165063351392746e-02 -1.274665743112564087e-01 4.841742664575576782e-02 -3.521065786480903625e-02 1.129846125841140747e-01 -5.350466445088386536e-02 -8.447996526956558228e-02 7.870920747518539429e-02 -3.637744113802909851e-02 7.586865220218896866e-03 4.863198846578598022e-02 8.196025341749191284e-02 -4.701647907495498657e-02 -3.239647299051284790e-02 -7.485954463481903076e-02 6.464944034814834595e-02 7.046003360301256180e-03 5.612039566040039062e-02 -2.913803793489933014e-02 1.948805153369903564e-02 1.138645573519170284e-03 4.940082132816314697e-02 5.068337172269821167e-02 -2.543441951274871826e-02 2.491377107799053192e-02 -9.091692045331001282e-03 -5.337708443403244019e-02 2.910888381302356720e-02 -2.149426564574241638e-02 -6.504163146018981934e-02 -4.534246027469635010e-01 -3.469672799110412598e-02 3.482738137245178223e-02 -5.558020202443003654e-04 4.383767768740653992e-02 -1.143355015665292740e-02 -4.147243499755859375e-02 4.951182752847671509e-02 -2.476884797215461731e-02 1.416593641042709351e-01 7.601895183324813843e-02 5.034077167510986328e-02 8.608232252299785614e-03 2.007473260164260864e-02 -6.661719083786010742e-02 -4.666224867105484009e-02 3.942045569419860840e-02
-7.485979050397872925e-02 3.344414988532662392e-03 2.296404168009757996e-02 -6.420649588108062744e-03 3.187230601906776428e-02 5.475123226642608643e-02 3.449350129812955856e-03 1.918875984847545624e-02 1.632446423172950745e-02 -9.427325800061225891e-03 -6.364272907376289368e-03 6.392145901918411255e-02 -2.031800709664821625e-02 -4.305261746048927307e-02 5.199078470468521118e-02 3.419911116361618042e-02 -5.429938435554504395e-02 6.103353109210729599e-03 -1.890325695276260376e-01 2.994077838957309723e-02 4.156404361128807068e-02 -1.389860757626593113e-03 -5.025956779718399048e-02 -1.150359213352203369e-01 3.440542891621589661e-02 -6.299948319792747498e-03 3.029931709170341492e-02 5.300875008106231689e-02 -1.242411062121391296e-01 -1.762297563254833221e-02 -5.285147950053215027e-02 -2.280710078775882721e-02 -1.487095095217227936e-02 -3.059789538383483887e-02 -8.084107190370559692e-02 -1.398596633225679398e-02 5.950605496764183044e-02 2.332819998264312744e-02 4.131851345300674438e-02 -1.007575774565339088e-04 -4.959715902805328369e-02 3.506585061550140381e-01 -1.136939227581024170e-01 -3.784474357962608337e-02 -6.377019733190536499e-02 1.275250781327486038e-02 1.166719663888216019e-02 -4.339857026934623718e-02 -1.242521256208419800e-01 -8.506049402058124542e-03 7.254982739686965942e-02 7.069458812475204468e-02 -6.744235754013061523e-02 6.262057274580001831e-02 7.276915013790130615e-02 -1.493298728018999100e-02 2.935839630663394928e-02 -2.856677584350109100e-02 2.163612283766269684e-02 -3.329540416598320007e-02 1.041092164814472198e-02 -2.654683776199817657e-02 -2.570255845785140991e-02 -5.211938917636871338e-02 -2.411166764795780182e-02 -4.888429120182991028e-02 1.852415129542350769e-02 3.314654901623725891e-02 -3.852432966232299805e-02 3.522088751196861267e-02 5.135980248451232910e-02 -5.123475939035415649e-02 5.248233303427696228e-02 6.316067278385162354e-02 2.181091904640197754e-02 2.386623062193393707e-03 -8.432855457067489624e-02 6.188177317380905151e-02 2.946605347096920013e-02 6.230881065130233765e-02 -9.172423928976058960e-02 1.473006140440702438e-02 -9.654574841260910034e-02 -3.456394001841545105e-02 5.516436323523521423e-02 -5.045812204480171204e-02 -5.064200237393379211e-02 1.306606233119964600e-01 1.045220196247100830e-01 -1.144509389996528625e-01 3.693595528602600098e-02 -2.066402230411767960e-03 4.885024204850196838e-02 9.168364852666854858e-02 -1.815257407724857330e-02 8.328621089458465576e-02 -7.076582312583923340e-02 3.572254627943038940e-02 -2.723073959350585938e-02 -2.600608626380562782e-03 -2.608836255967617035e-02 5.720103904604911804e-02 -1.015387326478958130e-01 -1.203350070863962173e-02 9.852902032434940338e-03 -2.091033197939395905e-02 -3.462090343236923218e-02 1.087353825569152832e-01 1.346850097179412842e-01 6.432896852493286133e-02 5.334904417395591736e-02 -6.931987404823303223e-01 5.813511461019515991e-02 1.046439539641141891e-02 1.133653596043586731e-01 -4.342075437307357788e-02 -7.536952942609786987e-02 -3.926983475685119629e-02 -5.607583746314048767e-02 1.113503277301788330e-01 1.810415983200073242e-01 6.790842115879058838e-02 7.416468113660812378e-02 -2.123768031597137451e-01 6.693693250417709351e-02 1.109897047281265259e-01 -3.088056482374668121e-02 2.195062860846519470e-02
5.422811582684516907e-02 -1.557463780045509338e-02 4.876141028944402933e-04 -2.033468894660472870e-02 3.511187434196472168e-02 3.035087883472442627e-02 3.610944747924804688e-02 -2.794205769896507263e-02 4.936103150248527527e-02 -9.643557481467723846e-03 1.006876863539218903e-02 -1.185691282153129578e-01 -4.161605238914489746e-02 -6.867495924234390259e-02 -5.619543790817260742e-02 -4.101192578673362732e-02 -1.393719017505645752e-01 8.941054344177246094e-02 -6.061321869492530823e-02 -1.015448197722434998e-01 -3.570639714598655701e-02 1.730151590891182423e-03 -2.192275412380695343e-02 -3.508072718977928162e-02 3.626930341124534607e-02 -2.666940353810787201e-02 5.532103776931762695e-02 -2.256685635074973106e-03 -1.354064792394638062e-01 5.407088994979858398e-02 -5.780609697103500366e-02 6.074540689587593079e-02 6.513082236051559448e-02 -8.011503517627716064e-02 1.008443534374237061e-02 -1.231901254504919052e-02 -2.095253393054008484e-02 1.251151133328676224e-02 4.353706166148185730e-02 4.275322705507278442e-02 -2.524216100573539734e-02 -3.414965569972991943e-01 -4.257151857018470764e-02 6.201545521616935730e-02 -3.891208209097385406e-03 8.552719838917255402e-03 -4.565795138478279114e-02 1.087772548198699951e-01 6.369357556104660034e-02 9.748944640159606934e-02 1.228276491165161133e-01 -9.110897034406661987e-02 -5.854818597435951233e-02 -3.200137987732887268e-02 8.055270463228225708e-02 -8.305863291025161743e-02 2.063526213169097900e-02 7.444713264703750610e-02 -4.633321240544319153e-02 2.777318470180034637e-02 -1.098678559064865112e-01 1.991331763565540314e-02 -3.921204060316085815e-02 -4.561159759759902954e-02 2.719959989190101624e-02 -2.286874689161777496e-02 1.794806309044361115e-02 -5.065950681455433369e-04 -4.864827170968055725e-02 5.563401803374290466e-02 5.521057546138763428e-02 5.157291144132614136e-02 7.016087323427200317e-02 5.767656117677688599e-02 -7.008532434701919556e-02 6.688097864389419556e-02 -3.916733711957931519e-02 -3.681865707039833069e-02 1.744263060390949249e-02 -6.711412221193313599e-02 -2.266090661287307739e-01 -2.092099003493785858e-02 4.681744799017906189e-02 -2.957841195166110992e-02 5.570367351174354553e-02 -4.232763778418302536e-03 -3.945171833038330078e-02 -1.187001466751098633e-01 -7.930580526590347290e-02 6.236493587493896484e-02 1.585784927010536194e-02 6.819565594196319580e-02 -1.581699959933757782e-02 5.969592183828353882e-02 -3.592605516314506531e-02 1.239039376378059387e-01 -5.117819458246231079e-02 1.592971235513687134e-01 -2.854513702914118767e-03 6.593932956457138062e-02 -6.001199409365653992e-02 4.524651542305946350e-02 3.801474720239639282e-02 -5.415688082575798035e-02 5.060873925685882568e-02 -1.649660170078277588e-01 -7.016599178314208984e-03 3.571173176169395447e-03 1.506309676915407181e-02 7.480672746896743774e-02 -5.540004745125770569e-02 3.023762404918670654e-01 -5.259460210800170898e-02 1.848688907921314240e-02 -8.664362877607345581e-02 3.443907946348190308e-02 5.682106316089630127e-02 1.905023120343685150e-02 1.136109009385108948e-01 6.805196404457092285e-02 2.757348120212554932e-02 -4.686261713504791260e-02 2.156079187989234924e-02 1.855102926492691040e-01 -7.075966894626617432e-02 6.669896841049194336e-02 -2.016974054276943207e-02 -1.113243699073791504e-01
-5.310560390353202820e-02 -2.694876678287982941e-02 8.831432461738586426e-02 -1.157780811190605164e-01 1.246645078063011169e-01 1.832781825214624405e-03 -8.761467179283499718e-04 7.738617807626724243e-02 -2.016229555010795593e-02 -4.918691888451576233e-02 -6.446891278028488159e-02 1.533324271440505981e-02 2.794728148728609085e-03 3.463924303650856018e-02 4.630813747644424438e-02 2.860545925796031952e-02 6.172585487365722656e-02 7.795136421918869019e-03 7.836338132619857788e-02 1.452420949935913086e-01 -1.913875108584761620e-03 -4.020547959953546524e-03 6.266865879297256470e-02 2.776005677878856659e-02 4.413255304098129272e-02 1.533865835517644882e-02 -4.463266581296920776e-02 -2.034224756062030792e-02 4.794675856828689575e-02 -3.872967092320322990e-03 6.762907654047012329e-02 4.932641983032226562e-02 -5.938219279050827026e-02 1.371217146515846252e-02 -1.700027845799922943e-02 -7.318418473005294800e-02 7.513015065342187881e-03 1.397030241787433624e-02 4.928626120090484619e-02 5.639331787824630737e-02 -1.150935515761375427e-01 3.914020061492919922e-01 -7.317686080932617188e-02 -9.289912134408950806e-02 -5.742919817566871643e-02 -5.065445974469184875e-02 4.679573327302932739e-02 -4.949952661991119385e-02 -7.664039731025695801e-02 -2.249217405915260315e-02 2.521802112460136414e-02 -7.378493994474411011e-02 3.589936345815658569e-02 -7.338657230138778687e-02 -1.924815401434898376e-02 1.990897022187709808e-02 1.081462949514389038e-03 9.198228828608989716e-03 -4.178868606686592102e-02 -6.365139782428741455e-02 -1.057496368885040283e-01 -4.108311608433723450e-02 2.810162492096424103e-02 8.710492402315139771e-02 5.486308038234710693e-02 -7.855899631977081299e-03 -2.232828177511692047e-02 -3.726902231574058533e-02 9.172388352453708649e-03 7.035993784666061401e-02 -1.883721724152565002e-02 -5.086646229028701782e-02 -3.072171099483966827e-02 5.118148773908615112e-02 2.671807259321212769e-02 -9.482534974813461304e-02 2.844234183430671692e-02 -1.031581163406372070e-01 -2.465250715613365173e-02 -2.026304602622985840e-02 -1.226090360432863235e-02 -3.107228688895702362e-02 -4.180207476019859314e-02 -6.888256967067718506e-02 4.921143501996994019e-02 8.451423607766628265e-03 2.345696836709976196e-02 -6.044556200504302979e-02 2.033272013068199158e-02 -9.224065393209457397e-02 3.106173314154148102e-02 6.875996291637420654e-02 1.370326848700642586e-03 -6.803899258375167847e-02 7.691476494073867798e-02 1.742252521216869354e-02 -7.224977016448974609e-03 1.202894560992717743e-02 1.148884836584329605e-02 -4.188761487603187561e-02 7.884822785854339600e-03 1.901789568364620209e-02 2.721997350454330444e-02 -1.012084074318408966e-02 -3.199982922524213791e-03 3.297976404428482056e-02 -1.357354968786239624e-02 -3.227205201983451843e-02 -8.916486054658889771e-02 -3.975808620452880859e-02 -4.507255926728248596e-02 -5.147504806518554688e-01 -9.584478288888931274e-02 6.232317537069320679e-02 -2.501846291124820709e-02 2.884267829358577728e-02 -1.610728725790977478e-02 -5.670627951622009277e-02 7.907508313655853271e-02 -5.003554746508598328e-02 9.548497200012207031e-02 1.192207820713520050e-02 -3.633690625429153442e-02 9.715948998928070068e-02 -2.023356407880783081e-02 9.322703629732131958e-02 -8.981095254421234131e-02 1.800277642905712128e-02
-1.910757832229137421e-02 -2.315312437713146210e-02 -8.619240671396255493e-02 -6.758578866720199585e-02 -2.883363701403141022e-02 -5.204941332340240479e-02 -1.234699338674545288e-01 3.581206128001213074e-02 -1.104186754673719406e-02 -1.096547618508338928e-01 -2.943022362887859344e-02 4.643603786826133728e-02 7.951958477497100830e-02 -2.588348835706710815e-02 -5.924886837601661682e-02 1.745293736457824707e-01 -8.485230058431625366e-02 8.582993596792221069e-02 1.304547935724258423e-01 -2.645249292254447937e-02 -5.226069316267967224e-02 -1.608404666185379028e-01 -1.480694711208343506e-01 -1.847185380756855011e-02 -8.333881944417953491e-02 1.636127009987831116e-02 4.070663079619407654e-02 9.450212121009826660e-03 3.246521344408392906e-03 -7.274919003248214722e-02 -6.610336154699325562e-02 2.628730796277523041e-02 -1.830798201262950897e-02 -9.424781054258346558e-02 9.746684134006500244e-02 3.547302633523941040e-02 4.060105234384536743e-02 -2.488125301897525787e-02 -1.537609696388244629e-01 -6.355484575033187866e-02 1.183718815445899963e-01 6.670028716325759888e-02 1.191379576921463013e-01 8.635898679494857788e-02 -6.016190722584724426e-02 1.706091761589050293e-01 6.863071024417877197e-02 4.231970384716987610e-02 -5.946690589189529419e-02 2.791876196861267090e-01 -1.458173897117376328e-02 1.570165157318115234e-01 4.770524799823760986e-02 1.165433302521705627e-01 7.481069117784500122e-02 5.973817780613899231e-02 4.569986462593078613e-02 -7.779531925916671753e-02 6.941999495029449463e-02 1.636627595871686935e-03 -1.232302039861679077e-01 1.489369291812181473e-02 1.387285254895687103e-02 1.309939920902252197e-01 8.994050323963165283e-03 6.097285076975822449e-03 -9.330539964139461517e-03 -2.863529324531555176e-02 1.066415756940841675e-02 1.500724628567695618e-02 -7.730518933385610580e-03 4.985874518752098083e-03 4.095590207725763321e-03 -5.160468816757202148e-02 -5.315470322966575623e-02 4.994214326143264771e-02 2.403319999575614929e-02 -1.043236721307039261e-02 -3.782226517796516418e-02 3.813173621892929077e-02 6.384021788835525513e-02 -2.850975655019283295e-02 -5.308691039681434631e-02 -2.488900162279605865e-02 -1.873570308089256287e-02 -2.138363197445869446e-03 -6.961877644062042236e-02 2.778558991849422455e-03 -8.488095551729202271e-02 1.036561802029609680e-01 7.967937737703323364e-02 -3.479254245758056641e-02 -4.969370551407337189e-03 9.804268181324005127e-02 -3.601576387882232666e-02 9.400416165590286255e-04 -2.918503247201442719e-02 2.984897792339324951e-02 -1.367362290620803833e-01 -1.799341589212417603e-01 1.357669532299041748e-01 5.761041771620512009e-03 -6.547734886407852173e-02 -6.774193793535232544e-02 1.198771074414253235e-01 1.154180243611335754e-02 9.643257409334182739e-02 1.668463461101055145e-02 6.864857394248247147e-03 3.598728775978088379e-02 -3.224312141537666321e-02 -7.718192040920257568e-02 -7.574605941772460938e-02 3.919354826211929321e-02 2.894540317356586456e-02 3.693865239620208740e-02 1.792193762958049774e-02 -9.068081527948379517e-02 -9.647274017333984375e-02 3.191660717129707336e-02 -1.800902560353279114e-02 2.675097621977329254e-02 1.401532068848609924e-02 -3.408615291118621826e-01 -2.358838543295860291e-02 1.452340185642242432e-01 4.612566903233528137e-02 -1.394107937812805176e-01
1.025739498436450958e-02 1.150054037570953369e-01 4.441896453499794006e-02 -7.018164545297622681e-02 5.173011124134063721e-02 9.733965247869491577e-02 -7.210517674684524536e-02 2.114535868167877197e-02 -2.751715295016765594e-02 -5.343523994088172913e-02 1.260066404938697815e-03 1.692456379532814026e-02 4.905699193477630615e-02 5.913835018873214722e-02 -5.159140750765800476e-02 7.000999152660369873e-02 9.245781600475311279e-02 5.439849570393562317e-02 6.056560203433036804e-02 1.136489436030387878e-01 -3.971858322620391846e-02 -4.445083066821098328e-02 3.550570830702781677e-02 5.648779124021530151e-02 -1.330793201923370361e-01 -2.910944633185863495e-02 -1.163295097649097443e-02 6.397755444049835205e-02 1.205761283636093140e-01 9.814455360174179077e-02 -4.123775660991668701e-02 1.047864183783531189e-02 -1.616702415049076080e-02 6.467990577220916748e-02 -5.795036256313323975e-02 -4.627352580428123474e-02 3.231903910636901855e-02 3.435397520661354065e-02 -1.912545226514339447e-02 -4.482373129576444626e-03 -8.405965566635131836e-02 -1.837889254093170166e-01 1.139280945062637329e-01 2.169886231422424316e-02 5.248900502920150757e-02 1.188156530261039734e-01 -3.107107616961002350e-02 5.340814962983131409e-02 -8.021648973226547241e-02 3.842385858297348022e-02 -2.820950932800769806e-02 -2.934177592396736145e-02 -9.495619684457778931e-02 6.659471988677978516e-02 2.765822224318981171e-02 -6.465015560388565063e-02 -3.639416769146919250e-02 2.894311398267745972e-02 2.569612115621566772e-02 -1.154909208416938782e-01 4.228075221180915833e-02 8.916694670915603638e-03 -6.464099884033203125e-02 -2.626073360443115234e-02 -5.216707475483417511e-03 -3.669996559619903564e-02 -1.204219739884138107e-02 -8.329565823078155518e-02 -2.421618998050689697e-02 -1.153585544670931995e-04 -5.178962647914886475e-02 -1.010018517263233662e-03 9.107431024312973022e-02 -8.685662597417831421e-02 -3.529335930943489075e-02 -1.161775663495063782e-01 -4.518067836761474609e-02 1.209243386983871460e-01 -4.609213396906852722e-02 4.255146533250808716e-02 5.539689958095550537e-02 4.175555706024169922e-02 6.704764068126678467e-02 1.540568657219409943e-02 4.374828189611434937e-02 -1.030119508504867554e-02 -8.948306553065776825e-03 1.192593276500701904e-01 -1.854473352432250977e-01 -3.182727843523025513e-02 -7.813122868537902832e-02 -4.168568179011344910e-03 -2.063006395474076271e-03 3.441108390688896179e-02 1.228522602468729019e-02 -2.104835659265518188e-01 -1.443180888891220093e-01 8.021393418312072754e-02 -8.566640317440032959e-03 1.929671317338943481e-01 3.931288048624992371e-02 -5.867594853043556213e-03 -3.665028139948844910e-02 -1.253128144890069962e-02 -9.650836698710918427e-03 -7.594425231218338013e-02 -2.952400781214237213e-02 -1.724525168538093567e-02 -8.771502226591110229e-02 1.726610772311687469e-02 1.920720376074314117e-02 5.510782599449157715e-01 1.268800999969244003e-02 3.429506346583366394e-02 -1.633634418249130249e-02 -6.093519181013107300e-02 -9.727874398231506348e-02 -1.076883822679519653e-01 4.444690421223640442e-02 1.245147287845611572e-01 -1.390956621617078781e-02 5.700188502669334412e-02 2.505836635828018188e-02 -7.984010875225067139e-02 1.594264656305313110e-01 -8.805735968053340912e-03 9.020382910966873169e-02 7.887589931488037109e-02
-9.751190245151519775e-02 -1.189907640218734741e-02 1.550079789012670517e-02 5.437604337930679321e-02 1.419203542172908783e-02 6.500507891178131104e-02 1.913721300661563873e-02 6.647004047408699989e-04 1.560603640973567963e-02 2.336510084569454193e-02 6.241833046078681946e-02 -2.406044304370880127e-02 8.363471180200576782e-02 -5.522010102868080139e-02 -9.052579104900360107e-02 -4.463625699281692505e-02 6.283490359783172607e-02 -1.273425202816724777e-02 3.041997924447059631e-02 -1.069800555706024170e-01 3.915430977940559387e-03 -2.753065899014472961e-02 6.387840956449508667e-02 1.050016842782497406e-02 -3.604315221309661865e-02 -7.177832885645329952e-04 -4.230313003063201904e-02 5.043727532029151917e-02 7.371932268142700195e-03 1.218964383006095886e-01 5.181208718568086624e-03 -2.386066317558288574e-02 -3.845355287194252014e-02 -3.004742413759231567e-02 2.080226689577102661e-02 -1.632167212665081024e-02 -6.861980655230581760e-04 2.677407115697860718e-02 -2.209304086863994598e-02 7.124606054276227951e-04 4.975793510675430298e-02 -3.091133832931518555e-01 -7.410434633493423462e-02 -1.170661207288503647e-02 3.066929616034030914e-02 -1.416475605219602585e-02 -6.275057047605514526e-02 2.835801057517528534e-02 1.383668333292007446e-01 6.374377757310867310e-02 -5.818664096295833588e-03 -3.363749384880065918e-02 4.815218970179557800e-02 -6.528824567794799805e-02 -5.948506295680999756e-02 -8.257915824651718140e-02 3.058917634189128876e-02 2.094822563230991364e-02 2.774801477789878845e-02 -8.632322773337364197e-03 1.559857511892914772e-03 -4.050025343894958496e-02 -3.343660384416580200e-02 1.983145996928215027e-02 1.980313658714294434e-02 -4.426357336342334747e-03 6.409451365470886230e-02 6.850532442331314087e-02 1.133952173404395580e-03 4.418622329831123352e-02 4.940879344940185547e-02 3.642814233899116516e-02 -3.423753753304481506e-02 -2.970706485211849213e-02 -2.348490059375762939e-02 -1.089463606476783752e-01 6.544367223978042603e-02 -1.591553911566734314e-02 -7.924668490886688232e-02 -6.260380893945693970e-02 3.901435434818267822e-02 -2.433883398771286011e-02 1.118130236864089966e-02 2.983403764665126801e-02 -1.211160048842430115e-02 1.619680039584636688e-02 4.749843850731849670e-03 5.542500317096710205e-02 1.383302360773086548e-02 -2.112398296594619751e-02 -5.193004384636878967e-02 -1.494542695581912994e-02 -4.787850007414817810e-02 9.134123474359512329e-02 -5.956903565675020218e-03 2.435291931033134460e-02 4.471015930175781250e-02 -1.614204980432987213e-02 6.973895430564880371e-02 1.347213611006736755e-02 -2.928121946752071381e-02 -3.971058875322341919e-03 -6.755885668098926544e-03 1.011131331324577332e-02 3.534660115838050842e-02 -4.527651891112327576e-02 3.429333493113517761e-02 3.172526508569717407e-02 9.484545327723026276e-03 3.325732797384262085e-02 -1.318454183638095856e-02 5.544788837432861328e-01 7.189309597015380859e-02 1.897850073873996735e-02 -3.432935103774070740e-02 2.315815351903438568e-02 4.926621168851852417e-02 8.786318451166152954e-02 -1.871131919324398041e-02 -2.745524980127811432e-02 -1.065753251314163208e-01 -1.820680871605873108e-02 -1.527622248977422714e-02 6.672417372465133667e-02 -8.253933861851692200e-03 -4.937105998396873474e-02 -1.075185760855674744e-01 -8.889926970005035400e-02
-9.460356831550598145e-02 5.383243411779403687e-02 -1.577674783766269684e-02 7.670120149850845337e-02 -1.339470129460096359e-02 -4.206135496497154236e-02 1.663612388074398041e-02 6.607435643672943115e-02 -4.244140163064002991e-02 9.811857342720031738e-02 -4.357337951660156250e-02 1.093346774578094482e-01 6.380968540906906128e-02 5.919885635375976562e-02 -9.413455612957477570e-03 1.626986823976039886e-02 -1.881373301148414612e-02 -2.015435881912708282e-02 -6.633096188306808472e-02 -6.646213680505752563e-02 2.975439280271530151e-02 -9.354059398174285889e-02 -3.703644126653671265e-02 -5.379582755267620087e-03 -4.947805777192115784e-02 2.469120360910892487e-02 3.293535858392715454e-02 9.503071010112762451e-02 1.194872055202722549e-02 -9.989321976900100708e-02 -4.215396568179130554e-02 -1.078051626682281494e-01 -5.233801528811454773e-02 2.491511963307857513e-02 4.868365824222564697e-02 -6.556421052664518356e-03 7.683087885379791260e-02 -2.350244112312793732e-02 -2.822283096611499786e-02 -2.123465761542320251e-02 7.522322982549667358e-02 -2.433393746614456177e-01 -1.251794248819351196e-01 7.049324363470077515e-02 -2.024854905903339386e-02 -6.313542276620864868e-02 -8.998360484838485718e-02 -4.191766679286956787e-02 2.597052603960037231e-02 -4.970922693610191345e-02 1.949794404208660126e-02 -1.910032145678997040e-02 6.450402736663818359e-02 -1.061359345912933350e-01 8.440487086772918701e-03 9.707011282444000244e-03 -2.876761555671691895e-02 1.001870706677436829e-01 4.662821069359779358e-02 9.067047387361526489e-02 -2.464509010314941406e-02 -2.889283932745456696e-02 -1.074404083192348480e-02 -8.270573616027832031e-02 -9.451125748455524445e-03 -1.359354704618453979e-02 1.771128922700881958e-02 4.494183138012886047e-02 5.981858074665069580e-02 2.223242446780204773e-02 5.569897964596748352e-02 -3.003450296819210052e-02 -1.418945845216512680e-02 3.053142875432968140e-02 -3.079718723893165588e-02 -4.963394626975059509e-02 -5.766511335968971252e-02 -2.575866878032684326e-02 -3.166034119203686714e-03 -3.733980283141136169e-02 5.519271641969680786e-02 4.810754209756851196e-03 2.680131234228610992e-02 7.836791872978210449e-02 -5.903866142034530640e-02 1.222991794347763062e-01 -1.839353353716433048e-05 -1.339724007993936539e-02 -4.586142301559448242e-02 4.332688171416521072e-03 1.289548538625240326e-02 6.534640211611986160e-03 -3.718556836247444153e-02 -1.865843832492828369e-01 -4.143074154853820801e-02 -1.238228753209114075e-01 3.196938335895538330e-02 -6.476870924234390259e-02 -5.566671118140220642e-02 3.455422818660736084e-02 8.054168522357940674e-02 1.884718798100948334e-02 4.133105743676424026e-03 -6.023007631301879883e-02 5.253254249691963196e-02 -1.304850131273269653e-01 1.037958934903144836e-01 -4.899825900793075562e-02 2.609811909496784210e-02 -8.332664519548416138e-02 -7.591681927442550659e-02 6.060020327568054199e-01 -2.298932150006294250e-02 -4.276919737458229065e-02 -1.184705365449190140e-02 6.525160372257232666e-02 -7.392222434282302856e-02 1.122304704040288925e-02 5.155177786946296692e-02 5.594382062554359436e-02 -8.776179701089859009e-02 1.032185647636651993e-02 6.280843913555145264e-02 4.074126482009887695e-02 2.718950062990188599e-02 -1.259077619761228561e-02 -7.347246259450912476e-02 -2.961848862469196320e-02
-3.600174933671951294e-02 -7.540170848369598389e-02 -1.157877501100301743e-03 1.803422123193740845e-01 2.044027438387274742e-03 -1.586887426674365997e-02 -9.628523886203765869e-02 -1.041800752282142639e-01 2.762241102755069733e-02 -9.796871244907379150e-02 7.614987343549728394e-02 7.796074729412794113e-03 -3.437450528144836426e-02 2.379897795617580414e-02 -9.314179420471191406e-02 6.694762967526912689e-03 -3.068850189447402954e-02 -2.053752541542053223e-02 -1.053674891591072083e-01 -6.849806010723114014e-02 -8.350753784179687500e-02 -9.811983257532119751e-02 -5.850482266396284103e-04 4.435515496879816055e-03 -8.718187361955642700e-02 -2.180107869207859039e-02 1.171144004911184311e-02 -7.070863246917724609e-02 -7.562033832073211670e-02 8.944418281316757202e-02 -1.123737022280693054e-01 8.626455068588256836e-02 8.982693403959274292e-02 -7.759516686201095581e-02 -6.361411511898040771e-02 3.850192204117774963e-02 -8.514188230037689209e-02 7.746675610542297363e-02 1.384816877543926239e-02 -1.704174093902111053e-02 -2.790622413158416748e-02 -4.067737236618995667e-02 2.013613993767648935e-04 -2.832073904573917389e-02 -4.455253016203641891e-03 1.467490941286087036e-01 1.018821820616722107e-02 6.688903272151947021e-02 -9.744782932102680206e-03 -5.602197349071502686e-02 1.120550408959388733e-01 -5.071855336427688599e-02 -1.711341142654418945e-01 1.900684237480163574e-01 -5.552490428090095520e-02 -6.481470912694931030e-02 -7.603994011878967285e-02 1.183196678757667542e-01 1.925257034599781036e-02 1.614323118701577187e-03 6.672269850969314575e-02 1.075197244063019753e-03 3.690971061587333679e-02 1.937897205352783203e-01 1.318867355585098267e-01 -2.134475857019424438e-02 4.893400147557258606e-02 1.968347728252410889e-01 -1.517700124531984329e-02 -2.004665881395339966e-01 7.551046460866928101e-02 -8.998220413923263550e-02 -3.474950324743986130e-03 7.351099699735641479e-02 5.998196080327033997e-02 1.796293072402477264e-02 1.903788931667804718e-02 4.616570472717285156e-02 2.545856870710849762e-02 9.266520291566848755e-02 7.580517232418060303e-02 -4.289387166500091553e-02 -7.608490437269210815e-02 1.011470854282379150e-01 -3.854617103934288025e-02 -5.726879462599754333e-03 -9.878983348608016968e-02 -1.851159520447254181e-02 1.249709352850914001e-01 7.554825395345687866e-02 -2.418273501098155975e-02 -1.186749413609504700e-01 7.833310216665267944e-02 -4.788134247064590454e-02 -5.748809874057769775e-02 -5.662987381219863892e-02 -9.983725100755691528e-02 -6.708502024412155151e-02 1.273816078901290894e-02 -1.070078387856483459e-01 3.890496492385864258e-02 1.979393325746059418e-02 -3.263978660106658936e-02 3.908879589289426804e-03 1.047806255519390106e-02 -1.393888145685195923e-01 -8.656354621052742004e-03 1.308293938636779785e-01 1.977860629558563232e-01 -1.026775687932968140e-03 7.855407893657684326e-02 -6.128852963447570801e-01 -4.308777302503585815e-02 -7.679533213376998901e-02 -4.658776335418224335e-03 -1.157782748341560364e-01 -1.389592327177524567e-02 1.482333894819021225e-02 -1.013956964015960693e-01 1.676204651594161987e-01 1.126918196678161621e-01 6.053203251212835312e-03 1.234773024916648865e-01 -3.540448145940899849e-03 -1.266532670706510544e-02 6.586552411317825317e-02 1.432324945926666260e-01 7.589077949523925781e-02
-1.388852205127477646e-02 -1.218731701374053955e-01 3.792380914092063904e-03 -6.166588887572288513e-02 -1.443474274128675461e-02 1.484872847795486450e-01 -1.812275871634483337e-02 -3.929665312170982361e-03 1.822066307067871094e-02 7.609669119119644165e-02 2.886447682976722717e-02 3.005061857402324677e-02 -4.572314023971557617e-02 1.881418563425540924e-02 9.109695255756378174e-02 3.651062026619911194e-02 5.203454196453094482e-02 -2.389886230230331421e-02 1.088639050722122192e-01 -1.465173959732055664e-01 1.595297455787658691e-02 2.072672173380851746e-02 2.377884648740291595e-02 1.637343876063823700e-02 -4.634981160052120686e-04 -9.540322236716747284e-03 9.035217761993408203e-02 2.487214468419551849e-02 -1.498825550079345703e-01 -4.874858073890209198e-03 -1.167846396565437317e-01 -1.811546981334686279e-01 -1.168045252561569214e-01 -1.504463851451873779e-01 1.655975282192230225e-01 -8.081830292940139771e-02 -4.053498059511184692e-02 2.129894495010375977e-02 -1.002852469682693481e-01 -4.282056167721748352e-02 -2.450526133179664612e-02 -4.381686449050903320e-01 -8.769015222787857056e-02 -2.465503662824630737e-02 6.201867759227752686e-02 -5.736903101205825806e-02 -3.877787292003631592e-02 1.658574678003787994e-02 9.791503101587295532e-02 -8.231292665004730225e-02 2.075160294771194458e-02 4.691183194518089294e-02 -7.840149104595184326e-02 8.123610168695449829e-02 -2.098986413329839706e-03 6.902807205915451050e-02 -7.356461603194475174e-03 1.162031590938568115e-01 -7.345145940780639648e-02 9.919274598360061646e-02 -3.628489747643470764e-02 1.189799048006534576e-02 1.360446959733963013e-02 -1.397715806961059570e-01 1.122530456632375717e-02 -2.513033105060458183e-03 -3.511161729693412781e-02 2.703615278005599976e-02 2.382292971014976501e-02 1.672838628292083740e-01 2.521635033190250397e-02 2.403915859758853912e-02 -1.642676070332527161e-02 -6.807599961757659912e-02 7.334345579147338867e-02 1.447831541299819946e-01 4.326101765036582947e-02 -2.601394988596439362e-02 -4.898828268051147461e-02 -2.882923558354377747e-02 -3.789003193378448486e-02 -9.881325066089630127e-02 7.112525403499603271e-02 9.779999963939189911e-03 7.709525525569915771e-02 7.273937761783599854e-02 -1.727306097745895386e-02 2.391722518950700760e-04 -3.210850432515144348e-02 -2.136846259236335754e-02 -1.091009303927421570e-01 8.318166434764862061e-02 -1.246468275785446167e-01 5.002004094421863556e-03 1.159590948373079300e-02 1.317744702100753784e-01 -2.863562852144241333e-02 -3.758884221315383911e-02 -1.613290235400199890e-02 -2.892228774726390839e-03 -2.298157103359699249e-02 5.363747477531433105e-02 -1.106234043836593628e-01 -3.612243011593818665e-02 -4.184236750006675720e-02 -8.425347506999969482e-02 -6.374409887939691544e-03 1.059317495673894882e-02 4.310582578182220459e-02 7.400785386562347412e-02 4.901074618101119995e-02 5.908803343772888184e-01 -6.295415014028549194e-02 -1.278717350214719772e-02 -3.037820337340235710e-03 5.271213501691818237e-02 -1.548936516046524048e-01 -4.249093681573867798e-02 -6.548859924077987671e-02 9.176370687782764435e-03 -1.072342097759246826e-01 1.947918534278869629e-02 -1.482343114912509918e-02 3.539158403873443604e-02 -6.194052100181579590e-02 4.744032770395278931e-02 5.470051988959312439e-02 9.695107489824295044e-02
-3.995536640286445618e-02 5.725670978426933289e-02 1.112145930528640747e-02 -2.897766418755054474e-02 -8.615770377218723297e-03 1.631836593151092529e-02 -7.181094959378242493e-03 -7.431680709123611450e-02 3.081557340919971466e-02 2.056804299354553223e-01 2.519368007779121399e-02 -1.908425614237785339e-02 1.275078207254409790e-01 1.152628362178802490e-01 6.001338362693786621e-02 -3.802084177732467651e-02 -5.873360484838485718e-02 -3.826044127345085144e-02 1.254738420248031616e-01 -1.691906899213790894e-01 -3.644191892817616463e-04 -5.844812840223312378e-03 -5.630711093544960022e-02 -3.341057803481817245e-03 -2.830627188086509705e-02 8.686719089746475220e-02 -6.082445755600929260e-02 4.910652711987495422e-02 -3.296520328149199486e-03 -1.683831401169300079e-02 -2.234197780489921570e-02 -1.435098052024841309e-02 1.106001734733581543e-01 -5.294912308454513550e-02 -6.886442750692367554e-02 4.894683510065078735e-02 -6.964645534753799438e-02 4.581807646900415421e-03 8.282346278429031372e-02 1.018195301294326782e-01 6.444513797760009766e-02 -1.678420454263687134e-01 3.501229733228683472e-02 3.613004833459854126e-02 1.313589662313461304e-01 -4.772964119911193848e-02 -8.856297284364700317e-02 -7.692083716392517090e-02 2.105223536491394043e-01 -6.116150692105293274e-02 -1.329890936613082886e-01 -8.096598088741302490e-03 9.010347723960876465e-02 -2.172724343836307526e-02 5.138928070664405823e-02 -1.310007125139236450e-01 -6.010682880878448486e-02 -5.653139203786849976e-02 6.635336577892303467e-02 1.174476817250251770e-01 -1.025158911943435669e-01 2.192780002951622009e-02 -4.791062697768211365e-02 -1.100416406989097595e-01 -1.040624529123306274e-01 4.980298690497875214e-03 -2.792416885495185852e-02 -6.530281156301498413e-02 -3.174778446555137634e-02 6.518942862749099731e-02 1.910524629056453705e-02 -5.552809685468673706e-03 8.504147641360759735e-03 4.294134303927421570e-02 1.303985863924026489e-01 8.836197666823863983e-03 -4.965594038367271423e-02 1.145666986703872681e-01 7.771421223878860474e-02 3.221483156085014343e-02 1.111123785376548767e-01 9.502275288105010986e-02 4.040201902389526367e-01 -4.471913725137710571e-02 -6.023838371038436890e-02 6.545034050941467285e-02 2.298929169774055481e-02 -1.773552410304546356e-02 -2.211423218250274658e-01 1.712695211172103882e-01 1.385465823113918304e-02 -1.512289345264434814e-01 8.327930420637130737e-02 2.151148766279220581e-01 2.964833937585353851e-02 4.815785586833953857e-02 -1.181468018330633640e-03 8.144056424498558044e-03 -7.270249538123607635e-03 6.960631161928176880e-02 -2.828246541321277618e-02 -3.694022446870803833e-02 -8.329644054174423218e-02 -1.886455267667770386e-01 -1.067126914858818054e-01 -1.076544672250747681e-01 -4.361465573310852051e-03 -1.189481988549232483e-01 3.983205184340476990e-02 -9.118445217609405518e-02 7.356510031968355179e-03 3.461048007011413574e-01 7.702568173408508301e-02 -1.529704779386520386e-02 -4.844690114259719849e-02 -9.355125576257705688e-02 8.523950353264808655e-03 1.016923859715461731e-01 9.293348342180252075e-02 8.561523258686065674e-02 -1.874361932277679443e-01 -6.389658898115158081e-02 7.059408724308013916e-02 -2.111972682178020477e-02 -7.804995775222778320e-02 -1.185257062315940857e-01 -1.296960860490798950e-01 -2.658193372189998627e-02
-3.782601794227957726e-03 7.636903226375579834e-02 3.195373713970184326e-02 -6.206637248396873474e-03 -1.149969846010208130e-01 4.305782169103622437e-02 -2.200813405215740204e-02 6.965568754822015762e-03 -2.639076858758926392e-02 -3.934305906295776367e-02 1.056853532791137695e-01 -4.537587240338325500e-02 -1.425828039646148682e-01 1.226572599261999130e-02 -1.208917610347270966e-02 -3.799430653452873230e-02 1.580132357776165009e-02 -2.751675620675086975e-02 -3.310628607869148254e-02 -1.841506361961364746e-01 1.885427162051200867e-02 -4.179589822888374329e-02 3.162378072738647461e-02 -1.161954924464225769e-01 -1.923754811286926270e-02 -3.375060483813285828e-02 -1.951879262924194336e-02 1.187805160880088806e-01 -3.659586980938911438e-02 -1.104295104742050171e-01 1.736642606556415558e-02 -3.806651383638381958e-02 9.806971065700054169e-04 3.620663424953818321e-03 -5.513951927423477173e-02 4.571565613150596619e-02 -2.133674919605255127e-02 -5.326487123966217041e-02 -1.965929940342903137e-02 5.475370679050683975e-03 8.705631643533706665e-02 -3.865634500980377197e-01 9.015661478042602539e-02 1.896419934928417206e-02 -9.690197557210922241e-02 -1.973800733685493469e-02 -5.724011734127998352e-02 7.316724210977554321e-02 6.280033290386199951e-02 6.797894090414047241e-02 -8.460415899753570557e-02 1.083642020821571350e-01 -3.138546273112297058e-02 3.287878632545471191e-02 -5.814826861023902893e-02 -1.806128025054931641e-02 -6.673383712768554688e-02 -6.471515446901321411e-02 -4.098116233944892883e-02 5.698623135685920715e-02 7.323701679706573486e-02 2.153053320944309235e-02 -8.208190090954303741e-03 3.352672606706619263e-02 2.506167627871036530e-02 1.074219793081283569e-01 3.207753971219062805e-02 -2.542872726917266846e-02 3.286608308553695679e-02 -1.303314864635467529e-01 5.883765593171119690e-02 -6.593576073646545410e-02 5.624315142631530762e-02 3.103934787213802338e-02 2.725237049162387848e-02 -5.764399841427803040e-02 3.922547399997711182e-02 6.428880244493484497e-02 3.863228484988212585e-02 -7.137572020292282104e-02 5.632267892360687256e-02 1.929167471826076508e-02 5.803038831800222397e-03 1.080556064844131470e-01 -5.962438881397247314e-02 -3.086499311029911041e-02 -2.932827733457088470e-02 1.075881645083427429e-01 -4.112054407596588135e-02 7.032261788845062256e-02 1.763278990983963013e-02 -4.246379807591438293e-02 -6.083874031901359558e-02 4.618071764707565308e-02 2.829444035887718201e-02 -2.034037373960018158e-02 3.933541849255561829e-02 6.192440167069435120e-02 -5.597171187400817871e-02 8.875636011362075806e-02 2.653422951698303223e-02 -4.435079917311668396e-02 3.995674103498458862e-02 -7.337450236082077026e-02 -2.650491893291473389e-02 -4.170705005526542664e-02 -7.232524920254945755e-03 5.054756253957748413e-02 -1.018474996089935303e-01 -1.893413602374494076e-03 -4.153981339186429977e-03 6.378780603408813477e-01 9.385372512042522430e-03 1.026185974478721619e-01 6.558940745890140533e-03 -7.672061771154403687e-02 7.098226249217987061e-02 -1.839596778154373169e-02 -4.048886150121688843e-02 1.030163988471031189e-01 -1.179414987564086914e-01 -3.666706848889589310e-03 5.637801811099052429e-02 -5.483072251081466675e-02 -1.430512499064207077e-02 1.435036659240722656e-01 8.647216856479644775e-02 1.165619790554046631e-01
-7.873211055994033813e-02 -1.836120039224624634e-01 -6.831187009811401367e-02 1.795904152095317841e-02 5.161109846085309982e-03 -8.595661073923110962e-02 -9.570123255252838135e-02 7.580254971981048584e-02 3.034262917935848236e-02 9.752713143825531006e-02 5.907449498772621155e-02 5.701287090778350830e-02 4.044554010033607483e-02 -5.956810712814331055e-02 -6.694274954497814178e-03 -1.846658252179622650e-02 -1.165824458003044128e-01 6.140063982456922531e-03 -8.357040584087371826e-02 -8.033987134695053101e-03 -8.166243880987167358e-02 7.192556560039520264e-02 -3.781253844499588013e-02 -6.831974536180496216e-02 -7.199801504611968994e-02 3.186047449707984924e-02 -3.589305654168128967e-02 -1.670786179602146149e-02 -2.024820074439048767e-02 6.109250336885452271e-02 2.004827000200748444e-02 2.762134000658988953e-02 3.936902806162834167e-02 3.184432908892631531e-02 -2.073447033762931824e-02 -2.009449526667594910e-02 4.614991694688796997e-02 4.430168494582176208e-02 1.397928502410650253e-02 -9.261989593505859375e-02 -8.303314447402954102e-02 -2.139010131359100342e-01 -8.922868291847407818e-04 -1.304065529257059097e-02 2.327722683548927307e-02 2.088458649814128876e-02 -2.946181409060955048e-02 -3.525874018669128418e-02 -2.725177071988582611e-02 7.306195050477981567e-02 -4.884692654013633728e-02 2.443080767989158630e-03 -1.878182291984558105e-01 -3.947691619396209717e-02 1.068374887108802795e-02 -7.156811654567718506e-02 1.970413923263549805e-01 1.127774864435195923e-01 3.402144089341163635e-02 -4.519623145461082458e-02 -7.160658133216202259e-04 -8.525277487933635712e-03 7.760730659356340766e-05 -4.619401413947343826e-03 1.201102137565612793e-02 -1.259766221046447754e-01 2.415790408849716187e-02 -5.392042919993400574e-02 -2.670016326010227203e-02 -1.350229084491729736e-01 -8.946698904037475586e-02 -7.777853310108184814e-02 -3.186434134840965271e-02 -4.233474656939506531e-02 1.051056850701570511e-02 -1.116664409637451172e-01 -8.287319540977478027e-02 1.165887862443923950e-01 -9.873838722705841064e-02 2.591679245233535767e-02 2.664580754935741425e-02 -1.648742123506963253e-03 -4.063280299305915833e-02 -9.841843694448471069e-02 1.560642421245574951e-01 8.704672753810882568e-02 1.010481491684913635e-01 -1.112866327166557312e-01 1.250064224004745483e-01 6.590908020734786987e-02 7.271650433540344238e-02 -9.898660331964492798e-02 1.748818904161453247e-01 -2.792695537209510803e-02 5.185421183705329895e-02 9.880122542381286621e-02 1.883978396654129028e-01 9.063974954187870026e-03 -3.255227580666542053e-02 9.418895840644836426e-02 3.141398075968027115e-03 -3.770389035344123840e-02 -2.039106190204620361e-02 1.336285918951034546e-01 4.527861252427101135e-02 2.407918572425842285e-01 -7.463719695806503296e-03 7.787820696830749512e-02 -3.435868769884109497e-02 3.847705945372581482e-02 1.805079355835914612e-02 6.040573120117187500e-01 -1.691589951515197754e-01 -1.026819273829460144e-01 -4.701537266373634338e-02 1.289090514183044434e-01 -1.250122636556625366e-01 1.042553186416625977e-01 9.173458814620971680e-02 3.370029851794242859e-02 -1.397890448570251465e-01 -1.574535109102725983e-02 1.709539256989955902e-02 -2.692171372473239899e-02 -1.892944797873497009e-02 6.173427030444145203e-02 -8.103655278682708740e-02 7.909224182367324829e-02
-4.769454710185527802e-03 8.477147668600082397e-02 1.531763840466737747e-02 -7.812984287738800049e-02 -2.567711658775806427e-02 3.173568472266197205e-02 -1.298215612769126892e-02 5.157203972339630127e-02 7.815415970981121063e-03 -4.931473731994628906e-02 -2.968708053231239319e-02 1.170943304896354675e-02 1.043299064040184021e-01 -2.424719277769327164e-03 9.090194106101989746e-02 -2.816797606647014618e-02 4.674958065152168274e-02 -2.199438773095607758e-02 -1.131362281739711761e-02 1.495219767093658447e-01 -8.594146370887756348e-02 -4.888585582375526428e-02 1.612392999231815338e-02 -2.946592867374420166e-02 -6.911486387252807617e-02 1.820533163845539093e-02 -3.685726970434188843e-02 -2.308364026248455048e-02 6.090925633907318115e-02 7.181085646152496338e-02 -7.367058843374252319e-02 -2.775260061025619507e-02 8.140406012535095215e-02 4.269085079431533813e-02 2.338455989956855774e-02 -4.453019052743911743e-02 -1.207796484231948853e-01 -2.957512810826301575e-02 4.270557686686515808e-02 -3.991570323705673218e-02 -8.053226396441459656e-03 6.802007555961608887e-02 8.062306791543960571e-02 -9.395832568407058716e-02 -7.081804424524307251e-02 5.704731494188308716e-02 1.114161610603332520e-01 -3.032302856445312500e-02 1.167423743754625320e-02 1.043665632605552673e-01 -6.349921971559524536e-02 -7.895329594612121582e-02 -2.237522229552268982e-02 2.524994872510433197e-02 1.669225655496120453e-02 -1.010600179433822632e-01 -8.404041826725006104e-02 9.401462972164154053e-03 3.020296245813369751e-02 1.234753895550966263e-02 1.516102068126201630e-02 -1.923323422670364380e-02 -6.534924358129501343e-02 -5.816648155450820923e-02 2.181423828005790710e-02 -6.165357679128646851e-02 9.437675774097442627e-02 -2.794082090258598328e-02 -1.494866516441106796e-02 -5.823776498436927795e-02 -2.067559212446212769e-02 -6.725197285413742065e-02 4.102223366498947144e-02 -1.684543937444686890e-01 3.112255036830902100e-02 7.238105684518814087e-02 1.683150604367256165e-02 -1.249122340232133865e-02 9.674301743507385254e-02 2.815927006304264069e-02 -6.700909137725830078e-02 -1.473445147275924683e-01 8.055989444255828857e-02 8.889528363943099976e-02 4.991879314184188843e-02 3.946969285607337952e-02 -4.837657883763313293e-02 6.669759284704923630e-03 1.418313235044479370e-01 -1.024403423070907593e-02 -5.266701802611351013e-03 -7.952723652124404907e-02 -4.606547206640243530e-02 1.315119117498397827e-02 -1.108511760830879211e-01 1.224556043744087219e-01 2.883117832243442535e-02 -7.251054048538208008e-03 5.177682638168334961e-02 -3.305653110146522522e-02 8.302221447229385376e-02 -4.766472429037094116e-02 -2.185530588030815125e-02 4.464234784245491028e-02 -3.925761580467224121e-02 1.286672241985797882e-02 -6.018536537885665894e-02 4.093996249139308929e-03 1.322845071554183960e-01 3.817562386393547058e-02 -1.189704705029726028e-02 -5.043156147003173828e-01 -1.527589261531829834e-01 1.828610524535179138e-02 2.693486027419567108e-02 2.382190711796283722e-02 3.015786223113536835e-02 1.324552744626998901e-01 2.701294980943202972e-02 -1.205463893711566925e-02 -3.265180438756942749e-02 7.659691572189331055e-02 -5.201004073023796082e-02 -1.484377216547727585e-02 4.452322423458099365e-02 -4.113939031958580017e-02 2.094546519219875336e-02 9.435282647609710693e-02
-4.479087516665458679e-02 3.401698544621467590e-03 9.874349460005760193e-03 -7.705981284379959106e-02 9.614039957523345947e-02 5.307751148939132690e-02 5.639919079840183258e-03 -1.750542223453521729e-02 -1.559205725789070129e-02 -5.027606338262557983e-02 -3.240154683589935303e-02 1.101451274007558823e-02 -8.081859350204467773e-02 -8.359464257955551147e-02 2.258503437042236328e-02 -1.882848516106605530e-02 -1.723215542733669281e-02 -2.651488967239856720e-02 7.441226392984390259e-02 1.107679679989814758e-01 -5.703499913215637207e-02 9.885670989751815796e-02 5.770693719387054443e-02 -7.403086870908737183e-03 4.181681573390960693e-02 6.715208292007446289e-02 1.272906456142663956e-02 -3.734591603279113770e-02 2.668739482760429382e-02 -4.522475600242614746e-02 -5.596716329455375671e-02 2.958135865628719330e-02 -6.305304914712905884e-02 2.939380146563053131e-02 -6.813530623912811279e-02 -2.576646581292152405e-02 -8.942845743149518967e-04 2.079839445650577545e-02 2.786217816174030304e-02 -3.698311373591423035e-02 -5.306836590170860291e-02 5.303071141242980957e-01 -7.766804099082946777e-02 3.322812169790267944e-02 1.470149755477905273e-01 7.530699670314788818e-02 7.222212105989456177e-02 -8.432357758283615112e-02 -2.278264611959457397e-01 -5.531275179237127304e-03 7.097236812114715576e-02 1.467355620115995407e-02 -6.556569784879684448e-02 1.115241721272468567e-01 -4.612620919942855835e-02 -3.581546619534492493e-02 -6.588454544544219971e-02 -3.413192927837371826e-02 2.180922962725162506e-02 2.391901984810829163e-02 -9.048276394605636597e-02 1.252871155738830566e-01 -1.978302374482154846e-02 9.147482365369796753e-02 -1.920937933027744293e-02 -2.695517381653189659e-03 -7.846052944660186768e-02 7.992357015609741211e-02 -1.400710083544254303e-02 -3.445806354284286499e-02 -6.020176038146018982e-02 -1.029347814619541168e-02 -4.971826914697885513e-03 -2.229262515902519226e-02 -8.849225193262100220e-02 2.814103476703166962e-02 5.587617866694927216e-03 3.106696531176567078e-02 -6.127693690359592438e-03 2.827175706624984741e-02 7.026502490043640137e-02 4.054888337850570679e-02 -7.388031482696533203e-02 -6.253270059823989868e-02 4.682919755578041077e-02 2.400286495685577393e-03 3.952737152576446533e-02 2.485589683055877686e-02 1.249652281403541565e-01 -7.955110073089599609e-02 -8.468127809464931488e-03 -8.123896084725856781e-03 3.297673538327217102e-02 -1.179030630737543106e-02 4.719152301549911499e-02 5.085460096597671509e-02 -2.952072210609912872e-02 2.175340196117758751e-03 -1.456294357776641846e-01 -7.062943652272224426e-03 -1.051890477538108826e-02 2.655847370624542236e-02 8.183015882968902588e-02 -3.109397739171981812e-02 -2.093968167901039124e-02 1.378114521503448486e-02 1.015714136883616447e-03 -7.552592456340789795e-02 2.178538292646408081e-01 -2.992875315248966217e-02 -5.946746096014976501e-02 -5.540649890899658203e-01 -4.975445941090583801e-02 1.660083681344985962e-01 -1.314357072114944458e-01 1.429818719625473022e-01 -4.785986617207527161e-02 6.864415109157562256e-02 4.103574529290199280e-02 4.207076504826545715e-03 2.477346360683441162e-01 6.247289851307868958e-02 -2.923119440674781799e-02 -8.206584304571151733e-02 3.664092347025871277e-02 3.874448686838150024e-02 2.373639121651649475e-02 -5.156908882781863213e-04
7.575782947242259979e-03 -2.461848407983779907e-02 -5.279502272605895996e-02 5.229179561138153076e-02 -6.643166393041610718e-02 3.005508147180080414e-02 3.451289981603622437e-02 -3.349021822214126587e-02 -5.293151829391717911e-03 1.853347569704055786e-02 1.272989530116319656e-02 7.051113061606884003e-03 -3.343138843774795532e-02 5.669595301151275635e-02 2.509427070617675781e-02 -3.073703497648239136e-02 -2.451921813189983368e-02 -1.927933655679225922e-02 1.952819153666496277e-02 -1.105624511837959290e-01 -1.820174977183341980e-02 1.176695711910724640e-02 -2.200072072446346283e-02 2.502300776541233063e-02 3.606734052300453186e-02 -4.870403558015823364e-03 4.220348224043846130e-02 2.036321535706520081e-02 -9.172096103429794312e-02 7.738797366619110107e-02 -4.495367407798767090e-02 -9.438382834196090698e-02 7.271864265203475952e-02 -4.327335208654403687e-02 1.042570802383124828e-03 7.554100453853607178e-02 -4.467953369021415710e-02 9.487953037023544312e-03 7.859804667532444000e-03 3.984394297003746033e-02 -1.398098915815353394e-01 -4.291371107101440430e-01 -2.440726384520530701e-02 -3.050940670073032379e-02 1.029467908665537834e-03 -5.858706310391426086e-02 -4.778881743550300598e-02 -4.922238294966518879e-04 1.773519217967987061e-01 9.176317602396011353e-03 4.214691370725631714e-02 4.698232561349868774e-02 -1.691356673836708069e-02 6.227945163846015930e-02 4.153676703572273254e-02 8.344301581382751465e-02 3.896698355674743652e-02 -4.340267181396484375e-02 1.501347031444311142e-02 1.661149784922599792e-02 3.987815976142883301e-02 2.345958538353443146e-02 -1.814565248787403107e-02 2.689842693507671356e-02 -1.167161297053098679e-02 7.944712042808532715e-02 5.172093515284359455e-04 -9.856682270765304565e-02 -4.832193255424499512e-02 -4.858642444014549255e-02 -7.042159140110015869e-02 3.668183088302612305e-02 5.357070639729499817e-02 -5.070023611187934875e-02 -2.468713745474815369e-02 1.051683127880096436e-01 -1.755343377590179443e-02 3.956940770149230957e-02 -3.944508731365203857e-02 1.177276764065027237e-02 -9.526495635509490967e-02 2.392242662608623505e-02 1.051808297634124756e-01 -4.374582692980766296e-02 -1.983225718140602112e-02 -1.095467880368232727e-01 -5.916036199778318405e-03 -1.128542572259902954e-01 -7.281640172004699707e-02 3.636327013373374939e-02 1.657149568200111389e-02 -3.030220605432987213e-02 2.802395634353160858e-02 1.432648021727800369e-02 -2.582243643701076508e-02 7.780791819095611572e-02 3.222084045410156250e-02 6.132766604423522949e-02 4.918018355965614319e-02 3.506913036108016968e-02 -5.065968632698059082e-02 7.567751221358776093e-03 -2.551194466650485992e-02 5.817614123225212097e-02 9.493971243500709534e-03 -7.863878458738327026e-02 4.870560392737388611e-02 2.298836968839168549e-02 -7.076374255120754242e-03 -4.406582936644554138e-02 1.922936365008354187e-02 4.186401367187500000e-01 5.667737871408462524e-02 -4.790452122688293457e-02 4.151260852813720703e-02 -3.045837394893169403e-02 8.275832980871200562e-02 1.011491287499666214e-02 -5.278883036226034164e-04 1.003535813651978970e-03 -7.363397628068923950e-02 -3.956556320190429688e-02 -4.317900538444519043e-02 3.590983152389526367e-02 -7.195233367383480072e-03 2.485825307667255402e-02 -1.225642859935760498e-03 -6.614992022514343262e-02
2.808869071304798126e-02 2.496328055858612061e-01 -9.626496583223342896e-03 1.187368854880332947e-01 1.194013878703117371e-01 -1.522453278303146362e-01 -2.089841216802597046e-01 1.512156426906585693e-02 -6.295627914369106293e-03 7.968244701623916626e-02 7.419483363628387451e-02 3.839999437332153320e-02 1.533554792404174805e-01 8.549830317497253418e-02 1.669128239154815674e-01 -8.691631257534027100e-02 5.402885377407073975e-02 -3.299985453486442566e-02 5.734390020370483398e-02 1.821217476390302181e-03 -8.075588196516036987e-02 1.503922641277313232e-01 -1.315407902002334595e-01 -4.074732214212417603e-02 -3.312444314360618591e-02 1.011948212981224060e-01 -5.030441656708717346e-02 -9.429801255464553833e-03 8.903726935386657715e-02 1.860812306404113770e-02 1.547902226448059082e-01 2.396347187459468842e-02 4.128506034612655640e-02 9.872581809759140015e-02 -1.183997169137001038e-01 3.967587649822235107e-02 1.020421907305717468e-01 -8.889009058475494385e-02 -1.038491204380989075e-01 -1.552668660879135132e-01 -2.865752950310707092e-02 1.341376602649688721e-01 6.958337128162384033e-02 5.297715961933135986e-02 1.117441803216934204e-01 -3.319446370005607605e-02 -1.000365093350410461e-01 -2.142653428018093109e-02 -2.218874171376228333e-02 6.198861077427864075e-02 1.281113475561141968e-01 -2.966384170576930046e-03 2.563693188130855560e-02 -7.955195032991468906e-04 -1.829969584941864014e-01 9.005638957023620605e-02 3.915628418326377869e-02 -1.343467235565185547e-01 -2.645665965974330902e-02 7.402542233467102051e-02 8.477376401424407959e-02 1.297910362482070923e-01 -1.214642599225044250e-01 -5.779206380248069763e-02 -7.090496271848678589e-02 4.909376800060272217e-02 -6.197415292263031006e-02 1.894242689013481140e-02 -3.663666918873786926e-02 8.889880776405334473e-02 -1.296067088842391968e-01 -4.800529405474662781e-02 1.134272385388612747e-02 -7.534141838550567627e-02 -3.355173394083976746e-02 -1.035187393426895142e-01 1.991771757602691650e-01 -2.799203433096408844e-02 8.986901491880416870e-02 -1.702651679515838623e-01 1.528684049844741821e-01 -2.637055888772010803e-02 9.626436978578567505e-02 7.723988499492406845e-03 -9.987059235572814941e-02 -6.343930959701538086e-02 8.750240504741668701e-02 1.222530566155910492e-02 -3.031832277774810791e-01 5.782185867428779602e-02 -8.381187915802001953e-02 -2.015752159059047699e-02 -1.015604734420776367e-01 1.235228180885314941e-01 7.499343901872634888e-02 2.057752758264541626e-02 8.732119575142860413e-03 7.532935589551925659e-02 5.989376455545425415e-02 2.278029620647430420e-01 5.277004465460777283e-02 -1.172099784016609192e-01 -8.543831110000610352e-02 -6.045686313882470131e-04 -7.789237797260284424e-02 -3.085437789559364319e-02 -5.768212676048278809e-02 1.994552910327911377e-01 1.047113463282585144e-01 -1.530214846134185791e-01 8.356719464063644409e-02 -1.161521896719932556e-01 5.521400272846221924e-02 9.957965463399887085e-02 1.414477732032537460e-02 2.721709571778774261e-02 -1.521847210824489594e-02 -1.027432680130004883e-01 -4.952213726937770844e-03 -7.114710658788681030e-02 4.234488308429718018e-02 7.333613932132720947e-02 7.809598743915557861e-02 -1.430379748344421387e-01 -4.347931221127510071e-02 4.281877726316452026e-02 -6.975401937961578369e-02 -2.372439503669738770e-01
-3.661892563104629517e-02 -2.143107913434505463e-02 -2.568238228559494019e-02 -1.391486972570419312e-01 -9.209342300891876221e-02 8.842649310827255249e-02 1.210934370756149292e-01 8.811298757791519165e-02 8.197502791881561279e-02 -1.012117564678192139e-01 -3.588503971695899963e-02 -1.713937669992446899e-01 -1.101196333765983582e-01 -8.725225925445556641e-02 -5.246684327721595764e-02 -1.565180569887161255e-01 1.206203997135162354e-01 1.384171992540359497e-01 -1.165648847818374634e-01 -3.905136883258819580e-02 1.838359385728836060e-01 -4.560431092977523804e-02 5.887816846370697021e-02 9.224789589643478394e-02 1.911160498857498169e-01 6.609281897544860840e-02 1.853532344102859497e-02 -2.734547480940818787e-02 -1.561202853918075562e-01 -3.656982630491256714e-02 2.158443443477153778e-02 4.544369876384735107e-02 -6.814994663000106812e-02 -6.701794918626546860e-03 -1.817762479186058044e-02 1.083963084965944290e-02 -1.366984695196151733e-01 -1.914494670927524567e-02 1.802432388067245483e-01 -8.537536114454269409e-02 -1.743369847536087036e-01 -2.129686921834945679e-01 3.686150535941123962e-02 -2.072177082300186157e-01 6.760277599096298218e-02 -9.544417262077331543e-02 8.492388576269149780e-02 -8.470033109188079834e-02 -6.093855202198028564e-02 1.223093792796134949e-01 -9.552247077226638794e-02 -3.535660728812217712e-02 -7.418552786111831665e-02 -1.578273996710777283e-02 -1.172835007309913635e-01 4.174226522445678711e-02 -1.434230059385299683e-01 -8.895996958017349243e-03 -1.049062889069318771e-02 -8.981813490390777588e-02 -2.979622967541217804e-02 -1.106430310755968094e-02 1.507127285003662109e-01 1.347965598106384277e-01 1.899011284112930298e-01 2.331848081666976213e-04 8.819888345897197723e-03 1.100998967885971069e-01 4.320469871163368225e-02 -1.526819169521331787e-01 1.177889332175254822e-01 9.458623826503753662e-03 1.910149678587913513e-02 7.856123149394989014e-02 -1.376700550317764282e-01 -1.808942481875419617e-02 -6.044104695320129395e-02 -7.285625487565994263e-02 9.738811641000211239e-04 2.210285961627960205e-01 -4.490875080227851868e-02 -3.762836381793022156e-02 6.021596025675535202e-03 -3.887701779603958130e-02 -6.154200527817010880e-03 -2.534923143684864044e-02 1.680238544940948486e-01 -7.657039165496826172e-02 3.009968623518943787e-02 -1.050145849585533142e-01 1.372802555561065674e-01 -4.678360745310783386e-02 -1.565371751785278320e-01 3.983751870691776276e-03 -8.801992051303386688e-03 5.259298253804445267e-03 -6.109002977609634399e-03 -1.517221480607986450e-01 -2.225806005299091339e-02 1.072707250714302063e-01 -3.211999312043190002e-02 8.739574998617172241e-02 4.722277820110321045e-02 2.252921275794506073e-02 5.220863595604896545e-02 -8.274293504655361176e-03 -8.432352542877197266e-02 1.782986074686050415e-01 1.724475175142288208e-01 6.242909934371709824e-03 8.472676388919353485e-03 2.063295096158981323e-01 -2.361405454576015472e-02 -1.552612185478210449e-01 -2.318708412349224091e-02 7.026699185371398926e-02 1.273777633905410767e-01 -2.738005295395851135e-02 6.269192788749933243e-03 3.542804345488548279e-02 -1.112928893417119980e-02 -9.151848033070564270e-03 8.289897441864013672e-02 -9.202446043491363525e-02 -1.314280629158020020e-01 4.197321087121963501e-02 5.700883269309997559e-02 -7.307620346546173096e-02
-3.678229823708534241e-02 -1.585961133241653442e-02 5.304344743490219116e-02 -3.812772408127784729e-02 -3.840830922126770020e-02 -3.260738402605056763e-02 4.011221230030059814e-02 5.032287165522575378e-02 5.180964712053537369e-03 -7.199142128229141235e-03 7.116957101970911026e-03 8.277659653685986996e-04 -3.651098115369677544e-03 -8.888324373401701450e-04 -5.698600318282842636e-03 4.905234277248382568e-02 -7.250280119478702545e-03 -4.166230931878089905e-02 3.258233517408370972e-02 7.336338609457015991e-02 2.819702262058854103e-03 -4.090093076229095459e-02 6.470794230699539185e-02 -2.320193499326705933e-02 -2.427706727758049965e-03 -4.383833333849906921e-02 -1.601036265492439270e-02 8.244958706200122833e-03 1.111138984560966492e-02 -8.459366858005523682e-02 2.423760853707790375e-02 -4.448906332254409790e-02 -4.899324476718902588e-02 -3.782455995678901672e-02 -2.666967362165451050e-02 -3.423229604959487915e-02 3.550821915268898010e-02 -8.190856897272169590e-04 -1.801937073469161987e-02 2.908640541136264801e-02 -2.083888091146945953e-02 3.987194597721099854e-01 1.498684566468000412e-02 4.965421557426452637e-02 1.608194038271903992e-02 -1.004480049014091492e-01 -2.387411519885063171e-02 1.899148710072040558e-02 -2.633456513285636902e-02 -8.441288955509662628e-03 8.408594131469726562e-02 5.671316757798194885e-02 -1.164822187274694443e-02 -7.635173387825489044e-03 -4.867918416857719421e-02 4.098826646804809570e-02 7.107973098754882812e-03 2.641201205551624298e-02 4.165074601769447327e-02 -3.972313925623893738e-02 1.742596365511417389e-02 -3.103668615221977234e-02 -2.459946088492870331e-02 -1.136298570781946182e-02 -6.628691684454679489e-03 1.811865717172622681e-02 -2.623092569410800934e-02 8.580327033996582031e-02 -3.814512118697166443e-02 2.023964188992977142e-02 -5.647914484143257141e-02 -6.824713200330734253e-02 -2.629152126610279083e-02 1.294679846614599228e-02 -1.683204807341098785e-02 7.530467212200164795e-02 1.600918024778366089e-01 2.486551180481910706e-02 9.302923083305358887e-02 2.987798117101192474e-02 6.099991500377655029e-02 -3.002517856657505035e-02 -8.089307695627212524e-02 1.108959689736366272e-02 -1.500878389924764633e-02 3.537294268608093262e-02 -7.294607907533645630e-02 -7.121271640062332153e-02 1.047517880797386169e-01 -8.464576676487922668e-03 2.005274593830108643e-02 -5.503902211785316467e-03 1.047880016267299652e-02 -2.426616847515106201e-02 -7.322357036173343658e-03 -7.413584738969802856e-02 -5.472894012928009033e-02 5.916322767734527588e-02 1.459260284900665283e-02 2.844713255763053894e-02 -1.047749631106853485e-02 1.966745778918266296e-02 4.687190428376197815e-02 -1.914089359343051910e-02 -3.999488055706024170e-02 1.118829697370529175e-01 2.819024492055177689e-03 6.444422900676727295e-02 -2.023210935294628143e-02 -1.959797553718090057e-02 -3.234903560951352119e-03 -5.282218456268310547e-01 -1.393136382102966309e-01 4.548430442810058594e-02 2.729643322527408600e-02 3.570641577243804932e-02 -1.048261225223541260e-01 9.807459078729152679e-03 9.129045903682708740e-02 2.064353041350841522e-02 1.062309555709362030e-02 6.330339703708887100e-03 8.409436047077178955e-02 2.643708884716033936e-02 2.688200213015079498e-02 -4.915005061775445938e-03 7.806254550814628601e-03 1.177637651562690735e-01
1.008393540978431702e-01 -1.408855915069580078e-01 4.394414648413658142e-02 2.577562928199768066e-01 2.242360413074493408e-01 -7.311660796403884888e-02 -3.140100091695785522e-02 -2.888767607510089874e-02 6.599192321300506592e-02 -8.273612707853317261e-02 -8.900529704988002777e-03 -5.739763379096984863e-02 1.129674017429351807e-01 -1.433383673429489136e-01 -9.392004460096359253e-02 -9.938199818134307861e-02 9.821074455976486206e-02 2.285348623991012573e-01 -6.180261448025703430e-02 -9.799649566411972046e-02 -9.264558553695678711e-02 -5.353421904146671295e-03 -7.929455488920211792e-02 5.472144111990928650e-02 3.087761579081416130e-03 6.214337423443794250e-02 -1.923509836196899414e-01 2.839883603155612946e-02 -8.493968844413757324e-02 -7.037551701068878174e-02 5.120901018381118774e-02 -4.044784605503082275e-02 2.175139635801315308e-01 -1.859158510342240334e-03 -4.395985975861549377e-02 1.055355370044708252e-01 -1.078670695424079895e-01 6.674397736787796021e-02 -7.877400517463684082e-02 1.239709407091140747e-01 -2.158361300826072693e-02 1.842824518680572510e-01 -1.017623692750930786e-01 1.080555915832519531e-01 7.368548307567834854e-03 -1.811554539017379284e-03 -6.116646900773048401e-02 -1.521130464971065521e-02 -1.622862666845321655e-01 3.167289495468139648e-02 -7.680913060903549194e-02 -1.282006651163101196e-01 -4.458037018775939941e-02 2.013631612062454224e-01 1.039315238595008850e-01 4.105941206216812134e-02 -7.820760458707809448e-02 -4.677670449018478394e-02 6.707359850406646729e-02 -3.116625361144542694e-03 2.210396714508533478e-02 5.015420168638229370e-02 -7.204516977071762085e-02 1.045950204133987427e-01 -5.777752026915550232e-02 -2.309738844633102417e-02 1.179217826575040817e-02 -1.166682839393615723e-01 -5.242460593581199646e-02 -4.778606817126274109e-02 1.592966355383396149e-02 -8.850055932998657227e-02 -6.151630729436874390e-02 -1.606595963239669800e-01 1.133866142481565475e-02 -9.069996327161788940e-02 1.187920644879341125e-01 8.255078643560409546e-02 -3.917426615953445435e-02 -4.902141913771629333e-02 9.789130091667175293e-02 -7.324559986591339111e-02 1.133800297975540161e-01 1.167500764131546021e-01 -4.090166091918945312e-02 -1.420190483331680298e-01 1.138682141900062561e-01 4.099013209342956543e-01 5.837726220488548279e-02 2.997031807899475098e-01 -7.898035645484924316e-02 -8.414125069975852966e-03 6.063656508922576904e-02 2.352774702012538910e-02 1.078931167721748352e-01 -3.448139643296599388e-03 -2.494488097727298737e-02 -9.450840950012207031e-02 -3.741675615310668945e-02 3.404354304075241089e-02 -5.054340884089469910e-02 4.457460343837738037e-02 -1.250539626926183701e-02 3.176260739564895630e-02 -6.025002896785736084e-02 3.327202796936035156e-02 -4.041257128119468689e-02 1.509663462638854980e-01 1.322166025638580322e-01 3.261115029454231262e-02 -3.221470490097999573e-02 -2.430089861154556274e-01 -7.670506834983825684e-02 -1.529826372861862183e-01 1.865802332758903503e-02 -9.873424470424652100e-02 -7.181805372238159180e-02 -5.051436368376016617e-03 9.359350055456161499e-02 -5.487330257892608643e-02 -1.194034144282341003e-01 -2.128768479451537132e-03 8.181435614824295044e-02 -4.072020351886749268e-01 -7.005461025983095169e-03 1.205016896128654480e-01 1.042456924915313721e-01 -6.189065799117088318e-02
5.347084254026412964e-02 1.281294077634811401e-01 9.581894427537918091e-02 1.938109286129474640e-02 -4.684958234429359436e-02 2.964016422629356384e-02 2.631868049502372742e-02 3.180740773677825928e-02 2.681505866348743439e-02 2.910813391208648682e-01 6.300262175500392914e-03 1.768506877124309540e-02 1.298920810222625732e-01 -1.871649622917175293e-01 -5.642350018024444580e-02 4.194163158535957336e-02 -1.942485123872756958e-01 -1.213899552822113037e-01 -2.952690701931715012e-03 -5.474334582686424255e-02 -4.873011633753776550e-02 -7.781020551919937134e-02 5.940829962491989136e-02 1.139934062957763672e-01 9.982864558696746826e-02 4.159095883369445801e-02 -5.216310545802116394e-02 8.838912099599838257e-02 1.755258440971374512e-02 -2.974163554608821869e-02 3.444116935133934021e-02 -2.198141962289810181e-01 -9.107159823179244995e-02 -2.210581302642822266e-01 5.918019637465476990e-02 1.461775973439216614e-02 1.186341345310211182e-01 6.537679117172956467e-03 3.258356451988220215e-02 -9.079800546169281006e-02 5.203557386994361877e-02 1.103266626596450806e-01 -3.982342034578323364e-02 -8.227080851793289185e-02 -1.077150832861661911e-02 1.730316877365112305e-01 6.229269132018089294e-02 -4.112334549427032471e-02 -7.268641144037246704e-02 -3.920124471187591553e-02 -8.960298448801040649e-02 -1.456004194915294647e-02 -1.606507692486047745e-03 -1.226133778691291809e-01 4.972593113780021667e-02 2.472235634922981262e-02 1.726668179035186768e-01 -2.947521395981311798e-02 -1.056582927703857422e-01 -2.260334193706512451e-01 -1.040247380733489990e-01 9.690086543560028076e-02 -2.843388728797435760e-02 -5.438885651528835297e-03 -8.412194997072219849e-02 8.286523632705211639e-03 -2.170852757990360260e-02 -1.198252961039543152e-01 -1.695785089395940304e-03 2.436191588640213013e-02 4.754052311182022095e-02 4.417593125253915787e-03 4.453660175204277039e-02 6.659869849681854248e-02 -1.194526925683021545e-01 5.055689439177513123e-02 4.642082750797271729e-02 7.507189363241195679e-02 -9.368246048688888550e-02 3.057272545993328094e-02 -7.338301837444305420e-02 -4.821164533495903015e-02 -2.775804698467254639e-02 -7.670187950134277344e-02 -1.707845926284790039e-02 -2.756589092314243317e-02 2.917105890810489655e-02 -2.678870558738708496e-01 1.014869064092636108e-01 1.150550991296768188e-01 -1.090521365404129028e-01 -5.577775463461875916e-02 -7.626884430646896362e-02 3.816884756088256836e-02 1.147786974906921387e-01 -1.618740335106849670e-02 -8.865701034665107727e-03 -2.985797822475433350e-02 8.608146756887435913e-02 7.834675908088684082e-02 -3.527922183275222778e-02 -1.248036697506904602e-01 4.737579077482223511e-02 -7.518463581800460815e-02 3.353116335347294807e-03 1.472934484481811523e-01 4.481242597103118896e-02 1.389094293117523193e-01 -3.729784488677978516e-02 -6.692421436309814453e-02 -6.871022284030914307e-02 -3.536990284919738770e-02 9.100061841309070587e-03 1.765866428613662720e-01 -2.265675365924835205e-01 7.211396098136901855e-02 -8.419127017259597778e-02 5.609101429581642151e-02 -1.960602216422557831e-02 -2.151222340762615204e-02 1.355352252721786499e-01 -1.407480426132678986e-02 3.005664609372615814e-02 2.580085396766662598e-02 2.725057862699031830e-02 -9.401997178792953491e-02 -1.624796092510223389e-01 1.353542059659957886e-01
7.026918977499008179e-02 4.393766075372695923e-02 -4.364169016480445862e-02 2.705380320549011230e-02 2.873913757503032684e-02 -9.801512584090232849e-03 1.810749992728233337e-02 -4.515733197331428528e-02 5.181235447525978088e-02 2.194102704524993896e-01 -2.501555345952510834e-02 3.830089420080184937e-02 -9.544084966182708740e-02 -7.472136057913303375e-03 -8.022944629192352295e-02 -1.434523332864046097e-02 -2.066563256084918976e-02 -3.380152210593223572e-02 2.985365316271781921e-02 2.888137400150299072e-01 -4.674191772937774658e-02 3.545422852039337158e-02 -1.772506535053253174e-02 3.843149542808532715e-02 -3.476634994149208069e-02 -7.008809130638837814e-03 1.172959525138139725e-02 8.296564221382141113e-02 -3.506186977028846741e-02 8.157787472009658813e-02 2.515160106122493744e-02 8.143180608749389648e-02 -2.824818529188632965e-02 9.562528878450393677e-02 -1.143772248178720474e-02 1.532617211341857910e-02 -7.396271079778671265e-02 7.126835733652114868e-02 -9.521390497684478760e-02 -4.611005540937185287e-03 -5.415970087051391602e-02 4.274650514125823975e-01 8.012304082512855530e-03 -1.382531691342592239e-02 -1.686389558017253876e-02 6.390471011400222778e-02 -8.597457408905029297e-02 -2.567458152770996094e-02 -5.042942985892295837e-02 -1.814355105161666870e-01 1.019434109330177307e-01 2.507259696722030640e-02 -1.389907579869031906e-02 -8.174614608287811279e-02 -6.097091245464980602e-04 -2.748856879770755768e-02 3.790627047419548035e-02 1.449608057737350464e-01 6.619182229042053223e-02 -1.066578831523656845e-02 -1.102729439735412598e-01 -3.473960561677813530e-03 -7.309281267225742340e-03 -1.371323168277740479e-01 7.598405331373214722e-02 6.095716729760169983e-02 2.322616614401340485e-02 1.057360693812370300e-01 4.078212007880210876e-02 5.368771031498908997e-02 2.720458060503005981e-02 4.574367776513099670e-02 -5.653373897075653076e-03 -8.578021079301834106e-03 -1.023598946630954742e-02 7.638692390173673630e-03 -5.911914631724357605e-02 1.875310763716697693e-02 -5.311041604727506638e-03 -2.578852884471416473e-02 -2.630213648080825806e-02 1.006979793310165405e-01 4.395113512873649597e-02 -5.368693917989730835e-02 6.837266962975263596e-03 -1.051626279950141907e-01 -1.203028187155723572e-01 -7.090749591588973999e-02 1.597092002630233765e-01 7.138650864362716675e-03 2.343271858990192413e-02 1.160613168030977249e-02 -4.247253760695457458e-02 -1.187259107828140259e-01 3.797664074227213860e-03 -3.848542645573616028e-02 7.727755606174468994e-02 -9.003772586584091187e-02 -1.141327992081642151e-02 -2.410797774791717529e-02 -2.525106817483901978e-02 9.228547662496566772e-02 -7.391281425952911377e-02 -2.252595312893390656e-02 -4.563870280981063843e-02 1.169027984142303467e-01 3.018620051443576813e-02 8.575389161705970764e-03 5.896948650479316711e-02 2.459702780470252037e-03 2.948031201958656311e-02 -7.932252287864685059e-01 -1.161326318979263306e-01 1.768469065427780151e-01 -1.358916163444519043e-01 5.049624294042587280e-02 -9.798266924917697906e-03 -4.962916951626539230e-03 -3.342616558074951172e-02 6.347841583192348480e-03 1.141768991947174072e-01 4.058532789349555969e-02 -4.763623327016830444e-02 9.171669371426105499e-03 3.044347092509269714e-02 -1.506742648780345917e-02 9.521038085222244263e-02 -5.706375464797019958e-02
