7.171364128589630127e-02
1.660240814089775085e-02
1.264970563352108002e-02
-1.931941509246826172e-02
-1.663040742278099060e-02
5.339489504694938660e-02
-1.647667400538921356e-02
-6.396777927875518799e-02
-4.165539890527725220e-02
2.725310623645782471e-02
-8.072423934936523438e-02
3.108136914670467377e-02
5.859545432031154633e-03
-3.094176948070526123e-02
4.444439709186553955e-02
-1.020640954375267029e-01
1.975523866713047028e-02
3.007484599947929382e-02
-1.059754379093647003e-02
-5.792240798473358154e-02
-1.020521484315395355e-02
-1.626762934029102325e-02
-5.207628756761550903e-02
3.115462884306907654e-02
1.408099085092544556e-01
6.480779498815536499e-02
-4.544481635093688965e-02
-6.474525481462478638e-02
-1.934781484305858612e-02
9.372606128454208374e-02
1.262925472110509872e-02
-1.489193085581064224e-02
2.120888419449329376e-02
-4.488976672291755676e-02
-6.332018971443176270e-02
-1.626074127852916718e-02
1.466649491339921951e-02
-2.259764075279235840e-02
6.661530584096908569e-02
-7.389930635690689087e-02
3.326312405988574028e-03
-6.854500621557235718e-02
-6.973417941480875015e-03
-1.588742993772029877e-02
-2.518527675420045853e-03
-2.346176654100418091e-03
-1.346326316706836224e-03
-8.229031413793563843e-02
8.047639392316341400e-03
-1.956537924706935883e-02
-4.275254905223846436e-02
-1.362781319767236710e-02
-1.398791968822479248e-01
-3.788096457719802856e-02
-4.438075423240661621e-02
-5.731990560889244080e-02
4.325916245579719543e-02
1.145467087626457214e-01
-2.200050093233585358e-02
2.416963502764701843e-02
-3.173085674643516541e-02
-7.870689779520034790e-02
1.344756688922643661e-02
7.134664338082075119e-03
9.023482911288738251e-03
1.425617001950740814e-02
-5.963408201932907104e-02
-4.031407460570335388e-02
4.716436937451362610e-02
2.720590494573116302e-02
2.035607025027275085e-02
-3.454261645674705505e-02
-2.955978969112038612e-03
1.998073793947696686e-02
6.652933359146118164e-02
-3.767715999856591225e-03
-1.087636314332485199e-02
-3.911782801151275635e-02
-6.290601938962936401e-02
2.718479000031948090e-02
-1.005231812596321106e-01
-6.185166537761688232e-03
2.448928542435169220e-03
-1.122203916311264038e-01
2.763608843088150024e-02
4.861116781830787659e-02
4.323065653443336487e-02
-5.184314399957656860e-02
-2.962590754032135010e-02
6.422154605388641357e-02
1.915718056261539459e-02
-1.248159445822238922e-02
9.086714126169681549e-03
-7.735801488161087036e-02
2.472002655267715454e-01
-3.020632546395063400e-03
2.392171695828437805e-02
8.061999082565307617e-02
-8.881503343582153320e-02
2.156286209356039762e-04
2.009501913562417030e-03
-4.985489696264266968e-02
-1.032480131834745407e-02
5.498483777046203613e-02
6.684556603431701660e-02
3.219794109463691711e-02
-1.604777877219021320e-03
1.006541657261550426e-03
1.414394844323396683e-02
1.863260380923748016e-02
-8.170293271541595459e-02
7.306424435228109360e-03
9.100126102566719055e-03
3.139980509877204895e-02
1.309242397546768188e-01
4.818749427795410156e-02
-1.355569660663604736e-01
-5.208658799529075623e-02
1.792524196207523346e-02
-6.195700913667678833e-02
-1.931125670671463013e-02
1.672835797071456909e-01
-3.087434917688369751e-02
1.051717773079872131e-01
-8.571434766054153442e-02
-4.149108752608299255e-02
-2.195092476904392242e-02
1.881165802478790283e-02
