-2.066924981772899628e-02 3.784453263506293297e-03 -2.125547081232070923e-02 -2.355290204286575317e-02 -3.889500722289085388e-02 -2.830717340111732483e-02 9.165156632661819458e-03 2.934728935360908508e-02 3.458989411592483521e-02 4.281959310173988342e-02 -3.692524973303079605e-03 -5.087725445628166199e-02 4.021778330206871033e-02 -2.759292349219322205e-02 2.129954518750309944e-03 8.765777572989463806e-03 1.289552636444568634e-02 1.952142082154750824e-02 7.190506905317306519e-02 2.038477733731269836e-02 1.269732229411602020e-02 4.012183845043182373e-02 5.549391359090805054e-02 -1.163918152451515198e-02 -2.853395603597164154e-02 -4.321150947362184525e-03 -2.903375215828418732e-02 -7.253631483763456345e-03 -2.934713847935199738e-02 -1.151207648217678070e-02 -2.595106326043605804e-02 -2.235650271177291870e-02 3.158161044120788574e-02 6.470687687397003174e-02 1.876653637737035751e-03 -7.330170832574367523e-03 -4.312479496002197266e-02 1.636761799454689026e-02 3.607809171080589294e-02 -5.764646921306848526e-04 8.247969672083854675e-03 -1.262812037020921707e-02 5.679379403591156006e-02 2.873927727341651917e-02 -1.892606378532946110e-03 2.189802005887031555e-02 3.790126647800207138e-03 1.132489833980798721e-02 -3.436907753348350525e-02 7.467726618051528931e-02 -6.231421232223510742e-02 2.949072280898690224e-03 4.384202882647514343e-02 -4.790101200342178345e-02 7.377204950898885727e-03 -3.795434907078742981e-02 -3.105669980868697166e-03 2.607307210564613342e-02 5.692051723599433899e-02 -2.968917042016983032e-02 7.908718660473823547e-03 1.976358331739902496e-02 6.162496283650398254e-04 -7.882726937532424927e-02 2.302687428891658783e-02 1.416603475809097290e-02 -1.505991327576339245e-03 8.271462284028530121e-03 2.103163860738277435e-02 -1.529236044734716415e-02 -3.967596963047981262e-02 -5.981847643852233887e-03 2.822044491767883301e-02 -1.222151098772883415e-03 1.892186887562274933e-02 3.482967440504580736e-04 -5.475191399455070496e-03 -5.614270269870758057e-02 6.246808916330337524e-03 -1.338573358952999115e-02 -6.051641330122947693e-02 -4.636638611555099487e-02 2.575048245489597321e-02 -6.743995007127523422e-03 4.635263606905937195e-02 1.397188566625118256e-02 -8.806322701275348663e-03 4.654669202864170074e-03 -4.409075248986482620e-03 3.988312557339668274e-02 -1.542225945740938187e-02 1.746976561844348907e-02 -9.041520953178405762e-02 -2.933352440595626831e-02 3.060183255001902580e-03 3.254358097910881042e-02 -2.855681069195270538e-02 -3.501108288764953613e-02 3.226877190172672272e-03 -1.088332571089267731e-02 -1.734922453761100769e-02 1.847815699875354767e-02 -2.639403194189071655e-02 1.278643775731325150e-02 -6.752356886863708496e-02 7.853193208575248718e-03 2.043056301772594452e-02 -6.737544666975736618e-03 2.776751294732093811e-02 -3.160900995135307312e-02 -7.000152021646499634e-02 5.084389355033636093e-03 -2.936899848282337189e-02 5.349552258849143982e-03 -1.187466178089380264e-02 4.793497733771800995e-03 3.077135793864727020e-02 -2.060475759208202362e-02 -1.300373580306768417e-02 -3.371547907590866089e-02 1.079937629401683807e-02 -3.682765644043684006e-03 2.238497138023376465e-02 3.797164559364318848e-02 -1.156091410666704178e-02 6.890708953142166138e-02 -8.305943571031093597e-03 -1.113787293434143066e-02
3.323033079504966736e-02 -4.744333773851394653e-02 -9.652645327150821686e-03 -3.121061995625495911e-02 4.235554859042167664e-02 -2.275090850889682770e-02 1.401042379438877106e-02 4.700021445751190186e-02 -2.275003492832183838e-02 -3.318770974874496460e-02 1.369554456323385239e-02 2.523779403418302536e-03 -1.538091804832220078e-02 1.093051210045814514e-02 -2.874234691262245178e-02 -2.399087138473987579e-02 -6.351117510348558426e-03 -4.060584679245948792e-02 -1.890805177390575409e-02 1.078822091221809387e-02 -2.198041044175624847e-02 5.853923410177230835e-02 3.623887896537780762e-02 -4.951057955622673035e-02 1.984643749892711639e-02 -6.504764407873153687e-02 -2.053781785070896149e-02 1.507333107292652130e-02 1.728743128478527069e-02 1.986775174736976624e-02 -2.725453674793243408e-02 6.486988067626953125e-02 2.792439982295036316e-02 2.878495305776596069e-02 -6.733975838869810104e-03 3.274090960621833801e-02 2.832104638218879700e-02 -5.828233435750007629e-03 -2.330528199672698975e-02 4.526842758059501648e-02 1.074188388884067535e-03 -1.776758208870887756e-02 2.963154762983322144e-02 -8.117609540931880474e-04 1.102307066321372986e-02 2.358689159154891968e-02 -6.703179329633712769e-02 2.809121971949934959e-03 1.513184630312025547e-03 2.570532448589801788e-02 5.981012806296348572e-02 -4.075196385383605957e-02 3.239144012331962585e-02 2.603312768042087555e-02 5.551932379603385925e-03 9.924496524035930634e-03 1.878739218227565289e-03 4.832372069358825684e-02 3.592331707477569580e-02 -4.845246672630310059e-03 8.259822614490985870e-03 2.133173868060112000e-02 -6.639576703310012817e-02 -2.398123405873775482e-02 -6.144970282912254333e-02 1.481894031167030334e-02 -3.460414707660675049e-02 2.403746172785758972e-02 -5.064986646175384521e-02 3.737188875675201416e-02 -2.290186658501625061e-02 2.431248128414154053e-02 2.007414586842060089e-02 -1.804887549951672554e-03 -7.334973197430372238e-03 -3.020577318966388702e-02 9.541625622659921646e-04 2.677590027451515198e-02 -5.441433936357498169e-02 -7.414170354604721069e-02 -8.475722745060920715e-03 1.990049146115779877e-02 2.813429944217205048e-02 8.313037455081939697e-03 -1.553254108875989914e-02 -3.345679864287376404e-02 3.668326884508132935e-02 -1.662718132138252258e-02 -2.355325408279895782e-02 -3.604549914598464966e-03 3.392555564641952515e-02 2.768891304731369019e-02 -1.845617406070232391e-02 2.993326261639595032e-02 -3.030260279774665833e-02 -7.591080665588378906e-02 -4.090449772775173187e-03 1.360891759395599365e-02 6.729692220687866211e-02 -1.143942587077617645e-03 -5.785438790917396545e-02 -3.832481801509857178e-03 1.068568890332244337e-04 -7.228749990463256836e-02 -7.662661373615264893e-02 1.772434450685977936e-02 1.717698760330677032e-02 3.840713948011398315e-02 5.634687840938568115e-04 -1.129005197435617447e-02 -2.514095604419708252e-02 -1.691492088139057159e-02 -2.156655490398406982e-02 -2.302539767697453499e-03 -8.975844830274581909e-03 -1.093615684658288956e-02 1.042097900062799454e-02 4.776605404913425446e-03 -2.243409305810928345e-02 1.999751478433609009e-02 8.391525596380233765e-03 -5.232286173850297928e-03 -7.673195097595453262e-03 -2.549978531897068024e-02 -2.120707742869853973e-02 -1.441753352992236614e-03 -5.445077270269393921e-02 -6.231978069990873337e-03
-1.624573394656181335e-02 -2.953231707215309143e-02 -6.206592544913291931e-03 1.111964974552392960e-02 -3.250924125313758850e-02 -1.036616321653127670e-02 8.187158033251762390e-03 5.211964715272188187e-03 3.065187251195311546e-03 -5.465519800782203674e-02 2.203086763620376587e-02 -4.707498848438262939e-02 2.876509912312030792e-02 1.192751526832580566e-02 -8.373094722628593445e-03 4.916544258594512939e-02 4.435481037944555283e-03 -5.962240044027566910e-03 2.023320272564888000e-02 -2.369163790717720985e-03 -3.147634491324424744e-02 1.370916329324245453e-02 7.805416826158761978e-03 4.899315163493156433e-02 2.428359584882855415e-03 3.839639946818351746e-02 5.512419156730175018e-03 9.354786947369575500e-03 4.132628813385963440e-02 3.972248232457786798e-04 -1.118346676230430603e-02 -9.556999430060386658e-03 1.035419572144746780e-02 -1.930340193212032318e-02 1.217458304017782211e-02 2.663563191890716553e-02 7.013992965221405029e-02 -3.234484419226646423e-02 2.974097989499568939e-02 3.778135031461715698e-02 -2.128514088690280914e-02 2.095947600901126862e-02 1.474011503159999847e-02 4.067999497056007385e-02 9.036838077008724213e-03 3.586061298847198486e-02 5.933964625000953674e-03 -1.926776021718978882e-02 -4.123428091406822205e-02 2.101399004459381104e-02 4.839020781219005585e-03 2.636058442294597626e-02 1.977327279746532440e-02 4.113734234124422073e-03 6.915865931659936905e-03 6.808185949921607971e-03 6.826460321462946013e-06 -6.343024969100952148e-02 -3.371691331267356873e-02 4.563857987523078918e-02 3.119836561381816864e-02 -1.948161050677299500e-03 1.181895844638347626e-02 -4.238755255937576294e-02 -3.615935891866683960e-02 -9.241488762199878693e-03 1.729987561702728271e-02 -7.137865759432315826e-03 -1.510440558195114136e-02 -3.770940005779266357e-03 -1.713344454765319824e-02 1.869000308215618134e-02 2.268574945628643036e-02 6.043479219079017639e-02 1.784217311069369316e-03 2.369553782045841217e-02 -5.110784620046615601e-02 -1.719253323972225189e-02 -4.964242130517959595e-02 2.062912471592426300e-02 -3.291371092200279236e-02 9.705036878585815430e-03 -3.317597508430480957e-02 -2.768067270517349243e-02 -3.548225760459899902e-02 -2.406654879450798035e-02 6.315959151834249496e-03 -1.590713858604431152e-02 -9.189682081341743469e-03 3.710259124636650085e-02 -5.640632659196853638e-02 6.593105848878622055e-03 -7.631675899028778076e-02 3.511412814259529114e-02 -5.985466297715902328e-03 9.016179479658603668e-03 2.684956649318337440e-03 5.422025918960571289e-02 -3.789425268769264221e-02 -7.586945593357086182e-02 -1.105715520679950714e-02 1.686501689255237579e-02 -2.774551976472139359e-03 2.154367044568061829e-02 -2.836498245596885681e-02 1.686267554759979248e-02 -1.115066651254892349e-02 -1.039104815572500229e-02 -3.916792199015617371e-02 -1.019791327416896820e-02 6.242840085178613663e-03 2.858359552919864655e-02 2.795265987515449524e-02 7.209698855876922607e-02 -1.888900622725486755e-02 4.771286156028509140e-03 2.361695840954780579e-02 1.374082546681165695e-02 -1.465510483831167221e-02 3.257103636860847473e-02 3.461400046944618225e-02 3.735190723091363907e-03 -6.013067904859781265e-03 3.516544401645660400e-02 -6.330217421054840088e-02 5.709326267242431641e-02 2.021170407533645630e-02 1.741032674908638000e-02
-8.451666682958602905e-02 -7.628306746482849121e-03 1.629278622567653656e-02 2.893332764506340027e-02 -1.827330561354756355e-03 -2.796749211847782135e-02 -3.839516267180442810e-02 -3.827906399965286255e-02 -6.025364995002746582e-02 1.345897838473320007e-02 -1.796099008060991764e-03 1.143609732389450073e-02 2.444550767540931702e-02 1.007001753896474838e-02 -1.107291970402002335e-02 2.805658150464296341e-03 1.225712429732084274e-02 -3.800852596759796143e-02 5.093619972467422485e-02 4.537655506283044815e-03 -9.758895612321794033e-04 -1.542019005864858627e-02 2.527993638068437576e-03 -2.297535166144371033e-02 2.227945253252983093e-02 -1.489386800676584244e-02 -2.620762586593627930e-02 -4.026217386126518250e-02 2.681922912597656250e-02 -4.166068881750106812e-02 -5.956400185823440552e-02 2.576058730483055115e-03 -2.791940979659557343e-02 4.265431314706802368e-02 8.434076793491840363e-03 -4.043985158205032349e-02 -1.497367862612009048e-02 -1.746304146945476532e-02 -1.789108477532863617e-02 6.501824827864766121e-04 4.442496225237846375e-02 7.592212408781051636e-03 2.653715945780277252e-02 3.519626334309577942e-02 -3.599596023559570312e-02 3.578271716833114624e-02 -5.803921259939670563e-03 3.786640986800193787e-02 -4.999302793294191360e-03 5.807720124721527100e-03 -1.301080454140901566e-02 2.292533637955784798e-03 1.028510625474154949e-03 -6.761324591934680939e-03 6.886768620461225510e-03 1.082947291433811188e-02 4.317023232579231262e-02 -3.777602687478065491e-02 2.263047359883785248e-02 -2.716656960546970367e-02 -3.257115185260772705e-02 1.899007894098758698e-02 2.722246386110782623e-02 2.524100989103317261e-02 2.379182493314146996e-03 -2.417300827801227570e-02 -2.933898195624351501e-02 -1.292899902909994125e-02 4.945206455886363983e-03 1.121019478887319565e-02 9.487865492701530457e-03 4.955045506358146667e-02 -6.778016686439514160e-03 -2.653579227626323700e-03 -1.633693277835845947e-02 -3.497298434376716614e-02 -4.174314811825752258e-02 -7.910194806754589081e-03 2.201709896326065063e-02 -3.064620122313499451e-02 3.756022453308105469e-02 -1.902266964316368103e-02 -3.376515582203865051e-02 1.040681824088096619e-02 -1.337747741490602493e-02 3.541116416454315186e-02 -1.132551301270723343e-02 3.398266062140464783e-02 2.956879325211048126e-03 5.227636918425559998e-02 -2.481386251747608185e-02 2.897735871374607086e-02 2.854831144213676453e-02 2.121911756694316864e-02 -1.427893806248903275e-02 -1.751922257244586945e-02 5.025933310389518738e-02 -5.493266135454177856e-02 3.877273201942443848e-02 -1.027780864387750626e-02 3.051439486443996429e-02 2.140597999095916748e-02 -3.699816390872001648e-02 -2.755490690469741821e-02 2.478985302150249481e-02 -2.305825799703598022e-02 1.212061196565628052e-02 -2.497763931751251221e-02 2.092017605900764465e-02 -3.151666000485420227e-02 -4.159070085734128952e-03 -9.784750640392303467e-03 -2.736087515950202942e-02 -5.256851017475128174e-02 -1.334121334366500378e-03 1.781064271926879883e-02 -1.657016947865486145e-02 -1.413028803654015064e-04 -1.835454069077968597e-02 8.902097470127046108e-04 -4.577421769499778748e-02 -5.895874928683042526e-03 3.352217748761177063e-02 5.695154890418052673e-02 2.778830938041210175e-02 3.754234686493873596e-02 -1.898381114006042480e-02 4.615139914676547050e-04
1.178959757089614868e-02 3.274364024400711060e-02 2.845168486237525940e-02 3.469837084412574768e-02 -3.076901473104953766e-02 3.527970612049102783e-02 -4.447415471076965332e-02 1.492478139698505402e-02 9.269966743886470795e-03 6.027273461222648621e-02 6.503183394670486450e-03 -6.129227112978696823e-03 -1.059440150856971741e-02 9.222501888871192932e-03 1.010489743202924728e-02 3.665742650628089905e-02 -6.715701520442962646e-02 1.041101384907960892e-02 -3.272106125950813293e-02 -5.721885710954666138e-03 -3.040668740868568420e-02 -2.148321457207202911e-02 8.329045958817005157e-03 1.097237225621938705e-02 -4.724266752600669861e-02 -9.796298108994960785e-03 -3.509881347417831421e-02 -2.869176492094993591e-02 -2.838421985507011414e-02 4.028715565800666809e-02 1.513729151338338852e-02 -3.791712224483489990e-02 -2.159954514354467392e-03 -3.826294094324111938e-02 1.680917479097843170e-02 -2.375757321715354919e-02 1.828739605844020844e-02 -4.183059930801391602e-02 -5.316592752933502197e-03 9.967369958758354187e-03 -2.425773855065926909e-04 5.194315686821937561e-02 -5.784704815596342087e-03 -1.544765569269657135e-02 -2.528981119394302368e-02 -2.704415470361709595e-03 5.075698718428611755e-02 2.243352495133876801e-02 -6.670203059911727905e-02 -1.037863455712795258e-02 -2.603445947170257568e-02 9.170290082693099976e-03 2.000764943659305573e-02 -4.885462671518325806e-02 -2.448196522891521454e-02 -4.116987809538841248e-02 1.621790602803230286e-02 -3.314237669110298157e-02 1.759368367493152618e-02 -7.269132137298583984e-02 -3.424078924581408501e-03 3.988323360681533813e-02 -6.354189664125442505e-02 -2.308169612661004066e-03 -2.927825413644313812e-02 3.573199361562728882e-02 1.740005798637866974e-02 -2.210473455488681793e-02 5.677116103470325470e-03 2.273837663233280182e-02 2.380912564694881439e-02 4.785619210451841354e-03 -2.205329202115535736e-02 -4.523605108261108398e-02 -5.192138254642486572e-02 3.341928496956825256e-02 2.048505470156669617e-02 -4.080591350793838501e-02 5.663601309061050415e-02 -3.323561325669288635e-02 -3.234787844121456146e-03 -7.808958739042282104e-02 -3.014867566525936127e-02 4.561341926455497742e-02 -3.444157168269157410e-02 3.425350412726402283e-02 -4.202667996287345886e-02 2.757101319730281830e-03 -7.536883931607007980e-03 4.607618600130081177e-02 -2.188742347061634064e-02 6.375205516815185547e-02 3.151617199182510376e-02 5.638990923762321472e-02 -3.047602064907550812e-02 2.894220873713493347e-02 3.560628741979598999e-02 -4.547681659460067749e-02 5.448509007692337036e-02 2.330536581575870514e-02 -3.230071440339088440e-02 -9.413707070052623749e-03 -5.057325586676597595e-02 4.190816078335046768e-03 -1.481000334024429321e-02 3.700198605656623840e-02 1.876964420080184937e-02 8.986154571175575256e-03 -2.428469434380531311e-02 -3.787131980061531067e-02 -1.359776593744754791e-03 1.488509401679039001e-02 -1.179379038512706757e-02 5.646467208862304688e-03 5.757020413875579834e-02 -1.327714975923299789e-02 -1.430122740566730499e-02 -3.128497302532196045e-02 4.384421557188034058e-02 9.821047075092792511e-03 -4.523661627899855375e-04 -8.003765717148780823e-03 2.052427642047405243e-02 -1.404182706028223038e-02 1.579287834465503693e-02 -5.686711054295301437e-03 2.945012599229812622e-02 -5.422777310013771057e-02
-4.025760665535926819e-02 4.706283286213874817e-02 4.280999128241091967e-04 2.013773657381534576e-02 -1.014483626931905746e-02 6.917248014360666275e-03 7.383260130882263184e-02 1.001097634434700012e-02 1.579904370009899139e-02 -3.255496919155120850e-02 -1.173651684075593948e-02 8.696700679138302803e-04 -1.288508158177137375e-02 7.529048249125480652e-03 -1.111765671521425247e-02 -8.976426906883716583e-03 3.341606631875038147e-02 -2.397227287292480469e-02 -1.441796217113733292e-02 -3.600948303937911987e-02 2.005130983889102936e-02 2.732292003929615021e-02 -4.257821664214134216e-02 -1.063201949000358582e-02 -3.498024540022015572e-03 -1.690725795924663544e-03 4.073412716388702393e-02 3.208906203508377075e-02 -1.372725516557693481e-02 6.409872323274612427e-03 2.812427096068859100e-02 -1.216807868331670761e-02 -1.712225377559661865e-02 2.177579142153263092e-02 2.647257596254348755e-02 4.045911598950624466e-03 3.929634764790534973e-02 1.540479157119989395e-02 1.220329664647579193e-02 2.476345561444759369e-02 -6.090989708900451660e-02 -2.473849803209304810e-02 -7.608314603567123413e-02 -2.680571191012859344e-02 -3.527567163109779358e-02 3.577323863282799721e-03 1.480184774845838547e-02 -1.867160014808177948e-02 -1.128982380032539368e-02 -6.199586763978004456e-02 -1.178872119635343552e-02 3.545632958412170410e-02 -1.769433356821537018e-02 3.531309776008129120e-04 1.422619167715311050e-02 -7.225281558930873871e-03 3.080621734261512756e-02 -2.841823920607566833e-02 -2.036185562610626221e-02 -6.141697987914085388e-02 -2.614387497305870056e-02 3.229041397571563721e-02 -3.411626443266868591e-02 -5.514693446457386017e-03 -3.950285539031028748e-02 -2.511307038366794586e-02 2.170850336551666260e-02 3.262611851096153259e-02 -9.178828448057174683e-03 7.620226126164197922e-03 2.319610863924026489e-02 3.041893616318702698e-02 5.851853266358375549e-02 -2.601750940084457397e-02 1.319010742008686066e-02 2.704853191971778870e-02 -8.229587227106094360e-03 3.923587128520011902e-02 -4.792914539575576782e-02 7.017312943935394287e-02 -1.914736256003379822e-02 -6.953265517950057983e-03 1.136713381856679916e-02 5.118776112794876099e-02 -7.032438367605209351e-02 -1.970682851970195770e-02 -5.103847011923789978e-02 5.829580873250961304e-02 4.142192378640174866e-02 6.335804238915443420e-03 -1.422680821269750595e-02 -6.071642972528934479e-03 1.288218237459659576e-02 2.504206821322441101e-02 -2.600152976810932159e-02 -9.120312519371509552e-03 6.980668753385543823e-03 3.008735924959182739e-02 -2.160392701625823975e-02 -4.286048002541065216e-03 3.795437887310981750e-02 -1.104144845157861710e-03 4.081057384610176086e-02 -6.882474571466445923e-02 1.755021698772907257e-02 -5.828836932778358459e-03 -1.328414231538772583e-01 2.475387044250965118e-02 -2.036066260188817978e-03 5.485153291374444962e-03 3.353301063179969788e-02 -5.514634773135185242e-03 -1.126230787485837936e-02 3.525001555681228638e-02 -3.791525727137923241e-03 2.221878245472908020e-02 -1.777013204991817474e-02 2.934821322560310364e-02 -1.988363638520240784e-02 1.596971601247787476e-02 -4.503735527396202087e-02 -5.841811187565326691e-03 1.094135735183954239e-02 3.455375880002975464e-02 2.736197412014007568e-02 3.046697238460183144e-03 -4.801332950592041016e-02 5.775023251771926880e-02
6.003363523632287979e-03 -2.797928452491760254e-02 3.924220800399780273e-02 2.673056907951831818e-02 3.156494721770286560e-02 -7.998651266098022461e-02 4.339006915688514709e-02 2.634648606181144714e-02 -1.750637032091617584e-02 1.113797165453433990e-02 1.775756850838661194e-02 -3.920044004917144775e-02 -6.082021165639162064e-03 3.317769989371299744e-02 2.257890440523624420e-02 -3.474442660808563232e-02 -7.641022652387619019e-02 -5.568853579461574554e-03 -9.825571440160274506e-03 1.922765932977199554e-02 -2.504667453467845917e-02 -5.431346944533288479e-04 -1.647545956075191498e-02 2.618793584406375885e-02 1.447728276252746582e-02 -2.366781607270240784e-02 -1.174987666308879852e-02 1.164092961698770523e-02 -2.495393902063369751e-02 1.940345577895641327e-02 3.543845191597938538e-02 1.878111250698566437e-02 -7.821230590343475342e-02 1.548650674521923065e-02 2.426431700587272644e-02 -3.613044321537017822e-02 1.278443168848752975e-02 1.933207735419273376e-02 2.859833277761936188e-02 -9.449286386370658875e-03 2.655535377562046051e-02 1.502815727144479752e-02 -3.104962036013603210e-02 -2.777256257832050323e-02 -1.266825664788484573e-02 -4.097117483615875244e-02 1.921094581484794617e-02 -1.279400009661912918e-02 -2.510096132755279541e-02 7.096260786056518555e-02 -9.861930273473262787e-03 -3.535991534590721130e-02 1.219055335968732834e-02 -4.081085324287414551e-03 2.961090020835399628e-02 -2.205876074731349945e-02 -1.201569568365812302e-02 2.034721896052360535e-02 5.630305409431457520e-02 -7.658653892576694489e-03 1.936262100934982300e-02 -2.931814827024936676e-02 5.282615497708320618e-02 -2.186284214258193970e-02 -5.846730247139930725e-02 5.221487581729888916e-02 -5.538525432348251343e-02 -2.543177641928195953e-02 2.527443133294582367e-02 1.952889841049909592e-03 -2.332524955272674561e-02 1.267572212964296341e-02 6.100145634263753891e-03 -1.204171334393322468e-03 4.991514980792999268e-02 5.854941904544830322e-02 -1.472338382154703140e-02 1.603481732308864594e-02 -5.636638961732387543e-03 -8.140002377331256866e-03 -1.804829761385917664e-02 -6.119821220636367798e-02 3.248120471835136414e-02 1.527141593396663666e-02 3.711388446390628815e-03 -7.370706181973218918e-03 5.576558038592338562e-02 4.977145418524742126e-02 -1.482953503727912903e-02 -8.347369730472564697e-03 -3.605822101235389709e-02 1.477981358766555786e-02 1.952339708805084229e-02 1.489790063351392746e-02 -2.714249305427074432e-02 2.586492523550987244e-02 4.155737534165382385e-02 -3.816329315304756165e-02 1.082279998809099197e-02 2.159492112696170807e-02 -4.081675782799720764e-02 4.156408458948135376e-02 2.614348195493221283e-02 3.034169226884841919e-02 2.488587610423564911e-02 -1.186031848192214966e-03 -1.438498403877019882e-02 3.179134801030158997e-02 5.881595984101295471e-02 -3.017613664269447327e-02 3.843833878636360168e-02 1.557342521846294403e-02 8.455565199255943298e-03 -3.073996305465698242e-02 3.345285658724606037e-04 -3.221604600548744202e-02 -1.380953751504421234e-02 3.318481380119919777e-03 1.266295090317726135e-02 4.627490416169166565e-02 9.439423680305480957e-03 -7.954359753057360649e-04 6.141597870737314224e-03 7.517843693494796753e-02 5.709901452064514160e-03 6.479701958596706390e-03 3.041279129683971405e-02 2.131067588925361633e-02
-7.007201761007308960e-02 1.069537736475467682e-02 -2.154311910271644592e-02 -1.595539599657058716e-02 -1.769771985709667206e-02 2.830092981457710266e-02 -4.412269592285156250e-02 3.218747675418853760e-02 2.592790685594081879e-02 2.120836172252893448e-03 8.812498301267623901e-03 2.600513771176338196e-02 6.122154369950294495e-02 4.792403895407915115e-03 7.513175660278648138e-05 3.443643078207969666e-02 -1.962318783625960350e-03 -1.974624115973711014e-03 2.121070213615894318e-02 -1.439232099801301956e-02 -1.399849820882081985e-02 -4.380039498209953308e-02 2.177676558494567871e-02 -7.526158541440963745e-02 -1.327686570584774017e-02 4.233759362250566483e-03 3.415219485759735107e-02 -1.648347242735326290e-03 -1.474326010793447495e-02 3.454719111323356628e-02 2.052936516702175140e-02 1.476491522043943405e-02 2.649329788982868195e-02 -3.655311884358525276e-03 -4.026891291141510010e-02 -7.596696726977825165e-03 7.268022745847702026e-02 1.058086636476218700e-03 -3.114813193678855896e-02 5.024357233196496964e-03 2.835958264768123627e-02 7.140339165925979614e-02 3.228167304769158363e-03 1.431109476834535599e-02 -1.178805716335773468e-02 1.299851946532726288e-02 -3.278176113963127136e-02 -4.594252631068229675e-02 2.839961089193820953e-02 1.233501639217138290e-02 -1.373091526329517365e-02 -1.210787892341613770e-02 1.581868343055248260e-02 3.606494143605232239e-02 5.433215200901031494e-02 1.328389439731836319e-02 4.588565602898597717e-02 1.781717501580715179e-02 -3.087773360311985016e-02 3.917225077748298645e-02 7.260878919623792171e-04 -1.721632725093513727e-05 6.953836418688297272e-03 2.137249708175659180e-02 -5.139395128935575485e-03 2.141909673810005188e-02 8.720666170120239258e-03 1.769804768264293671e-02 1.190736237913370132e-02 1.989408163353800774e-03 -1.628377288579940796e-02 2.056287229061126709e-02 3.635697811841964722e-02 2.766807749867439270e-02 -9.109820239245891571e-03 -5.594141781330108643e-03 -5.380711704492568970e-02 -2.497726120054721832e-02 1.887880638241767883e-02 -1.415670290589332581e-02 -4.557797312736511230e-02 -3.053921461105346680e-02 -1.576651819050312042e-02 -3.777928277850151062e-02 3.326050564646720886e-02 -4.308179393410682678e-02 -2.858809428289532661e-03 8.185748942196369171e-03 1.654308103024959564e-02 2.068561315536499023e-02 1.667782478034496307e-02 2.969455532729625702e-02 3.941369801759719849e-02 7.918401062488555908e-02 -2.220131829380989075e-02 -3.241490107029676437e-03 1.312592811882495880e-02 4.292280599474906921e-02 -1.347639039158821106e-02 -1.034359680488705635e-03 3.900586813688278198e-02 -1.504247728735208511e-02 1.543451449833810329e-03 1.884489320218563080e-02 2.937614545226097107e-02 -3.165179863572120667e-02 2.715675218496471643e-04 -5.551657825708389282e-02 1.080421358346939087e-02 5.242853984236717224e-02 -1.415393315255641937e-02 1.858968101441860199e-02 -9.767359122633934021e-03 3.573635220527648926e-02 1.071272417902946472e-02 2.899854630231857300e-02 3.029661020264029503e-03 -6.300999224185943604e-02 5.000976845622062683e-02 4.002718627452850342e-02 -6.406717002391815186e-02 -1.878460496664047241e-02 2.450207620859146118e-02 -1.686014235019683838e-03 -3.813665593042969704e-03 -1.814294420182704926e-02 -2.735475450754165649e-02 3.382861986756324768e-02
9.452511556446552277e-03 -6.744726747274398804e-02 -4.916789382696151733e-02 -5.413984879851341248e-02 2.659419737756252289e-02 -3.389998525381088257e-02 -1.830930449068546295e-02 8.467392064630985260e-03 3.430548682808876038e-02 1.326545607298612595e-02 -4.453280940651893616e-03 2.327410131692886353e-02 -1.450153253972530365e-02 -4.476019181311130524e-03 -6.407883018255233765e-02 -2.867924608290195465e-02 6.681041419506072998e-02 1.171772927045822144e-02 4.499822854995727539e-03 1.175046898424625397e-03 1.086347457021474838e-02 -3.305440768599510193e-02 -1.144959870725870132e-02 9.983722120523452759e-03 -8.862005197443068027e-04 2.917085029184818268e-02 3.155647218227386475e-02 -1.116307731717824936e-02 -1.686961390078067780e-02 3.565823286771774292e-02 1.662997528910636902e-03 -3.471432998776435852e-02 -1.145805697888135910e-02 2.472089231014251709e-02 -2.766749449074268341e-02 -1.442463789135217667e-02 -2.297894563525915146e-03 -7.944608107209205627e-03 -1.480720657855272293e-02 4.641580209136009216e-02 -1.864556223154067993e-02 -1.929508522152900696e-02 -2.720138756558299065e-03 -1.281655393540859222e-02 2.392021007835865021e-02 8.450971916317939758e-03 2.442095056176185608e-02 -9.599022567272186279e-03 4.057740420103073120e-02 4.338316991925239563e-02 -2.764477580785751343e-02 -3.911979496479034424e-02 -2.174518071115016937e-02 3.462967276573181152e-02 -2.727214712649583817e-03 5.438029300421476364e-03 -6.011974997818470001e-03 -2.327320724725723267e-02 3.477141633629798889e-02 3.128851950168609619e-02 7.897174917161464691e-03 -1.025746203958988190e-02 8.482709527015686035e-03 4.968861490488052368e-02 3.370794653892517090e-02 -3.844607993960380554e-02 -4.262957349419593811e-02 2.873348537832498550e-03 -2.403037808835506439e-02 6.399601697921752930e-02 -1.673607528209686279e-02 -5.542567931115627289e-03 -3.243901208043098450e-02 3.972445800900459290e-02 3.407284244894981384e-02 9.207089315168559551e-04 1.501927711069583893e-02 -4.503366351127624512e-02 -1.425699703395366669e-02 -9.681078605353832245e-03 -1.101963035762310028e-02 5.869795382022857666e-02 -5.420299246907234192e-02 -1.338678412139415741e-03 -4.437299072742462158e-02 9.446925483644008636e-03 1.178026944398880005e-02 -2.231436781585216522e-02 2.008543536067008972e-02 1.881433092057704926e-02 3.491852665320038795e-03 2.701376378536224365e-02 4.360754787921905518e-02 -4.341790825128555298e-02 9.635115042328834534e-03 -2.615817263722419739e-02 -7.817191630601882935e-02 7.185211405158042908e-03 2.795327454805374146e-02 3.773427382111549377e-02 2.907485514879226685e-02 5.193604528903961182e-02 2.854135818779468536e-02 1.206927560269832611e-02 -3.840223886072635651e-03 -3.117125295102596283e-02 2.130660461261868477e-03 -2.716584689915180206e-02 2.949223108589649200e-02 -1.534284278750419617e-02 -4.545060545206069946e-02 -2.044904977083206177e-02 1.160148251801729202e-02 -2.069281786680221558e-02 -5.073534324765205383e-02 -5.164928734302520752e-02 -5.186684429645538330e-02 -3.807790111750364304e-03 2.027322165668010712e-02 -2.780803479254245758e-02 1.287934742867946625e-02 -1.448557246476411819e-02 1.239563897252082825e-02 -2.902235137298703194e-03 -2.578731253743171692e-02 -9.844697080552577972e-03 -9.743786416947841644e-03 7.360775023698806763e-02
4.040466248989105225e-02 -3.658102080225944519e-02 4.838977009057998657e-02 -6.504418328404426575e-03 1.794037036597728729e-02 4.223875328898429871e-02 6.544278934597969055e-03 -3.297247737646102905e-02 1.131655462086200714e-02 -3.149673715233802795e-02 2.880652667954564095e-03 -3.626630082726478577e-02 -5.021626502275466919e-02 -1.027896534651517868e-02 -2.704608067870140076e-02 2.535811625421047211e-02 -1.915341243147850037e-02 9.691990911960601807e-03 1.521017123013734818e-02 4.337411001324653625e-02 -6.884004455059766769e-03 -2.774665132164955139e-02 -1.199978031218051910e-02 -5.440201144665479660e-03 -2.444025501608848572e-02 1.357268448919057846e-02 4.532901570200920105e-02 6.301321089267730713e-02 -2.608796209096908569e-02 -4.317385144531726837e-03 -5.979911237955093384e-02 -4.785995185375213623e-02 1.471871975809335709e-02 -2.511322312057018280e-02 -2.531860396265983582e-02 -4.453260451555252075e-03 5.029315128922462463e-02 6.214743852615356445e-02 -1.241223793476819992e-02 -7.677920162677764893e-03 -4.530640318989753723e-03 -9.533623233437538147e-03 5.983855109661817551e-03 5.735279526561498642e-03 -4.409885406494140625e-02 -1.400065422058105469e-02 -3.176652593538165092e-03 1.621945388615131378e-02 2.767746523022651672e-02 1.491053123027086258e-02 -1.393986027687788010e-02 -1.709022186696529388e-02 -2.615578100085258484e-02 1.110346987843513489e-02 -1.279200986027717590e-02 -4.397820681333541870e-03 -5.028528720140457153e-02 5.317614227533340454e-02 -7.053448818624019623e-03 -1.172430347651243210e-02 8.200124837458133698e-03 4.332482069730758667e-02 4.754995182156562805e-02 -3.871870040893554688e-02 -3.407016396522521973e-02 -4.987360909581184387e-02 3.207179903984069824e-02 -3.328626044094562531e-03 -4.036865383386611938e-02 -1.271412614732980728e-02 1.070425286889076233e-02 7.965206168591976166e-03 -2.842658571898937225e-02 4.088933765888214111e-02 -2.307307906448841095e-02 5.556656047701835632e-02 -8.034199476242065430e-03 4.870678111910820007e-02 7.475942838937044144e-03 -1.994438236579298973e-03 2.279120869934558868e-02 -2.413705736398696899e-02 2.849964797496795654e-02 2.276029996573925018e-02 -5.772811174392700195e-02 -9.154829196631908417e-03 3.294512256979942322e-02 -4.680266603827476501e-02 5.489389598369598389e-02 -7.319870591163635254e-02 -1.536790281534194946e-02 -3.071493282914161682e-02 -2.326783910393714905e-02 1.853903173469007015e-03 2.386974869295954704e-03 -3.923752531409263611e-02 6.558346003293991089e-02 -3.938902914524078369e-02 2.366073243319988251e-02 -5.570297315716743469e-02 1.519054267555475235e-02 1.622480712831020355e-02 1.386368740350008011e-02 2.720305509865283966e-02 -1.831869967281818390e-02 1.908571459352970123e-02 -6.613938603550195694e-03 -1.737450622022151947e-02 3.026641719043254852e-02 2.853689901530742645e-02 7.341293618083000183e-03 -1.076378021389245987e-02 -1.672292477451264858e-03 5.160341411828994751e-02 -1.573980087414383888e-03 -3.984243422746658325e-02 -9.604089893400669098e-03 2.911259047687053680e-02 4.195122048258781433e-02 4.158462584018707275e-02 6.821952760219573975e-03 -1.439755503088235855e-02 -3.294131904840469360e-02 2.713909931480884552e-02 -4.241322353482246399e-02 6.023939233273267746e-03 -3.947566822171211243e-02 1.086906343698501587e-02
4.605966061353683472e-02 -2.430121821817010641e-04 -3.964079543948173523e-02 3.418301464989781380e-03 3.869103034958243370e-03 -4.054495692253112793e-02 -1.386766042560338974e-02 -2.489102259278297424e-02 1.677887514233589172e-02 2.745843864977359772e-02 -8.036731742322444916e-03 -4.839621484279632568e-02 -2.827528864145278931e-02 -2.246872894465923309e-02 2.102211862802505493e-02 1.097870431840419769e-02 2.146838791668415070e-02 8.412821218371391296e-03 -5.519254133105278015e-02 6.049416959285736084e-03 1.301233004778623581e-02 -3.820040822029113770e-02 -3.065221197903156281e-02 -2.160358987748622894e-02 -1.299256924539804459e-02 -2.294333279132843018e-02 1.825145818293094635e-02 -2.705617435276508331e-02 -1.561061013489961624e-02 1.280877180397510529e-02 4.929638281464576721e-02 7.008065283298492432e-02 -2.979976870119571686e-02 4.013803228735923767e-02 7.421362213790416718e-03 9.004684165120124817e-03 -1.571964845061302185e-02 -4.853383451700210571e-02 -3.139248490333557129e-02 2.930079819634556770e-03 5.155895836651325226e-03 2.487714635208249092e-03 -6.607950478792190552e-02 -2.978738769888877869e-02 -1.073523517698049545e-02 -1.065828185528516769e-02 5.400839447975158691e-02 -2.076249755918979645e-02 8.312521874904632568e-02 -1.740779355168342590e-02 -3.878054395318031311e-02 -7.730109617114067078e-03 3.789835143834352493e-03 3.344865515828132629e-03 1.780800893902778625e-02 9.656120091676712036e-03 -2.238001301884651184e-02 7.615849375724792480e-03 9.714723564684391022e-03 -3.032292239367961884e-02 1.564708724617958069e-02 2.029647352173924446e-03 1.204017922282218933e-02 -1.824211888015270233e-02 4.539241269230842590e-02 5.603261291980743408e-02 4.598359577357769012e-03 -7.817595265805721283e-03 1.336853951215744019e-02 -1.558697223663330078e-02 4.296553507447242737e-02 6.506213918328285217e-03 2.200619317591190338e-02 -3.892734181135892868e-03 -3.877723962068557739e-02 -7.820907980203628540e-02 -1.123755611479282379e-02 -8.709420450031757355e-03 3.164325654506683350e-02 -2.226373925805091858e-02 7.577639073133468628e-02 1.336165983229875565e-02 -7.267052680253982544e-02 1.728697447106242180e-03 1.785993925295770168e-03 4.786866530776023865e-02 2.558999927714467049e-03 -6.860193680040538311e-04 1.513551175594329834e-02 2.214982360601425171e-02 -4.740090668201446533e-02 -1.764103583991527557e-02 1.083894725888967514e-02 -9.074453264474868774e-02 2.346963621675968170e-02 -4.802444577217102051e-02 1.875971327535808086e-03 -1.087505090981721878e-02 1.396954804658889771e-02 -2.763149142265319824e-02 1.775415800511837006e-02 -3.283685818314552307e-02 -4.713327437639236450e-02 2.906431443989276886e-02 1.765943691134452820e-02 2.541550993919372559e-02 4.817536845803260803e-02 -2.062259055674076080e-02 -5.536133050918579102e-02 1.639406196773052216e-02 -5.756816267967224121e-02 -1.311521418392658234e-02 3.652185201644897461e-02 -1.984008401632308960e-02 -1.861896738409996033e-02 2.745269797742366791e-02 -2.847382985055446625e-02 8.805484394542872906e-04 1.709267683327198029e-02 -5.910635925829410553e-03 2.339070476591587067e-02 -2.714085578918457031e-02 4.411503300070762634e-02 -5.371692404150962830e-02 -2.542003244161605835e-02 1.875212416052818298e-02 1.718490943312644958e-02 1.521684601902961731e-02
6.798187643289566040e-02 3.072270378470420837e-02 -2.557612955570220947e-02 -9.420366026461124420e-03 -6.888103485107421875e-02 -3.530052304267883301e-02 -1.106971595436334610e-02 5.434432998299598694e-03 1.489622984081506729e-02 -1.317247748374938965e-02 -1.553171407431364059e-02 -6.202790886163711548e-03 2.627436257898807526e-02 -7.961084693670272827e-02 3.381026536226272583e-02 5.643395707011222839e-03 1.110461913049221039e-02 -9.885339066386222839e-03 8.943466469645500183e-03 2.799187786877155304e-04 -3.276439092587679625e-04 3.393512591719627380e-02 -3.131185099482536316e-02 2.441963367164134979e-02 8.012752979993820190e-03 7.505916990339756012e-03 9.685818105936050415e-03 -9.814661927521228790e-03 1.273402664810419083e-02 6.287727504968643188e-02 -3.094539232552051544e-02 -1.981012523174285889e-02 -2.728162147104740143e-02 -5.613805726170539856e-02 3.938520792871713638e-03 -6.907457858324050903e-02 9.908788837492465973e-03 -4.511376842856407166e-02 -7.575444132089614868e-02 4.597881808876991272e-03 -1.350946258753538132e-02 2.664293348789215088e-02 1.490435330197215080e-03 -3.215275704860687256e-02 5.462299659848213196e-02 1.879767142236232758e-02 1.497461181133985519e-02 1.329767331480979919e-02 -3.704072535037994385e-02 2.631355822086334229e-02 3.466719016432762146e-02 2.418050728738307953e-02 -2.866699546575546265e-02 -1.952628605067729950e-02 5.127088353037834167e-02 -1.547320652753114700e-02 3.093882091343402863e-02 2.573758736252784729e-02 7.425305433571338654e-03 -1.086716875433921814e-01 -1.951124146580696106e-02 -4.410488158464431763e-02 -2.277288399636745453e-02 1.079822704195976257e-02 5.359513685107231140e-02 -6.338467821478843689e-03 -2.248348668217658997e-02 -8.130610920488834381e-03 -2.091366797685623169e-02 4.588722717016935349e-03 -2.788393944501876831e-02 -8.481465280055999756e-03 7.099939882755279541e-02 -1.740146428346633911e-02 2.858183160424232483e-02 1.251309737563133240e-02 -1.454523019492626190e-02 1.462002843618392944e-02 3.405287116765975952e-02 -6.355924904346466064e-02 -2.757614105939865112e-02 -5.529792606830596924e-02 2.791519090533256531e-02 -7.279492565430700779e-04 4.119280725717544556e-02 -3.615143522620201111e-02 -1.973664015531539917e-02 -3.667331859469413757e-02 5.805937945842742920e-02 2.815700694918632507e-02 2.457508258521556854e-02 1.161938812583684921e-02 2.559893182478845119e-04 -2.152593061327934265e-02 2.288915775716304779e-02 8.176466450095176697e-03 -2.162979356944561005e-02 -1.709768734872341156e-02 4.842155613005161285e-03 2.740920335054397583e-02 -2.721622772514820099e-02 1.490534748882055283e-02 2.997188083827495575e-02 -1.512742787599563599e-02 4.216661211103200912e-03 -2.647465281188488007e-02 6.190950796008110046e-02 7.942748069763183594e-02 -7.205247879028320312e-02 4.015388712286949158e-02 1.973000541329383850e-02 -5.748532246798276901e-03 -3.588643297553062439e-02 -3.186010941863059998e-02 -4.836368188261985779e-02 -2.646699361503124237e-02 -1.331195514649152756e-02 -5.254016816616058350e-02 8.153328672051429749e-03 -3.757480531930923462e-03 -3.455455973744392395e-02 5.414773244410753250e-03 -1.246213726699352264e-02 -1.819718070328235626e-02 2.341403812170028687e-02 3.454624488949775696e-02 -1.368061546236276627e-02 1.692055165767669678e-02
-2.024927176535129547e-02 -2.231898903846740723e-02 6.501870695501565933e-03 -3.113621845841407776e-02 6.542890332639217377e-03 3.042786754667758942e-02 1.337147410959005356e-02 -3.309083729982376099e-02 3.237129002809524536e-02 -3.218446671962738037e-02 -1.854764483869075775e-02 2.713425084948539734e-02 -3.822384774684906006e-02 2.193701639771461487e-02 -1.507146004587411880e-02 -3.165024518966674805e-02 -1.175852306187152863e-02 -1.601946353912353516e-02 5.041734781116247177e-03 -4.538981243968009949e-02 2.142305485904216766e-02 4.948059841990470886e-02 1.235989760607481003e-02 -2.256529172882437706e-03 -8.270042948424816132e-03 -1.554997358471155167e-02 3.040412999689579010e-02 -3.963720425963401794e-02 -1.183115784078836441e-02 4.698852077126502991e-02 6.166375707834959030e-03 8.954176446422934532e-04 7.754526101052761078e-03 -1.852813735604286194e-02 -3.616278991103172302e-02 4.257482476532459259e-03 4.507770761847496033e-02 2.021198906004428864e-02 7.079449295997619629e-02 1.700532808899879456e-02 4.659477993845939636e-02 1.450219564139842987e-02 2.157797105610370636e-02 -3.465603664517402649e-02 1.090713869780302048e-02 -4.361443221569061279e-02 4.195686895400285721e-03 -8.563622832298278809e-02 -2.174672856926918030e-02 -2.433803677558898926e-02 -3.180021420121192932e-02 3.658699616789817810e-02 5.487524438649415970e-03 2.162449434399604797e-02 -8.050046861171722412e-03 4.983520600944757462e-03 -3.659293800592422485e-02 1.627381704747676849e-02 -2.539216773584485054e-03 4.358864389359951019e-03 3.379769250750541687e-02 1.191820297390222549e-02 -3.246814385056495667e-02 -4.876950010657310486e-02 -1.014108769595623016e-02 2.211941219866275787e-02 -4.939977079629898071e-03 5.104745924472808838e-02 1.001562457531690598e-02 -6.169636733829975128e-03 -9.149113669991493225e-03 -2.508508600294589996e-02 -1.714828237891197205e-02 2.320942468941211700e-02 -7.401843555271625519e-03 4.839446768164634705e-02 2.121886936947703362e-03 -1.287914812564849854e-02 2.886521816253662109e-02 3.627967089414596558e-02 -3.004190279170870781e-03 2.216909453272819519e-02 -3.429512307047843933e-02 9.477190673351287842e-03 -1.851891726255416870e-02 2.893224917352199554e-02 2.733358368277549744e-02 4.123966395854949951e-02 -6.458549294620752335e-03 4.399650264531373978e-03 -1.154135726392269135e-02 -3.869115561246871948e-02 -3.198883309960365295e-02 -2.625063993036746979e-02 -5.439527798444032669e-03 2.578551182523369789e-03 -3.744776546955108643e-02 4.821842536330223083e-03 5.482034292072057724e-03 -6.041914597153663635e-02 -9.305026382207870483e-03 1.174283865839242935e-02 2.842695452272891998e-02 2.233697450719773769e-04 -3.347904421389102936e-03 -2.157147414982318878e-02 -5.212249234318733215e-03 -1.464415341615676880e-02 -8.170054294168949127e-03 2.125431597232818604e-02 -3.351473808288574219e-02 4.145196173340082169e-03 3.566827997565269470e-02 7.799107581377029419e-02 2.916588447988033295e-02 2.119864337146282196e-02 9.673159220255911350e-04 -1.177931949496269226e-02 -5.502587556838989258e-02 -3.358894586563110352e-02 -3.428468108177185059e-02 2.850283309817314148e-02 6.496910937130451202e-03 3.682481124997138977e-02 -7.917002221802249551e-05 1.294985786080360413e-02 2.423802390694618225e-02 -5.096265580505132675e-03
-3.887738659977912903e-02 -8.664130233228206635e-03 -8.304342627525329590e-03 3.838760778307914734e-02 3.270545974373817444e-02 -1.561015378683805466e-02 2.776994556188583374e-02 -3.459639102220535278e-02 1.845984905958175659e-02 3.251602500677108765e-02 -1.339886616915464401e-02 -3.294220566749572754e-02 6.514900177717208862e-02 4.534578695893287659e-02 -3.842621669173240662e-02 -2.442119829356670380e-02 5.746738985180854797e-02 -2.755518816411495209e-02 -7.134489249438047409e-03 -2.020731754601001740e-02 -4.636966437101364136e-02 1.247241906821727753e-02 -2.476334944367408752e-02 -2.490056864917278290e-02 -2.225966192781925201e-02 2.886055968701839447e-02 -1.679376885294914246e-02 -7.849388755857944489e-03 1.165422704070806503e-02 -1.901812036521732807e-03 2.395177632570266724e-02 1.383140683174133301e-03 2.265970967710018158e-02 7.137011736631393433e-02 -8.102919906377792358e-03 -5.864913761615753174e-02 -1.852857694029808044e-02 4.333939403295516968e-03 -2.294200658798217773e-02 1.364133879542350769e-02 1.232827082276344299e-02 -2.603907883167266846e-02 7.603134494274854660e-03 8.641391061246395111e-03 2.499684924259781837e-03 -1.845415122807025909e-02 7.747499644756317139e-02 1.365288626402616501e-02 -8.294800296425819397e-03 -6.202985998243093491e-03 -2.534615807235240936e-02 3.485895693302154541e-02 2.700932323932647705e-02 6.960240006446838379e-02 1.255392841994762421e-02 6.586502771824598312e-03 3.145840018987655640e-02 4.585433751344680786e-02 1.048674457706511021e-03 -1.929406076669692993e-02 -3.065231256186962128e-02 -2.415471151471138000e-02 -8.280529640614986420e-03 2.358354441821575165e-02 -3.290325775742530823e-02 2.512865327298641205e-02 8.133593946695327759e-03 1.358365267515182495e-02 -3.085873089730739594e-02 6.303064525127410889e-02 -3.442933410406112671e-02 -3.893205896019935608e-02 -6.712580472230911255e-02 -1.741149229928851128e-03 -3.468492627143859863e-02 -4.291668999940156937e-03 3.298064321279525757e-02 -1.031980849802494049e-02 1.303589995950460434e-02 6.578425527550280094e-04 -1.306265965104103088e-02 3.170894051436334848e-04 -3.311977162957191467e-02 1.427901443094015121e-02 -2.987186238169670105e-02 -1.136493403464555740e-02 1.486961357295513153e-02 -3.815168887376785278e-02 -1.938930898904800415e-02 -2.559761982411146164e-03 -5.281652137637138367e-02 2.776048704981803894e-02 -1.201563514769077301e-02 -2.972080558538436890e-02 -2.561585605144500732e-02 1.008941419422626495e-02 2.921639196574687958e-02 -1.471726782619953156e-02 1.204078458249568939e-02 -3.404236584901809692e-02 3.324140608310699463e-02 2.369167655706405640e-02 7.406441122293472290e-02 2.155866101384162903e-02 -1.481668744236230850e-02 -3.064537979662418365e-02 -4.178741201758384705e-02 -1.346676610410213470e-02 -1.598275825381278992e-02 1.305198675254359841e-04 -1.188494451344013214e-02 -1.002551172859966755e-03 -2.998591633513569832e-03 -9.054782241582870483e-02 1.507694087922573090e-02 -8.184151956811547279e-04 1.078579109162092209e-02 -1.548205967992544174e-02 1.443315111100673676e-02 -3.209975315257906914e-03 2.633159980177879333e-02 2.731500659137964249e-03 5.069969221949577332e-02 5.426615476608276367e-02 -2.470823749899864197e-02 -1.135013438761234283e-02 4.501995164901018143e-03 -2.776928246021270752e-02
1.508963853120803833e-02 7.031852751970291138e-02 -3.616793826222419739e-02 6.624061614274978638e-02 2.905804663896560669e-02 3.599107638001441956e-02 -5.433291569352149963e-02 -1.764140464365482330e-02 -1.829879544675350189e-02 4.760395362973213196e-02 1.201754435896873474e-02 6.981340795755386353e-02 3.770306706428527832e-02 -6.325335707515478134e-03 -3.677152097225189209e-02 1.517574675381183624e-02 3.838270157575607300e-02 -5.713333375751972198e-03 1.585435681045055389e-02 -3.440560773015022278e-02 -1.354326959699392319e-02 -5.432472005486488342e-02 -5.882658530026674271e-03 1.425180677324533463e-02 -4.402475431561470032e-03 -2.758910320699214935e-02 5.727522075176239014e-03 -3.412586078047752380e-02 -5.984057672321796417e-03 6.222083419561386108e-02 -2.575886622071266174e-02 -2.876965701580047607e-02 5.052313581109046936e-02 9.351708739995956421e-02 2.515376545488834381e-02 -4.168676212430000305e-02 5.459471419453620911e-02 -6.983034778386354446e-03 3.507574647665023804e-02 -2.329636551439762115e-02 2.212695032358169556e-02 -7.500858511775732040e-03 -1.981944777071475983e-03 2.959451451897621155e-02 -8.501562289893627167e-03 1.860709302127361298e-02 -9.327417239546775818e-03 5.144091695547103882e-02 4.447909444570541382e-02 -7.795701920986175537e-02 -8.513951674103736877e-03 1.824839971959590912e-02 3.634653752669692039e-03 -1.271009072661399841e-02 -1.389881479553878307e-03 -1.475507579743862152e-02 -3.390575572848320007e-02 2.837501652538776398e-02 3.818272612988948822e-03 5.092355981469154358e-02 4.199887160211801529e-03 -3.536325320601463318e-02 -4.913926497101783752e-02 2.696503419429063797e-03 -3.106853738427162170e-02 2.097762189805507660e-02 2.276701107621192932e-02 -1.571106910705566406e-02 3.541323915123939514e-02 -3.510013222694396973e-03 -2.527614869177341461e-02 6.288982112891972065e-04 6.480106711387634277e-02 -2.055174903944134712e-03 -3.812914015725255013e-03 -6.526026129722595215e-02 -5.062830075621604919e-02 -3.285611514002084732e-03 -8.269120007753372192e-03 1.540817040950059891e-02 5.018135160207748413e-02 3.861599043011665344e-02 -3.670373558998107910e-02 -1.503540389239788055e-02 -1.985993701964616776e-03 -1.271074078977108002e-02 9.713453240692615509e-03 -2.694479562342166901e-02 -4.440809413790702820e-02 2.517985552549362183e-02 5.201876908540725708e-02 -3.691918402910232544e-02 -5.245726555585861206e-02 -2.503700740635395050e-02 -2.324239164590835571e-02 -1.138020399957895279e-02 -2.161315642297267914e-03 -2.775504626333713531e-02 -2.721837162971496582e-02 -1.929620094597339630e-02 4.393851757049560547e-02 8.570635691285133362e-03 2.081064321100711823e-02 2.773881889879703522e-02 -2.370082400739192963e-02 1.407091226428747177e-02 4.653003439307212830e-02 -6.750067695975303650e-03 4.580135643482208252e-02 -6.842195987701416016e-02 1.269502844661474228e-02 6.477826391346752644e-04 -4.548887535929679871e-02 1.255089510232210159e-02 -5.146769434213638306e-02 -6.810241937637329102e-02 -6.949830800294876099e-03 -2.319866092875599861e-03 -1.119136624038219452e-02 -3.425872325897216797e-02 4.017220064997673035e-02 8.377806283533573151e-03 -5.110681056976318359e-03 -1.608213176950812340e-03 -8.967983536422252655e-03 -1.521664392203092575e-02 7.549458742141723633e-02 -5.233624251559376717e-04
7.118585053831338882e-03 -4.040989279747009277e-02 3.034058585762977600e-02 -2.366962097585201263e-02 5.005787685513496399e-02 8.061387576162815094e-03 -9.589666500687599182e-03 -2.284516394138336182e-02 -2.382430247962474823e-02 -1.960013434290885925e-02 2.408580668270587921e-02 -5.665745958685874939e-02 -2.469311840832233429e-02 -4.859196394681930542e-02 1.627240888774394989e-02 -2.772125601768493652e-02 -6.555694341659545898e-02 1.461557671427726746e-02 -1.541687548160552979e-02 -2.415437623858451843e-02 -4.570363555103540421e-03 2.248556725680828094e-02 6.474480964243412018e-03 4.289738088846206665e-02 -2.875433117151260376e-02 1.339348591864109039e-02 1.157319406047463417e-03 3.899639472365379333e-03 1.338708447292447090e-03 -3.705054521560668945e-02 -3.544102236628532410e-02 -4.249882698059082031e-02 -8.531425148248672485e-03 -4.551136121153831482e-02 -1.603364013135433197e-02 3.368088603019714355e-02 2.593615837395191193e-02 2.117745392024517059e-02 1.337829604744911194e-02 -6.562072318047285080e-03 7.586622238159179688e-02 3.803548589348793030e-02 -9.651683270931243896e-02 3.214377909898757935e-02 8.895827457308769226e-03 9.835217148065567017e-03 -2.976056560873985291e-02 1.534325908869504929e-02 3.643118962645530701e-02 4.796442389488220215e-02 3.499606996774673462e-02 -2.370214788243174553e-03 2.700852043926715851e-02 -1.357912924140691757e-02 -2.444087062031030655e-03 3.822294622659683228e-02 2.918723737820982933e-03 1.496432116255164146e-03 -1.654515601694583893e-02 2.491760440170764923e-02 -9.872608352452516556e-04 1.565741491504013538e-03 2.798189222812652588e-02 -6.775105744600296021e-02 -2.495085075497627258e-02 4.410156980156898499e-02 -1.426320988684892654e-02 -4.251447319984436035e-02 7.656711339950561523e-02 1.967141404747962952e-02 -2.398823946714401245e-02 -1.160494051873683929e-02 -4.603088274598121643e-02 1.492563541978597641e-02 4.304393660277128220e-03 2.150356769561767578e-02 -1.045216899365186691e-02 7.629729341715574265e-03 -1.275972742587327957e-02 -2.860978990793228149e-02 2.330740168690681458e-02 1.317722816020250320e-02 2.842952311038970947e-02 2.116004936397075653e-02 -8.643488399684429169e-03 2.151188626885414124e-02 -1.273375935852527618e-02 -3.147876262664794922e-02 -2.285279892385005951e-02 -2.811050973832607269e-02 2.625818923115730286e-02 1.940978318452835083e-02 1.781195960938930511e-02 9.768693149089813232e-02 -4.587286617606878281e-03 -3.698039054870605469e-02 -3.744975477457046509e-02 4.740285128355026245e-02 1.232405425980687141e-03 -1.003244612365961075e-02 -2.240311168134212494e-02 -1.733935321681201458e-03 6.900275498628616333e-02 -1.035268139094114304e-02 -2.281291782855987549e-02 3.834347799420356750e-02 4.850293695926666260e-02 -5.628956016153097153e-03 6.564162671566009521e-02 -1.167942583560943604e-02 1.713816635310649872e-02 2.713709138333797455e-02 -1.663096062839031219e-02 9.692320600152015686e-03 -4.539135843515396118e-02 3.210382163524627686e-02 -1.385216135531663895e-03 3.468240797519683838e-02 3.798850998282432556e-02 -2.374480105936527252e-02 2.089750394225120544e-02 -6.282099639065563679e-05 3.053044667467474937e-03 -1.434477698057889938e-02 -2.330387011170387268e-02 6.756297498941421509e-02 -1.390709355473518372e-02 2.387222275137901306e-02
-2.002803795039653778e-02 -2.440350688993930817e-02 8.246314711868762970e-03 -1.242031808942556381e-02 -1.178453583270311356e-02 -4.378319159150123596e-02 2.861592732369899750e-02 3.512521460652351379e-02 -1.279974356293678284e-02 1.770764775574207306e-02 -1.465546619147062302e-02 -3.214608877897262573e-02 -1.876186695881187916e-03 3.070395626127719879e-02 -3.342143446207046509e-02 2.395057678222656250e-02 3.139047697186470032e-02 2.085268497467041016e-02 4.289853200316429138e-02 -2.446764335036277771e-02 3.915670141577720642e-02 -3.259267285466194153e-02 -9.545192122459411621e-03 -1.784092048183083534e-03 -4.641069099307060242e-03 -3.403452690690755844e-03 2.272828295826911926e-02 -4.005164280533790588e-02 4.826020821928977966e-02 -3.123237006366252899e-02 -3.712156414985656738e-02 -5.469674244523048401e-03 -1.547041162848472595e-02 -3.321059420704841614e-02 -4.180484265089035034e-02 2.465744875371456146e-02 -4.580119997262954712e-02 -1.364870741963386536e-02 1.897495798766613007e-02 4.324751719832420349e-02 -6.437656003981828690e-03 1.056507695466279984e-02 3.713553072884678841e-03 2.345978980883955956e-03 -9.943732060492038727e-03 5.021338351070880890e-03 -1.647631078958511353e-02 1.540612708777189255e-02 -1.554081682115793228e-02 4.908308386802673340e-02 3.452492505311965942e-02 4.970547556877136230e-02 -2.488577924668788910e-02 -2.897735126316547394e-02 -4.571659490466117859e-02 -2.288193814456462860e-02 2.550861425697803497e-02 -4.064940288662910461e-02 9.970420971512794495e-03 -2.748694270849227905e-02 -2.324351295828819275e-02 -4.268912132829427719e-03 -7.222026586532592773e-02 -4.026324301958084106e-02 1.395857334136962891e-02 3.969694674015045166e-02 4.143355041742324829e-02 1.771250180900096893e-02 5.174735095351934433e-03 1.334099005907773972e-02 3.700381144881248474e-03 2.829460240900516510e-02 8.136232942342758179e-02 -1.744730398058891296e-02 -9.481957182288169861e-03 1.658922620117664337e-02 -3.175291046500205994e-02 3.755194321274757385e-02 -9.686233475804328918e-03 -1.645902544260025024e-02 -5.548294261097908020e-02 4.671820439398288727e-03 -5.584748461842536926e-02 1.156391017138957977e-02 -1.184638589620590210e-02 -1.943912915885448456e-02 7.534477114677429199e-02 1.187349949032068253e-02 -2.575932256877422333e-02 -2.870650216937065125e-02 -1.928882114589214325e-02 -2.941077947616577148e-02 -2.451845631003379822e-02 3.200940042734146118e-02 9.782279841601848602e-03 -1.574305072426795959e-02 3.233363479375839233e-02 1.173169724643230438e-02 9.739100933074951172e-03 -3.037083707749843597e-02 3.692978620529174805e-02 -4.628737457096576691e-03 1.214328315109014511e-02 4.194570332765579224e-02 3.591823205351829529e-02 6.379303336143493652e-02 -2.043314836919307709e-02 -3.374102339148521423e-02 -2.663187310099601746e-02 5.165628343820571899e-02 1.371378730982542038e-02 -1.868494041264057159e-02 -2.751749381422996521e-02 1.542128995060920715e-02 4.203708469867706299e-02 6.477392744272947311e-04 3.765313327312469482e-02 -3.307183086872100830e-02 -8.236726745963096619e-03 -3.341626003384590149e-02 6.372739095240831375e-03 1.209102291613817215e-02 -3.632966056466102600e-02 -5.916170030832290649e-02 -1.471960637718439102e-02 -2.590730227530002594e-02 2.528836764395236969e-02 -3.873571008443832397e-02
6.891610566526651382e-03 -1.108331372961401939e-03 -4.505984857678413391e-02 -3.817970678210258484e-02 -5.393234267830848694e-02 4.003647342324256897e-02 -9.269160218536853790e-03 9.590014815330505371e-03 -2.328030765056610107e-02 -3.219641372561454773e-02 -2.294114790856838226e-02 -4.618414863944053650e-02 -3.763132542371749878e-02 -6.933014839887619019e-03 -1.712583377957344055e-02 -8.248548023402690887e-03 -1.038110256195068359e-02 -4.665426909923553467e-02 -3.602264449000358582e-02 -1.219096314162015915e-02 -5.155898630619049072e-03 -4.604006558656692505e-02 2.190561033785343170e-02 3.478975221514701843e-02 -1.425036881119012833e-02 -1.322736591100692749e-02 3.669328521937131882e-03 7.618082221597433090e-03 5.053412634879350662e-03 1.745717599987983704e-02 -3.450791910290718079e-02 1.451783534139394760e-02 -7.472216151654720306e-03 2.757179364562034607e-02 1.978066936135292053e-02 4.225529357790946960e-02 -4.587638378143310547e-02 3.077517077326774597e-02 1.168734114617109299e-02 -8.978257887065410614e-03 -1.759600709192454815e-03 -1.326942164450883865e-02 1.972037367522716522e-02 -9.488614648580551147e-02 3.330011293292045593e-02 -1.167147979140281677e-02 -2.385829389095306396e-02 -2.928325533866882324e-02 -4.132165387272834778e-02 4.183181002736091614e-02 5.226386711001396179e-02 -1.586672291159629822e-02 -1.032537501305341721e-02 -2.792197279632091522e-02 8.089912123978137970e-03 -9.761495515704154968e-03 1.061552111059427261e-02 -3.710259217768907547e-03 1.499137934297323227e-02 -3.572689741849899292e-02 -4.526508506387472153e-03 1.107749529182910919e-02 4.504364728927612305e-02 5.559311062097549438e-02 6.273733824491500854e-02 1.603012345731258392e-02 1.124109234660863876e-02 -4.571151803247630596e-04 2.755553834140300751e-02 8.885390125215053558e-04 -3.613152366597205400e-04 -9.969728998839855194e-03 4.246680811047554016e-02 1.101896353065967560e-02 2.122892066836357117e-02 -2.927467413246631622e-02 9.923214092850685120e-03 -1.565333077451214194e-04 2.241358533501625061e-02 -3.757670056074857712e-04 2.046044915914535522e-03 2.726220898330211639e-02 -3.140167891979217529e-02 -9.621864184737205505e-03 1.899165660142898560e-02 -1.858295581769198179e-04 -1.374918967485427856e-02 -1.756908558309078217e-02 9.038008004426956177e-02 1.479498669505119324e-02 7.201165705919265747e-02 6.600753404200077057e-03 -1.863270998001098633e-02 -1.067816372960805893e-02 -9.769938886165618896e-03 3.717194870114326477e-02 -1.176613289862871170e-02 -1.494398602517321706e-04 -1.527518179500475526e-04 5.936641618609428406e-02 -3.405413404107093811e-02 2.963330782949924469e-02 2.474882081151008606e-02 8.868214674293994904e-03 5.072607658803462982e-03 -6.731333676725625992e-03 9.375501424074172974e-02 7.121469080448150635e-02 -2.399810403585433960e-02 -4.423133656382560730e-02 -2.833732217550277710e-02 1.249447348527610302e-03 -3.152760863304138184e-02 -1.523068203823640943e-04 3.859086707234382629e-02 2.366820722818374634e-02 3.597787814214825630e-03 -2.235794812440872192e-02 2.641841024160385132e-02 -4.127231240272521973e-02 -1.020661182701587677e-02 -7.391707040369510651e-03 3.280798718333244324e-02 -3.562741726636886597e-02 5.877526127733290195e-04 1.252511050552129745e-03 -4.998085647821426392e-02 4.839973524212837219e-02
2.906742319464683533e-02 4.652586579322814941e-02 -2.639757655560970306e-02 -9.117190493270754814e-04 2.599546499550342560e-02 4.922251775860786438e-02 -1.665654219686985016e-02 -1.813070033676922321e-03 8.656531572341918945e-03 1.170743815600872040e-02 -1.489883568137884140e-02 -4.307332262396812439e-02 -6.942288577556610107e-02 5.328629538416862488e-02 -5.265161022543907166e-02 9.864041348919272423e-04 6.499418523162603378e-04 4.799985140562057495e-02 -2.445886656641960144e-02 -2.977311424911022186e-02 -4.103539511561393738e-02 2.292133681476116180e-02 2.500008977949619293e-02 2.840436622500419617e-02 -3.463691473007202148e-02 1.817508041858673096e-02 -3.779656440019607544e-02 -4.931979812681674957e-03 5.040302500128746033e-02 -6.885395944118499756e-02 -1.561861392110586166e-02 -1.093423645943403244e-02 4.011339321732521057e-02 -6.449956446886062622e-02 -2.273611351847648621e-02 1.656653732061386108e-02 3.442528098821640015e-02 -2.544020302593708038e-02 5.717128980904817581e-03 -2.907333523035049438e-02 4.023922234773635864e-02 -2.980632521212100983e-02 -4.451279342174530029e-02 -1.800251007080078125e-02 -4.297672212123870850e-02 -5.529447458684444427e-03 -6.705024279654026031e-03 -1.017441600561141968e-02 3.640467301011085510e-02 2.386311627924442291e-02 6.941018998622894287e-02 2.148523181676864624e-02 6.711279507726430893e-03 1.569726318120956421e-02 -2.113145403563976288e-02 -2.341259643435478210e-02 -4.723574593663215637e-02 -1.048998720943927765e-02 5.734109319746494293e-03 -2.826135605573654175e-02 -9.543653577566146851e-03 1.962039992213249207e-02 -1.232810132205486298e-02 7.672806736081838608e-03 -4.761313088238239288e-03 -7.456003874540328979e-02 1.375701185315847397e-02 1.709926873445510864e-02 1.881493255496025085e-02 1.092315278947353363e-02 -1.777352415956556797e-03 -3.772366326302289963e-03 -6.939463317394256592e-03 5.364512559026479721e-03 1.955564878880977631e-02 -3.000737167894840240e-02 5.734980478882789612e-02 -9.708265773952007294e-03 1.137439813464879990e-02 5.584814772009849548e-02 -2.744190953671932220e-02 1.816289871931076050e-02 1.884320005774497986e-02 -3.311643376946449280e-02 4.677924327552318573e-03 1.466535776853561401e-02 1.117650885134935379e-02 9.267243556678295135e-03 1.942242123186588287e-02 -3.186480328440666199e-02 1.013168133795261383e-02 6.971326656639575958e-03 -4.708890244364738464e-02 5.535167455673217773e-02 -2.443256601691246033e-02 7.728151511400938034e-03 -5.466347560286521912e-03 3.570637851953506470e-02 4.243916831910610199e-03 3.121687471866607666e-02 -7.342818379402160645e-02 4.429143294692039490e-02 -2.260536141693592072e-02 -2.950607053935527802e-02 2.018957957625389099e-02 3.566105663776397705e-02 1.041672192513942719e-02 -3.165767714381217957e-02 -5.084994807839393616e-02 1.976390369236469269e-02 7.745006121695041656e-03 -4.500424955040216446e-03 1.130693498998880386e-02 -4.380002617835998535e-02 -4.523273557424545288e-02 -3.605190664529800415e-02 -3.451892733573913574e-02 1.232627872377634048e-02 -3.426723123993724585e-04 1.655333116650581360e-02 1.413341611623764038e-02 7.163526490330696106e-03 1.309946877881884575e-03 9.995965287089347839e-03 3.296964988112449646e-02 2.636359073221683502e-02 -1.252922136336565018e-02 -9.765526279807090759e-03
4.160507023334503174e-02 -1.275649107992649078e-02 -1.108217705041170120e-02 1.173485163599252701e-02 1.888902671635150909e-02 -5.942333489656448364e-02 3.625169629231095314e-03 -6.354301422834396362e-02 -7.342840079218149185e-03 4.117813333868980408e-02 -2.142877504229545593e-02 7.395327091217041016e-02 4.834181815385818481e-02 1.601671800017356873e-02 -2.229132689535617828e-02 4.443240910768508911e-02 -3.726637456566095352e-03 -3.563610371202230453e-03 -4.602281376719474792e-02 4.434569180011749268e-02 -3.007424436509609222e-02 6.489220261573791504e-02 5.541274324059486389e-02 -2.146699000149965286e-03 2.134083025157451630e-02 1.271227933466434479e-02 -8.427955210208892822e-03 -2.258462458848953247e-02 5.552211659960448742e-04 -2.291293069720268250e-02 1.831340417265892029e-02 -1.576144061982631683e-02 -1.133219432085752487e-02 -3.666888922452926636e-03 -8.503296412527561188e-03 -3.274784982204437256e-02 6.298487074673175812e-03 8.221109397709369659e-03 -6.875047832727432251e-02 3.545335307717323303e-02 1.214243378490209579e-02 1.670455187559127808e-02 -5.467409268021583557e-02 -1.273288577795028687e-02 -1.648251339793205261e-02 2.394905500113964081e-02 5.283768288791179657e-03 -1.737313158810138702e-02 4.208001494407653809e-02 2.757188305258750916e-02 -2.422811836004257202e-02 -5.416399613022804260e-02 5.964211653918027878e-03 -2.253553271293640137e-02 -2.328629372641444206e-03 -2.384301833808422089e-02 -2.193672955036163330e-02 1.799204200506210327e-02 9.276413358747959137e-03 6.112406030297279358e-02 -2.366189658641815186e-02 6.212069466710090637e-02 1.473575923591852188e-02 7.384777534753084183e-03 3.367333440110087395e-03 -2.610298246145248413e-02 -2.955930121243000031e-02 1.405955385416746140e-02 1.855150423943996429e-02 1.598665118217468262e-02 -5.686210934072732925e-03 -4.322402179241180420e-02 7.704707328230142593e-03 -4.358996078372001648e-02 -1.552984025329351425e-02 -3.830645605921745300e-02 -1.760961674153804779e-02 4.065280035138130188e-02 5.154082179069519043e-02 4.693567007780075073e-02 8.104530163109302521e-03 -3.573091700673103333e-02 1.618331111967563629e-02 -5.098951049149036407e-03 1.460757106542587280e-02 7.561395876109600067e-03 4.216073546558618546e-03 2.084196079522371292e-03 -3.576176986098289490e-02 9.504477493464946747e-03 3.576987609267234802e-02 -8.839789777994155884e-03 6.880700588226318359e-02 1.112707797437906265e-02 2.018084190785884857e-02 3.359113261103630066e-02 2.705235779285430908e-02 -2.832379564642906189e-02 -3.634282201528549194e-02 2.762847580015659332e-03 7.842515595257282257e-03 1.435158681124448776e-02 4.784305393695831299e-02 -4.008356947451829910e-03 1.785730570554733276e-02 6.976886838674545288e-02 5.607630312442779541e-02 9.983409196138381958e-03 -7.733421772718429565e-02 -8.989006280899047852e-02 2.956401929259300232e-02 3.620182629674673080e-03 1.759767346084117889e-02 3.734749183058738708e-02 6.458539515733718872e-02 -7.233161479234695435e-02 -9.586910717189311981e-03 1.528437715023756027e-03 3.057572245597839355e-02 2.032408677041530609e-02 -3.850912209600210190e-03 9.070129133760929108e-03 4.474578052759170532e-02 3.582359105348587036e-02 -2.222499437630176544e-02 6.116736680269241333e-03 -2.770616859197616577e-02 7.858870667405426502e-04
4.452222958207130432e-02 -1.562697999179363251e-02 4.713686648756265640e-03 1.785868965089321136e-02 2.151162549853324890e-02 7.974323816597461700e-03 -4.214717447757720947e-02 3.586310893297195435e-02 -7.299813628196716309e-02 -1.532469410449266434e-02 4.558338841889053583e-04 -6.103441584855318069e-03 -4.737102426588535309e-03 -7.842991501092910767e-03 -1.339281629770994186e-02 -4.585213586688041687e-02 -1.366243604570627213e-02 -2.978598698973655701e-03 -4.115244373679161072e-02 3.557551652193069458e-03 1.151583716273307800e-02 8.754752343520522118e-04 1.557941921055316925e-02 -4.467367753386497498e-02 1.779110170900821686e-02 -2.478793030604720116e-03 -2.187173627316951752e-02 -1.014037057757377625e-02 4.357608780264854431e-02 4.732783418148756027e-03 -1.866777613759040833e-02 4.743831232190132141e-02 6.321532651782035828e-03 -6.394523382186889648e-02 -3.008541651070117950e-03 6.969738006591796875e-02 -3.817801550030708313e-02 1.044311327859759331e-03 -3.161296620965003967e-02 2.498705312609672546e-02 1.274200621992349625e-03 4.543688613921403885e-03 -7.729698717594146729e-02 -1.605369523167610168e-02 1.750398427248001099e-02 -2.536185458302497864e-02 3.469471819698810577e-03 -3.797334060072898865e-02 5.232588946819305420e-02 3.412546589970588684e-02 3.128370270133018494e-03 1.196002122014760971e-02 3.807707875967025757e-02 2.898945473134517670e-02 6.578162778168916702e-03 -4.497949779033660889e-02 -1.505279261618852615e-02 6.515245884656906128e-03 -1.415835134685039520e-02 -8.527854830026626587e-02 4.798777867108583450e-03 -3.808502480387687683e-02 -1.047116704285144806e-02 6.749356165528297424e-03 4.979390650987625122e-03 6.150138750672340393e-02 7.095325738191604614e-03 -6.792291998863220215e-02 4.510764405131340027e-02 2.171359723433852196e-03 1.055207662284374237e-02 -5.667982157319784164e-03 2.654537931084632874e-02 4.159462824463844299e-02 -2.602626103907823563e-03 -1.561593730002641678e-02 2.478069253265857697e-02 2.258089138194918633e-03 -5.096971988677978516e-02 4.429212771356105804e-03 -1.051114872097969055e-02 -4.938802123069763184e-02 3.459300845861434937e-03 -1.432101242244243622e-02 -1.960541680455207825e-02 -5.697634536772966385e-03 2.660924009978771210e-02 -3.058760426938533783e-02 -1.656063832342624664e-02 -2.387640811502933502e-02 -1.711148209869861603e-02 4.679815471172332764e-02 -1.662610657513141632e-02 1.237142272293567657e-02 -4.805632401257753372e-03 4.042847082018852234e-03 -4.840678721666336060e-02 -4.142861813306808472e-03 6.373080611228942871e-02 -2.353236824274063110e-02 -5.009949579834938049e-02 1.631858758628368378e-02 -2.104602754116058350e-02 -5.041479691863059998e-02 1.135889347642660141e-02 2.007061801850795746e-02 3.610215615481138229e-03 -4.187006130814552307e-02 3.071876056492328644e-02 -1.808078959584236145e-02 -2.611981704831123352e-02 -1.265377085655927658e-02 -2.806786261498928070e-02 2.919359505176544189e-02 5.002216249704360962e-02 5.744598805904388428e-02 -1.646059937775135040e-02 6.301894783973693848e-02 -2.582296263426542282e-03 4.440766945481300354e-02 -2.458795905113220215e-02 1.655671559274196625e-02 -2.395379357039928436e-02 -1.386370137333869934e-02 -7.946519763208925724e-04 2.607913874089717865e-02 4.962910711765289307e-02 -2.328533120453357697e-02
3.342274867463856936e-04 -5.340625345706939697e-02 7.892564870417118073e-03 -4.807979986071586609e-02 2.448833920061588287e-02 5.077264457941055298e-02 1.399871241301298141e-02 2.321997471153736115e-02 1.607038453221321106e-02 -7.731016725301742554e-02 -1.653162576258182526e-02 -3.459278121590614319e-02 2.619179524481296539e-02 -2.985776402056217194e-03 -2.239021286368370056e-02 1.158096082508563995e-02 1.252910296898335218e-04 -2.936583012342453003e-02 1.296186167746782303e-02 7.139959186315536499e-02 -3.431997448205947876e-02 -5.705524608492851257e-02 -1.261376775801181793e-02 -9.994291700422763824e-03 2.902348758652806282e-03 6.539723370224237442e-03 1.411774288862943649e-02 2.604878507554531097e-02 4.479574412107467651e-02 3.385635837912559509e-02 1.268903817981481552e-02 -3.342789039015769958e-02 -4.412611573934555054e-02 -2.696109237149357796e-03 3.309131413698196411e-02 -4.150519892573356628e-02 4.574731923639774323e-03 2.692241221666336060e-02 -4.847144335508346558e-02 -2.789187058806419373e-02 1.252058241516351700e-02 -9.971098974347114563e-03 -4.352997057139873505e-03 -2.610538527369499207e-02 -1.942746713757514954e-02 8.038302767090499401e-04 -1.335321809165179729e-03 3.562546893954277039e-02 2.051179856061935425e-02 1.701856963336467743e-02 4.881529137492179871e-02 -1.630572788417339325e-02 1.538045052438974380e-02 -1.645110198296606541e-03 6.402146071195602417e-02 2.633626572787761688e-03 -2.180608175694942474e-02 -2.426986582577228546e-02 -7.550689391791820526e-03 2.334656938910484314e-02 -1.751410216093063354e-02 3.385278210043907166e-02 9.474261663854122162e-03 -8.247945457696914673e-02 1.920829527080059052e-02 3.233925253152847290e-02 -2.292400412261486053e-02 -4.525124095380306244e-03 -5.842781811952590942e-02 2.832325734198093414e-02 -1.457244250923395157e-02 3.395836055278778076e-02 -3.490029647946357727e-02 9.100093506276607513e-03 -2.198905870318412781e-02 2.014735713601112366e-02 3.725164756178855896e-02 4.736538976430892944e-02 -1.931692287325859070e-02 -2.455081604421138763e-02 -3.959686309099197388e-02 -2.131973952054977417e-02 2.152479998767375946e-02 -1.320186909288167953e-02 4.176216945052146912e-02 1.104183122515678406e-02 4.917953163385391235e-02 -9.426850825548171997e-03 4.584151506423950195e-02 -6.539208348840475082e-03 -7.512599695473909378e-03 -1.291604898869991302e-02 -2.819548733532428741e-02 -3.348403424024581909e-02 -2.893503010272979736e-02 2.975381910800933838e-02 1.337662804871797562e-03 -2.703536301851272583e-02 8.202775381505489349e-03 2.270761877298355103e-02 1.714367233216762543e-02 -1.363268122076988220e-02 9.528838098049163818e-03 -4.230848699808120728e-02 3.580644354224205017e-02 -5.273725464940071106e-02 3.220755606889724731e-02 -5.662878230214118958e-02 4.675605520606040955e-02 -3.338880464434623718e-02 1.543573476374149323e-02 -1.171620283275842667e-02 1.575628109276294708e-02 -2.095678262412548065e-02 2.093972451984882355e-02 -3.469388186931610107e-02 -2.601491287350654602e-02 -2.167375758290290833e-02 -1.129126362502574921e-02 -3.848502784967422485e-02 5.621867021545767784e-04 3.134441794827580452e-03 3.259735926985740662e-02 1.019371673464775085e-02 9.930917993187904358e-03 4.362970590591430664e-02 -1.994914561510086060e-02 -2.432571724057197571e-02
-4.550191015005111694e-02 5.583617836236953735e-02 4.300608485937118530e-02 2.253358252346515656e-02 -3.031149506568908691e-02 -4.469661042094230652e-03 3.766125813126564026e-02 2.180590108036994934e-02 9.552627801895141602e-02 3.534189611673355103e-02 5.879442021250724792e-02 -1.196523546241223812e-03 -9.159754030406475067e-03 -4.795179888606071472e-02 2.142026089131832123e-02 4.452788457274436951e-02 7.400097325444221497e-03 -1.566609553992748260e-02 -1.114574377425014973e-03 -1.730237156152725220e-02 3.566556796431541443e-02 8.058947511017322540e-03 9.891346096992492676e-03 2.317393012344837189e-02 8.701995946466922760e-03 -1.605329103767871857e-02 1.973601244390010834e-02 -8.965564775280654430e-04 1.841680891811847687e-02 1.766575127840042114e-02 3.478576242923736572e-02 4.260309971868991852e-03 2.078089676797389984e-02 -3.748099878430366516e-02 -1.182677038013935089e-02 4.803643003106117249e-02 4.717314243316650391e-02 -1.668756082653999329e-02 -4.627981036901473999e-02 -5.849678814411163330e-02 5.349287763237953186e-02 -3.468665108084678650e-02 2.321464009582996368e-02 -3.352741245180368423e-03 -2.351503446698188782e-02 1.438845042139291763e-02 3.720764070749282837e-02 5.159552022814750671e-02 -2.196926064789295197e-02 7.062881439924240112e-02 7.202171720564365387e-03 -1.730838231742382050e-02 -2.006989158689975739e-02 -2.819849364459514618e-02 -4.473713785409927368e-02 3.872499987483024597e-02 4.043444246053695679e-02 6.830649450421333313e-03 -2.827303484082221985e-02 -6.668210029602050781e-02 -5.533075891435146332e-03 5.016393214464187622e-02 2.879098756238818169e-03 2.175583504140377045e-02 -1.228989381343126297e-02 2.963114343583583832e-02 1.886630430817604065e-03 -1.729219104163348675e-03 -2.308691106736660004e-02 -7.600200176239013672e-02 -6.129138171672821045e-03 -4.449965059757232666e-02 -2.552750520408153534e-02 -2.484842948615550995e-02 -4.735679179430007935e-02 2.397253178060054779e-02 6.014200299978256226e-02 1.380617171525955200e-02 2.376362867653369904e-02 3.399297595024108887e-02 3.592301905155181885e-02 -1.606335677206516266e-02 3.469648957252502441e-02 5.649744346737861633e-02 -5.178700387477874756e-02 -3.287058323621749878e-02 2.695313282310962677e-02 -5.872873961925506592e-02 2.082179998978972435e-03 1.287564076483249664e-02 -5.055516213178634644e-02 1.323627680540084839e-02 3.311143815517425537e-02 5.971349310129880905e-03 1.124305836856365204e-02 2.636144636198878288e-03 -5.386255215853452682e-03 -1.700690202414989471e-02 7.640132680535316467e-03 -1.158737763762474060e-02 1.444366108626127243e-02 4.360685590654611588e-03 2.921064384281635284e-02 -3.774883598089218140e-02 3.658632561564445496e-02 -1.876032166182994843e-02 -3.056391887366771698e-02 3.900101035833358765e-02 6.574757397174835205e-02 -9.279654175043106079e-02 2.789063192903995514e-02 2.961631980724632740e-04 3.474009037017822266e-02 -3.648364872788079083e-05 -6.454408634454011917e-03 -1.204692013561725616e-02 4.154094681143760681e-02 -1.567551679909229279e-02 2.348346635699272156e-02 4.432956501841545105e-02 -6.721192039549350739e-03 1.295825093984603882e-02 1.904987148009240627e-03 3.818188235163688660e-02 -8.494083769619464874e-03 1.802531443536281586e-02 -5.702619091607630253e-05 2.668927982449531555e-02
-1.314761582762002945e-02 -1.256338506937026978e-02 2.315199933946132660e-02 -2.288863249123096466e-02 1.766463741660118103e-02 -5.112117528915405273e-02 -3.397386521100997925e-02 3.569934517145156860e-03 8.989585563540458679e-03 -7.736211176961660385e-03 -8.239571936428546906e-03 -2.189579233527183533e-02 -7.094832602888345718e-03 1.627946645021438599e-02 -1.336296182125806808e-02 -3.641979023814201355e-02 -2.678072080016136169e-02 2.468107081949710846e-02 4.433673992753028870e-02 -5.421076714992523193e-02 -1.282233744859695435e-02 -1.312865875661373138e-02 -2.885686978697776794e-02 -1.328724250197410583e-02 3.242192044854164124e-02 3.393802791833877563e-02 -4.054439067840576172e-02 -1.931297779083251953e-02 -3.595421463251113892e-02 -2.596770599484443665e-02 -3.067321609705686569e-03 -2.239969931542873383e-02 2.269227057695388794e-02 1.572073437273502350e-02 2.340473607182502747e-02 1.671777479350566864e-02 6.553356349468231201e-02 3.487575054168701172e-02 -8.299756795167922974e-03 4.285024479031562805e-03 -1.350074633955955505e-02 -7.860014215111732483e-03 7.737767696380615234e-02 3.588514868170022964e-03 1.522194966673851013e-02 1.620959490537643433e-02 -5.533849354833364487e-03 5.864514969289302826e-03 1.053212955594062805e-02 -4.256286192685365677e-04 6.693624425679445267e-03 -7.410363759845495224e-03 2.529752440750598907e-03 1.093252375721931458e-02 -1.740245707333087921e-02 -1.317309308797121048e-02 -4.600117914378643036e-03 -1.704772748053073883e-02 -7.860838435590267181e-03 1.139457453973591328e-03 -1.260293554514646530e-02 -2.834587544202804565e-02 -2.731201611459255219e-02 -1.230603735893964767e-02 -7.297644857317209244e-03 4.331182315945625305e-02 -2.486409246921539307e-02 1.004489697515964508e-02 3.415276855230331421e-02 5.780614167451858521e-02 -1.616381853818893433e-02 -3.284481912851333618e-02 -1.334143150597810745e-02 4.083006083965301514e-02 4.018611833453178406e-02 -4.957872256636619568e-02 4.872566089034080505e-02 3.065166622400283813e-02 -2.124478295445442200e-02 2.867884468287229538e-03 -4.600959829986095428e-03 -1.097224093973636627e-02 2.612802572548389435e-02 -3.377594053745269775e-02 4.285497590899467468e-02 -3.311545774340629578e-02 2.025153674185276031e-02 -6.457372801378369331e-04 4.123480059206485748e-03 3.601628169417381287e-02 -3.331518266350030899e-03 1.128803100436925888e-02 -3.666010499000549316e-02 -1.955263875424861908e-02 -3.268509358167648315e-02 5.923163145780563354e-02 2.856721170246601105e-02 2.906247414648532867e-02 1.333728712052106857e-02 1.695669442415237427e-02 -4.352983832359313965e-02 -2.571623586118221283e-02 3.369831293821334839e-02 -2.359220758080482483e-02 -1.145986560732126236e-02 -5.597781855612993240e-03 2.180959470570087433e-02 5.174124240875244141e-02 7.373569160699844360e-02 2.076649107038974762e-02 -2.987749408930540085e-03 -1.135584246367216110e-02 -8.648663014173507690e-02 1.606538146734237671e-02 6.595166027545928955e-02 3.897979855537414551e-02 -9.043917059898376465e-03 1.447819959139451385e-04 2.528507728129625320e-03 -2.131126448512077332e-02 -3.419149667024612427e-02 -4.325687419623136520e-03 4.729811847209930420e-02 -2.110274694859981537e-02 -7.385332882404327393e-02 -1.671385951340198517e-02 3.282319381833076477e-02 3.649155795574188232e-02
-3.521695733070373535e-02 7.979096844792366028e-03 2.785026561468839645e-03 -1.042532175779342651e-02 -6.942477822303771973e-02 -4.713379219174385071e-02 -1.966680586338043213e-02 3.811695426702499390e-02 4.760046023875474930e-03 -2.888600714504718781e-02 2.080715261399745941e-02 -1.319439616054296494e-02 -1.061584707349538803e-02 1.621366292238235474e-02 -1.166977267712354660e-02 2.598716691136360168e-02 -5.535288900136947632e-02 1.426640059798955917e-02 1.147385872900485992e-02 2.724878117442131042e-02 3.916750103235244751e-02 -5.579498130828142166e-03 -3.394811647012829781e-03 9.501305408775806427e-03 -2.142015844583511353e-03 -1.543971709907054901e-03 -2.418019063770771027e-02 9.677876718342304230e-03 -6.985893007367849350e-03 -2.844305150210857391e-02 -1.081385090947151184e-02 -3.978054970502853394e-02 7.698508910834789276e-03 -4.188359901309013367e-02 -3.753107506781816483e-03 7.139309495687484741e-02 -2.041236497461795807e-02 -2.827628888189792633e-02 -2.033684216439723969e-02 -1.791264303028583527e-02 -4.107183218002319336e-02 -3.752961382269859314e-02 -4.313198477029800415e-02 -6.898148916661739349e-03 -2.101633325219154358e-02 4.953651688992977142e-03 -1.771056652069091797e-02 2.637889608740806580e-02 -2.741741389036178589e-02 2.073311619460582733e-02 5.597054958343505859e-02 -1.117835287004709244e-02 -4.126178845763206482e-02 -2.712166402488946915e-03 2.227956429123878479e-02 1.859339512884616852e-02 -2.038698876276612282e-03 2.930761314928531647e-03 4.174469783902168274e-02 -5.595948174595832825e-02 4.592769965529441833e-02 -1.880831085145473480e-02 -9.310566820204257965e-03 -2.065217867493629456e-02 -7.538481731899082661e-04 4.203298315405845642e-02 -6.249635946005582809e-03 -7.568792905658483505e-03 -5.870329961180686951e-02 5.063407123088836670e-02 -2.392159961163997650e-02 -3.579282015562057495e-02 2.513361349701881409e-02 -4.531903937458992004e-02 -1.567775500006973743e-03 -1.872867532074451447e-02 -1.651938818395137787e-02 6.002834066748619080e-03 1.355728320777416229e-02 -8.454710245132446289e-03 3.491406887769699097e-02 -1.552524603903293610e-02 2.233214303851127625e-02 3.202442824840545654e-02 -1.414430048316717148e-02 8.065775968134403229e-03 2.138305269181728363e-02 -2.499685995280742645e-02 7.209071516990661621e-02 1.759895007126033306e-03 -2.166458405554294586e-02 2.663881145417690277e-02 9.343253821134567261e-02 4.936342686414718628e-02 -3.629203885793685913e-02 2.707768417894840240e-02 7.878922857344150543e-03 -5.614969134330749512e-02 -6.694641895592212677e-03 -2.898619882762432098e-02 2.870154008269309998e-02 -5.248908419162034988e-03 4.328351467847824097e-02 -1.184898056089878082e-02 2.964903600513935089e-03 -5.126720294356346130e-02 -2.096041664481163025e-02 -3.574471455067396164e-03 -1.680318824946880341e-02 1.912334002554416656e-02 4.544833675026893616e-02 8.461335091851651669e-04 1.276913681067526340e-03 -5.495157837867736816e-02 -2.932367287576198578e-02 -1.241521351039409637e-02 5.591301713138818741e-03 -8.793798275291919708e-03 -1.965811289846897125e-02 -1.256022602319717407e-03 1.789156347513198853e-03 1.916009467095136642e-03 2.713461406528949738e-02 -2.515796944499015808e-02 -1.401957869529724121e-02 1.847691088914871216e-02 -2.002716809511184692e-02 1.943561946973204613e-03
-4.865265265107154846e-02 1.291492767632007599e-02 -3.963270224630832672e-03 3.760458203032612801e-03 -4.193317890167236328e-02 -2.725814841687679291e-02 4.978371318429708481e-03 -5.113963503390550613e-03 -7.001166231930255890e-03 -4.303601104766130447e-03 -2.408504486083984375e-02 -3.520233929157257080e-02 -3.302309289574623108e-02 2.090777084231376648e-02 -4.859153926372528076e-02 2.255113329738378525e-03 -2.529329434037208557e-02 -3.945407271385192871e-02 5.527637433260679245e-03 7.773884106427431107e-03 -1.875058934092521667e-02 2.588365226984024048e-02 1.870382018387317657e-02 -4.170202091336250305e-02 6.450520828366279602e-03 1.109812967479228973e-02 -1.403766870498657227e-02 3.325742203742265701e-03 -3.118490613996982574e-02 -8.524488657712936401e-03 -4.297192674130201340e-03 -4.920466244220733643e-02 -4.067951440811157227e-02 -2.191477827727794647e-02 1.351875811815261841e-02 -4.817494750022888184e-02 2.640148438513278961e-02 2.408366277813911438e-02 -4.400073364377021790e-02 -2.852208726108074188e-02 2.012356743216514587e-02 3.423329442739486694e-02 -5.397067219018936157e-02 -2.087803930044174194e-02 2.379238791763782501e-02 1.100712642073631287e-01 -2.478885650634765625e-02 1.375084836035966873e-02 4.615632817149162292e-02 1.597634330391883850e-02 7.256763521581888199e-03 -1.387863606214523315e-02 3.376741334795951843e-02 -3.634452447295188904e-02 1.972860470414161682e-02 6.055163685232400894e-03 -2.762267552316188812e-02 -3.438366949558258057e-02 -1.515141571871936321e-03 2.012017415836453438e-03 2.245387062430381775e-03 -6.649281084537506104e-02 -4.885754548013210297e-03 -1.318877283483743668e-02 2.314387075603008270e-02 -1.152984146028757095e-02 -3.054252825677394867e-03 1.987367868423461914e-02 -2.233236655592918396e-02 -1.685239374637603760e-02 4.456440219655632973e-04 -2.644169330596923828e-02 -1.336527056992053986e-02 1.040903106331825256e-02 1.065205037593841553e-02 -5.292256549000740051e-02 -2.223212970420718193e-03 6.578543689101934433e-03 6.030647456645965576e-02 3.026153519749641418e-02 2.956621465273201466e-04 -7.247995119541883469e-03 -4.548132792115211487e-02 1.033548265695571899e-02 6.950240582227706909e-02 -1.203181967139244080e-02 -2.030878560617566109e-03 -3.274161741137504578e-02 4.132124036550521851e-02 -1.400861889123916626e-02 -1.184355188161134720e-02 9.231063537299633026e-03 -5.120334401726722717e-02 4.467897582799196243e-03 1.242717262357473373e-02 -2.825403027236461639e-02 9.425952099263668060e-03 -6.089331954717636108e-02 1.155812107026576996e-02 5.910401791334152222e-02 3.331526741385459900e-02 3.446128964424133301e-02 -2.287358604371547699e-02 -2.334003522992134094e-02 3.344830824062228203e-03 1.654605939984321594e-02 6.106789782643318176e-02 2.772850915789604187e-02 -6.267457734793424606e-03 -1.556196250021457672e-02 1.033843308687210083e-02 -1.546964165754616261e-03 5.704947561025619507e-02 -2.546247839927673340e-02 1.869927346706390381e-02 -9.039405733346939087e-03 -2.164378203451633453e-02 1.659573055803775787e-02 4.459998011589050293e-02 -3.441483899950981140e-02 1.092564687132835388e-02 -3.204683074727654457e-03 3.599034249782562256e-02 -2.539180405437946320e-02 2.867224626243114471e-02 2.081590704619884491e-02 2.858356013894081116e-02 -2.425192110240459442e-02
3.083192929625511169e-02 7.475159317255020142e-02 -9.447873570024967194e-03 -1.706754229962825775e-02 1.733497343957424164e-02 -4.263788834214210510e-02 -2.531223371624946594e-02 2.341187791898846626e-03 -2.266162633895874023e-02 8.275011926889419556e-02 2.459763176739215851e-02 2.768585085868835449e-02 -3.294460847973823547e-02 -8.160402998328208923e-03 -4.778792709112167358e-02 3.038830868899822235e-02 9.403904899954795837e-03 -4.437857493758201599e-02 2.077450044453144073e-02 -1.016950514167547226e-02 -5.422486457973718643e-03 -1.478527020663022995e-02 1.216603349894285202e-02 -1.281985547393560410e-03 -6.616846192628145218e-03 6.861004978418350220e-03 -2.261231653392314911e-02 -2.921533398330211639e-02 6.100402399897575378e-02 4.847889300435781479e-03 2.969949133694171906e-02 1.196115277707576752e-02 -4.832235630601644516e-03 5.422681942582130432e-02 1.103770453482866287e-02 -6.889732321724295616e-04 -1.412991061806678772e-02 -3.976044803857803345e-02 -1.399930799379944801e-03 -3.987889736890792847e-03 -7.424926385283470154e-03 -2.509167604148387909e-02 6.943786889314651489e-02 -5.870130658149719238e-02 -2.787520177662372589e-02 -4.981463029980659485e-02 1.110869273543357849e-02 2.096139080822467804e-02 -2.134325355291366577e-02 8.672818541526794434e-03 4.396171495318412781e-02 2.875169739127159119e-02 5.502162035554647446e-03 -2.213842980563640594e-02 -9.360933676362037659e-03 3.637045249342918396e-02 1.707215979695320129e-02 7.614679634571075439e-03 -2.063066512346267700e-02 4.581833630800247192e-02 -5.960822477936744690e-02 5.968281067907810211e-03 2.590386895462870598e-03 -4.105307161808013916e-02 1.356294378638267517e-02 -2.524813264608383179e-02 -6.529214791953563690e-03 1.046081352978944778e-02 2.970698475837707520e-02 1.305222976952791214e-03 -2.949127368628978729e-02 2.017894573509693146e-02 -2.693323977291584015e-02 3.172091022133827209e-02 3.258765488862991333e-02 2.260553650557994843e-02 -2.771415933966636658e-02 -2.632608264684677124e-02 -4.413913469761610031e-03 4.708441905677318573e-03 8.006738498806953430e-03 -1.862082071602344513e-02 -8.137093856930732727e-03 -2.249327488243579865e-03 -6.554524600505828857e-02 -1.147918310016393661e-02 3.272379934787750244e-02 3.926058299839496613e-03 -3.136822953820228577e-02 3.088194504380226135e-02 -7.966579869389533997e-03 -9.740922600030899048e-03 1.063300762325525284e-02 -3.590759355574846268e-03 1.202504150569438934e-02 1.693587750196456909e-02 4.978513461537659168e-04 -2.139405719935894012e-02 2.108276449143886566e-02 6.063275411725044250e-02 3.752418607473373413e-02 -2.147307246923446655e-02 -2.403181046247482300e-02 1.807682402431964874e-02 3.631927538663148880e-03 -8.685487322509288788e-03 2.014382556080818176e-02 -1.261994708329439163e-03 1.084663812071084976e-02 -5.548742413520812988e-02 1.306452229619026184e-02 -1.404836587607860565e-02 4.924411699175834656e-02 6.590533256530761719e-02 -4.262184351682662964e-02 -2.486789785325527191e-02 8.715853095054626465e-03 -4.792891070246696472e-02 -1.841391058405861259e-04 -3.110263682901859283e-02 -2.039511129260063171e-02 1.277652662247419357e-02 2.831794694066047668e-02 -7.047461345791816711e-03 2.899205312132835388e-02 5.572205781936645508e-02 4.177306964993476868e-02 7.241840660572052002e-02
-1.189968828111886978e-02 -1.180038743768818676e-04 8.757333271205425262e-03 -3.329918161034584045e-02 -2.844993257895112038e-03 -3.469554334878921509e-02 -1.445151958614587784e-02 -4.542245343327522278e-02 -2.472599036991596222e-02 -3.418501093983650208e-02 -9.526321664452552795e-03 -6.303252186626195908e-03 -4.279772285372018814e-03 1.183999422937631607e-02 -2.158697135746479034e-02 -2.582788467407226562e-02 -9.086479432880878448e-03 -3.786198794841766357e-02 3.517350181937217712e-02 1.113549247384071350e-02 -9.115607477724552155e-03 2.850759401917457581e-02 4.724524542689323425e-02 5.357708781957626343e-03 -9.619297459721565247e-03 1.540989801287651062e-02 3.567032516002655029e-02 1.255210861563682556e-02 -9.802854806184768677e-02 2.802096493542194366e-02 -1.506751216948032379e-02 3.018900938332080841e-02 1.341736968606710434e-02 6.010775268077850342e-02 -8.875447325408458710e-03 -6.121136993169784546e-02 2.838234044611454010e-02 1.665739342570304871e-02 -4.039059206843376160e-02 3.219487518072128296e-02 -5.102511495351791382e-02 1.690333709120750427e-02 -4.253233317285776138e-03 6.795933842658996582e-02 -3.426847979426383972e-02 5.141514353454113007e-03 2.457742951810359955e-02 1.233903318643569946e-02 4.290395230054855347e-02 4.755316674709320068e-02 2.313068881630897522e-02 4.173673316836357117e-02 2.209469908848404884e-03 5.294243991374969482e-02 -1.564820669591426849e-02 -3.037801012396812439e-03 5.260603036731481552e-03 -1.136915292590856552e-02 -7.872634450905025005e-04 -2.721483819186687469e-03 -2.129800431430339813e-02 5.272490531206130981e-02 1.506034471094608307e-02 -8.704900741577148438e-03 9.333114576293155551e-05 3.228407725691795349e-02 -1.460362318903207779e-02 -8.350309915840625763e-03 7.027433812618255615e-02 8.928597089834511280e-04 -2.078656479716300964e-02 -2.689072303473949432e-02 -1.323932898230850697e-03 9.627713821828365326e-03 -3.336563706398010254e-02 4.651071876287460327e-02 -3.244160441681742668e-03 -2.990931086242198944e-02 -3.041581250727176666e-02 1.879877294413745403e-03 1.834859955124557018e-03 -1.064852159470319748e-02 4.203350469470024109e-02 -1.272748317569494247e-02 -5.089716520160436630e-03 1.420448254793882370e-02 -2.688742056488990784e-02 8.471570909023284912e-03 2.600934542715549469e-02 -4.027912765741348267e-02 2.541339397430419922e-02 1.378463115543127060e-02 -2.281872369349002838e-02 -3.731030737981200218e-04 8.548924699425697327e-03 3.215603902935981750e-02 -3.047346137464046478e-02 5.578714609146118164e-02 7.598958909511566162e-03 3.469400107860565186e-02 2.246159501373767853e-02 -5.169712379574775696e-02 -2.441964112222194672e-02 4.927136003971099854e-03 6.329961866140365601e-02 1.956017222255468369e-03 -5.487636849284172058e-02 -5.162690300494432449e-03 -5.010255146771669388e-03 -1.333176065236330032e-02 2.102094143629074097e-02 1.887480728328227997e-03 3.772586211562156677e-02 3.855259716510772705e-02 -5.073518306016921997e-02 -3.361771814525127411e-03 -2.034541219472885132e-02 -2.363800629973411560e-02 2.163054887205362320e-03 -7.975583896040916443e-03 -2.146318927407264709e-02 -2.305904170498251915e-03 2.373360469937324524e-02 -8.057200349867343903e-03 -7.468464784324169159e-03 -3.141922131180763245e-02 7.710111886262893677e-02 -1.322809606790542603e-02
-1.635699346661567688e-02 -5.145806446671485901e-02 -1.215346250683069229e-02 -5.179118365049362183e-02 1.892311731353402138e-03 2.838830091059207916e-02 -3.083665482699871063e-02 -6.071307137608528137e-02 2.514295838773250580e-02 -7.131113857030868530e-02 -1.570597290992736816e-02 7.463365048170089722e-02 2.838862314820289612e-02 -4.647809639573097229e-02 -6.038662791252136230e-02 -2.337484806776046753e-02 -4.337397962808609009e-02 2.671113796532154083e-02 -2.243700064718723297e-02 1.476737111806869507e-02 -2.360355481505393982e-02 9.993184357881546021e-03 1.212095748633146286e-02 4.044091794639825821e-03 -2.156465128064155579e-02 6.201999261975288391e-03 6.959926802664995193e-03 1.354400161653757095e-02 4.428288713097572327e-02 -3.819712251424789429e-02 -3.038050793111324310e-02 7.922802865505218506e-02 2.974122529849410057e-03 -1.501287799328565598e-02 -4.918119311332702637e-02 -3.265215829014778137e-02 4.484741017222404480e-03 2.335317246615886688e-02 -1.797132572392001748e-04 8.086584508419036865e-03 -6.050849333405494690e-03 3.657221049070358276e-02 -2.304584532976150513e-02 1.015507336705923080e-02 5.874675844097509980e-05 5.359360948204994202e-03 -2.562538348138332367e-02 2.585216658189892769e-03 -1.897827489301562309e-03 -2.345683285966515541e-03 9.209975600242614746e-03 -1.226993929594755173e-02 -1.502388156950473785e-02 -5.958835035562515259e-02 1.008507832884788513e-01 3.927285969257354736e-02 -1.109026186168193817e-02 -2.404797263443470001e-02 -4.440486431121826172e-02 -3.493170812726020813e-02 -2.559357695281505585e-02 -5.462934076786041260e-02 5.660739913582801819e-02 -2.594710700213909149e-02 7.328681182116270065e-03 3.778581321239471436e-02 -6.739688687957823277e-04 -2.225298620760440826e-02 -4.871753230690956116e-02 -9.154056198894977570e-03 3.303647786378860474e-02 -1.799611002206802368e-02 -1.343137212097644806e-02 -6.356131285429000854e-03 -3.616665708250366151e-05 2.419469691812992096e-02 -3.774737939238548279e-02 2.595639787614345551e-02 -4.943348467350006104e-02 -2.271523885428905487e-02 4.556109756231307983e-02 6.043130531907081604e-03 4.349830374121665955e-02 7.580321282148361206e-02 -4.822789505124092102e-02 -7.406314834952354431e-03 2.091276831924915314e-02 3.725698450580239296e-03 1.212224271148443222e-02 -1.155465375632047653e-02 2.762894704937934875e-02 5.164549127221107483e-02 -2.382786013185977936e-02 4.852039273828268051e-03 7.830828428268432617e-03 -1.970227248966693878e-02 2.362669445574283600e-02 -1.772882416844367981e-02 2.744146808981895447e-02 6.140378117561340332e-02 -2.976829651743173599e-03 -3.713065385818481445e-02 3.060441697016358376e-03 1.045988965779542923e-02 -2.007968351244926453e-02 2.977343276143074036e-02 3.185353428125381470e-02 -4.208511486649513245e-02 3.573985397815704346e-02 1.061538700014352798e-02 6.890255492180585861e-03 -4.933520685881376266e-03 -4.388981685042381287e-02 -3.901407122611999512e-02 6.796235591173171997e-02 5.170113407075405121e-03 1.576514728367328644e-02 4.065871238708496094e-03 2.447406761348247528e-03 -1.162905525416135788e-02 8.623573929071426392e-03 -8.794616442173719406e-04 6.898976862430572510e-02 -2.830609865486621857e-02 -6.176963448524475098e-03 -1.398609206080436707e-02 -1.040011346340179443e-01 -3.362296894192695618e-02
-1.005372684448957443e-02 5.799919739365577698e-02 3.919358178973197937e-02 3.940960392355918884e-02 1.445661205798387527e-02 1.962867751717567444e-02 -3.664204152300953865e-03 5.534942261874675751e-03 2.915931632742285728e-03 4.992073029279708862e-02 -1.974523067474365234e-02 1.177326589822769165e-02 -1.012214645743370056e-02 -2.167703770101070404e-02 4.551259055733680725e-02 5.172348394989967346e-02 6.052844971418380737e-02 1.194980368018150330e-02 -2.451031841337680817e-02 -3.926279023289680481e-02 -2.453408017754554749e-02 -1.316603459417819977e-02 2.613222599029541016e-02 2.542811445891857147e-03 -3.061786293983459473e-03 -7.904523052275180817e-03 -1.214062422513961792e-02 -1.375377178192138672e-02 8.574176579713821411e-03 3.449543938040733337e-02 4.226098954677581787e-02 5.838334932923316956e-02 -1.465408969670534134e-02 1.434345357120037079e-02 1.544943451881408691e-02 -3.303063288331031799e-02 -9.687784127891063690e-03 3.258097544312477112e-02 -5.845036357641220093e-02 -9.475929662585258484e-03 1.021259929984807968e-02 -3.800187632441520691e-02 -4.531775042414665222e-02 5.733002349734306335e-02 -3.226914256811141968e-02 1.893308572471141815e-02 8.229032158851623535e-03 2.070332691073417664e-02 1.016280381008982658e-03 -1.063250843435525894e-02 1.051548961549997330e-02 -3.632724285125732422e-03 1.081260386854410172e-02 -1.214475557208061218e-02 -2.120635658502578735e-02 3.100259602069854736e-02 -8.903061971068382263e-03 -4.451591521501541138e-02 1.489133387804031372e-02 9.099554736167192459e-04 -3.982646763324737549e-02 -7.426905445754528046e-03 1.655959151685237885e-02 2.089235931634902954e-02 2.588285319507122040e-02 -1.608301326632499695e-02 -1.102018542587757111e-02 1.616879490029532462e-05 5.167414993047714233e-02 4.732679948210716248e-02 -2.802946604788303375e-03 6.087578833103179932e-03 -3.887433558702468872e-02 1.793148182332515717e-02 1.781612448394298553e-02 -1.636977121233940125e-02 -5.809446796774864197e-02 -1.032528933137655258e-02 1.099571585655212402e-02 -2.315394580364227295e-02 -9.172683581709861755e-03 -1.094600558280944824e-02 1.280769426375627518e-02 -3.865804057568311691e-03 3.116711042821407318e-02 -5.854114145040512085e-02 -1.997122354805469513e-02 1.792446593753993511e-03 -6.354478746652603149e-02 -8.038949221372604370e-03 -1.798813417553901672e-02 -2.359069325029850006e-02 1.654984988272190094e-02 1.766530610620975494e-02 -9.170649573206901550e-03 1.742181181907653809e-02 -4.007102455943822861e-03 -4.586832597851753235e-02 -1.653230376541614532e-02 -4.884291067719459534e-02 3.685636073350906372e-02 -1.268067397177219391e-02 -3.086567856371402740e-02 6.377188116312026978e-02 1.357979234308004379e-02 -5.079036578536033630e-02 -1.611852832138538361e-02 -7.529461290687322617e-04 1.356292050331830978e-02 4.856356233358383179e-02 -1.910322345793247223e-02 -5.133835133165121078e-03 1.659105531871318817e-02 1.362403109669685364e-02 7.904406636953353882e-03 -2.517268806695938110e-02 1.404996402561664581e-02 -2.397189475595951080e-02 -3.027713112533092499e-02 7.354707457125186920e-03 1.231748610734939575e-02 1.270020008087158203e-02 -8.905768394470214844e-03 1.290563214570283890e-02 2.749245800077915192e-02 -3.082017879933118820e-03 -2.593897096812725067e-02 -4.392597079277038574e-02
