-2.565994262695312500e-01
-6.257485598325729370e-02
2.883060090243816376e-02
-2.963971495628356934e-01
-1.870846450328826904e-01
7.131610065698623657e-02
2.188323289155960083e-01
1.294962167739868164e-01
-7.511990517377853394e-02
2.166369259357452393e-01
3.500526547431945801e-01
-7.061500847339630127e-02
1.033445447683334351e-01
-1.036183089017868042e-01
2.260438054800033569e-01
1.197461783885955811e-01
1.804382652044296265e-01
1.849265992641448975e-01
3.239817917346954346e-01
-1.974714845418930054e-01
1.968659907579421997e-01
1.365101784467697144e-01
-2.983094453811645508e-01
-6.707478314638137817e-04
-3.442816734313964844e-01
-1.351922303438186646e-01
-7.523826509714126587e-02
1.130855828523635864e-01
-2.827095091342926025e-01
-2.249719351530075073e-01
1.522981226444244385e-01
2.611353695392608643e-01
-1.935807913541793823e-01
1.556544154882431030e-01
-2.220126837491989136e-01
-2.246894240379333496e-01
-2.661071717739105225e-01
1.919643729925155640e-01
1.960267275571823120e-01
-3.449229896068572998e-01
2.857887148857116699e-01
-1.398264467716217041e-01
1.805168092250823975e-01
4.972819983959197998e-02
1.995256841182708740e-01
-1.784588992595672607e-01
2.707002162933349609e-01
2.607982754707336426e-01
-2.121062427759170532e-01
1.510308831930160522e-01
-4.316077381372451782e-02
-1.849119067192077637e-01
1.835938990116119385e-01
9.386415034532546997e-02
-2.589619755744934082e-01
1.072718724608421326e-01
-1.842279285192489624e-01
5.538691184483468533e-04
-4.012474119663238525e-01
1.204060912132263184e-01
1.796379685401916504e-01
2.402111440896987915e-01
-1.389263570308685303e-01
1.921266615390777588e-01
2.112188786268234253e-01
-5.164788663387298584e-02
2.583324909210205078e-01
-2.147886008024215698e-01
2.472803145647048950e-01
-4.826103150844573975e-02
-2.342010587453842163e-01
-2.121272124350070953e-02
-1.201450228691101074e-01
1.764609962701797485e-01
-3.501265645027160645e-01
-2.047009170055389404e-01
-3.271198868751525879e-01
2.451956272125244141e-01
6.201963126659393311e-02
1.658958792686462402e-01
2.509142756462097168e-01
-1.862952858209609985e-01
-2.208655476570129395e-01
1.068670675158500671e-01
-1.759817749261856079e-01
-3.078189492225646973e-01
-1.226876899600028992e-01
-1.662136912345886230e-01
-2.463551461696624756e-01
2.705955207347869873e-01
2.831771075725555420e-01
2.222575992345809937e-01
1.081176996231079102e-01
1.421282589435577393e-01
1.030116453766822815e-01
-2.282721698284149170e-01
-2.171735614538192749e-01
-2.419503480195999146e-01
1.772824674844741821e-01
2.102585434913635254e-01
1.344270557165145874e-01
-3.109520077705383301e-01
2.154855579137802124e-01
-1.969125568866729736e-01
-4.417771100997924805e-02
-5.553869530558586121e-02
1.475698035210371017e-02
-2.801049873232841492e-02
-2.126092314720153809e-01
8.654276281595230103e-02
-2.031104713678359985e-01
-1.137724518775939941e-01
-1.949562728404998779e-01
1.609869599342346191e-01
-1.441321372985839844e-01
-1.989492624998092651e-01
3.511677086353302002e-01
-2.035179138183593750e-01
1.773587763309478760e-01
2.338103801012039185e-01
2.184712439775466919e-01
-2.983276844024658203e-01
1.137189194560050964e-01
1.959315240383148193e-01
1.348216235637664795e-01
-1.685002148151397705e-01
-1.306608617305755615e-01
2.465978264808654785e-01
