-2.268579229712486267e-02
-1.796478172764182091e-04
-1.407588925212621689e-02
-2.226177416741847992e-02
-9.931688196957111359e-03
1.187116466462612152e-02
2.274410799145698547e-02
7.297277916222810745e-03
-2.019850071519613266e-04
2.411380410194396973e-02
7.224015891551971436e-02
3.026109188795089722e-03
2.545923180878162384e-02
-1.110058464109897614e-02
2.676790952682495117e-02
-6.525735952891409397e-04
2.373884990811347961e-02
2.102266624569892883e-02
3.069803491234779358e-02
1.684770249994471669e-04
1.933409459888935089e-02
4.520088434219360352e-02
-2.003555186092853546e-02
-2.962955040857195854e-03
-2.979837730526924133e-02
-5.095523968338966370e-02
-1.218706462532281876e-02
6.906227674335241318e-03
-2.528659068048000336e-02
-1.704197190701961517e-02
2.863868325948715210e-02
1.096194609999656677e-02
-2.577394992113113403e-02
1.952682435512542725e-02
-2.397929877042770386e-02
-3.421160578727722168e-02
-3.233141079545021057e-02
4.502618312835693359e-02
1.779575832188129425e-02
-5.923517420887947083e-02
3.603825718164443970e-02
4.654048010706901550e-03
2.381266653537750244e-02
1.744529046118259430e-02
1.149067934602499008e-02
-4.125829041004180908e-02
1.975959166884422302e-02
-8.655968122184276581e-05
-2.340986160561442375e-03
1.331690931692719460e-03
-2.948899520561099052e-03
-9.713072329759597778e-03
2.824477106332778931e-02
1.054410450160503387e-02
-2.838699705898761749e-02
3.531127050518989563e-02
-8.272099308669567108e-03
1.007395330816507339e-02
-3.360790014266967773e-02
1.604029163718223572e-02
3.674067929387092590e-02
1.841674372553825378e-02
-3.444029390811920166e-02
7.156791631132364273e-03
2.877963706851005554e-02
-3.530249814502894878e-04
5.162519216537475586e-02
-1.667870581150054932e-02
-1.213504467159509659e-03
-1.641126908361911774e-02
-4.786294326186180115e-02
1.501053199172019958e-02
-6.371964700520038605e-03
1.642847061157226562e-02
-2.907878160476684570e-02
-5.838719196617603302e-03
-3.938975185155868530e-02
2.447803132236003876e-02
-1.656423206441104412e-03
2.152845636010169983e-02
1.142042689025402069e-02
-2.645073272287845612e-02
-2.968249842524528503e-02
-4.493855871260166168e-03
-1.427732035517692566e-02
-6.350449472665786743e-02
1.003033760935068130e-02
-9.593943133950233459e-03
-9.201581589877605438e-03
2.004080079495906830e-02
2.938182279467582703e-02
2.369979210197925568e-02
8.061758242547512054e-03
1.568610034883022308e-02
1.358305336907505989e-03
-1.609487272799015045e-02
-1.336327288299798965e-02
-2.904360368847846985e-02
2.517172321677207947e-02
3.064859844744205475e-02
7.588040083646774292e-03
-2.462643943727016449e-02
3.419261053204536438e-02
-2.788064628839492798e-02
1.687222719192504883e-02
-4.623211454600095749e-03
-4.573941230773925781e-03
-5.158900283277034760e-03
-2.354843355715274811e-02
1.072419621050357819e-02
-1.741313934326171875e-02
-4.162224940955638885e-03
-1.868194527924060822e-02
1.298623159527778625e-02
-1.623367518186569214e-02
-9.186513721942901611e-03
4.255535453557968140e-02
-2.637368999421596527e-02
1.762599870562553406e-02
2.585627697408199310e-02
2.271615341305732727e-02
-8.580128103494644165e-02
2.258806489408016205e-02
2.886049449443817139e-02
4.033203423023223877e-02
-1.818850636482238770e-02
-2.264056727290153503e-02
4.009851813316345215e-02
