-8.095081895589828491e-02 4.602150991559028625e-03 -8.339869789779186249e-03 -3.720125555992126465e-02 -4.766796529293060303e-02 -7.175443321466445923e-02 5.838159122504293919e-04 7.542103528976440430e-02 1.405215561389923096e-01 -4.716462269425392151e-02 -9.189901873469352722e-03 -1.542078107595443726e-01 -2.835447899997234344e-02 -9.204725921154022217e-02 8.861868828535079956e-02 -2.100257761776447296e-02 8.485357463359832764e-02 -1.549593955278396606e-01 -8.540394157171249390e-02 -1.399088054895401001e-01 -4.038521647453308105e-02 7.566004991531372070e-02 -2.685759030282497406e-02 -3.459048271179199219e-02 -3.518553078174591064e-02 8.305990695953369141e-02 4.154668003320693970e-02 -3.748471289873123169e-02 5.306448414921760559e-02 7.137373089790344238e-02 4.258035495877265930e-02 1.205870881676673889e-01 -1.799678504467010498e-01 -1.127717923372983932e-02 -2.636097557842731476e-02 -9.894926100969314575e-02 1.999720335006713867e-01 4.228764027357101440e-02 -1.038578599691390991e-01 7.996183633804321289e-02 -3.283505141735076904e-02 2.482555508613586426e-01 9.214543551206588745e-02 -4.666544869542121887e-02 1.384146362543106079e-01 -1.190649867057800293e-01 3.215407952666282654e-02 2.519893832504749298e-02 -9.243762493133544922e-02 -1.831567473709583282e-02 2.531596720218658447e-01 -4.895642399787902832e-02 -8.956097811460494995e-02 -1.115020141005516052e-01 -1.019014138728380203e-02 1.871947050094604492e-01 1.568661779165267944e-01 -1.353532969951629639e-01 -6.886326242238283157e-03 -1.418082565069198608e-01 7.662990689277648926e-02 -1.060059517621994019e-01 -3.062056377530097961e-02 1.270143389701843262e-01 6.149297952651977539e-02 1.616139896214008331e-02 -8.008209988474845886e-03 7.028629630804061890e-02 4.764648154377937317e-03 -8.543896675109863281e-02 1.782037317752838135e-02 5.015692487359046936e-02 -7.906606048345565796e-02 6.143438164144754410e-03 1.907450333237648010e-02 -3.090759366750717163e-02 2.940124087035655975e-02 7.801565527915954590e-02 -5.773404985666275024e-02 5.468114092946052551e-02 -9.009727835655212402e-02 9.174647927284240723e-02 -5.391776561737060547e-02 5.694429203867912292e-02 1.092233881354331970e-01 7.628553081303834915e-03 -6.341090053319931030e-02 -1.031527891755104065e-01 -1.339978724718093872e-01 -4.322550818324089050e-02 1.219338476657867432e-01 3.296763077378273010e-02 7.648249622434377670e-03 -2.323411218822002411e-02 -8.080509491264820099e-03 -7.973549515008926392e-02 -5.520967021584510803e-02 1.240599304437637329e-01 2.664262987673282623e-02 1.074899658560752869e-01 9.305564686655998230e-03 4.400075599551200867e-02 -4.753183946013450623e-02 -1.572371460497379303e-02 -8.814054541289806366e-03 -5.471788346767425537e-02 -5.582103878259658813e-02 4.511122778058052063e-02 -4.621966555714607239e-02 5.118903890252113342e-02 -6.884941458702087402e-02 -1.336220558732748032e-02 1.462353616952896118e-01 1.750466823577880859e-01 -8.171791583299636841e-02 1.483627259731292725e-01 -1.041604205965995789e-01 4.436007887125015259e-02 1.561171859502792358e-01 -2.800805494189262390e-02 1.649727970361709595e-01 -2.498062886297702789e-02 1.787134110927581787e-01 2.249107211828231812e-01 2.867749705910682678e-02 1.217444241046905518e-02 -6.184298545122146606e-02 -1.126762405037879944e-01
3.829100728034973145e-02 6.265103816986083984e-02 1.256051063537597656e-01 2.803984656929969788e-02 3.880502283573150635e-02 -8.578523993492126465e-02 2.340590581297874451e-02 2.060090191662311554e-02 1.578838378190994263e-02 -5.941749736666679382e-02 -5.144457519054412842e-02 4.534776136279106140e-02 -1.702475943602621555e-03 -6.350824981927871704e-02 -5.425930488854646683e-03 5.937338341027498245e-03 -2.202245779335498810e-02 1.906901448965072632e-01 1.062373667955398560e-01 -5.070393905043601990e-02 4.693661630153656006e-02 8.790861070156097412e-02 7.299342751502990723e-02 1.059149354696273804e-01 5.677182227373123169e-02 2.518871240317821503e-02 2.880137413740158081e-03 4.894724860787391663e-02 3.523275256156921387e-02 3.647368028759956360e-02 3.523012250661849976e-02 3.206698223948478699e-02 -5.956414341926574707e-02 7.704504579305648804e-02 -5.466617271304130554e-02 4.620085284113883972e-02 1.012541279196739197e-01 -2.267844229936599731e-02 7.982139359228312969e-04 -1.043122168630361557e-02 -8.999602496623992920e-02 -2.456244975328445435e-01 7.668013870716094971e-02 5.506908521056175232e-02 1.532407104969024658e-02 -1.348669081926345825e-01 2.159726619720458984e-02 4.483240842819213867e-02 -2.291068434715270996e-02 -2.576597034931182861e-01 -1.158416792750358582e-01 -6.238481146283447742e-04 2.874023653566837311e-02 -5.761253833770751953e-02 -1.664667762815952301e-02 1.815641485154628754e-02 1.482700705528259277e-01 -3.410972282290458679e-02 -8.342927694320678711e-02 -8.303003013134002686e-02 3.597676008939743042e-02 -1.553350128233432770e-02 5.360979586839675903e-03 -5.165218561887741089e-02 -7.403699308633804321e-02 -3.949285484850406647e-03 -3.166695684194564819e-02 -1.377096474170684814e-01 1.393081247806549072e-02 -3.283941745758056641e-02 -3.829905390739440918e-02 -1.445207931101322174e-02 8.530203253030776978e-02 7.953982055187225342e-02 1.513328850269317627e-01 5.505593493580818176e-03 1.343228947371244431e-02 -4.763311520218849182e-02 -5.311463773250579834e-02 -5.559666827321052551e-02 4.269849974662065506e-03 2.668830752372741699e-02 1.096822842955589294e-01 -1.779279671609401703e-02 -1.947062276303768158e-02 2.593755163252353668e-02 6.481479108333587646e-02 -2.040402293205261230e-01 -6.407422572374343872e-02 -6.062844395637512207e-02 -9.081083349883556366e-03 -1.293947398662567139e-01 -4.637670237571001053e-03 -1.179138571023941040e-01 3.242700174450874329e-02 3.317486122250556946e-02 1.289542168378829956e-01 7.677378505468368530e-02 3.808679431676864624e-02 -5.260418355464935303e-02 -9.981057792901992798e-02 -6.076115742325782776e-02 -4.844004660844802856e-02 -4.373083263635635376e-02 -4.853268153965473175e-03 -3.643210232257843018e-02 1.665923744440078735e-01 -1.992415487766265869e-01 2.378326095640659332e-02 -3.550250455737113953e-02 1.438670158386230469e-01 3.562112152576446533e-01 2.009736932814121246e-02 -8.301322162151336670e-02 9.302632883191108704e-03 -6.811208277940750122e-02 -9.493961930274963379e-03 -4.988922178745269775e-02 3.917640075087547302e-02 -9.953943639993667603e-02 1.303425133228302002e-01 -9.472588449716567993e-02 -8.869121968746185303e-02 1.311900168657302856e-01 -5.239464715123176575e-02 -9.727200865745544434e-02 1.378409415483474731e-01 -2.006960660219192505e-02
2.839509211480617523e-02 4.593973979353904724e-02 1.835745386779308319e-02 -7.636144757270812988e-02 2.371914871037006378e-02 -5.105419829487800598e-02 1.266720984131097794e-02 4.361107200384140015e-02 -4.589776694774627686e-02 1.926090754568576813e-02 -5.138736963272094727e-02 1.654185168445110321e-02 -7.206118199974298477e-03 -4.411727935075759888e-02 -5.141326785087585449e-02 1.033748779445886612e-02 1.465475410223007202e-01 -2.303618006408214569e-02 5.363643541932106018e-02 6.711486726999282837e-02 -2.533850260078907013e-02 -7.212632894515991211e-02 1.109497807919979095e-02 -1.303890254348516464e-02 4.248582944273948669e-02 -2.291998243890702724e-04 4.167542606592178345e-02 -1.391280591487884521e-01 1.073182746767997742e-01 -9.414632618427276611e-02 -1.078154891729354858e-02 1.495062112808227539e-01 -2.196697704493999481e-02 -2.637882949784398079e-03 3.690753132104873657e-02 -5.875590071082115173e-02 -4.644429311156272888e-03 2.300932817161083221e-02 -3.813076764345169067e-02 -1.009204238653182983e-01 -2.652349136769771576e-02 2.804466784000396729e-01 3.710979968309402466e-02 -3.503149747848510742e-02 4.067683964967727661e-02 -2.848371304571628571e-02 5.306280404329299927e-02 1.093540191650390625e-01 -1.682340167462825775e-02 4.671587608754634857e-03 7.089896500110626221e-02 -1.065024808049201965e-01 3.808315470814704895e-02 3.662905842065811157e-02 -1.631952705793082714e-03 2.088234946131706238e-02 -1.015715450048446655e-01 -1.638065464794635773e-02 1.316121965646743774e-02 -5.793040990829467773e-02 -6.416093558073043823e-02 -1.196118071675300598e-01 -7.728169672191143036e-03 5.467172712087631226e-02 9.829539805650711060e-02 1.491538342088460922e-02 -3.975826129317283630e-02 -1.106316447257995605e-01 6.592875719070434570e-02 -1.334043145179748535e-01 -5.021832138299942017e-02 -1.933263614773750305e-02 -4.836742207407951355e-02 7.571770995855331421e-02 4.502393677830696106e-02 -9.218630380928516388e-03 -3.157205879688262939e-02 1.595520973205566406e-02 -1.740996539592742920e-02 1.407157182693481445e-01 -2.252115681767463684e-02 4.766405373811721802e-02 -5.113180354237556458e-02 7.570450007915496826e-02 3.408718854188919067e-02 1.597742736339569092e-02 2.183191291987895966e-02 1.292001754045486450e-01 9.372732043266296387e-02 -5.019127205014228821e-02 1.087736804038286209e-03 3.797649964690208435e-02 1.710474677383899689e-02 -7.488141953945159912e-02 3.509426862001419067e-02 2.278207801282405853e-02 -7.916768640279769897e-02 1.399203389883041382e-02 1.366039551794528961e-02 -7.945994287729263306e-02 7.369726151227951050e-02 2.948152832686901093e-02 1.031801849603652954e-02 2.766766771674156189e-02 2.782876230776309967e-02 -3.545580431818962097e-02 4.750777781009674072e-02 -8.521815389394760132e-02 7.545982487499713898e-03 -1.266738958656787872e-02 -4.315902665257453918e-02 -5.705536603927612305e-01 -6.424265354871749878e-02 -2.039516903460025787e-02 -4.745008423924446106e-02 2.110560610890388489e-02 -1.098387315869331360e-01 8.124561607837677002e-02 2.453140914440155029e-02 -8.976456709206104279e-03 1.928430236876010895e-02 5.176606401801109314e-02 -1.128952801227569580e-01 -2.252437360584735870e-02 -4.313866049051284790e-02 -1.302219331264495850e-01 1.327782422304153442e-01 5.900087580084800720e-02
-6.669109314680099487e-02 2.692516744136810303e-01 -4.129771143198013306e-02 -1.264651715755462646e-01 9.139111638069152832e-02 -1.037451028823852539e-01 1.565479934215545654e-01 1.781863532960414886e-02 -5.921819061040878296e-02 2.342347502708435059e-01 2.351304516196250916e-02 8.266016840934753418e-02 -1.817407310009002686e-01 6.003465037792921066e-03 5.669201537966728210e-02 -7.872815430164337158e-02 -2.799826487898826599e-02 -4.338171705603599548e-02 3.728151693940162659e-02 -1.262173950672149658e-01 8.718098700046539307e-02 -5.059470236301422119e-02 -5.705951899290084839e-02 -7.875211536884307861e-02 9.150400012731552124e-02 9.700248017907142639e-03 2.334502525627613068e-02 -7.263240218162536621e-02 7.688979804515838623e-02 -6.477131694555282593e-02 1.219456270337104797e-02 -1.641309857368469238e-01 -3.659450262784957886e-02 -2.886631526052951813e-02 -4.324556887149810791e-02 -1.270455401390790939e-02 2.023183926939964294e-02 -2.283671498298645020e-02 -5.962178856134414673e-02 1.115376502275466919e-01 2.227550558745861053e-02 -1.583368182182312012e-01 -1.044998019933700562e-01 1.662752032279968262e-01 3.207311779260635376e-02 -1.308154165744781494e-01 -1.346298456192016602e-01 -1.190610378980636597e-01 1.142689138650894165e-01 -1.812026947736740112e-01 1.278314441442489624e-01 2.011999301612377167e-02 2.750312536954879761e-02 -1.777444332838058472e-01 1.057246550917625427e-01 7.924158871173858643e-02 1.309263855218887329e-01 -5.641860514879226685e-02 1.209242269396781921e-02 5.926452577114105225e-02 3.608124703168869019e-02 -3.394955024123191833e-02 8.965536952018737793e-03 -1.053223833441734314e-01 1.432663574814796448e-02 1.075436323881149292e-01 4.450350999832153320e-02 1.053419560194015503e-01 -4.407488182187080383e-02 5.102662369608879089e-02 1.090149432420730591e-01 8.330290019512176514e-02 -6.453330814838409424e-02 -4.292352497577667236e-02 -5.651824921369552612e-02 -4.227935802191495895e-03 -3.084422834217548370e-02 -5.436009541153907776e-02 1.024478226900100708e-01 -3.221247345209121704e-02 -3.467915207147598267e-02 4.016302525997161865e-02 1.141200959682464600e-02 7.169407792389392853e-03 6.461668014526367188e-02 6.615445762872695923e-02 3.244172409176826477e-02 -3.146450817584991455e-01 -5.206530913710594177e-02 -1.767767965793609619e-01 1.378593686968088150e-02 1.836315244436264038e-01 -2.526232972741127014e-02 1.277946978807449341e-01 -9.203338995575904846e-03 -1.397729851305484772e-02 -2.964967675507068634e-02 -5.536937620490789413e-03 1.259393244981765747e-01 -1.637169043533504009e-03 -7.726321369409561157e-02 -1.143541932106018066e-02 -2.425416745245456696e-02 -4.367574304342269897e-02 1.073208358138799667e-02 -1.349845975637435913e-01 1.393963247537612915e-01 -8.437243849039077759e-02 -6.503065675497055054e-02 -1.413043290376663208e-01 -4.808231443166732788e-02 5.018221959471702576e-02 -9.728174656629562378e-03 4.641315713524818420e-02 2.269458770751953125e-02 1.494801044464111328e-01 1.713002286851406097e-02 5.036394670605659485e-02 3.587736934423446655e-02 -5.805604159832000732e-03 -2.960183657705783844e-02 -4.647253453731536865e-02 3.547193109989166260e-02 2.884647548198699951e-01 -1.823939196765422821e-02 -2.231641709804534912e-01 -4.515682905912399292e-02 6.426363438367843628e-02
6.880095601081848145e-02 2.433683536946773529e-02 -8.031176030635833740e-02 -3.096750192344188690e-02 8.308439701795578003e-02 -1.644185930490493774e-02 7.412131130695343018e-02 3.602407500147819519e-02 -1.132383756339550018e-02 2.222580276429653168e-02 3.178853914141654968e-02 -1.706895418465137482e-02 1.186043591587804258e-04 -1.094573065638542175e-01 7.859513163566589355e-02 -5.652583017945289612e-02 8.356500416994094849e-02 3.723778203129768372e-02 8.094795048236846924e-02 6.716540455818176270e-02 5.587277188897132874e-02 -1.646677963435649872e-02 -1.105412244796752930e-01 5.846794694662094116e-02 9.989286959171295166e-02 6.328690052032470703e-02 -1.828476227819919586e-02 -5.419106408953666687e-02 1.534418202936649323e-03 8.287661522626876831e-02 5.885048769414424896e-03 1.644085347652435303e-01 1.181250158697366714e-02 3.023379668593406677e-02 2.865797374397516251e-03 4.356295242905616760e-02 -2.153260819613933563e-02 7.121301605366170406e-04 3.674202412366867065e-02 1.236168202012777328e-02 2.459632419049739838e-02 3.247393965721130371e-01 -3.331822901964187622e-02 -7.101596146821975708e-02 7.848273217678070068e-02 8.412719517946243286e-02 4.660394042730331421e-03 -8.602920919656753540e-02 2.628392912447452545e-02 -1.602621190249919891e-02 4.406749457120895386e-02 6.006227922625839710e-04 -6.674214452505111694e-02 1.124659273773431778e-02 -7.698744535446166992e-02 1.206265389919281006e-02 -7.014279067516326904e-02 -1.095269396901130676e-01 -4.395995289087295532e-02 3.836949169635772705e-02 6.769905332475900650e-03 5.945724993944168091e-02 -5.160496756434440613e-02 -5.267862975597381592e-02 9.844560176134109497e-03 2.354094199836254120e-02 -3.256756812334060669e-03 -3.105303458869457245e-02 -7.446827366948127747e-03 1.019331589341163635e-01 6.775413174182176590e-03 7.003168109804391861e-03 4.779451340436935425e-02 -6.191284954547882080e-02 -1.986377499997615814e-02 -3.322689607739448547e-02 5.096365511417388916e-02 -3.396115079522132874e-02 -7.222779560834169388e-03 -6.003796681761741638e-02 1.717536151409149170e-02 4.093404114246368408e-02 -3.889926150441169739e-02 -2.054170332849025726e-02 -2.297371393069624901e-03 2.136731520295143127e-02 -7.590959221124649048e-02 -4.019218683242797852e-02 1.668417900800704956e-01 -4.098788276314735413e-02 3.851467743515968323e-02 -6.128380447626113892e-02 3.661775961518287659e-02 1.216416731476783752e-01 4.992598295211791992e-02 4.798595607280731201e-02 -2.165957354009151459e-02 8.436972647905349731e-02 2.268164604902267456e-02 4.487758129835128784e-02 5.259318649768829346e-02 1.920524868182837963e-03 -1.291961222887039185e-01 -5.664255097508430481e-02 -6.513104308396577835e-03 3.475644811987876892e-02 4.484489187598228455e-02 2.901180274784564972e-02 -7.789409719407558441e-03 -6.698004156351089478e-02 3.607570007443428040e-02 -7.241129279136657715e-01 -1.181339770555496216e-01 5.521862953901290894e-02 2.534391731023788452e-02 5.853565037250518799e-02 3.768438007682561874e-03 -2.219908870756626129e-02 2.017381601035594940e-03 -7.592437416315078735e-02 1.358305364847183228e-01 -6.773330271244049072e-03 3.475370630621910095e-02 -2.554229460656642914e-02 1.760690473020076752e-03 1.120754331350326538e-02 -6.583562493324279785e-02 -5.093808099627494812e-02
-3.432266786694526672e-02 -1.430391818284988403e-01 -9.854320436716079712e-03 -1.308914721012115479e-01 -2.836480736732482910e-01 -1.363311195746064186e-03 1.007217615842819214e-01 -2.043780982494354248e-01 -5.283112823963165283e-02 -1.741943806409835815e-01 -4.471801221370697021e-03 1.415334362536668777e-02 1.494430452585220337e-01 -3.173135221004486084e-02 2.158264815807342529e-02 -1.191737577319145203e-01 3.127343207597732544e-02 7.004559040069580078e-02 -5.955592170357704163e-02 -2.109944447875022888e-02 -2.768740523606538773e-03 -9.250941127538681030e-02 -1.201906614005565643e-02 -1.257098317146301270e-01 -4.806791245937347412e-02 -1.131931878626346588e-02 1.238247901201248169e-01 1.502080168575048447e-02 -7.750332821160554886e-03 9.678842872381210327e-02 -6.422699242830276489e-02 -7.899002730846405029e-02 8.299000561237335205e-02 -1.319198608398437500e-01 -5.255749076604843140e-02 -1.115842908620834351e-01 -4.625565186142921448e-02 1.106547489762306213e-01 2.062966227531433105e-01 -4.984785243868827820e-02 2.702468335628509521e-01 -2.759964764118194580e-01 1.082108393311500549e-01 -7.540152966976165771e-02 5.358048155903816223e-02 -1.321188360452651978e-01 -3.116140700876712799e-02 9.253314137458801270e-02 -3.530329465866088867e-02 3.394130170345306396e-01 -1.391388475894927979e-01 3.089974401518702507e-03 -2.286664210259914398e-02 1.255324482917785645e-01 2.335341274738311768e-02 6.203737109899520874e-02 1.198749542236328125e-01 4.018029943108558655e-02 -4.431353136897087097e-02 1.288723479956388474e-02 -2.320698797702789307e-01 -1.254311501979827881e-01 9.889516979455947876e-02 -8.433329313993453979e-02 1.562388539314270020e-01 -1.439511775970458984e-01 -4.705103114247322083e-02 -9.112995117902755737e-02 -3.169641271233558655e-02 -8.617813140153884888e-02 3.192362561821937561e-02 -5.388185754418373108e-02 -7.250627968460321426e-03 5.794558674097061157e-02 1.523583084344863892e-01 -5.745190382003784180e-02 -2.409819699823856354e-02 -1.366043370217084885e-02 1.659534405916929245e-03 1.002740859985351562e-01 -9.468349069356918335e-02 9.635303169488906860e-02 -7.388804852962493896e-02 -1.253977864980697632e-01 -2.573216333985328674e-02 2.499641627073287964e-01 -9.031851589679718018e-02 4.606087505817413330e-02 1.702310144901275635e-01 -9.521897882223129272e-03 6.749237328767776489e-02 6.260819733142852783e-02 -3.080577403306961060e-02 3.656283766031265259e-02 3.754210844635963440e-02 5.323810130357742310e-02 1.300546899437904358e-02 7.899235934019088745e-02 1.130854040384292603e-01 -3.453328832983970642e-02 5.988857895135879517e-02 2.909789048135280609e-02 -3.510124608874320984e-02 3.162017092108726501e-02 5.455773323774337769e-02 -2.592577971518039703e-02 1.322099417448043823e-01 4.845718294382095337e-02 -1.184180751442909241e-01 2.084137871861457825e-02 -3.844592720270156860e-02 1.348007284104824066e-02 -1.130069941282272339e-01 4.171083867549896240e-02 -6.555675715208053589e-02 -2.663634717464447021e-03 -5.402345955371856689e-02 6.504900753498077393e-02 1.070793345570564270e-02 6.438307464122772217e-02 6.920544803142547607e-02 2.829909883439540863e-02 -2.345554158091545105e-02 -2.967172861099243164e-02 -6.196752190589904785e-02 1.564704775810241699e-01 -2.605443820357322693e-02 -1.928339153528213501e-02
2.364270761609077454e-02 -9.063271433115005493e-02 4.245499521493911743e-02 -1.150230094790458679e-01 -7.594374008476734161e-03 6.778195500373840332e-02 1.032482311129570007e-01 1.769148744642734528e-03 -5.328936502337455750e-02 4.554665088653564453e-02 -4.542960226535797119e-02 -1.015514135360717773e-01 -6.189757958054542542e-02 4.670616984367370605e-02 -3.900161385536193848e-02 1.063737943768501282e-01 2.595711499452590942e-02 -1.422958672046661377e-01 1.614450514316558838e-01 5.244819074869155884e-02 -6.390510592609643936e-03 -3.793654218316078186e-02 -1.389944404363632202e-01 3.452826663851737976e-02 5.257856473326683044e-02 9.386781603097915649e-02 3.414075821638107300e-02 -5.139211565256118774e-02 5.865019187331199646e-02 1.041118353605270386e-01 1.004564166069030762e-01 -3.389872983098030090e-02 -3.089386224746704102e-02 1.826429814100265503e-01 -8.877217769622802734e-02 -2.377920411527156830e-02 -4.421596974134445190e-02 4.189325124025344849e-02 7.627027481794357300e-02 -1.222619414329528809e-01 6.091301888227462769e-02 -7.516335695981979370e-02 6.266348809003829956e-02 6.289598345756530762e-02 -9.681871533393859863e-02 -1.283298730850219727e-01 3.984057158231735229e-02 -3.962617740035057068e-02 7.136184722185134888e-02 -1.102234646677970886e-01 -2.541923522949218750e-01 -9.743866510689258575e-03 -6.498224288225173950e-02 -1.106351390480995178e-01 -8.267663419246673584e-02 5.544507130980491638e-02 -2.117990888655185699e-02 4.318388924002647400e-02 -1.430965960025787354e-01 9.946143627166748047e-02 6.940324604511260986e-02 -5.201444029808044434e-02 1.013246551156044006e-01 1.041079685091972351e-02 5.394417047500610352e-02 -5.283121392130851746e-02 -1.215049028396606445e-01 2.846730500459671021e-02 4.899727553129196167e-02 -1.165043786168098450e-01 -6.867321580648422241e-02 -7.474023848772048950e-02 3.160713531542569399e-04 -4.510981217026710510e-02 -3.187881037592887878e-02 -2.742171473801136017e-02 -2.589937485754489899e-02 6.784590333700180054e-02 -1.644104719161987305e-02 1.945770680904388428e-01 1.877135224640369415e-02 -4.897621460258960724e-03 -1.256214827299118042e-01 -1.213648822158575058e-02 -5.649528466165065765e-04 8.769163489341735840e-02 -4.696898162364959717e-02 -1.567691415548324585e-01 1.025559976696968079e-01 4.245470091700553894e-02 8.124825358390808105e-02 9.566453285515308380e-03 6.056937202811241150e-02 9.111908264458179474e-03 1.031197085976600647e-01 -1.063267514109611511e-01 2.207072451710700989e-03 -2.298013679683208466e-02 -5.000034347176551819e-02 -3.707267343997955322e-02 5.675197392702102661e-02 -5.904196947813034058e-02 1.118987649679183960e-01 1.532693207263946533e-02 -4.437828809022903442e-02 -5.667521059513092041e-02 5.805797129869461060e-02 1.748090051114559174e-02 1.645352393388748169e-01 5.106756091117858887e-02 -6.636036187410354614e-02 -1.700065657496452332e-02 6.755265593528747559e-02 2.052041441202163696e-01 5.578420311212539673e-02 6.413692235946655273e-02 -8.654831349849700928e-02 -1.278796494007110596e-01 -4.434723034501075745e-02 3.437671437859535217e-02 9.074895083904266357e-02 1.208477765321731567e-01 -2.694370783865451813e-02 1.850421279668807983e-01 -5.849099159240722656e-02 -5.135985463857650757e-02 -1.148051247000694275e-01 2.202955447137355804e-02
3.752412647008895874e-02 5.580321326851844788e-02 1.910249143838882446e-02 7.050175219774246216e-02 -2.709247358143329620e-02 -1.812711823731660843e-03 1.801304705440998077e-02 -1.996393874287605286e-02 6.578026711940765381e-02 1.077583804726600647e-01 8.651612699031829834e-02 2.531274966895580292e-02 -5.330462008714675903e-02 -3.078589681535959244e-03 -1.213980689644813538e-01 -1.328387111425399780e-02 4.950575903058052063e-02 -7.844708114862442017e-02 1.142691224813461304e-01 -1.597769111394882202e-01 -5.755595862865447998e-02 -5.963348597288131714e-02 3.973123431205749512e-02 9.088154882192611694e-03 -4.806047771126031876e-03 -4.904421791434288025e-02 6.037719920277595520e-02 9.385941177606582642e-02 -2.919682674109935760e-02 1.432196348905563354e-01 4.677742347121238708e-02 -5.685706436634063721e-02 -1.154221445322036743e-01 1.366165839135646820e-02 4.811345785856246948e-02 5.336272343993186951e-02 3.321751020848751068e-03 5.739180371165275574e-02 3.971150144934654236e-02 4.823303897865116596e-04 -2.226658537983894348e-02 -2.011436736211180687e-03 3.032690845429897308e-02 1.142495125532150269e-01 6.754083931446075439e-02 8.536825329065322876e-02 -2.235854975879192352e-02 5.643345043063163757e-02 8.934453874826431274e-02 -1.652890071272850037e-02 -1.797353029251098633e-01 9.322097152471542358e-02 1.124890372157096863e-01 -4.720934107899665833e-02 -5.370946018956601620e-04 -5.046731233596801758e-02 -4.069368913769721985e-02 5.029989033937454224e-02 -1.026611775159835815e-02 6.138627976179122925e-02 6.998760998249053955e-02 -3.110945224761962891e-02 -4.212604090571403503e-02 -7.699473947286605835e-02 2.892748452723026276e-02 -4.098687320947647095e-02 3.727357462048530579e-02 -2.002134919166564941e-02 1.520129619166254997e-03 -1.503492593765258789e-01 1.701940968632698059e-02 9.912958741188049316e-02 -4.632319137454032898e-02 -9.820774197578430176e-02 9.164079278707504272e-02 1.519912183284759521e-01 -4.030878841876983643e-02 1.128096226602792740e-02 -1.210169941186904907e-01 -1.334670186042785645e-01 6.212084367871284485e-02 -4.786691814661026001e-02 2.348100766539573669e-02 8.644672110676765442e-03 -1.247681826353073120e-01 -1.953391358256340027e-03 4.306910559535026550e-02 -5.042605474591255188e-02 -8.406105637550354004e-02 1.979502849280834198e-02 -5.053639411926269531e-02 6.702478229999542236e-02 1.813594847917556763e-01 -1.337570883333683014e-02 -8.097747713327407837e-02 7.971864938735961914e-02 -2.112133987247943878e-02 -1.335435211658477783e-01 -6.088655814528465271e-02 1.398541964590549469e-02 -3.093064203858375549e-02 -2.545617055147886276e-03 3.988943248987197876e-02 2.364501170814037323e-02 5.211227014660835266e-02 -2.591600269079208374e-02 3.637218102812767029e-02 -5.304757133126258850e-02 -1.149137094616889954e-01 -2.327710948884487152e-02 -3.697533160448074341e-03 1.162121370434761047e-01 4.325836896896362305e-02 -2.324772812426090240e-02 -1.762153580784797668e-02 -5.441172420978546143e-02 1.119711324572563171e-01 2.192045934498310089e-02 5.616797134280204773e-02 -4.412691667675971985e-02 -1.619410216808319092e-01 -9.484742581844329834e-02 3.679480869323015213e-03 2.005968838930130005e-01 2.596831694245338440e-02 -2.269731163978576660e-01 -6.724064052104949951e-02 -2.105274796485900879e-01
3.153286874294281006e-02 -2.045037597417831421e-02 2.367259562015533447e-02 -1.078299339860677719e-02 4.972318932414054871e-02 1.481249276548624039e-02 1.518161967396736145e-03 4.701483994722366333e-03 4.456214141100645065e-03 -1.212682202458381653e-01 -2.357805706560611725e-02 -3.723507747054100037e-03 1.708849519491195679e-02 -5.506473034620285034e-02 1.597007364034652710e-02 -1.252156775444746017e-02 1.822050102055072784e-02 2.743433043360710144e-02 -6.213181093335151672e-02 -1.419446244835853577e-02 -4.493474215269088745e-02 1.803814992308616638e-02 1.235061511397361755e-02 -4.386162036098539829e-04 1.344846375286579132e-02 -4.077205434441566467e-03 -4.108585044741630554e-02 4.343054257333278656e-03 -3.661877010017633438e-03 -2.035670913755893707e-02 2.072893083095550537e-02 -4.035330936312675476e-02 5.838993005454540253e-03 -3.997110947966575623e-02 -4.494162276387214661e-02 2.019031532108783722e-02 -2.063498087227344513e-02 4.709599912166595459e-02 -1.187544222921133041e-02 -2.712286636233329773e-02 7.126920856535434723e-03 4.767005443572998047e-01 3.845033794641494751e-02 8.647470735013484955e-03 -7.905727252364158630e-03 -3.943003341555595398e-02 3.282610327005386353e-02 1.243896409869194031e-02 -5.792803596705198288e-03 -3.042501583695411682e-02 1.205264478921890259e-01 6.781846284866333008e-02 1.771184802055358887e-02 1.105187907814979553e-01 -1.128559559583663940e-02 -7.727430760860443115e-02 5.901623144745826721e-02 -2.097174152731895447e-02 -6.165088620036840439e-03 4.406149499118328094e-03 -2.524014189839363098e-02 6.361398845911026001e-02 -1.247923262417316437e-02 1.208348479121923447e-02 -3.673430532217025757e-02 -4.593477025628089905e-02 -6.330812722444534302e-02 -3.681671991944313049e-02 1.943917013704776764e-03 7.232154160737991333e-02 -1.700250059366226196e-02 -4.508246481418609619e-02 -1.813314855098724365e-02 -2.410561405122280121e-02 -5.124746635556221008e-02 6.414698809385299683e-02 1.041280198842287064e-02 2.870831824839115143e-02 -6.048174574971199036e-02 -4.658010601997375488e-02 1.875855959951877594e-02 -5.828834697604179382e-02 -4.005131497979164124e-02 -4.310751706361770630e-02 2.300419658422470093e-02 2.677766419947147369e-02 -2.906200941652059555e-03 4.722972959280014038e-02 -1.265575289726257324e-01 4.369081929326057434e-02 -5.943347141146659851e-02 -1.707495190203189850e-02 7.399839162826538086e-02 4.332290217280387878e-02 3.701001033186912537e-02 4.076803475618362427e-02 1.701271161437034607e-02 -5.824139341711997986e-03 -2.505040541291236877e-02 3.019685670733451843e-02 -3.200028091669082642e-02 4.334290325641632080e-02 -6.446417886763811111e-03 2.191919833421707153e-02 3.410135582089424133e-02 1.355061214417219162e-02 -1.802264153957366943e-02 5.828337371349334717e-02 -1.308206189423799515e-02 -3.163298219442367554e-02 -1.498556975275278091e-02 -8.156293630599975586e-01 3.917982429265975952e-02 -3.195039927959442139e-02 6.503850966691970825e-02 -2.423739992082118988e-02 3.320109844207763672e-02 1.579654752276837826e-03 2.782613597810268402e-02 1.214606501162052155e-02 -2.462312392890453339e-02 2.218256890773773193e-02 1.762372907251119614e-03 1.900021359324455261e-02 -1.473932340741157532e-02 6.638286262750625610e-02 -2.520600147545337677e-02 2.955886162817478180e-02
-1.245322730392217636e-02 -5.218801274895668030e-02 -4.492086172103881836e-02 8.739209175109863281e-02 1.287390850484371185e-02 -9.830902516841888428e-02 5.758982151746749878e-02 3.205274417996406555e-02 -4.393067210912704468e-02 -8.825232274830341339e-03 -9.554309770464897156e-03 -2.313093654811382294e-02 1.079831197857856750e-01 1.471173763275146484e-01 -4.555888473987579346e-02 7.764043286442756653e-03 3.987408056855201721e-02 -3.251164034008979797e-02 8.842123672366142273e-03 -1.327799409627914429e-01 -6.672427058219909668e-03 -6.418281048536300659e-02 -7.959800213575363159e-02 5.705250799655914307e-02 -5.790566094219684601e-03 5.059124901890754700e-02 -1.223338954150676727e-02 -1.378399729728698730e-01 -9.300756454467773438e-02 6.012878939509391785e-02 -3.671400994062423706e-02 1.915686577558517456e-02 7.284878939390182495e-02 -5.423407629132270813e-02 -6.199895869940519333e-03 -4.755335301160812378e-02 1.078002825379371643e-01 -3.793109208345413208e-02 4.273721575736999512e-02 -9.969027340412139893e-02 -2.470787987112998962e-02 -1.072139143943786621e-01 -1.879656910896301270e-01 7.798337191343307495e-02 -4.024605080485343933e-02 7.934246957302093506e-02 1.615218259394168854e-02 1.133484691381454468e-01 8.868362754583358765e-02 -1.380112487822771072e-02 8.431225083768367767e-03 -1.596316136419773102e-02 -3.441566973924636841e-02 1.063370108604431152e-01 -6.098060682415962219e-02 -3.088404610753059387e-02 3.941781353205442429e-03 -5.755554139614105225e-02 -4.313329234719276428e-03 9.136910736560821533e-02 4.796943441033363342e-02 -7.661549001932144165e-02 -2.873713523149490356e-02 1.389304995536804199e-01 4.712931066751480103e-02 3.055977635085582733e-02 -8.471496985293924809e-04 -8.255121111869812012e-02 -1.168118789792060852e-02 -1.463485062122344971e-01 1.460456401109695435e-01 -1.028589978814125061e-01 5.084925517439842224e-02 7.093951106071472168e-02 1.615518331527709961e-02 9.942844510078430176e-03 -3.756732493638992310e-02 1.068329736590385437e-01 -4.582529515027999878e-02 7.412596046924591064e-02 -4.878390952944755554e-02 -6.475201342254877090e-03 -5.877096951007843018e-02 -1.490185270085930824e-03 8.497576415538787842e-02 1.580949523486196995e-03 -4.029761534184217453e-03 -2.265108078718185425e-01 -8.348798006772994995e-02 5.911337211728096008e-02 1.035516262054443359e-01 -7.589497417211532593e-02 8.711627125740051270e-02 7.137186080217361450e-02 5.113065615296363831e-02 3.350646048784255981e-02 -8.820334821939468384e-02 -1.779539138078689575e-02 -4.283177480101585388e-02 -4.425770044326782227e-02 -1.258592121303081512e-02 -2.047711424529552460e-02 -1.903421431779861450e-02 -6.096252799034118652e-02 1.368942260742187500e-01 -1.805350482463836670e-01 1.136878058314323425e-01 -3.398895636200904846e-02 -9.270846843719482422e-02 1.585385575890541077e-02 -1.533726137131452560e-02 -1.940755248069763184e-01 -1.354345213621854782e-02 8.787816017866134644e-02 -5.124040853843325749e-07 -1.649139076471328735e-02 -4.823994636535644531e-02 -3.625882416963577271e-02 3.145382925868034363e-02 6.543869525194168091e-02 4.645075649023056030e-02 -3.775547444820404053e-02 1.202227398753166199e-01 1.357298996299505234e-02 -6.910945475101470947e-02 4.764599725604057312e-02 1.034952141344547272e-02 3.019286319613456726e-03
9.443846531212329865e-03 1.748639941215515137e-01 3.663405776023864746e-03 3.165210783481597900e-02 6.750009953975677490e-03 -6.932145450264215469e-03 -3.973951935768127441e-02 -2.236533351242542267e-02 -1.662718132138252258e-02 3.931605815887451172e-01 9.101472795009613037e-03 -8.191946148872375488e-02 1.383817642927169800e-01 -6.786649674177169800e-02 -1.054399237036705017e-01 6.271589547395706177e-02 -1.683336049318313599e-01 -1.125847827643156052e-02 -5.993062257766723633e-02 1.074762567877769470e-01 -7.743547111749649048e-02 -5.576136335730552673e-02 -7.895149290561676025e-02 -3.630608692765235901e-02 2.698462642729282379e-02 -6.146390363574028015e-02 -3.399645537137985229e-02 1.201321333646774292e-01 -9.560213983058929443e-02 7.109759002923965454e-02 -8.121307194232940674e-02 -2.581376396119594574e-02 -1.499590557068586349e-02 -4.700571671128273010e-02 7.723227143287658691e-02 5.972954910248517990e-03 1.042396202683448792e-01 -4.819833673536777496e-03 1.540055219084024429e-02 -1.621673069894313812e-02 3.708500787615776062e-02 2.462404221296310425e-01 -2.847104147076606750e-02 1.119886934757232666e-01 -5.798421055078506470e-02 7.954851724207401276e-03 -7.774769514799118042e-02 4.175492003560066223e-02 7.320822030305862427e-02 -1.321548223495483398e-01 1.150665134191513062e-01 -9.962700307369232178e-03 5.844139307737350464e-02 -2.058138847351074219e-01 1.820360682904720306e-02 -2.151164114475250244e-01 3.671509325504302979e-01 6.066920235753059387e-02 1.173602975904941559e-02 1.130567789077758789e-01 -1.724647544324398041e-02 1.296151876449584961e-01 7.511404342949390411e-03 -4.784516245126724243e-02 8.781667798757553101e-02 -1.332134753465652466e-01 2.350763650611042976e-03 -2.582020312547683716e-02 8.362476527690887451e-02 1.174183711409568787e-01 1.700000278651714325e-02 -1.040483824908733368e-02 6.707980763167142868e-03 9.286493808031082153e-02 3.866486623883247375e-02 6.628916412591934204e-02 -3.138651698827743530e-02 2.030144259333610535e-02 -3.773934394121170044e-02 -2.080795913934707642e-02 -9.381626546382904053e-02 -9.340973570942878723e-03 -2.161460183560848236e-02 1.648312248289585114e-02 -1.980232261121273041e-02 -3.039138205349445343e-02 -1.554900687187910080e-02 -2.947512865066528320e-01 1.273514479398727417e-01 4.040496051311492920e-02 5.922380834817886353e-02 -1.217526942491531372e-01 -8.299405127763748169e-02 -1.229458376765251160e-01 -5.669572949409484863e-02 -8.316984772682189941e-02 3.604685142636299133e-02 -6.803196668624877930e-02 -2.693756856024265289e-02 1.099727861583232880e-02 4.131340980529785156e-02 1.656000735238194466e-03 3.845653682947158813e-02 6.245713680982589722e-02 3.614629805088043213e-02 -2.394066378474235535e-02 3.946748375892639160e-02 -1.497479826211929321e-01 -9.286411851644515991e-02 -7.820191979408264160e-02 1.197962537407875061e-01 -5.171483159065246582e-01 -3.092993982136249542e-02 4.672235250473022461e-02 -2.217691577970981598e-02 8.185592293739318848e-02 -2.859765663743019104e-03 -4.284967854619026184e-02 4.522390663623809814e-02 -3.043988905847072601e-02 -9.453286975622177124e-02 -6.031170487403869629e-02 4.473811015486717224e-02 4.020034968852996826e-01 -3.231159970164299011e-02 -1.287685781717300415e-01 -2.933150157332420349e-02 -1.764456927776336670e-01
4.072197526693344116e-02 -2.793448045849800110e-02 -4.791888222098350525e-02 -4.842519760131835938e-02 -1.408037822693586349e-02 -4.170378670096397400e-02 1.050142124295234680e-01 -3.677064925432205200e-02 3.534856066107749939e-02 2.436809986829757690e-01 8.486096560955047607e-02 1.033378168940544128e-01 2.623689593747258186e-03 5.666811019182205200e-02 5.949026718735694885e-02 1.803914271295070648e-02 -7.228121161460876465e-03 4.044066742062568665e-02 -8.883957564830780029e-02 3.678601980209350586e-02 -6.446035206317901611e-02 -1.815011911094188690e-02 -2.600785531103610992e-02 -1.341880410909652710e-01 1.995809562504291534e-02 -7.956268265843391418e-03 1.313519384711980820e-02 -1.591904088854789734e-03 -1.324672400951385498e-01 1.384352892637252808e-02 -3.060748614370822906e-02 4.523535817861557007e-02 1.231879461556673050e-02 -5.287291482090950012e-03 5.017124116420745850e-02 1.107233017683029175e-01 1.992944255471229553e-02 -1.205203682184219360e-02 -6.976824253797531128e-02 -6.328102201223373413e-02 5.575006082653999329e-02 2.461934685707092285e-01 -1.424466222524642944e-01 3.219895809888839722e-02 -7.746147923171520233e-03 -1.115123089402914047e-02 -4.948962479829788208e-03 1.359643694013357162e-02 -7.493939250707626343e-02 7.931581139564514160e-02 -7.549922447651624680e-03 5.827943235635757446e-02 -6.016393005847930908e-02 1.529918909072875977e-01 -9.359613992273807526e-03 3.860348835587501526e-02 1.916255354881286621e-01 -2.816759608685970306e-02 -3.641430661082267761e-02 1.894031278789043427e-02 1.407434940338134766e-01 4.849407449364662170e-02 -9.013148397207260132e-02 -1.072605028748512268e-01 -2.015210688114166260e-01 -6.577877700328826904e-02 -1.508587226271629333e-02 1.941353827714920044e-02 -3.769119456410408020e-02 -3.152009844779968262e-02 -1.523015052080154419e-01 -4.208813607692718506e-02 -3.683820366859436035e-02 -1.071317568421363831e-01 -5.792023614048957825e-02 -1.097950860857963562e-01 -3.712184727191925049e-02 1.221463978290557861e-01 -1.054818034172058105e-01 1.245439890772104263e-02 8.422292768955230713e-03 5.693637952208518982e-02 7.056510448455810547e-02 9.604235738515853882e-02 -4.011053964495658875e-02 8.336402475833892822e-02 5.545154213905334473e-02 -4.064724966883659363e-02 1.052550897002220154e-01 8.476183563470840454e-02 -5.135735869407653809e-02 1.579173468053340912e-02 1.459367275238037109e-01 -5.334530770778656006e-02 -8.193045109510421753e-02 6.816229224205017090e-02 3.613326326012611389e-02 9.598933160305023193e-02 2.549553290009498596e-03 -6.915049999952316284e-02 -1.122569665312767029e-01 -6.006754189729690552e-02 4.419611301273107529e-03 1.323838159441947937e-02 2.662434242665767670e-02 -7.706876099109649658e-02 3.206637129187583923e-02 -9.592514485120773315e-02 1.474859714508056641e-01 1.262871176004409790e-01 1.085615456104278564e-01 -3.727857172489166260e-01 -1.510741002857685089e-02 -1.512450817972421646e-02 -1.228289604187011719e-01 1.571841537952423096e-01 9.684210270643234253e-02 7.784962654113769531e-02 2.948630601167678833e-02 9.087817370891571045e-02 2.768987906165421009e-04 -5.965833738446235657e-02 1.683790050446987152e-02 -1.609662920236587524e-01 3.671524580568075180e-03 -4.772850871086120605e-02 2.767927013337612152e-02 5.946204438805580139e-02
5.249379575252532959e-02 4.922609403729438782e-02 -5.427940189838409424e-02 4.461957514286041260e-02 -1.267433017492294312e-01 9.041955694556236267e-03 4.883707687258720398e-02 -4.134676605463027954e-02 1.410192251205444336e-01 7.621097564697265625e-02 1.139291748404502869e-01 -1.187236048281192780e-02 -2.812814526259899139e-02 -7.774320989847183228e-02 -6.052844598889350891e-02 3.417594358325004578e-02 3.899037837982177734e-02 -5.614975001662969589e-03 1.985680907964706421e-01 1.822674088180065155e-02 -4.131862893700599670e-03 4.829066991806030273e-02 1.467871479690074921e-02 1.218827962875366211e-01 -3.862393274903297424e-02 -8.081025630235671997e-02 -3.228338435292243958e-02 -7.530773873440921307e-04 -5.245012789964675903e-02 -1.519664227962493896e-01 2.698749117553234100e-02 2.387165091931819916e-03 2.253622002899646759e-02 6.818334758281707764e-02 1.446076389402151108e-02 1.524213701486587524e-03 -4.983939230442047119e-02 -3.363090381026268005e-02 5.671037733554840088e-02 -4.988386109471321106e-02 5.463605001568794250e-02 -1.868819594383239746e-01 -8.692080527544021606e-02 1.168283745646476746e-01 4.834030568599700928e-02 -2.831427147611975670e-03 9.043855965137481689e-02 -5.026393104344606400e-03 -2.759280242025852203e-02 -2.063757777214050293e-01 5.398666113615036011e-02 -5.302306264638900757e-02 3.879586607217788696e-02 -1.049341447651386261e-02 -1.597951538860797882e-02 3.193132206797599792e-02 1.166074275970458984e-01 -4.451203718781471252e-02 -4.418626800179481506e-02 1.921747475862503052e-01 6.255459040403366089e-03 8.260682225227355957e-02 -5.095938965678215027e-02 -2.388593740761280060e-02 -1.191948354244232178e-01 4.830957949161529541e-02 1.962336536962538958e-04 -6.361348927021026611e-02 1.357698440551757812e-02 1.101543232798576355e-01 5.151236057281494141e-02 3.579779714345932007e-02 -1.128639206290245056e-01 8.393308520317077637e-02 -1.148775443434715271e-01 8.106387406587600708e-02 -1.284587681293487549e-01 7.030922919511795044e-02 -4.977672174572944641e-02 -8.645016700029373169e-02 -2.845730632543563843e-02 -1.047256886959075928e-01 -1.313179265707731247e-02 2.007216401398181915e-02 7.443182170391082764e-02 4.190829396247863770e-02 -6.731560826301574707e-02 -1.055686250329017639e-01 -2.074894681572914124e-02 8.907121419906616211e-02 -4.287770763039588928e-02 -3.792607411742210388e-02 -6.643625348806381226e-02 4.617414250969886780e-02 6.061841486371122301e-05 6.939331442117691040e-02 -1.124932393431663513e-01 -1.996401697397232056e-02 -4.207484051585197449e-02 -6.903553009033203125e-02 -1.812466536648571491e-03 -7.626336812973022461e-02 4.597594588994979858e-02 6.979644298553466797e-02 -4.418016970157623291e-02 -4.463662207126617432e-02 -3.905439376831054688e-02 -2.074041217565536499e-01 -3.202999709174036980e-03 -1.453329250216484070e-02 6.202787533402442932e-02 3.826581239700317383e-01 9.292732924222946167e-02 -6.140908971428871155e-02 -5.491771548986434937e-02 -6.984864920377731323e-02 -7.186433672904968262e-02 -1.643932797014713287e-02 -3.090791963040828705e-02 -5.359951406717300415e-02 1.489778701215982437e-02 -4.174189642071723938e-02 5.923593416810035706e-02 1.284487992525100708e-01 -7.451828103512525558e-03 -1.286638230085372925e-01 -8.570216596126556396e-03 9.725887328386306763e-02
5.063898488879203796e-02 -9.890545159578323364e-02 3.124777926132082939e-03 7.222829014062881470e-02 1.416475474834442139e-01 2.005193196237087250e-02 -5.819398164749145508e-02 -5.164632573723793030e-03 2.369078807532787323e-02 2.406747825443744659e-02 -2.021858282387256622e-02 1.614949852228164673e-02 5.655801296234130859e-02 6.256195716559886932e-03 -8.500931411981582642e-02 5.832442641258239746e-02 -1.422974914312362671e-01 1.811426691710948944e-02 7.946112006902694702e-02 2.102956771850585938e-01 -8.703447878360748291e-02 -3.220164030790328979e-02 -4.708360135555267334e-02 -9.197951108217239380e-02 -5.541741475462913513e-02 -4.808731749653816223e-02 5.236289650201797485e-02 1.345233339816331863e-02 -5.719477310776710510e-02 -9.140530973672866821e-02 -1.086693629622459412e-01 -1.214082315564155579e-01 -6.267121434211730957e-02 1.486594527959823608e-01 -2.399511262774467468e-02 6.380675733089447021e-02 1.274607032537460327e-01 -1.656788401305675507e-02 4.186436906456947327e-02 2.466678433120250702e-02 -4.614046216011047363e-02 1.410388499498367310e-01 -1.663816869258880615e-01 8.000695705413818359e-02 2.674315683543682098e-02 5.217682570219039917e-02 1.416778005659580231e-02 -1.169536039233207703e-01 -1.376280635595321655e-01 -2.043758518993854523e-02 1.287364959716796875e-01 -4.801015835255384445e-03 6.643733382225036621e-02 5.558288842439651489e-02 -9.800041466951370239e-02 2.161124907433986664e-02 1.196542307734489441e-01 5.431431904435157776e-02 -4.449291154742240906e-02 1.662935502827167511e-02 -2.471319958567619324e-02 3.904584050178527832e-02 -1.084849089384078979e-01 -3.907433152198791504e-02 -8.762814849615097046e-02 -6.079135090112686157e-02 -7.015560567378997803e-02 -6.744801998138427734e-02 -3.786341100931167603e-02 -2.913502976298332214e-02 -1.411451846361160278e-01 3.886684030294418335e-02 -2.579384669661521912e-02 -7.158477604389190674e-02 7.636130601167678833e-02 1.410678029060363770e-01 2.935758791863918304e-02 1.468252688646316528e-01 1.120110414922237396e-02 5.929344519972801208e-02 1.363475024700164795e-01 -2.966492809355258942e-02 -1.639855504035949707e-01 3.615480288863182068e-02 -1.206696406006813049e-02 7.074403762817382812e-02 3.145133610814809799e-03 -2.794752456247806549e-02 1.657190322875976562e-01 -3.569887205958366394e-02 -9.886797517538070679e-03 -1.299648284912109375e-01 2.173739671707153320e-01 2.742640860378742218e-02 -2.073391154408454895e-02 -5.461818352341651917e-02 -4.645274020731449127e-03 7.680674083530902863e-03 8.813356608152389526e-02 1.112109497189521790e-01 1.018389016389846802e-01 -2.126286625862121582e-01 2.972039394080638885e-02 -9.965353645384311676e-03 -1.735098101198673248e-02 5.449571460485458374e-02 -4.861151799559593201e-02 4.326064512133598328e-02 -3.327427059412002563e-02 8.253056555986404419e-02 2.472035773098468781e-02 -3.211302757263183594e-01 2.285840362310409546e-02 1.634151637554168701e-01 -2.094367705285549164e-02 4.391375556588172913e-02 -3.810156881809234619e-02 -8.146711438894271851e-02 6.191473454236984253e-02 5.654978752136230469e-02 -3.601381927728652954e-02 -3.266248852014541626e-03 -5.516619607806205750e-02 -2.159558534622192383e-01 -2.606242708861827850e-02 -4.197337478399276733e-02 1.810954660177230835e-01 2.478400431573390961e-02
-7.554456591606140137e-02 7.471528649330139160e-02 -2.527023479342460632e-02 4.692376032471656799e-02 1.043437868356704712e-01 -3.498535975813865662e-02 -8.077494800090789795e-03 -7.249743491411209106e-02 1.076215878129005432e-03 6.224367767572402954e-03 5.507565289735794067e-02 2.289698272943496704e-02 -2.255548164248466492e-02 5.281202495098114014e-02 6.419606506824493408e-03 8.544588088989257812e-02 1.597530394792556763e-01 -4.395872354507446289e-02 4.565167240798473358e-03 1.016802191734313965e-01 -3.144172579050064087e-02 3.006257303059101105e-02 -6.096815317869186401e-02 -7.399552315473556519e-02 -7.126549631357192993e-02 -2.012820169329643250e-02 -1.034986153244972229e-01 3.987593203783035278e-02 -3.315813094377517700e-02 -9.436321258544921875e-02 -1.306821256875991821e-01 -1.916630566120147705e-01 1.165691763162612915e-01 5.297856777906417847e-02 2.660507522523403168e-02 -7.071565091609954834e-02 7.318428903818130493e-02 8.650063723325729370e-02 -1.019147187471389771e-01 -7.243695855140686035e-02 1.849389635026454926e-02 -2.471377253532409668e-01 -1.508648395538330078e-01 -7.553315162658691406e-02 1.823692000471055508e-03 1.941376551985740662e-02 3.881029784679412842e-02 1.316147744655609131e-01 -7.035896182060241699e-02 -1.465601474046707153e-01 1.948086358606815338e-02 1.317642331123352051e-01 5.407514050602912903e-02 -1.680599004030227661e-01 -1.618074253201484680e-02 5.752127151936292648e-03 -1.363142509944736958e-03 1.960333250463008881e-02 -2.583068050444126129e-02 -6.715407222509384155e-02 -2.856714464724063873e-02 -2.200759947299957275e-02 -2.626469545066356659e-02 -7.780878245830535889e-02 -8.712920360267162323e-03 6.376325339078903198e-02 7.101145386695861816e-02 6.723950058221817017e-02 -3.909567836672067642e-03 1.465296596288681030e-01 1.036048382520675659e-01 2.855204604566097260e-02 -9.403088688850402832e-02 -1.792218089103698730e-01 6.141554191708564758e-02 -8.777634054422378540e-02 -1.811269484460353851e-02 7.861699908971786499e-02 -1.375986039638519287e-01 2.963797189295291901e-02 1.980642974376678467e-02 -9.011843241751194000e-03 4.483073949813842773e-02 -1.690996810793876648e-02 -4.626130312681198120e-02 7.645235210657119751e-02 -6.307443976402282715e-02 5.208693817257881165e-02 1.624675095081329346e-01 9.138787863776087761e-04 -6.447162013500928879e-04 -1.710750721395015717e-02 1.457704156637191772e-01 -7.544685900211334229e-02 -3.259791433811187744e-02 -1.243138760328292847e-01 6.573150306940078735e-02 -1.060403734445571899e-01 4.968165606260299683e-02 -1.702787913382053375e-02 8.404496312141418457e-02 -8.389643579721450806e-02 -2.033782936632633209e-02 1.390964388847351074e-01 -1.258928626775741577e-01 -8.149600028991699219e-02 -8.746696636080741882e-03 -1.371459513902664185e-01 1.154107972979545593e-01 -4.275881871581077576e-02 2.466938458383083344e-02 2.932829856872558594e-01 8.469328284263610840e-02 -5.299908295273780823e-02 1.850402913987636566e-02 -7.527971174567937851e-03 -2.141135744750499725e-02 -1.625473797321319580e-02 1.916303858160972595e-02 9.603385627269744873e-02 4.592684283852577209e-02 5.498944083228707314e-04 -7.476396858692169189e-02 5.276117473840713501e-02 9.139177203178405762e-02 9.157222695648670197e-03 -7.377811707556247711e-03 3.270224109292030334e-02
2.618230413645505905e-03 -3.913889080286026001e-02 -3.949737548828125000e-02 -3.166492655873298645e-02 -2.191585954278707504e-03 -1.807785220444202423e-02 5.949323996901512146e-03 -2.811506763100624084e-02 -8.999499492347240448e-03 -1.188326105475425720e-01 5.068022757768630981e-02 5.530579388141632080e-02 1.107868254184722900e-01 -1.473200693726539612e-02 -2.815322764217853546e-02 -3.486651927232742310e-02 -3.366350382566452026e-02 -3.756159916520118713e-02 -2.860255353152751923e-02 -1.647512242197990417e-02 3.386764088645577431e-03 -3.169740550220012665e-03 -4.335802420973777771e-02 -1.237096614204347134e-03 7.041410572128370404e-05 -1.619526185095310211e-02 1.568868011236190796e-02 -2.635347470641136169e-02 1.601157593540847301e-03 5.056684464216232300e-02 -8.911233395338058472e-03 -7.617259025573730469e-02 1.308668032288551331e-02 -7.300584763288497925e-02 4.879768565297126770e-02 8.480818010866641998e-03 3.351954370737075806e-02 2.131358347833156586e-02 1.039238064549863338e-03 6.614577025175094604e-02 -4.898554179817438126e-03 -4.362140893936157227e-01 -1.572274975478649139e-02 5.295118689537048340e-02 -1.556097529828548431e-02 3.130695596337318420e-02 4.123120009899139404e-02 -1.699307933449745178e-02 6.568010151386260986e-02 4.418956581503152847e-03 -8.675644546747207642e-02 -5.152782890945672989e-03 -1.159746292978525162e-02 5.279992707073688507e-03 2.078695781528949738e-02 -3.626741096377372742e-02 2.554896660149097443e-02 -4.867838695645332336e-02 -8.088017813861370087e-03 -2.249902673065662384e-02 -2.927217818796634674e-02 2.783344872295856476e-02 -5.225441977381706238e-02 -2.443567663431167603e-02 -6.990978866815567017e-02 -3.960878401994705200e-02 2.069463580846786499e-02 9.361155098304152489e-04 5.278366804122924805e-02 3.654943406581878662e-02 -6.985569000244140625e-02 -1.264955382794141769e-02 -4.153111949563026428e-02 -9.473049081861972809e-03 -2.277806214988231659e-02 -1.574050262570381165e-02 1.082815695554018021e-02 6.244942080229520798e-03 -5.976505577564239502e-02 -3.759403526782989502e-02 -4.610336199402809143e-02 -5.901520140469074249e-03 4.165682569146156311e-02 -9.904428571462631226e-02 5.250946059823036194e-02 -6.092025339603424072e-02 -4.179120808839797974e-02 4.573021829128265381e-02 -9.788264334201812744e-02 2.959975413978099823e-02 -6.167422607541084290e-02 -2.722950093448162079e-02 4.399602115154266357e-02 -1.214844267815351486e-02 -4.969061538577079773e-02 3.776383399963378906e-02 5.537378601729869843e-03 1.811980828642845154e-02 -3.073639981448650360e-02 9.350891411304473877e-02 1.135252416133880615e-02 -1.245554070919752121e-02 -3.730674833059310913e-02 2.102707140147686005e-02 3.522538393735885620e-02 1.310132537037134171e-02 1.747176423668861389e-02 -6.843937095254659653e-03 1.626407913863658905e-02 8.638754487037658691e-03 1.491810102015733719e-02 9.096300601959228516e-01 5.283235386013984680e-02 -6.319922953844070435e-02 7.316688448190689087e-02 4.165800660848617554e-02 6.322143971920013428e-02 2.189451269805431366e-02 2.744343597441911697e-03 -4.036683961749076843e-02 -9.141019731760025024e-02 -1.778043620288372040e-02 -1.001164130866527557e-02 7.057162374258041382e-02 5.843070149421691895e-02 -6.580395251512527466e-02 -7.208292931318283081e-02 3.492727875709533691e-02
2.411589212715625763e-02 8.608861267566680908e-02 2.022959664463996887e-02 -2.823720872402191162e-02 9.808009862899780273e-02 -1.079612784087657928e-02 4.816104657948017120e-03 -4.585610702633857727e-02 2.921683527529239655e-02 -2.517245113849639893e-01 1.828305306844413280e-03 -6.792446970939636230e-02 1.221294477581977844e-01 -3.127499669790267944e-02 6.065629795193672180e-02 -1.492583192884922028e-02 6.418030709028244019e-02 -7.769379019737243652e-02 -4.535719752311706543e-02 -7.552299648523330688e-02 -3.569604456424713135e-02 3.713081032037734985e-02 1.701175570487976074e-01 -6.294951587915420532e-02 6.818537134677171707e-03 2.620446123182773590e-02 -5.655249953269958496e-02 7.311528176069259644e-02 -6.508260034024715424e-03 -1.150540709495544434e-01 1.168428361415863037e-02 -8.260971866548061371e-03 -3.377661108970642090e-02 -3.628592193126678467e-02 3.694610297679901123e-02 -9.458214975893497467e-03 -1.389495562762022018e-02 -6.006384734064340591e-03 8.985292911529541016e-02 -6.599518004804849625e-03 -1.216045860201120377e-02 2.275820523500442505e-01 6.338421255350112915e-03 -4.164046421647071838e-02 -1.312995515763759613e-02 -3.216735273599624634e-02 2.161814365535974503e-03 -1.473172754049301147e-01 1.906484179198741913e-02 3.892558068037033081e-02 -4.150857403874397278e-02 7.405737042427062988e-02 -1.509284693747758865e-02 1.159995645284652710e-01 -5.242181941866874695e-02 7.472345978021621704e-02 -2.257153205573558807e-02 -8.275739848613739014e-02 1.983519177883863449e-03 1.249408647418022156e-01 -4.825673997402191162e-02 4.161615297198295593e-02 6.089694425463676453e-02 -5.955591052770614624e-02 -1.529261171817779541e-01 -2.848688326776027679e-02 -5.740989744663238525e-02 -3.306461498141288757e-02 5.269394069910049438e-02 7.838495820760726929e-02 -4.720070585608482361e-02 7.296214252710342407e-02 2.388068661093711853e-02 3.203144762665033340e-03 8.008811622858047485e-02 -5.611634626984596252e-02 -1.100604683160781860e-01 -1.389389187097549438e-01 6.798785924911499023e-02 7.960851490497589111e-02 8.941045030951499939e-03 4.407446086406707764e-02 1.039724349975585938e-01 6.400293111801147461e-02 1.515459734946489334e-02 7.817763835191726685e-03 1.149069592356681824e-01 1.044048815965652466e-01 -1.145181953907012939e-01 -5.461717024445533752e-02 -1.026385053992271423e-01 -9.241136908531188965e-02 -8.841606229543685913e-02 8.562150411307811737e-03 -2.416809147689491510e-04 -9.307688102126121521e-03 3.468443453311920166e-02 -2.511341311037540436e-02 -4.682124033570289612e-02 -3.161241859197616577e-02 5.028248578310012817e-02 6.336204707622528076e-03 1.757148802280426025e-01 -1.492131594568490982e-02 1.532759983092546463e-03 -2.049259394407272339e-01 -5.010703206062316895e-02 -6.260722130537033081e-02 5.248857289552688599e-02 -7.314254343509674072e-02 -4.859496280550956726e-02 8.083605021238327026e-02 -1.971983350813388824e-02 6.941515486687421799e-03 5.367788672447204590e-02 1.193234845995903015e-01 -5.263618379831314087e-02 7.712921500205993652e-02 -5.758358165621757507e-02 -3.521814942359924316e-02 -7.047363906167447567e-04 -1.434723846614360809e-02 -6.322129815816879272e-02 -6.613583862781524658e-02 1.500424370169639587e-02 3.325707465410232544e-02 -8.221140503883361816e-02 -2.689723111689090729e-02
1.095243450254201889e-02 -6.803262233734130859e-02 1.091056317090988159e-02 -2.237089164555072784e-02 -1.105280667543411255e-01 -1.233913004398345947e-02 -6.936785578727722168e-02 2.112319506704807281e-02 -2.083639055490493774e-02 1.718004196882247925e-01 1.048619765788316727e-02 -9.533040225505828857e-03 2.526398561894893646e-02 -5.938581004738807678e-02 -2.035549283027648926e-02 -4.766094312071800232e-02 -7.278715819120407104e-02 -1.838613674044609070e-02 -6.191265955567359924e-02 -8.941086381673812866e-02 -2.370335347950458527e-02 -6.232575513422489166e-03 9.163199923932552338e-03 2.090074494481086731e-02 -3.812096314504742622e-03 -1.342783719301223755e-01 -2.100202441215515137e-02 3.454319015145301819e-02 3.518893569707870483e-02 1.454986725002527237e-02 1.043835654854774475e-01 -4.995160922408103943e-02 -1.019714623689651489e-01 -1.128092035651206970e-01 8.879505097866058350e-02 6.447216495871543884e-03 3.767720982432365417e-02 -5.783924832940101624e-02 -1.614567637443542480e-02 -2.792478166520595551e-02 2.186476625502109528e-02 -3.688505887985229492e-01 -5.004185065627098083e-02 -4.821484535932540894e-02 4.900614544749259949e-02 -3.645581007003784180e-02 -2.892434969544410706e-02 -6.237251684069633484e-03 -2.622263692319393158e-02 -1.434370577335357666e-01 -6.373088806867599487e-02 3.509858623147010803e-02 -1.808508671820163727e-02 -1.029654517769813538e-01 6.539259105920791626e-02 -5.277559161186218262e-02 1.276277285069227219e-02 -8.139213919639587402e-02 8.438280969858169556e-02 -7.212001085281372070e-02 -7.385680451989173889e-03 1.466321386396884918e-02 -3.017201460897922516e-02 2.409639209508895874e-02 -2.070039696991443634e-02 2.110446617007255554e-02 3.902806714177131653e-02 -8.271750062704086304e-02 -2.015306428074836731e-02 2.707504853606224060e-02 9.099768847227096558e-02 5.621473863720893860e-02 7.631053775548934937e-02 -7.751318812370300293e-02 3.572889789938926697e-02 7.712288200855255127e-02 3.334218636155128479e-02 8.770000189542770386e-03 -1.249136105179786682e-01 5.145702511072158813e-02 4.390189796686172485e-02 -5.240550264716148376e-02 -8.389034867286682129e-02 8.424086123704910278e-02 -1.616598293185234070e-02 8.534879982471466064e-02 -1.909134536981582642e-02 -1.309755742549896240e-01 -1.083668246865272522e-01 -4.397302865982055664e-02 -2.607479132711887360e-02 -9.337794780731201172e-02 -4.169083014130592346e-02 1.177612170577049255e-01 1.203569397330284119e-02 1.105096489191055298e-01 -2.759354189038276672e-02 -1.513472199440002441e-02 3.075578995048999786e-02 5.864580348134040833e-02 -5.304840207099914551e-02 -1.255460362881422043e-02 -1.760967308655381203e-03 5.614032596349716187e-02 -1.447331532835960388e-02 6.506701558828353882e-02 9.749482385814189911e-03 3.225348517298698425e-02 -3.141087293624877930e-02 7.020788639783859253e-02 -4.030589014291763306e-02 7.278207540512084961e-01 -8.393898606300354004e-02 9.075338393449783325e-02 2.380558848381042480e-02 2.101384475827217102e-02 -2.696357853710651398e-02 5.827478598803281784e-03 7.518263906240463257e-02 2.913055941462516785e-02 -1.373988561681471765e-05 1.524909283034503460e-03 4.980840161442756653e-02 -3.864317899569869041e-03 4.618513584136962891e-02 -5.718909204006195068e-02 -9.251551330089569092e-02 8.372463285923004150e-02
-5.623674765229225159e-02 7.534919679164886475e-02 -4.361342266201972961e-02 2.052697818726301193e-03 -4.434962570667266846e-02 1.259575784206390381e-02 -2.898595482110977173e-02 7.348868995904922485e-03 -6.520083546638488770e-02 -2.244460284709930420e-01 -7.614665478467941284e-02 1.638375073671340942e-01 2.510698325932025909e-02 -8.051556348800659180e-02 -2.149932319298386574e-03 2.732001058757305145e-02 -1.234517917037010193e-01 5.555974692106246948e-02 4.674559831619262695e-02 7.421191781759262085e-02 1.026740670204162598e-02 -5.847745016217231750e-02 4.626310244202613831e-02 -5.874110758304595947e-02 4.532937332987785339e-02 -5.505622178316116333e-02 3.187463060021400452e-02 4.836637526750564575e-02 -7.137790322303771973e-03 -4.693143069744110107e-02 -4.334299266338348389e-02 4.475782439112663269e-02 -7.977141439914703369e-02 1.081959530711174011e-01 8.811186999082565308e-02 -1.173414215445518494e-01 -4.566445946693420410e-02 1.586193442344665527e-01 -4.726995527744293213e-02 4.203075543045997620e-02 8.495247364044189453e-02 -5.316116809844970703e-01 -2.467874996364116669e-02 3.780281404033303261e-03 3.211179981008172035e-03 5.598556250333786011e-02 2.240529283881187439e-03 -2.600897848606109619e-02 -8.763545006513595581e-02 8.745231479406356812e-02 -1.200840771198272705e-01 4.475622996687889099e-02 4.358837008476257324e-02 8.327335119247436523e-02 3.429176285862922668e-02 -1.152076870203018188e-01 -1.569683402776718140e-01 5.719602108001708984e-02 5.782537045888602734e-04 1.000443566590547562e-02 -1.159419789910316467e-01 1.070470884442329407e-01 2.493068948388099670e-02 -9.225274622440338135e-02 4.100713878870010376e-03 -2.567636780440807343e-02 4.776331782341003418e-02 -2.930656820535659790e-02 3.819686546921730042e-02 2.322839945554733276e-02 1.281071454286575317e-02 4.744173213839530945e-02 4.230856150388717651e-02 4.591587185859680176e-02 -7.252043485641479492e-02 3.904081508517265320e-02 2.714169025421142578e-02 8.441960066556930542e-02 2.488420344889163971e-02 -1.356196310371160507e-02 -2.220042347908020020e-01 -9.698882699012756348e-02 -4.911500588059425354e-02 9.104738011956214905e-03 7.023964077234268188e-02 6.386851426213979721e-03 2.758010104298591614e-02 1.505322605371475220e-01 -8.199823647737503052e-02 1.046123448759317398e-02 3.346439078450202942e-02 2.102543599903583527e-02 3.310073167085647583e-02 -1.235923022031784058e-01 -1.208627820014953613e-01 6.060585379600524902e-03 -2.939078398048877716e-02 -3.850095719099044800e-02 7.189091760665178299e-03 -2.925060130655765533e-02 7.743417471647262573e-02 -4.459899291396141052e-02 -8.473712205886840820e-02 4.067428410053253174e-02 -2.203909680247306824e-03 3.434698795899748802e-03 -3.784574568271636963e-02 -5.138994753360748291e-02 5.748590826988220215e-02 -5.070482194423675537e-02 -7.009125500917434692e-02 9.481734633445739746e-01 -4.513682797551155090e-02 1.312382668256759644e-01 1.133092194795608521e-01 -2.223145402967929840e-02 5.459786579012870789e-02 9.855349548161029816e-03 6.330797821283340454e-02 -9.176340699195861816e-02 -3.556098043918609619e-02 5.485387519001960754e-02 1.202424336224794388e-02 -1.942302137613296509e-01 5.028209090232849121e-02 3.161181136965751648e-02 1.369377598166465759e-02 3.386620804667472839e-02
-5.725428462028503418e-02 8.673490583896636963e-02 1.368071511387825012e-02 6.245993822813034058e-02 2.886101044714450836e-02 -1.292516477406024933e-02 9.592127986252307892e-03 -4.332927614450454712e-02 -3.918984904885292053e-02 -2.060041278600692749e-01 8.943257480859756470e-02 1.428542006760835648e-02 4.082802683115005493e-02 -1.201821789145469666e-01 -5.949951335787773132e-02 1.924847625195980072e-02 1.673255488276481628e-02 -3.076196834444999695e-02 -1.562963239848613739e-02 8.104579895734786987e-02 -3.203834593296051025e-02 5.982481315732002258e-02 -3.512270376086235046e-02 2.339944243431091309e-02 -3.500103205442428589e-02 -4.264396429061889648e-02 -5.116993933916091919e-02 1.739209331572055817e-02 1.734924130141735077e-02 7.883192040026187897e-03 4.217712208628654480e-02 -6.489356607198715210e-02 5.781462043523788452e-02 1.050324738025665283e-01 -3.327583894133567810e-02 8.462910540401935577e-03 7.200330495834350586e-02 -9.775330126285552979e-02 9.859042242169380188e-03 -1.339132934808731079e-01 6.593289971351623535e-02 2.108193486928939819e-01 9.124355018138885498e-02 1.032501906156539917e-01 -3.152564167976379395e-02 -3.026152960956096649e-02 1.473678462207317352e-02 -7.554145157337188721e-02 -1.015563681721687317e-01 7.348386943340301514e-02 2.104679495096206665e-02 -5.438745021820068359e-02 3.028763830661773682e-02 2.593453601002693176e-02 1.009309366345405579e-01 4.544002190232276917e-02 -8.203038305509835482e-05 1.081816479563713074e-02 3.596608713269233704e-02 -8.399914950132369995e-02 8.599241822957992554e-02 6.370910257101058960e-02 -6.052541732788085938e-02 -1.330866478383541107e-02 -8.514770120382308960e-02 4.587636888027191162e-02 4.437189549207687378e-03 -8.679681457579135895e-03 -3.361210227012634277e-02 -2.690017595887184143e-02 -8.298351429402828217e-03 -5.508081242442131042e-02 -1.101608201861381531e-01 -5.713104829192161560e-02 -1.603169925510883331e-02 -2.707532420754432678e-02 7.813293486833572388e-02 2.208232320845127106e-02 9.382554329931735992e-03 1.341001037508249283e-02 -1.744896732270717621e-02 3.425708273425698280e-03 -2.403994277119636536e-02 9.857403486967086792e-02 4.166340082883834839e-02 -6.053389608860015869e-02 2.139944396913051605e-02 -5.698163807392120361e-02 1.301129758358001709e-01 1.583983153104782104e-01 -2.628951333463191986e-02 -2.546014823019504547e-02 2.206008508801460266e-02 2.075183577835559845e-02 -5.628247186541557312e-02 5.558113567531108856e-03 1.047632005065679550e-02 -6.155427172780036926e-02 1.014630869030952454e-01 -7.180123776197433472e-02 -1.426360756158828735e-02 -2.745322696864604950e-02 -9.766043722629547119e-02 1.835286431014537811e-02 1.075229956768453121e-03 1.220704913139343262e-01 -4.534582793712615967e-02 1.333512016572058201e-03 5.629690364003181458e-03 2.223866805434226990e-02 7.100579142570495605e-02 -5.147874355316162109e-01 4.809405654668807983e-02 1.837924718856811523e-01 1.961624715477228165e-03 -2.713680639863014221e-02 -1.180548220872879028e-01 -2.358048036694526672e-02 -6.213440746068954468e-02 6.332747638225555420e-02 -1.595336385071277618e-02 2.154418826103210449e-02 -1.353939622640609741e-02 -9.390828013420104980e-02 1.759426854550838470e-02 -7.836731523275375366e-02 1.994319409132003784e-01 -6.514791399240493774e-02
-1.074302867054939270e-01 9.422029368579387665e-03 -8.100095205008983612e-03 -1.494607143104076385e-02 -1.630075275897979736e-01 3.768575377762317657e-03 -7.048791646957397461e-02 -1.137601304799318314e-02 -4.005922377109527588e-02 -2.242936007678508759e-02 2.471899427473545074e-02 -3.378115221858024597e-02 -9.977366775274276733e-03 -1.342022716999053955e-01 6.853486411273479462e-04 8.110678941011428833e-02 -7.355506718158721924e-02 1.058663278818130493e-01 -1.070035696029663086e-01 -1.091590821743011475e-01 -2.707060799002647400e-02 -4.701322317123413086e-02 4.036646708846092224e-02 5.936801806092262268e-02 5.269431322813034058e-02 -5.672291386872529984e-03 -6.928370147943496704e-02 -4.751992970705032349e-02 -4.670731350779533386e-02 8.511464297771453857e-02 1.075682789087295532e-01 -2.745725214481353760e-02 -9.248365648090839386e-03 1.113994512706995010e-02 1.026433426886796951e-03 8.019367669476196170e-05 2.784768119454383850e-02 -1.917873173952102661e-01 9.016460739076137543e-03 1.251014024019241333e-01 4.597789421677589417e-02 1.995809525251388550e-01 -2.299356274306774139e-02 -7.472550123929977417e-02 6.837663240730762482e-04 -1.897776499390602112e-02 1.011820044368505478e-02 -9.387046447955071926e-04 1.020509898662567139e-01 4.290804266929626465e-02 -7.767257094383239746e-02 1.657998934388160706e-02 -4.343042150139808655e-03 6.649029999971389771e-02 7.999096997082233429e-03 1.067631021142005920e-01 -7.014954835176467896e-02 -9.077139943838119507e-02 -1.496510859578847885e-02 1.390627678483724594e-02 -6.175833567976951599e-02 2.477545291185379028e-02 3.639617934823036194e-02 -2.558420412242412567e-02 3.025730140507221222e-02 -4.942936077713966370e-02 -1.891116611659526825e-02 -3.060900047421455383e-02 -3.647161647677421570e-02 -1.020836457610130310e-01 6.974408030509948730e-02 4.092065244913101196e-02 -6.465348601341247559e-02 6.091043353080749512e-03 5.511355400085449219e-02 -1.948221027851104736e-02 2.031366080045700073e-01 -1.431384682655334473e-02 7.925033569335937500e-04 2.831424213945865631e-02 -2.374678477644920349e-02 -3.575289621949195862e-02 8.137938380241394043e-02 3.253787383437156677e-02 3.093612380325794220e-03 3.941909596323966980e-02 3.590077534317970276e-02 1.573197543621063232e-01 1.621001511812210083e-01 5.572897568345069885e-02 5.643526092171669006e-02 7.198910415172576904e-02 -4.262653365731239319e-02 5.577830970287322998e-02 -8.122849278151988983e-03 1.956175640225410461e-02 -8.337586373090744019e-02 -6.362859159708023071e-02 5.140661820769309998e-02 6.475741416215896606e-02 1.046609133481979370e-01 -5.000040400773286819e-03 1.037247031927108765e-01 4.439077153801918030e-02 1.378699541091918945e-01 2.245986089110374451e-02 7.677692919969558716e-02 3.679656982421875000e-02 -2.764620073139667511e-02 -5.514242500066757202e-02 -1.374136842787265778e-02 -3.236234784126281738e-01 1.281331628561019897e-01 -7.317956537008285522e-02 -8.810662664473056793e-03 -1.498072408139705658e-02 5.854865163564682007e-02 -1.024687886238098145e-01 4.596385359764099121e-02 -6.136642768979072571e-03 -1.299038231372833252e-01 3.945005685091018677e-02 1.502616051584482193e-02 1.031688647344708443e-03 2.766160480678081512e-02 3.942622244358062744e-02 -2.073334902524948120e-01 7.333739101886749268e-02
1.141130179166793823e-01 5.847024545073509216e-02 8.515788614749908447e-02 -3.009977564215660095e-02 -4.880646243691444397e-02 8.665621280670166016e-02 1.286437362432479858e-01 3.410052508115768433e-02 -7.368786726146936417e-03 4.609584808349609375e-02 4.043829068541526794e-02 -5.289759859442710876e-02 2.839479781687259674e-02 -3.465619683265686035e-02 -9.441238641738891602e-02 -1.297968812286853790e-02 3.191625326871871948e-02 1.415151916444301605e-02 -6.407915800809860229e-02 -1.025052145123481750e-01 9.961218573153018951e-03 -4.162119701504707336e-02 -1.675517298281192780e-02 5.056120082736015320e-02 6.856445223093032837e-02 1.650350168347358704e-02 -1.258215587586164474e-02 7.974086701869964600e-02 -6.634069979190826416e-02 -7.513607293367385864e-02 -3.140770271420478821e-02 -1.172674703411757946e-03 8.453685045242309570e-02 4.995955154299736023e-02 -4.276722669601440430e-03 3.987563028931617737e-02 5.587458983063697815e-02 1.355174649506807327e-02 1.967748813331127167e-02 -9.694829583168029785e-03 6.078618392348289490e-02 -4.584370851516723633e-01 -4.339518770575523376e-02 2.550538070499897003e-02 4.239950329065322876e-02 -4.923143982887268066e-02 -5.789245292544364929e-02 -4.975171759724617004e-02 1.237821727991104126e-01 -6.738876551389694214e-02 -1.242855638265609741e-01 -3.917466849088668823e-03 -1.072706095874309540e-02 -4.363701492547988892e-02 2.987670246511697769e-03 2.018759958446025848e-02 1.819168031215667725e-02 -2.156760357320308685e-02 -5.622284486889839172e-02 -6.017778441309928894e-02 -7.788884453475475311e-03 1.387029420584440231e-02 7.045560982078313828e-03 -6.398707628250122070e-02 -8.209066465497016907e-03 3.537438809871673584e-02 -3.374478220939636230e-02 -9.395692497491836548e-02 3.176660090684890747e-02 7.089904975146055222e-03 -1.744294352829456329e-02 2.155452221632003784e-02 1.507050730288028717e-02 9.456043690443038940e-02 -4.233720898628234863e-02 -5.031231790781021118e-02 7.730260491371154785e-02 2.110039070248603821e-02 7.037103176116943359e-02 -3.232818096876144409e-02 1.435980107635259628e-02 2.170749008655548096e-02 2.586225513368844986e-03 4.170725122094154358e-02 -6.583146005868911743e-02 1.090526953339576721e-02 3.062468580901622772e-02 -2.673945575952529907e-02 -1.110370755195617676e-01 1.219451650977134705e-01 5.478944629430770874e-03 -1.193920243531465530e-02 2.766613848507404327e-02 4.191673547029495239e-02 3.505446389317512512e-02 -7.359265536069869995e-02 8.835999667644500732e-02 6.420920789241790771e-02 -1.706355018541216850e-03 7.683511078357696533e-02 2.454176545143127441e-02 6.668975949287414551e-02 4.426411166787147522e-02 -3.872558474540710449e-02 4.511249437928199768e-02 -7.214777916669845581e-02 -5.711064115166664124e-02 2.075696364045143127e-02 -2.477480322122573853e-01 -5.212714523077011108e-02 -3.056926466524600983e-02 6.350157260894775391e-01 1.772430352866649628e-02 2.097985520958900452e-02 -8.290395140647888184e-02 -3.679843991994857788e-02 2.524673566222190857e-02 -6.415776163339614868e-02 7.673511747270822525e-03 -2.697555534541606903e-02 -7.075191289186477661e-02 -2.013703994452953339e-02 4.550219513475894928e-03 2.025131694972515106e-02 2.162968926131725311e-02 -6.742081046104431152e-02 -9.821081161499023438e-02 -8.166542276740074158e-03
-9.352205693721771240e-02 2.494390122592449188e-02 6.243200972676277161e-02 -2.474394626915454865e-02 -3.157296031713485718e-02 3.130412194877862930e-03 -6.045097485184669495e-03 -8.743604272603988647e-02 -8.166194707155227661e-02 1.734106987714767456e-01 -7.479382306337356567e-02 3.326436877250671387e-02 4.430751502513885498e-02 -1.274516433477401733e-01 1.896659098565578461e-02 5.348444357514381409e-02 3.442122787237167358e-02 -6.202838383615016937e-03 -6.814602017402648926e-02 1.881712814792990685e-03 1.153720170259475708e-01 -7.433684915304183960e-02 -3.487547487020492554e-02 8.265315741300582886e-02 -3.188966587185859680e-02 -2.110031200572848320e-03 1.608368754386901855e-02 -7.981523126363754272e-02 -9.479466825723648071e-02 1.329392008483409882e-02 4.200078174471855164e-02 5.982361733913421631e-03 3.025557473301887512e-02 -5.169634148478507996e-02 1.780889183282852173e-02 -1.931161992251873016e-02 -3.267511725425720215e-02 7.485968619585037231e-02 -5.963727459311485291e-02 -6.793648935854434967e-03 1.408725604414939880e-02 2.796946167945861816e-01 7.725515216588973999e-02 -9.081561863422393799e-02 -1.576521247625350952e-02 -1.193067710846662521e-02 2.419454045593738556e-02 -5.604289844632148743e-02 3.621423989534378052e-02 -1.687834560871124268e-01 -1.013136468827724457e-02 -7.948484271764755249e-02 -2.349223010241985321e-03 6.978823803365230560e-04 -1.507716178894042969e-01 5.502847954630851746e-02 7.075949013233184814e-02 -6.271928548812866211e-02 4.171149805188179016e-02 -6.476643681526184082e-02 -2.256388589739799500e-02 -4.070576280355453491e-02 6.519676744937896729e-02 1.146129705011844635e-02 7.280942797660827637e-02 1.724075824022293091e-01 -2.922574058175086975e-02 1.007409319281578064e-01 4.469317570328712463e-02 4.001381993293762207e-02 -9.666071832180023193e-02 2.434637211263179779e-02 -3.919944912195205688e-02 9.601683169603347778e-02 -2.353674545884132385e-02 8.982681483030319214e-02 5.425905808806419373e-02 7.971038669347763062e-02 6.762038916349411011e-02 1.311133950948715210e-01 2.205476863309741020e-03 6.641251593828201294e-02 -1.972057111561298370e-02 -1.174280568957328796e-01 -1.549344211816787720e-01 -2.744912169873714447e-02 -2.641786448657512665e-02 -1.469761431217193604e-01 3.514467924833297729e-02 -3.909619152545928955e-02 4.298649728298187256e-02 -1.879149861633777618e-02 3.816626220941543579e-02 9.570325911045074463e-02 -2.985971234738826752e-02 -1.021130383014678955e-01 -1.528374478220939636e-02 -4.530989378690719604e-02 -5.648566782474517822e-02 -7.221936434507369995e-02 6.639819592237472534e-02 1.450989767909049988e-02 1.195303574204444885e-01 6.054986268281936646e-02 2.773144980892539024e-03 7.099513709545135498e-02 1.073657944798469543e-01 7.853671908378601074e-03 -1.090446114540100098e-01 -5.610692501068115234e-02 1.318743377923965454e-01 -2.084409296512603760e-01 5.480171367526054382e-02 -7.828470319509506226e-02 6.138839945197105408e-02 1.401251181960105896e-02 5.527859181165695190e-02 -3.539856150746345520e-02 -1.213961746543645859e-02 4.461648873984813690e-03 1.584221720695495605e-01 3.573375940322875977e-02 8.078565448522567749e-02 -1.355789601802825928e-01 -3.845382854342460632e-02 -1.575117558240890503e-01 8.354406803846359253e-02 1.084695570170879364e-02
7.163004018366336823e-03 5.520046129822731018e-02 -4.028778988867998123e-03 -2.920369617640972137e-02 -9.312750399112701416e-02 -6.314146518707275391e-02 3.409935906529426575e-02 2.085612155497074127e-02 4.355225712060928345e-02 4.086603969335556030e-02 -1.049980744719505310e-01 7.676459103822708130e-02 1.123439706861972809e-02 9.463907219469547272e-03 1.622069254517555237e-02 -7.899323850870132446e-02 -6.419315189123153687e-02 -1.787053979933261871e-02 5.484962835907936096e-02 1.278915107250213623e-01 -3.325096797198057175e-03 1.909216516651213169e-03 -5.757801607251167297e-02 5.325069278478622437e-02 -1.701771654188632965e-02 -4.044665023684501648e-02 5.814570561051368713e-02 -1.827397942543029785e-02 1.582183837890625000e-01 -5.214613303542137146e-02 3.459227085113525391e-02 4.384617507457733154e-02 -1.096561178565025330e-02 -1.591651700437068939e-02 1.750496216118335724e-02 -4.018204286694526672e-03 -3.682859987020492554e-02 -2.018353156745433807e-02 1.648432761430740356e-02 6.518305093050003052e-02 1.506649330258369446e-02 4.155755341053009033e-01 3.850740566849708557e-02 5.113983526825904846e-02 2.484088391065597534e-02 -5.345531925559043884e-02 2.816908620297908783e-02 -2.650136128067970276e-02 1.134631893364712596e-04 -2.132173925638198853e-01 1.838756166398525238e-02 -3.847765922546386719e-02 1.879918016493320465e-02 6.376183032989501953e-02 8.148141950368881226e-02 -2.649394050240516663e-02 6.917387247085571289e-02 1.420497987419366837e-02 6.594376266002655029e-02 -9.476600587368011475e-02 -1.053017228841781616e-01 -5.987760052084922791e-02 -4.627108108252286911e-03 -3.060954436659812927e-02 1.728574745357036591e-02 -3.901517763733863831e-02 7.716969121247529984e-03 -4.420098289847373962e-02 1.661020069150254130e-04 -7.579757366329431534e-03 -3.747391048818826675e-03 8.539023995399475098e-02 5.601107701659202576e-02 6.562454253435134888e-02 1.114302128553390503e-02 -8.813790977001190186e-03 -5.980615038424730301e-03 -2.212603576481342316e-02 -1.669456623494625092e-02 -2.485450543463230133e-02 -7.163342088460922241e-02 -4.338280856609344482e-02 -1.596236042678356171e-02 -9.301059879362583160e-03 3.937990218400955200e-02 -6.846424657851457596e-03 -5.561943724751472473e-02 -8.424640446901321411e-02 1.361538767814636230e-01 9.102070704102516174e-03 5.607978999614715576e-02 5.925745654167258181e-07 9.909640997648239136e-02 -6.679032929241657257e-03 -3.647089935839176178e-03 -7.892667502164840698e-02 -2.241298183798789978e-02 1.867906004190444946e-02 1.031932607293128967e-02 -4.506691917777061462e-02 -2.240466699004173279e-02 1.100037097930908203e-01 -8.537343889474868774e-02 -2.080539241433143616e-02 -1.887049525976181030e-02 6.618221849203109741e-02 -9.780346415936946869e-03 -1.133585646748542786e-01 6.868030130863189697e-02 -6.116646528244018555e-02 -5.576419085264205933e-02 -8.405920267105102539e-01 3.771214280277490616e-03 4.744768887758255005e-02 -2.573657035827636719e-02 -2.219728194177150726e-02 -4.876116290688514709e-02 -3.970119636505842209e-03 3.391150012612342834e-02 4.283524584025144577e-03 4.081211611628532410e-02 -2.583647891879081726e-02 1.214477792382240295e-02 -3.511099144816398621e-02 -2.389004826545715332e-02 -3.018465451896190643e-02 6.469974666833877563e-02 7.464838773012161255e-02
2.256144024431705475e-02 8.314876258373260498e-02 -4.206417128443717957e-03 1.498561725020408630e-02 3.442153392825275660e-04 1.368006914854049683e-01 2.858313266187906265e-03 1.118606701493263245e-01 7.732183486223220825e-02 1.698114275932312012e-01 9.881997480988502502e-03 -1.108599267899990082e-02 1.012853235006332397e-01 -7.427407056093215942e-02 -7.490643858909606934e-02 -1.175021454691886902e-01 -1.858670823276042938e-02 -2.983781695365905762e-02 4.576940834522247314e-02 -6.722646951675415039e-02 -2.966009825468063354e-02 7.390536367893218994e-02 5.295259412378072739e-03 6.868757307529449463e-02 -2.821112051606178284e-02 3.764064610004425049e-02 6.846774369478225708e-03 3.320894390344619751e-02 7.502373307943344116e-02 8.163445442914962769e-02 -2.994693815708160400e-02 9.083232283592224121e-02 -5.877828225493431091e-02 -9.380013495683670044e-02 -3.062902949750423431e-02 4.020375013351440430e-02 -1.905963383615016937e-02 -3.986331820487976074e-02 -2.225144393742084503e-02 1.390670984983444214e-01 -3.548938035964965820e-02 -3.703637123107910156e-01 1.190614849328994751e-01 1.818271540105342865e-02 -6.859958916902542114e-02 -9.209915995597839355e-02 -1.285938452929258347e-02 1.731376908719539642e-02 2.929002046585083008e-03 -1.074576154351234436e-01 -1.273718625307083130e-01 -2.476815693080425262e-02 5.590538959950208664e-03 -1.704318672418594360e-01 -1.372270751744508743e-02 -2.857314981520175934e-02 6.338606774806976318e-02 7.465214282274246216e-02 6.846915185451507568e-02 8.416444808244705200e-02 5.850251298397779465e-03 3.890215605497360229e-02 -3.618547320365905762e-02 -4.344435036182403564e-02 1.468641031533479691e-02 -4.722604155540466309e-02 -9.028193540871143341e-03 -1.429070532321929932e-01 -3.801979869604110718e-02 -7.549253851175308228e-02 3.039900586009025574e-02 -5.269122775644063950e-03 7.429648190736770630e-02 -4.988502711057662964e-02 -4.973713681101799011e-02 -2.706854604184627533e-02 -6.013581878505647182e-04 -4.574418812990188599e-02 5.388583056628704071e-03 1.022830232977867126e-01 -6.887239217758178711e-02 -4.222144931554794312e-02 1.623163521289825439e-01 4.500606097280979156e-03 -1.878052763640880585e-02 -4.258121829479932785e-03 -1.293903030455112457e-02 -9.540715068578720093e-02 -9.734095633029937744e-02 1.442118436098098755e-01 -1.873364299535751343e-02 8.539275079965591431e-02 8.526973426342010498e-02 1.809701509773731232e-02 3.819862753152847290e-02 1.499722339212894440e-02 -1.324877589941024780e-01 7.774405926465988159e-02 -7.513483054935932159e-03 5.176976695656776428e-02 3.971163555979728699e-02 2.583723701536655426e-02 2.062327973544597626e-02 -4.483688250184059143e-02 2.991753257811069489e-02 -6.339791417121887207e-02 5.063042789697647095e-02 5.651530250906944275e-02 -7.947294414043426514e-02 1.030379906296730042e-01 -3.630347549915313721e-02 2.499515712261199951e-01 1.082317531108856201e-02 -3.848123922944068909e-02 4.139629006385803223e-02 1.951448433101177216e-02 -1.324705034494400024e-02 -2.655930072069168091e-02 -2.495508268475532532e-02 5.299283564090728760e-02 -3.286246582865715027e-02 -5.710254237055778503e-02 -2.376329153776168823e-02 1.395513713359832764e-01 -6.396056711673736572e-02 -8.941782265901565552e-02 -9.623069316148757935e-03 4.335827380418777466e-02
2.034007012844085693e-02 -2.044256217777729034e-02 7.532506715506315231e-03 -2.304579690098762512e-02 1.570916622877120972e-01 -3.163715824484825134e-02 1.716298423707485199e-02 8.708768337965011597e-02 3.032358549535274506e-02 -2.847092151641845703e-01 -5.425028968602418900e-03 -3.816596418619155884e-02 -6.708655506372451782e-02 -2.777441963553428650e-02 -2.601943677291274071e-03 2.532654441893100739e-02 -6.315337866544723511e-02 1.979939453303813934e-02 1.172703923657536507e-03 -8.475247025489807129e-02 8.937160670757293701e-02 3.450449928641319275e-02 -2.237667143344879150e-02 4.966863617300987244e-02 -5.182090029120445251e-02 1.528106257319450378e-02 -5.998714640736579895e-02 4.147766903042793274e-02 9.865412488579750061e-03 6.683170329779386520e-03 9.077990427613258362e-03 -5.129694566130638123e-02 -2.773589454591274261e-03 4.163506254553794861e-02 -1.284635509364306927e-03 6.360781937837600708e-02 1.166275292634963989e-01 -2.650128118693828583e-02 -1.081405282020568848e-01 5.448910966515541077e-02 -2.401424571871757507e-02 1.775833666324615479e-01 -2.066392265260219574e-02 -2.774694748222827911e-02 3.005847102031111717e-03 2.016340295085683465e-05 4.118628427386283875e-02 5.207743495702743530e-03 -9.831034392118453979e-02 2.746370434761047363e-01 -9.598389267921447754e-02 -1.995059475302696228e-02 3.344228491187095642e-02 1.771286576986312866e-01 1.003410816192626953e-01 -9.239666908979415894e-02 -1.906512826681137085e-01 -4.022629931569099426e-02 -2.818156033754348755e-02 -2.707550302147865295e-02 5.525751784443855286e-02 4.421121254563331604e-02 5.990250036120414734e-02 2.750196456909179688e-01 5.956270918250083923e-02 1.904718391597270966e-02 3.670640289783477783e-02 -5.642353370785713196e-02 -6.843405310064554214e-03 9.141726419329643250e-03 -5.228713899850845337e-02 -3.489591181278228760e-02 -2.983538247644901276e-02 -9.464436024427413940e-02 -2.267442084848880768e-02 -2.049206197261810303e-02 -1.792224943637847900e-01 -2.961903251707553864e-02 3.655444085597991943e-02 -3.731155768036842346e-02 -4.805365577340126038e-02 -6.132025644183158875e-02 -2.957916259765625000e-02 8.672592788934707642e-02 -3.911512345075607300e-02 -2.119427360594272614e-02 -6.651629507541656494e-02 4.632193446159362793e-01 1.736608743667602539e-01 -1.695577520877122879e-03 8.266125619411468506e-02 -7.859634608030319214e-02 -1.542369723320007324e-01 6.908354908227920532e-02 -3.662566840648651123e-02 -4.472128301858901978e-02 -3.873504325747489929e-02 -5.821948125958442688e-02 -5.775863677263259888e-02 -9.674455970525741577e-03 5.893405526876449585e-03 -8.085475862026214600e-02 2.903825603425502777e-02 2.270657755434513092e-02 -8.990105241537094116e-02 4.238148033618927002e-02 3.621889278292655945e-02 -6.843390874564647675e-03 1.122147068381309509e-01 -1.021874994039535522e-01 -1.997540146112442017e-02 8.965888619422912598e-02 1.245519518852233887e-01 -3.956959769129753113e-02 -2.198658324778079987e-02 -6.648094952106475830e-02 7.370416074991226196e-02 -1.473501622676849365e-01 4.979134723544120789e-02 -6.437136977910995483e-02 1.660472154617309570e-02 2.776350826025009155e-02 5.693221464753150940e-03 -4.076265394687652588e-01 6.511743180453777313e-03 2.416030168533325195e-01 8.343568444252014160e-02 9.225577116012573242e-02
7.787795364856719971e-02 -7.686875760555267334e-02 7.761894911527633667e-02 3.986346349120140076e-02 7.717674598097801208e-03 -3.833832591772079468e-02 5.923777073621749878e-02 -4.759187251329421997e-02 -2.781662158668041229e-02 -2.225013822317123413e-02 -5.799947306513786316e-03 -5.297219846397638321e-03 1.373296696692705154e-02 -1.050961092114448547e-01 1.690576523542404175e-01 9.973775595426559448e-02 9.885513782501220703e-02 -3.173058107495307922e-02 -1.363970525562763214e-02 -7.642801851034164429e-02 -4.716996476054191589e-02 -9.148234128952026367e-02 1.607110053300857544e-01 2.065631933510303497e-02 -8.769323676824569702e-02 5.585072562098503113e-02 1.055526658892631531e-01 -1.659041084349155426e-02 6.289900094270706177e-02 5.278949812054634094e-02 3.941291198134422302e-02 -1.181111559271812439e-01 -4.988420754671096802e-02 8.851937204599380493e-02 -1.473653689026832581e-02 -6.545361876487731934e-02 -1.602376699447631836e-01 -6.278064846992492676e-02 -1.617132499814033508e-02 2.178356982767581940e-02 -3.650411963462829590e-02 -3.229266107082366943e-01 -9.819431602954864502e-02 -5.415101349353790283e-02 -1.013134345412254333e-01 8.735085837543010712e-03 1.187115013599395752e-01 1.070141699165105820e-02 -1.044011712074279785e-01 4.121529310941696167e-02 -8.355675637722015381e-02 -5.891103297472000122e-02 -1.813505589962005615e-02 2.323142066597938538e-02 -1.145709380507469177e-01 -6.139833480119705200e-03 -1.676159799098968506e-01 -6.353278458118438721e-02 -5.010876059532165527e-02 7.723042368888854980e-02 5.162139609456062317e-02 8.460310101509094238e-02 -1.308233942836523056e-02 1.129162609577178955e-01 1.213681101799011230e-01 9.579787962138652802e-03 -7.580488920211791992e-02 3.532978706061840057e-03 6.943310052156448364e-02 -1.832279115915298462e-01 -1.686687767505645752e-01 -9.357205778360366821e-02 -3.738178312778472900e-02 1.314855925738811493e-02 3.434751182794570923e-02 -9.572287648916244507e-02 -1.618138328194618225e-02 6.196602806448936462e-02 9.406728297472000122e-02 -1.808956824243068695e-02 8.088593930006027222e-02 -1.801171340048313141e-02 6.427681446075439453e-02 1.578377634286880493e-01 -8.735199272632598877e-02 1.133086159825325012e-01 3.620581328868865967e-02 -7.601086795330047607e-02 -1.597475409507751465e-01 2.497886568307876587e-01 4.680808633565902710e-02 -1.389924064278602600e-02 -1.312270164489746094e-01 4.464876651763916016e-02 1.242172066122293472e-02 -7.678551971912384033e-02 2.193109318614006042e-02 -3.156101956847123802e-05 1.156140351668000221e-03 1.176373511552810669e-01 1.337490975856781006e-01 -5.552833154797554016e-02 -6.527204066514968872e-02 5.297771468758583069e-02 7.272426038980484009e-02 -9.472294896841049194e-02 -1.699630022048950195e-01 4.243098199367523193e-02 -5.928002647124230862e-04 -1.317017972469329834e-01 4.745246469974517822e-02 -1.897392272949218750e-01 -6.145563721656799316e-02 1.015136614441871643e-01 5.051745101809501648e-02 -8.326324075460433960e-02 -6.164872553199529648e-03 2.230441197752952576e-02 -1.848204806447029114e-02 1.770416051149368286e-01 -2.030275203287601471e-02 1.523577272891998291e-01 1.051834151148796082e-01 9.670070558786392212e-02 -1.109839156270027161e-01 1.922256499528884888e-01 -3.259522095322608948e-02 1.123642474412918091e-01
1.286626514047384262e-02 -6.447198987007141113e-02 -8.811477571725845337e-03 -2.001923136413097382e-02 -2.003416605293750763e-02 -8.199983090162277222e-02 -6.585405766963958740e-02 -5.120435357093811035e-02 3.965393453836441040e-02 -6.182409822940826416e-02 2.684828639030456543e-02 6.453612446784973145e-02 1.039723008871078491e-01 1.655656695365905762e-01 7.833525538444519043e-02 -7.718352973461151123e-02 3.926723077893257141e-02 -5.190504342317581177e-02 -1.048028394579887390e-01 -2.869991958141326904e-02 -6.886202096939086914e-02 -9.698973968625068665e-03 7.683151215314865112e-02 6.795370578765869141e-02 6.730330735445022583e-02 -3.334090113639831543e-02 -2.124513871967792511e-02 -2.336315624415874481e-02 1.144712045788764954e-01 2.067324519157409668e-01 -2.596911508589982986e-03 5.899539217352867126e-03 -8.149456116370856762e-04 -1.204129960387945175e-02 -8.592696487903594971e-02 -9.265527874231338501e-02 1.353203207254409790e-01 1.560305897146463394e-02 5.353765562176704407e-02 -1.170031651854515076e-01 8.336723595857620239e-02 -3.076113164424896240e-01 3.404223918914794922e-02 -2.950060926377773285e-02 8.880618959665298462e-02 -3.519543260335922241e-02 -7.078669499605894089e-03 -7.441154122352600098e-02 1.031500622630119324e-01 -9.203220158815383911e-02 -7.830525748431682587e-03 -5.046739429235458374e-02 -5.372543353587388992e-03 5.423762649297714233e-02 -1.023617386817932129e-02 -6.871619820594787598e-02 -7.066518813371658325e-02 9.467379748821258545e-02 7.750332355499267578e-02 2.956915274262428284e-02 1.699288040399551392e-01 -8.136376738548278809e-02 -4.167931526899337769e-02 4.157050512731075287e-03 1.307839602231979370e-01 -1.519370079040527344e-01 -3.738348186016082764e-02 1.309781521558761597e-01 -3.755306452512741089e-02 8.074868470430374146e-02 -6.638820469379425049e-02 1.891881227493286133e-02 -2.165592834353446960e-02 -3.800403326749801636e-02 -9.649192797951400280e-04 1.021780595183372498e-01 2.522189356386661530e-02 4.668403789401054382e-02 -1.278819050639867783e-02 1.877346821129322052e-02 -4.372628778219223022e-02 -4.157783463597297668e-02 7.765858620405197144e-02 8.745705708861351013e-03 -2.898404560983181000e-02 3.306747972965240479e-02 2.483025193214416504e-03 1.844482719898223877e-01 -1.838970743119716644e-02 1.703941449522972107e-02 -2.087675966322422028e-02 6.697635352611541748e-02 -2.462060451507568359e-01 3.157014399766921997e-02 1.378453103825449944e-03 -2.147597819566726685e-01 -1.098541840910911560e-01 9.936034679412841797e-03 8.517267182469367981e-03 6.035319343209266663e-02 -4.484175518155097961e-02 -6.404881924390792847e-02 4.374621063470840454e-02 3.722486272454261780e-02 6.939207017421722412e-02 2.503289468586444855e-02 -2.583702094852924347e-02 8.923089504241943359e-02 1.297853887081146240e-02 -4.711312358267605305e-04 2.213720418512821198e-02 2.128796577453613281e-01 1.164163649082183838e-01 2.489311620593070984e-03 1.689874082803726196e-01 -9.651555120944976807e-02 6.888671964406967163e-02 7.178165763616561890e-02 2.857121080160140991e-02 -2.965551428496837616e-02 -7.246005535125732422e-02 3.902901336550712585e-02 -1.148284040391445160e-02 -1.550812721252441406e-01 -9.299850091338157654e-03 1.238195747137069702e-01 -3.809383884072303772e-02 -1.556825190782546997e-01
8.589465171098709106e-02 9.876833856105804443e-02 -6.752522289752960205e-02 4.812251403927803040e-02 -5.231114849448204041e-02 -5.077133327722549438e-02 7.644984126091003418e-02 5.284005030989646912e-02 6.185519695281982422e-02 1.613547503948211670e-01 -3.477787598967552185e-02 -1.549096871167421341e-02 1.050947513431310654e-02 7.324181497097015381e-02 2.532972395420074463e-02 2.237392961978912354e-02 1.432509254664182663e-02 6.347172707319259644e-02 -1.859005391597747803e-01 -7.076133787631988525e-02 7.172395288944244385e-02 7.928968966007232666e-02 -9.837567340582609177e-04 -4.781580716371536255e-02 5.969943851232528687e-02 4.616841301321983337e-02 -3.206996992230415344e-02 2.018174901604652405e-02 -6.802055984735488892e-02 3.268731757998466492e-03 1.662144809961318970e-01 2.786195464432239532e-02 -4.690141975879669189e-02 1.115071028470993042e-01 4.015235230326652527e-02 -5.613941699266433716e-03 -3.272467479109764099e-02 -2.408226951956748962e-02 2.347221523523330688e-01 1.158615127205848694e-01 -3.923669829964637756e-02 5.667539313435554504e-02 -1.162333562970161438e-01 -2.113654837012290955e-02 3.047361783683300018e-02 1.304136589169502258e-02 2.813610807061195374e-02 -8.642285317182540894e-02 -1.434128358960151672e-02 -5.133619904518127441e-02 1.964438706636428833e-01 -1.318451315164566040e-01 4.748386144638061523e-02 -1.933251023292541504e-01 4.662165418267250061e-02 3.438593819737434387e-02 7.611099630594253540e-02 -5.006038025021553040e-02 -4.704604670405387878e-02 -2.572791576385498047e-01 -7.030089944601058960e-02 -7.414513826370239258e-02 5.638039112091064453e-02 1.383100450038909912e-02 -4.478072747588157654e-02 -8.446931838989257812e-03 3.317736461758613586e-02 -1.906113177537918091e-01 -4.515304043889045715e-02 2.598626352846622467e-02 2.031365409493446350e-02 6.375615950673818588e-03 -3.016639873385429382e-02 8.307090401649475098e-02 5.077219754457473755e-02 -6.860210746526718140e-02 -8.489855378866195679e-02 -5.139518529176712036e-02 1.301913242787122726e-02 -9.493745863437652588e-03 5.373298749327659607e-02 2.684512361884117126e-02 5.551688000559806824e-02 -2.841901965439319611e-02 3.509896993637084961e-02 -1.074874550104141235e-01 7.876875251531600952e-02 -2.232704758644104004e-01 1.002000123262405396e-01 1.521029919385910034e-01 -6.302853673696517944e-02 -4.436923190951347351e-02 4.909391328692436218e-02 -1.316290795803070068e-01 3.976661711931228638e-03 1.816641539335250854e-01 -5.796106904745101929e-02 -1.329418830573558807e-02 4.531076550483703613e-02 -1.972316354513168335e-01 4.024296998977661133e-02 -1.961660012602806091e-02 1.509236823767423630e-02 -8.921035565435886383e-03 -1.207120530307292938e-02 1.670362353324890137e-01 -1.814726274460554123e-04 -7.955338805913925171e-02 6.261174567043781281e-03 2.792662568390369415e-02 -1.001107841730117798e-01 -3.491996554657816887e-03 2.927540242671966553e-02 -6.705366820096969604e-02 -2.268682420253753662e-02 -5.620992556214332581e-02 9.889679402112960815e-02 2.653722092509269714e-02 -4.652145877480506897e-02 -9.618868678808212280e-02 1.362371295690536499e-01 -5.250544846057891846e-02 -1.032631471753120422e-01 2.033632099628448486e-01 8.354011923074722290e-03 -1.057026609778404236e-01 -2.414272725582122803e-01 -1.370614487677812576e-02
-1.131074409931898117e-02 5.768826603889465332e-02 1.782743260264396667e-02 -1.287352107465267181e-02 -4.930100962519645691e-02 2.485254406929016113e-02 -1.190193276852369308e-02 -2.329065231606364250e-03 -1.011352986097335815e-02 1.839975267648696899e-02 7.754430919885635376e-02 5.536767467856407166e-02 5.077560432255268097e-03 -6.305916607379913330e-02 -2.781482972204685211e-02 -3.788540884852409363e-02 -4.720155894756317139e-02 -1.120537817478179932e-01 -4.316385835409164429e-03 4.100895673036575317e-02 5.113669484853744507e-02 3.521240130066871643e-02 8.863320946693420410e-02 -9.494634345173835754e-03 -7.872200571000576019e-03 6.913066841661930084e-03 -1.646618545055389404e-02 4.003224894404411316e-02 9.315460920333862305e-02 4.807250574231147766e-02 -6.126310303807258606e-02 -5.019476264715194702e-02 -6.035295128822326660e-02 3.240367025136947632e-02 -1.935549080371856689e-02 -1.038001701235771179e-01 2.363694831728935242e-02 5.285955965518951416e-02 6.836510449647903442e-02 -4.563335329294204712e-03 -2.581783942878246307e-02 4.918600320816040039e-01 -7.037826627492904663e-02 -1.047404017299413681e-02 3.588152676820755005e-02 -5.016570910811424255e-02 1.493171695619821548e-02 -4.888753592967987061e-02 -7.452847808599472046e-02 -1.009528562426567078e-01 4.132217541337013245e-02 -5.734343826770782471e-02 -2.076860889792442322e-02 5.125441402196884155e-02 1.673431135714054108e-02 1.687902398407459259e-02 2.141410298645496368e-02 -1.998971030116081238e-02 -1.920313388109207153e-02 -1.362976850941777229e-03 -8.374880999326705933e-02 -5.947198718786239624e-03 1.492146681994199753e-02 3.758712857961654663e-02 1.243514660745859146e-02 7.256941497325897217e-02 -4.676105920225381851e-03 -4.026731103658676147e-02 -9.889465756714344025e-03 -6.946871429681777954e-02 7.941634207963943481e-02 -2.530636265873908997e-02 1.019488722085952759e-01 1.800362952053546906e-02 -8.075959235429763794e-02 -1.042346283793449402e-01 4.983985330909490585e-03 4.479100555181503296e-02 3.522387938573956490e-03 2.433524467051029205e-02 -3.548063710331916809e-02 3.075477480888366699e-02 2.706573531031608582e-02 -1.050095539540052414e-02 -2.125132828950881958e-02 -3.270083293318748474e-02 3.629632294178009033e-02 -6.766716390848159790e-02 1.513297110795974731e-01 -9.863664954900741577e-02 -9.659780189394950867e-03 5.392859131097793579e-02 1.020126510411500931e-02 -6.841554492712020874e-02 -1.461015082895755768e-02 -3.254149481654167175e-02 2.892804145812988281e-02 2.419817820191383362e-02 -3.455129638314247131e-02 7.575772702693939209e-02 5.245327483862638474e-03 -1.278545986860990524e-02 1.091885864734649658e-01 1.401120144873857498e-02 -1.001077294349670410e-01 -7.908117957413196564e-03 2.218800596892833710e-03 7.890012115240097046e-02 -1.264146715402603149e-02 -1.486298814415931702e-02 8.108616620302200317e-02 -6.937795281410217285e-01 -8.278768509626388550e-02 6.258256733417510986e-02 -5.742922890931367874e-03 -4.424130916595458984e-02 1.106107756495475769e-01 -7.843989878892898560e-02 -8.056995272636413574e-02 -5.947059765458106995e-02 1.892822422087192535e-02 5.336808785796165466e-02 -5.377916246652603149e-02 1.042497009038925171e-01 5.356379225850105286e-02 1.453270949423313141e-02 9.230050491169095039e-04 1.172389611601829529e-01
