2.269744873046875000e-02 6.554686278104782104e-02 7.210233062505722046e-02 1.085036173462867737e-01 7.291751913726329803e-03 1.369221787899732590e-02 2.815292403101921082e-02 -1.252167075872421265e-01 -1.109857484698295593e-02 3.942512348294258118e-02 -7.315301150083541870e-02 5.754282698035240173e-02 1.352605521678924561e-01 4.740097746253013611e-02 1.501360237598419189e-01 -1.126409322023391724e-01 -5.275401752442121506e-03 2.623851001262664795e-01 7.460188586264848709e-03 -8.695811033248901367e-02 -1.183290034532546997e-01 -4.955600202083587646e-02 -8.269248157739639282e-02 -3.045416772365570068e-01 -2.217065393924713135e-01 1.916464045643806458e-02 -4.233876615762710571e-02 -8.205456286668777466e-02 7.668492849916219711e-03 1.334831863641738892e-01 -2.880027890205383301e-01 -1.999692022800445557e-01 -2.141863852739334106e-01 -1.531762629747390747e-01 3.970932587981224060e-02 -1.910889595746994019e-01 -1.540761590003967285e-01 4.039796888828277588e-01 1.671974081546068192e-03 1.007839217782020569e-01 4.882819354534149170e-01 9.191673249006271362e-02 5.747985094785690308e-02 -1.066181957721710205e-01 -2.212199419736862183e-01 1.145949736237525940e-01 -8.854892849922180176e-02 -6.924672424793243408e-02 -1.251235157251358032e-01 -9.076132555492222309e-04 -1.578174345195293427e-02 -2.320947647094726562e-01 -1.825544387102127075e-01 4.582322016358375549e-02 -1.154993195086717606e-03 -1.836349219083786011e-01 2.941405400633811951e-02 -5.489409714937210083e-02 -8.688771724700927734e-02 -1.283597350120544434e-01 1.711585372686386108e-01 1.073202863335609436e-01 3.765899240970611572e-01 -1.259137690067291260e-01 1.443720757961273193e-01 1.922982484102249146e-01 5.933869630098342896e-02 -5.111234635114669800e-02 -7.055689394474029541e-02 -5.363575369119644165e-02 -9.204649925231933594e-02 -1.030685231089591980e-01 9.636738151311874390e-02 1.393656730651855469e-01 -2.118602097034454346e-01 2.613145411014556885e-01 -1.823514252901077271e-01 5.307663977146148682e-02 5.117283388972282410e-02 2.015703916549682617e-01 2.385283112525939941e-01 3.504099696874618530e-02 -1.463417559862136841e-01 -1.760814487934112549e-01 1.355984956026077271e-01 2.086585201323032379e-02 1.325569599866867065e-01 -3.935236856341362000e-02 -3.743118420243263245e-02 2.098964452743530273e-01 -1.515826880931854248e-01 2.581026256084442139e-01 -5.924633704125881195e-03 -8.050952851772308350e-02 1.820010989904403687e-01 1.142854914069175720e-01 1.258302927017211914e-01 3.040063679218292236e-01 8.730603754520416260e-02 -7.612188905477523804e-02 -1.168190762400627136e-01 9.558971971273422241e-02 -1.307522356510162354e-01 -1.537540555000305176e-01 4.894062578678131104e-01 8.074290119111537933e-03 3.483859822154045105e-03 4.623574018478393555e-02 1.337884645909070969e-02 -2.426127903163433075e-02 1.083646249026060104e-02 5.029179528355598450e-02 1.315611302852630615e-01 1.073340245056897402e-04 1.921341419219970703e-01 1.516582816839218140e-01 8.250883221626281738e-02 -4.288806319236755371e-01 -8.912581950426101685e-02 -1.435184329748153687e-01 -1.829603165388107300e-01 5.649529770016670227e-02 2.112485915422439575e-01 1.737009286880493164e-01 -6.184279173612594604e-02 -1.220459640026092529e-01 1.492521315813064575e-01 -8.489779382944107056e-02
1.044477000832557678e-01 1.003085821866989136e-02 5.718155577778816223e-02 9.638866782188415527e-02 -7.138419896364212036e-02 5.525409802794456482e-02 1.767586800269782543e-03 -4.620493575930595398e-02 -4.988588020205497742e-02 3.680835664272308350e-02 -1.042148843407630920e-02 -1.392976008355617523e-02 8.369948714971542358e-02 8.707150071859359741e-02 9.702429920434951782e-02 -5.153499543666839600e-02 -1.451070308685302734e-01 -1.605454236268997192e-01 3.286017477512359619e-02 3.992445301264524460e-03 1.060722097754478455e-01 3.245623409748077393e-02 -1.312052458524703979e-01 -1.465377956628799438e-01 3.973860293626785278e-03 4.141318425536155701e-02 1.028504148125648499e-01 2.189577324315905571e-03 4.826728627085685730e-02 1.077020987868309021e-01 -4.181719198822975159e-02 4.946067556738853455e-02 8.362317085266113281e-02 6.192036345601081848e-02 2.156398631632328033e-02 7.559917122125625610e-02 -1.551093310117721558e-01 -4.703328758478164673e-02 4.653556272387504578e-02 1.517143994569778442e-01 1.116372123360633850e-01 -1.226257458329200745e-01 -4.585354775190353394e-02 2.976198308169841766e-02 2.555654011666774750e-02 8.008385449647903442e-02 -7.164181768894195557e-02 -1.870215125381946564e-02 -8.538138866424560547e-02 -1.736349016427993774e-01 -1.091968417167663574e-01 -3.043378889560699463e-02 -1.496563255786895752e-01 -2.524613402783870697e-02 1.058718338608741760e-01 -1.309850811958312988e-01 9.923591464757919312e-02 1.566573418676853180e-02 9.337596595287322998e-02 -7.912398874759674072e-02 -3.121094219386577606e-02 1.252598874270915985e-02 2.791116014122962952e-02 6.148443371057510376e-02 -3.041133657097816467e-02 -1.048690304160118103e-01 -1.183127164840698242e-01 1.181599497795104980e-01 -1.026998534798622131e-01 -4.917352274060249329e-02 7.851604372262954712e-02 1.561972051858901978e-01 1.685021817684173584e-01 -1.400234252214431763e-01 6.268116086721420288e-02 2.683507837355136871e-02 5.666159838438034058e-02 7.945322990417480469e-02 3.356083761900663376e-04 6.529653072357177734e-02 -1.842901110649108887e-01 3.729798831045627594e-03 -1.912543550133705139e-03 -1.008138731122016907e-01 -5.650369822978973389e-02 1.656401753425598145e-01 1.148213297128677368e-01 -1.512767225503921509e-01 -7.119908928871154785e-02 8.195346593856811523e-02 2.026546932756900787e-02 1.441893875598907471e-01 -1.689354479312896729e-01 1.462489273399114609e-02 6.010096892714500427e-02 -8.207498490810394287e-02 -1.069536581635475159e-01 -7.206440716981887817e-02 9.982234239578247070e-02 -7.218024879693984985e-02 -2.192740142345428467e-02 1.640340238809585571e-01 -1.115287244319915771e-01 -1.908562332391738892e-01 -9.334273636341094971e-03 9.962478280067443848e-02 8.299098908901214600e-02 -1.532709747552871704e-01 -1.424517631530761719e-01 9.854928404092788696e-02 1.046615242958068848e-01 -1.122177168726921082e-01 3.528027981519699097e-02 7.104545086622238159e-02 9.491404891014099121e-02 -1.797570288181304932e-02 3.270682319998741150e-02 -1.040241420269012451e-01 3.755892440676689148e-02 -9.750372171401977539e-02 8.432354032993316650e-02 -3.578942641615867615e-02 1.264113336801528931e-01 7.393214851617813110e-02 9.300530701875686646e-02 7.485091686248779297e-02 -1.058272570371627808e-01 -1.030027493834495544e-01
2.203282117843627930e-01 3.308881819248199463e-02 1.466766148805618286e-01 -1.185221150517463684e-01 7.578678429126739502e-02 -6.653179973363876343e-02 -3.650313615798950195e-02 -2.552233450114727020e-02 -5.240944214165210724e-03 1.342132315039634705e-02 2.582273185253143311e-01 -1.732841506600379944e-02 -2.140964120626449585e-01 9.026212990283966064e-02 1.523741930723190308e-01 1.685457676649093628e-01 4.880315158516168594e-03 -2.580067515373229980e-01 2.420379593968391418e-02 -1.395180523395538330e-01 -1.334908455610275269e-01 -1.637942641973495483e-01 -2.975915558636188507e-03 5.239742994308471680e-02 2.983678579330444336e-01 -7.580392062664031982e-02 8.810093998908996582e-02 -4.562904685735702515e-02 5.195148289203643799e-02 1.683747768402099609e-01 7.516243308782577515e-02 -2.825334370136260986e-01 -5.929987877607345581e-02 -7.436310406774282455e-03 4.088837280869483948e-02 -6.295707821846008301e-02 -6.932400912046432495e-02 -2.679410874843597412e-01 4.792575910687446594e-02 1.954381763935089111e-01 -2.782036662101745605e-01 1.585793495178222656e-02 3.418802982196211815e-03 2.393639460206031799e-02 -1.891740560531616211e-01 1.476699262857437134e-01 6.477003917098045349e-03 -2.472460865974426270e-01 -2.222528159618377686e-01 2.450960315763950348e-02 -4.049019142985343933e-02 1.196912750601768494e-01 1.225660592317581177e-01 -1.776985824108123779e-02 -1.148272380232810974e-01 -3.830133751034736633e-02 -3.551262617111206055e-02 -9.344110637903213501e-02 4.632424190640449524e-02 -4.012402519583702087e-02 -1.602554172277450562e-01 1.018048152327537537e-01 -2.720251120626926422e-02 -3.326877951622009277e-02 8.709666132926940918e-02 8.236511796712875366e-02 -8.775243908166885376e-02 9.792886674404144287e-02 7.431353628635406494e-02 6.793930381536483765e-02 1.968720369040966034e-02 -6.201358046382665634e-03 8.502013050019741058e-03 -1.614398211240768433e-01 -1.788657009601593018e-01 -4.599896073341369629e-02 2.589802257716655731e-02 1.050626672804355621e-02 -5.204301699995994568e-02 1.185398176312446594e-01 2.417813688516616821e-01 1.731508411467075348e-02 -5.134723335504531860e-02 1.022562980651855469e-01 7.935755699872970581e-02 -3.674247115850448608e-02 -1.195933744311332703e-01 5.716511607170104980e-02 -4.930686578154563904e-02 1.173939928412437439e-01 3.973752260208129883e-02 -6.619646400213241577e-02 9.495622664690017700e-02 -4.540282860398292542e-02 1.681091338396072388e-01 1.245871335268020630e-01 -3.710340335965156555e-02 -1.099968627095222473e-01 -6.606063339859247208e-03 5.378372222185134888e-02 -1.116330623626708984e-01 -6.531703472137451172e-02 -3.334502503275871277e-02 2.162525895982980728e-03 2.792393267154693604e-01 1.465719342231750488e-01 1.148744598031044006e-01 6.376124918460845947e-02 5.916777998208999634e-02 -2.490656264126300812e-02 4.798287525773048401e-02 -5.333731696009635925e-02 -5.365976691246032715e-02 -2.081189304590225220e-01 -1.579391360282897949e-01 5.787485465407371521e-02 5.067695863544940948e-03 -2.016224265098571777e-01 8.541075512766838074e-03 3.651882708072662354e-02 -1.604710966348648071e-01 1.498272716999053955e-01 -9.910874068737030029e-02 -2.124897949397563934e-02 4.869662225246429443e-02 4.147006198763847351e-02 1.083009392023086548e-01 2.079512923955917358e-02
3.577404841780662537e-02 3.471325710415840149e-02 2.395941317081451416e-01 2.229591757059097290e-01 1.001893877983093262e-01 -1.252157241106033325e-01 1.688930392265319824e-01 6.568029522895812988e-02 -8.270756155252456665e-02 -5.908727180212736130e-03 -3.805117607116699219e-01 -3.987055644392967224e-02 5.620827898383140564e-02 -1.625843942165374756e-01 -3.117402084171772003e-02 -2.676283195614814758e-02 -8.208440989255905151e-02 1.542204618453979492e-01 -1.005193740129470825e-01 -1.073770597577095032e-01 1.090699806809425354e-01 1.045161187648773193e-01 9.314137697219848633e-02 -4.950165003538131714e-02 4.557484984397888184e-01 4.709921479225158691e-01 3.209882676601409912e-01 -1.848216503858566284e-01 9.807113558053970337e-02 -3.801292926073074341e-02 -4.307388365268707275e-01 -3.874554857611656189e-02 5.741741508245468140e-02 -5.286001414060592651e-02 -1.005332991480827332e-01 1.137806996703147888e-01 5.206263065338134766e-01 3.752644658088684082e-01 -1.248282566666603088e-01 2.997480928897857666e-01 -1.127469316124916077e-01 -1.193715110421180725e-01 1.205656379461288452e-01 2.934908308088779449e-02 5.000783205032348633e-01 -8.019388467073440552e-02 -1.171374842524528503e-01 4.420893266797065735e-03 -1.609494090080261230e-01 1.772291064262390137e-01 1.354292482137680054e-01 -3.695174679160118103e-02 -2.519963681697845459e-01 -3.157821483910083771e-03 -5.188741488382220268e-04 -3.990921005606651306e-02 1.057523339986801147e-01 -4.184760153293609619e-02 9.944786876440048218e-02 2.943704836070537567e-02 3.038455545902252197e-01 -1.587030440568923950e-01 1.505230516195297241e-01 -4.711725562810897827e-02 -5.104990676045417786e-02 -3.728253841400146484e-01 2.034602686762809753e-02 9.273875504732131958e-02 2.957817912101745605e-01 -1.346154659986495972e-01 -1.680579781532287598e-01 -1.422058492898941040e-01 -9.041873365640640259e-02 -1.184170246124267578e-01 1.459847241640090942e-01 5.575955659151077271e-02 -1.034457385540008545e-01 3.636110126972198486e-01 -1.065041124820709229e-01 3.380801379680633545e-01 -1.735522747039794922e-01 -3.163366345688700676e-03 2.139199227094650269e-01 -6.423838436603546143e-02 -1.153597421944141388e-02 4.925286769866943359e-02 -9.931278228759765625e-02 5.845401436090469360e-02 -1.177618186920881271e-02 -2.363299727439880371e-01 -4.146126508712768555e-01 -1.223481595516204834e-01 -1.678584218025207520e-01 -5.630764737725257874e-02 -1.121226176619529724e-01 -2.482275664806365967e-01 2.097251415252685547e-01 1.496958583593368530e-01 7.238999754190444946e-02 -2.005000365898013115e-03 4.093619436025619507e-02 -6.435260176658630371e-02 -3.647587001323699951e-01 4.631071165204048157e-02 -3.708341121673583984e-01 -1.193754188716411591e-02 -1.058988366276025772e-02 -8.376654237508773804e-02 -1.032056808471679688e-01 2.623660489916801453e-02 4.834482446312904358e-02 3.251276165246963501e-02 -3.029018640518188477e-01 -6.588087230920791626e-02 -8.074155449867248535e-02 -1.117126317694783211e-03 -1.703962683677673340e-02 -7.091421633958816528e-02 1.863472312688827515e-01 -2.342310696840286255e-01 1.377420574426651001e-01 3.108575753867626190e-02 -1.326215714216232300e-01 8.090598136186599731e-02 1.149824857711791992e-01 1.581772230565547943e-03 2.055350504815578461e-02 -1.752962917089462280e-02
-1.212913691997528076e-01 -1.226564347743988037e-01 -2.947018742561340332e-01 9.511634707450866699e-02 -2.434198856353759766e-01 6.481077522039413452e-02 -8.460247516632080078e-02 1.337403804063796997e-01 -7.712341845035552979e-02 9.436376392841339111e-02 1.601062156260013580e-02 4.877226799726486206e-02 -3.608942404389381409e-02 -7.686250656843185425e-02 -1.255125701427459717e-01 -1.388181447982788086e-01 -8.958049863576889038e-02 1.315776407718658447e-01 1.144851297140121460e-01 8.569031953811645508e-02 1.625641435384750366e-02 2.149963825941085815e-01 4.810620844364166260e-02 3.190292045474052429e-02 -3.286665081977844238e-01 -3.360691294074058533e-02 -1.031309440732002258e-01 -6.873471289873123169e-02 -2.748638987541198730e-01 -4.706439375877380371e-02 3.495706021785736084e-01 1.201668381690979004e-01 -1.756448447704315186e-01 4.858452081680297852e-02 1.381386518478393555e-01 9.196618944406509399e-02 -1.890621334314346313e-01 -2.016544789075851440e-01 -2.446594648063182831e-02 1.348664611577987671e-01 1.509567350149154663e-01 1.255542878061532974e-02 4.390104860067367554e-02 1.918414831161499023e-01 3.451077938079833984e-01 -1.661331951618194580e-01 -9.665902704000473022e-02 3.696412965655326843e-02 3.086509704589843750e-01 -1.033626943826675415e-01 1.967855840921401978e-01 5.911892279982566833e-02 -2.679646909236907959e-01 -1.958347409963607788e-01 1.190904751420021057e-01 -4.667256027460098267e-02 -9.695124812424182892e-03 -2.159595340490341187e-01 -1.427822187542915344e-02 2.710011228919029236e-02 -3.372362628579139709e-02 -2.841376140713691711e-02 3.810046240687370300e-03 3.010886311531066895e-01 -1.902975887060165405e-01 -1.737471669912338257e-01 3.012388944625854492e-01 -1.619339436292648315e-01 2.199392300099134445e-03 1.576279997825622559e-01 3.008754178881645203e-02 2.359334975481033325e-01 -1.025798991322517395e-01 -1.840391755104064941e-01 1.302228569984436035e-01 1.008561551570892334e-01 6.387548148632049561e-02 -2.071977257728576660e-01 -4.688504338264465332e-02 2.072316035628318787e-02 -2.376583218574523926e-01 -8.552575856447219849e-02 3.248132020235061646e-02 -6.896430999040603638e-02 5.503791198134422302e-02 1.137304529547691345e-01 5.150343775749206543e-01 -1.978739500045776367e-01 1.471255868673324585e-01 -1.880584508180618286e-01 1.916559040546417236e-01 -2.190718948841094971e-01 -5.660455301403999329e-02 2.211110591888427734e-01 -7.769890874624252319e-02 9.780767560005187988e-02 1.291419565677642822e-01 7.102833688259124756e-02 9.433115273714065552e-02 -9.896023571491241455e-02 2.011975273489952087e-02 1.741335242986679077e-01 1.660715341567993164e-01 1.213716566562652588e-01 -2.715485990047454834e-01 -1.682587862014770508e-01 -1.498631853610277176e-02 -1.489196419715881348e-01 -1.119583100080490112e-01 -2.477032244205474854e-01 -1.450387537479400635e-01 3.979694738518446684e-04 2.713877260684967041e-01 2.194290757179260254e-01 -7.169155031442642212e-02 4.428122937679290771e-02 -2.582105398178100586e-01 -1.946940571069717407e-01 9.149869531393051147e-02 1.129741892218589783e-01 -6.526782363653182983e-02 -9.448233991861343384e-02 -4.521154612302780151e-02 7.064521778374910355e-03 6.410794798284769058e-03 1.229766011238098145e-01 7.024903595447540283e-02 -1.470412760972976685e-01
-3.732338547706604004e-01 1.908954828977584839e-01 3.456490337848663330e-01 -1.771108061075210571e-01 3.463657796382904053e-01 -1.491468548774719238e-01 -9.222274273633956909e-02 -1.717655509710311890e-01 -1.597526073455810547e-01 -1.990827322006225586e-01 -9.020964801311492920e-02 2.614376842975616455e-01 -3.284221589565277100e-01 2.333009839057922363e-01 -5.253949388861656189e-02 1.194278448820114136e-01 2.600648403167724609e-01 3.062038123607635498e-01 -2.055236510932445526e-02 1.768558323383331299e-01 -5.374588444828987122e-02 2.704420387744903564e-01 1.766856014728546143e-01 2.067496627569198608e-01 -1.894915848970413208e-01 -2.058925330638885498e-01 -2.050167024135589600e-01 -3.712330162525177002e-01 2.200060635805130005e-01 3.750764206051826477e-02 4.487013444304466248e-02 -8.044897019863128662e-02 2.108130231499671936e-02 -2.359720021486282349e-01 8.460055291652679443e-02 -7.463768124580383301e-02 -1.360932141542434692e-01 5.254585668444633484e-02 -9.609448164701461792e-02 -9.102258831262588501e-02 1.704174280166625977e-02 5.887198448181152344e-02 7.599050551652908325e-02 -9.219929575920104980e-02 3.827160000801086426e-01 5.099656805396080017e-02 3.500083088874816895e-01 -1.006994992494583130e-01 5.032574757933616638e-03 1.091855317354202271e-01 -1.081972494721412659e-01 3.513833582401275635e-01 6.538717448711395264e-02 1.708804517984390259e-01 -2.661997918039560318e-03 1.422605216503143311e-01 -6.671492010354995728e-02 -2.092176973819732666e-01 -1.023241579532623291e-01 -2.573843002319335938e-01 2.291202396154403687e-01 -3.513191640377044678e-02 -7.359520345926284790e-02 1.256958842277526855e-01 2.053972631692886353e-01 -4.345318973064422607e-01 -7.462111767381429672e-03 -4.113047420978546143e-01 -4.674031399190425873e-03 -6.971405446529388428e-02 -2.282702475786209106e-01 -1.520592719316482544e-01 -1.352902501821517944e-01 1.516300290822982788e-01 3.752206563949584961e-01 1.824092715978622437e-01 1.959191560745239258e-01 -4.156595468521118164e-01 1.718546301126480103e-01 2.935995161533355713e-01 -4.576435387134552002e-01 -1.812452971935272217e-01 -2.059788070619106293e-02 -1.298422738909721375e-02 1.762656569480895996e-01 -1.533878445625305176e-01 -6.609272211790084839e-02 2.324057221412658691e-01 2.010747045278549194e-01 -1.679962575435638428e-01 -4.306370317935943604e-01 -4.972807765007019043e-01 -1.831956505775451660e-01 -9.096990525722503662e-02 -1.298061162233352661e-01 1.221002712845802307e-01 -2.000212073326110840e-01 1.672704964876174927e-01 -2.522958517074584961e-01 1.911552548408508301e-01 1.097815111279487610e-01 -3.052745386958122253e-02 8.100050687789916992e-02 -1.205557286739349365e-01 -2.242463380098342896e-01 9.629366546869277954e-02 1.199837476015090942e-01 2.977996766567230225e-01 -1.431743204593658447e-01 -8.112222701311111450e-02 -4.491179424803704023e-04 7.741826772689819336e-02 -1.098252162337303162e-01 -2.748620510101318359e-01 -8.512397855520248413e-02 1.404107958078384399e-01 2.910962700843811035e-01 2.614212632179260254e-01 -1.865053027868270874e-01 2.987745106220245361e-01 3.646564185619354248e-01 -2.305851876735687256e-01 -3.233701884746551514e-01 -8.975943922996520996e-02 1.097556501626968384e-01 9.928451478481292725e-02 8.403570950031280518e-02 3.039291203022003174e-01
-4.207270592451095581e-02 1.025341227650642395e-01 3.987029194831848145e-02 1.150843054056167603e-01 -2.881382033228874207e-02 3.218144923448562622e-02 2.049414254724979401e-02 3.533695638179779053e-02 -6.742498278617858887e-02 1.888556964695453644e-02 -1.457209140062332153e-01 6.376788020133972168e-02 3.292746841907501221e-02 4.191576316952705383e-02 -5.553935468196868896e-02 -1.807248145341873169e-01 -1.552580855786800385e-03 2.570457458496093750e-01 8.968596160411834717e-02 9.658087044954299927e-02 -1.149280518293380737e-01 2.813014090061187744e-01 2.145111002027988434e-02 -1.134837344288825989e-01 -2.415365576744079590e-01 8.051557838916778564e-02 1.145713403820991516e-02 -7.382009178400039673e-02 -3.456337749958038330e-02 1.969230361282825470e-02 1.362532675266265869e-01 6.306798756122589111e-02 1.780617535114288330e-01 5.120564252138137817e-03 -1.481300443410873413e-01 1.218678355216979980e-01 -2.463052272796630859e-01 -7.224983721971511841e-02 -4.410465061664581299e-02 2.162547409534454346e-01 1.132065579295158386e-01 4.805406928062438965e-02 -6.964951008558273315e-02 -1.062796562910079956e-01 2.359987050294876099e-01 -1.592753827571868896e-02 -8.518274873495101929e-02 -7.592663168907165527e-02 6.192871183156967163e-02 -2.316347360610961914e-01 1.039084047079086304e-01 -2.435622960329055786e-01 -2.894629240036010742e-01 -5.361743271350860596e-03 1.171267256140708923e-01 -2.419052878394722939e-03 1.426252424716949463e-01 -1.206991821527481079e-01 5.206830054521560669e-02 -2.789726480841636658e-02 1.766533851623535156e-01 -8.094956167042255402e-03 1.779313981533050537e-01 -6.798016373068094254e-03 -4.252818226814270020e-02 -3.404280543327331543e-01 -1.292334198951721191e-01 3.267146274447441101e-02 -1.743973605334758759e-02 1.106848195195198059e-02 -5.476215854287147522e-02 2.258055210113525391e-01 -1.166287809610366821e-01 -1.236558053642511368e-02 1.213532909750938416e-01 2.478260546922683716e-01 -4.251533001661300659e-02 2.851529121398925781e-01 -4.368776828050613403e-02 7.001527398824691772e-02 -3.287791013717651367e-01 -9.032420814037322998e-02 -7.535786367952823639e-03 -2.556714415550231934e-01 -1.136590987443923950e-01 2.080757357180118561e-02 1.540438979864120483e-01 -1.342351436614990234e-01 -6.984019186347723007e-03 -6.064500287175178528e-02 1.349637098610401154e-02 1.707809716463088989e-01 -1.529128551483154297e-01 3.009852953255176544e-02 -1.651762425899505615e-01 -5.119457095861434937e-02 -1.051542721688747406e-02 4.487015679478645325e-02 2.760868147015571594e-02 -1.760445535182952881e-01 -1.061798632144927979e-01 2.290894687175750732e-01 8.857286721467971802e-02 -1.307089179754257202e-01 -8.804160356521606445e-02 2.120676636695861816e-01 2.361832559108734131e-02 -7.793940603733062744e-02 -2.831965088844299316e-01 -2.742161229252815247e-02 1.492485255002975464e-01 -1.729746311902999878e-01 1.704581975936889648e-01 2.027160525321960449e-01 9.567502886056900024e-03 1.800313442945480347e-01 3.132694214582443237e-02 4.594697058200836182e-02 1.848078519105911255e-02 -8.577810972929000854e-02 1.520640850067138672e-01 -1.612315326929092407e-01 4.248817637562751770e-02 8.013492822647094727e-02 1.537465453147888184e-01 5.636229179799556732e-04 -1.379515044391155243e-02 -1.495172828435897827e-01
-8.637505769729614258e-02 -1.438317000865936279e-01 -9.378091990947723389e-02 1.250114440917968750e-01 1.455325931310653687e-01 5.885932594537734985e-02 3.634506762027740479e-01 6.445042788982391357e-02 -1.591855138540267944e-01 -7.726461440324783325e-02 -8.324187248945236206e-03 6.802913546562194824e-02 1.708597689867019653e-01 -8.820082247257232666e-02 2.709016203880310059e-01 4.753380641341209412e-02 5.242788232862949371e-03 -2.075996845960617065e-01 9.661782532930374146e-02 -6.375131756067276001e-02 -1.475371271371841431e-01 6.951946765184402466e-02 1.428509354591369629e-01 1.129178106784820557e-01 -5.591934323310852051e-01 1.776962280273437500e-01 1.782494187355041504e-01 6.617502868175506592e-02 -1.544765830039978027e-01 -4.484244436025619507e-02 1.865363270044326782e-01 -8.525640517473220825e-02 3.997141495347023010e-02 1.732970625162124634e-01 5.908289179205894470e-02 2.969847321510314941e-01 -1.145866662263870239e-01 -8.285202831029891968e-02 2.078384310007095337e-01 2.384200990200042725e-01 -5.163980722427368164e-01 -2.783136963844299316e-01 -7.705152966082096100e-03 4.342313855886459351e-02 -4.745210111141204834e-01 -1.859670281410217285e-01 1.091035977005958557e-01 -4.192654490470886230e-01 -1.911762207746505737e-01 3.628848120570182800e-02 9.447260946035385132e-02 -1.521213501691818237e-01 -3.216612339019775391e-02 1.995968818664550781e-01 5.006825923919677734e-01 2.191089242696762085e-01 1.498180031776428223e-01 1.916107684373855591e-01 5.975618213415145874e-02 1.030451953411102295e-01 3.456358984112739563e-02 -1.689681410789489746e-01 1.155206710100173950e-01 7.569476496428251266e-03 2.721690014004707336e-02 -6.072415411472320557e-02 -5.353899002075195312e-01 9.729471057653427124e-02 9.860334545373916626e-02 -1.736166179180145264e-01 2.426023334264755249e-01 -5.497773736715316772e-02 -1.021744832396507263e-01 -4.659494757652282715e-02 5.983533263206481934e-01 -8.446470834314823151e-03 7.819762825965881348e-02 2.466525435447692871e-01 -2.519863843917846680e-01 -2.473626285791397095e-01 -2.865038812160491943e-01 -3.758582472801208496e-02 -1.308015286922454834e-01 -3.175130784511566162e-01 -1.459908485412597656e-01 -1.569662541151046753e-01 5.377584323287010193e-02 1.526909763924777508e-03 -4.498875141143798828e-02 8.234485983848571777e-02 3.622810170054435730e-02 -9.337610006332397461e-02 -1.705321371555328369e-01 2.579448521137237549e-01 -1.291703283786773682e-01 -3.645531535148620605e-01 -2.677144408226013184e-01 -2.705762684345245361e-01 -1.331405490636825562e-01 9.316971153020858765e-02 1.054070591926574707e-01 -1.237939223647117615e-01 -2.764764614403247833e-02 -3.993000984191894531e-01 2.413949370384216309e-01 2.269858419895172119e-01 -1.818350851535797119e-01 1.843204498291015625e-01 1.567272543907165527e-01 2.108706980943679810e-01 2.696478962898254395e-01 1.849114745855331421e-01 -1.069793030619621277e-01 -8.066441863775253296e-02 -2.175393849611282349e-01 6.764132529497146606e-02 3.507019281387329102e-01 2.539315223693847656e-01 6.447316706180572510e-02 -3.262757658958435059e-01 2.715071141719818115e-01 -1.321859657764434814e-01 3.236607611179351807e-01 -5.244040861725807190e-02 9.392753243446350098e-02 -7.053746283054351807e-02 -2.365482598543167114e-01 2.261609882116317749e-01
-1.317663639783859253e-01 3.316222503781318665e-02 -2.877972088754177094e-02 -1.714116334915161133e-02 4.523702955339103937e-04 1.452663391828536987e-01 -8.795056492090225220e-02 7.221326977014541626e-02 -7.286400347948074341e-02 7.380392402410507202e-02 -6.599611788988113403e-02 1.950442492961883545e-01 -9.105971455574035645e-02 9.166096150875091553e-02 2.401641458272933960e-01 1.238321065902709961e-01 1.313627362251281738e-01 -2.448695339262485504e-02 -2.030510157346725464e-01 4.443223401904106140e-02 -2.758658723905682564e-03 -1.438701748847961426e-01 4.535593837499618530e-02 6.636971235275268555e-02 -2.668577805161476135e-02 -2.112242281436920166e-01 -8.325488120317459106e-02 8.728284388780593872e-02 -4.585845023393630981e-02 7.141100615262985229e-02 -6.324787437915802002e-02 -1.572630107402801514e-01 1.183857619762420654e-01 -1.319085359573364258e-01 -6.722938269376754761e-02 -7.839485257863998413e-02 -1.931176930665969849e-01 -1.242490410804748535e-01 7.833007723093032837e-02 -3.421181812882423401e-02 9.699691832065582275e-02 2.861706167459487915e-02 9.309004992246627808e-02 6.041717901825904846e-02 -9.780107438564300537e-02 -1.265998184680938721e-01 2.222091890871524811e-02 -2.994170784950256348e-02 1.050841808319091797e-01 1.516003999859094620e-02 -1.243602111935615540e-01 -3.487970447167754173e-03 8.811403065919876099e-02 -7.576943933963775635e-02 2.021276503801345825e-01 2.109378948807716370e-02 -1.046884432435035706e-01 3.536197915673255920e-02 -1.126389205455780029e-01 -5.834313109517097473e-02 -8.769331127405166626e-02 -6.525849550962448120e-02 -1.331521105021238327e-02 1.681526005268096924e-01 1.202071681618690491e-01 -1.194363981485366821e-01 -1.541551388800144196e-02 -7.882089167833328247e-02 1.047044768929481506e-01 7.067164778709411621e-02 -5.395520851016044617e-02 -6.385890394449234009e-02 -5.310698878020048141e-03 -9.395655244588851929e-02 -1.960216760635375977e-01 2.462651729583740234e-01 -4.748026654124259949e-02 -1.069863699376583099e-02 7.202876359224319458e-02 -3.329699486494064331e-02 -7.021686434745788574e-02 -7.823777943849563599e-02 -9.324302524328231812e-02 1.106348037719726562e-01 -6.701947003602981567e-02 1.408801693469285965e-02 6.313054263591766357e-02 5.092040076851844788e-02 7.318582385778427124e-02 5.547587946057319641e-02 1.076204851269721985e-01 2.095715254545211792e-01 6.092914938926696777e-02 -5.447945743799209595e-02 -1.725021749734878540e-01 7.084931433200836182e-02 4.483157023787498474e-02 -6.612361967563629150e-02 2.862663567066192627e-02 1.163662075996398926e-01 -1.630865037441253662e-02 -1.081114709377288818e-01 -8.726450614631175995e-04 3.608246147632598877e-02 1.852831244468688965e-01 6.131948158144950867e-02 2.908275229856371880e-03 6.899145245552062988e-02 -1.620151251554489136e-01 1.567096412181854248e-01 -6.553121656179428101e-02 5.695483461022377014e-02 -3.966633602976799011e-02 -1.623299866914749146e-01 -7.405880372971296310e-03 -9.032602608203887939e-02 6.259958446025848389e-02 2.238304764032363892e-01 2.509938552975654602e-02 1.284688804298639297e-02 8.510706573724746704e-02 -2.355946600437164307e-01 5.237457528710365295e-02 -5.453444272279739380e-02 -9.533479809761047363e-02 1.108273789286613464e-01 1.086214855313301086e-01 7.411774992942810059e-02
7.997605204582214355e-02 6.268607918173074722e-03 8.734104037284851074e-02 -5.112367495894432068e-02 -9.763813018798828125e-02 -4.748412966728210449e-02 -3.494497761130332947e-02 -3.273990750312805176e-02 6.043241173028945923e-02 1.272569000720977783e-01 2.412841767072677612e-01 7.060310244560241699e-02 -3.134796395897865295e-02 2.580325007438659668e-01 1.680649630725383759e-02 1.690711677074432373e-01 4.769345372915267944e-02 -1.712100654840469360e-01 7.684125006198883057e-02 -8.018904365599155426e-03 -9.726354479789733887e-02 -3.535483777523040771e-02 -4.508079960942268372e-02 -1.002834215760231018e-01 -4.018677771091461182e-02 3.078074380755424500e-02 7.814628630876541138e-02 3.300709417089819908e-03 7.581176701933145523e-03 2.730829874053597450e-03 5.365274846553802490e-02 5.575205385684967041e-02 -1.254853140562772751e-02 8.931954950094223022e-02 -1.723445206880569458e-02 7.377038896083831787e-02 -9.323323518037796021e-02 -2.997172474861145020e-01 -9.692610800266265869e-02 -6.376013904809951782e-02 -1.095286682248115540e-01 2.612150833010673523e-02 6.778800487518310547e-02 -1.301383376121520996e-01 -2.155441045761108398e-01 5.011551454663276672e-02 7.584010716527700424e-03 1.484949290752410889e-01 -8.870428800582885742e-02 -1.545904669910669327e-03 1.236089989542961121e-01 5.821963772177696228e-02 2.836174517869949341e-02 -1.274579316377639771e-01 1.840016618371009827e-02 -1.174567714333534241e-01 -7.590562105178833008e-02 4.756722226738929749e-02 2.930986508727073669e-02 7.721926271915435791e-02 2.988906344398856163e-03 7.194474805146455765e-03 6.048046518117189407e-03 -6.418190896511077881e-02 -1.609433256089687347e-02 1.451160162687301636e-01 -5.085058975964784622e-03 5.558864679187536240e-03 -1.219234541058540344e-01 -1.046860814094543457e-01 1.452849209308624268e-01 -1.766622997820377350e-02 6.259702146053314209e-02 -4.144208505749702454e-02 -4.122652411460876465e-01 -6.437856703996658325e-02 7.292187213897705078e-02 -9.401720762252807617e-02 -8.349038660526275635e-02 -1.939928159117698669e-02 1.684130728244781494e-01 5.327385663986206055e-02 -5.763928592205047607e-02 1.499802991747856140e-02 -5.751637741923332214e-02 -4.407216329127550125e-03 6.038857251405715942e-02 9.350586682558059692e-03 -8.519002795219421387e-02 2.364156544208526611e-01 1.248918473720550537e-02 -9.842194616794586182e-02 -2.569174021482467651e-02 -7.859729975461959839e-02 1.754237562417984009e-01 1.894797571003437042e-02 -5.714237224310636520e-03 -1.354930400848388672e-01 3.629314154386520386e-02 -2.108928374946117401e-02 -3.293696790933609009e-02 -1.090786606073379517e-02 2.911928482353687286e-02 2.240432053804397583e-02 7.058039307594299316e-02 -4.802295193076133728e-02 -1.854106597602367401e-02 -3.980433940887451172e-02 8.994852006435394287e-02 9.990751743316650391e-02 1.259335223585367203e-02 -9.289041161537170410e-02 -1.498899310827255249e-01 -2.224115282297134399e-02 -4.235338419675827026e-02 -4.977499134838581085e-03 1.631651632487773895e-02 -4.598163813352584839e-02 -1.191942468285560608e-01 1.951504200696945190e-01 7.675313949584960938e-02 1.038465797901153564e-01 -2.749523147940635681e-02 2.731432579457759857e-02 -1.983509212732315063e-02 -8.755356818437576294e-02 -3.702717274427413940e-02 -1.520927879028022289e-03
3.932793810963630676e-02 -6.280738115310668945e-02 2.437379769980907440e-02 -1.595766246318817139e-01 -1.899934709072113037e-01 3.388434648513793945e-02 7.758786529302597046e-02 9.369106590747833252e-02 2.380315959453582764e-02 -4.029640927910804749e-02 2.820687927305698395e-02 5.594293028116226196e-02 -8.434757590293884277e-02 1.292333900928497314e-01 1.719421297311782837e-01 1.021514087915420532e-01 -7.035771757364273071e-02 -1.734353005886077881e-01 -6.424640119075775146e-02 9.770897030830383301e-02 -9.508837759494781494e-02 1.812309324741363525e-01 -1.572625897824764252e-02 -1.129040271043777466e-01 9.160132706165313721e-02 2.600483130663633347e-03 9.801022708415985107e-02 -1.004165336489677429e-01 1.055996567010879517e-01 2.681565657258033752e-02 -1.141940802335739136e-01 -1.187698394060134888e-01 5.611755698919296265e-02 1.193143986165523529e-02 -1.528986543416976929e-01 -1.110018491744995117e-01 -3.113580867648124695e-02 -5.860840529203414917e-02 8.355039358139038086e-02 2.683113794773817062e-03 1.126217469573020935e-01 1.181626096367835999e-01 7.264190167188644409e-02 9.992913156747817993e-02 -4.176349937915802002e-02 1.272422075271606445e-01 -3.919031098484992981e-02 -2.278509177267551422e-02 -1.149385869503021240e-01 1.508905924856662750e-02 1.817079633474349976e-02 -1.654979586601257324e-01 4.553296137601137161e-03 -8.947601541876792908e-03 -7.254920899868011475e-02 -2.882033959031105042e-02 -3.453730419278144836e-02 1.288077086210250854e-01 3.553844988346099854e-02 9.800665825605392456e-02 1.722284406423568726e-01 -4.639413952827453613e-02 8.053873479366302490e-02 -9.501931816339492798e-02 -1.672578901052474976e-01 -6.337794661521911621e-02 -1.132171824574470520e-01 9.068513661623001099e-02 -5.954660847783088684e-02 -4.128508269786834717e-03 -4.523945972323417664e-02 1.025131121277809143e-01 -2.317840233445167542e-03 1.236676573753356934e-01 -4.013989269733428955e-01 2.696707285940647125e-02 1.179345250129699707e-01 -9.459851309657096863e-03 3.573352470993995667e-02 1.876274496316909790e-01 -1.412310898303985596e-01 -1.534888893365859985e-01 -4.505912214517593384e-02 -2.489557862281799316e-02 1.286706980317831039e-02 9.632544964551925659e-02 -4.893827810883522034e-02 4.756172001361846924e-02 -1.119950041174888611e-01 2.326164394617080688e-02 -1.029990985989570618e-01 -1.831922307610511780e-02 1.597949676215648651e-02 -7.765606045722961426e-02 1.000547409057617188e-01 -8.125538378953933716e-02 1.135312020778656006e-01 1.301449984312057495e-01 3.174242377281188965e-02 7.509834319353103638e-02 3.258175402879714966e-02 -9.934924542903900146e-02 -4.729639366269111633e-02 2.142428606748580933e-02 1.054489389061927795e-01 -1.759524494409561157e-01 -9.557998925447463989e-02 -4.553603753447532654e-02 7.959453761577606201e-02 1.284034550189971924e-01 -8.688025176525115967e-03 1.315013915300369263e-01 -1.764614731073379517e-01 1.226746067404747009e-01 1.491197664290666580e-02 1.692521944642066956e-02 6.316974014043807983e-02 1.552128493785858154e-01 -2.330362796783447266e-01 -1.144419610500335693e-01 1.611702889204025269e-02 1.036361604928970337e-01 -1.279546618461608887e-01 1.482446328736841679e-03 5.056509748101234436e-02 -3.031252883374691010e-02 -1.187367737293243408e-01 1.639655046164989471e-02
-1.242076233029365540e-02 -1.150680109858512878e-01 -1.592827029526233673e-02 -2.258556336164474487e-01 2.306726761162281036e-02 5.550147965550422668e-02 1.091924086213111877e-01 5.835706740617752075e-02 5.661433096975088120e-03 2.286022342741489410e-02 -8.526325225830078125e-03 3.133559226989746094e-02 -2.237359993159770966e-02 1.401563137769699097e-01 -8.538669347763061523e-02 3.758313134312629700e-02 3.647037595510482788e-02 -9.876266121864318848e-03 -1.795203983783721924e-02 -1.124524995684623718e-01 -1.405544877052307129e-01 -9.563407301902770996e-02 1.160249486565589905e-02 1.346872448921203613e-01 -1.961115747690200806e-01 1.009375229477882385e-01 -9.362080693244934082e-02 4.539185389876365662e-02 1.301549822092056274e-01 3.680098429322242737e-02 -1.101401634514331818e-02 -6.223774328827857971e-02 -1.583656072616577148e-01 -7.696466147899627686e-02 1.537712365388870239e-01 -2.322381585836410522e-01 -4.671827331185340881e-02 1.712270677089691162e-01 5.276968702673912048e-03 -1.034151762723922729e-01 6.803869456052780151e-02 2.193503640592098236e-02 9.185611456632614136e-02 -2.406842857599258423e-01 -2.421443015336990356e-01 -6.205891817808151245e-02 1.817254908382892609e-02 1.122510507702827454e-01 1.794356852769851685e-01 1.077797189354896545e-01 -1.039460897445678711e-01 -1.115989312529563904e-01 7.495912909507751465e-02 6.150530651211738586e-02 2.055163681507110596e-01 -5.431835353374481201e-02 -4.381163790822029114e-02 8.754123747348785400e-02 -1.558191329240798950e-01 9.917488694190979004e-02 1.113586202263832092e-01 -2.551515102386474609e-01 1.866403520107269287e-01 -1.139833629131317139e-01 1.761022605933248997e-03 1.818380318582057953e-02 3.115638904273509979e-02 -6.788785010576248169e-02 2.628589272499084473e-01 -4.423932358622550964e-02 1.892840303480625153e-02 -8.675796538591384888e-02 -5.806061625480651855e-02 1.548390276730060577e-02 -8.115988224744796753e-02 -1.861591637134552002e-01 1.644909195601940155e-02 -1.132343262434005737e-01 1.639432646334171295e-02 -4.826332628726959229e-02 9.437660872936248779e-02 -1.931957341730594635e-02 -4.313423484563827515e-02 -1.029692515730857849e-01 -3.157114982604980469e-02 -1.537827551364898682e-01 1.126079261302947998e-01 1.252827495336532593e-01 -3.112758975476026535e-03 1.417308598756790161e-01 -1.304000169038772583e-01 -2.528825215995311737e-02 1.198027804493904114e-01 1.644906103610992432e-01 -3.613489679992198944e-03 -1.744445413351058960e-03 1.469455063343048096e-01 2.848907411098480225e-01 9.724710881710052490e-02 8.094718307256698608e-02 9.214781969785690308e-02 -1.800742000341415405e-01 8.916002511978149414e-02 2.657205914147198200e-04 1.700177192687988281e-01 -4.394562542438507080e-02 -1.510988324880599976e-01 1.800068169832229614e-01 1.066864579916000366e-01 -2.680791541934013367e-02 -5.337233841419219971e-02 2.257044315338134766e-01 1.648706942796707153e-02 1.104166149161756039e-03 -3.421011194586753845e-02 -2.362926676869392395e-02 1.128640472888946533e-01 1.075299680233001709e-01 -1.464808583259582520e-01 6.638058274984359741e-02 -4.900255054235458374e-02 -1.025078147649765015e-01 -8.690677583217620850e-02 -6.267018616199493408e-02 5.344502627849578857e-02 -1.852000355720520020e-01 5.325895268470048904e-03 1.020023375749588013e-01
-1.168336495757102966e-01 5.673128738999366760e-02 -8.829072862863540649e-02 7.842952013015747070e-02 1.082893162965774536e-01 -7.293546944856643677e-02 -1.585314273834228516e-01 -7.684133201837539673e-02 -7.099012285470962524e-02 -7.005649805068969727e-02 1.658098250627517700e-01 2.736490033566951752e-02 -4.525433853268623352e-02 -4.371488839387893677e-02 -2.353437691926956177e-01 -2.712379209697246552e-03 2.070922031998634338e-02 1.023598536849021912e-01 7.893812656402587891e-02 1.454028934240341187e-01 -6.917485594749450684e-02 -6.657938007265329361e-03 8.627884089946746826e-02 1.795489341020584106e-01 -1.067709922790527344e-01 1.378100514411926270e-01 -1.257769465446472168e-01 1.282636970281600952e-01 3.506923094391822815e-02 -4.206596687436103821e-02 3.808980435132980347e-02 8.463818579912185669e-03 -3.323219418525695801e-01 -4.996486753225326538e-02 -5.529716145247220993e-03 -2.555651962757110596e-02 2.939128875732421875e-01 1.531196534633636475e-01 -2.883720956742763519e-02 -1.314401328563690186e-01 1.346417069435119629e-01 -4.056745767593383789e-02 3.599226474761962891e-02 5.355813354253768921e-02 2.021991312503814697e-01 2.998323366045951843e-02 8.640781044960021973e-02 1.408048272132873535e-01 7.605312764644622803e-02 -4.276167135685682297e-03 -8.657421171665191650e-02 2.046406120061874390e-01 1.151300221681594849e-01 9.453785023652017117e-04 -3.211801871657371521e-02 1.184120699763298035e-01 -1.053024008870124817e-01 -8.080055564641952515e-02 -1.014312654733657837e-01 -1.071153059601783752e-01 6.432405859231948853e-02 -7.696133852005004883e-02 9.634173661470413208e-02 9.574246359989047050e-04 6.375760585069656372e-02 3.717348724603652954e-02 7.476972043514251709e-02 -1.183470562100410461e-01 -1.099917292594909668e-01 -2.407292574644088745e-01 -4.202238097786903381e-02 -1.309086978435516357e-01 8.122094720602035522e-02 2.740897471085190773e-03 1.785712838172912598e-01 -6.769374758005142212e-02 2.446865849196910858e-02 -1.697840839624404907e-01 1.019350439310073853e-01 -1.019148901104927063e-01 2.154128104448318481e-01 8.128953725099563599e-02 -4.554618895053863525e-02 1.051918789744377136e-01 1.554854959249496460e-01 8.232930675148963928e-03 1.249240934848785400e-01 -3.678017482161521912e-02 1.163782849907875061e-01 1.140822023153305054e-01 2.129741758108139038e-02 -5.347535759210586548e-02 -1.590152233839035034e-01 -9.218101948499679565e-02 -6.893309950828552246e-02 1.383872628211975098e-01 -5.842739343643188477e-02 1.787093579769134521e-01 7.389123551547527313e-03 8.446384966373443604e-02 5.555421113967895508e-02 -2.623738348484039307e-02 5.494931712746620178e-02 2.947267591953277588e-01 -1.504238545894622803e-01 -1.196226701140403748e-01 -1.132654547691345215e-01 1.310176998376846313e-01 -4.092442803084850311e-03 -2.319274991750717163e-01 -1.173949688673019409e-01 5.832538381218910217e-02 2.317963633686304092e-03 -4.136930219829082489e-03 -3.920444846153259277e-02 8.598498068749904633e-03 5.667041987180709839e-02 -1.518486440181732178e-01 2.872769348323345184e-02 2.222643792629241943e-01 -2.642089687287807465e-02 4.971795156598091125e-02 -3.962642699480056763e-02 -1.334081441164016724e-01 -3.677441179752349854e-02 -1.364990975707769394e-02 1.047608777880668640e-01 -2.373104356229305267e-02
2.689004503190517426e-02 -8.294960856437683105e-02 -7.155308872461318970e-02 1.456077694892883301e-01 -7.648159563541412354e-02 5.357390642166137695e-02 -4.829392209649085999e-02 -1.915417164564132690e-01 -1.499334629625082016e-02 1.388814747333526611e-01 -1.645879298448562622e-01 -4.525044932961463928e-02 2.941579222679138184e-01 -3.486229106783866882e-02 -1.443623900413513184e-01 -1.795468181371688843e-01 -2.266683382913470268e-03 -1.211541742086410522e-01 -1.146213635802268982e-01 9.955780953168869019e-02 7.125290483236312866e-02 2.331073582172393799e-01 -2.571336366236209869e-02 -2.919250130653381348e-01 1.657667011022567749e-01 2.846629172563552856e-02 -1.017356738448143005e-01 1.070777103304862976e-01 -1.340049505233764648e-02 2.232836931943893433e-01 -1.674631834030151367e-01 1.265418827533721924e-01 2.761355340480804443e-01 2.220958173274993896e-01 -9.976524859666824341e-02 -2.051353268325328827e-02 2.760517299175262451e-01 4.611143767833709717e-01 1.997260563075542450e-02 -3.816004991531372070e-01 1.691431999206542969e-01 9.815884381532669067e-02 -3.970302268862724304e-02 -6.594131886959075928e-02 -5.363333225250244141e-02 -1.882674098014831543e-01 5.104596726596355438e-03 -4.991703853011131287e-02 -1.266951765865087509e-02 -1.395016908645629883e-02 2.420556498691439629e-03 -6.824781745672225952e-02 -1.884116977453231812e-02 -6.063095480203628540e-02 -9.718253463506698608e-02 1.298571564257144928e-02 -7.479564100503921509e-02 1.927701979875564575e-01 -6.439580768346786499e-02 -5.866287276148796082e-02 2.654636502265930176e-01 1.895204745233058929e-02 1.986618191003799438e-01 -8.133044093847274780e-02 -1.087679434567689896e-02 8.796067535877227783e-02 -5.068705417215824127e-03 6.165046989917755127e-02 -1.176817566156387329e-01 1.914264857769012451e-01 -1.197678968310356140e-01 1.206898316740989685e-02 -7.131899474188685417e-04 8.039609342813491821e-02 -1.067610606551170349e-01 3.488011062145233154e-01 5.545786023139953613e-02 1.470027565956115723e-01 1.884341984987258911e-01 -1.963320076465606689e-01 -1.488614678382873535e-01 1.707773655652999878e-01 9.644526056945323944e-03 4.945483058691024780e-02 6.167744100093841553e-02 -6.578081101179122925e-02 -2.287286221981048584e-01 -7.356873154640197754e-02 5.291273444890975952e-02 -6.601616740226745605e-03 2.472332864999771118e-01 4.068683683872222900e-01 6.431559473276138306e-02 -1.770228892564773560e-02 -2.263424396514892578e-01 -4.216118156909942627e-02 1.482109427452087402e-01 -1.435211300849914551e-01 -1.003174483776092529e-01 7.535681128501892090e-02 1.227788776159286499e-01 6.283158808946609497e-02 7.504937052726745605e-02 1.113736629486083984e-01 -1.913398355245590210e-01 2.014364749193191528e-01 -1.970584504306316376e-02 2.978052198886871338e-02 -9.198997914791107178e-02 -1.148458942770957947e-01 -2.673180587589740753e-02 7.985106669366359711e-03 -9.108286350965499878e-03 2.922274731099605560e-02 -8.912710100412368774e-02 -3.606586754322052002e-01 -4.134044423699378967e-02 3.932263255119323730e-01 -2.284433692693710327e-02 -3.609681725502014160e-01 1.691588610410690308e-01 -6.782084703445434570e-02 1.584302447736263275e-02 -1.502988785505294800e-01 -2.868501543998718262e-01 -1.891353428363800049e-01 1.013274937868118286e-01 2.576317265629768372e-02
-3.824993371963500977e-01 5.950196087360382080e-02 1.198709681630134583e-01 -3.351546823978424072e-02 2.894545197486877441e-01 -1.939743906259536743e-01 -8.437597006559371948e-02 -2.315422892570495605e-01 6.967470794916152954e-02 2.475181221961975098e-02 -1.236670836806297302e-01 3.129188418388366699e-01 -1.604204475879669189e-01 2.238895893096923828e-01 3.017357885837554932e-01 9.047761559486389160e-03 2.368287742137908936e-01 2.724384665489196777e-01 -3.216354921460151672e-02 1.606869548559188843e-01 -8.676917105913162231e-02 1.759873181581497192e-01 7.279207557439804077e-02 1.399660706520080566e-01 5.875743925571441650e-03 -1.469510942697525024e-01 -1.330966651439666748e-01 -2.667690515518188477e-01 1.609540283679962158e-01 1.535664200782775879e-01 -7.399720698595046997e-02 -1.532537043094635010e-01 3.002761006355285645e-01 -2.345448136329650879e-01 -2.219771742820739746e-01 5.462350696325302124e-02 -6.518382579088211060e-02 -1.261619944125413895e-02 -1.943087875843048096e-01 -3.178905546665191650e-01 1.527414191514253616e-02 1.792026758193969727e-01 -3.509138524532318115e-02 5.962871946394443512e-03 1.115921139717102051e-01 4.319690540432929993e-02 2.459015399217605591e-01 1.117499172687530518e-01 1.269858703017234802e-02 2.356706708669662476e-01 -1.929544359445571899e-01 3.720208406448364258e-01 -3.306804969906806946e-02 6.582897901535034180e-02 -2.793415486812591553e-01 2.601599991321563721e-01 -1.560398638248443604e-01 -1.306566894054412842e-01 -1.277283579111099243e-01 -1.804514378309249878e-01 -1.652237959206104279e-03 1.079010814428329468e-01 8.343970775604248047e-02 4.173502698540687561e-02 8.186894655227661133e-02 -1.377003453671932220e-02 1.200213655829429626e-01 -2.285616099834442139e-01 -2.781300246715545654e-02 3.039342723786830902e-02 -8.675822615623474121e-02 -1.604224145412445068e-01 -9.771814197301864624e-02 -1.209133211523294449e-02 1.715287752449512482e-02 -8.834030479192733765e-02 -9.282187372446060181e-02 -2.387924641370773315e-01 1.099745333194732666e-01 6.603248417377471924e-02 -4.276798665523529053e-01 1.906309276819229126e-01 -1.433378607034683228e-01 1.308715529739856720e-02 -1.883873790502548218e-01 -4.487865567207336426e-01 -2.046574950218200684e-01 1.888556629419326782e-01 8.665218949317932129e-02 -2.655812799930572510e-01 -1.067648530006408691e-01 -4.289433360099792480e-02 2.262572199106216431e-01 -1.866249889135360718e-01 -1.189959719777107239e-01 3.117929399013519287e-01 -3.111735880374908447e-01 -1.199892312288284302e-01 -3.134931623935699463e-01 1.527256518602371216e-01 9.030879288911819458e-02 -2.535732463002204895e-02 9.536214917898178101e-02 -3.038531914353370667e-02 9.628696739673614502e-02 -4.148456454277038574e-02 7.816296070814132690e-02 1.765626072883605957e-01 -2.999397553503513336e-02 -8.387526124715805054e-02 -6.687351316213607788e-02 -8.874172344803810120e-03 1.272056996822357178e-02 -2.508280873298645020e-01 -2.121584266424179077e-01 -9.669102728366851807e-02 6.821531057357788086e-02 2.905829548835754395e-01 -5.274732038378715515e-02 9.723491221666336060e-02 3.231284022331237793e-01 -2.383210957050323486e-01 -9.484217315912246704e-02 -1.031533256173133850e-01 -8.944976329803466797e-02 1.228460371494293213e-01 2.138345539569854736e-01 2.889361381530761719e-01
-9.291006624698638916e-02 -1.563442051410675049e-01 6.589728593826293945e-02 -1.356013268232345581e-01 1.312397867441177368e-01 2.721929922699928284e-02 1.875861547887325287e-02 -6.945020984858274460e-03 -1.874392293393611908e-02 3.013971447944641113e-02 -4.668623208999633789e-02 1.098586693406105042e-01 -1.792449057102203369e-01 1.033945307135581970e-01 1.841062605381011963e-01 1.375654339790344238e-02 1.116889789700508118e-01 2.354354970157146454e-02 -9.451844543218612671e-02 1.767028719186782837e-01 -3.604073077440261841e-02 1.848987489938735962e-02 -7.423944771289825439e-02 2.144818305969238281e-01 -1.808026134967803955e-01 -1.660766601562500000e-01 -3.293180465698242188e-02 5.872973054647445679e-02 -1.035784184932708740e-02 8.254414051771163940e-02 2.193353176116943359e-01 -1.800048649311065674e-01 1.582216173410415649e-01 -1.301689893007278442e-01 7.036095857620239258e-02 -1.957670599222183228e-01 -1.250605434179306030e-01 4.738981649279594421e-02 -1.016744747757911682e-01 -7.852622866630554199e-02 5.095313861966133118e-02 2.117912620306015015e-01 -1.376437544822692871e-01 5.840549245476722717e-02 -2.517847344279289246e-03 6.572092324495315552e-02 7.111701369285583496e-02 -6.897766143083572388e-02 1.968330889940261841e-01 1.591373234987258911e-01 -7.946042716503143311e-02 1.403280496597290039e-01 -1.569192111492156982e-01 6.233822554349899292e-02 -8.514927700161933899e-03 8.001102507114410400e-02 9.114173240959644318e-03 -1.640251278877258301e-01 -8.993001282215118408e-02 -4.747771844267845154e-02 8.698602020740509033e-02 6.937937811017036438e-03 -1.321537494659423828e-01 1.461763866245746613e-02 1.096825450658798218e-01 -1.948245763778686523e-01 -3.964001685380935669e-02 -2.445413470268249512e-01 1.463338136672973633e-01 -1.530765742063522339e-02 -3.071401268243789673e-02 3.574125096201896667e-02 -1.296904534101486206e-01 1.287030875682830811e-01 -1.112638190388679504e-01 -5.921193212270736694e-02 -8.019164204597473145e-02 -4.265040531754493713e-02 -3.220933303236961365e-02 2.821762301027774811e-02 -5.890271067619323730e-02 -3.722551837563514709e-02 -1.048373654484748840e-01 -4.728041216731071472e-02 1.014946028590202332e-01 -2.271215617656707764e-01 -1.818421669304370880e-02 7.657378166913986206e-02 -1.153358370065689087e-01 -1.417841315269470215e-01 -8.527518808841705322e-02 -2.446955442428588867e-01 4.646443203091621399e-02 -7.068254053592681885e-02 -8.429612219333648682e-02 1.332751214504241943e-01 -1.017861738801002502e-01 7.499170303344726562e-02 -1.083370018750429153e-02 1.163623332977294922e-01 -1.249379944056272507e-02 -2.849720604717731476e-02 1.220013573765754700e-01 -1.127471681684255600e-02 1.161631792783737183e-01 1.220877170562744141e-01 -8.696523308753967285e-02 2.098853737115859985e-01 -7.336619496345520020e-02 -1.443677097558975220e-01 2.436437644064426422e-03 2.813521586358547211e-02 4.541470482945442200e-02 1.252419594675302505e-02 -1.426832866854965687e-03 2.486861646175384521e-01 1.331645250320434570e-01 3.027139008045196533e-01 -1.225642263889312744e-01 1.051550433039665222e-01 1.583970785140991211e-01 -1.599849462509155273e-01 -2.958472073078155518e-02 6.634858995676040649e-02 1.607925444841384888e-02 8.066295087337493896e-02 -1.765649765729904175e-01 -6.122562661767005920e-02
5.174298211932182312e-02 -9.907778352499008179e-02 1.605341434478759766e-01 -1.724231988191604614e-01 -2.025594562292098999e-01 -7.414478808641433716e-02 -8.205106481909751892e-03 -2.616928331553936005e-02 -4.525132477283477783e-02 -4.012418538331985474e-02 1.522463858127593994e-01 2.497096732258796692e-02 1.180949509143829346e-01 6.619328260421752930e-02 2.668788190931081772e-03 2.402568608522415161e-01 -1.162082776427268982e-01 -1.712917834520339966e-01 1.323818136006593704e-02 2.675279602408409119e-02 3.773638233542442322e-02 1.339119207113981247e-02 5.754588171839714050e-03 -2.168510258197784424e-01 -2.645001374185085297e-02 -4.426967725157737732e-02 8.178485929965972900e-02 -1.927329897880554199e-01 -1.946598589420318604e-01 1.161263361573219299e-01 7.045267522335052490e-02 -3.816147218458354473e-04 -9.868862479925155640e-02 2.078762501478195190e-01 1.233220174908638000e-01 -4.934570193290710449e-02 2.040745690464973450e-02 -2.358502149581909180e-01 9.187678992748260498e-02 3.041386231780052185e-02 -6.009130179882049561e-02 -2.506516873836517334e-01 3.158319741487503052e-02 8.093649148941040039e-02 2.374654561281204224e-01 1.986946612596511841e-01 -1.829960197210311890e-01 5.709488317370414734e-02 9.013666957616806030e-02 -1.683107167482376099e-01 1.260352134704589844e-01 5.413754656910896301e-02 -5.388551205396652222e-02 1.644248068332672119e-01 -2.643644809722900391e-01 -8.866771310567855835e-02 7.310907542705535889e-02 2.062952369451522827e-01 6.825444102287292480e-02 1.038240790367126465e-01 -1.329804658889770508e-01 -2.451201900839805603e-02 7.604838907718658447e-02 -9.556933306157588959e-03 -1.525194346904754639e-01 3.484362363815307617e-02 -8.443859219551086426e-02 4.527037590742111206e-02 -6.358199566602706909e-02 -7.025297731161117554e-02 1.904187202453613281e-01 1.225198060274124146e-01 4.866801947355270386e-02 1.669392138719558716e-01 -3.638838827610015869e-01 6.411788612604141235e-02 2.626257240772247314e-01 -5.430194362998008728e-02 -8.826450258493423462e-02 6.432730704545974731e-03 -1.002038866281509399e-01 -6.675218045711517334e-02 2.563047222793102264e-02 5.316449701786041260e-02 -9.159055352210998535e-02 1.150594130158424377e-01 -1.632820665836334229e-01 -1.485402584075927734e-01 -3.636545687913894653e-02 1.143811270594596863e-01 -4.540436342358589172e-02 -1.378801614046096802e-01 -9.539514034986495972e-02 1.987131983041763306e-01 1.375011354684829712e-01 -1.210226640105247498e-01 3.938968852162361145e-02 -7.013712823390960693e-02 3.970991447567939758e-02 -6.852367520332336426e-02 -3.062120079994201660e-02 -5.794319137930870056e-02 4.791450127959251404e-02 -1.621597111225128174e-01 -4.807023704051971436e-02 -1.197580322623252869e-01 1.294909119606018066e-01 -7.781787216663360596e-02 5.712921917438507080e-02 6.716973334550857544e-02 2.558089792728424072e-02 1.466213613748550415e-01 -4.302830249071121216e-02 8.498731255531311035e-02 6.710974872112274170e-02 6.182642653584480286e-02 3.223216533660888672e-02 9.621749818325042725e-02 -1.695409566164016724e-01 1.586440764367580414e-02 -1.170656755566596985e-01 3.039990179240703583e-02 -3.863589093089103699e-02 6.570328772068023682e-02 3.837727010250091553e-02 -7.616160064935684204e-02 -5.240274220705032349e-02 -5.422044172883033752e-02
-1.534371972084045410e-01 1.019282415509223938e-01 -1.618412733078002930e-01 3.549526631832122803e-01 6.981940567493438721e-02 1.213992014527320862e-01 -9.789970517158508301e-02 -4.823807254433631897e-02 -1.323830783367156982e-01 2.267479896545410156e-02 7.672525197267532349e-02 1.238111779093742371e-01 -7.509491592645645142e-02 4.682027548551559448e-02 1.666985005140304565e-01 -6.042663380503654480e-02 5.827327817678451538e-02 4.193720221519470215e-02 -1.096977591514587402e-01 1.031829603016376495e-02 -9.302332997322082520e-02 -4.578327015042304993e-02 4.686518386006355286e-02 1.798982731997966766e-02 -2.356037050485610962e-01 -2.357823699712753296e-01 -1.360954195261001587e-01 3.042299114167690277e-02 6.130542606115341187e-03 7.363521307706832886e-02 -8.965140581130981445e-02 1.278751529753208160e-02 1.122607588768005371e-01 -1.247518882155418396e-01 -5.993589758872985840e-02 -1.720332503318786621e-01 -1.490339487791061401e-01 -1.113467961549758911e-01 2.705416083335876465e-02 8.226395398378372192e-02 4.461110755801200867e-02 -5.848210677504539490e-02 -3.634781576693058014e-03 1.701651513576507568e-02 -3.439118266105651855e-01 -1.374128460884094238e-01 1.157729327678680420e-01 -3.394605964422225952e-02 1.338164359331130981e-01 1.305987983942031860e-01 -1.386011205613613129e-02 5.628592520952224731e-02 2.598713338375091553e-02 -1.016316041350364685e-01 1.229759119451045990e-02 -2.144573628902435303e-02 -2.631948888301849365e-02 -2.093786597251892090e-01 -2.069213390350341797e-01 -1.768303960561752319e-01 -1.935962736606597900e-01 -2.346681058406829834e-01 1.133413612842559814e-01 1.593930274248123169e-01 1.685477048158645630e-01 2.915868721902370453e-02 -2.354973554611206055e-02 -1.121901050209999084e-01 1.739473193883895874e-01 6.826755404472351074e-02 -8.719859272241592407e-02 -5.534011498093605042e-02 -1.397059857845306396e-01 -4.857710376381874084e-02 -1.148673221468925476e-01 1.965061277151107788e-01 -2.235921472311019897e-01 1.241280790418386459e-02 1.172740682959556580e-01 -1.290598362684249878e-01 -4.865932464599609375e-02 3.333145752549171448e-02 -2.837781608104705811e-02 3.518576733767986298e-03 3.870182111859321594e-02 -1.050006821751594543e-01 8.540803939104080200e-02 6.280336529016494751e-02 -5.880246683955192566e-02 -6.490415893495082855e-03 1.038978099822998047e-01 1.670648902654647827e-01 2.038938179612159729e-02 -4.485503211617469788e-02 -3.458422422409057617e-01 1.350267827510833740e-01 -2.230384387075901031e-02 -2.163819596171379089e-02 1.115528866648674011e-01 8.079607784748077393e-02 1.777228415012359619e-01 -1.725557446479797363e-01 1.023699939250946045e-01 -3.053150139749050140e-02 1.330927461385726929e-01 9.720810502767562866e-02 1.379003748297691345e-02 1.519025564193725586e-01 5.000344663858413696e-02 1.224377751350402832e-01 -1.100536063313484192e-02 1.870934218168258667e-01 1.057504788041114807e-01 -1.976005882024765015e-01 -8.126327395439147949e-02 -4.420984163880348206e-02 1.297950446605682373e-01 6.487717479467391968e-02 -5.379473790526390076e-02 -1.158595364540815353e-02 -6.508470326662063599e-02 -1.052125021815299988e-01 3.055746853351593018e-02 -6.208610162138938904e-02 -7.034292817115783691e-02 6.481289118528366089e-02 1.449919939041137695e-01 1.118430420756340027e-01
-9.830109775066375732e-02 -7.745518535375595093e-02 1.833397597074508667e-01 -8.207558840513229370e-02 8.400420658290386200e-03 1.400592774152755737e-01 5.733034759759902954e-02 -1.727000027894973755e-01 3.230503574013710022e-02 -1.200623735785484314e-01 3.014254150912165642e-03 1.026771739125251770e-01 1.145088076591491699e-01 1.928158700466156006e-01 -5.993845686316490173e-02 -2.707294188439846039e-03 -5.139845609664916992e-02 1.005959808826446533e-01 9.472754597663879395e-02 2.267710268497467041e-01 -5.037599429488182068e-02 3.287952765822410583e-02 -2.343246713280677795e-02 1.932443976402282715e-01 1.436915844678878784e-01 5.536809191107749939e-02 1.336674019694328308e-02 1.569846644997596741e-02 -1.887595281004905701e-02 9.896724484860897064e-03 -7.548873126506805420e-02 -7.423263043165206909e-02 8.172916620969772339e-02 -1.716922223567962646e-01 2.791277505457401276e-02 -6.568565219640731812e-02 1.806778758764266968e-01 2.260717935860157013e-02 -5.561824887990951538e-02 -2.639409303665161133e-01 -9.433059394359588623e-02 6.664612889289855957e-02 -1.255332026630640030e-02 6.130911782383918762e-02 2.057035714387893677e-01 -4.682170227169990540e-03 -2.223990485072135925e-02 8.278051763772964478e-02 1.971677541732788086e-01 -7.700161635875701904e-02 1.085859090089797974e-01 -3.085340932011604309e-02 9.253884106874465942e-02 1.409202367067337036e-01 1.352275758981704712e-01 1.452216058969497681e-01 -7.479176670312881470e-02 1.157921627163887024e-01 -6.000695750117301941e-02 -2.787178196012973785e-02 1.564469784498214722e-01 7.468374073505401611e-02 1.018113717436790466e-01 9.416127577424049377e-03 -3.169227624312043190e-03 -2.904122173786163330e-01 1.324352435767650604e-02 -9.843675047159194946e-02 1.135675385594367981e-01 2.941802702844142914e-02 4.180904105305671692e-02 -1.362639814615249634e-01 -1.097044646739959717e-01 2.654359675943851471e-02 -2.593065500259399414e-01 -1.148770446889102459e-03 8.528263121843338013e-02 -7.854885607957839966e-02 3.139470517635345459e-02 -1.415603458881378174e-01 -1.741772443056106567e-01 -1.286016553640365601e-01 -4.652851447463035583e-02 -6.659870594739913940e-02 -1.596529781818389893e-01 -1.691754162311553955e-01 6.113681942224502563e-02 -6.843029521405696869e-03 1.113015040755271912e-01 7.234778255224227905e-02 -7.627769559621810913e-02 1.064933184534311295e-02 1.044941246509552002e-01 -6.924083083868026733e-02 5.324823781847953796e-02 -7.624279707670211792e-02 -2.532786875963211060e-02 4.744715988636016846e-02 4.702684469521045685e-03 -4.579969495534896851e-02 -1.327291727066040039e-01 -6.846506148576736450e-02 -3.319633752107620239e-02 6.728483736515045166e-02 -9.149970114231109619e-02 -6.066239252686500549e-02 2.992057614028453827e-02 5.353931337594985962e-02 -7.420233637094497681e-02 -7.603508979082107544e-02 -2.559798397123813629e-02 4.986679553985595703e-02 -9.236805140972137451e-03 7.043306529521942139e-02 -1.476639299653470516e-03 -2.120045945048332214e-02 1.398615688085556030e-01 2.849339842796325684e-01 -1.914997100830078125e-01 1.661657989025115967e-01 -8.784398436546325684e-03 -1.529950797557830811e-01 -2.504362463951110840e-01 -2.172741293907165527e-02 3.388054436072707176e-03 -5.363435018807649612e-03 -8.102455735206604004e-02 1.314456667751073837e-02
-1.649197190999984741e-01 1.340590119361877441e-01 2.005926072597503662e-01 -2.265482023358345032e-02 3.195313811302185059e-01 -2.014098316431045532e-01 -1.084291860461235046e-01 -1.221543923020362854e-02 4.181336611509323120e-03 -9.295447170734405518e-02 -1.588352769613265991e-01 -1.872238516807556152e-02 -7.306497544050216675e-02 6.214436516165733337e-02 1.530976295471191406e-01 5.663968622684478760e-02 5.869193747639656067e-02 2.419788092374801636e-01 -1.411554664373397827e-01 -2.004019320011138916e-01 -4.935319535434246063e-03 -9.425882995128631592e-02 1.432037651538848877e-01 1.903814524412155151e-01 1.131661608815193176e-01 2.326926887035369873e-01 -6.422820687294006348e-02 1.738449335098266602e-01 1.526062488555908203e-01 4.021118208765983582e-02 -3.163802325725555420e-01 -2.795530557632446289e-01 -1.052220985293388367e-01 -1.648624688386917114e-01 -7.958322763442993164e-02 -1.899638175964355469e-01 1.780981570482254028e-01 1.706648617982864380e-02 -5.003759637475013733e-02 -4.458947107195854187e-02 8.352725207805633545e-02 3.131991624832153320e-02 2.557894214987754822e-02 -1.858042553067207336e-02 -1.327548455446958542e-02 9.522772580385208130e-02 -5.843304470181465149e-02 -8.797469735145568848e-02 -1.857557147741317749e-01 1.677547395229339600e-01 -1.817546039819717407e-01 8.528847992420196533e-02 -1.610297411680221558e-01 3.180097788572311401e-02 -1.280865967273712158e-01 3.441459313035011292e-02 -6.058011949062347412e-02 -2.574916481971740723e-01 -1.293652355670928955e-01 -3.500796854496002197e-02 1.150481253862380981e-01 -9.306428581476211548e-02 1.291489005088806152e-01 -8.843357115983963013e-02 2.525671124458312988e-01 -1.046672612428665161e-01 1.276219338178634644e-01 -1.580668836832046509e-01 2.829892933368682861e-01 -9.428951144218444824e-02 -1.641931980848312378e-01 -1.654684692621231079e-01 1.343940198421478271e-01 2.166750878095626831e-01 1.899825185537338257e-01 5.788972601294517517e-02 -1.488769892603158951e-02 6.563540548086166382e-02 9.463439881801605225e-02 1.894303560256958008e-01 6.642562896013259888e-02 -4.382520541548728943e-02 9.350525587797164917e-02 -4.609926789999008179e-02 -4.966576397418975830e-02 -3.870067000389099121e-02 -1.000842079520225525e-01 1.141572743654251099e-01 2.119396813213825226e-02 -9.794253855943679810e-02 -3.451119959354400635e-01 -1.299485098570585251e-02 1.716268248856067657e-02 -5.250203609466552734e-02 4.362809937447309494e-03 8.390556275844573975e-02 -7.438871264457702637e-02 2.874695658683776855e-01 1.259042173624038696e-01 1.704595535993576050e-01 -1.068255025893449783e-02 -1.710367202758789062e-01 -2.030413448810577393e-01 1.260969638824462891e-01 4.373139515519142151e-02 8.467572927474975586e-02 2.021785378456115723e-01 2.416814565658569336e-01 8.709170855581760406e-03 -1.143746450543403625e-01 -2.088013105094432831e-02 2.263482809066772461e-01 -9.996929764747619629e-02 -2.329157888889312744e-01 6.494566798210144043e-02 7.586839050054550171e-02 1.409145593643188477e-01 -1.768278181552886963e-01 1.003267019987106323e-01 1.428849250078201294e-01 2.599812150001525879e-01 -7.780785113573074341e-02 -1.139519363641738892e-01 1.462701242417097092e-02 4.794233664870262146e-02 -9.647019207477569580e-02 -9.816428273916244507e-02 -4.689745604991912842e-02
6.919994950294494629e-02 1.429789066314697266e-01 -1.901810169219970703e-01 1.533640474081039429e-01 -5.958361178636550903e-02 -2.063856646418571472e-02 -8.690162748098373413e-02 -1.592682749032974243e-01 -3.821403905749320984e-02 6.258726119995117188e-02 2.049435488879680634e-02 -3.135396540164947510e-02 4.854298755526542664e-02 9.129251539707183838e-02 2.931312620639801025e-01 -1.274618953466415405e-01 9.956838190555572510e-02 -1.062371954321861267e-01 -1.577310264110565186e-01 -3.507937490940093994e-02 2.567799091339111328e-01 -3.163103759288787842e-02 1.328884065151214600e-01 2.280047396197915077e-03 2.258562147617340088e-01 -2.356217205524444580e-01 -9.362658113241195679e-02 1.156238391995429993e-01 1.566919237375259399e-01 7.065135240554809570e-02 -1.605301350355148315e-01 -2.824727594852447510e-01 1.893566697835922241e-01 -2.569497525691986084e-01 -1.847346425056457520e-01 -2.994832992553710938e-01 2.130249142646789551e-01 6.648700684309005737e-03 -2.326600998640060425e-02 -4.684234783053398132e-02 1.521175801753997803e-01 2.413562498986721039e-02 5.084884539246559143e-02 -2.579653561115264893e-01 -2.027441561222076416e-01 -3.197560012340545654e-01 2.751271985471248627e-02 4.864686634391546249e-03 1.184255480766296387e-01 7.027944177389144897e-02 -1.384550034999847412e-01 6.236308813095092773e-02 7.887475937604904175e-02 -7.371443510055541992e-02 1.157731041312217712e-01 1.327636539936065674e-01 3.232324495911598206e-02 1.387978531420230865e-02 -1.341403722763061523e-01 -1.723393946886062622e-01 -4.901275783777236938e-02 -8.817596733570098877e-02 -3.203646838665008545e-02 5.921591073274612427e-02 1.127378940582275391e-01 2.051970809698104858e-01 1.171425208449363708e-01 6.213455647230148315e-02 5.706474557518959045e-02 8.731122314929962158e-02 -2.641623020172119141e-01 -9.659111499786376953e-02 4.337998852133750916e-02 -2.523252964019775391e-01 -1.808278858661651611e-01 1.507999747991561890e-01 -3.342993855476379395e-01 1.652628779411315918e-01 9.785543382167816162e-02 -9.333823621273040771e-02 2.741211280226707458e-02 1.228650286793708801e-01 4.147505387663841248e-03 1.443012356758117676e-01 -3.581060096621513367e-02 2.645458839833736420e-02 -3.420782461762428284e-02 1.041270196437835693e-01 -8.188495039939880371e-02 1.248758509755134583e-01 1.850801110267639160e-01 3.605696856975555420e-01 5.625235661864280701e-02 -2.098123729228973389e-01 -3.214727044105529785e-01 1.084958836436271667e-01 2.375898659229278564e-01 -1.243273075670003891e-02 1.253438889980316162e-01 1.815075874328613281e-01 1.425631046295166016e-01 -1.334149390459060669e-01 -4.155433271080255508e-03 2.338292300701141357e-01 3.028770387172698975e-01 1.272341459989547729e-01 7.465596497058868408e-02 -1.139136701822280884e-01 -1.980270296335220337e-01 1.839367449283599854e-01 3.296438232064247131e-02 9.572701156139373779e-02 1.023450046777725220e-01 -1.891436129808425903e-01 4.257249459624290466e-02 -2.964455187320709229e-01 3.821020945906639099e-02 1.895523816347122192e-01 7.905092090368270874e-02 -1.801746785640716553e-01 -2.322456333786249161e-03 -6.285367906093597412e-02 -3.692661644890904427e-03 -8.152838796377182007e-02 -1.256039887666702271e-01 1.234861090779304504e-01 7.963436841964721680e-02 7.671506702899932861e-02
-4.386007413268089294e-02 -2.629147842526435852e-02 1.982580870389938354e-01 -1.251319646835327148e-01 5.021432414650917053e-02 9.835013002157211304e-02 -3.482759371399879456e-02 -7.921969890594482422e-02 1.413678657263517380e-02 1.201929152011871338e-01 2.185874246060848236e-02 1.488431990146636963e-01 -2.488111406564712524e-01 2.396108061075210571e-01 -2.166717080399394035e-03 -1.253633052110671997e-01 5.226649716496467590e-02 8.419845998287200928e-02 3.901023790240287781e-02 -4.029203671962022781e-03 -1.515192985534667969e-01 2.809625351801514626e-03 6.364057958126068115e-02 1.135453730821609497e-01 4.733784496784210205e-02 -1.190963611006736755e-01 -6.881038099527359009e-02 4.522948525846004486e-03 -1.378928776830434799e-02 7.147692143917083740e-02 -2.001472115516662598e-01 -1.752925366163253784e-01 2.075432538986206055e-01 -1.683181822299957275e-01 5.120598897337913513e-02 -1.922082006931304932e-01 1.334589868783950806e-01 -1.952244155108928680e-02 -1.281905323266983032e-01 1.260901894420385361e-02 1.901874244213104248e-01 -1.171607747673988342e-01 -1.243485063314437866e-01 6.030572112649679184e-03 3.097510337829589844e-01 7.172927260398864746e-02 7.655189931392669678e-02 8.765009045600891113e-02 1.975682377815246582e-01 4.518929123878479004e-02 4.347144067287445068e-02 1.304925382137298584e-01 7.223362475633621216e-02 3.700213506817817688e-02 -1.420049555599689484e-02 -6.449764221906661987e-02 -9.821204096078872681e-02 1.404120400547981262e-02 -1.285198032855987549e-01 -1.227057650685310364e-01 8.759673684835433960e-02 -1.391561031341552734e-01 -2.211428582668304443e-01 1.204223632812500000e-01 1.178826913237571716e-01 -1.510327756404876709e-01 -1.609009057283401489e-01 -1.979270875453948975e-01 1.654581725597381592e-01 -3.708728030323982239e-02 -3.980173915624618530e-02 3.106766089331358671e-04 1.108548715710639954e-01 5.034445971250534058e-02 -4.615703970193862915e-02 1.507391035556793213e-02 -5.319961160421371460e-02 -7.471019029617309570e-02 -9.623707272112369537e-03 1.013984829187393188e-01 -1.849971264600753784e-01 -6.653276830911636353e-02 -8.138217777013778687e-02 -1.416175998747348785e-02 -1.095990166068077087e-01 -1.471094228327274323e-02 6.926137953996658325e-02 1.146810352802276611e-01 4.345247871242463589e-04 -1.962885726243257523e-03 -7.317163050174713135e-02 -1.283872723579406738e-01 5.037060752511024475e-02 2.784251607954502106e-02 -1.304736137390136719e-01 3.893867507576942444e-02 2.076793089509010315e-02 2.859992682933807373e-01 1.280539780855178833e-01 1.464411020278930664e-01 3.670204430818557739e-02 -1.668905317783355713e-01 3.716937964782118797e-03 -1.313786357641220093e-01 2.617887221276760101e-02 -1.358392983675003052e-01 -3.144212812185287476e-02 7.836464047431945801e-02 -2.894038259983062744e-01 -2.157721854746341705e-02 -6.696312874555587769e-02 1.500388383865356445e-01 1.953231170773506165e-02 -1.978306174278259277e-01 -9.696908295154571533e-02 1.304122339934110641e-02 9.600455313920974731e-02 8.828531950712203979e-02 -7.663639634847640991e-02 3.104291670024394989e-02 9.387289732694625854e-02 -1.580932140350341797e-01 5.529674235731363297e-03 3.068280033767223358e-02 -9.346704930067062378e-02 5.499571189284324646e-02 1.253174990415573120e-01 8.619501441717147827e-02
1.194540113210678101e-01 1.598633378744125366e-01 1.622552871704101562e-01 -1.038450971245765686e-01 1.419349908828735352e-01 2.605566680431365967e-01 3.386028483510017395e-02 -7.712624967098236084e-02 3.531546145677566528e-02 2.052923291921615601e-01 1.102550327777862549e-02 1.921711713075637817e-01 -1.467727720737457275e-01 6.080824509263038635e-02 2.825031280517578125e-01 6.702001392841339111e-02 -1.974244229495525360e-02 -2.138095349073410034e-01 6.638722866773605347e-02 -2.868114272132515907e-03 -1.342444866895675659e-01 2.236059121787548065e-02 -2.607364580035209656e-02 -1.993213295936584473e-01 -3.266090154647827148e-01 -7.809907197952270508e-02 3.326759934425354004e-01 -1.399692147970199585e-01 6.622138619422912598e-02 7.094778120517730713e-04 -2.277717739343643188e-01 -1.990372389554977417e-01 1.348992139101028442e-01 8.256751298904418945e-02 1.282761804759502411e-02 6.281700730323791504e-02 -3.976623713970184326e-01 -1.545319110155105591e-01 4.291737824678421021e-02 2.110629379749298096e-01 5.523039028048515320e-02 1.181260943412780762e-01 -7.615014165639877319e-02 1.471611261367797852e-01 5.412374436855316162e-02 3.353445231914520264e-01 -7.337027043104171753e-02 -3.434303030371665955e-02 -5.195477604866027832e-01 -8.723951131105422974e-02 -8.303013443946838379e-02 -8.497768640518188477e-02 -6.242673844099044800e-02 -4.422305896878242493e-02 -1.410425174981355667e-02 -1.709892302751541138e-01 4.327898100018501282e-02 -1.825886219739913940e-02 2.425938993692398071e-01 -3.301744908094406128e-02 1.039477363228797913e-01 2.782902680337429047e-03 1.692719161510467529e-01 5.103733763098716736e-02 -2.682361379265785217e-02 -3.474023938179016113e-01 -2.274823635816574097e-01 1.785733252763748169e-01 -2.134151523932814598e-03 -2.306851446628570557e-01 5.401578545570373535e-02 1.529396325349807739e-01 1.486418396234512329e-02 2.891805022954940796e-02 -2.960857748985290527e-01 1.803575307130813599e-01 1.212052553892135620e-01 7.622394710779190063e-02 -1.683268845081329346e-01 3.444996178150177002e-01 -2.440543472766876221e-01 -1.185971572995185852e-01 5.729633569717407227e-02 -2.892966568470001221e-01 1.011375561356544495e-01 -1.919823884963989258e-02 -9.115254133939743042e-02 8.275779336690902710e-02 4.831719771027565002e-02 -1.258433461189270020e-01 -3.434101343154907227e-01 -1.078327223658561707e-01 -2.114658504724502563e-01 -4.611374437808990479e-02 2.112274318933486938e-01 -1.258782297372817993e-01 -2.893185615539550781e-01 2.183731179684400558e-03 -1.275816373527050018e-02 -1.118645146489143372e-01 -1.907073557376861572e-01 2.268077880144119263e-01 -1.785043776035308838e-01 -4.071069061756134033e-01 1.205551400780677795e-01 2.601915001869201660e-01 4.261318221688270569e-02 -5.963177233934402466e-02 -1.742407232522964478e-01 3.003197908401489258e-01 1.700130105018615723e-01 -1.539966017007827759e-01 -1.137444972991943359e-01 -6.508930772542953491e-02 -6.602577120065689087e-02 5.314915180206298828e-01 1.580707877874374390e-01 -3.257385194301605225e-01 -1.751680225133895874e-01 -1.090299189090728760e-01 1.439195126295089722e-01 -1.968215554952621460e-01 1.825699359178543091e-01 2.043440639972686768e-01 2.008193731307983398e-01 -8.479788899421691895e-02 -5.410741269588470459e-02 4.749287664890289307e-02
-1.261169612407684326e-01 7.951828837394714355e-02 3.687781095504760742e-02 1.065076515078544617e-01 4.877587780356407166e-02 -9.395125322043895721e-03 2.337440103292465210e-02 6.880977749824523926e-02 -8.730069547891616821e-02 5.983198806643486023e-02 1.070229616016149521e-02 2.350760400295257568e-01 6.438151001930236816e-02 1.176397800445556641e-01 -1.066979020833969116e-01 2.046213150024414062e-01 8.561629801988601685e-03 2.429892681539058685e-02 -1.859504729509353638e-02 3.176285028457641602e-01 -2.030853629112243652e-01 5.958180874586105347e-02 -1.377657242119312286e-02 -2.150468230247497559e-01 -3.237202167510986328e-01 3.116202652454376221e-01 -1.083820834755897522e-01 -1.528304517269134521e-01 1.233978867530822754e-01 -6.742041558027267456e-02 -1.312170326709747314e-01 1.401305012404918671e-02 -7.626552879810333252e-02 1.033521071076393127e-01 -1.037566829472780228e-02 5.065242294222116470e-03 7.883796840906143188e-02 1.006833016872406006e-01 -1.460631042718887329e-01 -6.499969214200973511e-02 2.744852900505065918e-01 1.971517875790596008e-02 -1.330208927392959595e-01 -4.907230660319328308e-02 1.343719754368066788e-02 9.304944425821304321e-02 4.717227816581726074e-02 1.474192924797534943e-02 -4.520954564213752747e-02 -8.143735677003860474e-02 -9.640015778131783009e-04 -5.020946636795997620e-02 -1.553768366575241089e-01 -3.321383893489837646e-02 1.186642274260520935e-01 -6.991500407457351685e-02 -3.413627296686172485e-02 -7.688666880130767822e-02 1.630521565675735474e-02 -6.144729908555746078e-03 2.403807267546653748e-02 -9.372808970510959625e-03 3.360666036605834961e-01 -5.356664210557937622e-02 -1.182900369167327881e-02 -2.017340064048767090e-02 1.834203153848648071e-01 -3.363211173564195633e-03 -1.493287682533264160e-01 -3.639328479766845703e-02 -2.813796326518058777e-02 -6.269314140081405640e-02 -9.608422964811325073e-02 -6.977417040616273880e-03 -3.266194462776184082e-01 1.208238601684570312e-01 3.667809069156646729e-02 -2.359546571969985962e-01 -4.461991135030984879e-03 -2.293220460414886475e-01 -3.462716937065124512e-02 -4.993077740073204041e-02 -4.657024517655372620e-03 -1.440874040126800537e-01 3.880585730075836182e-02 -5.028781015425920486e-04 1.736747920513153076e-01 2.617790177464485168e-02 2.345691621303558350e-01 -2.676447480916976929e-02 -1.541749387979507446e-01 -6.516329944133758545e-02 1.291496902704238892e-01 -1.672093756496906281e-02 6.128397583961486816e-02 5.255979020148515701e-03 1.071258559823036194e-01 1.577177345752716064e-01 -7.225041091442108154e-02 1.694331131875514984e-02 1.242665350437164307e-01 6.194401532411575317e-02 6.463471055030822754e-02 1.390603184700012207e-01 1.778510212898254395e-01 -9.564648568630218506e-02 -5.266749858856201172e-02 -4.002098366618156433e-02 -9.382065385580062866e-02 -2.236800640821456909e-01 1.965046487748622894e-02 -6.683232635259628296e-02 1.003201236017048359e-03 6.047070026397705078e-02 4.022259265184402466e-02 9.678866714239120483e-02 -4.044222831726074219e-02 8.363642543554306030e-02 -1.083160117268562317e-01 2.413828484714031219e-02 -1.445548385381698608e-01 -6.336613744497299194e-02 -4.049769788980484009e-02 2.710814215242862701e-02 3.408301621675491333e-02 -4.174670949578285217e-02 7.948892563581466675e-02 1.203254312276840210e-01
1.061834171414375305e-01 4.819013923406600952e-02 8.350146561861038208e-02 1.533369421958923340e-01 -1.645857542753219604e-01 -1.059247553348541260e-02 5.100035574287176132e-03 1.711895614862442017e-01 -1.607636958360671997e-01 2.668615430593490601e-03 -7.399035245180130005e-02 1.721224784851074219e-01 -3.289726749062538147e-02 9.492179006338119507e-02 -9.799337387084960938e-02 3.102978467941284180e-01 7.803399115800857544e-02 -8.343116939067840576e-02 4.952519759535789490e-02 1.377505809068679810e-01 1.176687479019165039e-01 1.325544714927673340e-01 -6.672500073909759521e-02 -1.415929645299911499e-01 2.047961606876924634e-04 1.006517000496387482e-02 4.036708548665046692e-02 -1.944771856069564819e-01 1.732024550437927246e-01 1.166996732354164124e-01 5.497327819466590881e-02 -7.270354032516479492e-02 9.008669108152389526e-02 9.398045390844345093e-02 7.492905855178833008e-02 -2.093334449455142021e-03 1.388753205537796021e-02 -3.833568692207336426e-01 9.981261566281318665e-03 8.364267647266387939e-02 -4.251178726553916931e-02 -3.435165062546730042e-02 4.932751506567001343e-02 -8.587764203548431396e-02 -9.222444891929626465e-02 5.505215004086494446e-02 -7.486691325902938843e-02 8.343113213777542114e-02 2.994819730520248413e-02 -1.017762795090675354e-01 -1.121246293187141418e-01 9.550008922815322876e-02 -9.849575906991958618e-02 6.094342470169067383e-02 1.580714434385299683e-01 -4.338224604725837708e-02 -2.097667567431926727e-02 4.984558746218681335e-02 7.067783921957015991e-02 -5.982490256428718567e-02 -4.617935046553611755e-03 -2.489245496690273285e-02 1.108418703079223633e-01 6.071404740214347839e-02 -3.236326575279235840e-02 -2.921400368213653564e-01 -6.598738580942153931e-02 1.257426738739013672e-01 -1.712956093251705170e-02 -1.419055741280317307e-02 -2.958871982991695404e-02 7.543775439262390137e-02 -1.890347152948379517e-02 2.030471712350845337e-02 -5.150575041770935059e-01 1.170474514365196228e-01 1.485441904515028000e-02 -1.657605729997158051e-02 4.838657006621360779e-02 5.633194744586944580e-02 -3.355582952499389648e-01 -1.146968230605125427e-01 2.351230755448341370e-02 -5.092719942331314087e-02 -2.184951305389404297e-01 3.000414744019508362e-02 6.807366013526916504e-02 -1.024204939603805542e-01 -1.579370945692062378e-01 1.908542215824127197e-02 3.028712570667266846e-01 1.006446965038776398e-02 -2.879952080547809601e-03 1.325543522834777832e-01 -1.454278826713562012e-01 3.734706714749336243e-02 6.560871750116348267e-02 -2.787353694438934326e-01 2.882256358861923218e-02 -2.454765327274799347e-02 3.080203011631965637e-02 1.120156869292259216e-01 1.046087220311164856e-01 -7.878721505403518677e-02 -3.032446838915348053e-02 1.171630322933197021e-01 4.972108826041221619e-02 -2.121091037988662720e-01 -3.006551265716552734e-01 3.751437366008758545e-02 1.404984947293996811e-02 2.226908132433891296e-02 1.821129024028778076e-01 2.369121462106704712e-02 -1.050996035337448120e-02 9.414923191070556641e-02 1.296574175357818604e-01 1.532031148672103882e-01 -1.363324373960494995e-01 1.188801229000091553e-02 1.573741883039474487e-01 -1.566990613937377930e-01 7.377112656831741333e-02 -1.024136021733283997e-01 3.092761337757110596e-02 4.476195573806762695e-02 8.248368650674819946e-02 -6.612717360258102417e-02
5.457553267478942871e-02 1.953778713941574097e-01 1.442288458347320557e-01 -1.574177742004394531e-01 1.116468235850334167e-01 1.869306117296218872e-01 -5.988753587007522583e-02 -2.530156075954437256e-01 8.913157135248184204e-02 -5.811182782053947449e-02 -7.036966830492019653e-02 2.185980826616287231e-01 2.021139413118362427e-01 1.228563487529754639e-01 9.824898838996887207e-02 2.497311383485794067e-01 5.235237628221511841e-02 -3.323549926280975342e-01 1.483803056180477142e-02 1.913799196481704712e-01 3.594869375228881836e-02 -7.935018092393875122e-02 -2.560488879680633545e-02 -4.640968516469001770e-02 2.469753473997116089e-01 -2.427634224295616150e-02 2.733194641768932343e-02 2.461108937859535217e-02 1.152293905615806580e-01 7.735461741685867310e-02 -2.834613919258117676e-01 -3.624697029590606689e-02 2.000023275613784790e-01 -2.153903841972351074e-01 -1.437977701425552368e-01 -2.094006165862083435e-02 4.260428845882415771e-01 1.599058359861373901e-01 -2.246291488409042358e-01 -3.626434504985809326e-01 -1.844625473022460938e-01 1.701660081744194031e-02 1.784580759704113007e-02 -8.781874179840087891e-02 -2.269166260957717896e-01 -9.196504950523376465e-02 1.894352287054061890e-01 9.440991282463073730e-02 -2.423348277807235718e-01 2.091407030820846558e-01 1.812046207487583160e-02 1.039372459053993225e-01 6.569758057594299316e-02 3.292488306760787964e-02 1.439804770052433014e-02 1.824433207511901855e-01 -4.046284407377243042e-02 -1.175043135881423950e-01 7.030010223388671875e-03 -1.574697643518447876e-01 2.521677911281585693e-01 -1.213615983724594116e-01 -4.809839278459548950e-02 -3.802963346242904663e-02 6.737142056226730347e-02 3.083947673439979553e-02 4.912036284804344177e-02 5.062849074602127075e-02 2.150469571352005005e-01 -5.215029790997505188e-02 -1.500529497861862183e-01 -2.483158856630325317e-01 1.091986000537872314e-01 -1.359409987926483154e-01 -4.487166702747344971e-01 1.167618334293365479e-01 3.493196517229080200e-02 -6.813976168632507324e-02 1.422997266054153442e-01 -5.455846339464187622e-02 -3.109278082847595215e-01 1.947660148143768311e-01 1.762157231569290161e-01 1.397168785333633423e-01 5.776262283325195312e-02 1.326849609613418579e-01 -4.382111728191375732e-01 2.683836519718170166e-01 -2.302156537771224976e-01 1.267591714859008789e-01 -2.043208181858062744e-01 5.912793427705764771e-02 1.033840104937553406e-01 -9.828638285398483276e-02 -5.556227639317512512e-02 7.758547365665435791e-02 -1.140183210372924805e-01 -3.242992982268333435e-02 -2.053229510784149170e-01 6.905668973922729492e-02 -1.095604151487350464e-01 -9.774775058031082153e-02 -3.493630886077880859e-01 -3.143554180860519409e-02 7.864685356616973877e-02 -1.215841695666313171e-01 2.126381993293762207e-01 7.287318259477615356e-02 -2.629732191562652588e-01 3.057406544685363770e-01 2.022595256567001343e-01 1.485323905944824219e-02 -2.520335316658020020e-01 -1.145207434892654419e-01 -1.020626202225685120e-01 -3.915857076644897461e-01 2.246679812669754028e-01 2.836893498897552490e-01 -6.026326492428779602e-02 -2.081210911273956299e-01 -2.550484612584114075e-02 6.556124985218048096e-02 -1.400695890188217163e-01 2.023823373019695282e-02 -2.578106941655278206e-03 -1.070457100868225098e-01 1.493083089590072632e-01 5.938213691115379333e-02
-2.061555683612823486e-01 6.539735198020935059e-02 -6.298351287841796875e-02 3.224257230758666992e-01 1.004819124937057495e-01 -8.663989603519439697e-02 -6.546048074960708618e-02 1.424898207187652588e-01 -1.703360080718994141e-01 -4.472235590219497681e-02 1.316784471273422241e-01 1.175705045461654663e-01 -1.673821657896041870e-01 1.487968713045120239e-01 -4.208436980843544006e-02 8.829234540462493896e-02 1.593268960714340210e-01 1.882451474666595459e-01 2.242810092866420746e-02 3.172607347369194031e-02 -9.889352321624755859e-02 -1.624299027025699615e-02 -3.011497855186462402e-02 3.444369509816169739e-02 -3.438799083232879639e-02 -5.711949989199638367e-02 -1.844190657138824463e-01 -2.423721402883529663e-01 9.324963204562664032e-03 4.730469733476638794e-02 -1.324234902858734131e-01 -8.600041270256042480e-03 1.021637693047523499e-01 -1.537027359008789062e-01 -2.096385657787322998e-01 5.012998357415199280e-02 1.189139187335968018e-01 -2.551716864109039307e-01 -4.752535000443458557e-02 1.053699031472206116e-01 6.165242567658424377e-02 1.400774996727705002e-02 -2.794365398585796356e-02 1.783943772315979004e-01 -4.627922549843788147e-02 -2.112087607383728027e-01 9.335590153932571411e-02 -1.863172277808189392e-02 6.782089918851852417e-02 9.692513942718505859e-02 -9.058767557144165039e-02 2.382188290357589722e-01 -8.923584222793579102e-02 -1.759537458419799805e-01 -9.461903572082519531e-02 1.603969559073448181e-02 -5.353968590497970581e-02 -1.394537687301635742e-01 -9.265682846307754517e-02 -2.498197406530380249e-01 -1.594831049442291260e-01 -2.199751697480678558e-02 1.478019654750823975e-01 1.810291707515716553e-01 1.316774040460586548e-01 -1.339880824089050293e-01 -7.119441032409667969e-02 -5.073868855834007263e-02 -4.934076592326164246e-02 4.562058951705694199e-03 4.689785465598106384e-02 -1.382803469896316528e-01 -9.064663201570510864e-02 -1.678999662399291992e-01 6.534379720687866211e-02 2.140443027019500732e-01 -6.389247626066207886e-02 -6.012010946869850159e-02 7.877400517463684082e-02 -1.919846609234809875e-02 -1.249859202653169632e-02 8.424739539623260498e-02 -1.435232609510421753e-01 1.749866753816604614e-01 -7.830130867660045624e-03 -4.552883282303810120e-02 3.035581111907958984e-02 5.594156309962272644e-02 2.742188982665538788e-03 7.971580326557159424e-02 2.949982881546020508e-01 -2.459868974983692169e-02 2.077434360980987549e-01 -1.742306649684906006e-01 -1.582141667604446411e-01 2.744217514991760254e-01 -1.651437133550643921e-01 -3.240026235580444336e-01 -9.814617037773132324e-02 9.588846564292907715e-02 8.836848288774490356e-02 4.222650825977325439e-02 1.382641792297363281e-01 2.205878794193267822e-01 2.518636360764503479e-02 1.311337053775787354e-01 1.103699281811714172e-01 4.009265918284654617e-03 1.229836791753768921e-01 -1.471810489892959595e-01 -1.367125809192657471e-01 1.834932528436183929e-02 1.800314933061599731e-01 -2.416276037693023682e-01 -2.355292588472366333e-01 1.727450825273990631e-02 3.579236194491386414e-02 1.530223339796066284e-01 7.758680731058120728e-02 8.453688025474548340e-02 2.197034657001495361e-01 1.109483372420072556e-02 -6.282825022935867310e-02 -5.841074883937835693e-02 -1.039252504706382751e-01 4.022243320941925049e-01 1.005754843354225159e-01 8.096672594547271729e-02
-2.669304609298706055e-01 2.805176973342895508e-01 9.163817763328552246e-02 -2.543749287724494934e-02 3.885878026485443115e-01 -9.483975172042846680e-02 -2.116095274686813354e-02 -1.137803941965103149e-01 -1.176989451050758362e-01 -2.326571568846702576e-02 -2.216205000877380371e-01 4.280066788196563721e-01 -2.453730851411819458e-01 2.715985178947448730e-01 1.557743549346923828e-02 2.674521319568157196e-02 1.480521410703659058e-01 3.246680200099945068e-01 -6.566707044839859009e-02 1.310874521732330322e-01 -1.909417062997817993e-01 7.411070168018341064e-02 1.511889547109603882e-01 1.254960894584655762e-01 -2.426394224166870117e-01 2.412409894168376923e-02 -2.035776972770690918e-01 -2.015369087457656860e-01 1.175373792648315430e-01 -1.702303439378738403e-01 -2.825805842876434326e-01 -2.917264699935913086e-01 1.466695815324783325e-01 -4.413841664791107178e-02 -8.237759023904800415e-02 2.089533396065235138e-02 1.268698424100875854e-01 -4.810813348740339279e-03 -1.981181651353836060e-01 -2.289500236511230469e-01 6.016357615590095520e-02 1.377826333045959473e-01 2.338095754384994507e-02 -4.717913269996643066e-02 3.247925080358982086e-03 6.248752027750015259e-02 2.037708014249801636e-01 8.906645327806472778e-02 -1.406597942113876343e-01 1.850964277982711792e-01 -4.656668379902839661e-02 2.232465595006942749e-01 2.735002636909484863e-01 1.488453149795532227e-01 2.119038105010986328e-01 1.144631579518318176e-01 4.105565696954727173e-02 -8.159901201725006104e-02 -6.627339869737625122e-02 -2.536527626216411591e-02 1.381906569004058838e-01 -7.289908081293106079e-02 2.003242373466491699e-01 1.009400635957717896e-01 9.433646500110626221e-02 -3.762778043746948242e-01 -2.496161870658397675e-02 -2.546164207160472870e-02 3.489276394248008728e-02 -1.752909272909164429e-01 -3.194989562034606934e-01 -2.013547569513320923e-01 -2.039643526077270508e-01 2.002533376216888428e-01 -1.797263622283935547e-01 1.116313189268112183e-01 3.017803132534027100e-01 -3.698479235172271729e-01 1.240421310067176819e-01 5.616216361522674561e-02 -1.528438925743103027e-01 -1.547606885433197021e-01 -2.566830813884735107e-01 -1.275754570960998535e-01 -1.301968246698379517e-01 -3.285520970821380615e-01 1.541704125702381134e-02 2.443371862173080444e-01 1.959291547536849976e-01 -2.307845354080200195e-01 -3.773986101150512695e-01 -3.356371223926544189e-01 -1.218041852116584778e-01 1.215447336435317993e-01 -1.145993694663047791e-01 1.224417164921760559e-01 3.013989329338073730e-02 2.463549226522445679e-01 -2.567375004291534424e-01 1.732591390609741211e-01 4.254386946558952332e-02 2.214007638394832611e-02 1.883859336376190186e-01 1.813511699438095093e-01 -4.653280600905418396e-02 -2.931362576782703400e-02 4.578310623764991760e-02 2.672263681888580322e-01 -8.554926514625549316e-02 -1.827903538942337036e-01 7.202479988336563110e-02 8.121205866336822510e-02 6.660274695605039597e-03 -2.594314217567443848e-01 -6.105795502662658691e-02 1.604740917682647705e-01 2.558328807353973389e-01 1.542070209980010986e-01 -2.580719292163848877e-01 1.592647135257720947e-01 2.851190567016601562e-01 -2.821811735630035400e-01 -9.786750376224517822e-02 -1.204004958271980286e-01 1.863166317343711853e-02 1.286375522613525391e-01 2.506292760372161865e-01 1.233158633112907410e-01
7.461205124855041504e-02 5.553123727440834045e-02 6.871485710144042969e-02 1.199124380946159363e-02 -7.848377525806427002e-02 6.949476152658462524e-02 -7.471729815006256104e-02 -6.960213929414749146e-02 1.174379289150238037e-01 7.587493956089019775e-02 -2.460130257532000542e-03 -7.407266646623611450e-02 -9.927543252706527710e-02 1.001181174069643021e-02 7.907350361347198486e-02 -1.016242802143096924e-01 5.915644764900207520e-02 1.073981542140245438e-02 1.071174517273902893e-01 -1.054480001330375671e-01 -2.429956197738647461e-02 2.137956582009792328e-02 -2.054031006991863251e-02 -8.989968150854110718e-02 5.849475786089897156e-02 -1.832880526781082153e-01 -6.490386277437210083e-02 4.342681914567947388e-02 -3.142935782670974731e-02 2.124196588993072510e-01 -6.886672228574752808e-02 4.605395719408988953e-02 1.066102907061576843e-01 -5.557939037680625916e-02 -6.015361845493316650e-02 -3.891958668828010559e-02 -6.005387380719184875e-02 -1.973441094160079956e-01 7.872530072927474976e-02 1.690521240234375000e-01 1.321086566895246506e-02 5.646562203764915466e-02 -3.235673531889915466e-02 -4.203928261995315552e-02 -1.033334359526634216e-01 1.213137060403823853e-01 -6.470959633588790894e-02 -6.779275834560394287e-02 2.390138618648052216e-02 8.219725638628005981e-02 -2.193020656704902649e-02 -7.212706655263900757e-02 -3.208608552813529968e-02 -1.238531544804573059e-01 -3.228497207164764404e-01 1.674782857298851013e-02 1.543225022032856941e-03 1.383479963988065720e-02 -6.310746539384126663e-03 -1.273108739405870438e-02 -2.769939899444580078e-01 1.577413082122802734e-01 -2.043596357107162476e-01 -8.405440300703048706e-02 -1.036422699689865112e-01 4.781910032033920288e-02 -1.670562028884887695e-01 4.924969375133514404e-02 1.187073439359664917e-02 -2.986993454396724701e-02 -1.836754940450191498e-02 9.337929636240005493e-02 2.087377570569515228e-02 -4.702500253915786743e-02 -1.157285422086715698e-01 2.379601262509822845e-02 -1.291813552379608154e-01 -7.589275389909744263e-02 1.134150102734565735e-01 2.368768453598022461e-01 -1.465062424540519714e-02 1.190096586942672729e-01 7.948965579271316528e-02 5.854957550764083862e-02 -2.971074916422367096e-02 -1.262336373329162598e-01 -6.688930094242095947e-03 6.684601306915283203e-02 -2.149688303470611572e-01 -8.153758943080902100e-02 1.033213436603546143e-01 4.925143718719482422e-02 9.478448331356048584e-02 8.116190321743488312e-03 -2.963248267769813538e-02 1.466036736965179443e-01 -1.260439902544021606e-01 -3.530462831258773804e-02 6.061196699738502502e-02 3.332968428730964661e-02 -6.738494336605072021e-02 -2.854216285049915314e-02 2.437584847211837769e-02 -1.036031842231750488e-01 2.001050859689712524e-01 1.074197739362716675e-01 4.453663155436515808e-02 8.002730458974838257e-02 -4.186202213168144226e-02 1.065991595387458801e-01 2.045064792037010193e-02 2.061177743598818779e-03 1.503624916076660156e-01 -1.501453220844268799e-01 -3.228228166699409485e-02 3.682208061218261719e-02 -6.683793663978576660e-02 1.550321746617555618e-02 8.616757392883300781e-02 -1.063424795866012573e-01 8.971266448497772217e-02 -1.661193966865539551e-01 -8.333114907145500183e-03 8.116234093904495239e-02 -2.862258441746234894e-02 9.012391790747642517e-03 -1.056859865784645081e-01 -9.386209398508071899e-02
-1.789234429597854614e-01 -2.978910319507122040e-02 2.527569979429244995e-02 -1.631511375308036804e-02 1.843425184488296509e-01 -3.250763565301895142e-02 -5.092679709196090698e-02 -4.975471645593643188e-02 3.765328228473663330e-02 8.119700103998184204e-02 9.092869237065315247e-03 -1.264225393533706665e-01 -3.734219074249267578e-02 8.906098455190658569e-02 1.393025815486907959e-01 -2.675691246986389160e-01 -2.097348496317863464e-02 4.304261505603790283e-01 3.763198480010032654e-02 -4.305765032768249512e-02 -2.276697903871536255e-01 1.309672952629625797e-03 -2.214531786739826202e-02 3.232127130031585693e-01 -3.563337028026580811e-01 -1.752520799636840820e-01 -2.687426209449768066e-01 2.083495855331420898e-01 4.757276549935340881e-02 -1.522265672683715820e-01 2.036292552947998047e-01 -5.282150954008102417e-02 -7.458261400461196899e-02 1.043166667222976685e-01 3.567990288138389587e-02 -5.997343361377716064e-02 -4.281151592731475830e-01 8.612943440675735474e-02 2.158350683748722076e-02 3.164368122816085815e-02 2.891512513160705566e-01 9.782607853412628174e-02 -1.068637743592262268e-01 1.017756909132003784e-01 -3.553014993667602539e-01 8.298448473215103149e-02 2.382989227771759033e-02 -9.371158480644226074e-02 1.210748101584613323e-03 1.620651483535766602e-01 -1.561091467738151550e-02 1.276725064963102341e-02 -2.550225853919982910e-01 7.249747961759567261e-02 1.253403127193450928e-01 -4.519185423851013184e-02 -6.393803656101226807e-02 -9.192860871553421021e-02 -1.759694218635559082e-01 -5.310690402984619141e-02 -6.164969503879547119e-02 2.027700655162334442e-02 -2.000867426395416260e-01 1.569456309080123901e-01 1.308557987213134766e-01 1.176890432834625244e-01 -1.401106268167495728e-01 -7.604282349348068237e-02 1.200540661811828613e-01 -1.934940367937088013e-02 9.486577659845352173e-02 -7.012937963008880615e-02 -4.219812154769897461e-02 1.130681037902832031e-01 6.370605826377868652e-01 -8.225556463003158569e-02 -4.855248332023620605e-02 6.705424934625625610e-02 -1.956659741699695587e-02 -9.601596742868423462e-02 1.976384408771991730e-02 -4.931638389825820923e-02 -2.149210721254348755e-01 -1.894202232360839844e-01 -7.422804087400436401e-02 -3.197053372859954834e-01 2.045856714248657227e-01 -2.098111249506473541e-02 6.145285069942474365e-02 -1.787419170141220093e-01 5.584792047739028931e-02 1.288112848997116089e-01 4.418303072452545166e-02 -8.989874273538589478e-02 -1.980107724666595459e-01 5.004857853055000305e-02 -3.473664224147796631e-01 3.718587383627891541e-02 -5.876126885414123535e-02 5.835646018385887146e-02 3.425899893045425415e-02 1.144878938794136047e-01 2.634963095188140869e-01 1.004618108272552490e-01 4.685870837420225143e-03 2.307813316583633423e-01 -8.336159586906433105e-02 2.127229422330856323e-01 -4.821290075778961182e-02 -2.911871299147605896e-02 -2.009888179600238800e-02 3.662052005529403687e-02 2.331679910421371460e-01 -3.376754000782966614e-03 -1.374506801366806030e-01 1.163650676608085632e-01 -5.445986986160278320e-02 -2.191536128520965576e-02 8.317544311285018921e-02 1.105623841285705566e-01 9.772770851850509644e-02 7.223944365978240967e-02 8.842101693153381348e-02 -1.718682795763015747e-01 -2.351266884943470359e-04 1.575854271650314331e-01 -2.182032540440559387e-02 4.515292495489120483e-02
