-2.933013252913951874e-02 2.543503046035766602e-02 -5.139393266290426254e-03 -3.218021243810653687e-02 8.229480683803558350e-02 -5.209727957844734192e-02 -8.638348430395126343e-02 4.818029329180717468e-02 9.216637909412384033e-02 1.616750098764896393e-02 2.986141666769981384e-02 5.964843090623617172e-03 -6.904117017984390259e-02 5.302023608237504959e-03 -4.356992989778518677e-02 -2.691637491807341576e-03 2.334787137806415558e-02 -5.358450114727020264e-02 -4.528222233057022095e-02 -7.562454789876937866e-02 1.182304695248603821e-02 -3.875350579619407654e-02 4.124038666486740112e-02 -2.900222688913345337e-02 -1.144367735832929611e-02 -7.437662780284881592e-02 5.182373523712158203e-02 -2.858926728367805481e-02 6.501679122447967529e-02 -8.950579911470413208e-03 9.082047268748283386e-03 -5.128329619765281677e-02 -8.095492422580718994e-02 -3.811467066407203674e-02 2.286775037646293640e-02 4.327596724033355713e-02 -2.294266410171985626e-02 3.469159826636314392e-02 3.710103034973144531e-02 1.858587935566902161e-02 1.589406840503215790e-02 1.023302748799324036e-01 -5.323348194360733032e-02 -1.930405199527740479e-02 3.198010101914405823e-02 2.013388276100158691e-02 2.705050259828567505e-02 -8.324734866619110107e-02 -5.103768035769462585e-02 -4.983499646186828613e-02 3.242869302630424500e-02 4.176324233412742615e-02 6.344944983720779419e-02 -1.682076603174209595e-02 6.724679470062255859e-02 -3.813235089182853699e-03 2.505653351545333862e-02 7.962349802255630493e-03 1.031836792826652527e-01 1.046762242913246155e-02 -5.623570084571838379e-02 -1.122683808207511902e-01 -6.873089075088500977e-02 -2.020717784762382507e-02 3.281840682029724121e-02 4.017268866300582886e-02 5.436890944838523865e-02 3.878910094499588013e-02 1.434485800564289093e-02 -2.588593401014804840e-02 8.670721203088760376e-02 3.612414374947547913e-02 4.524064436554908752e-02 -1.300474554300308228e-01 3.098098933696746826e-02 9.881416708230972290e-02 -1.329975388944149017e-02 -8.947000838816165924e-03 -5.703317001461982727e-03 -1.266617979854345322e-02 -2.416071854531764984e-02 -5.759970750659704208e-03 4.143923148512840271e-02 -6.019986793398857117e-02 4.987026005983352661e-02 4.494033008813858032e-02 6.380566209554672241e-02 -5.513927713036537170e-02 1.998324412852525711e-03 -8.664540015161037445e-03 -9.752596169710159302e-02 -7.813871838152408600e-03 3.233079984784126282e-02 5.322413891553878784e-02 -2.284102328121662140e-02 -2.100711222738027573e-03 2.281690388917922974e-02 -1.103736832737922668e-02 -5.903939530253410339e-02 1.414395403116941452e-02 -2.948764897882938385e-02 -2.229040861129760742e-02 2.594901807606220245e-02 -1.592344976961612701e-02 6.710732821375131607e-03 7.141304761171340942e-02 -6.993890553712844849e-02 -2.629495784640312195e-02 6.719136983156204224e-02 9.376128204166889191e-03 1.882685907185077667e-02 8.691235631704330444e-02 -2.501559816300868988e-02 8.289405703544616699e-02 3.570605441927909851e-02 -7.480361312627792358e-02 4.529029130935668945e-02 1.319722086191177368e-02 9.389664232730865479e-02 9.715102496556937695e-04 -6.039371341466903687e-02 -6.126617640256881714e-02 8.429012261331081390e-03 -3.792743384838104248e-02 -8.598432689905166626e-02 1.724442467093467712e-02 -1.229655183851718903e-02 -8.961169421672821045e-02
-1.245820056647062302e-02 3.062896244227886200e-02 6.357813719660043716e-03 7.501789182424545288e-02 -6.805217266082763672e-02 1.856891252100467682e-02 -1.314365118741989136e-02 1.931485533714294434e-02 1.562550663948059082e-01 3.431068966165184975e-03 9.379014372825622559e-03 -1.041272282600402832e-01 7.238589972257614136e-02 -6.546717137098312378e-02 -1.161685213446617126e-02 2.989597059786319733e-02 8.866097033023834229e-02 1.806562766432762146e-02 1.732658594846725464e-02 5.064389482140541077e-02 -6.756359338760375977e-02 -7.126886863261461258e-03 7.074748724699020386e-02 -1.441484224051237106e-02 6.448568403720855713e-02 6.946564465761184692e-02 8.690293878316879272e-02 3.165557980537414551e-02 8.316401392221450806e-02 2.677773497998714447e-02 -7.976554334163665771e-02 -8.924616128206253052e-02 -6.716872006654739380e-02 -1.363494247198104858e-02 -7.267037779092788696e-02 3.713570162653923035e-02 -4.168934188783168793e-03 -8.233204483985900879e-02 2.722946461290121078e-03 3.166444227099418640e-02 -4.174091666936874390e-02 -1.176833957433700562e-01 5.306713655591011047e-02 -4.260145872831344604e-02 6.426064670085906982e-02 3.833258152008056641e-02 -2.694236114621162415e-02 -2.016232721507549286e-02 -4.753110930323600769e-02 -1.263350397348403931e-01 2.786032482981681824e-02 3.604190051555633545e-02 8.165672421455383301e-02 1.901164464652538300e-02 8.322380483150482178e-03 -9.725140780210494995e-02 -5.852837421116419137e-05 3.549817204475402832e-02 -1.934348419308662415e-02 5.770539119839668274e-02 2.553819306194782257e-02 4.850001633167266846e-02 -3.062396310269832611e-02 -6.462708860635757446e-02 -6.368155032396316528e-02 -5.367322359234094620e-03 -1.065344139933586121e-01 2.191498875617980957e-02 4.524047672748565674e-02 7.323907315731048584e-02 -4.928611451759934425e-04 1.175335515290498734e-02 1.412274241447448730e-01 -1.164675280451774597e-01 7.991585880517959595e-02 -6.486361846327781677e-03 -5.395096959546208382e-04 -3.963478654623031616e-02 -1.209385544061660767e-01 -5.744598340243101120e-03 7.012321054935455322e-02 3.077179938554763794e-02 8.594278246164321899e-02 1.324712950736284256e-02 7.813008129596710205e-02 -6.206289306282997131e-02 -2.665258385241031647e-02 -2.980330586433410645e-02 6.274560838937759399e-02 3.836117684841156006e-02 -4.011921584606170654e-02 -7.144724577665328979e-02 -8.132664114236831665e-02 -7.581964135169982910e-02 4.231313988566398621e-02 2.996953949332237244e-02 4.373149201273918152e-02 -2.667337842285633087e-02 4.193281382322311401e-02 -1.410360913723707199e-02 1.597059145569801331e-02 4.591921344399452209e-02 -2.881120890378952026e-02 -3.135581687092781067e-02 -1.963175088167190552e-02 -2.143781632184982300e-03 -5.733159556984901428e-02 1.916632987558841705e-02 9.437059611082077026e-02 -7.837785780429840088e-02 1.842673681676387787e-02 -5.212990939617156982e-02 7.000525295734405518e-02 5.404884368181228638e-02 6.479163467884063721e-02 6.219829618930816650e-02 -3.137752413749694824e-02 6.875443458557128906e-02 9.867816697806119919e-04 1.298666186630725861e-02 -3.360469266772270203e-02 -1.220184843987226486e-02 4.944528639316558838e-02 -1.005870997905731201e-01 -9.975880384445190430e-02 -2.239067107439041138e-02 -8.125874400138854980e-02 -1.006685793399810791e-01
3.606926277279853821e-02 1.525171101093292236e-02 -2.307823859155178070e-02 -1.872058585286140442e-02 1.052574589848518372e-01 4.386010766029357910e-02 -2.132427506148815155e-02 -3.915756195783615112e-02 6.360117346048355103e-02 7.698124274611473083e-03 -2.786317653954029083e-02 -6.685526669025421143e-02 -2.962883934378623962e-02 2.379119955003261566e-02 -6.149876490235328674e-02 4.851683601737022400e-02 2.329387702047824860e-03 -2.771371789276599884e-02 -3.066103719174861908e-02 7.341097807511687279e-04 -9.864359349012374878e-02 -6.116611137986183167e-02 -6.583177298307418823e-02 -2.474804408848285675e-02 -4.883256182074546814e-02 -7.858715020120143890e-03 -1.676504313945770264e-02 4.298047348856925964e-02 5.959479138255119324e-02 -4.016143083572387695e-02 -3.641767194494605064e-03 -3.254236280918121338e-02 4.042340070009231567e-02 4.746500775218009949e-02 -2.588941529393196106e-02 8.104242384433746338e-02 4.696640651673078537e-03 2.812611311674118042e-02 -2.666065096855163574e-02 2.977276220917701721e-02 1.884626410901546478e-02 1.161602512001991272e-02 1.895835809409618378e-02 -2.058354020118713379e-02 3.393916413187980652e-02 9.690243750810623169e-03 -2.785647660493850708e-02 6.853982806205749512e-02 3.920054435729980469e-02 9.238614141941070557e-02 2.549045346677303314e-02 5.113521590828895569e-02 -1.473101973533630371e-02 -7.420369982719421387e-02 5.982877314090728760e-02 -3.028023242950439453e-02 -1.861100271344184875e-02 6.901324540376663208e-02 -4.202982410788536072e-02 -4.824669566005468369e-03 -2.302180044353008270e-02 2.850588597357273102e-02 5.673551931977272034e-02 -7.101380825042724609e-02 -1.115258634090423584e-01 -3.018501400947570801e-02 1.030760817229747772e-02 1.908421888947486877e-02 2.170971408486366272e-02 1.380056142807006836e-01 3.783096745610237122e-02 2.933535352349281311e-02 4.010860994458198547e-02 -2.298487722873687744e-02 2.234956249594688416e-02 6.883366405963897705e-02 5.969050154089927673e-02 -7.384281605482101440e-03 -4.744125530123710632e-02 -1.090099685825407505e-03 2.298805303871631622e-02 -4.707559198141098022e-02 -8.421532064676284790e-02 1.882005110383033752e-02 2.602163143455982208e-02 3.435371676459908485e-03 -5.248061195015907288e-02 -4.272394347935914993e-03 -1.423288732767105103e-01 -2.479534782469272614e-02 1.960024423897266388e-02 6.753800809383392334e-02 -1.046864595264196396e-02 -2.723061107099056244e-02 -4.706433415412902832e-02 3.978507127612829208e-03 5.198621749877929688e-02 7.741017639636993408e-02 2.817685715854167938e-02 -9.003065526485443115e-03 -4.965624213218688965e-02 4.495929926633834839e-02 -7.059843838214874268e-02 -2.239066176116466522e-02 6.815224885940551758e-02 4.660918936133384705e-02 -3.638595715165138245e-02 -4.625385254621505737e-02 1.001465134322643280e-03 4.061796516180038452e-02 7.222498301416635513e-03 -4.606992006301879883e-02 -6.366119533777236938e-02 -6.265477742999792099e-03 -4.459613189101219177e-02 5.201109126210212708e-02 -6.225064024329185486e-02 -3.342488408088684082e-02 -2.051088027656078339e-02 -1.718512177467346191e-02 -1.391232907772064209e-01 -2.039751224219799042e-02 3.144190460443496704e-02 6.337773054838180542e-03 -2.281212247908115387e-02 9.886444360017776489e-02 -1.324867829680442810e-03 7.567789405584335327e-03
1.859927363693714142e-02 2.190413512289524078e-02 1.752743497490882874e-02 4.794676206074655056e-04 1.023265719413757324e-01 5.864678323268890381e-02 5.110052973031997681e-02 -3.615379100665450096e-03 2.396467141807079315e-03 -3.902105614542961121e-02 -4.288217797875404358e-02 -1.432154979556798935e-02 7.059089839458465576e-03 8.162795752286911011e-02 2.947281487286090851e-02 3.160903230309486389e-02 -5.819420795887708664e-03 2.869081310927867889e-02 -1.494995225220918655e-02 7.510387897491455078e-02 1.417641341686248779e-02 -5.131571367383003235e-02 2.035918412730097771e-03 4.890796169638633728e-02 -1.526617445051670074e-02 1.597289578057825565e-03 -9.785807691514492035e-03 -5.746079981327056885e-02 3.592788800597190857e-02 3.809905052185058594e-02 3.826390206813812256e-02 1.646279543638229370e-02 1.057671383023262024e-03 4.419287666678428650e-02 5.342353135347366333e-02 2.996448054909706116e-02 4.360421001911163330e-02 5.436401069164276123e-02 -2.801609784364700317e-02 -5.165314301848411560e-03 5.452015623450279236e-02 8.642196655273437500e-03 1.357907708734273911e-02 2.811424247920513153e-02 -5.187976174056529999e-03 1.374638080596923828e-02 -6.423036102205514908e-04 5.281293764710426331e-02 2.503314428031444550e-02 4.735332727432250977e-02 -2.413610368967056274e-02 2.023404650390148163e-02 8.614280261099338531e-03 -7.146895676851272583e-02 -3.376487642526626587e-02 -8.147069811820983887e-02 -5.722326040267944336e-02 6.865783035755157471e-02 -4.509953781962394714e-03 -3.218118101358413696e-02 -8.724571205675601959e-03 1.269711530767381191e-03 5.216875672340393066e-02 -3.695728722959756851e-03 1.964092487469315529e-03 -1.135958591476082802e-03 1.046620029956102371e-02 -9.849188849329948425e-03 2.115112729370594025e-02 9.658618946559727192e-04 -1.613952219486236572e-02 4.602109268307685852e-02 5.357889086008071899e-02 -4.382725805044174194e-02 -2.248789928853511810e-02 -3.868000814691185951e-03 1.626718044281005859e-02 1.915327459573745728e-02 -7.924874871969223022e-02 -7.064883410930633545e-02 -7.101737707853317261e-02 4.326878860592842102e-02 3.084121458232402802e-02 5.799136310815811157e-02 -3.576372563838958740e-02 7.112393621355295181e-03 -1.688617654144763947e-02 -1.981053501367568970e-02 -4.847882688045501709e-02 -4.441630840301513672e-02 -4.440809413790702820e-02 3.847194835543632507e-02 -3.606619313359260559e-02 -5.493472144007682800e-02 4.330093041062355042e-03 2.363027259707450867e-02 -3.373762220144271851e-02 6.581970304250717163e-02 -7.164715975522994995e-02 -1.035741530358791351e-02 -7.361176609992980957e-02 3.507527057081460953e-03 3.645132109522819519e-02 -6.625646352767944336e-02 4.417876247316598892e-03 2.041590400040149689e-02 -2.334276773035526276e-02 -1.199222952127456665e-01 4.425979778170585632e-02 1.757002063095569611e-02 8.290339261293411255e-03 3.324144519865512848e-03 -1.608914136886596680e-02 2.024731598794460297e-02 -1.088177319616079330e-02 -2.504366682842373848e-03 -2.987053245306015015e-03 8.346529677510261536e-03 -2.974208444356918335e-03 -5.322631821036338806e-02 2.016532979905605316e-02 -5.924340337514877319e-03 -3.997372835874557495e-02 -5.669823847711086273e-03 -2.560098655521869659e-02 7.027343660593032837e-02 -3.931928426027297974e-02 8.891968987882137299e-03
-3.131880424916744232e-03 8.886375464498996735e-03 3.125008940696716309e-02 5.142984166741371155e-02 2.736419439315795898e-02 4.002243746072053909e-03 1.118786819279193878e-02 1.682297885417938232e-02 1.661242730915546417e-02 -3.407068550586700439e-02 1.448761858046054840e-02 1.381191238760948181e-02 -5.545493215322494507e-02 6.719788908958435059e-02 -1.042230334132909775e-02 5.253754183650016785e-02 -6.092323735356330872e-02 4.588267579674720764e-02 2.682411484420299530e-02 1.117752771824598312e-02 3.604860231280326843e-02 -1.132196281105279922e-02 5.445537716150283813e-02 -1.437745708972215652e-02 -3.095340542495250702e-02 6.531404796987771988e-03 7.471032440662384033e-02 3.563717752695083618e-02 -2.920881845057010651e-02 7.201281376183032990e-03 4.153575003147125244e-02 -4.555530846118927002e-02 -4.418922588229179382e-02 9.580036252737045288e-02 6.457480043172836304e-02 -2.015684917569160461e-02 1.085296869277954102e-01 1.312400680035352707e-02 9.434577077627182007e-03 -1.930409856140613556e-02 2.562920562922954559e-02 -1.161323115229606628e-01 3.922846168279647827e-02 3.343989327549934387e-02 4.496444016695022583e-03 -1.356606464833021164e-02 4.550910741090774536e-02 -6.250874698162078857e-02 -9.749735146760940552e-02 -4.672088194638490677e-03 1.964725740253925323e-02 1.188408862799406052e-02 3.110313788056373596e-02 2.380041987635195255e-04 3.662990406155586243e-02 2.782023325562477112e-02 -1.912045292556285858e-02 -1.292164251208305359e-02 -3.555529937148094177e-02 6.077307462692260742e-02 2.697770856320858002e-02 2.038965374231338501e-02 -4.332472011446952820e-02 -3.749435022473335266e-02 1.316583249717950821e-02 4.251369461417198181e-02 -4.087639227509498596e-02 -4.647661373019218445e-02 2.542346902191638947e-02 -1.456856541335582733e-02 3.658166900277137756e-02 -1.410502754151821136e-02 7.143092341721057892e-03 3.995995968580245972e-02 2.291100472211837769e-02 -6.991575658321380615e-02 2.607674524188041687e-02 -2.680536918342113495e-02 2.912932308390736580e-03 -1.078607328236103058e-02 -3.060280531644821167e-02 3.449928760528564453e-02 2.514171786606311798e-02 -3.945583105087280273e-02 2.513875812292098999e-02 2.796229347586631775e-02 -6.160904187709093094e-03 4.232513904571533203e-02 2.210888080298900604e-02 -2.240306138992309570e-02 -4.264659434556961060e-02 -8.107695728540420532e-02 3.527020663022994995e-02 -1.393273100256919861e-02 1.159918494522571564e-02 3.229982778429985046e-02 -4.286646470427513123e-02 6.262571550905704498e-03 7.660617586225271225e-03 -5.226209294050931931e-03 -4.244446754455566406e-02 9.055102616548538208e-02 -3.837442398071289062e-02 -7.410082966089248657e-03 -1.608928665518760681e-02 -4.316418617963790894e-02 -2.000156790018081665e-02 -5.005792528390884399e-02 -3.368142619729042053e-02 2.673104591667652130e-02 -3.778012469410896301e-03 -5.623929575085639954e-02 -8.329073339700698853e-02 -3.005901351571083069e-03 -2.063962630927562714e-02 2.088933438062667847e-02 -1.436884514987468719e-02 3.191941604018211365e-02 -2.086960524320602417e-02 -1.691505126655101776e-02 -1.976133882999420166e-02 4.191505536437034607e-02 -1.215901132673025131e-02 -1.332947867922484875e-03 3.020276501774787903e-02 1.606563851237297058e-02 -5.901611223816871643e-02 -2.918160893023014069e-02
1.113926693797111511e-01 -2.654005028307437897e-02 1.033214759081602097e-02 8.259138092398643494e-03 3.092860803008079529e-02 -3.588481619954109192e-02 4.422962665557861328e-03 -4.800821468234062195e-02 8.254644274711608887e-02 -6.514314562082290649e-02 7.544382475316524506e-03 1.255872100591659546e-02 2.786965854465961456e-02 -1.056556850671768188e-01 -4.623352363705635071e-02 1.056662295013666153e-02 2.982053719460964203e-02 2.157259732484817505e-02 4.996489360928535461e-02 4.966637864708900452e-02 -1.941081322729587555e-02 2.675975859165191650e-02 1.053595822304487228e-02 4.650404676795005798e-02 4.365632683038711548e-02 4.863925650715827942e-02 1.603232622146606445e-01 6.951236724853515625e-02 4.186988249421119690e-02 6.280051916837692261e-02 1.670777797698974609e-02 -1.138487905263900757e-01 5.775054544210433960e-02 -2.237853966653347015e-02 1.999445445835590363e-02 -1.309452764689922333e-02 1.225535348057746887e-01 6.524120457470417023e-03 -2.046788297593593597e-02 -1.546976715326309204e-02 4.086559265851974487e-02 1.456719357520341873e-02 -4.990950226783752441e-02 -1.742199808359146118e-02 -7.162871211767196655e-02 7.435733824968338013e-02 -2.849960466846823692e-03 -4.821922257542610168e-02 -4.306820034980773926e-02 -1.462834179401397705e-01 1.555608026683330536e-02 -4.128786548972129822e-02 -6.200751755386590958e-03 -5.294658988714218140e-02 6.720186769962310791e-02 2.012920379638671875e-02 5.514534935355186462e-02 -5.272495374083518982e-02 1.821722951717674732e-03 -1.524735987186431885e-01 4.345910623669624329e-03 -7.614812999963760376e-02 -3.797686100006103516e-02 4.255039989948272705e-02 -3.066422883421182632e-03 1.579101383686065674e-02 -2.317876182496547699e-02 -3.045488521456718445e-02 7.552078366279602051e-02 6.076616421341896057e-02 1.017315238714218140e-01 -1.211381144821643829e-02 8.575019240379333496e-02 -5.508880689740180969e-02 4.938922077417373657e-02 7.659772038459777832e-02 -3.368534380570054054e-03 1.622563140699639916e-04 -8.392990380525588989e-02 2.287041954696178436e-02 -4.483014636207371950e-04 5.679589509963989258e-02 1.878806017339229584e-02 1.018456891179084778e-01 3.281426802277565002e-02 7.433099299669265747e-02 1.015827432274818420e-01 3.558785421773791313e-03 -3.483166173100471497e-02 -7.231135852634906769e-03 -1.146417558193206787e-01 -8.192121982574462891e-02 -2.921588346362113953e-02 7.441080175340175629e-03 3.189618140459060669e-02 -1.553732901811599731e-02 -3.628467023372650146e-02 -3.847172856330871582e-02 -3.479003533720970154e-02 9.087375365197658539e-03 -5.036341026425361633e-02 -5.139032378792762756e-02 -2.974106930196285248e-02 -6.420920044183731079e-02 2.164079062640666962e-02 -4.828567057847976685e-02 -6.994535773992538452e-02 1.883824914693832397e-02 7.244915515184402466e-02 -6.638045608997344971e-02 -6.208761595189571381e-03 4.806126281619071960e-02 2.696891501545906067e-02 8.589833229780197144e-02 9.975836612284183502e-03 -7.089594006538391113e-02 2.186226891353726387e-03 -6.089848279953002930e-02 -9.217577055096626282e-03 -1.451256591826677322e-02 5.778052657842636108e-02 1.742957718670368195e-02 7.623632252216339111e-02 -3.747070580720901489e-02 -5.175366625189781189e-02 -3.330585733056068420e-02 3.004773706197738647e-02 -8.263249695301055908e-02
8.098074793815612793e-02 -7.311591762118041515e-04 -1.761260069906711578e-02 -8.886423707008361816e-02 -9.382435120642185211e-03 -4.316535219550132751e-02 -2.496319636702537537e-02 -3.174455836415290833e-02 1.691031642258167267e-02 8.484748192131519318e-03 -4.740238934755325317e-02 7.412071526050567627e-02 -3.166056796908378601e-02 -1.170848086476325989e-01 1.050300998031161726e-04 -6.752365082502365112e-02 2.665892243385314941e-03 -2.356850914657115936e-02 -9.213403612375259399e-02 -9.541265666484832764e-02 -4.599387943744659424e-02 9.169506281614303589e-02 2.055363031104207039e-03 4.591559618711471558e-02 -3.460669144988059998e-02 -1.126870606094598770e-02 -5.413665995001792908e-02 -8.840472437441349030e-03 -3.002723306417465210e-02 4.875735193490982056e-02 3.334667533636093140e-02 -1.133957654237747192e-01 4.836283251643180847e-02 1.054991111159324646e-01 -2.386627718806266785e-02 1.078773662447929382e-02 -1.101584639400243759e-02 5.208215117454528809e-02 -5.724489316344261169e-02 6.390022486448287964e-02 2.959190495312213898e-02 -6.907039135694503784e-02 1.231361459940671921e-02 -2.195296995341777802e-02 9.863797575235366821e-03 -4.214758053421974182e-02 -5.094926431775093079e-02 -9.108708053827285767e-02 -7.850869745016098022e-02 -2.289980091154575348e-02 3.843753412365913391e-02 -2.657356671988964081e-02 1.981337927281856537e-02 -1.080491840839385986e-01 -7.712058722972869873e-02 -7.630429696291685104e-03 1.676353514194488525e-01 -4.503443837165832520e-02 1.409907191991806030e-01 7.446506619453430176e-02 -5.312721058726310730e-02 1.759933680295944214e-02 -5.588591098785400391e-02 -1.312774699181318283e-02 4.648532718420028687e-02 -4.530930519104003906e-02 -1.301168836653232574e-02 5.500285699963569641e-02 -4.568613320589065552e-02 -1.915268413722515106e-02 3.389362245798110962e-02 6.976169347763061523e-02 -6.793870031833648682e-02 -1.432580128312110901e-02 -2.695551887154579163e-02 -4.505863040685653687e-02 5.649816617369651794e-02 -3.929320350289344788e-02 -1.036151498556137085e-02 -4.513396415859460831e-03 1.749287173151969910e-02 3.236816078424453735e-02 4.512357339262962341e-02 1.467444747686386108e-02 7.114342600107192993e-02 1.926612667739391327e-02 4.017239809036254883e-02 -9.168888628482818604e-02 1.106304209679365158e-02 4.148856922984123230e-02 -3.072121366858482361e-02 -3.025158494710922241e-02 2.556178905069828033e-02 7.432617247104644775e-02 -1.887668669223785400e-02 7.032150775194168091e-02 4.679264873266220093e-02 3.953047841787338257e-02 4.624097421765327454e-02 -7.749092578887939453e-02 2.367784641683101654e-02 -2.588869258761405945e-02 2.901583723723888397e-02 3.043258935213088989e-02 -8.101826533675193787e-03 -4.773129522800445557e-02 -3.488862141966819763e-02 2.081059291958808899e-02 1.685413531959056854e-02 3.015687875449657440e-02 4.650151357054710388e-02 1.548909209668636322e-02 -1.876639202237129211e-03 1.095835678279399872e-02 9.294714033603668213e-02 -2.753127925097942352e-02 2.432186529040336609e-02 2.062334120273590088e-02 1.599127240478992462e-02 -6.245009601116180420e-02 -2.118052681908011436e-03 3.782324120402336121e-02 -3.108998294919729233e-03 -8.068744838237762451e-02 -8.372570574283599854e-02 2.235681749880313873e-02 -1.429327763617038727e-02 3.905441612005233765e-02
6.296438723802566528e-02 -6.224591284990310669e-02 -4.701953753829002380e-02 -2.834781445562839508e-02 -4.368426650762557983e-02 2.752381935715675354e-02 6.131052970886230469e-02 3.771788254380226135e-02 -3.641234477981925011e-03 8.031722903251647949e-02 9.139342582784593105e-04 -3.454449027776718140e-02 2.253492176532745361e-02 3.943656571209430695e-03 -2.748546376824378967e-02 -2.440709387883543968e-03 -2.009356953203678131e-02 -2.917630970478057861e-02 -1.247145310044288635e-01 -2.178749442100524902e-02 8.861172012984752655e-03 -5.348611623048782349e-02 -4.136961326003074646e-02 -3.235414624214172363e-02 1.706290990114212036e-02 -2.135026641190052032e-02 2.193004824221134186e-02 -6.912656128406524658e-02 -3.371363505721092224e-02 2.978426776826381683e-02 -1.462026219815015793e-02 8.038177341222763062e-02 2.990055829286575317e-02 -1.159684546291828156e-02 1.480376254767179489e-02 4.459105059504508972e-02 4.334058240056037903e-02 2.877359464764595032e-02 -6.688172370195388794e-02 8.153124153614044189e-02 -7.687168568372726440e-02 1.183064430952072144e-01 1.319544971920549870e-03 3.871799260377883911e-02 1.834345795214176178e-02 5.030187219381332397e-02 -3.640938550233840942e-02 -7.155535859055817127e-04 4.620227217674255371e-02 -9.596897661685943604e-02 -3.449255228042602539e-02 -3.050630353391170502e-02 -8.723855018615722656e-02 -1.458443999290466309e-01 5.657994374632835388e-02 -9.011223167181015015e-02 2.200134545564651489e-01 1.823676750063896179e-02 6.742851436138153076e-02 -9.406231343746185303e-02 -2.582051977515220642e-02 7.366412132978439331e-02 5.298704374581575394e-03 -1.204909197986125946e-02 -3.906146157532930374e-03 2.248104102909564972e-02 2.411197498440742493e-02 -1.306489761918783188e-02 1.152779906988143921e-02 -5.484310095198452473e-04 1.577142998576164246e-02 5.227176100015640259e-02 2.596184797585010529e-02 -1.649749465286731720e-02 -4.631368443369865417e-02 -4.891572892665863037e-02 1.332370564341545105e-02 -3.549243137240409851e-02 -1.306261215358972549e-02 -3.170823678374290466e-02 -3.387705981731414795e-02 -1.480712089687585831e-04 3.888119384646415710e-02 -5.086628720164299011e-02 -2.058616094291210175e-02 -3.296109661459922791e-02 -1.754498342052102089e-03 9.834715723991394043e-02 -3.512220457196235657e-02 4.564699903130531311e-02 -9.404930286109447479e-03 -4.071720317006111145e-02 -3.521084785461425781e-02 3.407314792275428772e-02 -3.782793506979942322e-02 2.931124158203601837e-02 2.887333557009696960e-02 -2.499015070497989655e-02 -1.924452744424343109e-02 -8.065145462751388550e-02 -6.810040026903152466e-02 6.687647849321365356e-02 -2.131791412830352783e-02 2.924469858407974243e-02 -3.451457619667053223e-02 4.317817091941833496e-02 -1.234797947108745575e-02 5.117980018258094788e-02 6.442356854677200317e-02 -1.578114368021488190e-02 1.404621638357639313e-03 5.367114767432212830e-02 5.284205079078674316e-02 -4.150111600756645203e-02 5.831009149551391602e-02 -1.602769643068313599e-02 -4.744166135787963867e-02 5.233546346426010132e-02 4.973731935024261475e-03 -1.403443980962038040e-02 -1.234991848468780518e-01 1.007736660540103912e-02 4.973756894469261169e-02 4.739226773381233215e-02 7.168149575591087341e-03 -1.442555189132690430e-01 1.048660278320312500e-01 1.647262135520577431e-03
-3.362844511866569519e-02 -3.135482966899871826e-02 -1.133038569241762161e-02 6.567357480525970459e-02 8.945894986391067505e-02 3.371610655449330807e-04 1.687948778271675110e-02 5.427365377545356750e-02 4.029730334877967834e-02 9.673821926116943359e-02 -6.338318344205617905e-03 4.703835770487785339e-02 7.702605426311492920e-02 -7.216157019138336182e-02 1.371150556951761246e-02 8.904657326638698578e-03 -2.469857595860958099e-02 7.479557301849126816e-03 -2.042276598513126373e-02 6.159485131502151489e-02 3.877255320549011230e-02 5.496585741639137268e-02 -4.898261651396751404e-02 1.670780591666698456e-02 3.722454980015754700e-02 2.732636174187064171e-03 5.931951478123664856e-02 -2.114024199545383453e-02 1.414538174867630005e-01 8.822440356016159058e-02 3.367947787046432495e-02 7.272835075855255127e-02 -9.746660478413105011e-03 -4.375419765710830688e-02 4.650421068072319031e-02 -1.354251243174076080e-02 9.079939872026443481e-02 -2.989357896149158478e-02 1.947863399982452393e-02 3.626826405525207520e-02 2.534281089901924133e-02 -6.075303629040718079e-02 -1.004119683057069778e-02 -5.007724463939666748e-02 -3.465066477656364441e-02 1.274559497833251953e-01 1.501114759594202042e-02 -1.117128208279609680e-01 -2.466146089136600494e-02 1.178283523768186569e-02 -8.437911979854106903e-03 -4.055040329694747925e-02 3.379198908805847168e-02 -4.874718934297561646e-02 1.003182306885719299e-02 -4.657158255577087402e-02 -6.726325023919343948e-03 -2.869351767003536224e-02 3.725598007440567017e-02 5.022828653454780579e-02 6.040258333086967468e-03 5.049337446689605713e-02 -1.140744332224130630e-02 -3.881659731268882751e-02 -3.165193647146224976e-02 7.481655571609735489e-03 -3.504992648959159851e-02 4.183474928140640259e-02 -2.250161021947860718e-03 -6.961021106690168381e-03 1.257628947496414185e-01 5.148353055119514465e-02 1.012991275638341904e-02 -2.775205858051776886e-02 -3.394936025142669678e-02 -5.517053976655006409e-02 2.874307334423065186e-02 -1.012064982205629349e-02 -6.466006487607955933e-02 -8.207533508539199829e-02 2.337842620909214020e-02 -2.822654321789741516e-02 4.964054375886917114e-02 1.546143740415573120e-02 -2.407849580049514771e-02 3.487531095743179321e-02 5.976117402315139771e-02 8.296352624893188477e-02 2.373883733525872231e-03 -1.175197660923004150e-01 -4.817726090550422668e-02 2.049104683101177216e-02 6.676217168569564819e-02 -1.213561929762363434e-02 -4.193039983510971069e-02 2.192061394453048706e-03 -2.836102433502674103e-02 -1.372663653455674648e-03 3.122917376458644867e-02 5.406533181667327881e-02 -5.064688250422477722e-02 -1.418638527393341064e-01 7.548240013420581818e-03 -2.783914841711521149e-02 -9.495466947555541992e-02 6.423013657331466675e-02 1.038684099912643433e-01 -2.239210903644561768e-02 6.421026587486267090e-02 -4.560779780149459839e-02 -1.113374829292297363e-01 -2.484237402677536011e-02 4.753736034035682678e-02 4.323933646082878113e-02 -1.440882217139005661e-02 1.258437708020210266e-02 -1.280398224480450153e-03 2.668467722833156586e-02 -7.167284190654754639e-02 -6.611143797636032104e-02 -5.891465023159980774e-02 -2.780426479876041412e-02 4.213939607143402100e-02 -4.462865646928548813e-03 -5.863099358975887299e-03 1.985214650630950928e-02 -1.287817582488059998e-02 -7.634748239070177078e-03
2.363181672990322113e-02 1.565496064722537994e-02 -2.361727505922317505e-02 6.068197265267372131e-02 1.112825702875852585e-02 -3.376955166459083557e-02 -8.709643036127090454e-02 3.127341344952583313e-02 -2.251432888442650437e-04 -1.414444204419851303e-02 8.380076289176940918e-02 -2.392667159438133240e-02 -3.611681610345840454e-02 5.188931897282600403e-02 -6.456351280212402344e-02 -5.598532035946846008e-02 1.145773753523826599e-02 -1.890798844397068024e-02 -6.869222968816757202e-02 -4.332938417792320251e-02 2.789584547281265259e-02 9.408108890056610107e-03 3.938722237944602966e-02 -2.633122541010379791e-02 -2.772772312164306641e-02 1.036534234881401062e-01 4.411501437425613403e-02 -2.429362200200557709e-02 2.095938427373766899e-03 2.797731943428516388e-02 3.654139488935470581e-02 2.371518686413764954e-02 4.332018271088600159e-02 -1.088031940162181854e-02 1.751076802611351013e-02 2.753627486526966095e-02 -1.094159577041864395e-02 7.867952808737754822e-03 -1.329816579818725586e-01 -5.611722916364669800e-02 -6.817848980426788330e-02 -2.766038477420806885e-02 -1.266151070594787598e-01 -1.259375065565109253e-01 -5.221648607403039932e-03 -4.250632598996162415e-02 -7.321893423795700073e-02 -2.938653528690338135e-02 -3.851600736379623413e-02 -9.352421760559082031e-02 6.821370683610439301e-03 2.756983973085880280e-02 -6.062291190028190613e-02 -9.316612035036087036e-02 8.368617855012416840e-03 -1.284049241803586483e-03 8.751070499420166016e-02 -1.839378662407398224e-02 1.412558406591415405e-01 6.743975728750228882e-02 -1.509866565465927124e-01 -7.433121651411056519e-02 6.120672449469566345e-02 -7.057114969938993454e-03 3.907615318894386292e-02 5.634628981351852417e-02 -9.113714098930358887e-02 1.289236079901456833e-02 3.129091113805770874e-02 -2.448218874633312225e-04 -4.598281905055046082e-02 3.425031155347824097e-02 2.616136334836483002e-02 3.618044778704643250e-02 6.760440766811370850e-02 -5.118279904127120972e-02 -1.465550065040588379e-01 -9.504076093435287476e-02 -1.105907931923866272e-02 5.682050064206123352e-02 -1.940946280956268311e-02 3.824764490127563477e-02 3.946077544242143631e-03 -2.694832859560847282e-03 -1.425988227128982544e-02 6.606723368167877197e-02 2.540524862706661224e-02 -4.768681526184082031e-02 -5.084052681922912598e-02 1.834948733448982239e-02 -2.227934449911117554e-02 1.014885865151882172e-02 -5.202808533795177937e-04 4.018882662057876587e-02 1.068439930677413940e-01 7.899928838014602661e-03 2.914108894765377045e-02 4.574444610625505447e-03 -7.906720787286758423e-02 -4.439853131771087646e-02 6.648792326450347900e-02 3.886499255895614624e-02 -9.203204885125160217e-03 1.040739938616752625e-02 1.399553287774324417e-02 -5.051065608859062195e-02 -5.859107151627540588e-02 4.223618283867835999e-02 -6.136045604944229126e-02 2.456510439515113831e-02 3.384174033999443054e-02 -4.423621296882629395e-02 7.089270651340484619e-02 -4.206597059965133667e-02 4.137458279728889465e-03 2.314433455467224121e-02 1.164466422051191330e-02 1.141894981265068054e-02 3.988437354564666748e-02 2.566905459389090538e-03 1.798306591808795929e-02 8.569990098476409912e-02 4.226575791835784912e-02 3.071143105626106262e-02 -5.040726438164710999e-02 -7.286805659532546997e-03 1.411691457033157349e-01 -6.711614131927490234e-02
9.688620455563068390e-03 -4.470078647136688232e-02 5.809578299522399902e-02 -5.638445541262626648e-02 -9.805186651647090912e-03 2.458700537681579590e-02 -1.518728397786617279e-02 1.465289667248725891e-02 2.861607074737548828e-02 4.079063236713409424e-02 8.473788388073444366e-03 4.036976397037506104e-02 -5.321924109011888504e-03 -7.059331983327865601e-02 -1.459773033857345581e-01 3.420412167906761169e-02 4.086266085505485535e-02 -1.841851137578487396e-02 6.358914542943239212e-03 2.785339392721652985e-02 -7.246034592390060425e-02 -3.507547453045845032e-02 5.850265175104141235e-02 -2.685120142996311188e-02 3.050833567976951599e-02 1.006111428141593933e-01 4.884922131896018982e-02 6.954804062843322754e-02 -1.129837483167648315e-01 4.936428740620613098e-02 -3.758551925420761108e-02 2.978471573442220688e-03 -2.273141639307141304e-03 -1.640492491424083710e-02 -3.614027425646781921e-02 5.216704681515693665e-02 -3.942895680665969849e-02 -2.109877020120620728e-02 -1.151233911514282227e-01 1.971802860498428345e-02 -3.757625818252563477e-02 1.153899542987346649e-02 5.432248488068580627e-02 -1.191213540732860565e-02 6.028495845384895802e-04 3.249625489115715027e-02 7.192669901996850967e-03 2.073488570749759674e-02 -3.826619824394583702e-03 -7.388015091419219971e-02 1.667691580951213837e-02 1.022937335073947906e-02 5.222621932625770569e-02 2.895378507673740387e-02 9.299150668084621429e-03 -3.049826435744762421e-02 2.537542209029197693e-02 -1.464763749390840530e-02 3.054922679439187050e-03 -3.133628284558653831e-03 1.328825135715305805e-03 -7.640608400106430054e-02 5.409586429595947266e-02 -7.335258275270462036e-02 -2.218499779701232910e-02 2.669613808393478394e-03 -2.713945508003234863e-02 2.209321968257427216e-02 -9.294362738728523254e-03 2.405115962028503418e-02 2.298152074217796326e-02 3.720982745289802551e-02 4.152177646756172180e-02 2.835314348340034485e-02 -2.408541971817612648e-03 5.873666331171989441e-02 -1.273720618337392807e-02 1.492311898618936539e-02 -4.510887712240219116e-02 1.355674583464860916e-02 6.405829917639493942e-03 -3.137827664613723755e-02 -7.884949445724487305e-02 -3.728624200448393822e-03 -7.315296679735183716e-02 -8.523878641426563263e-03 9.504474699497222900e-02 1.850732043385505676e-02 -1.904953643679618835e-02 2.436749823391437531e-02 2.525534713640809059e-03 -4.348352178931236267e-02 7.499683182686567307e-03 -1.617528870701789856e-02 9.236669167876243591e-03 3.830968961119651794e-02 -1.022851094603538513e-02 -8.808112889528274536e-02 -1.145932171493768692e-02 -8.746159076690673828e-02 8.410911262035369873e-02 5.341207981109619141e-02 -8.715310692787170410e-02 6.099504977464675903e-02 6.841030716896057129e-02 -3.239457681775093079e-02 -5.376787111163139343e-02 1.957296952605247498e-02 5.830376408994197845e-03 -5.914890766143798828e-02 -2.264382690191268921e-02 3.878955915570259094e-02 9.493488818407058716e-02 2.460141479969024658e-02 -1.662887819111347198e-02 -3.680478036403656006e-02 -2.834407240152359009e-02 -1.450281473807990551e-03 4.100263863801956177e-02 -2.907722489908337593e-03 -1.360775902867317200e-03 -3.692574799060821533e-02 -5.072980187833309174e-03 -6.745411455631256104e-02 -1.008826643228530884e-01 -1.350491866469383240e-02 -1.790624484419822693e-02 -4.113509133458137512e-02
-3.917064517736434937e-02 -4.183568060398101807e-02 3.870854154229164124e-02 2.403913438320159912e-02 -4.812830686569213867e-02 2.498782984912395477e-02 -1.861088722944259644e-02 3.559028729796409607e-02 -2.312278933823108673e-02 -8.020389080047607422e-02 -5.173378437757492065e-02 -3.727787872776389122e-03 2.512433566153049469e-02 -1.965399645268917084e-02 -9.771835058927536011e-02 -1.332561764866113663e-02 -5.519987270236015320e-02 7.500454038381576538e-02 3.349567577242851257e-02 3.182771429419517517e-02 -9.985793381929397583e-03 -5.885660275816917419e-02 1.394373178482055664e-02 6.634457409381866455e-02 -3.817664459347724915e-02 2.543595992028713226e-02 -1.693057455122470856e-02 -3.906315658241510391e-03 2.665242552757263184e-02 1.768637634813785553e-02 2.422670274972915649e-02 -2.440987899899482727e-02 2.488108817487955093e-03 3.601918369531631470e-02 1.136583182960748672e-02 2.337650954723358154e-02 4.387315735220909119e-02 -3.091669268906116486e-02 -5.185797344893217087e-04 -3.655124455690383911e-02 -1.946856267750263214e-02 -1.277380436658859253e-01 -5.758846551179885864e-02 -1.410980243235826492e-02 -7.595086470246315002e-03 8.348532766103744507e-02 1.680420152842998505e-02 -2.451740205287933350e-02 -4.531143233180046082e-02 6.142618507146835327e-02 1.847170107066631317e-02 -3.864183323457837105e-03 -6.148156709969043732e-03 2.177706221118569374e-03 1.284574996680021286e-02 -8.151464909315109253e-02 3.120550699532032013e-02 2.755813673138618469e-02 4.213277250528335571e-02 2.981948852539062500e-02 -2.131292596459388733e-02 -1.401494164019823074e-02 2.119461447000503540e-02 -5.292606353759765625e-02 2.975864894688129425e-02 -1.194237023591995239e-01 -1.160348020493984222e-02 3.084448166191577911e-02 1.534573733806610107e-02 6.730660330504179001e-03 3.011121787130832672e-02 -1.814846321940422058e-02 9.158469736576080322e-02 1.299779266119003296e-01 -4.218584299087524414e-02 8.218825794756412506e-03 8.970978111028671265e-02 -2.436122111976146698e-02 1.370513811707496643e-02 7.585235405713319778e-03 1.131947804242372513e-02 -1.440611574798822403e-02 2.872905880212783813e-02 3.911837190389633179e-02 1.537078432738780975e-02 3.313395380973815918e-02 8.788998238742351532e-03 -4.702792968600988388e-03 -5.823004245758056641e-02 -1.009469777345657349e-01 1.003327220678329468e-01 4.450346156954765320e-02 -3.747880458831787109e-02 -7.728345692157745361e-03 -6.296790391206741333e-02 -1.384144127368927002e-01 -2.052235044538974762e-02 6.008789688348770142e-02 -1.459605805575847626e-02 3.671661764383316040e-02 -3.297303989529609680e-02 2.338914386928081512e-02 -3.853357583284378052e-02 1.818583533167839050e-02 -4.890467226505279541e-02 -5.158813297748565674e-02 -7.225058227777481079e-02 4.907473549246788025e-02 -3.033486753702163696e-02 -2.411344461143016815e-02 8.537364751100540161e-02 -7.744789868593215942e-02 7.122307084500789642e-03 -4.440551996231079102e-02 -7.065419107675552368e-02 2.139653079211711884e-02 -2.596735022962093353e-02 -8.267965167760848999e-02 3.986825793981552124e-02 -8.478973992168903351e-03 -1.892482116818428040e-02 -3.911766782402992249e-02 1.409749686717987061e-01 9.388454258441925049e-02 2.628026902675628662e-02 -2.607632242143154144e-02 2.553646266460418701e-02 -2.251291833817958832e-02
3.785010799765586853e-02 5.263708531856536865e-03 6.708541512489318848e-02 6.036598235368728638e-02 9.447678923606872559e-02 -5.980760231614112854e-02 2.690867288038134575e-03 -4.447977989912033081e-03 1.441236138343811035e-01 -1.821586862206459045e-02 -2.678881585597991943e-02 4.102771636098623276e-03 -4.932023584842681885e-02 8.997627347707748413e-02 3.790062293410301208e-02 1.082777511328458786e-02 -1.688113436102867126e-02 1.071008387953042984e-02 -3.358777239918708801e-02 7.014011591672897339e-02 5.990901589393615723e-02 -5.566862225532531738e-02 1.399072911590337753e-02 -2.050676941871643066e-02 -1.481060031801462173e-02 -1.693213172256946564e-02 6.873709708452224731e-02 8.655807003378868103e-03 -2.096710540354251862e-02 -5.150746181607246399e-02 -1.376427058130502701e-02 7.917442172765731812e-02 1.008630692958831787e-01 2.536939829587936401e-02 1.005958020687103271e-02 7.973662018775939941e-02 -1.986874639987945557e-02 -8.733888715505599976e-02 1.363556366413831711e-02 -2.500546164810657501e-02 -1.123744715005159378e-02 -4.490661248564720154e-02 -5.291898548603057861e-02 1.673692464828491211e-02 -9.323328733444213867e-03 1.380786951631307602e-02 -1.059669405221939087e-01 3.159275278449058533e-02 6.828890182077884674e-03 1.925714081153273582e-03 7.538175582885742188e-02 -5.406291782855987549e-02 5.542432889342308044e-02 -8.348934352397918701e-02 1.078658029437065125e-01 -6.561433523893356323e-02 -3.891951963305473328e-02 9.344616532325744629e-02 2.044147066771984100e-02 -7.832394540309906006e-02 -2.892433851957321167e-02 4.834317415952682495e-02 1.486349254846572876e-01 -1.414600461721420288e-01 -1.048074010759592056e-02 -4.775395244359970093e-02 1.571781933307647705e-02 5.256966128945350647e-02 -2.833533287048339844e-02 1.438253000378608704e-02 4.411691799759864807e-02 1.982221007347106934e-02 9.071948938071727753e-03 -2.615633886307477951e-03 1.515116542577743530e-02 -6.125603988766670227e-02 -4.860667511820793152e-03 -2.463617548346519470e-02 2.362435683608055115e-02 -7.810809463262557983e-02 7.414775341749191284e-02 -8.888881653547286987e-03 3.855087235569953918e-02 2.013353258371353149e-02 -2.254707925021648407e-02 -1.704694889485836029e-02 -2.054511941969394684e-02 6.443399190902709961e-02 2.698263619095087051e-03 -5.345748271793127060e-03 4.305651411414146423e-02 6.016756221652030945e-02 -5.934386048465967178e-03 -5.835498869419097900e-02 -2.594493515789508820e-02 4.151974618434906006e-02 1.009719744324684143e-01 -7.394616305828094482e-02 5.146318674087524414e-02 -1.241566240787506104e-01 2.767025120556354523e-02 1.555711030960083008e-02 -3.484549373388290405e-02 9.453694219700992107e-04 -3.138170391321182251e-02 -1.251635700464248657e-01 -6.267096102237701416e-02 1.105998363345861435e-02 1.357116084545850754e-02 -2.825738675892353058e-02 1.675956882536411285e-02 -1.526119094341993332e-02 1.367454766295850277e-03 6.309898942708969116e-02 1.716171763837337494e-02 1.867354474961757660e-02 -7.062852382659912109e-02 -1.008938625454902649e-01 -6.275399774312973022e-02 -1.421346962451934814e-01 -9.369613230228424072e-02 -5.512137711048126221e-02 4.196929186582565308e-02 -9.608834516257047653e-04 -1.029189396649599075e-02 -2.812104113399982452e-02 -3.615841269493103027e-02 -4.250209778547286987e-02
4.248802736401557922e-02 2.835474349558353424e-02 4.631915315985679626e-02 1.316299010068178177e-02 -3.013379313051700592e-02 -3.799207508563995361e-02 9.681572765111923218e-02 5.372535809874534607e-02 4.529358819127082825e-02 3.156356140971183777e-02 2.316049486398696899e-02 -1.278070509433746338e-01 6.542476266622543335e-02 -1.349053904414176941e-02 4.286691918969154358e-02 1.766304112970829010e-02 -3.476763144135475159e-02 4.766355734318494797e-03 2.388582751154899597e-02 -4.260111600160598755e-02 9.976210072636604309e-03 -5.974952876567840576e-02 -6.168565526604652405e-02 -6.195979937911033630e-02 -1.739777624607086182e-02 2.499452047049999237e-02 8.021707087755203247e-02 4.468183591961860657e-02 -4.982467740774154663e-02 -9.085465967655181885e-02 -6.654878705739974976e-02 -1.024042069911956787e-02 -2.416221611201763153e-02 -6.362376362085342407e-02 4.010310862213373184e-03 -5.926461517810821533e-02 3.078785538673400879e-02 -2.968150004744529724e-02 -1.362721472978591919e-01 -3.098050318658351898e-02 2.189926430583000183e-02 3.636413812637329102e-02 -1.375876069068908691e-01 1.238978933542966843e-02 1.253763865679502487e-02 3.161987662315368652e-02 -3.177571343258023262e-03 -6.926926225423812866e-02 4.373375326395034790e-02 -7.404744625091552734e-03 -9.376463294029235840e-02 3.319533914327621460e-02 1.493743527680635452e-02 -3.367121145129203796e-02 1.052986010909080505e-01 1.018194481730461121e-02 9.850185364484786987e-02 3.718040883541107178e-02 1.101057697087526321e-02 -8.593183755874633789e-02 4.232776816934347153e-03 -7.936246693134307861e-02 2.133008837699890137e-02 -6.194430589675903320e-02 -3.383579850196838379e-02 -4.134473565500229597e-04 1.069599948823451996e-02 2.256574854254722595e-02 3.087533451616764069e-02 1.423689126968383789e-01 6.935700774192810059e-02 -2.615339355543255806e-03 3.822886198759078979e-02 -3.439203277230262756e-02 3.173389285802841187e-02 3.199804574251174927e-02 -5.205078795552253723e-02 4.752003774046897888e-02 -3.110218793153762817e-02 -4.678509011864662170e-02 -4.203626513481140137e-02 -2.184755727648735046e-02 -7.795366644859313965e-02 -5.510496906936168671e-03 1.382992137223482132e-03 3.153176978230476379e-02 5.269346758723258972e-02 -1.267461106181144714e-02 3.486761823296546936e-02 4.291737079620361328e-02 -1.190956160426139832e-01 9.690424194559454918e-04 -1.094329133629798889e-01 1.249045282602310181e-01 -6.146728619933128357e-02 -8.308257907629013062e-02 -3.783993050456047058e-02 -7.707010954618453979e-03 -1.171506103128194809e-02 -2.677226904779672623e-03 2.514479868113994598e-02 8.839768171310424805e-02 -7.202477753162384033e-02 1.840334758162498474e-02 3.000321984291076660e-02 -9.599766135215759277e-02 3.067260608077049255e-02 -1.041879728436470032e-01 1.623958200216293335e-01 4.649086296558380127e-02 3.220019862055778503e-02 -1.534329261630773544e-02 1.384101994335651398e-02 2.547469921410083771e-02 1.713395491242408752e-02 -2.722519822418689728e-02 -7.852068170905113220e-03 -7.088954560458660126e-03 -5.273986235260963440e-02 -3.025630116462707520e-02 -4.930295795202255249e-02 6.474180519580841064e-02 4.717548936605453491e-02 -1.613189815543591976e-03 2.494081296026706696e-02 1.067225486040115356e-01 -3.905264660716056824e-02 -3.080024383962154388e-02
4.198629781603813171e-02 -1.095144227147102356e-01 -3.336689621210098267e-02 6.835001707077026367e-02 3.469430655241012573e-02 -1.834497437812387943e-03 -6.715771742165088654e-03 -9.244764596223831177e-02 8.155045099556446075e-03 -8.001513034105300903e-02 1.770700514316558838e-02 -2.762826532125473022e-02 2.173969894647598267e-02 -1.104177627712488174e-02 1.876335777342319489e-02 -5.230431444942951202e-03 -2.197643369436264038e-02 7.045497652143239975e-03 2.767621167004108429e-02 4.574747011065483093e-02 -1.364448573440313339e-02 -2.761536836624145508e-02 -4.024079814553260803e-02 3.578445687890052795e-02 -7.235167082399129868e-03 5.113081261515617371e-02 1.114173382520675659e-01 4.549861699342727661e-02 2.862665429711341858e-02 -6.870325654745101929e-02 -6.025271862745285034e-02 -2.343993447721004486e-02 9.279564768075942993e-02 -3.863985836505889893e-02 -4.790832102298736572e-02 -5.286657717078924179e-03 -5.044007301330566406e-02 7.085486315190792084e-03 2.830504439771175385e-03 6.252085417509078979e-02 -7.564312219619750977e-02 -1.231214031577110291e-01 -4.298340156674385071e-02 1.139270737767219543e-01 1.045941095799207687e-02 8.242606371641159058e-02 -3.900545835494995117e-02 -1.726429723203182220e-02 4.760649055242538452e-02 -1.500126272439956665e-01 -1.741278730332851410e-02 -5.344736203551292419e-02 -7.691534608602523804e-02 7.867567986249923706e-02 2.266342565417289734e-02 -2.661496028304100037e-02 3.780794143676757812e-02 3.869880363345146179e-02 7.161701470613479614e-02 -1.461959909647703171e-02 -9.074936807155609131e-02 -9.363087825477123260e-03 2.954825945198535919e-02 -3.632952272891998291e-02 -7.452976703643798828e-02 3.364694118499755859e-02 -3.342947363853454590e-02 -2.509937062859535217e-02 -6.414727121591567993e-02 1.366072446107864380e-01 7.600258104503154755e-03 -8.353022858500480652e-03 2.033889852464199066e-02 1.000879611819982529e-02 -3.047308884561061859e-02 -1.949526369571685791e-02 8.100675046443939209e-02 -5.653326958417892456e-02 4.902459308505058289e-02 -6.162123754620552063e-02 -3.099073469638824463e-02 2.956995740532875061e-02 4.509625956416130066e-02 -7.028558850288391113e-02 -1.844629831612110138e-02 5.189504101872444153e-02 1.566461473703384399e-02 -6.463136523962020874e-02 1.533299591392278671e-02 -8.963306434452533722e-03 3.688135184347629547e-03 1.686378940939903259e-02 1.223222166299819946e-01 5.207803472876548767e-02 4.538263380527496338e-02 -4.318995773792266846e-02 3.658352047204971313e-02 3.170654177665710449e-02 -9.056421928107738495e-03 -4.185985401272773743e-02 1.627908553928136826e-03 9.097023308277130127e-02 -7.011183351278305054e-02 -6.900065392255783081e-02 5.188538879156112671e-02 3.912882134318351746e-02 9.552232176065444946e-02 -4.365176334977149963e-02 -6.776780635118484497e-02 1.158090401440858841e-02 -4.930644482374191284e-02 -4.061563313007354736e-02 5.132817104458808899e-02 -2.879994548857212067e-02 -9.621578268706798553e-03 2.684611245058476925e-04 -2.109732292592525482e-02 -3.430974483489990234e-02 -6.026454269886016846e-02 -6.713933497667312622e-02 -3.660811856389045715e-02 1.670888252556324005e-02 -7.687629200518131256e-03 2.972945384681224823e-02 -8.929558843374252319e-02 2.074510604143142700e-02 4.813685268163681030e-02 -1.137701347470283508e-01
3.871009498834609985e-02 -6.754644960165023804e-02 1.116607896983623505e-02 3.644496574997901917e-02 2.181693352758884430e-02 -3.458219766616821289e-02 -3.268589824438095093e-02 1.342826988548040390e-02 2.355033531785011292e-02 -4.682468622922897339e-02 -1.384032610803842545e-02 -1.101563125848770142e-02 5.062358453869819641e-02 -5.412554368376731873e-03 9.999501518905162811e-03 -2.564646862447261810e-02 6.594549864530563354e-03 4.477151669561862946e-03 4.547132551670074463e-02 3.920453414320945740e-02 -4.494691640138626099e-02 -4.157025367021560669e-02 4.136455059051513672e-02 5.004720389842987061e-02 -3.764333203434944153e-02 2.695643901824951172e-02 1.743968110531568527e-03 -5.449748411774635315e-02 6.075726822018623352e-02 5.209749564528465271e-03 -9.353172034025192261e-03 3.110949508845806122e-02 7.076098769903182983e-02 1.289705652743577957e-02 9.914076887071132660e-03 2.660027332603931427e-02 2.581864781677722931e-02 -1.888389885425567627e-02 5.489304661750793457e-02 1.618092693388462067e-02 1.606592908501625061e-02 7.665263116359710693e-02 3.447877941653132439e-03 -5.602154880762100220e-02 -2.656478621065616608e-02 -3.457285091280937195e-02 -1.282561011612415314e-02 2.269738167524337769e-02 1.488799881190061569e-02 -1.259671896696090698e-01 5.045239813625812531e-03 -9.298481792211532593e-02 3.459170833230018616e-02 -1.127859503030776978e-01 -1.966375485062599182e-02 -4.431857168674468994e-02 -2.705405838787555695e-02 -6.876114010810852051e-02 -3.440435510128736496e-03 -5.848095566034317017e-02 1.294077094644308090e-02 -8.007201552391052246e-02 5.157439410686492920e-02 -1.055549085140228271e-02 -1.661503687500953674e-02 -3.365649655461311340e-02 -7.584811747074127197e-02 -1.559843681752681732e-02 2.996692061424255371e-02 3.974658623337745667e-02 1.236069295555353165e-02 -2.229429082944989204e-03 -2.864337526261806488e-02 -4.757381509989500046e-03 3.488078713417053223e-02 7.478811591863632202e-02 2.291250601410865784e-02 -3.624336794018745422e-02 1.971445791423320770e-02 9.211546927690505981e-02 -2.263921312987804413e-02 1.171465590596199036e-02 8.674815297126770020e-02 -2.030871249735355377e-02 5.691502243280410767e-02 5.709968134760856628e-02 -6.892865151166915894e-02 9.834096580743789673e-02 3.224958851933479309e-02 5.690436065196990967e-02 -4.841043427586555481e-02 -3.568816930055618286e-02 9.383349120616912842e-02 2.486505173146724701e-02 3.556657209992408752e-02 5.747050046920776367e-03 -4.301915690302848816e-02 -7.947842776775360107e-02 1.474755816161632538e-02 4.021473228931427002e-03 -1.955407485365867615e-02 -1.337765995413064957e-02 -7.435303181409835815e-03 -1.728175021708011627e-02 1.101261470466852188e-03 -9.253675118088722229e-03 3.329902887344360352e-02 5.344476178288459778e-02 4.202073439955711365e-02 -6.881775707006454468e-02 3.716197237372398376e-02 7.349375169724225998e-03 3.049650415778160095e-02 -7.909914478659629822e-03 1.207666564732789993e-02 -4.773678630590438843e-02 -3.097905963659286499e-02 -2.366176806390285492e-02 3.696091845631599426e-02 2.043262310326099396e-02 -2.470411919057369232e-02 9.594482369720935822e-03 8.811356383375823498e-04 4.694677889347076416e-02 -5.650100111961364746e-02 -9.887261688709259033e-02 3.701973473653197289e-03 -2.218107134103775024e-02
2.274087071418762207e-02 -2.916305884718894958e-02 -5.945451185107231140e-02 -2.929799444973468781e-02 3.761386498808860779e-03 4.611534625291824341e-02 1.654527895152568817e-02 -3.782241791486740112e-02 -2.460375055670738220e-02 8.064462989568710327e-02 -3.359765559434890747e-02 2.054645307362079620e-02 8.737992495298385620e-02 -3.361660614609718323e-02 -2.406574785709381104e-02 -2.440297976136207581e-03 1.018120907247066498e-02 7.062786258757114410e-03 -1.386086572892963886e-03 -3.692123293876647949e-02 -1.216770187020301819e-01 -6.042725220322608948e-02 -1.772406394593417645e-03 2.677193097770214081e-02 -1.079169381409883499e-02 -5.385980475693941116e-03 2.315120026469230652e-02 4.785351920872926712e-03 3.144431486725807190e-02 5.012050271034240723e-02 1.485604606568813324e-02 1.437646150588989258e-02 -1.256804764270782471e-01 1.675838977098464966e-02 -2.159660868346691132e-02 -3.481973661109805107e-03 1.548857893794775009e-02 4.855519533157348633e-02 6.967350840568542480e-02 3.107439912855625153e-02 -2.757720276713371277e-02 -3.427183255553245544e-02 -1.028723865747451782e-01 -7.777548581361770630e-02 6.265740958042442799e-04 -6.361207365989685059e-02 3.642677795141935349e-03 -4.385555908083915710e-02 -2.018935233354568481e-02 -4.959291592240333557e-02 -9.075227379798889160e-02 -1.968662254512310028e-03 -1.199411451816558838e-01 1.764942891895771027e-02 4.765091091394424438e-02 -5.462264269590377808e-02 1.310727000236511230e-01 -4.894844815135002136e-02 2.050789259374141693e-02 -2.595347585156559944e-03 -3.460755571722984314e-02 9.843711741268634796e-03 -1.662201993167400360e-02 9.277806431055068970e-02 -2.457576571032404900e-03 -2.202405035495758057e-02 8.657628786750137806e-04 4.521013796329498291e-02 6.604938302189111710e-03 1.031520813703536987e-01 2.159150689840316772e-02 4.006389901041984558e-02 5.643600597977638245e-03 1.923986524343490601e-02 -3.759550163522362709e-03 -9.606094658374786377e-02 1.413954198360443115e-01 -1.806320995092391968e-02 -5.622179433703422546e-02 -2.066893316805362701e-02 -1.962372101843357086e-02 1.635018177330493927e-02 4.260937683284282684e-03 5.204664543271064758e-02 -6.398081034421920776e-02 1.442930940538644791e-02 3.036770224571228027e-02 4.184046015143394470e-02 5.647450685501098633e-03 -8.959707617759704590e-02 -2.046241797506809235e-02 4.280319437384605408e-02 -2.059472724795341492e-03 6.971329450607299805e-02 -8.997830562293529510e-03 9.760688990354537964e-02 2.881449833512306213e-02 -4.415148496627807617e-02 4.982900246977806091e-02 5.090271122753620148e-03 -4.987463355064392090e-02 6.325689703226089478e-02 -9.961018711328506470e-02 -1.735763065516948700e-02 -5.905839800834655762e-02 2.458037063479423523e-02 6.239928305149078369e-02 4.337816685438156128e-02 1.068371254950761795e-02 -2.767422422766685486e-02 -6.882113218307495117e-02 -3.584608808159828186e-02 2.625652821734547615e-03 3.273865906521677971e-03 4.229009896516799927e-02 -2.150784805417060852e-02 -5.158217996358871460e-02 8.743631094694137573e-02 -5.284767225384712219e-02 -1.580174826085567474e-02 1.816555298864841461e-02 6.864909827709197998e-02 -4.985850304365158081e-02 -2.380275167524814606e-02 1.236795540899038315e-02 -3.614298254251480103e-02 -2.822055295109748840e-02 -7.893761247396469116e-02
2.756856009364128113e-02 4.608470201492309570e-02 -6.839739531278610229e-02 -4.488022625446319580e-02 -5.138722062110900879e-02 5.471933260560035706e-02 -1.326013356447219849e-01 -4.341902676969766617e-03 -6.247715558856725693e-03 -5.793691426515579224e-02 -2.460805932059884071e-03 2.823768928647041321e-02 -1.043567061424255371e-02 3.646937757730484009e-02 -4.205732047557830811e-02 -1.481411233544349670e-02 1.813215203583240509e-02 -5.336016044020652771e-02 -1.447848603129386902e-02 -1.593896932899951935e-02 2.880917116999626160e-02 4.513075575232505798e-02 8.189503848552703857e-02 -1.053102500736713409e-02 -2.703818306326866150e-02 3.251903131604194641e-02 9.589910507202148438e-02 7.253856863826513290e-03 8.837676048278808594e-02 4.279964417219161987e-02 9.420294314622879028e-03 -3.992623835802078247e-02 -9.865427017211914062e-02 2.112965099513530731e-02 -3.507546847686171532e-03 1.043253112584352493e-02 -1.873627118766307831e-02 4.205620661377906799e-02 -5.758240353316068649e-03 9.650596976280212402e-02 -8.272462338209152222e-02 4.447165131568908691e-02 3.730735555291175842e-02 -8.668570965528488159e-02 3.337169298902153969e-03 4.218201711773872375e-02 -3.278805688023567200e-02 5.175314377993345261e-03 7.909427583217620850e-02 -4.724385507870465517e-04 -3.757986053824424744e-02 8.797464892268180847e-03 -3.556675463914871216e-02 -1.458109589293599129e-03 7.350414246320724487e-02 1.677133142948150635e-02 -2.848858013749122620e-02 -1.979266479611396790e-02 6.818789988756179810e-02 -2.892243862152099609e-02 -1.311262100934982300e-01 4.909387230873107910e-02 8.252055943012237549e-02 1.518310792744159698e-02 -3.043986111879348755e-02 5.186438560485839844e-02 -7.003434002399444580e-03 -3.832621499896049500e-02 -3.486592695116996765e-02 3.342420235276222229e-02 -2.599150640890002251e-03 2.095594257116317749e-02 1.304693073034286499e-01 -3.434763103723526001e-02 -3.357306495308876038e-02 -2.779768034815788269e-02 6.871993653476238251e-03 3.279995173215866089e-02 -3.410824015736579895e-02 5.231507495045661926e-02 -8.389859646558761597e-02 5.995505303144454956e-02 -2.041803859174251556e-02 -5.114856362342834473e-02 1.198019608855247498e-01 -2.277696505188941956e-02 -2.822593227028846741e-02 -6.641694903373718262e-02 -5.341728031635284424e-02 -5.427803471684455872e-02 7.064015418291091919e-02 -1.405392773449420929e-02 -1.124617904424667358e-01 -2.837756089866161346e-02 1.603842712938785553e-02 6.181421503424644470e-02 5.103875696659088135e-02 -9.738462045788764954e-03 -1.222483888268470764e-01 1.437307707965373993e-02 1.440354995429515839e-02 7.740848511457443237e-02 -8.159809559583663940e-02 -2.478131651878356934e-02 -3.297894028946757317e-03 4.347119852900505066e-02 -6.500998139381408691e-02 -5.503851175308227539e-02 -1.173302344977855682e-02 -1.231879577971994877e-03 -4.982195794582366943e-03 1.723497547209262848e-02 -9.540448896586894989e-03 -3.977352380752563477e-02 1.362389922142028809e-01 1.057319119572639465e-01 -1.980527117848396301e-02 4.071624577045440674e-02 -8.564682677388191223e-03 3.531435737386345863e-03 1.049509737640619278e-02 3.658403083682060242e-02 2.042713575065135956e-02 9.645856171846389771e-02 3.385213762521743774e-02 6.740657240152359009e-02 -4.467872204259037971e-04 -3.168659657239913940e-02
1.012751758098602295e-01 8.005517534911632538e-03 2.565065771341323853e-02 -2.566160401329398155e-03 -4.166991263628005981e-02 -2.976063080132007599e-02 6.442007608711719513e-03 -4.586327355355024338e-03 5.033460259437561035e-02 2.985783480107784271e-02 5.363149940967559814e-02 3.865633159875869751e-02 -3.568107262253761292e-02 -1.500863302499055862e-02 -2.136600948870182037e-02 -1.964955404400825500e-02 -6.289102882146835327e-02 -9.998560417443513870e-04 -9.883043915033340454e-02 7.994444109499454498e-03 -1.543820253573358059e-03 -1.832480728626251221e-02 1.518011372536420822e-02 -1.933598332107067108e-02 1.097348406910896301e-01 -5.074959993362426758e-02 -4.415006190538406372e-02 -9.471911936998367310e-03 4.765108227729797363e-02 -3.095685876905918121e-02 -2.410150133073329926e-02 -4.828946664929389954e-02 7.448660582304000854e-02 3.949452936649322510e-02 1.044764276593923569e-02 -3.075568005442619324e-02 1.705440506339073181e-02 2.575314370915293694e-03 1.432743016630411148e-02 1.482242438942193985e-02 4.064967110753059387e-02 -2.625717595219612122e-02 -3.384859487414360046e-02 -4.865664616227149963e-02 1.885489095002412796e-03 -1.672549173235893250e-02 -4.389927163720130920e-02 1.935612596571445465e-02 3.909612447023391724e-02 -4.296736791729927063e-02 -4.432161524891853333e-02 -1.767161488533020020e-02 -4.297151695936918259e-03 6.591343134641647339e-02 5.246150307357311249e-03 5.044035986065864563e-02 4.200383275747299194e-02 -1.676111854612827301e-02 4.825758934020996094e-02 -7.015822082757949829e-02 -2.031062729656696320e-03 -3.307056799530982971e-02 -1.838116347789764404e-02 -7.763291895389556885e-02 5.214736796915531158e-03 -6.237152963876724243e-02 -7.948711514472961426e-03 1.931355521082878113e-02 1.480457559227943420e-02 -2.792680077254772186e-02 -1.323598995804786682e-02 6.341414526104927063e-03 7.784665562212467194e-03 -5.665295291692018509e-03 8.447465486824512482e-03 -5.778679624199867249e-02 -3.179665654897689819e-02 4.842654243111610413e-02 6.674167700111865997e-03 -6.115285679697990417e-02 -2.365516684949398041e-02 4.250321909785270691e-02 1.059198379516601562e-02 -2.638517180457711220e-03 1.609110087156295776e-02 1.834131591022014618e-02 3.331700805574655533e-03 2.483825571835041046e-02 1.144540309906005859e-01 -5.859738960862159729e-02 -7.621857803314924240e-03 4.669110476970672607e-02 -1.253124624490737915e-01 2.083748579025268555e-02 4.179040901362895966e-03 -5.586042255163192749e-02 -2.073574438691139221e-02 8.018626831471920013e-03 -4.613479599356651306e-02 -3.195690736174583435e-02 3.668011166155338287e-03 -4.083316028118133545e-02 -3.966685757040977478e-02 3.554659336805343628e-02 4.635869059711694717e-03 -8.548858761787414551e-02 -8.590260893106460571e-02 -4.929156973958015442e-02 2.599064819514751434e-02 -2.324030548334121704e-02 -5.631130933761596680e-02 6.021226197481155396e-02 1.017069518566131592e-01 -6.615172140300273895e-03 -7.362079620361328125e-02 3.260770812630653381e-02 -5.402331426739692688e-02 -3.725038468837738037e-02 -2.163675986230373383e-02 1.714605093002319336e-02 4.116649553179740906e-02 -1.375745050609111786e-02 -7.435753010213375092e-03 3.074214980006217957e-02 5.780619010329246521e-02 5.372586473822593689e-02 1.394070126116275787e-02 5.268241465091705322e-02
1.064783632755279541e-01 7.460182905197143555e-02 -1.895961165428161621e-02 4.649994894862174988e-02 -1.700981147587299347e-02 2.673604339361190796e-02 -3.568414598703384399e-02 -3.153205662965774536e-02 5.339218303561210632e-02 -1.144287735223770142e-02 4.897877573966979980e-03 -3.651237813755869865e-03 -3.505852818489074707e-02 6.917972117662429810e-02 -7.824231684207916260e-02 -1.552459690719842911e-02 7.025142014026641846e-02 1.481807790696620941e-02 -2.901215665042400360e-02 -6.526885181665420532e-02 1.533056329935789108e-02 -5.771386995911598206e-02 9.135417640209197998e-02 4.877794068306684494e-03 -4.770055413246154785e-02 -3.024209290742874146e-02 2.827328070998191833e-02 -9.783250093460083008e-02 3.991995379328727722e-02 -3.762524202466011047e-02 5.990202352404594421e-02 2.692339476197957993e-03 -6.625605374574661255e-02 -3.130260109901428223e-02 6.925005465745925903e-02 1.361224520951509476e-02 -3.938611224293708801e-02 -4.784992709755897522e-02 -1.702728867530822754e-02 5.046895146369934082e-02 -1.061609853059053421e-02 -9.540025889873504639e-02 -2.693231590092182159e-02 -8.642123080790042877e-03 1.609780080616474152e-02 5.203017964959144592e-02 5.553640425205230713e-02 -1.043280027806758881e-02 5.041308701038360596e-02 -1.089791767299175262e-02 9.576993063092231750e-03 3.595073521137237549e-02 -3.295019268989562988e-02 -4.827754944562911987e-02 -2.287526614964008331e-02 2.604357339441776276e-02 -5.480817519128322601e-03 -5.640857294201850891e-02 8.951523900032043457e-02 1.913929730653762817e-02 -4.739381372928619385e-03 -5.997407808899879456e-02 -1.686228625476360321e-02 -6.960085779428482056e-02 -6.268715485930442810e-03 7.111069560050964355e-02 2.270224504172801971e-02 1.127377245575189590e-02 4.299361631274223328e-02 7.063170429319143295e-03 3.096241969615221024e-03 -2.741584181785583496e-02 3.324250504374504089e-02 5.045630782842636108e-02 2.460174076259136200e-02 7.441751658916473389e-02 -2.525900490581989288e-02 -4.423891194164752960e-03 -2.348249778151512146e-02 -3.432019054889678955e-02 2.067918516695499420e-02 2.684382162988185883e-02 -2.877396158874034882e-02 -4.970892891287803650e-02 6.520922482013702393e-02 -2.393960254266858101e-03 5.408765375614166260e-02 -2.196825668215751648e-02 1.856407895684242249e-02 -9.752683341503143311e-02 3.779987990856170654e-02 3.461732342839241028e-02 4.049972072243690491e-02 5.420472472906112671e-02 1.731965690851211548e-02 -3.010419430211186409e-03 6.253612227737903595e-03 -4.561263695359230042e-02 -4.894027486443519592e-02 3.945738822221755981e-02 -1.759299263358116150e-02 1.915293931961059570e-02 -7.732704281806945801e-02 -2.145122550427913666e-02 -1.144667528569698334e-02 4.385014995932579041e-02 -1.534012518823146820e-02 -2.833782695233821869e-02 -2.723244018852710724e-02 4.674334079027175903e-02 3.316302318125963211e-03 -3.399292379617691040e-02 -7.558413594961166382e-02 -7.950865477323532104e-02 -4.276976455003023148e-03 2.970266342163085938e-02 -3.214855119585990906e-02 -2.302040718495845795e-02 -1.356334798038005829e-02 -1.055854372680187225e-02 -4.607645794749259949e-02 7.172759622335433960e-03 -2.242018841207027435e-02 3.977087885141372681e-02 6.640449166297912598e-02 2.006645128130912781e-02 1.555007845163345337e-01 -2.856848388910293579e-02
-5.696402862668037415e-02 3.649687767028808594e-02 7.942011207342147827e-02 1.047319248318672180e-01 -4.908494278788566589e-02 6.678431481122970581e-02 6.350949406623840332e-02 1.131992489099502563e-01 4.691367596387863159e-02 2.536149695515632629e-02 3.577305004000663757e-03 -8.047692477703094482e-02 4.706512391567230225e-02 -2.920959517359733582e-02 -5.371115729212760925e-02 4.152358043938875198e-03 -1.058529168367385864e-01 -1.273832172155380249e-01 3.407638147473335266e-02 -7.470097392797470093e-02 1.094329580664634705e-01 -8.654317259788513184e-02 -4.058678820729255676e-02 5.073491111397743225e-02 1.500726584345102310e-02 -1.720198057591915131e-02 -1.519691199064254761e-02 -2.069573104381561279e-02 3.941762447357177734e-02 7.666860520839691162e-02 -8.957066386938095093e-02 4.872621502727270126e-03 -1.172519841929897666e-04 -5.998127534985542297e-02 3.158253431320190430e-02 -1.096512228250503540e-01 1.495565325021743774e-01 4.448855761438608170e-03 2.074525319039821625e-02 1.248603221029043198e-02 4.149746615439653397e-03 -5.820604041218757629e-02 2.309629134833812714e-02 -4.900706559419631958e-02 -3.108491003513336182e-02 1.641706824302673340e-01 2.665615407750010490e-03 -1.455211043357849121e-01 -2.302960492670536041e-02 -2.534354291856288910e-02 1.496588438749313354e-02 -1.015329584479331970e-01 -9.320399165153503418e-02 -2.955116704106330872e-02 3.238746197894215584e-03 -1.055246219038963318e-01 1.675540767610073090e-02 -8.712650090456008911e-02 4.441032931208610535e-02 -7.828808389604091644e-03 -1.142041292041540146e-02 -2.852158248424530029e-02 -4.973265156149864197e-02 6.831054389476776123e-02 -5.126970261335372925e-02 -8.001370355486869812e-03 4.847786948084831238e-02 4.627288784831762314e-03 -4.919514060020446777e-02 -8.079712092876434326e-02 4.224421828985214233e-02 5.514668673276901245e-02 4.965652897953987122e-02 2.388563565909862518e-02 -9.627655148506164551e-03 -1.455269753932952881e-02 -1.258446723222732544e-01 -2.336501516401767731e-02 3.246643394231796265e-02 1.842122338712215424e-02 -1.346999872475862503e-02 4.519891366362571716e-02 -7.448236644268035889e-02 -4.206373915076255798e-02 2.802491746842861176e-02 4.520161822438240051e-02 6.858445703983306885e-02 4.289504140615463257e-03 2.472718618810176849e-02 4.677788168191909790e-02 -1.588019356131553650e-02 -1.207392960786819458e-01 -6.738051772117614746e-03 1.153552085161209106e-01 -2.598986774682998657e-02 8.738228678703308105e-02 -3.738502040505409241e-02 -1.502724830061197281e-02 -1.413334310054779053e-01 9.596723318099975586e-02 -7.013179361820220947e-02 -1.201551593840122223e-02 -2.777008712291717529e-02 2.170449309051036835e-02 -3.723955946043133736e-03 5.294061079621315002e-02 3.934624418616294861e-02 -6.051597744226455688e-02 1.360348165035247803e-01 -1.079124026000499725e-02 7.721657305955886841e-02 -3.175333142280578613e-03 -1.876260712742805481e-02 5.179914459586143494e-02 6.189583614468574524e-02 -5.364192277193069458e-02 4.450436308979988098e-02 9.748595952987670898e-02 2.426368650048971176e-03 -3.673698008060455322e-02 7.044576853513717651e-02 1.622149161994457245e-02 -6.057882308959960938e-02 8.545883744955062866e-02 4.612449184060096741e-02 -2.256814576685428619e-02 -2.391302026808261871e-02 1.660082489252090454e-02
1.032066904008388519e-02 -1.010858081281185150e-02 -3.570256382226943970e-02 -4.943243786692619324e-02 -5.743274092674255371e-02 -6.630595773458480835e-02 6.585167348384857178e-02 -1.203245203942060471e-02 -5.172486882656812668e-03 2.081700600683689117e-03 -5.855687335133552551e-02 -1.326756924390792847e-02 -2.148668095469474792e-02 -2.227368997409939766e-03 -1.022069714963436127e-02 -7.194173987954854965e-03 -1.448884722776710987e-03 3.202347084879875183e-02 -8.614526689052581787e-02 -6.511933356523513794e-02 -5.442893505096435547e-02 -3.906354680657386780e-02 3.132683411240577698e-02 -5.619389563798904419e-02 -1.284623797982931137e-02 2.611301466822624207e-02 -2.799949049949645996e-02 -4.253500699996948242e-02 -1.488887611776590347e-02 3.560305759310722351e-02 4.391167685389518738e-02 -5.312879011034965515e-02 4.614521563053131104e-02 1.019795238971710205e-01 -5.101035907864570618e-02 4.410734400153160095e-03 -1.076952088624238968e-03 4.956996068358421326e-03 8.623664081096649170e-02 1.150184199213981628e-01 2.987375669181346893e-02 -6.686496734619140625e-02 -1.665780320763587952e-02 1.686356589198112488e-02 2.533568814396858215e-02 -3.958778083324432373e-02 -4.500981885939836502e-04 -1.671752659603953362e-03 -2.381829917430877686e-02 -1.371957082301378250e-02 1.041256338357925415e-01 3.318421542644500732e-02 -8.724301122128963470e-03 -6.142515316605567932e-02 -4.590236023068428040e-02 3.293881192803382874e-02 2.227056957781314850e-02 1.360364407300949097e-01 6.538198888301849365e-02 -3.172830119729042053e-02 -4.159436747431755066e-02 -7.977572083473205566e-02 5.802492797374725342e-02 -1.345470696687698364e-01 -2.219973877072334290e-02 -4.205822944641113281e-03 -4.068376496434211731e-02 4.143518209457397461e-02 -4.821748938411474228e-03 -1.829586178064346313e-02 5.118633061647415161e-02 -2.012254111468791962e-02 -6.680092215538024902e-02 -2.998197451233863831e-02 -3.322788327932357788e-02 -3.555301949381828308e-02 2.889802306890487671e-02 1.278766663745045662e-03 1.814194023609161377e-03 -4.668289795517921448e-02 -6.755664199590682983e-02 1.017516404390335083e-01 1.215584389865398407e-02 -8.287743665277957916e-03 -2.987287938594818115e-03 -7.407078146934509277e-02 -2.711624652147293091e-02 3.537877695634961128e-03 6.605017930269241333e-02 2.680590003728866577e-02 3.403281047940254211e-02 3.310872241854667664e-02 9.950812906026840210e-03 1.039153262972831726e-01 8.948069065809249878e-02 2.265562303364276886e-02 4.988664016127586365e-02 8.308750391006469727e-02 -1.730402931571006775e-02 -3.617763891816139221e-02 -7.302659098058938980e-03 3.227489441633224487e-02 1.000708900392055511e-02 3.544248640537261963e-02 -6.487222015857696533e-02 9.033443778753280640e-02 1.054930873215198517e-02 1.950770244002342224e-02 -1.241778805851936340e-01 3.626683354377746582e-02 -4.236083850264549255e-02 -4.492064565420150757e-02 -2.158844657242298126e-02 1.467222440987825394e-02 1.638551801443099976e-02 5.607299134135246277e-02 6.167535204440355301e-03 -8.864108473062515259e-02 -1.011408586055040359e-02 -2.019860222935676575e-02 -4.236781597137451172e-02 2.536169998347759247e-02 1.140363421291112900e-02 -7.512565702199935913e-02 -3.385956957936286926e-02 1.144259497523307800e-01 2.818327397108078003e-02 2.866447670385241508e-03
1.167084649205207825e-02 9.401987306773662567e-03 -5.348991602659225464e-03 3.224456310272216797e-02 -1.001411378383636475e-01 7.683169096708297729e-02 1.526019349694252014e-02 6.486079655587673187e-04 -5.661782249808311462e-02 8.152478933334350586e-02 1.619558222591876984e-02 -2.598989568650722504e-02 -1.115912012755870819e-02 -4.921209067106246948e-02 3.072159923613071442e-02 2.472922764718532562e-02 -3.107819939032196999e-03 3.904636576771736145e-02 1.173594743013381958e-01 -1.376750022172927856e-01 -1.811688579618930817e-02 -5.681340023875236511e-02 9.408579021692276001e-02 -4.560337960720062256e-02 6.449314206838607788e-02 9.006039798259735107e-02 -1.588529720902442932e-02 2.688265405595302582e-02 -2.756795845925807953e-02 -2.881176210939884186e-02 1.206478625535964966e-01 6.802317500114440918e-02 -6.689038593322038651e-03 4.496525973081588745e-02 -7.461008615791797638e-03 -1.636470109224319458e-02 1.449366286396980286e-02 8.822567760944366455e-03 -3.625512495636940002e-02 5.569562688469886780e-02 4.269172623753547668e-02 2.646951749920845032e-02 -4.474996775388717651e-02 -1.741135679185390472e-02 -1.179622206836938858e-02 -7.425274234265089035e-03 -4.269142448902130127e-02 8.177659660577774048e-02 1.130333184846676886e-04 -7.181027531623840332e-02 4.471782594919204712e-02 3.367698192596435547e-02 -2.831271104514598846e-02 -1.190307084470987320e-02 2.961882576346397400e-02 3.540701791644096375e-02 -5.074594169855117798e-02 -4.827976226806640625e-03 -1.210598926991224289e-02 -6.701739132404327393e-02 1.621238328516483307e-02 -4.141394421458244324e-02 3.670314699411392212e-02 -7.506196200847625732e-02 -7.075979560613632202e-02 2.265976741909980774e-02 -2.867949381470680237e-02 6.499428302049636841e-02 -5.790175497531890869e-02 1.414343994110822678e-02 1.144139096140861511e-02 -7.669422775506973267e-02 -5.505910143256187439e-02 3.833403438329696655e-02 3.358081728219985962e-02 4.178266972303390503e-02 8.180228620767593384e-02 3.357191235409118235e-05 7.836373150348663330e-02 -2.794332616031169891e-02 -5.429409071803092957e-02 9.971738792955875397e-03 -2.207021787762641907e-02 -1.810976490378379822e-02 -2.855362929403781891e-02 1.403626054525375366e-02 -1.394135784357786179e-02 -1.368990987539291382e-01 5.547422170639038086e-02 4.152217134833335876e-02 -6.574516743421554565e-02 -4.248554632067680359e-02 -5.849366262555122375e-02 4.727996420115232468e-03 8.319851011037826538e-02 1.552103180438280106e-02 -2.975098975002765656e-02 2.194046974182128906e-02 -2.294614911079406738e-02 -5.317601561546325684e-02 8.497525751590728760e-02 7.864267379045486450e-02 -1.227659881114959717e-01 -1.463042479008436203e-02 6.327367573976516724e-02 4.236352443695068359e-02 9.769195457920432091e-04 -1.112884492613375187e-03 2.925930730998516083e-02 1.228494346141815186e-01 4.124164953827857971e-02 5.379974097013473511e-02 1.237505767494440079e-02 -3.535526245832443237e-02 2.180939354002475739e-02 9.544515609741210938e-02 -7.800152897834777832e-02 2.220925316214561462e-02 3.375622257590293884e-02 -6.230312958359718323e-02 -4.718327149748802185e-02 4.146953672170639038e-02 -5.236586555838584900e-02 -1.896593836136162281e-03 2.350571937859058380e-02 2.297414094209671021e-02 4.156933631747961044e-03 1.877739839255809784e-02
-9.082544595003128052e-03 6.080249696969985962e-02 -8.229519426822662354e-02 -8.491294085979461670e-02 2.763222344219684601e-02 -3.879200294613838196e-02 4.457719251513481140e-02 -7.511123269796371460e-02 2.655344270169734955e-02 -4.240046441555023193e-02 -4.865989834070205688e-02 -6.793508678674697876e-02 1.863092929124832153e-02 -5.945569276809692383e-02 4.213064908981323242e-03 -8.617088943719863892e-02 -4.208295419812202454e-02 -8.670540899038314819e-02 -2.175905182957649231e-02 -1.439804490655660629e-02 -5.355290323495864868e-02 -5.145516246557235718e-02 -9.268303215503692627e-02 1.090765967965126038e-01 -1.526597072370350361e-03 -2.500947564840316772e-02 -2.692520152777433395e-03 -5.641359463334083557e-02 1.587381064891815186e-01 1.167231127619743347e-01 9.117332100868225098e-02 3.172154352068901062e-02 4.705956671386957169e-03 1.878690272569656372e-01 -1.379366219043731689e-02 -3.678089706227183342e-03 7.067596912384033203e-02 -1.611329987645149231e-02 7.772612571716308594e-02 1.044199466705322266e-01 1.771275885403156281e-02 -2.390023134648799896e-02 3.108849748969078064e-03 -7.814372889697551727e-03 3.560999780893325806e-02 -3.440553322434425354e-02 5.453500151634216309e-02 1.238888315856456757e-02 -7.563415169715881348e-02 -1.379060186445713043e-02 -7.611551880836486816e-02 -1.886141113936901093e-02 4.600048810243606567e-02 -1.368978247046470642e-02 5.969963222742080688e-02 1.863335072994232178e-02 7.552900165319442749e-02 -5.109969899058341980e-02 3.338079899549484253e-02 -2.078650519251823425e-02 1.805804669857025146e-02 -8.955883979797363281e-02 -7.295064628124237061e-02 -7.645877450704574585e-02 1.189115829765796661e-02 5.585061013698577881e-02 9.795000776648521423e-03 2.957542240619659424e-02 3.314274130389094353e-03 1.134910583496093750e-01 4.739880934357643127e-02 2.765045128762722015e-02 8.913622237741947174e-03 -1.742549985647201538e-01 -5.126799643039703369e-02 7.441066950559616089e-02 -2.805238217115402222e-02 -4.648421704769134521e-02 -8.262047916650772095e-02 -6.941266357898712158e-02 3.910221904516220093e-02 5.341406539082527161e-02 7.623827457427978516e-02 -4.776404425501823425e-02 -5.985165387392044067e-02 4.464243352413177490e-02 -7.072644680738449097e-02 -2.221775986254215240e-02 -2.507745102047920227e-02 -5.615214630961418152e-02 -6.290142983198165894e-02 7.235047873109579086e-03 -5.960233882069587708e-02 1.425767838954925537e-01 -6.282973568886518478e-03 -3.358630463480949402e-02 1.040350832045078278e-02 -1.200798526406288147e-02 -2.087113820016384125e-02 2.002087235450744629e-02 -3.050496429204940796e-02 -9.037894196808338165e-03 -5.678669735789299011e-02 -6.996866315603256226e-02 -1.221313420683145523e-02 -5.249353125691413879e-02 -4.266023635864257812e-02 -2.575634978711605072e-02 3.169442713260650635e-02 7.561246305704116821e-02 -5.068700760602951050e-03 1.722973654977977276e-03 -7.304309308528900146e-02 4.462444037199020386e-02 8.362634479999542236e-02 -4.729959741234779358e-02 6.064020097255706787e-03 -4.560875147581100464e-02 4.815870150923728943e-02 4.872870817780494690e-02 2.268864214420318604e-02 1.584400236606597900e-02 1.375273242592811584e-02 3.086050041019916534e-02 1.575393974781036377e-02 -1.841294579207897186e-03 1.085134148597717285e-01 4.721693112514913082e-04
6.752174347639083862e-02 2.427536062896251678e-02 -3.943412005901336670e-02 1.191408839076757431e-02 -5.946584977209568024e-03 -9.891672432422637939e-02 -4.037388414144515991e-02 -7.113947719335556030e-02 -4.196823388338088989e-02 7.056955993175506592e-02 -5.482372641563415527e-02 1.036053727148100734e-04 5.009313672780990601e-02 3.322670003399252892e-03 -1.096797361969947815e-01 5.981836467981338501e-02 3.724649548530578613e-02 -3.970298543572425842e-02 -7.055597007274627686e-02 -1.125416681170463562e-01 -5.096685886383056641e-02 -6.865050643682479858e-02 2.846568357199430466e-03 -9.162382222712039948e-03 3.610725328326225281e-02 1.330318022519350052e-02 -2.431828714907169342e-02 7.432714849710464478e-02 4.166943579912185669e-02 9.615831077098846436e-02 9.662009030580520630e-02 -3.845346719026565552e-02 6.519372016191482544e-02 1.886263117194175720e-02 5.225448310375213623e-02 6.563027948141098022e-02 7.405471801757812500e-02 5.458084121346473694e-02 -3.975076228380203247e-02 7.438553869724273682e-02 -4.863644018769264221e-02 2.004336379468441010e-02 -4.244817048311233521e-02 6.879499554634094238e-02 9.524223208427429199e-02 -7.424294017255306244e-03 1.614144071936607361e-02 3.801089897751808167e-02 -8.509840071201324463e-02 -1.089822053909301758e-01 1.352935880422592163e-01 -5.556850507855415344e-02 -1.295915897935628891e-02 5.826495215296745300e-02 1.220957711338996887e-01 -2.114733122289180756e-02 2.093214727938175201e-02 -2.581034228205680847e-02 1.823477633297443390e-02 -8.675221353769302368e-02 1.344376709312200546e-02 -1.497366931289434433e-02 7.791721820831298828e-02 3.012186475098133087e-02 -4.805276915431022644e-02 1.667230948805809021e-02 -4.001867491751909256e-03 8.297656476497650146e-02 -2.110459841787815094e-02 8.307372778654098511e-02 8.822780102491378784e-02 1.025207340717315674e-02 1.150741651654243469e-01 3.678723052144050598e-02 -8.891626447439193726e-02 -6.115547567605972290e-02 1.549558620899915695e-02 2.479437272995710373e-03 -9.095713496208190918e-03 -5.820680526085197926e-04 -4.549725353717803955e-02 5.966147407889366150e-03 7.678528875112533569e-02 -2.671119198203086853e-02 -8.047269284725189209e-02 4.957122355699539185e-02 7.084585726261138916e-02 9.230484254658222198e-03 1.816051453351974487e-02 4.513392224907875061e-02 -3.655785322189331055e-02 3.662852197885513306e-02 -1.405431330204010010e-01 -6.371818482875823975e-02 -1.775505393743515015e-02 8.348517864942550659e-02 1.661799289286136627e-02 5.813572555780410767e-03 -2.785711549222469330e-02 -8.041708916425704956e-02 -3.084284998476505280e-02 7.676774635910987854e-03 -7.504376769065856934e-02 -2.610985562205314636e-02 8.420920372009277344e-02 -4.356876015663146973e-02 -5.910480860620737076e-03 -3.069373592734336853e-02 2.145311096683144569e-03 -4.961984977126121521e-02 2.431732974946498871e-02 5.303536728024482727e-02 6.748660933226346970e-03 3.607513383030891418e-02 9.350547567009925842e-03 1.613595522940158844e-02 -2.139135822653770447e-02 2.061039954423904419e-02 -1.089414134621620178e-01 3.828603774309158325e-02 -9.928492829203605652e-03 -3.018380142748355865e-02 -3.714937716722488403e-02 3.959043323993682861e-02 1.754159666597843170e-02 -1.114033628255128860e-02 3.234004229307174683e-02 -4.555797949433326721e-02
4.166590794920921326e-02 7.117394357919692993e-02 2.277228981256484985e-02 3.010284714400768280e-02 3.889986127614974976e-02 -7.035090029239654541e-02 2.401498705148696899e-02 -2.821801602840423584e-02 4.192548245191574097e-02 -1.347479224205017090e-02 -1.975508406758308411e-03 -6.932355463504791260e-03 -7.592735439538955688e-02 -1.772957667708396912e-02 -5.533568561077117920e-02 -5.361015722155570984e-02 -4.520822782069444656e-03 9.477044455707073212e-03 3.473459184169769287e-02 -5.719950795173645020e-02 2.509267255663871765e-02 -9.585154242813587189e-03 2.754839695990085602e-02 -5.129180848598480225e-02 8.576526492834091187e-02 1.097035780549049377e-02 1.214142590761184692e-01 -6.691059470176696777e-02 -5.419363453984260559e-02 -1.575237140059471130e-02 7.557920180261135101e-03 -3.586683794856071472e-02 -2.514848718419671059e-03 -4.056945908814668655e-03 3.004617989063262939e-02 -6.817342247813940048e-03 -3.401475027203559875e-02 -2.944534830749034882e-02 -4.579593241214752197e-02 1.666425727307796478e-02 -1.524645742028951645e-02 -8.693292737007141113e-02 -8.159536868333816528e-02 -2.632667683064937592e-02 -5.807925388216972351e-02 -3.294648975133895874e-02 -1.294497549533843994e-01 -4.598133638501167297e-02 1.419083494693040848e-02 -4.215455427765846252e-02 3.197342157363891602e-02 6.627719104290008545e-02 -1.535887084901332855e-02 3.063262440264225006e-03 -4.650114849209785461e-02 -3.106467239558696747e-02 -2.887606434524059296e-02 -3.330558538436889648e-02 6.168187782168388367e-02 1.091360673308372498e-02 1.964435912668704987e-02 -2.474257722496986389e-02 2.240491844713687897e-02 1.132140774279832840e-02 -2.731007896363735199e-02 7.378088682889938354e-02 -2.009138464927673340e-02 8.691144734621047974e-02 3.819636628031730652e-02 3.024805523455142975e-02 9.637420624494552612e-02 -1.331359380856156349e-04 -5.309166386723518372e-02 5.054853111505508423e-02 1.274708565324544907e-02 -4.131409805268049240e-03 3.328360989689826965e-02 6.266579031944274902e-02 -7.563074678182601929e-02 -1.260853372514247894e-03 -7.187777012586593628e-02 -1.822439208626747131e-02 -5.491695553064346313e-02 -3.862828016281127930e-02 7.729832082986831665e-02 2.620614599436521530e-03 5.913705751299858093e-02 1.576600037515163422e-02 -1.410715375095605850e-02 -5.006602406501770020e-02 -1.676550135016441345e-02 2.964580245316028595e-02 8.701005950570106506e-03 1.026115268468856812e-01 -3.383580222725868225e-02 8.294144645333290100e-03 1.834319345653057098e-02 -5.449971929192543030e-02 5.854868143796920776e-02 -5.930610466748476028e-03 1.074188016355037689e-02 4.416329413652420044e-02 -4.279463901184499264e-04 6.321225315332412720e-02 3.851964324712753296e-02 -1.080575287342071533e-01 -7.825696468353271484e-02 1.099586300551891327e-02 -7.128506898880004883e-02 -9.293328970670700073e-03 6.492405384778976440e-02 -1.016703248023986816e-01 7.861569523811340332e-03 7.082266360521316528e-02 4.802352935075759888e-02 1.434733532369136810e-02 -6.288978271186351776e-03 -1.654282398521900177e-02 1.170770265161991119e-03 -1.389872282743453979e-01 -2.568779978901147842e-03 -4.717897158116102219e-03 5.894988309592008591e-03 -5.323753878474235535e-02 -3.877013921737670898e-02 8.831257931888103485e-03 1.357314288616180420e-01 -7.111376523971557617e-02
3.059023991227149963e-02 6.960594560950994492e-03 3.037257702089846134e-04 -1.018389500677585602e-02 9.520697593688964844e-02 -3.989445790648460388e-02 3.767871484160423279e-02 8.936210535466670990e-03 4.543060064315795898e-02 -2.034803293645381927e-02 2.634863182902336121e-02 4.291168972849845886e-02 3.776097297668457031e-02 5.692911148071289062e-02 -5.672350060194730759e-03 4.782458394765853882e-02 -2.644265815615653992e-02 3.431227803230285645e-02 -5.811403319239616394e-02 5.774183943867683411e-02 -4.702609032392501831e-02 1.313246670179069042e-03 -3.363571688532829285e-02 -3.591720247641205788e-03 -4.675335064530372620e-02 4.406149312853813171e-02 3.704906208440661430e-03 -2.333040162920951843e-02 3.280976321548223495e-03 -2.258810214698314667e-02 7.335692644119262695e-02 -6.667761504650115967e-02 8.236359059810638428e-02 -8.281213231384754181e-03 1.067038439214229584e-02 -8.553723990917205811e-02 2.776094153523445129e-02 -5.233276635408401489e-03 -2.062281779944896698e-02 -7.915915921330451965e-03 -4.145047627389431000e-03 -9.828211367130279541e-02 -9.054816514253616333e-02 -2.238775044679641724e-02 4.853514209389686584e-02 -5.935341864824295044e-02 -1.703096553683280945e-02 5.054229497909545898e-02 -7.814648561179637909e-03 -6.807287037372589111e-02 1.117736846208572388e-02 -1.051876023411750793e-01 -4.865372553467750549e-02 -5.069945380091667175e-02 3.844154626131057739e-02 -2.573298476636409760e-02 1.248525548726320267e-02 2.857147529721260071e-02 2.827900089323520660e-02 -4.108373075723648071e-02 -3.639079630374908447e-02 3.663320466876029968e-02 1.825257204473018646e-02 -1.633216999471187592e-02 8.108543232083320618e-03 -9.741337038576602936e-03 -7.786248624324798584e-02 7.227316964417695999e-03 -2.574600093066692352e-02 3.705829754471778870e-02 4.560334980487823486e-02 2.232416532933712006e-02 3.657525032758712769e-02 -2.627164684236049652e-02 -3.168961778283119202e-02 -5.627233535051345825e-02 5.066142603754997253e-02 -5.613163113594055176e-02 -4.725114256143569946e-02 -4.420767351984977722e-02 6.953196227550506592e-02 6.931441370397806168e-03 1.596806049346923828e-01 -3.418228775262832642e-02 2.346804551780223846e-02 5.699576437473297119e-02 -1.373126171529293060e-02 5.153460055589675903e-02 5.360027030110359192e-02 -6.746856868267059326e-02 -3.621746599674224854e-02 4.808383435010910034e-02 4.402487352490425110e-02 -2.972719632089138031e-02 1.647055335342884064e-02 -3.161836788058280945e-02 6.662751734256744385e-02 1.658848300576210022e-02 -2.787257917225360870e-02 -6.123973056674003601e-02 -3.281618654727935791e-02 -1.699799858033657074e-02 -1.322555728256702423e-02 -2.970006503164768219e-02 -1.727996021509170532e-02 -3.931310400366783142e-02 3.412563353776931763e-02 4.907245934009552002e-02 -6.794520467519760132e-02 2.106809988617897034e-02 2.229714952409267426e-02 -1.911655627191066742e-02 1.282247304916381836e-01 4.186091572046279907e-02 -4.194130003452301025e-02 4.351716954261064529e-03 -1.108083054423332214e-01 -4.498590249568223953e-03 -1.880837837234139442e-03 2.257031388580799103e-03 -3.943318873643875122e-02 -5.868177115917205811e-02 -6.071329861879348755e-02 2.511743083596229553e-02 -6.069037318229675293e-02 -4.240586981177330017e-02 1.485464125871658325e-01 -4.930117167532444000e-03
-1.896313950419425964e-02 4.588008299469947815e-02 4.021430015563964844e-02 3.962798975408077240e-03 1.877764612436294556e-02 6.585996598005294800e-02 4.587412998080253601e-02 1.141583546996116638e-02 3.735080733895301819e-02 -4.122864827513694763e-02 1.411009486764669418e-02 6.583161186426877975e-03 -8.354735374450683594e-02 -4.087037872523069382e-03 -7.289207726716995239e-02 -2.074784785509109497e-02 -1.204973179847002029e-02 -3.703748062252998352e-02 1.833289489150047302e-02 4.280635330360382795e-04 6.710951030254364014e-02 -9.040667116641998291e-02 -2.061366289854049683e-02 -4.373967275023460388e-02 5.507360771298408508e-02 1.890578307211399078e-02 8.958349935710430145e-03 -5.755364149808883667e-02 4.441576823592185974e-02 1.023431047797203064e-01 3.019163757562637329e-02 8.866168558597564697e-02 -3.089204989373683929e-02 -3.960465639829635620e-02 7.552300114184617996e-03 -3.018790669739246368e-02 9.502664208412170410e-02 -1.119648478925228119e-02 -1.868007704615592957e-02 -4.014303907752037048e-02 -8.350824937224388123e-03 -2.575471624732017517e-02 -6.631674244999885559e-03 -1.152826771140098572e-01 -8.520032465457916260e-02 2.373606152832508087e-02 2.452579885721206665e-02 -6.070180237293243408e-02 4.635192081332206726e-02 5.933273211121559143e-02 -1.052667852491140366e-02 1.443273480981588364e-02 8.459963835775852203e-03 -2.827310934662818909e-02 3.774501383304595947e-02 -6.439539790153503418e-02 2.067811787128448486e-02 -4.444140195846557617e-02 1.844731532037258148e-02 -8.864415436983108521e-02 -6.316199153661727905e-02 -1.147378515452146530e-02 -6.890437752008438110e-02 5.775682628154754639e-03 1.689647138118743896e-02 -3.129694610834121704e-02 2.270543761551380157e-02 1.561706699430942535e-02 -9.326295554637908936e-02 7.574225775897502899e-03 8.795864880084991455e-03 -1.365172560326755047e-03 -3.341711685061454773e-02 7.891300134360790253e-03 -2.970909513533115387e-02 4.911489412188529968e-02 4.585682600736618042e-02 -2.538471482694149017e-02 -3.105104342103004456e-02 2.240108139812946320e-02 6.164125725626945496e-02 2.270403318107128143e-02 2.854457125067710876e-03 6.224633194506168365e-03 -4.742192849516868591e-02 4.014698322862386703e-03 1.083221808075904846e-01 -4.765052720904350281e-02 3.386666625738143921e-02 2.082693576812744141e-02 -7.278673350811004639e-02 6.267206277698278427e-03 -1.347102876752614975e-02 2.986876666545867920e-02 4.848719015717506409e-02 4.171061515808105469e-02 3.975353762507438660e-02 -1.145894639194011688e-02 -3.576920554041862488e-02 2.213703235611319542e-03 -1.156007591634988785e-02 -2.682212973013520241e-03 -4.370431881397962570e-03 -5.192863941192626953e-02 4.187191650271415710e-02 5.357076600193977356e-02 -6.142311170697212219e-02 4.663373343646526337e-03 -3.937882184982299805e-02 -6.145584397017955780e-03 8.741451799869537354e-02 4.471532069146633148e-03 -9.994924813508987427e-02 -2.038813382387161255e-02 4.441199824213981628e-02 4.469428211450576782e-02 7.130364328622817993e-02 2.608531899750232697e-02 3.866387996822595596e-03 1.921550929546356201e-02 -4.626833368092775345e-03 2.713133394718170166e-02 7.839364930987358093e-03 -3.985124826431274414e-02 -2.563659101724624634e-02 2.640325576066970825e-02 1.024609729647636414e-01 3.912438824772834778e-02
3.842139244079589844e-02 1.713624782860279083e-02 -1.151471369666978717e-04 -8.763753622770309448e-02 9.466312825679779053e-02 -6.740961223840713501e-02 3.009861335158348083e-02 3.837427496910095215e-02 -5.084411799907684326e-02 -5.648683011531829834e-02 1.749919541180133820e-02 4.784134402871131897e-02 -7.115415483713150024e-02 7.547654956579208374e-02 2.081305254250764847e-03 4.350286442786455154e-03 -6.001135334372520447e-03 -6.769639253616333008e-02 -5.309886112809181213e-02 4.396772477775812149e-03 -1.657853601500391960e-03 4.315026104450225830e-03 7.198372390121221542e-03 2.327006123960018158e-02 5.496717989444732666e-02 9.510606527328491211e-03 2.162308618426322937e-02 -2.440567500889301300e-02 1.115541234612464905e-01 -1.585930585861206055e-02 -1.823132671415805817e-02 -4.250265657901763916e-02 -3.287123143672943115e-02 -2.469982765614986420e-02 3.768321871757507324e-02 5.300011858344078064e-02 -7.041262462735176086e-03 2.430956065654754639e-02 -4.563255235552787781e-02 -2.084831148386001587e-02 -2.462284639477729797e-02 -3.035899437963962555e-02 -7.604798674583435059e-02 2.329886518418788910e-02 -3.371075168251991272e-02 -4.263532534241676331e-02 -1.390578225255012512e-02 -9.216863662004470825e-02 4.863945394754409790e-02 -4.324949532747268677e-02 4.000994376838207245e-03 -1.907967031002044678e-02 1.288429740816354752e-02 5.371844768524169922e-02 -2.294589579105377197e-02 2.791638858616352081e-02 7.628171890974044800e-02 3.612609580159187317e-02 2.452702634036540985e-02 -5.499746650457382202e-02 -1.585961319506168365e-02 6.789870094507932663e-03 -3.489493951201438904e-02 4.387685284018516541e-02 -2.122574672102928162e-02 -4.209580644965171814e-02 1.761441305279731750e-02 -6.044272333383560181e-02 -3.217189759016036987e-02 -1.512078661471605301e-02 -2.010596543550491333e-02 1.820924878120422363e-02 7.973603904247283936e-03 -2.792582660913467407e-02 4.475221037864685059e-02 -1.468311250209808350e-02 1.178846601396799088e-02 3.738328069448471069e-02 -5.359263624995946884e-03 -1.275548338890075684e-01 -2.290769107639789581e-02 4.449763521552085876e-02 3.784222528338432312e-02 1.172044128179550171e-02 3.745403885841369629e-02 3.447045385837554932e-02 -4.640476778149604797e-03 1.014261767268180847e-01 2.107155509293079376e-02 1.678528822958469391e-02 -1.337834168225526810e-02 4.939495027065277100e-02 -1.657714694738388062e-02 5.301715433597564697e-02 1.602284796535968781e-02 3.305892273783683777e-02 4.644139111042022705e-02 1.800138317048549652e-02 2.457359619438648224e-02 -2.628812938928604126e-02 -3.237700834870338440e-02 4.453223943710327148e-02 2.224386297166347504e-02 1.396612916141748428e-02 -4.143590573221445084e-03 -7.030994445085525513e-02 -6.980801373720169067e-02 -6.015704944729804993e-02 5.275315046310424805e-02 -1.720399968326091766e-02 2.580986917018890381e-02 -3.926372900605201721e-02 7.846225798130035400e-02 3.436928987503051758e-02 3.999386727809906006e-02 9.572731703519821167e-02 2.631657384335994720e-02 -6.849278695881366730e-03 2.783644944429397583e-02 -4.503232985734939575e-02 -4.363244399428367615e-02 3.753093630075454712e-02 1.074737403541803360e-02 3.196889907121658325e-02 -3.351492062211036682e-02 3.642797097563743591e-02 -2.050644904375076294e-02 1.389644760638475418e-02
6.745932996273040771e-02 4.288733378052711487e-02 3.907054662704467773e-02 3.568274900317192078e-02 9.040288627147674561e-02 -1.014583278447389603e-02 3.159865736961364746e-02 7.087582256644964218e-03 -6.547100841999053955e-02 8.365334570407867432e-02 -2.675031870603561401e-02 1.332954782992601395e-02 -7.116486877202987671e-02 -1.443449128419160843e-02 4.964621271938085556e-03 -1.049908921122550964e-01 -2.019833959639072418e-02 1.175999641418457031e-02 1.003208085894584656e-01 -2.201168052852153778e-02 2.025921083986759186e-02 -1.135426685214042664e-01 -9.190631657838821411e-02 1.005552709102630615e-02 7.276935875415802002e-02 -2.750940388068556786e-03 2.368991449475288391e-02 2.045914530754089355e-02 9.854399412870407104e-02 2.696849033236503601e-02 -9.642937802709639072e-04 -3.429067879915237427e-02 2.248665504157543182e-02 -6.841190159320831299e-02 8.433573693037033081e-02 -4.369990900158882141e-02 -5.778521671891212463e-02 -5.558901000767946243e-03 -8.271199651062488556e-03 6.510617583990097046e-02 -4.838553816080093384e-02 -6.148994714021682739e-02 -1.487478911876678467e-01 -6.817483156919479370e-02 -3.376317769289016724e-02 4.862269759178161621e-02 -5.573410540819168091e-02 -2.155885100364685059e-02 1.103560207411646843e-03 -8.342239074409008026e-03 7.065330445766448975e-02 -5.037394165992736816e-02 1.294059120118618011e-02 2.383787743747234344e-02 5.482945707626640797e-04 1.255414565093815327e-03 -4.087030515074729919e-02 -5.513586848974227905e-02 -7.729377830401062965e-04 4.304492846131324768e-02 -3.253587707877159119e-02 8.122724480926990509e-03 -2.201048843562602997e-02 3.253564238548278809e-02 -4.934389144182205200e-02 3.492110595107078552e-02 2.793947979807853699e-02 3.960924968123435974e-02 -1.919093355536460876e-02 1.065039783716201782e-01 1.017234101891517639e-01 3.259084001183509827e-02 3.251190483570098877e-02 -1.228552386164665222e-01 2.605661191046237946e-02 3.544213995337486267e-02 3.137255832552909851e-02 -1.204503793269395828e-02 4.745387285947799683e-02 -1.248409599065780640e-01 -4.661544784903526306e-02 -1.090156659483909607e-02 9.952703863382339478e-02 -4.258332401514053345e-02 -6.571333855390548706e-02 -2.577339485287666321e-02 -9.074570238590240479e-02 -8.652656525373458862e-02 1.420564204454421997e-01 -1.254142224788665771e-01 -6.133451685309410095e-02 -5.799043178558349609e-02 4.518979787826538086e-02 4.498884454369544983e-02 -4.570195451378822327e-02 9.792605787515640259e-02 3.568309545516967773e-02 -3.505899757146835327e-02 3.640184178948402405e-02 1.962449029088020325e-02 5.128310248255729675e-02 -2.385875955224037170e-02 -8.786763995885848999e-02 7.689087837934494019e-02 -2.273059822618961334e-02 -6.483400613069534302e-02 -8.015416562557220459e-02 -1.310997526161372662e-03 6.381235271692276001e-02 1.238931342959403992e-02 -7.796810567378997803e-02 -5.568956490606069565e-03 3.645984455943107605e-02 8.144637197256088257e-02 1.224559918045997620e-01 -6.177631672471761703e-03 6.574276834726333618e-03 7.297785580158233643e-02 4.708985984325408936e-02 -7.115410268306732178e-02 -1.367577724158763885e-02 -2.411109860986471176e-03 3.639071807265281677e-02 -4.691758751869201660e-02 6.851077079772949219e-03 1.171734184026718140e-02 -8.896673470735549927e-02 -1.070550177246332169e-02
