1.380044408142566681e-02
3.983342030551284552e-04
-4.836495965719223022e-03
9.768451564013957977e-03
1.274889521300792694e-02
-5.709641147404909134e-03
-1.104909740388393402e-02
4.493685811758041382e-02
1.690263859927654266e-02
1.638583838939666748e-02
2.875143475830554962e-02
8.703018538653850555e-03
1.533614378422498703e-02
-1.561756990849971771e-02
-1.960792951285839081e-02
2.736894972622394562e-02
-1.594874076545238495e-02
5.576437804847955704e-03
-1.808200776576995850e-02
4.312154836952686310e-03
-2.022904530167579651e-02
-9.773499332368373871e-03
4.945002961903810501e-03
2.541152946650981903e-02
-7.927767932415008545e-03
-1.295823510736227036e-02
-1.326886005699634552e-02
3.916040062904357910e-03
-3.828559070825576782e-03
2.091032685711979866e-03
4.875303129665553570e-04
-3.141391789540648460e-03
8.427083492279052734e-03
-1.026338525116443634e-02
2.508104965090751648e-02
1.292161177843809128e-02
6.807607132941484451e-03
-9.760295972228050232e-03
-1.142463739961385727e-02
-1.920529827475547791e-02
-1.786296442151069641e-02
2.656936703715473413e-04
-1.640545087866485119e-03
3.721871227025985718e-02
-1.618708483874797821e-02
-3.638706170022487640e-03
1.653560809791088104e-02
1.187181193381547928e-02
2.669361652806401253e-03
-3.523318329825997353e-03
1.795166404917836189e-03
-5.672372877597808838e-03
2.802733331918716431e-02
9.810231626033782959e-03
-1.655098423361778259e-02
-2.384082647040486336e-03
-6.518988520838320255e-04
1.872568391263484955e-02
-3.841389343142509460e-02
-4.686348140239715576e-03
-1.390835735946893692e-02
-1.824576593935489655e-02
1.272881589829921722e-02
2.117375406669452786e-04
-4.561156965792179108e-03
-1.671815058216452599e-03
-3.023387864232063293e-02
1.997333392500877380e-02
2.790628932416439056e-02
-6.221475079655647278e-03
5.875506903976202011e-03
-5.107950884848833084e-03
-1.586874015629291534e-02
-3.636101260781288147e-02
-2.686236426234245300e-02
-1.590192317962646484e-02
-1.469590142369270325e-02
-3.396631218492984772e-03
-1.956293545663356781e-02
-1.596597023308277130e-02
1.652147434651851654e-02
-4.048133734613656998e-03
-1.773746311664581299e-02
8.278388530015945435e-03
1.221825182437896729e-02
1.877331547439098358e-02
4.094342514872550964e-02
-3.448614478111267090e-02
2.176655083894729614e-02
-1.033632922917604446e-02
-2.786086406558752060e-03
1.857449859380722046e-02
1.236875820904970169e-02
1.173964794725179672e-02
5.580114666372537613e-04
-3.206475451588630676e-02
3.239504992961883545e-02
1.755880424752831459e-03
-5.889428779482841492e-03
-2.768137957900762558e-03
-1.029681414365768433e-02
5.343337077647447586e-03
1.436770055443048477e-02
7.205224595963954926e-03
-8.409588597714900970e-03
-3.352747997269034386e-03
-2.710335887968540192e-03
2.124074846506118774e-02
2.410371042788028717e-02
-7.991660386323928833e-03
6.649051210843026638e-04
-1.736219972372055054e-02
7.161710527725517750e-04
-1.950911246240139008e-02
-1.787815429270267487e-02
3.593965247273445129e-02
2.922304905951023102e-02
1.457256497815251350e-03
6.794273387640714645e-03
3.858520649373531342e-03
1.857313094660639763e-03
-7.916852831840515137e-02
-1.835585385560989380e-02
-2.175086364150047302e-02
-1.543121691793203354e-02
2.827104646712541580e-03
1.283998019061982632e-03
-8.396280929446220398e-03
