1.690289564430713654e-02 2.035140804946422577e-02 6.898344308137893677e-02 3.476862609386444092e-02 -1.111513525247573853e-01 5.882976576685905457e-02 -3.999265655875205994e-02 -1.481439918279647827e-01 1.778389140963554382e-02 -1.558617502450942993e-01 -5.874036625027656555e-02 -1.391856670379638672e-01 -6.115862634032964706e-04 8.040949702262878418e-02 8.499519526958465576e-02 1.308423932641744614e-03 2.032218426465988159e-01 8.159766905009746552e-03 -7.884065806865692139e-02 1.894594579935073853e-01 -6.307398527860641479e-02 -5.493267625570297241e-02 -6.336115300655364990e-02 -2.957737445831298828e-02 -6.935789436101913452e-02 -1.435040682554244995e-02 2.980615943670272827e-03 -5.020886193960905075e-03 9.832382947206497192e-02 -7.249784469604492188e-02 -3.638507425785064697e-02 -1.966375671327114105e-02 -9.250207245349884033e-02 9.621893614530563354e-02 -1.040379703044891357e-01 6.425914913415908813e-02 3.518144786357879639e-02 5.958541482686996460e-02 9.528681635856628418e-02 5.105428397655487061e-02 1.266793310642242432e-01 1.112053319811820984e-01 1.639134287834167480e-01 9.185559302568435669e-02 6.060893833637237549e-02 -2.923732437193393707e-02 7.874565571546554565e-02 2.858032286167144775e-02 -2.791972756385803223e-01 -6.993320584297180176e-02 -4.398404806852340698e-02 1.949432492256164551e-02 -6.555068492889404297e-02 1.056610867381095886e-01 -7.571630645543336868e-03 -8.792094886302947998e-02 -8.548758178949356079e-02 1.495985388755798340e-01 8.026829361915588379e-02 8.004397153854370117e-02 -8.015492931008338928e-03 4.848542064428329468e-02 -3.277572616934776306e-02 1.267941445112228394e-01 -2.127613127231597900e-02 -5.857530981302261353e-02 3.797762468457221985e-02 7.448141276836395264e-02 6.052557006478309631e-02 -1.960218325257301331e-02 -1.852231100201606750e-02 -6.559404730796813965e-02 9.641268849372863770e-02 1.463182922452688217e-02 5.871333554387092590e-02 -5.027486011385917664e-02 2.789959870278835297e-02 4.649166762828826904e-02 -1.467467844486236572e-01 1.474682986736297607e-01 2.822593413293361664e-02 -1.135159805417060852e-01 -1.490988880395889282e-01 1.005511879920959473e-01 1.950158178806304932e-02 -1.263072639703750610e-01 9.884842671453952789e-03 4.833059012889862061e-02 -1.176069602370262146e-01 7.430709898471832275e-02 -4.009360074996948242e-02 -1.330494321882724762e-02 3.950541093945503235e-02 -9.033777564764022827e-02 3.043071739375591278e-02 -6.011594086885452271e-02 -8.187083527445793152e-03 -8.782903105020523071e-02 -5.857829749584197998e-02 -2.579251676797866821e-02 1.489761658012866974e-02 7.810760289430618286e-02 -6.522634625434875488e-02 -1.428965479135513306e-01 -7.589843124151229858e-02 -8.857153356075286865e-02 -5.579134821891784668e-02 -2.576071582734584808e-02 -2.489394322037696838e-02 4.131826013326644897e-02 2.615450648590922356e-03 -3.703174293041229248e-01 -8.796952664852142334e-02 2.770650573074817657e-02 -6.610488891601562500e-02 -2.582739889621734619e-01 -2.182664349675178528e-02 -1.152094006538391113e-01 -7.543105632066726685e-02 2.194173634052276611e-01 5.150163546204566956e-02 6.174148246645927429e-02 5.055892840027809143e-02 3.388661891222000122e-02 -7.707474753260612488e-03 1.687356084585189819e-02 1.280769109725952148e-01 1.991249024868011475e-01
-5.780680477619171143e-02 -3.451259806752204895e-02 8.195915073156356812e-02 -2.688770368695259094e-02 -5.783412232995033264e-02 -4.463523998856544495e-02 -3.223590925335884094e-02 -2.346581546589732170e-03 -3.690716624259948730e-02 9.825126826763153076e-02 6.119440775364637375e-03 -3.577253222465515137e-02 -3.136498108506202698e-02 -3.346813842654228210e-02 1.361676901578903198e-01 -1.064106300473213196e-01 -1.392067372798919678e-01 1.487558241933584213e-02 -4.577181488275527954e-02 8.263618499040603638e-02 1.618205197155475616e-02 6.201183050870895386e-02 -3.011329285800457001e-02 -1.274805665016174316e-01 2.196335978806018829e-02 6.161435507237911224e-03 -1.914757490158081055e-02 -3.252757713198661804e-02 -1.433712691068649292e-01 -3.049550950527191162e-02 -6.415390223264694214e-02 6.560968607664108276e-02 4.997601732611656189e-02 1.079488173127174377e-01 7.144554704427719116e-02 1.233158633112907410e-01 -1.411223318427801132e-02 1.478928513824939728e-02 1.276965625584125519e-02 -9.611610323190689087e-02 -1.043369621038436890e-01 1.998995542526245117e-01 1.999699771404266357e-01 2.750791423022747040e-02 -1.597631424665451050e-01 8.491253852844238281e-02 8.317167311906814575e-02 7.175381481647491455e-02 -1.094141826033592224e-01 -7.734978199005126953e-02 1.467141807079315186e-01 -8.302679657936096191e-02 -5.520941689610481262e-02 3.879347816109657288e-02 3.216231614351272583e-02 4.381475225090980530e-02 -4.031748697161674500e-02 1.391548216342926025e-01 -1.619869284331798553e-02 -2.720506303012371063e-02 3.214441612362861633e-02 7.546006236225366592e-03 -3.669141232967376709e-02 1.306380033493041992e-01 1.020143777132034302e-01 -2.123613096773624420e-02 -3.098785318434238434e-02 1.110807210206985474e-01 -8.884484320878982544e-02 -6.132260337471961975e-02 1.768819242715835571e-02 1.729601807892322540e-02 -9.909203648567199707e-02 -1.034678518772125244e-02 8.686837740242481232e-03 6.997371464967727661e-02 2.366954647004604340e-02 6.282234936952590942e-02 -9.839426726102828979e-03 -1.507511362433433533e-02 3.042856790125370026e-02 -1.256798300892114639e-02 1.586930006742477417e-01 -8.464431017637252808e-02 3.296547010540962219e-02 5.318918079137802124e-02 -2.306098304688930511e-02 -1.049538627266883850e-01 1.049114242196083069e-01 -1.980918794870376587e-01 -3.667130321264266968e-02 -4.099060967564582825e-02 -1.615013740956783295e-02 1.207477971911430359e-01 8.358134329319000244e-02 7.648386061191558838e-02 1.354981400072574615e-02 -5.723701417446136475e-02 7.254762947559356689e-02 1.415315717458724976e-01 4.136448726058006287e-02 1.076886281371116638e-01 -1.256739944219589233e-01 2.225872501730918884e-02 5.234121903777122498e-02 -3.071421384811401367e-02 6.612955778837203979e-02 5.933865532279014587e-02 -1.556947454810142517e-02 1.093832403421401978e-02 -3.990044444799423218e-02 -1.829456388950347900e-01 -3.585543483495712280e-02 -1.689144782721996307e-02 2.031272053718566895e-01 -1.077578403055667877e-02 -6.349997222423553467e-02 -1.874225959181785583e-02 -2.994263917207717896e-02 1.764962971210479736e-01 3.823744133114814758e-02 2.682903967797756195e-02 -6.971223652362823486e-02 -8.853232488036155701e-03 -6.731574237346649170e-02 -6.588176637887954712e-02 -5.567526444792747498e-02 -1.406507045030593872e-01
-7.769222371280193329e-03 -1.889866441488265991e-01 -1.230261404998600483e-03 1.288601756095886230e-01 4.938907176256179810e-02 -2.586485445499420166e-02 8.759586513042449951e-02 -1.044663563370704651e-01 3.364066407084465027e-02 -7.204304635524749756e-02 4.854492843151092529e-02 3.151843324303627014e-02 -4.160251840949058533e-02 7.145036756992340088e-02 1.306367665529251099e-02 -6.467320770025253296e-02 -3.440839052200317383e-02 2.455404028296470642e-03 -1.940892077982425690e-02 -2.280964143574237823e-02 1.478711143136024475e-03 -3.508666157722473145e-02 -1.289683729410171509e-01 -7.497847825288772583e-02 -4.644652456045150757e-02 -7.288282737135887146e-03 1.308397483080625534e-02 -6.548688746988773346e-03 5.076805874705314636e-02 2.407286874949932098e-02 -1.124224290251731873e-01 2.099967375397682190e-02 -2.700003329664468765e-03 8.534254133701324463e-02 1.670829951763153076e-03 1.308941692113876343e-01 -5.405237898230552673e-02 -4.762062337249517441e-03 -1.292796060442924500e-02 -6.579372566193342209e-03 -5.395681783556938171e-02 3.016251623630523682e-01 -2.130527049303054810e-01 -2.415190823376178741e-02 9.716282784938812256e-02 4.953349009156227112e-02 -1.290189847350120544e-02 -3.552613407373428345e-02 -1.393169313669204712e-01 4.845150932669639587e-02 -4.456905648112297058e-02 7.499755918979644775e-02 1.425434555858373642e-02 8.308082818984985352e-02 -1.397325005382299423e-02 2.949408441781997681e-02 -4.719735123217105865e-03 -1.855869777500629425e-02 2.013502083718776703e-02 6.158448383212089539e-02 2.828845940530300140e-02 9.570121765136718750e-04 5.172759667038917542e-02 6.282923370599746704e-02 -2.491393871605396271e-02 -1.470350623130798340e-01 -1.321768667548894882e-02 8.357097208499908447e-02 -7.194973528385162354e-02 -9.812985360622406006e-02 1.365575045347213745e-01 1.547372806817293167e-02 -5.429978668689727783e-02 6.549629569053649902e-02 1.529185473918914795e-02 9.036339819431304932e-02 -7.343991845846176147e-02 5.797637626528739929e-02 -3.822692111134529114e-02 2.362532354891300201e-02 -6.884150207042694092e-03 9.647195041179656982e-02 6.379699707031250000e-02 1.583810523152351379e-02 2.218876965343952179e-02 -1.250309050083160400e-01 6.608612835407257080e-02 1.358811557292938232e-01 1.884693950414657593e-01 -3.720765933394432068e-03 -2.713558264076709747e-02 -3.804329037666320801e-02 1.014518886804580688e-01 1.060318201780319214e-01 -1.026263386011123657e-01 -1.025629714131355286e-01 -1.474947631359100342e-01 -8.678319863975048065e-03 -3.786993771791458130e-02 -2.004243060946464539e-02 -3.581295721232891083e-03 9.110268205404281616e-02 5.444637313485145569e-02 7.144275307655334473e-02 -4.571833088994026184e-02 -2.007636241614818573e-02 -6.837909668684005737e-02 -3.824462369084358215e-02 2.986075282096862793e-01 -5.200455710291862488e-02 6.154794245958328247e-02 -4.657205343246459961e-01 -6.350278854370117188e-02 -4.715553298592567444e-02 7.801943272352218628e-02 -8.524616807699203491e-02 1.261352654546499252e-02 5.294060334563255310e-02 -7.685241103172302246e-02 5.613726004958152771e-02 6.612513959407806396e-02 -9.660729020833969116e-02 8.726752549409866333e-02 -1.563487946987152100e-01 4.409703612327575684e-02 1.828254386782646179e-02 2.064240165054798126e-02 8.435438573360443115e-02
-4.154575616121292114e-02 -5.620551109313964844e-02 4.530984535813331604e-02 -2.552982978522777557e-02 -5.615082755684852600e-02 4.239470139145851135e-02 1.754548996686935425e-01 -2.701747976243495941e-02 8.400595188140869141e-02 2.604935467243194580e-01 2.633839100599288940e-02 -2.114786654710769653e-01 -5.773037672042846680e-02 -2.540937438607215881e-02 -2.557542733848094940e-02 -1.215066909790039062e-01 -1.342869270592927933e-02 4.102513939142227173e-02 -1.081124972552061081e-02 1.508325040340423584e-01 1.289907991886138916e-01 -9.410687536001205444e-02 -1.853461861610412598e-01 1.119025051593780518e-02 3.135014325380325317e-02 6.457693129777908325e-02 3.376499190926551819e-02 3.382429480552673340e-02 -2.926141023635864258e-02 -9.301675111055374146e-02 -1.669843941926956177e-01 -6.932463496923446655e-02 -6.700621545314788818e-02 -1.580772101879119873e-01 1.220650821924209595e-01 1.647125929594039917e-01 9.222691506147384644e-02 -1.528390944004058838e-01 -5.052768066525459290e-02 -7.653627544641494751e-02 4.681568592786788940e-02 -1.424144506454467773e-01 -6.571768969297409058e-02 1.890358142554759979e-02 -1.417878419160842896e-01 -3.617680817842483521e-02 -1.309577748179435730e-02 -2.506059594452381134e-02 1.643057316541671753e-01 -7.967001199722290039e-02 5.084287747740745544e-02 -7.449103146791458130e-02 7.966073602437973022e-02 -2.121133059263229370e-01 1.968332566320896149e-02 5.502243712544441223e-02 2.886513620615005493e-02 -2.997210621833801270e-02 9.734395891427993774e-02 -2.229219116270542145e-02 -3.162790462374687195e-02 -5.742165446281433105e-02 1.135835144668817520e-02 -5.209803208708763123e-02 3.172465041279792786e-02 1.025655120611190796e-02 5.620571225881576538e-02 -4.625052679330110550e-04 8.888815343379974365e-02 1.031841263175010681e-01 3.973200544714927673e-02 -3.127035126090049744e-02 -5.790082737803459167e-02 -6.472496781498193741e-03 -5.636004731059074402e-02 9.587453305721282959e-02 1.716999523341655731e-02 2.042892202734947205e-02 2.995261363685131073e-02 1.525998711585998535e-01 -6.713327765464782715e-02 -7.922045886516571045e-02 -1.080747321248054504e-01 1.458511222153902054e-02 3.750097006559371948e-02 -6.282040476799011230e-02 -9.968166053295135498e-02 -1.025986000895500183e-01 -5.021601915359497070e-03 1.342023611068725586e-01 -3.142642229795455933e-02 -2.583676576614379883e-02 4.918390512466430664e-02 5.857320874929428101e-02 5.130247026681900024e-02 -1.827887818217277527e-02 2.851418592035770416e-02 -2.438728138804435730e-02 1.137783080339431763e-01 -1.299997884780168533e-02 -2.032862417399883270e-02 1.781210452318191528e-01 9.153187274932861328e-02 5.126367136836051941e-02 1.583809852600097656e-01 -9.527176618576049805e-02 9.258026629686355591e-02 5.634573101997375488e-02 -1.668772101402282715e-01 -8.663681149482727051e-02 2.729124389588832855e-02 9.894477576017379761e-02 -7.484405487775802612e-02 -3.025611490011215210e-02 -2.381497994065284729e-02 7.259605452418327332e-03 8.024095743894577026e-02 -2.284912392497062683e-02 -4.417262598872184753e-02 -3.513035550713539124e-02 9.056925773620605469e-02 8.767188340425491333e-02 1.292950510978698730e-01 2.262500077486038208e-01 -1.732990890741348267e-02 1.076447498053312302e-02 -2.274666130542755127e-01 2.983495406806468964e-02
-2.620074748992919922e-01 -4.601718485355377197e-02 -2.831499651074409485e-02 -1.060625445097684860e-02 -5.377606954425573349e-03 2.421887964010238647e-02 3.452315554022789001e-02 9.400915354490280151e-03 -6.632263213396072388e-02 2.057167701423168182e-02 5.838661640882492065e-02 -4.677297919988632202e-02 -5.960513651371002197e-02 1.003670096397399902e-01 -3.832206875085830688e-02 -1.770106852054595947e-01 1.647176593542098999e-02 -2.194119244813919067e-02 8.598243445158004761e-02 -2.469925582408905029e-01 -1.348948329687118530e-01 -1.323815435171127319e-03 5.075698345899581909e-02 -6.270334124565124512e-02 -1.072774268686771393e-02 3.672476857900619507e-02 -7.992260903120040894e-02 3.749159723520278931e-02 1.422563493251800537e-01 3.175251930952072144e-02 7.881218940019607544e-02 -1.194209009408950806e-01 -8.220941573381423950e-02 -5.413153395056724548e-02 8.359943330287933350e-02 -7.520097307860851288e-03 5.636136233806610107e-02 8.218552172183990479e-02 -5.283334851264953613e-02 -4.361125081777572632e-02 -2.143206633627414703e-02 -1.272645890712738037e-01 -9.816002845764160156e-02 3.975179418921470642e-02 1.199093014001846313e-01 -3.678447380661964417e-02 -1.068734005093574524e-01 -1.128327380865812302e-02 -2.372869290411472321e-02 -1.034678984433412552e-02 7.169123739004135132e-02 9.721387177705764771e-02 -1.121748462319374084e-01 -9.062800556421279907e-02 3.447942808270454407e-02 6.322308629751205444e-02 -1.670746877789497375e-02 -3.078814363107085228e-03 3.768046200275421143e-02 3.941923752427101135e-02 4.428113251924514771e-02 1.115205138921737671e-01 -4.035973176360130310e-02 2.399120107293128967e-02 -1.272490918636322021e-01 -6.964861601591110229e-02 1.397643685340881348e-01 4.979689419269561768e-02 -1.074131298810243607e-02 2.827058173716068268e-02 1.869982481002807617e-02 1.322711445391178131e-02 7.904112339019775391e-03 -7.518137246370315552e-02 4.020111262798309326e-02 -1.476119272410869598e-02 3.240420669317245483e-02 3.409339115023612976e-02 -1.315687000751495361e-01 -1.935537904500961304e-02 -8.769943565130233765e-02 -4.332194570451974869e-03 1.111927404999732971e-01 3.700798004865646362e-02 -8.503939211368560791e-02 1.017980650067329407e-02 -2.129107946529984474e-03 -2.260818332433700562e-02 -1.112814694643020630e-01 8.436386287212371826e-02 -1.124070361256599426e-01 -3.920404240489006042e-02 2.098982455208897591e-03 -2.776453457772731781e-02 -5.914396047592163086e-02 -9.465993382036685944e-03 1.494373530149459839e-01 4.796559363603591919e-02 3.028016909956932068e-02 2.112546116113662720e-01 -7.636409252882003784e-02 -1.176002202555537224e-03 7.605358213186264038e-02 -1.647954806685447693e-02 -2.565276809036731720e-02 5.684643983840942383e-02 6.274028122425079346e-02 -3.249093517661094666e-02 -6.728772819042205811e-02 4.979448020458221436e-02 2.273056283593177795e-02 5.677330493927001953e-01 -3.735105320811271667e-02 -5.566176772117614746e-02 -2.782828919589519501e-02 4.643731936812400818e-02 8.371686935424804688e-02 1.251055896282196045e-01 1.567753218114376068e-02 -4.740651324391365051e-02 -1.466227769851684570e-01 3.263301774859428406e-02 6.387593597173690796e-02 -7.725507020950317383e-02 -6.178033724427223206e-02 1.540648788213729858e-01 -6.181200966238975525e-03 4.517699778079986572e-02
-6.244514510035514832e-02 6.127934530377388000e-02 -3.893467783927917480e-02 1.551969349384307861e-01 -2.497751079499721527e-02 -2.666270360350608826e-02 5.518120713531970978e-03 -1.306356042623519897e-01 -2.305877767503261566e-02 1.293742209672927856e-01 1.066817939281463623e-01 1.134047210216522217e-01 4.225550591945648193e-02 2.361499331891536713e-02 1.128441691398620605e-01 4.669091850519180298e-02 -3.996012732386589050e-02 1.305990219116210938e-01 -2.035666704177856445e-01 1.554816663265228271e-01 -2.736968547105789185e-02 1.397957652807235718e-01 -9.516376256942749023e-02 -1.273791193962097168e-01 1.489567309617996216e-01 4.943293333053588867e-02 1.429732888936996460e-01 -3.646107763051986694e-02 -9.451226890087127686e-02 -2.588824182748794556e-02 3.724419698119163513e-02 -6.655346602201461792e-02 -7.369162142276763916e-02 -9.943053871393203735e-02 -3.721266239881515503e-02 -7.454928755760192871e-02 -3.675506263971328735e-02 1.057929992675781250e-01 1.652065664529800415e-01 3.943893313407897949e-02 -1.019201204180717468e-01 -3.595333918929100037e-02 4.327101632952690125e-02 1.988361589610576630e-02 6.834196299314498901e-02 -1.628395617008209229e-01 -9.282389283180236816e-02 -1.423769146203994751e-01 -4.617856070399284363e-02 -4.978448525071144104e-02 9.377936273813247681e-02 6.111473217606544495e-02 1.247091963887214661e-02 -1.189200207591056824e-01 -4.528004303574562073e-02 -9.544839151203632355e-03 6.091394275426864624e-02 -3.598853200674057007e-02 5.944393202662467957e-02 8.054424822330474854e-02 4.029636830091476440e-02 6.320511549711227417e-02 7.664094865322113037e-02 -8.065390586853027344e-02 -9.510893374681472778e-02 3.345634415745735168e-02 -3.424577787518501282e-02 -8.989394456148147583e-02 -2.147678844630718231e-02 2.934844605624675751e-02 -3.749198280274868011e-03 4.939654842019081116e-02 2.983658388257026672e-02 6.242061778903007507e-02 -1.309062540531158447e-01 -7.154977321624755859e-02 -1.575057059526443481e-01 -8.574266918003559113e-03 2.026093564927577972e-02 -5.440490692853927612e-02 4.238493420416489244e-05 -3.253625705838203430e-02 -6.978612393140792847e-02 -1.203437522053718567e-01 1.107274671085178852e-03 5.026684701442718506e-02 1.029664427042007446e-01 -1.824323982000350952e-01 5.671524628996849060e-02 4.393810033798217773e-02 -1.100792661309242249e-01 -1.515108346939086914e-01 1.082870438694953918e-01 -6.620216369628906250e-02 -9.389459155499935150e-03 1.016043871641159058e-01 3.383053466677665710e-02 -8.754184097051620483e-02 8.765124529600143433e-02 -1.252016872167587280e-01 2.248908951878547668e-02 1.421444416046142578e-01 4.779258742928504944e-02 -1.595654636621475220e-01 8.062986284494400024e-02 -1.109038852155208588e-02 1.312012504786252975e-02 3.956941142678260803e-02 1.177080124616622925e-01 4.232420399785041809e-02 -1.484091579914093018e-02 1.264996975660324097e-01 -1.416831314563751221e-01 4.551568627357482910e-02 -1.781148612499237061e-01 -8.371804654598236084e-02 1.753250882029533386e-02 7.119176909327507019e-03 -4.567377269268035889e-02 -3.845533356070518494e-02 7.009056210517883301e-02 3.204323351383209229e-02 -2.016730159521102905e-01 3.832971304655075073e-02 -8.894659578800201416e-02 -4.656082764267921448e-02 -2.666146866977214813e-02 -9.493475407361984253e-02
-1.955332793295383453e-02 1.895997822284698486e-01 4.672057554125785828e-02 2.104904130101203918e-02 1.004307940602302551e-01 1.571322083473205566e-01 4.049726761877536774e-03 -1.636178046464920044e-02 -9.014217182993888855e-03 5.694707855582237244e-02 -2.740512602031230927e-02 1.281238645315170288e-01 1.541025470942258835e-02 8.699791878461837769e-02 1.411735117435455322e-01 -4.827076569199562073e-02 5.372184887528419495e-02 4.855288937687873840e-02 2.523380704224109650e-02 3.169943019747734070e-02 -9.982266277074813843e-02 -6.283289194107055664e-02 2.307218872010707855e-02 -8.390577882528305054e-02 -2.744001708924770355e-02 4.653523862361907959e-02 7.657258212566375732e-02 1.410333216190338135e-01 5.912595614790916443e-02 5.705576390027999878e-02 3.241344355046749115e-03 -3.115301765501499176e-02 2.564905583858489990e-02 1.055105775594711304e-02 -8.390151895582675934e-03 -1.351269986480474472e-02 -2.473383396863937378e-02 -5.864887684583663940e-02 -7.662855833768844604e-02 -1.714173406362533569e-01 9.933707118034362793e-02 2.330237440764904022e-02 -1.257346272468566895e-01 6.156005430966615677e-03 -2.260969020426273346e-02 3.572461754083633423e-02 6.160519272089004517e-02 -4.868905246257781982e-02 -1.013173237442970276e-01 1.720972708426415920e-03 4.043815284967422485e-02 -1.889210753142833710e-02 3.191510960459709167e-02 -3.150983527302742004e-02 1.330002695322036743e-01 -1.235566288232803345e-02 -7.510775327682495117e-02 -1.238186508417129517e-01 -6.744667142629623413e-02 9.879611432552337646e-02 -4.119826108217239380e-02 1.607835590839385986e-01 -1.674623042345046997e-02 1.084459051489830017e-01 -7.774503529071807861e-02 -1.165986508131027222e-01 2.111213281750679016e-02 -4.609406366944313049e-02 -8.948604017496109009e-02 1.614219844341278076e-01 2.279446274042129517e-02 -1.226960495114326477e-01 5.003194138407707214e-02 -5.475198477506637573e-02 1.340714693069458008e-01 -4.745553061366081238e-02 -1.268727928400039673e-01 1.586336642503738403e-01 -3.191281110048294067e-02 4.875953122973442078e-02 -9.283810108900070190e-02 -9.269746392965316772e-02 5.468810349702835083e-02 -7.537478581070899963e-03 -9.462058660574257374e-04 -2.993192523717880249e-02 -5.079380795359611511e-02 -2.655186131596565247e-02 1.670995354652404785e-02 -1.143905371427536011e-01 1.483171135187149048e-01 6.863523274660110474e-02 3.224654495716094971e-02 -2.214712947607040405e-01 4.779929295182228088e-02 1.161869987845420837e-01 2.199468761682510376e-02 2.912047493737190962e-04 -1.345573216676712036e-01 2.452381188049912453e-03 -5.841942504048347473e-02 -7.546385377645492554e-02 -8.896832168102264404e-02 1.030868962407112122e-01 7.509341090917587280e-02 -5.193322151899337769e-02 1.104344725608825684e-01 -1.830274313688278198e-01 -1.265055686235427856e-02 -3.693266585469245911e-02 -2.853474207222461700e-02 -6.764960289001464844e-01 8.215270936489105225e-02 1.363431513309478760e-01 -4.058244079351425171e-02 4.517362453043460846e-03 -5.584663897752761841e-02 6.917893141508102417e-02 5.162191390991210938e-02 1.312511786818504333e-02 1.599091589450836182e-01 -1.952498964965343475e-02 9.359283745288848877e-02 8.331757783889770508e-02 -1.708048209547996521e-02 -1.493502035737037659e-02 -1.837824732065200806e-01 -9.055569767951965332e-02
-4.869839549064636230e-02 1.644614711403846741e-02 -3.114865161478519440e-02 4.241007193922996521e-02 6.621452979743480682e-03 -7.031436264514923096e-02 -1.635940074920654297e-01 -5.538304802030324936e-03 3.106281510554254055e-04 -8.315259963274002075e-02 5.814718455076217651e-02 5.957828089594841003e-02 5.290893837809562683e-02 -3.303349018096923828e-02 -3.210432082414627075e-02 -4.756769165396690369e-03 -2.736306190490722656e-02 -4.550700634717941284e-02 8.226466923952102661e-02 -7.157593220472335815e-02 -7.707682903856039047e-03 -7.560858968645334244e-03 1.141675654798746109e-02 8.061665296554565430e-02 -3.789297537878155708e-03 5.441799759864807129e-03 -2.587452903389930725e-02 -3.869641199707984924e-02 9.589496999979019165e-02 -1.755336858332157135e-02 -2.173972576856613159e-01 -6.809572875499725342e-02 -4.661951214075088501e-02 8.773989044129848480e-03 5.348622053861618042e-02 7.124779373407363892e-02 -1.081474404782056808e-02 -7.548283785581588745e-02 -9.389344486407935619e-04 8.221022784709930420e-02 1.141716074198484421e-02 -1.620398461818695068e-01 -1.009704843163490295e-01 1.539659127593040466e-02 1.794452965259552002e-02 1.232567876577377319e-01 -8.560217171907424927e-02 -2.970556542277336121e-02 7.386699784547090530e-03 1.159373894333839417e-01 -1.503449678421020508e-01 6.135968118906021118e-02 1.382824731990695000e-03 -5.854941159486770630e-02 9.731465950608253479e-03 -3.308756276965141296e-02 3.733002021908760071e-02 -1.599271781742572784e-02 3.489861264824867249e-03 2.218440733850002289e-02 3.222435340285301208e-02 1.994224451482295990e-02 -1.610918343067169189e-02 4.686141386628150940e-03 -4.346062988042831421e-02 -4.928896203637123108e-02 -1.720116101205348969e-02 -1.002337187528610229e-01 4.696233198046684265e-02 6.316514313220977783e-02 6.429966539144515991e-02 9.813860803842544556e-02 5.019678547978401184e-02 -9.072995930910110474e-02 5.809193104505538940e-02 5.690501630306243896e-02 -9.901875257492065430e-02 -4.809822887182235718e-02 -3.206056356430053711e-02 -1.276177018880844116e-01 4.277985543012619019e-02 3.750079870223999023e-02 -2.633539587259292603e-02 1.712795533239841461e-02 -4.152674973011016846e-02 6.932736933231353760e-02 -9.352348744869232178e-03 2.164177596569061279e-02 -8.525703102350234985e-02 4.080662131309509277e-02 8.543605916202068329e-03 -2.667025662958621979e-02 1.355311647057533264e-02 4.332690034061670303e-03 5.545505508780479431e-02 1.774941682815551758e-01 8.464916050434112549e-02 3.548622876405715942e-02 -8.419275283813476562e-03 5.970369279384613037e-02 -7.579495757818222046e-02 -6.223065778613090515e-02 6.132337078452110291e-02 3.601757064461708069e-02 -4.922976344823837280e-02 8.336854726076126099e-02 -7.509938441216945648e-03 7.296842336654663086e-02 8.736141771078109741e-02 -9.479447454214096069e-02 1.086779590696096420e-02 3.892982304096221924e-01 4.442491009831428528e-02 1.301465835422277451e-02 1.488592475652694702e-01 -3.682572394609451294e-02 -7.220843434333801270e-02 -2.368741901591420174e-03 1.202461794018745422e-01 -7.583210617303848267e-02 -9.279964864253997803e-02 1.940604671835899353e-02 -1.119395792484283447e-01 -2.947256341576576233e-02 -6.212552636861801147e-02 -4.043600708246231079e-02 -8.167487382888793945e-02 -1.028244271874427795e-01
-3.760574385523796082e-02 3.756976872682571411e-02 -1.007319893687963486e-03 6.866736803203821182e-03 -1.026861090213060379e-02 5.000705644488334656e-02 -1.105829179286956787e-01 -1.112054660916328430e-01 7.563612889498472214e-03 -9.485562145709991455e-02 5.781545490026473999e-02 4.461416043341159821e-03 -4.292435199022293091e-02 -1.300966143608093262e-01 -1.320453882217407227e-01 -7.161927968263626099e-02 -1.571939885616302490e-02 7.911976426839828491e-02 -7.252491079270839691e-03 -1.218015328049659729e-01 4.106488823890686035e-02 5.454966798424720764e-02 -1.029932275414466858e-01 1.389224897138774395e-03 4.077056050300598145e-02 6.358688324689865112e-02 -4.430255666375160217e-02 9.141758829355239868e-02 -1.605693064630031586e-02 -2.326547726988792419e-02 -1.376301497220993042e-01 6.473495066165924072e-02 6.092159822583198547e-02 -4.881221801042556763e-02 -6.903147697448730469e-02 7.599339634180068970e-02 -2.491369843482971191e-02 5.129082500934600830e-02 -8.914775401353836060e-02 -6.620504427701234818e-03 -9.232958778738975525e-03 -1.086053997278213501e-02 5.493091419339179993e-02 5.069943517446517944e-02 7.947346568107604980e-02 4.117321595549583435e-02 -3.458315506577491760e-02 4.421285912394523621e-02 -5.845542997121810913e-02 1.663748770952224731e-01 -9.180228412151336670e-02 -6.710580736398696899e-02 2.509921416640281677e-02 -1.570730656385421753e-02 7.455554604530334473e-02 7.246557623147964478e-02 6.574981659650802612e-02 -2.737630531191825867e-02 -1.297694817185401917e-02 -1.130790561437606812e-01 -2.129102870821952820e-02 7.903990626800805330e-05 -2.905066683888435364e-02 -9.697982668876647949e-02 3.057012893259525299e-02 2.419668622314929962e-02 -8.919811993837356567e-02 -8.922618627548217773e-02 -5.242409184575080872e-02 3.971048444509506226e-02 1.084083574824035168e-03 1.127352472394704819e-03 8.399652689695358276e-02 5.645594373345375061e-02 -1.330598723143339157e-02 -1.086958274245262146e-01 6.696552783250808716e-02 3.425127360969781876e-03 7.457974553108215332e-02 -2.962152659893035889e-02 1.138288900256156921e-02 2.041330747306346893e-02 2.055851370096206665e-01 -2.464189380407333374e-02 -1.025683283805847168e-01 4.447173699736595154e-02 -1.308535188436508179e-01 1.537819206714630127e-01 -1.756940931081771851e-01 2.121444232761859894e-02 -2.972975000739097595e-02 -8.371667563915252686e-02 -5.544787272810935974e-02 7.207744568586349487e-02 -1.482215803116559982e-02 -1.122468058019876480e-02 3.466360270977020264e-02 -2.932145260274410248e-02 5.532502382993698120e-02 3.127485513687133789e-02 7.179691642522811890e-02 5.236576125025749207e-02 9.116313420236110687e-03 -9.435424953699111938e-02 -1.582698971033096313e-01 -1.307851672172546387e-01 3.445933759212493896e-02 1.653350442647933960e-01 -2.412980189546942711e-03 2.495349384844303131e-02 5.034666508436203003e-02 4.301763176918029785e-01 6.118156388401985168e-02 2.200872078537940979e-02 -7.300978153944015503e-02 -9.543355554342269897e-02 5.779032781720161438e-02 5.552650988101959229e-02 1.396909654140472412e-01 -1.003423798829317093e-02 -3.666407242417335510e-02 -4.651862382888793945e-02 -1.068178340792655945e-01 -1.134629324078559875e-01 4.396721720695495605e-02 1.471182107925415039e-01 -4.498598352074623108e-02 -1.531405448913574219e-01
-7.189973443746566772e-02 6.183155998587608337e-02 -5.006192997097969055e-02 -3.236817941069602966e-02 6.489700078964233398e-02 7.861378788948059082e-02 6.546501815319061279e-02 -8.174505084753036499e-02 -2.080724947154521942e-02 1.737650632858276367e-01 -1.815109886229038239e-02 2.187952212989330292e-02 6.886275112628936768e-02 -1.712821125984191895e-01 6.377229839563369751e-02 -4.798773676156997681e-02 -6.813203543424606323e-02 -1.740349829196929932e-02 -6.027812138199806213e-02 6.917992979288101196e-02 -4.272259771823883057e-02 8.011339232325553894e-03 -5.895080976188182831e-03 -2.383038960397243500e-02 -2.807581238448619843e-02 -1.193236000835895538e-02 7.615733146667480469e-02 -1.480042189359664917e-02 -1.175259277224540710e-01 -8.103490620851516724e-02 -2.255664439871907234e-03 5.710200592875480652e-02 5.667047575116157532e-02 -2.379826642572879791e-02 7.565299980342388153e-03 3.866925835609436035e-02 -7.628754526376724243e-02 3.768916055560112000e-02 -6.553895026445388794e-02 -1.401763409376144409e-02 -3.821351751685142517e-02 2.311954498291015625e-01 1.670565083622932434e-02 -2.069811895489692688e-02 6.433263421058654785e-02 -8.516829460859298706e-02 3.863095492124557495e-02 -3.351961821317672729e-02 -1.118699237704277039e-01 1.098015159368515015e-02 6.389292329549789429e-02 -1.562255527824163437e-02 -7.564526796340942383e-02 9.435322880744934082e-02 -2.536474354565143585e-02 8.959482610225677490e-02 9.835366904735565186e-02 7.976711541414260864e-02 -1.236290484666824341e-02 -3.884326294064521790e-02 -9.747158735990524292e-02 1.857921667397022247e-02 -2.130590938031673431e-02 2.769233100116252899e-02 -8.648042380809783936e-02 4.893185198307037354e-02 1.150493845343589783e-01 8.060717582702636719e-02 7.627248764038085938e-02 -2.188873291015625000e-01 6.286534667015075684e-02 1.141630709171295166e-01 -5.939237028360366821e-02 6.087919697165489197e-02 7.068290840834379196e-03 -3.034546226263046265e-02 -4.782508686184883118e-02 -1.271578073501586914e-01 1.197966858744621277e-01 2.274370379745960236e-02 -7.367368042469024658e-02 5.228265374898910522e-02 -4.347417131066322327e-02 -6.043956428766250610e-02 9.834617376327514648e-03 -1.119643375277519226e-01 -1.415825039148330688e-01 7.456212490797042847e-02 1.083724200725555420e-01 -6.643508374691009521e-02 -4.702483117580413818e-02 -1.689422577619552612e-01 9.271687269210815430e-02 -7.342994958162307739e-02 7.977120578289031982e-02 -1.037825830280780792e-03 -1.604264974594116211e-02 -1.653212308883666992e-02 -6.327681243419647217e-02 4.008607193827629089e-02 2.714746072888374329e-02 1.078540682792663574e-01 4.466971755027770996e-02 6.107698380947113037e-02 9.312739968299865723e-02 -4.693764820694923401e-02 -3.539616242051124573e-02 -6.500133872032165527e-02 1.319141387939453125e-01 4.210157319903373718e-02 6.909829098731279373e-03 -5.020335316658020020e-01 8.834434300661087036e-02 -7.315247505903244019e-02 -4.546323791146278381e-02 -7.414994761347770691e-03 -3.633239865303039551e-02 1.114922910928726196e-01 2.634110115468502045e-02 -6.388620287179946899e-02 7.068441808223724365e-02 -5.019038449972867966e-03 4.888281226158142090e-02 -1.226563286036252975e-02 2.110347524285316467e-02 -2.142801880836486816e-02 5.679344013333320618e-02 5.505808070302009583e-02
-1.904016546905040741e-02 3.345110639929771423e-02 -3.498004004359245300e-02 -7.899829745292663574e-02 2.419315725564956665e-01 -1.432099938392639160e-01 1.627086475491523743e-02 -1.189496740698814392e-01 -4.464226216077804565e-02 9.415288269519805908e-02 9.272520989179611206e-02 -3.745907545089721680e-02 -8.332942612469196320e-03 1.422627568244934082e-01 4.129061847925186157e-02 -1.385255604982376099e-01 -1.415644735097885132e-01 -8.247316628694534302e-02 -6.041487678885459900e-02 -4.923335462808609009e-02 -8.279299363493919373e-03 2.251414395868778229e-02 5.188070237636566162e-02 -1.282629668712615967e-01 -1.217560470104217529e-02 -1.839412003755569458e-02 -4.991213977336883545e-02 -2.390505559742450714e-02 -1.958949267864227295e-01 -6.379124522209167480e-02 4.133526817895472050e-04 7.810932397842407227e-02 1.539945304393768311e-01 8.463292382657527924e-03 -5.827020853757858276e-02 1.113946512341499329e-01 -1.216249465942382812e-01 4.552144557237625122e-02 -1.274367049336433411e-02 -8.458187431097030640e-02 1.538926810026168823e-01 -9.501942992210388184e-02 1.397729814052581787e-01 -1.692334935069084167e-02 -3.028698265552520752e-03 -1.274767667055130005e-01 2.279192395508289337e-02 5.687581747770309448e-02 1.445567309856414795e-01 1.431452631950378418e-01 -1.327586080878973007e-02 -5.932157859206199646e-02 2.859995141625404358e-02 -9.270886331796646118e-02 -1.108652502298355103e-01 -2.079328894615173340e-01 5.549316108226776123e-02 -5.179087817668914795e-02 9.012642502784729004e-02 7.926069945096969604e-02 9.452025592327117920e-02 7.973238825798034668e-02 2.780199237167835236e-02 -4.408232867717742920e-02 1.043734606355428696e-02 7.693529874086380005e-02 -1.474420726299285889e-02 9.180948138236999512e-02 -1.261077850358560681e-04 -2.306835725903511047e-02 -6.976914405822753906e-02 -3.223925456404685974e-02 -3.769807890057563782e-02 -7.698481529951095581e-02 2.260774560272693634e-02 1.083381753414869308e-02 7.332535088062286377e-02 1.187750883400440216e-02 2.904241532087326050e-02 7.483654469251632690e-02 9.117179363965988159e-02 -8.907399326562881470e-02 -4.275858774781227112e-02 -4.940100386738777161e-02 -1.455866694450378418e-01 1.002140343189239502e-01 9.624163806438446045e-02 5.823120474815368652e-02 -1.197194159030914307e-01 2.012846469879150391e-01 -1.966527290642261505e-02 -9.059407562017440796e-02 -6.121926754713058472e-02 -5.752985179424285889e-02 -2.226153574883937836e-02 -2.598569495603442192e-03 3.979728743433952332e-02 4.043954610824584961e-02 -9.553269296884536743e-02 -7.684564590454101562e-02 -2.035501599311828613e-02 -6.966154091060161591e-03 -9.686105698347091675e-02 -5.743246525526046753e-02 -8.015490323305130005e-02 -5.308958515524864197e-02 -6.153178215026855469e-02 6.407815217971801758e-02 1.458263844251632690e-01 -1.833366751670837402e-01 2.434715628623962402e-02 6.541410684585571289e-01 1.607521474361419678e-01 7.409936189651489258e-02 -1.133218035101890564e-01 9.426937252283096313e-02 -1.041726395487785339e-01 1.082686260342597961e-01 -9.945323318243026733e-02 7.547596096992492676e-02 -1.170859411358833313e-01 -1.909751631319522858e-02 9.674193337559700012e-03 -9.805087931454181671e-03 -9.889144450426101685e-02 3.108301386237144470e-02 9.946895390748977661e-02 -1.763325482606887817e-01
8.663441985845565796e-02 2.130945585668087006e-02 5.591394007205963135e-02 -1.372472941875457764e-01 5.906747654080390930e-02 8.435582369565963745e-02 -2.907084114849567413e-02 -6.030872091650962830e-02 6.251353770494461060e-02 -9.739333391189575195e-02 -6.433153897523880005e-02 4.947610944509506226e-02 -4.005828872323036194e-02 2.697178861126303673e-03 7.279894780367612839e-04 8.272404223680496216e-02 2.315040491521358490e-02 -4.269784316420555115e-02 -8.455731905996799469e-03 -2.109149470925331116e-02 4.260861501097679138e-02 6.876093894243240356e-02 -2.469094097614288330e-02 -7.199472188949584961e-02 -6.921388953924179077e-02 -9.815290570259094238e-03 1.047628372907638550e-02 -5.979471281170845032e-02 1.481500416994094849e-01 -1.312509626150131226e-01 -1.907994784414768219e-02 1.236589904874563217e-02 1.975976116955280304e-02 -3.769122436642646790e-02 -1.154684871435165405e-01 -3.130451962351799011e-02 -1.663370057940483093e-02 7.937026768922805786e-02 1.985762268304824829e-02 7.794838398694992065e-02 3.414528071880340576e-02 2.299458533525466919e-01 3.489140048623085022e-02 -8.614824153482913971e-03 -7.534691691398620605e-02 3.494322672486305237e-02 -6.589648779481649399e-03 8.774411678314208984e-02 1.420048344880342484e-02 -7.340475916862487793e-02 4.633734002709388733e-02 -4.967610817402601242e-03 3.622882068157196045e-02 -2.232385873794555664e-01 -4.549267143011093140e-02 1.071788836270570755e-02 8.912890218198299408e-03 4.726064205169677734e-02 8.014925569295883179e-02 -3.506638109683990479e-02 -1.394221093505620956e-02 1.176296845078468323e-01 -2.787655964493751526e-02 -5.401184782385826111e-02 -4.847143962979316711e-02 -1.026903558522462845e-02 3.994495049118995667e-02 2.323733456432819366e-02 -4.195394366979598999e-02 -1.350629776716232300e-01 7.046528905630111694e-02 1.212863717228174210e-02 3.647444769740104675e-02 1.740936073474586010e-03 7.329857349395751953e-02 6.271274387836456299e-02 -2.055459655821323395e-02 1.430466771125793457e-02 7.273264229297637939e-02 1.293881386518478394e-01 -1.585625670850276947e-02 -4.711840674281120300e-02 -1.110123377293348312e-02 4.345795512199401855e-02 1.166246086359024048e-01 6.255868077278137207e-02 -1.682744473218917847e-01 -2.239197026938199997e-03 6.513398140668869019e-02 -5.246166884899139404e-02 -6.292182207107543945e-02 3.664758801460266113e-02 5.623024702072143555e-02 9.730213787406682968e-04 -1.223172154277563095e-02 6.286791712045669556e-02 3.756507067009806633e-03 -1.341625675559043884e-02 -1.533162873238325119e-02 -1.842328310012817383e-01 -3.486102819442749023e-02 3.161184862256050110e-02 2.786392718553543091e-02 2.373296022415161133e-02 -3.644885122776031494e-02 8.786804229021072388e-02 4.380248859524726868e-02 -1.673540472984313965e-02 -1.223552525043487549e-01 6.928377598524093628e-02 -2.398956380784511566e-02 -7.490028142929077148e-01 -5.439595505595207214e-02 2.513599768280982971e-02 4.517001286149024963e-02 -4.158216062933206558e-03 -5.774840712547302246e-02 -1.487178821116685867e-02 4.600811284035444260e-03 -1.127282530069351196e-01 1.883878856897354126e-01 1.430476550012826920e-02 -3.761729225516319275e-02 -2.913313917815685272e-02 6.621512770652770996e-02 5.033424124121665955e-02 8.135968819260597229e-03 5.559059605002403259e-02
-2.696337644010782242e-03 -2.921151928603649139e-03 4.350341483950614929e-02 2.943321503698825836e-02 -4.875274002552032471e-02 9.023676067590713501e-02 1.367920078337192535e-02 2.027722634375095367e-02 2.552465721964836121e-02 -6.969359517097473145e-02 -5.200069863349199295e-03 -9.260468184947967529e-02 -1.338015496730804443e-01 -4.760502651333808899e-02 7.298628985881805420e-02 1.193983945995569229e-02 7.137785851955413818e-02 -2.658468671143054962e-02 -1.080372650176286697e-02 -2.014067955315113068e-02 1.782150566577911377e-02 8.223047107458114624e-02 1.448201853781938553e-02 8.215310052037239075e-03 -1.028420310467481613e-02 -7.886151969432830811e-02 -6.366682797670364380e-02 -1.530217975378036499e-01 3.979359939694404602e-02 1.120446920394897461e-01 -6.930445879697799683e-02 -7.833470404148101807e-02 -1.538236625492572784e-02 2.284630946815013885e-02 6.125132553279399872e-03 -5.443381518125534058e-02 -5.005575343966484070e-02 2.505353651940822601e-03 -2.120665594702586532e-04 -1.310772448778152466e-02 2.655352652072906494e-02 1.151760146021842957e-01 5.749862641096115112e-03 1.292454078793525696e-02 1.012971773743629456e-01 7.667681574821472168e-02 -1.853451249189674854e-03 -8.965787291526794434e-02 1.284665986895561218e-02 1.529210209846496582e-01 8.599842339754104614e-02 -5.625813454389572144e-02 3.325516125187277794e-03 -9.378789365291595459e-02 -7.534980028867721558e-02 -3.856637049466371536e-03 9.928377717733383179e-02 2.761626429855823517e-02 1.283698230981826782e-01 -5.349158868193626404e-02 -9.497930295765399933e-03 3.528181929141283035e-03 -1.755630038678646088e-02 -1.425102259963750839e-02 1.136091127991676331e-01 1.203762143850326538e-01 1.996991783380508423e-02 -1.832129061222076416e-02 -3.061152063310146332e-03 9.916702657938003540e-02 -3.268485888838768005e-02 1.212193444371223450e-02 -1.161803491413593292e-02 1.165191009640693665e-01 9.586425870656967163e-02 5.718420445919036865e-02 1.808239705860614777e-02 1.884176209568977356e-02 5.583418905735015869e-02 -3.984437137842178345e-02 -6.281112134456634521e-02 1.420768946409225464e-01 3.815119713544845581e-02 1.793473660945892334e-01 -9.169995039701461792e-02 -1.267786771059036255e-01 -1.349104344844818115e-01 1.530578173696994781e-02 7.529193162918090820e-02 -6.838326156139373779e-02 1.427311301231384277e-01 6.631968915462493896e-02 -1.567048253491520882e-03 1.168194110505282879e-03 -1.211429014801979065e-01 1.339962929487228394e-01 -1.640626415610313416e-02 -6.486054509878158569e-02 1.764517091214656830e-02 3.952290490269660950e-02 -1.084304749965667725e-01 1.008836925029754639e-01 -2.678721025586128235e-02 2.194332703948020935e-02 1.186113618314266205e-02 -8.476637303829193115e-02 1.372617576271295547e-02 -6.508230417966842651e-02 6.130770966410636902e-02 7.539389654994010925e-03 -1.069871801882982254e-02 -3.496007919311523438e-01 -1.015340462327003479e-01 7.472084462642669678e-02 8.107373863458633423e-02 1.691450476646423340e-01 -5.884064733982086182e-02 -1.886529773473739624e-01 -4.293576255440711975e-02 -1.194299478083848953e-02 2.500581145286560059e-01 1.268765628337860107e-01 8.180007338523864746e-02 2.004426270723342896e-01 6.660786271095275879e-02 -1.442362964153289795e-01 -3.385563567280769348e-02 3.489939495921134949e-02
1.234981194138526917e-01 5.154200643301010132e-02 -3.264546766877174377e-02 5.456325039267539978e-02 1.678848713636398315e-01 -1.208486482501029968e-01 6.095642596483230591e-02 -8.113047480583190918e-02 1.249742880463600159e-01 1.483110785484313965e-01 -2.417550235986709595e-02 -8.725702017545700073e-02 3.833963070064783096e-03 7.289743423461914062e-02 4.829467087984085083e-02 -1.134980618953704834e-01 3.870645165443420410e-02 -1.109898909926414490e-01 -1.365369744598865509e-02 -1.424949318170547485e-01 2.894566208124160767e-02 2.684702537953853607e-02 -4.649519175291061401e-02 1.146780997514724731e-01 1.527381408959627151e-02 1.769434846937656403e-02 -7.725027948617935181e-02 -3.211261704564094543e-02 1.976420544087886810e-02 -2.263311855494976044e-02 8.922406286001205444e-02 8.787716925144195557e-02 1.341061443090438843e-01 -8.990348130464553833e-02 -6.595452874898910522e-02 5.327661707997322083e-02 -2.112934440374374390e-01 -8.373229205608367920e-02 8.215176314115524292e-02 1.420892477035522461e-01 -3.957904130220413208e-02 -1.572642028331756592e-01 -3.612841665744781494e-02 -8.627030253410339355e-02 3.889212757349014282e-02 -5.434838309884071350e-02 -5.588650330901145935e-02 4.246777389198541641e-03 3.059612959623336792e-02 7.573105394840240479e-02 -4.399306327104568481e-02 -1.796285971067845821e-03 1.085769459605216980e-01 -5.485995858907699585e-02 -2.449905723333358765e-01 -6.657554209232330322e-02 -1.702708378434181213e-02 1.132001429796218872e-01 -1.385186682455241680e-03 2.362146042287349701e-02 4.870341718196868896e-02 9.911814704537391663e-03 -1.840458065271377563e-01 -1.114358529448509216e-01 -1.503452658653259277e-01 1.330746561288833618e-01 1.433812081813812256e-01 2.063882946968078613e-01 5.659127607941627502e-02 -1.788094453513622284e-02 -5.088996887207031250e-02 -1.597485989332199097e-01 -3.140877559781074524e-02 1.121945008635520935e-01 4.030084982514381409e-02 6.335490942001342773e-02 4.210226982831954956e-02 9.145180881023406982e-02 -1.318618375808000565e-02 -7.865463942289352417e-02 -3.349487856030464172e-02 -2.649152092635631561e-02 -1.317001786082983017e-02 2.298754006624221802e-01 -1.492495685815811157e-01 2.422771975398063660e-02 6.941313296556472778e-02 4.488949477672576904e-02 -7.378257811069488525e-02 8.118138462305068970e-02 -4.530937224626541138e-02 -2.908570878207683563e-02 1.439868751913309097e-02 -6.313946098089218140e-02 -1.078530680388212204e-02 1.229690983891487122e-01 7.426572591066360474e-02 2.810822613537311554e-02 1.585528552532196045e-01 -4.666775092482566833e-02 2.099748142063617706e-02 1.333879679441452026e-01 -1.407768279314041138e-01 -1.658805161714553833e-01 6.095626950263977051e-02 1.213377565145492554e-01 4.136332869529724121e-02 1.378736086189746857e-02 7.881505787372589111e-02 -1.652386039495468140e-01 -5.998563766479492188e-02 6.387762725353240967e-02 -7.462157309055328369e-02 -4.873223602771759033e-02 1.246093809604644775e-01 8.796477690339088440e-03 -1.011537574231624603e-02 1.535714138299226761e-02 3.887263685464859009e-02 1.089657992124557495e-01 -9.495723061263561249e-03 -1.735810041427612305e-01 -1.027323752641677856e-01 -1.201198846101760864e-01 -9.952713549137115479e-02 -1.318933069705963135e-01 7.632091641426086426e-02 -7.815172895789146423e-03
1.965659111738204956e-02 4.719548299908638000e-02 9.429647028446197510e-02 2.779058180749416351e-02 -7.525613997131586075e-03 -6.589782983064651489e-02 1.812867261469364166e-02 8.207098394632339478e-02 -7.739286124706268311e-02 4.182742908596992493e-02 -7.761018723249435425e-02 3.875155374407768250e-02 9.401757270097732544e-03 -9.893331443890929222e-04 4.288733378052711487e-02 3.790287999436259270e-03 8.797481656074523926e-02 8.985079824924468994e-02 3.450619056820869446e-02 9.916372597217559814e-02 -5.141532048583030701e-02 -1.184337027370929718e-02 4.661367088556289673e-02 -7.989300042390823364e-02 1.540355980396270752e-01 -1.083433162420988083e-02 -3.728884086012840271e-02 1.386141777038574219e-02 -4.230939969420433044e-02 -7.664228975772857666e-02 -1.097582094371318817e-02 1.132909208536148071e-01 -1.855492740869522095e-01 2.460342831909656525e-02 7.199536263942718506e-02 -8.394897729158401489e-02 8.465795218944549561e-02 -1.881281845271587372e-03 -1.855649054050445557e-01 7.558402419090270996e-02 7.793064415454864502e-02 9.195680171251296997e-02 2.037109062075614929e-02 -7.758209109306335449e-02 -3.373873233795166016e-02 -4.050413519144058228e-02 6.651243567466735840e-02 -5.378325656056404114e-02 -1.372571438550949097e-01 -1.106542572379112244e-01 1.758165098726749420e-02 3.044762648642063141e-02 -9.196782857179641724e-02 -9.974384307861328125e-02 1.970422081649303436e-02 1.124021038413047791e-02 -9.627132862806320190e-02 -2.843064069747924805e-01 2.805410884320735931e-02 4.044798761606216431e-02 5.921699479222297668e-02 -5.180376768112182617e-02 -8.104262501001358032e-02 4.043782874941825867e-02 -4.168067127466201782e-02 -1.113924458622932434e-01 -6.284007802605628967e-03 2.042778395116329193e-02 -3.497119620442390442e-02 7.553970813751220703e-02 -8.909630030393600464e-02 -9.263093583285808563e-03 -3.952132910490036011e-02 4.630962014198303223e-02 1.099461689591407776e-01 1.235885843634605408e-01 2.123331427574157715e-01 -1.350928694009780884e-01 6.785776466131210327e-02 -7.112283259630203247e-02 1.236329451203346252e-01 -1.216859966516494751e-01 -2.366478294134140015e-01 -3.711314871907234192e-02 -3.453656658530235291e-02 -1.400934066623449326e-02 7.886813580989837646e-02 1.403179764747619629e-01 6.704645603895187378e-02 2.875589951872825623e-02 3.905867040157318115e-02 -1.100708693265914917e-01 3.261002153158187866e-02 1.114270612597465515e-01 -3.810425754636526108e-03 2.744538523256778717e-02 2.328744344413280487e-02 1.455402374267578125e-02 -1.212364360690116882e-01 -6.651680916547775269e-02 -3.908067010343074799e-03 1.796699315309524536e-01 -2.606761083006858826e-02 -6.959374248981475830e-02 -3.446177812293171883e-03 1.681995689868927002e-01 -1.232923939824104309e-01 3.625024855136871338e-02 3.005201816558837891e-01 -1.121306642889976501e-01 9.771156311035156250e-02 -5.531055927276611328e-01 -5.434396862983703613e-02 5.636417493224143982e-02 1.108898036181926727e-02 4.919018596410751343e-02 -4.956641420722007751e-02 -2.886014757677912712e-03 -4.003794491291046143e-02 -4.027400165796279907e-02 1.241748631000518799e-01 1.079507097601890564e-01 -6.951652467250823975e-03 -9.177020937204360962e-02 1.922494322061538696e-01 -5.470881238579750061e-03 3.982136398553848267e-02 -5.265098437666893005e-02
-5.329650267958641052e-02 6.213698908686637878e-02 -3.969986364245414734e-02 -5.020753014832735062e-03 2.059293165802955627e-02 -7.196886837482452393e-02 -5.154364928603172302e-02 7.867908477783203125e-02 -1.640390418469905853e-02 3.465840965509414673e-02 -3.545589745044708252e-02 5.956980213522911072e-02 -2.616015076637268066e-02 -5.028631165623664856e-02 8.617132902145385742e-02 -6.792075466364622116e-03 -4.232446104288101196e-02 5.130558833479881287e-02 5.219549685716629028e-02 1.082434207201004028e-01 -2.227810025215148926e-02 9.989681839942932129e-02 2.688782662153244019e-02 -2.334284596145153046e-02 -1.326706353574991226e-02 -1.446520630270242691e-02 2.626519650220870972e-02 -1.166747510433197021e-02 -3.991378843784332275e-02 -1.249141711741685867e-02 1.107418239116668701e-01 6.497070938348770142e-02 1.632918789982795715e-02 -2.476758509874343872e-02 -2.376699587330222130e-03 4.897941276431083679e-02 -7.202449440956115723e-02 -1.231068745255470276e-02 9.531538933515548706e-02 -3.800362721085548401e-02 2.747557684779167175e-02 8.417597413063049316e-02 -1.170002222061157227e-01 1.277253329753875732e-01 1.003073155879974365e-02 5.214895680546760559e-02 4.844783246517181396e-02 -5.928051471710205078e-02 -1.614662110805511475e-01 1.013567447662353516e-01 7.603931427001953125e-02 -3.647751361131668091e-02 -1.274591311812400818e-03 3.662142530083656311e-02 -1.256474293768405914e-02 5.014771595597267151e-02 -5.574028939008712769e-02 -7.463803887367248535e-02 2.626373991370201111e-02 9.885517647489905357e-04 -5.056740716099739075e-02 2.607836574316024780e-02 -1.856772042810916901e-02 -1.302142720669507980e-02 6.826242897659540176e-03 5.878490954637527466e-02 7.049005944281816483e-04 4.183456674218177795e-02 8.490061759948730469e-02 -1.722126826643943787e-02 -4.528978373855352402e-03 -3.493317961692810059e-02 -1.256727576255798340e-01 -8.170045912265777588e-02 -4.661371931433677673e-03 5.515133962035179138e-02 1.016224846243858337e-01 -2.783928997814655304e-02 6.607379019260406494e-02 4.561615362763404846e-02 1.644506305456161499e-02 -2.761180326342582703e-02 -1.088296920061111450e-01 5.625484138727188110e-02 9.528221562504768372e-03 4.620436578989028931e-02 -8.201083540916442871e-02 -2.243984490633010864e-02 1.408589724451303482e-02 -1.490852683782577515e-01 2.909921109676361084e-02 8.214543014764785767e-02 1.443437635898590088e-01 8.047109842300415039e-02 -1.350419968366622925e-02 -6.517244130373001099e-02 -8.639884740114212036e-02 -8.805812895298004150e-02 -1.030498445034027100e-01 -1.281788349151611328e-01 -1.850147359073162079e-02 -3.122930228710174561e-02 -2.088214969262480736e-04 -1.750288344919681549e-02 -9.634206444025039673e-02 -9.373600035905838013e-02 2.466150186955928802e-02 6.967168301343917847e-03 9.153293073177337646e-02 8.959390968084335327e-02 -9.181167930364608765e-03 -5.353792905807495117e-01 -4.537946544587612152e-03 4.483733698725700378e-02 4.851397499442100525e-02 1.093964055180549622e-01 -4.941451549530029297e-02 -7.050909101963043213e-02 -1.022157352417707443e-02 -2.571562528610229492e-01 1.308183521032333374e-01 9.166512638330459595e-02 7.900301367044448853e-02 4.172229766845703125e-02 2.408330142498016357e-02 1.807143166661262512e-02 9.887531399726867676e-02 8.320839703083038330e-02
-7.759901694953441620e-03 -3.526091948151588440e-02 -3.684682399034500122e-02 1.122574210166931152e-01 -1.202814206480979919e-01 -1.484207063913345337e-01 2.183712422847747803e-01 -1.534859985113143921e-01 -1.350388117134571075e-02 -1.108753681182861328e-01 6.484217196702957153e-02 -1.663257926702499390e-01 -6.143528968095779419e-02 -1.579681932926177979e-01 8.144836872816085815e-02 -3.687367960810661316e-02 2.938956394791603088e-02 -4.855897650122642517e-02 -5.942504107952117920e-02 5.313667468726634979e-03 4.855687171220779419e-02 -1.889914274215698242e-01 6.434892863035202026e-02 -3.843210637569427490e-02 4.654546454548835754e-02 1.614089123904705048e-02 -1.835894025862216949e-02 1.149827614426612854e-03 1.113441064953804016e-01 -1.749922148883342743e-02 1.041632145643234253e-01 5.274605471640825272e-03 -4.577967151999473572e-02 6.399065256118774414e-02 8.578825742006301880e-02 -6.767349690198898315e-02 5.529556050896644592e-02 -1.346721202135086060e-01 1.266129314899444580e-03 2.427243441343307495e-01 -9.768490679562091827e-03 4.094810783863067627e-02 -1.617887057363986969e-02 9.308947622776031494e-02 2.349801361560821533e-02 1.203841641545295715e-01 -2.838048385456204414e-03 -2.213677763938903809e-02 5.535249784588813782e-02 -2.433411544188857079e-03 1.076431274414062500e-01 -1.433807909488677979e-01 5.656455457210540771e-02 7.151556760072708130e-02 2.593315765261650085e-02 -8.517243713140487671e-02 -1.759823560714721680e-01 -1.230653077363967896e-01 -4.071335494518280029e-02 2.045830897986888885e-02 -6.052370741963386536e-02 -2.411784976720809937e-02 4.871529340744018555e-02 -5.566427111625671387e-02 -2.263661287724971771e-02 -3.119621612131595612e-02 2.938193036243319511e-03 -9.616739302873611450e-02 6.953730434179306030e-02 9.238729625940322876e-02 2.906393259763717651e-02 4.541849344968795776e-02 1.315012481063604355e-02 -1.450694203376770020e-01 2.230066992342472076e-02 -7.021807134151458740e-02 -3.341716900467872620e-02 1.894189603626728058e-02 -6.696978956460952759e-02 1.564294397830963135e-01 -1.959584839642047882e-02 3.431708738207817078e-02 7.223435491323471069e-02 -8.448034524917602539e-03 -8.983490616083145142e-02 3.126028180122375488e-02 -7.321566343307495117e-02 4.976605996489524841e-02 -1.263418197631835938e-01 -4.037221893668174744e-02 -2.788979560136795044e-02 6.561182439327239990e-02 -8.306819945573806763e-02 4.048204049468040466e-02 6.473756581544876099e-02 -1.309745945036411285e-02 5.391657352447509766e-03 -1.914959549903869629e-01 5.744648352265357971e-02 5.903629958629608154e-02 7.564263045787811279e-02 -9.879843890666961670e-02 -1.061099246144294739e-01 1.493356823921203613e-01 -3.011878952383995056e-02 -1.193807050585746765e-01 -1.001149765215814114e-03 1.982126682996749878e-01 -2.072273194789886475e-01 1.352432835847139359e-02 -1.734433174133300781e-01 1.359875649213790894e-01 1.030362248420715332e-01 9.722396731376647949e-02 2.867317944765090942e-02 6.805199384689331055e-02 -6.163492053747177124e-02 1.162826940417289734e-01 -9.251740574836730957e-02 -2.471041306853294373e-02 -1.451195478439331055e-01 5.910732597112655640e-02 -2.880331315100193024e-02 -1.422754302620887756e-02 -1.967921666800975800e-02 2.629520185291767120e-02 5.097149312496185303e-02 1.022209599614143372e-02
-5.248476192355155945e-02 6.217441335320472717e-02 -1.003645658493041992e-01 3.711724653840065002e-02 -1.592544317245483398e-01 -1.591738164424896240e-01 -3.133664652705192566e-02 -8.255574852228164673e-02 1.543460227549076080e-02 4.073660820722579956e-02 -7.843673229217529297e-02 1.046271100640296936e-01 1.504535675048828125e-01 2.106830850243568420e-02 -2.201722748577594757e-02 3.767469665035605431e-03 9.731660038232803345e-02 -1.015933603048324585e-01 -7.936444133520126343e-02 -1.377355456352233887e-01 -2.875647135078907013e-02 -1.121179163455963135e-01 -2.818202599883079529e-03 9.556297957897186279e-02 1.301920562982559204e-01 -1.864835619926452637e-02 -2.100713551044464111e-02 6.986495852470397949e-02 1.164257992058992386e-02 1.746197640895843506e-01 1.687940210103988647e-02 -1.074181124567985535e-01 2.434035949409008026e-02 2.825594879686832428e-02 8.959676139056682587e-03 -2.042440511286258698e-02 2.092561870813369751e-02 -1.915006153285503387e-02 -6.423687934875488281e-02 -3.293646499514579773e-02 1.628782004117965698e-01 8.785075508058071136e-03 -1.264229416847229004e-01 4.712662100791931152e-02 -6.009376794099807739e-02 -1.627873778343200684e-01 -7.916507124900817871e-02 3.784649074077606201e-02 6.271780282258987427e-02 6.785522401332855225e-02 -3.251845017075538635e-02 1.604376882314682007e-01 -4.211134836077690125e-02 -2.073217928409576416e-01 -7.967768236994743347e-03 9.424795955419540405e-02 -7.359725981950759888e-02 8.588478714227676392e-02 -7.032597810029983521e-02 8.211688697338104248e-02 -1.733262278139591217e-02 1.290124189108610153e-02 -4.724180325865745544e-02 -4.916475713253021240e-02 -3.881169483065605164e-02 4.999106749892234802e-03 -9.393228590488433838e-02 1.578216403722763062e-01 1.499278284609317780e-02 -9.942190349102020264e-02 1.013630405068397522e-01 -7.702632993459701538e-02 -2.611314319074153900e-02 5.361550953239202499e-03 1.976288110017776489e-02 4.432302340865135193e-02 1.215821802616119385e-01 2.932256460189819336e-02 -6.079567596316337585e-02 5.294363014400005341e-03 -5.331879481673240662e-02 7.149074226617813110e-02 6.382734328508377075e-02 -1.073133945465087891e-01 1.479591876268386841e-01 2.272796444594860077e-02 9.253389388322830200e-02 -1.237763762474060059e-01 -7.697149366140365601e-02 6.827257573604583740e-02 -3.880172967910766602e-03 -1.214144676923751831e-01 9.011785686016082764e-02 -9.604286402463912964e-03 5.699520930647850037e-02 -1.990976557135581970e-02 1.483354810625314713e-02 -1.626326143741607666e-02 -3.241113573312759399e-02 -6.580932438373565674e-02 7.951231300830841064e-02 -7.276501506567001343e-02 -1.795785687863826752e-02 -2.854374051094055176e-02 1.206533312797546387e-01 -5.140624940395355225e-02 3.191253915429115295e-02 -6.812354549765586853e-03 -4.142632335424423218e-02 7.071110606193542480e-02 6.693909317255020142e-02 3.857111930847167969e-01 -9.465783089399337769e-02 5.976759642362594604e-02 1.569928377866744995e-01 -8.299108594655990601e-02 -8.672010898590087891e-02 -1.355551481246948242e-01 4.236603528261184692e-02 -4.234923049807548523e-02 -1.785981655120849609e-01 -9.062420576810836792e-02 6.702217459678649902e-02 -1.024175342172384262e-02 -2.330770716071128845e-02 -2.026645243167877197e-01 -1.163548380136489868e-01 -3.705946356058120728e-02
2.539873681962490082e-02 5.985231255181133747e-04 4.890142753720283508e-02 -2.743448689579963684e-02 -2.633271552622318268e-02 4.006421938538551331e-02 9.606903046369552612e-02 1.781708002090454102e-01 -1.317729651927947998e-01 4.663520306348800659e-02 -9.560555219650268555e-02 -1.340403407812118530e-01 9.297995269298553467e-02 -2.987009473145008087e-02 -2.042206749320030212e-02 -4.098644480109214783e-02 -3.055609390139579773e-02 -1.479067560285329819e-02 1.849806681275367737e-02 1.592523045837879181e-02 3.271651268005371094e-02 -8.448524028062820435e-02 8.992180973291397095e-02 1.930282451212406158e-02 1.293803602457046509e-01 5.552641302347183228e-02 9.209809452295303345e-02 1.481859665364027023e-02 4.795695468783378601e-02 -4.504504613578319550e-03 -8.379181474447250366e-02 2.156634815037250519e-02 -2.325675264000892639e-02 -5.390059575438499451e-02 -1.439239680767059326e-01 4.749994352459907532e-02 -2.807477861642837524e-02 9.516485035419464111e-02 1.111374869942665100e-01 7.145909965038299561e-02 6.803307682275772095e-03 -1.485859304666519165e-01 -1.333546452224254608e-02 7.751272618770599365e-02 -2.271039411425590515e-02 -6.117549911141395569e-02 -1.279980093240737915e-01 -6.057321652770042419e-02 1.065089926123619080e-01 -3.153818473219871521e-02 -6.889541447162628174e-02 -2.780898474156856537e-02 6.824213266372680664e-02 -4.012588411569595337e-02 3.020237199962139130e-02 3.806689009070396423e-02 1.222347244620323181e-01 3.405343741178512573e-02 -3.171243146061897278e-02 5.512166768312454224e-02 5.105521157383918762e-02 -6.017436832189559937e-02 -1.492977235466241837e-02 -4.830430075526237488e-02 -3.080802038311958313e-02 -1.446023285388946533e-01 4.855196177959442139e-02 -1.180609464645385742e-01 -2.841465733945369720e-02 5.334151536226272583e-02 5.357050150632858276e-02 -1.012122705578804016e-01 3.091273270547389984e-02 4.150771535933017731e-03 1.461236178874969482e-01 -5.398901179432868958e-03 -6.830059736967086792e-02 1.458635274320840836e-02 7.782840728759765625e-02 4.796632379293441772e-02 -8.223775774240493774e-02 2.587440609931945801e-02 1.503840181976556778e-02 7.753937691450119019e-02 -1.376091688871383667e-01 -7.151952385902404785e-02 -1.070495918393135071e-01 -3.507693111896514893e-02 -1.557943373918533325e-01 6.448350101709365845e-02 8.260664343833923340e-02 -1.072287932038307190e-02 -8.998643606901168823e-02 1.083087176084518433e-01 -1.602557301521301270e-01 -6.042443215847015381e-02 -9.430769085884094238e-02 1.839997619390487671e-02 7.158280909061431885e-02 1.178098693490028381e-01 5.774636939167976379e-02 -7.886275649070739746e-02 -4.604664072394371033e-02 2.038133144378662109e-02 -1.564836129546165466e-02 5.951920896768569946e-02 4.798680893145501614e-04 -8.944231271743774414e-02 6.523629277944564819e-02 -1.643953472375869751e-02 1.068006902933120728e-01 5.460373163223266602e-01 4.016733914613723755e-02 1.605934463441371918e-02 1.192690655589103699e-01 -7.408956438302993774e-02 -1.412753462791442871e-01 -6.387734413146972656e-02 -3.938350826501846313e-02 -3.741569072008132935e-02 -1.584918238222599030e-02 9.871231019496917725e-02 9.997230768203735352e-02 -3.282651677727699280e-02 -1.174053326249122620e-01 5.846902355551719666e-02 -5.640577152371406555e-02 1.317010223865509033e-01
-4.804878309369087219e-02 6.009238958358764648e-02 3.263119980692863464e-02 2.092710696160793304e-02 -1.015606746077537537e-01 7.626703009009361267e-03 -1.463612774387001991e-03 1.286679655313491821e-01 6.810409575700759888e-02 -4.573766607791185379e-03 5.363040417432785034e-02 1.641681194305419922e-01 9.289810806512832642e-02 2.145585231482982635e-02 -1.846504062414169312e-01 -1.385125424712896347e-02 1.149696782231330872e-01 -1.506342291831970215e-01 1.901454478502273560e-01 3.353423997759819031e-02 -3.776358440518379211e-02 4.567306488752365112e-02 -3.752528131008148193e-02 4.429281875491142273e-02 -4.972736164927482605e-02 -1.594784855842590332e-02 -1.729420572519302368e-02 6.506955251097679138e-03 -2.143955416977405548e-02 1.414529234170913696e-01 -6.773895025253295898e-02 -3.480866551399230957e-02 -6.783655285835266113e-02 -1.267385203391313553e-02 -7.336126267910003662e-02 -7.550199329853057861e-02 -8.733048103749752045e-03 2.842115797102451324e-02 4.981860984116792679e-03 -5.851908773183822632e-02 -1.590943150222301483e-02 7.683586329221725464e-02 2.517432440072298050e-03 -2.860101405531167984e-03 7.755078375339508057e-02 1.778943240642547607e-01 3.553657978773117065e-02 2.121254429221153259e-02 2.841304615139961243e-02 -1.408535689115524292e-01 -5.262699723243713379e-02 3.019143268465995789e-02 -5.794238764792680740e-03 -3.645159304141998291e-02 -2.240485139191150665e-02 -2.267282456159591675e-02 1.637209355831146240e-01 -2.083895914256572723e-02 -6.117114424705505371e-02 3.262502700090408325e-02 -1.034869328141212463e-01 3.920693695545196533e-02 -4.808209463953971863e-02 -1.501151323318481445e-01 -1.004044935107231140e-01 -1.165140122175216675e-01 -9.510363638401031494e-02 -9.133218973875045776e-02 -7.876336574554443359e-02 -1.081160735338926315e-02 3.516072034835815430e-02 -4.851815477013587952e-02 4.794069565832614899e-03 -8.371401578187942505e-02 -6.399624794721603394e-02 1.189630758017301559e-02 -1.524480339139699936e-02 1.854607313871383667e-01 -1.543581858277320862e-02 3.055376373231410980e-02 1.127617731690406799e-01 2.845735289156436920e-02 1.164832338690757751e-01 -2.525354363024234772e-02 1.822766475379467010e-02 1.554934587329626083e-02 6.419999897480010986e-02 -5.006377771496772766e-02 -1.241143345832824707e-01 -3.958857432007789612e-02 -1.666405349969863892e-01 4.521898180246353149e-02 1.182345449924468994e-01 -2.363160625100135803e-02 -1.330738812685012817e-01 -5.008109658956527710e-02 5.136818438768386841e-02 -6.757691036909818649e-03 6.253756582736968994e-02 9.709478169679641724e-02 4.412095248699188232e-02 7.995359599590301514e-02 -3.363889828324317932e-02 3.265160694718360901e-02 -9.209040552377700806e-02 -3.770309686660766602e-02 -8.618224412202835083e-02 -5.437679961323738098e-02 -1.821428164839744568e-02 -7.241093367338180542e-02 7.078564167022705078e-02 4.579859673976898193e-01 -3.885452076792716980e-02 -1.478479951620101929e-01 -1.042651161551475525e-01 5.612821877002716064e-02 -8.874902129173278809e-02 7.389582693576812744e-02 1.153316441923379898e-02 -4.362067673355340958e-03 -1.488370299339294434e-01 -2.921653725206851959e-02 2.142176404595375061e-02 9.096435457468032837e-02 6.753430515527725220e-02 -6.820782274007797241e-02 3.068766556680202484e-02 9.002432227134704590e-02
4.639134742319583893e-03 5.200932547450065613e-02 -5.835087969899177551e-03 -2.493779174983501434e-02 -7.590872049331665039e-02 -5.188585445284843445e-02 -1.115464605391025543e-02 -3.154380619525909424e-02 3.202782571315765381e-02 7.381671573966741562e-03 -4.425640776753425598e-02 -1.125011295080184937e-01 3.813898935914039612e-02 5.283273756504058838e-03 7.629808038473129272e-02 -1.285574689973145723e-04 4.128660634160041809e-02 -5.007683858275413513e-02 -1.487004309892654419e-01 1.564573794603347778e-01 3.947380185127258301e-02 -6.438015401363372803e-02 -1.050868779420852661e-01 -3.129270672798156738e-02 -7.617826014757156372e-02 -2.743517234921455383e-02 4.527992755174636841e-02 5.815189215354621410e-04 5.241439491510391235e-02 1.735111884772777557e-02 1.150406002998352051e-01 2.097364049404859543e-03 -9.473367780447006226e-02 1.276487410068511963e-01 1.344419270753860474e-02 -5.984319746494293213e-02 1.989964768290519714e-02 8.723508566617965698e-02 1.213547511724755168e-04 8.502639830112457275e-03 1.033386141061782837e-01 2.899836897850036621e-01 -2.673949860036373138e-02 5.436068028211593628e-02 -4.624891560524702072e-03 6.271620839834213257e-02 2.737765433266758919e-03 3.946194797754287720e-02 -8.640200644731521606e-02 -1.170408874750137329e-01 4.061605781316757202e-02 -9.329302608966827393e-02 6.237653270363807678e-02 -5.107381939888000488e-02 -1.933139562606811523e-02 4.411131888628005981e-02 8.053728938102722168e-02 -7.117128372192382812e-02 -3.400445729494094849e-02 -6.245527788996696472e-02 -3.751058876514434814e-02 -2.495249547064304352e-02 8.763342164456844330e-03 7.452101260423660278e-02 7.330605294555425644e-03 3.423439338803291321e-02 5.138263478875160217e-02 -3.058761917054653168e-02 1.129786018282175064e-02 -4.862583428621292114e-02 1.954046636819839478e-02 -8.309348672628402710e-02 -2.563927322626113892e-02 7.089504599571228027e-02 -1.306350808590650558e-02 6.193601340055465698e-02 -5.758573487401008606e-02 -3.412811458110809326e-02 7.247534394264221191e-02 1.068623140454292297e-01 5.068317055702209473e-03 1.483861058950424194e-01 -6.623654812574386597e-02 -1.289072539657354355e-02 7.591746747493743896e-02 -5.809766799211502075e-02 -7.884531468152999878e-02 -1.290500164031982422e-01 2.954311110079288483e-02 -1.730331629514694214e-01 1.387008558958768845e-02 -8.939176797866821289e-02 -5.183329433202743530e-02 -6.325836759060621262e-03 9.601406636647880077e-04 -1.266070548444986343e-02 -1.533268112689256668e-02 3.110440447926521301e-02 -4.069311078637838364e-03 1.013360023498535156e-01 3.229055553674697876e-02 -5.306644365191459656e-02 -3.189723193645477295e-02 1.452963892370462418e-02 -2.867759577929973602e-02 1.153216361999511719e-01 -5.391787365078926086e-02 -5.407124757766723633e-02 -1.276136785745620728e-01 3.087529912590980530e-02 6.115428172051906586e-03 -5.375856757164001465e-01 -3.873542184010148048e-03 2.820484042167663574e-01 5.727756023406982422e-02 6.673651188611984253e-02 1.119357720017433167e-01 -1.320686042308807373e-01 2.349467948079109192e-02 -3.186766291037201881e-03 3.199802041053771973e-01 -3.020513802766799927e-02 -6.163322180509567261e-02 4.647876694798469543e-02 9.315914660692214966e-02 2.630237676203250885e-02 -2.985252253711223602e-02 -3.491255268454551697e-02
3.039074875414371490e-02 -6.452457606792449951e-02 1.104261167347431183e-02 2.111437963321805000e-03 -9.122507763095200062e-04 4.542184248566627502e-02 1.429446227848529816e-02 9.820704162120819092e-02 -7.526979595422744751e-02 -1.130271181464195251e-01 1.242100968956947327e-01 -2.713957615196704865e-02 2.085562795400619507e-01 2.280852012336254120e-02 1.880638673901557922e-02 5.521976202726364136e-02 -5.265670269727706909e-02 1.285169273614883423e-01 1.376048177480697632e-01 -1.216995418071746826e-01 -4.830935969948768616e-02 4.462069272994995117e-02 -6.323181092739105225e-02 5.893203616142272949e-02 -4.041483625769615173e-02 1.598226465284824371e-02 1.371528487652540207e-03 -6.542038172483444214e-02 4.061811044812202454e-02 1.265013068914413452e-01 -4.649296775460243225e-02 -2.418972924351692200e-02 2.122334577143192291e-02 1.803637482225894928e-02 1.455677393823862076e-02 -5.999108776450157166e-03 1.382598727941513062e-01 -7.553339470177888870e-03 -4.346560314297676086e-02 1.778402365744113922e-02 -3.879073634743690491e-02 -1.328876316547393799e-01 5.608570203185081482e-02 4.797806963324546814e-02 -5.066550523042678833e-02 1.183661073446273804e-01 -1.491965726017951965e-02 5.045201256871223450e-02 -1.691790521144866943e-01 1.550004035234451294e-01 -8.741202205419540405e-02 -2.287620492279529572e-02 -3.948476538062095642e-02 1.587460003793239594e-02 6.691391021013259888e-02 -6.218015775084495544e-02 8.002970367670059204e-02 -9.990501403808593750e-02 -5.065426975488662720e-02 2.420571073889732361e-02 2.039323002099990845e-01 -1.290674656629562378e-01 -9.582150727510452271e-03 1.036245077848434448e-01 -1.915809325873851776e-02 2.809881605207920074e-02 4.683531448245048523e-02 -2.394766919314861298e-02 4.429974034428596497e-02 5.471020936965942383e-02 -1.251609921455383301e-01 -1.168349459767341614e-01 -4.997530207037925720e-02 -6.518530845642089844e-02 -1.422939635813236237e-02 -1.367506980895996094e-01 -1.296468526124954224e-01 -2.712434716522693634e-02 3.716661036014556885e-02 1.123955473303794861e-01 -4.523928835988044739e-02 -4.379219189286231995e-02 -1.581829637289047241e-01 1.122915372252464294e-01 3.997215256094932556e-02 -4.150976240634918213e-02 -3.035465627908706665e-02 -4.738574475049972534e-02 9.136470034718513489e-03 7.316492497920989990e-02 -5.153416097164154053e-02 -8.787343651056289673e-02 -2.849013358354568481e-02 8.275061845779418945e-02 1.368386894464492798e-01 -8.267668075859546661e-03 3.879472240805625916e-02 -1.969171911478042603e-01 -3.537696553394198418e-03 -1.944127231836318970e-01 3.256585076451301575e-02 -2.148421667516231537e-02 -1.690333187580108643e-01 7.115513086318969727e-02 -6.431145966053009033e-02 3.975119814276695251e-02 1.377225518226623535e-01 1.106554344296455383e-01 4.454948380589485168e-02 -6.154330819845199585e-02 -4.396026954054832458e-02 -2.454560063779354095e-02 9.811427444219589233e-02 2.315929345786571503e-02 2.905590645968914032e-02 7.473473995923995972e-02 -8.565834909677505493e-02 7.925391197204589844e-02 -1.131550967693328857e-02 1.430853828787803650e-02 1.852744631469249725e-02 -3.379446640610694885e-02 3.842056170105934143e-02 -4.737087339162826538e-02 8.046276867389678955e-02 2.723606862127780914e-02 -8.570692688226699829e-02 1.180664002895355225e-01
-6.121720373630523682e-02 6.204065680503845215e-02 1.699005253612995148e-02 2.332417294383049011e-02 -1.192299947142601013e-01 4.751356691122055054e-02 2.353148348629474640e-02 -1.056905370205640793e-02 -2.990339137613773346e-02 4.113507643342018127e-02 1.287753460928797722e-03 5.894202366471290588e-02 -2.235833322629332542e-03 1.337982118129730225e-01 1.359579265117645264e-01 3.583390265703201294e-03 -9.132792055606842041e-02 -1.603907942771911621e-01 7.756892591714859009e-02 3.176173940300941467e-02 1.977796107530593872e-02 7.909359037876129150e-02 8.336096256971359253e-02 -3.549375385046005249e-02 -3.258897736668586731e-02 7.667361944913864136e-02 -1.325525045394897461e-01 -7.506193965673446655e-02 -1.218789219856262207e-01 -7.942636497318744659e-03 -1.905792355537414551e-01 -2.206728421151638031e-02 9.096497669816017151e-03 -6.270176172256469727e-02 -7.363354414701461792e-02 -9.676422923803329468e-04 -1.253876686096191406e-01 4.299351945519447327e-02 -1.947436109185218811e-02 -6.223483756184577942e-02 -2.666865661740303040e-02 1.043976470828056335e-01 -1.238620728254318237e-01 -8.568316698074340820e-02 -6.454115267843008041e-03 -2.540645888075232506e-03 3.439354524016380310e-02 -1.812157183885574341e-01 -6.235837191343307495e-02 -2.371596097946166992e-01 5.649244878441095352e-03 6.680390238761901855e-02 -3.217855410184711218e-04 6.371785700321197510e-02 2.024383749812841415e-03 -3.262579068541526794e-02 -5.303023010492324829e-02 4.115078225731849670e-02 5.220713466405868530e-02 -9.514842182397842407e-03 -5.155861377716064453e-02 9.257271885871887207e-03 9.715085476636886597e-02 1.505358964204788208e-01 5.521577969193458557e-02 1.054168641567230225e-01 -4.832589253783226013e-02 6.352664530277252197e-02 5.223840102553367615e-02 7.276345044374465942e-02 -5.633616074919700623e-02 -4.150104150176048279e-02 -4.540804773569107056e-02 -6.802453100681304932e-02 2.218400873243808746e-02 1.255794316530227661e-01 1.056338325142860413e-01 -4.937020316720008850e-02 -3.265025466680526733e-02 1.516208201646804810e-01 -4.450597986578941345e-02 4.852974787354469299e-02 1.008492186665534973e-01 -1.400741934776306152e-01 3.706281259655952454e-02 2.094734832644462585e-02 -1.073428094387054443e-01 -4.946518689393997192e-02 -3.119331784546375275e-02 4.630267992615699768e-02 1.126285791397094727e-01 -4.214509576559066772e-02 1.146601140499114990e-01 3.061955608427524567e-02 1.029617432504892349e-02 1.217697337269783020e-01 -1.619775742292404175e-01 4.734180495142936707e-02 -8.271645754575729370e-02 -9.273806959390640259e-02 1.578260399401187897e-02 5.287039652466773987e-02 -4.381580650806427002e-02 -1.666015945374965668e-02 -8.456756919622421265e-02 -1.253738701343536377e-01 -2.306985436007380486e-03 1.187768429517745972e-01 4.851086530834436417e-03 2.441151533275842667e-03 9.677790105342864990e-02 -6.585384011268615723e-01 -7.192169129848480225e-02 4.215408861637115479e-02 -5.597525462508201599e-02 1.253540366888046265e-01 2.012681402266025543e-02 3.740416467189788818e-02 -1.879426836967468262e-02 -4.989932477474212646e-02 3.090201877057552338e-03 3.678003849927335978e-04 -2.015513740479946136e-02 -2.426792122423648834e-02 1.021778881549835205e-01 -1.389474272727966309e-01 9.839694201946258545e-02 1.358817517757415771e-01
-8.495857566595077515e-02 -2.330429852008819580e-02 -7.471039146184921265e-02 -1.637516468763351440e-01 -7.212846726179122925e-02 1.587760597467422485e-01 -8.425412327051162720e-02 2.877001464366912842e-02 1.278129667043685913e-01 6.794018298387527466e-02 1.372572481632232666e-01 -2.915188856422901154e-02 -5.143162235617637634e-02 1.796306110918521881e-02 3.310044854879379272e-02 -5.533219873905181885e-02 6.658683717250823975e-02 -4.631924442946910858e-03 -1.442576050758361816e-01 2.139974199235439301e-02 -4.437681660056114197e-02 4.407514631748199463e-02 4.895914345979690552e-02 9.935677796602249146e-02 -1.582386717200279236e-02 -5.209330841898918152e-02 -1.347413752228021622e-02 8.205213397741317749e-02 5.584312602877616882e-02 -7.823446393013000488e-02 -2.500364184379577637e-02 5.624073743820190430e-02 -1.252045948058366776e-02 -1.548274159431457520e-01 -1.968877166509628296e-01 3.268808359280228615e-03 3.665069118142127991e-02 -1.014121249318122864e-01 9.897329658269882202e-02 -1.727088913321495056e-02 4.406286776065826416e-02 -2.151570022106170654e-01 -7.049280405044555664e-02 -1.100553944706916809e-01 1.585023999214172363e-01 1.351911574602127075e-02 -1.599219441413879395e-01 -1.219933852553367615e-01 1.722388565540313721e-01 5.523622408509254456e-02 2.554256021976470947e-01 -2.740503288805484772e-03 -1.797023601830005646e-02 1.199264302849769592e-01 8.155460469424724579e-03 2.227417528629302979e-01 -8.587513118982315063e-02 1.677736788988113403e-01 -1.084131002426147461e-01 6.393865495920181274e-02 -2.904021739959716797e-02 -1.422403901815414429e-01 4.162682592868804932e-02 -4.334786534309387207e-02 -4.914126545190811157e-02 4.546701535582542419e-02 -6.221146509051322937e-02 5.946883186697959900e-02 -2.933003008365631104e-03 1.522939838469028473e-02 8.636691607534885406e-03 6.630629301071166992e-03 -8.899947255849838257e-02 5.861436575651168823e-02 -2.278576232492923737e-02 2.107720822095870972e-02 -3.854248300194740295e-02 -1.241441443562507629e-02 3.131215646862983704e-02 -2.671640738844871521e-02 -6.692593451589345932e-03 -6.782677769660949707e-02 -6.387595087289810181e-02 3.024763241410255432e-02 4.973058030009269714e-02 -8.425442129373550415e-02 -5.401338450610637665e-03 8.277740329504013062e-02 -3.906701505184173584e-02 -8.593510091304779053e-02 -4.126448929309844971e-02 -8.243501931428909302e-02 -1.812826097011566162e-01 -4.133594036102294922e-02 -7.050016522407531738e-02 -3.042970784008502960e-02 1.722759194672107697e-02 1.966992393136024475e-03 -5.077881366014480591e-02 -2.155676484107971191e-02 -9.744981676340103149e-02 -4.702475294470787048e-02 2.845179103314876556e-02 -1.836189068853855133e-02 1.005300730466842651e-01 -2.058848552405834198e-02 -3.551775962114334106e-02 1.553908083587884903e-02 1.797795146703720093e-01 -4.555673804134130478e-03 1.845940202474594116e-01 -9.664148837327957153e-02 6.062057241797447205e-02 -5.691945180296897888e-02 2.300313562154769897e-01 1.718204915523529053e-01 -5.003378912806510925e-02 -2.752669714391231537e-02 -1.823742128908634186e-02 -5.254779011011123657e-02 -1.273197960108518600e-02 -3.411031141877174377e-02 -1.209148019552230835e-01 -8.961434662342071533e-02 1.544934213161468506e-01 1.244081333279609680e-01 1.137237474322319031e-01 -1.898144930601119995e-01
-7.657796144485473633e-02 9.463087469339370728e-02 -1.332840770483016968e-01 -1.560003124177455902e-02 9.886637330055236816e-02 -1.125407591462135315e-01 7.301983237266540527e-02 6.291192770004272461e-02 8.897660672664642334e-02 1.115067005157470703e-01 2.076598443090915680e-02 2.237109234556555748e-03 -1.237253174185752869e-01 4.854324460029602051e-02 -6.799033284187316895e-02 -7.940069586038589478e-02 -2.185935527086257935e-02 -7.236416637897491455e-02 8.593481034040451050e-02 1.061602160334587097e-01 2.272565849125385284e-02 -5.122838541865348816e-02 -8.583071827888488770e-02 3.327069804072380066e-02 2.420355379581451416e-02 -1.739660510793328285e-03 4.738787654787302017e-03 4.995102435350418091e-02 -5.940603092312812805e-02 -1.750150136649608612e-02 1.130429878830909729e-01 8.534180372953414917e-02 -3.419570857658982277e-03 3.935902938246726990e-02 -1.824814639985561371e-02 7.286700606346130371e-02 8.560771495103836060e-02 9.921418502926826477e-03 1.860017143189907074e-02 -4.938198253512382507e-02 3.076576441526412964e-02 4.988054186105728149e-02 3.860300406813621521e-02 4.264311119914054871e-02 -1.001723408699035645e-01 -7.116140332072973251e-03 2.998340688645839691e-02 -6.281552463769912720e-02 -3.380469977855682373e-02 5.474856868386268616e-02 1.728920042514801025e-01 2.799155563116073608e-02 -3.799540549516677856e-02 1.770115047693252563e-01 -1.097718253731727600e-01 2.084548212587833405e-02 -3.979720640927553177e-03 4.650415852665901184e-02 1.105743870139122009e-01 1.651014760136604309e-02 -6.703488063067197800e-03 1.813302002847194672e-02 -4.734009131789207458e-02 5.899796262383460999e-02 -5.580065026879310608e-02 6.184170395135879517e-02 -7.973945140838623047e-02 8.960165083408355713e-02 -3.272591903805732727e-02 -9.725267067551612854e-03 -1.661678776144981384e-02 5.122455302625894547e-03 7.225433737039566040e-02 2.691259235143661499e-02 -1.642078720033168793e-02 1.391721889376640320e-02 -2.903097309172153473e-02 -1.797803305089473724e-02 -4.253501445055007935e-02 -3.599646687507629395e-02 3.013486042618751526e-02 -5.545948166400194168e-03 -7.235307991504669189e-02 9.006004035472869873e-02 -1.296824514865875244e-01 -1.323247980326414108e-02 1.141295805573463440e-01 -7.885050028562545776e-02 -1.333812773227691650e-01 -4.022659361362457275e-02 -2.118227258324623108e-02 -3.277685865759849548e-02 3.865668550133705139e-02 -3.271114081144332886e-02 -3.774564340710639954e-02 7.058403640985488892e-02 -3.427908569574356079e-02 7.540648430585861206e-02 9.928054176270961761e-03 -4.598414525389671326e-02 -6.131739914417266846e-02 -3.154176846146583557e-02 -9.301880002021789551e-02 2.274638041853904724e-02 2.702695131301879883e-02 -1.436933428049087524e-01 9.815271198749542236e-02 -7.549408823251724243e-02 8.510452508926391602e-02 -8.535974472761154175e-02 2.367569692432880402e-02 -9.661850333213806152e-01 -2.182879485189914703e-02 -5.315511487424373627e-03 -1.079758536070585251e-02 4.250571876764297485e-02 2.598182111978530884e-02 7.511378079652786255e-02 4.416153207421302795e-02 -5.243022460490465164e-03 8.870764076709747314e-02 -3.275541216135025024e-02 3.235480189323425293e-02 2.060460858047008514e-03 -3.387286514043807983e-02 8.579896390438079834e-02 9.846694767475128174e-02 -4.549049213528633118e-02
-1.298360228538513184e-01 -2.947781700640916824e-03 6.959951948374509811e-03 -1.118594780564308167e-01 -6.324131786823272705e-02 5.413718894124031067e-02 -7.493724673986434937e-02 -2.937618456780910492e-02 8.592995814979076385e-03 -1.152095496654510498e-01 5.531591549515724182e-02 5.116730183362960815e-02 -1.468279026448726654e-02 1.129478141665458679e-01 -5.938336253166198730e-02 -1.678568720817565918e-01 1.073456779122352600e-01 -7.758292555809020996e-02 7.002527266740798950e-02 2.325942739844322205e-02 1.466631796211004257e-02 5.048900470137596130e-02 2.472809851169586182e-01 -4.136548191308975220e-02 1.848363876342773438e-02 -1.449105516076087952e-02 4.700046032667160034e-02 -1.227856725454330444e-01 1.374170649796724319e-02 1.095854770392179489e-02 4.022051393985748291e-02 -4.487318452447652817e-03 -1.486848443746566772e-01 3.035294823348522186e-02 4.110555723309516907e-02 -3.780862689018249512e-02 -2.795157209038734436e-02 8.644504100084304810e-02 -3.109156712889671326e-02 -7.292732334462925792e-06 5.804018676280975342e-02 6.463288515806198120e-02 2.234133034944534302e-01 -9.510472416877746582e-02 7.906735688447952271e-02 -6.153085082769393921e-02 -1.326408386230468750e-01 -1.085604578256607056e-01 3.073181398212909698e-02 2.161754854023456573e-02 -2.532861828804016113e-01 -4.382154718041419983e-02 -4.755040630698204041e-02 2.955953590571880341e-02 -1.207532957196235657e-01 2.429481782019138336e-02 2.922298153862357140e-03 -1.643771529197692871e-01 -4.919115081429481506e-02 7.946459949016571045e-02 2.024328149855136871e-02 1.330813020467758179e-01 7.511115074157714844e-02 1.593113690614700317e-01 8.016409724950790405e-02 -3.473408147692680359e-02 -1.081476509571075439e-01 -7.500188425183296204e-03 9.861131757497787476e-02 -8.700479567050933838e-02 3.952855244278907776e-03 4.801333323121070862e-02 -5.552490800619125366e-02 -4.134964942932128906e-02 -5.159833654761314392e-02 7.434020191431045532e-02 -1.446020454168319702e-01 4.924084246158599854e-02 1.856136173009872437e-01 1.064003854990005493e-01 1.756557635962963104e-02 8.171943575143814087e-02 7.378131151199340820e-02 7.560954242944717407e-02 3.350741043686866760e-02 2.992186695337295532e-02 -5.778359994292259216e-02 8.369555324316024780e-02 -2.950672991573810577e-02 -7.542775571346282959e-02 -7.689829170703887939e-02 1.397607922554016113e-01 1.295617371797561646e-01 9.769929945468902588e-02 -4.119282215833663940e-02 -3.771261125802993774e-02 -2.029276043176651001e-01 -6.330098211765289307e-02 1.447180211544036865e-01 -5.215204879641532898e-02 -6.282790750265121460e-02 -1.119462698698043823e-01 6.810010876506567001e-03 -2.569379508495330811e-01 6.557764112949371338e-02 2.017783373594284058e-01 -8.085215836763381958e-02 -1.264326721429824829e-01 -1.664726734161376953e-01 2.288768142461776733e-01 -1.988628953695297241e-01 -6.979680806398391724e-02 -2.982704900205135345e-02 1.028152257204055786e-01 -1.766967624425888062e-01 -3.302671760320663452e-02 -4.144741967320442200e-02 7.759202271699905396e-02 1.078239753842353821e-01 7.028343528509140015e-02 -6.703050434589385986e-02 5.214735865592956543e-02 9.796682745218276978e-02 5.060816928744316101e-02 -4.181757569313049316e-02 8.835749328136444092e-02 -1.963704228401184082e-01 4.692465439438819885e-02
9.611356258392333984e-02 1.182249262928962708e-01 -6.057143211364746094e-02 -9.693384170532226562e-02 4.247960448265075684e-02 4.846103489398956299e-02 -7.428775075823068619e-03 -4.348621144890785217e-02 4.637381061911582947e-03 1.180868074297904968e-01 7.630028575658798218e-02 1.110441889613866806e-02 -7.507632672786712646e-02 -4.342086240649223328e-02 -3.998175263404846191e-02 -9.607554972171783447e-02 7.859442383050918579e-02 6.260870397090911865e-02 3.892306936904788017e-03 -1.916541717946529388e-03 -3.953335806727409363e-02 -6.012978032231330872e-02 3.859197720885276794e-02 -7.726157456636428833e-02 8.618953078985214233e-02 -2.265740558505058289e-02 -9.685573726892471313e-02 4.887583851814270020e-02 -1.213505789637565613e-01 8.641467988491058350e-02 7.220161613076925278e-03 3.322576731443405151e-02 2.167150527238845825e-01 -1.020066216588020325e-01 -1.953397318720817566e-02 8.727864362299442291e-03 -1.048447936773300171e-01 -5.361745879054069519e-02 -8.601467311382293701e-02 4.824973002541810274e-04 -5.849053338170051575e-02 -1.642921566963195801e-01 1.243193913251161575e-02 -1.962803676724433899e-02 8.600498735904693604e-02 -9.724094718694686890e-02 -9.084955602884292603e-02 -1.171216443181037903e-01 -2.723607933148741722e-03 3.898665681481361389e-02 -1.931442618370056152e-01 1.757825314998626709e-01 -6.057761237025260925e-02 1.529757976531982422e-01 -8.690477162599563599e-02 1.939943246543407440e-02 9.759474545717239380e-02 1.268193498253822327e-02 1.175185814499855042e-01 1.419549137353897095e-01 -3.305497393012046814e-02 6.147242616862058640e-03 -2.268506959080696106e-02 4.511747974902391434e-03 -8.820852637290954590e-02 -1.575433313846588135e-01 3.608666360378265381e-02 -8.417038619518280029e-02 7.323009520769119263e-02 1.071811765432357788e-01 3.169495239853858948e-02 6.907659582793712616e-03 -2.781940391287207603e-03 -1.380164027214050293e-01 -1.255405880510807037e-02 7.468064874410629272e-02 -4.258270561695098877e-02 8.221501857042312622e-02 3.907409310340881348e-02 -7.110252231359481812e-02 -4.630019515752792358e-02 -1.223131343722343445e-01 1.771728275343775749e-03 -1.500817686319351196e-01 5.851241201162338257e-02 -3.897911682724952698e-02 1.038157865405082703e-01 3.239554539322853088e-02 -9.153974056243896484e-02 5.178156867623329163e-02 -1.125676743686199188e-02 -4.837785661220550537e-02 6.739065051078796387e-02 6.115168705582618713e-02 -1.997693441808223724e-03 4.358495026826858521e-02 1.123103573918342590e-01 -4.273282736539840698e-02 -2.526784874498844147e-02 1.757307946681976318e-01 -1.277791708707809448e-01 3.045959211885929108e-02 -1.312529891729354858e-01 6.579792499542236328e-02 -2.389193279668688774e-03 -5.724641028791666031e-03 -2.491467073559761047e-02 -4.670014604926109314e-02 -4.212650284171104431e-02 -5.350491777062416077e-02 -1.291315071284770966e-02 1.643045842647552490e-01 2.371563464403152466e-01 6.336296349763870239e-02 -1.233197599649429321e-01 -1.170002482831478119e-02 8.716328442096710205e-02 -1.340510249137878418e-01 7.229843642562627792e-03 -5.127787590026855469e-02 -1.873039305210113525e-01 3.952807188034057617e-02 -1.168497800827026367e-01 -3.494483232498168945e-02 -5.404627323150634766e-02 6.178822368383407593e-02 6.746250391006469727e-02 -4.659292474389076233e-02
1.079189255833625793e-01 -3.566041961312294006e-02 -6.652639806270599365e-02 5.107767507433891296e-02 -9.710949659347534180e-02 -7.492396980524063110e-03 -1.152187511324882507e-01 3.373884409666061401e-02 -3.589810058474540710e-02 -1.235674843192100525e-01 2.139930985867977142e-02 -2.966761402785778046e-02 -6.286395341157913208e-02 -9.375409036874771118e-02 2.351605892181396484e-02 1.109823882579803467e-01 8.569800294935703278e-03 1.117626577615737915e-01 -3.645087406039237976e-02 -1.032429136103019118e-04 1.071171485818922520e-03 -4.749956354498863220e-02 -1.056842729449272156e-01 -1.420562434941530228e-02 -6.402371823787689209e-02 6.367998570203781128e-02 3.062084689736366272e-02 -1.682078689336776733e-01 9.116211533546447754e-02 7.637823931872844696e-03 -1.198061369359493256e-02 -4.443919658660888672e-02 9.281324595212936401e-02 3.974749892950057983e-02 -2.743065729737281799e-02 -8.049766533076763153e-03 1.705707237124443054e-02 1.373406965285539627e-02 -1.232037320733070374e-01 2.152831666171550751e-02 6.846969015896320343e-03 -4.380406811833381653e-02 -5.002021044492721558e-02 -2.697043493390083313e-02 -5.684084817767143250e-02 1.319092214107513428e-01 7.420668262057006359e-04 -4.503493010997772217e-02 -6.515595316886901855e-02 1.732575893402099609e-01 1.353804022073745728e-01 9.653317928314208984e-02 -9.337598830461502075e-02 1.464386377483606339e-02 3.673242172226309776e-03 -1.493341755121946335e-02 4.014750570058822632e-02 -4.237217456102371216e-02 3.283866122364997864e-02 -2.321820147335529327e-02 -1.117272581905126572e-02 8.595605194568634033e-02 3.139058500528335571e-02 6.191966310143470764e-02 1.374628208577632904e-02 6.727535277605056763e-02 3.740289062261581421e-02 -5.308451503515243530e-02 -4.476440325379371643e-02 -2.436800673604011536e-02 -1.080605238676071167e-01 -1.875924319028854370e-01 1.108332257717847824e-02 -1.375330239534378052e-01 -5.221672728657722473e-02 8.503215014934539795e-02 -3.843609988689422607e-02 6.687664892524480820e-03 9.049346297979354858e-02 9.523198753595352173e-02 -8.201047033071517944e-02 1.560302078723907471e-02 8.085441775619983673e-03 -3.426866373047232628e-03 1.456545591354370117e-01 7.908926159143447876e-02 -9.046336635947227478e-03 1.967602223157882690e-01 8.975267410278320312e-03 -7.082534581422805786e-02 -3.262079134583473206e-02 -7.922713644802570343e-03 -5.208231881260871887e-02 -4.004693403840065002e-02 1.123987371101975441e-03 3.070433996617794037e-02 -1.247824821621179581e-02 -3.448935225605964661e-02 -3.646868839859962463e-02 4.138514772057533264e-02 4.406426101922988892e-02 7.654481381177902222e-02 2.032502293586730957e-01 1.809920882806181908e-03 1.239403635263442993e-01 7.886479049921035767e-02 1.568712107837200165e-02 6.801250576972961426e-02 1.133574172854423523e-01 4.566504061222076416e-02 2.235105335712432861e-01 -3.872685879468917847e-02 4.658129438757896423e-02 -5.973902530968189240e-03 -6.659087538719177246e-02 -1.073115468025207520e-01 -1.498774886131286621e-01 -6.431962363421916962e-03 2.277519553899765015e-02 -2.624644897878170013e-03 5.865330249071121216e-02 6.966592371463775635e-02 -4.321225732564926147e-02 -1.785560101270675659e-01 -2.484995871782302856e-02 1.064568459987640381e-01 9.521809965372085571e-02 -6.632354855537414551e-02
-1.306598633527755737e-01 -4.907067120075225830e-02 1.531730443239212036e-01 1.605599001049995422e-02 -3.594451351091265678e-03 7.980450987815856934e-02 -4.386573098599910736e-03 -2.164963865652680397e-03 -1.113805337809026241e-03 -3.743869438767433167e-02 4.346929863095283508e-02 9.955498389899730682e-03 6.993382424116134644e-02 1.865334659814834595e-01 5.578619614243507385e-02 7.593179494142532349e-02 9.697185456752777100e-02 1.033680588006973267e-01 -8.934122323989868164e-02 7.113765925168991089e-02 3.784800693392753601e-02 1.475660055875778198e-01 -6.387646496295928955e-02 4.755646362900733948e-02 -1.125003993511199951e-01 -6.432376056909561157e-02 -2.430919185280799866e-02 1.037594862282276154e-02 -4.691035300493240356e-02 1.184859275817871094e-01 -5.505578592419624329e-02 -4.580242186784744263e-02 2.864242298528552055e-03 2.403112351894378662e-01 1.555445231497287750e-02 -9.658852219581604004e-02 -1.231569871306419373e-01 6.324771791696548462e-02 -3.267450258135795593e-02 2.292551100254058838e-02 -8.002060465514659882e-03 -2.033592760562896729e-01 -2.948447689414024353e-02 4.523017629981040955e-02 -1.348646134138107300e-01 1.425522565841674805e-01 1.414122879505157471e-01 -6.408506631851196289e-02 5.043306574225425720e-02 2.825232446193695068e-01 -1.344439089298248291e-01 4.095381870865821838e-02 -4.134503658860921860e-03 2.458562888205051422e-02 -1.068105772137641907e-01 7.100615650415420532e-02 -1.705332249402999878e-01 -1.994046941399574280e-02 2.919860556721687317e-02 -8.073378354310989380e-02 -6.881192326545715332e-02 2.570816874504089355e-02 6.274709943681955338e-03 4.921737127006053925e-03 3.928866237401962280e-02 -9.527011215686798096e-02 7.904270291328430176e-02 -9.950414299964904785e-03 -2.468162216246128082e-02 -6.540611386299133301e-02 -1.362260244786739349e-02 -1.088078469038009644e-01 -1.334095373749732971e-03 -8.889999985694885254e-02 -9.403046965599060059e-02 -6.500589847564697266e-02 -1.615781895816326141e-02 4.083151742815971375e-02 1.706901341676712036e-01 6.358402222394943237e-02 7.139907032251358032e-02 -1.623334437608718872e-01 7.346128672361373901e-02 6.646771728992462158e-02 -8.600307046435773373e-04 4.966213181614875793e-02 -1.042358130216598511e-01 -3.998858109116554260e-02 -2.408003956079483032e-01 1.262807399034500122e-01 1.463120579719543457e-01 -1.194313354790210724e-02 -8.315616101026535034e-02 -2.603240497410297394e-02 -3.843551501631736755e-02 -5.272240564227104187e-02 -1.495994329452514648e-01 1.113259866833686829e-01 4.223316535353660583e-02 4.161210358142852783e-02 1.031853929162025452e-01 1.355369389057159424e-01 -1.187781989574432373e-01 7.285638898611068726e-02 3.619233518838882446e-02 -1.071244254708290100e-01 -2.424687333405017853e-02 7.469397783279418945e-02 -1.873881183564662933e-02 -1.281220316886901855e-01 -1.390899419784545898e-01 2.650629281997680664e-01 -5.827157199382781982e-02 2.819541608914732933e-03 8.543717116117477417e-02 -3.473916649818420410e-02 4.923765733838081360e-02 -1.492681801319122314e-01 4.015526734292507172e-03 7.961872965097427368e-02 -9.187693148851394653e-02 9.401193261146545410e-02 9.105597436428070068e-02 -2.292359918355941772e-01 1.374068856239318848e-01 1.136201918125152588e-01 -2.595138847827911377e-01 5.748931691050529480e-02
5.778425186872482300e-02 -1.522342022508382797e-02 1.849701069295406342e-02 -1.266826689243316650e-01 2.821014076471328735e-02 2.757383696734905243e-02 4.256110265851020813e-02 5.728242453187704086e-03 -8.391533046960830688e-02 2.297756075859069824e-01 4.160588607192039490e-02 -1.631013490259647369e-02 1.684739440679550171e-01 5.613555759191513062e-02 -1.058268472552299500e-01 3.430604562163352966e-02 1.699173450469970703e-02 -2.886732667684555054e-02 3.087002225220203400e-02 2.192675322294235229e-01 -7.652641832828521729e-02 1.320877969264984131e-01 -7.683751732110977173e-02 2.981775067746639252e-02 4.560618102550506592e-02 -2.270431071519851685e-02 -1.167895365506410599e-02 5.264981463551521301e-02 2.429908700287342072e-02 3.752901032567024231e-02 -6.832100916653871536e-03 -4.789967555552721024e-03 -9.284304454922676086e-03 2.857591025531291962e-02 4.921699315309524536e-02 5.515363439917564392e-02 7.439976930618286133e-02 6.194207444787025452e-02 -8.904793113470077515e-02 3.656243905425071716e-02 -2.522274553775787354e-01 -6.888549029827117920e-02 -7.666625082492828369e-02 -1.813821494579315186e-02 8.062662556767463684e-03 3.012251108884811401e-02 4.064905270934104919e-02 6.606511026620864868e-02 -1.476834118366241455e-01 5.084043741226196289e-02 5.850794538855552673e-02 -5.463855713605880737e-02 -5.707965698093175888e-03 -1.380239892750978470e-02 2.128429338335990906e-02 -3.575925901532173157e-02 5.169526673853397369e-03 -4.405389726161956787e-02 -3.183824196457862854e-02 -1.118132472038269043e-01 2.631540596485137939e-01 -1.220365148037672043e-02 8.522675372660160065e-03 -5.227591842412948608e-02 -7.808128744363784790e-02 -7.667088508605957031e-02 6.360838562250137329e-02 -4.249171167612075806e-02 1.015090197324752808e-01 1.056708395481109619e-01 -1.752949086949229240e-03 -3.494777157902717590e-02 9.976597130298614502e-02 -1.699103862047195435e-01 -1.518126279115676880e-01 -1.711050271987915039e-01 -1.311998162418603897e-02 1.880817301571369171e-02 1.942630857229232788e-02 6.172388046979904175e-02 -5.360958632081747055e-03 1.081633195281028748e-01 2.524201869964599609e-01 1.412566453218460083e-01 3.735345962923020124e-04 7.568115741014480591e-02 -1.729694381356239319e-02 -4.155392199754714966e-02 1.538501083850860596e-01 2.289546094834804535e-02 9.063270688056945801e-02 1.090269442647695541e-02 -5.391057953238487244e-02 -1.683638058602809906e-02 3.545565530657768250e-02 -6.038857251405715942e-02 -1.553771458566188812e-02 -8.072188124060630798e-03 3.995151072740554810e-02 6.641330569982528687e-02 -4.973373725078999996e-04 -5.538380518555641174e-02 -9.393289685249328613e-02 -1.092397719621658325e-01 -1.348554939031600952e-01 1.431909352540969849e-01 5.824895948171615601e-02 1.896748989820480347e-01 -1.785295009613037109e-01 1.002883352339267731e-02 -6.906618177890777588e-02 -5.511958524584770203e-02 1.553792059421539307e-01 2.822518721222877502e-02 -1.156594604253768921e-01 4.531803727149963379e-02 -2.166012488305568695e-02 -1.061783581972122192e-01 6.359789520502090454e-02 9.669452905654907227e-02 -2.089253813028335571e-02 1.464290358126163483e-02 6.863414496183395386e-02 -8.007164113223552704e-03 -1.957011669874191284e-01 -1.067597568035125732e-01 -8.638887084089219570e-04 -5.843018367886543274e-02
