-1.125729456543922424e-02
-2.818292239680886269e-03
-1.125096250325441360e-02
-1.864629215560853481e-03
-1.071118470281362534e-02
1.328219473361968994e-02
5.969550784357124940e-06
-1.400923356413841248e-02
-2.722678473219275475e-03
5.474484059959650040e-03
5.584596097469329834e-02
-1.166262198239564896e-03
1.044303085654973984e-02
8.546245284378528595e-03
7.684608455747365952e-03
2.827314427122473717e-03
2.222002513008192182e-04
2.875493466854095459e-02
1.023466512560844421e-02
-7.003081496804952621e-03
5.393145140260457993e-03
2.723702229559421539e-02
-2.127287723124027252e-02
1.500011794269084930e-02
-6.433475762605667114e-03
-1.566555700264871120e-03
9.390049963258206844e-04
-8.883093483746051788e-03
-1.365459337830543518e-02
-1.967124268412590027e-02
3.374353749677538872e-03
-2.557246573269367218e-02
5.621961317956447601e-04
9.176159277558326721e-03
-1.491257362067699432e-02
-2.903074212372303009e-02
-2.700515463948249817e-02
-1.766089932061731815e-03
1.467386819422245026e-02
-1.783334463834762573e-02
1.275978796184062958e-02
1.632402418181300163e-03
1.236274931579828262e-02
-7.042043376713991165e-03
1.245258026756346226e-04
-5.363425612449645996e-02
1.650222018361091614e-02
6.549824029207229614e-03
-3.453485900536179543e-03
1.593266380950808525e-03
3.386080963537096977e-03
6.321289110928773880e-03
2.875883504748344421e-02
1.828399952501058578e-03
-1.686298288404941559e-02
2.540471032261848450e-02
6.812277715653181076e-03
-1.207968406379222870e-02
-1.576138660311698914e-02
1.145243528299033642e-03
2.004794403910636902e-02
-1.254024566151201725e-03
-1.143339369446039200e-02
9.767225943505764008e-03
2.468168362975120544e-02
-1.111144199967384338e-02
3.360430244356393814e-03
-8.193130604922771454e-03
6.413530092686414719e-03
-4.062960855662822723e-03
-2.451936341822147369e-02
4.109487868845462799e-03
7.609353866428136826e-03
1.120687648653984070e-02
4.212692845612764359e-03
8.858751505613327026e-03
-7.187256123870611191e-03
-1.134189404547214508e-02
4.494179040193557739e-03
1.490451022982597351e-02
1.930606178939342499e-02
-3.915229812264442444e-03
-1.903975196182727814e-02
-2.917372621595859528e-04
3.832789370790123940e-03
-1.515983510762453079e-02
6.326042115688323975e-03
-9.755793027579784393e-03
3.719771746546030045e-03
1.447779592126607895e-02
1.609318330883979797e-02
2.140024676918983459e-02
3.115965053439140320e-03
-7.356035523116588593e-03
2.322481572628021240e-02
6.739053409546613693e-03
-2.502502873539924622e-02
-1.987054711207747459e-03
8.222104981541633606e-03
6.858577020466327667e-03
5.214219447225332260e-03
-2.162399329245090485e-02
1.143471430987119675e-02
-1.311391405761241913e-02
-1.931005343794822693e-02
-5.272960290312767029e-03
3.419327316805720329e-03
-1.594211556948721409e-03
-1.639692485332489014e-02
1.239170413464307785e-02
6.024730857461690903e-03
-1.712818513624370098e-03
3.887570346705615520e-04
3.136469051241874695e-03
-8.384623215533792973e-04
-2.747416729107499123e-03
3.354972973465919495e-02
3.011624328792095184e-03
3.750201140064746141e-04
1.477000676095485687e-02
2.422970160841941833e-02
-5.442021787166595459e-02
-3.508743364363908768e-03
1.616683043539524078e-02
1.847499050199985504e-02
-4.183106124401092529e-03
-1.234762184321880341e-02
1.184395328164100647e-02
