7.823950052261352539e-02
-5.555030889809131622e-03
3.662538900971412659e-02
-2.027013804763555527e-03
-4.139105975627899170e-02
8.763509243726730347e-02
1.510908361524343491e-02
-2.880924753844738007e-02
-5.867733806371688843e-02
1.584793627262115479e-02
-7.240144908428192139e-02
-1.765568181872367859e-02
5.468325316905975342e-02
-5.150699988007545471e-02
4.981849342584609985e-03
-5.502833798527717590e-02
2.702596969902515411e-02
5.586475506424903870e-02
2.204490825533866882e-02
-6.250003725290298462e-02
-3.574503585696220398e-02
1.315724849700927734e-02
-9.118294715881347656e-02
4.822109825909137726e-03
9.983179718255996704e-02
1.094333305954933167e-01
2.178339287638664246e-03
-4.028318822383880615e-02
9.930010885000228882e-03
-2.927071601152420044e-02
1.925384812057018280e-02
1.639856584370136261e-02
1.768240518867969513e-02
2.608045004308223724e-02
-1.117667481303215027e-01
-9.700127877295017242e-03
-7.944669574499130249e-02
-3.922324255108833313e-02
8.170086890459060669e-02
-6.726624816656112671e-02
-2.533469349145889282e-02
-9.999184310436248779e-02
-6.259309127926826477e-03
-1.299363095313310623e-03
2.749394439160823822e-02
-3.129073604941368103e-02
8.958465419709682465e-03
-7.593474537134170532e-02
5.262291058897972107e-03
-3.713906556367874146e-02
4.167716205120086670e-02
-6.521783024072647095e-02
-1.241688206791877747e-01
-1.989625394344329834e-02
-4.774416610598564148e-02
-5.262336507439613342e-02
1.833138801157474518e-02
1.339728534221649170e-01
-3.476715832948684692e-02
7.291237264871597290e-02
-3.402758762240409851e-02
4.608388617634773254e-02
-2.008742094039916992e-02
-1.236969325691461563e-02
3.899739682674407959e-02
-1.175393443554639816e-02
-7.237857580184936523e-02
-4.987009242177009583e-02
-2.851625904440879822e-03
-7.176204118877649307e-03
-4.131367057561874390e-02
-5.243756994605064392e-02
7.178773521445691586e-04
5.327792093157768250e-02
3.511938080191612244e-02
3.051106631755828857e-02
-4.195491317659616470e-03
-1.507442630827426910e-02
-5.461424589157104492e-02
4.678473621606826782e-02
-2.016649208962917328e-02
3.322628140449523926e-02
-3.147345408797264099e-02
-9.901491552591323853e-02
1.368024758994579315e-02
-1.379196625202894211e-02
7.664432376623153687e-02
-8.657275140285491943e-02
-4.441103339195251465e-02
9.477646648883819580e-02
4.224473610520362854e-02
5.728449206799268723e-03
2.998544834554195404e-03
-2.120616991305723786e-04
1.812515258789062500e-01
-2.807039208710193634e-02
1.679727807641029358e-02
4.745506867766380310e-02
-3.093034215271472931e-02
4.322037566453218460e-03
1.274448912590742111e-02
-4.192985594272613525e-02
-4.688426852226257324e-03
-3.713278099894523621e-02
5.089601129293441772e-02
9.991611354053020477e-03
2.680322714149951935e-02
-2.095382846891880035e-02
-3.231718763709068298e-02
2.128756418824195862e-02
-3.346876055002212524e-02
3.929802030324935913e-02
-3.457847982645034790e-02
3.348099067807197571e-02
6.345798820257186890e-02
2.453234978020191193e-02
-6.083831563591957092e-02
-2.455529198050498962e-02
2.538055181503295898e-02
-1.981133408844470978e-02
-2.002600021660327911e-02
2.245874106884002686e-01
4.343947395682334900e-02
1.410259008407592773e-01
-9.260614216327667236e-02
-4.368729889392852783e-02
-1.533225085586309433e-02
-1.775339711457490921e-03
