6.898012012243270874e-02 4.702946916222572327e-02 -1.653606886975467205e-03 8.750972896814346313e-02 2.651857445016503334e-03 -2.994547039270401001e-02 -4.098137468099594116e-02 7.201222330331802368e-02 1.002109795808792114e-02 -3.556974232196807861e-02 4.638884216547012329e-02 -1.294990330934524536e-01 1.698455959558486938e-02 -7.984473556280136108e-02 5.600121617317199707e-02 -1.228254288434982300e-02 6.319604068994522095e-02 -1.260375380516052246e-01 -5.474888533353805542e-02 1.860347837209701538e-01 -1.098592653870582581e-01 -2.267885766923427582e-02 -4.174079000949859619e-02 8.907019160687923431e-03 -4.705929756164550781e-02 1.836194307543337345e-03 7.968994230031967163e-02 3.625394403934478760e-02 4.346480965614318848e-02 1.216754689812660217e-01 -9.545620530843734741e-02 5.796841345727443695e-03 -1.327546080574393272e-03 9.180039167404174805e-03 -4.165353253483772278e-02 4.854075144976377487e-03 -4.924057424068450928e-02 -6.624998897314071655e-02 -9.156546741724014282e-02 -7.372178137302398682e-02 1.185309328138828278e-02 -2.254904806613922119e-02 5.728747928515076637e-04 7.908429950475692749e-02 4.310530424118041992e-02 2.701974473893642426e-02 -9.295913577079772949e-02 2.174306288361549377e-02 -4.704644903540611267e-02 7.202744483947753906e-03 1.000335253775119781e-02 -1.913298037834465504e-03 -1.441305968910455704e-02 -3.535904735326766968e-02 -3.652634099125862122e-02 -8.046080917119979858e-02 -5.410758405923843384e-02 4.879781603813171387e-02 7.164950668811798096e-02 -1.055612880736589432e-02 -3.161172568798065186e-02 1.120248343795537949e-02 3.668691962957382202e-02 2.126854844391345978e-02 5.816880241036415100e-02 -1.543733174912631512e-03 -4.909486696124076843e-02 -3.195647522807121277e-02 -3.736629616469144821e-03 -3.713076934218406677e-02 -2.044116333127021790e-02 -2.737722918391227722e-02 1.092771589756011963e-01 -3.673446178436279297e-02 1.125451400876045227e-01 -2.691297605633735657e-02 6.081376597285270691e-02 -3.992248326539993286e-02 -6.255253404378890991e-02 3.854699200019240379e-03 -2.930001355707645416e-02 -1.867131330072879791e-02 1.262147724628448486e-01 4.630696959793567657e-03 5.071584135293960571e-02 3.550697490572929382e-02 4.586543515324592590e-02 -3.188975900411605835e-02 -2.752546966075897217e-02 1.030717939138412476e-01 -1.276603527367115021e-02 -7.956829667091369629e-02 5.272054672241210938e-02 -6.631147861480712891e-02 -5.803165491670370102e-03 -2.724053338170051575e-02 4.591850936412811279e-02 -2.544018067419528961e-02 -9.350338950753211975e-03 -1.341251134872436523e-01 -4.541792348027229309e-02 5.588926002383232117e-02 -5.961676687002182007e-02 1.080486699938774109e-01 3.698142990469932556e-02 1.517860442399978638e-01 -4.407596960663795471e-02 -5.355329811573028564e-02 1.230252832174301147e-01 -9.428178519010543823e-02 3.145745769143104553e-02 5.574077367782592773e-02 1.323479115962982178e-01 8.201529830694198608e-02 -5.355946347117424011e-02 -6.437330693006515503e-02 -1.682548783719539642e-02 -5.888478457927703857e-02 -1.058676987886428833e-01 -1.033839583396911621e-01 -2.418838441371917725e-02 1.113285962492227554e-02 9.466568008065223694e-03 8.669719099998474121e-02 -8.747918158769607544e-02 -1.136837303638458252e-01 -8.617989718914031982e-02 -1.289199013262987137e-02
-3.695792704820632935e-02 4.192848689854145050e-03 -1.284638186916708946e-03 -7.095552235841751099e-02 -7.619427889585494995e-02 -2.979853749275207520e-02 -7.755012065172195435e-02 -3.776905313134193420e-02 7.934860885143280029e-02 -1.774331927299499512e-01 -2.056844718754291534e-02 2.539352700114250183e-02 -3.403682261705398560e-02 -1.227912586182355881e-02 -5.095737986266613007e-03 -1.248299609869718552e-02 -2.290491200983524323e-02 -5.345651879906654358e-02 -1.125811338424682617e-01 3.493306785821914673e-02 -2.016199566423892975e-02 -1.178436875343322754e-01 1.034182012081146240e-01 4.120919108390808105e-02 -4.373532161116600037e-02 2.185127139091491699e-02 2.480989322066307068e-02 -2.408941090106964111e-02 5.335005000233650208e-02 4.718049243092536926e-02 1.123195048421621323e-02 -1.410032808780670166e-02 5.555470124818384647e-04 5.240975320339202881e-02 -5.712924152612686157e-02 9.663411229848861694e-02 7.811193168163299561e-02 8.100830763578414917e-02 7.782176882028579712e-02 -1.263183262199163437e-02 -6.664189696311950684e-02 5.805962532758712769e-02 8.145676553249359131e-02 2.183640934526920319e-02 3.027818631380796432e-03 -7.948362035676836967e-04 -3.847404569387435913e-02 6.076461449265480042e-02 -5.661645904183387756e-02 2.101494185626506805e-02 -5.155561864376068115e-02 6.954549998044967651e-02 -3.660625778138637543e-03 1.091562490910291672e-02 4.567662253975868225e-02 -3.088834136724472046e-02 6.148628890514373779e-02 3.495245426893234253e-02 4.153408110141754150e-02 4.313925281167030334e-03 -3.221941739320755005e-02 -2.659410424530506134e-02 1.114490032196044922e-01 -5.347176268696784973e-02 -1.115055382251739502e-02 8.128264918923377991e-03 5.428361706435680389e-03 3.579868748784065247e-02 3.418597951531410217e-02 -1.205183286219835281e-02 -6.530447304248809814e-02 6.927026808261871338e-02 4.319777712225914001e-02 5.327036231756210327e-02 -7.858831435441970825e-02 -4.572476726025342941e-03 -8.674257993698120117e-02 -2.496061380952596664e-03 -4.679062217473983765e-02 -4.112386703491210938e-02 -8.144311606884002686e-02 -1.266835909336805344e-02 6.907755043357610703e-03 4.427371919155120850e-02 2.965924702584743500e-02 4.552162066102027893e-02 4.211434628814458847e-03 -1.534301191568374634e-01 2.238775230944156647e-02 -1.193528529256582260e-02 4.098992422223091125e-02 -4.599667340517044067e-02 -3.082483448088169098e-02 2.744716964662075043e-02 4.068140871822834015e-03 5.118210241198539734e-02 -2.408520504832267761e-02 2.309645898640155792e-02 1.325591839849948883e-02 -1.682709008455276489e-01 -2.559313736855983734e-02 -2.731785178184509277e-02 -1.472833901643753052e-01 1.009192764759063721e-01 1.209814921021461487e-01 -4.488202929496765137e-02 -7.746217772364616394e-03 -5.093110725283622742e-03 -2.168385311961174011e-02 5.229572579264640808e-02 7.095993310213088989e-02 4.589786380529403687e-02 -1.681502535939216614e-02 -8.911546319723129272e-02 8.002358675003051758e-02 5.838028341531753540e-02 7.262500468641519547e-03 4.564009234309196472e-02 -2.087069302797317505e-02 9.476791322231292725e-02 -4.263307154178619385e-02 1.508213020861148834e-02 5.624585971236228943e-02 -8.991745300590991974e-03 8.856720291078090668e-03 -1.079720351845026016e-02 2.850931882858276367e-02 -1.729309409856796265e-01
6.394356489181518555e-02 -8.401408791542053223e-02 6.653600931167602539e-02 -2.655283547937870026e-02 3.674062341451644897e-02 -6.731027364730834961e-02 -1.281711366027593613e-02 -1.840236829593777657e-03 6.364715844392776489e-02 -2.900519408285617828e-02 -7.830976694822311401e-02 6.594436615705490112e-02 -6.893319659866392612e-04 -4.058932885527610779e-02 -1.681390590965747833e-02 -1.392195373773574829e-02 -1.214335337281227112e-01 -1.247697100043296814e-01 -1.024495810270309448e-01 8.759421855211257935e-02 7.421588152647018433e-02 -8.023186773061752319e-02 -8.191162720322608948e-03 -2.985976077616214752e-02 5.323008820414543152e-02 -9.246783331036567688e-03 2.311156876385211945e-02 -1.230884436517953873e-02 1.353323925286531448e-02 2.451598457992076874e-02 -1.142700910568237305e-01 1.109336689114570618e-01 6.976903229951858521e-02 -1.449289172887802124e-01 7.790252566337585449e-02 -6.247965991497039795e-02 1.062161326408386230e-01 6.629888084717094898e-04 4.737394675612449646e-02 3.408080339431762695e-02 -1.333278119564056396e-01 3.722585737705230713e-02 2.911533601582050323e-02 5.298052728176116943e-02 -8.939334005117416382e-02 2.080844044685363770e-01 -6.318492442369461060e-02 3.223555162549018860e-02 1.330826878547668457e-01 -9.301126003265380859e-03 1.349161118268966675e-01 -9.662794321775436401e-02 -3.831544518470764160e-02 -9.408082813024520874e-02 -2.692831680178642273e-02 -1.163400784134864807e-01 5.927608907222747803e-02 -4.520793631672859192e-02 5.375676602125167847e-02 -4.986544698476791382e-02 -1.430003158748149872e-02 6.118515506386756897e-02 3.623597091063857079e-03 1.402209997177124023e-01 -7.563222199678421021e-02 5.722568370401859283e-03 -4.209265857934951782e-02 6.507490575313568115e-02 -5.146407335996627808e-02 -9.249725192785263062e-02 8.250888437032699585e-03 8.035875856876373291e-02 -3.340196562930941582e-03 3.055550530552864075e-02 2.110143657773733139e-03 3.400108218193054199e-02 2.661231160163879395e-02 -5.012828856706619263e-02 -5.462368205189704895e-02 1.749444007873535156e-02 -1.219137758016586304e-01 7.171799894422292709e-03 6.692618876695632935e-02 -7.460081577301025391e-02 1.141475811600685120e-01 -1.409356016665697098e-02 6.435039639472961426e-02 -3.893576934933662415e-02 -1.684699207544326782e-02 1.018580496311187744e-01 -6.211870163679122925e-02 1.130153983831405640e-01 -5.019140988588333130e-02 -9.333166480064392090e-02 -7.690272480249404907e-02 2.322712913155555725e-02 4.575538262724876404e-02 7.438420504331588745e-02 5.595910921692848206e-02 -4.649588093161582947e-02 -1.130541414022445679e-02 -2.702426537871360779e-02 -1.056442633271217346e-01 8.658771216869354248e-02 1.342867221683263779e-02 9.916850179433822632e-02 5.948431789875030518e-02 -4.343246668577194214e-02 1.148397922515869141e-01 1.571684959344565868e-03 -2.598165348172187805e-02 2.864392101764678955e-02 -8.733776956796646118e-02 -7.173562422394752502e-03 6.978803128004074097e-02 5.969506129622459412e-02 -8.543112874031066895e-02 1.661003977060317993e-01 -7.734122127294540405e-02 -5.804257839918136597e-02 -1.060952767729759216e-01 -5.090698227286338806e-02 2.717535570263862610e-02 -1.349265724420547485e-01 -2.622965723276138306e-02 1.922829449176788330e-02 -8.389988541603088379e-02 5.185695737600326538e-02
-6.558483093976974487e-02 1.343873292207717896e-01 1.009272132068872452e-02 4.466743767261505127e-02 1.139482576400041580e-02 2.903554216027259827e-02 -1.130359992384910583e-01 2.812092658132314682e-03 4.417826607823371887e-02 -9.378157556056976318e-02 1.579619944095611572e-02 -5.570807680487632751e-02 -3.350377082824707031e-02 -1.085907127708196640e-02 2.309658005833625793e-02 -8.058083057403564453e-02 -4.214547574520111084e-02 -3.803906962275505066e-02 -4.348641633987426758e-02 -2.323603443801403046e-02 1.059819012880325317e-02 -4.428375512361526489e-03 1.020035743713378906e-01 -1.048632934689521790e-01 2.478244714438915253e-02 2.885757945477962494e-02 5.967449769377708435e-02 -2.555212751030921936e-02 2.802718803286552429e-02 2.039816603064537048e-02 6.816963851451873779e-02 -7.735736202448606491e-03 -4.221871495246887207e-02 1.248918473720550537e-01 3.345286846160888672e-02 4.715600982308387756e-03 6.601705402135848999e-02 -1.319608688354492188e-01 -1.878575980663299561e-02 8.747431449592113495e-03 1.910803653299808502e-02 -5.113601684570312500e-02 -3.788099810481071472e-02 -6.329024583101272583e-02 -9.566032886505126953e-02 8.878748118877410889e-02 -7.342492789030075073e-02 -1.681461781263351440e-01 -1.520248223096132278e-02 -1.454442925751209259e-02 1.499609202146530151e-01 4.266146197915077209e-02 3.425217792391777039e-02 -1.584142446517944336e-01 5.226369481533765793e-03 1.757425628602504730e-02 -3.368432074785232544e-02 -4.929391294717788696e-02 1.162404343485832214e-01 6.920728087425231934e-02 -9.739972651004791260e-02 3.915987536311149597e-02 3.137630596756935120e-02 1.476972363889217377e-02 1.139927841722965240e-02 7.832979410886764526e-02 -1.564082317054271698e-02 2.945215441286563873e-02 -6.779930740594863892e-02 9.468487650156021118e-02 2.129597216844558716e-02 1.042976160533726215e-03 2.159781195223331451e-02 9.974860586225986481e-03 9.104035794734954834e-03 5.863673612475395203e-02 5.205688998103141785e-02 4.004091769456863403e-02 -3.364082891494035721e-03 -6.837659515440464020e-03 -4.283604770898818970e-02 1.722713559865951538e-02 9.289187192916870117e-02 -1.751321554183959961e-02 2.708489075303077698e-02 -6.953962147235870361e-02 6.439267657697200775e-03 -2.446802146732807159e-02 1.255374848842620850e-01 -2.602623403072357178e-02 -5.520867928862571716e-02 -1.124763935804367065e-01 1.122967991977930069e-02 3.556724637746810913e-02 -1.269118785858154297e-01 3.030095063149929047e-02 5.609897524118423462e-02 -6.342982873320579529e-03 1.042066738009452820e-01 -7.526403665542602539e-02 -8.958415128290653229e-03 -3.892347589135169983e-02 -2.034183824434876442e-03 3.086161240935325623e-02 -8.568833768367767334e-02 -4.694672301411628723e-03 1.463835500180721283e-02 1.165000572800636292e-01 2.353515848517417908e-02 2.595195733010768890e-02 1.162543371319770813e-01 7.357557117938995361e-02 3.118167817592620850e-02 2.446044608950614929e-02 -4.043222963809967041e-02 -2.682594954967498779e-02 6.812588870525360107e-02 2.090317755937576294e-02 -1.137730032205581665e-01 1.430906238965690136e-03 3.021904733031988144e-03 2.587979426607489586e-03 -1.446206867694854736e-02 6.258348375558853149e-02 2.066640369594097137e-02 -5.234547704458236694e-02 -3.018352726940065622e-04 -8.280231058597564697e-02
-1.046141795814037323e-02 1.889899186789989471e-02 8.549085259437561035e-02 1.032833531498908997e-01 9.281367994844913483e-03 -6.528379023075103760e-02 -4.348899796605110168e-02 2.649852447211742401e-02 -8.622921258211135864e-02 4.182714968919754028e-02 -1.149592846632003784e-01 1.206187680363655090e-01 3.518468141555786133e-02 -6.411802023649215698e-03 -9.955354034900665283e-02 -1.346463244408369064e-02 -2.210622187703847885e-03 -1.002597957849502563e-01 -9.264771640300750732e-02 -7.352939993143081665e-02 -2.334849163889884949e-02 -5.842274054884910583e-02 9.969908744096755981e-02 -8.776225149631500244e-03 1.262810975313186646e-01 -2.186695300042629242e-02 -5.724464729428291321e-02 -4.495510086417198181e-02 -3.836897388100624084e-02 -2.980255056172609329e-03 -2.612159959971904755e-02 -3.791994974017143250e-02 -4.991569090634584427e-03 -7.062836736440658569e-02 1.193519216030836105e-02 -5.492933839559555054e-02 4.296874627470970154e-02 3.087956458330154419e-02 -5.418282747268676758e-02 -8.446850627660751343e-02 -6.391324847936630249e-02 1.091498434543609619e-01 -1.031689494848251343e-01 1.046231016516685486e-01 -2.321146987378597260e-02 9.057277813553810120e-03 -7.068150490522384644e-02 -1.156288757920265198e-01 -7.182532548904418945e-02 -6.317700445652008057e-02 -4.014483094215393066e-02 4.215148463845252991e-02 -1.742478758096694946e-01 -1.387577801942825317e-01 1.278866678476333618e-01 -6.305548548698425293e-02 -9.972244501113891602e-03 8.792299777269363403e-02 5.724711343646049500e-02 -2.393716014921665192e-03 2.572138234972953796e-02 -1.243643369525671005e-02 -4.502164572477340698e-02 1.211857050657272339e-01 -5.824521556496620178e-02 1.530606113374233246e-02 -2.920101024210453033e-02 1.293150484561920166e-01 -4.201490432024002075e-02 4.318439215421676636e-02 1.279934793710708618e-01 2.898145094513893127e-02 1.288670022040605545e-02 -1.164685562252998352e-02 1.011412814259529114e-01 6.021669507026672363e-02 -9.685819596052169800e-02 2.671892940998077393e-02 -2.858067117631435394e-02 5.068009719252586365e-03 -3.708961606025695801e-02 9.389823675155639648e-02 4.108231514692306519e-03 -3.565539792180061340e-02 1.361762918531894684e-02 8.361557498574256897e-03 8.008709549903869629e-02 -1.639136858284473419e-02 1.162787824869155884e-01 1.715367585420608521e-01 1.037064660340547562e-02 5.486254021525382996e-02 -1.143615599721670151e-02 2.415063604712486267e-02 -3.291719406843185425e-02 1.285511068999767303e-02 -4.237186629325151443e-03 1.795677281916141510e-02 -1.622990667819976807e-01 2.981625497341156006e-02 -4.713843390345573425e-02 6.230584159493446350e-02 -7.307600695639848709e-03 -2.439734339714050293e-02 1.195855345577001572e-02 4.941870644688606262e-02 -5.937511846423149109e-02 -7.241311017423868179e-03 8.103436976671218872e-02 6.767074018716812134e-02 2.368754148483276367e-02 -2.846652641892433167e-03 1.108992770314216614e-01 6.012953817844390869e-03 8.392528444528579712e-02 -3.431844711303710938e-02 -5.831177905201911926e-02 1.999346353113651276e-02 4.798292741179466248e-02 -1.937361666932702065e-03 -3.873712196946144104e-02 5.019460618495941162e-02 -2.038566209375858307e-02 -3.382818028330802917e-02 -1.420391537249088287e-02 -2.025355398654937744e-02 7.086817640811204910e-03 -1.800581440329551697e-02
1.027050986886024475e-01 1.012162789702415466e-01 -4.533558152616024017e-03 -5.071366950869560242e-02 3.418032452464103699e-02 -8.202674798667430878e-03 -1.398734897375106812e-01 3.369184210896492004e-02 6.276580691337585449e-02 1.016113832592964172e-01 -3.725782781839370728e-02 -3.414810076355934143e-02 5.123113468289375305e-02 7.631370425224304199e-02 -6.497857719659805298e-02 -2.860242314636707306e-02 4.840730503201484680e-02 -5.240542814135551453e-02 3.038793243467807770e-02 1.015957221388816833e-01 -1.684336806647479534e-03 -1.050431728363037109e-01 1.265166647499427199e-04 1.125264689326286316e-01 2.273261547088623047e-02 3.215642273426055908e-02 5.901179835200309753e-02 -9.013845771551132202e-02 3.653469681739807129e-02 6.481057405471801758e-02 -5.592323094606399536e-02 1.003444194793701172e-01 -1.750477589666843414e-02 -5.878657102584838867e-02 -8.027764409780502319e-02 5.176245793700218201e-02 1.073150709271430969e-01 6.386882811784744263e-02 9.739261865615844727e-02 2.328683808445930481e-02 2.512391284108161926e-02 -5.801887437701225281e-02 7.825405895709991455e-02 5.067907739430665970e-03 1.474141702055931091e-02 1.941253095865249634e-01 -7.017617672681808472e-02 -1.261809188872575760e-02 3.251981362700462341e-02 -3.395896404981613159e-02 -8.479136973619461060e-02 9.119456261396408081e-02 3.406146308407187462e-03 9.963625669479370117e-02 5.541196465492248535e-02 -1.273962110280990601e-01 -5.543694645166397095e-02 -8.578484505414962769e-02 -9.844150394201278687e-03 8.220411092042922974e-02 2.819908782839775085e-02 7.468280941247940063e-02 -9.590204805135726929e-02 5.913656949996948242e-02 -2.137812599539756775e-02 -2.440549805760383606e-02 -9.902518987655639648e-02 -1.378876040689647198e-04 7.206985354423522949e-02 -1.933031529188156128e-02 -7.192859891802072525e-03 -3.020176663994789124e-02 -5.272684991359710693e-02 -1.179487034678459167e-01 -2.882898785173892975e-03 3.227050229907035828e-02 -1.688199676573276520e-02 -1.143896952271461487e-01 -5.557915195822715759e-02 -1.715257391333580017e-02 -4.865584149956703186e-02 1.298502534627914429e-01 -7.166893780231475830e-02 5.536548793315887451e-03 -1.843399368226528168e-02 -6.166942790150642395e-02 9.634758345782756805e-03 -4.017353802919387817e-02 -3.446760773658752441e-02 -2.412238344550132751e-02 -9.440080821514129639e-02 4.180458188056945801e-02 -3.164385259151458740e-02 -9.427411854267120361e-02 -1.250751782208681107e-02 8.157460391521453857e-02 -9.831978008151054382e-03 -1.328198798000812531e-02 -8.105895668268203735e-02 -3.436864912509918213e-02 -4.203105717897415161e-02 -1.794280670583248138e-02 -1.366433054208755493e-01 -1.418430637568235397e-02 -2.609619498252868652e-02 4.564773291349411011e-02 3.587371483445167542e-02 -1.101381778717041016e-01 1.717494279146194458e-01 1.085749920457601547e-02 2.332292310893535614e-02 4.651144519448280334e-02 -2.668237127363681793e-02 -6.841513514518737793e-02 1.153057590126991272e-01 2.457629889249801636e-02 -1.011721268296241760e-01 6.823492795228958130e-02 -4.343113303184509277e-02 -7.119236397556960583e-04 -4.229806363582611084e-03 -2.848535217344760895e-02 1.878106035292148590e-02 1.175956428050994873e-02 -6.938972324132919312e-02 -2.336810715496540070e-02 -9.342300146818161011e-02 1.281228195875883102e-02
1.069132983684539795e-01 -5.017914995551109314e-02 -1.771342940628528595e-02 2.003714069724082947e-02 -1.497133821249008179e-02 -7.876028865575790405e-02 -1.076643634587526321e-02 -6.691005080938339233e-02 1.774640381336212158e-02 2.004693262279033661e-02 -1.973765529692173004e-02 -6.174504756927490234e-02 2.238822542130947113e-02 5.270178988575935364e-02 4.144876077771186829e-02 -5.168738961219787598e-02 -3.870189189910888672e-02 -6.899610906839370728e-02 5.884819477796554565e-02 -5.162834748625755310e-02 -4.318282380700111389e-02 7.035861909389495850e-02 5.760212987661361694e-02 -4.760280996561050415e-02 5.559038743376731873e-02 3.941742703318595886e-02 7.179262489080429077e-02 5.032709613442420959e-02 1.046258676797151566e-02 1.524518989026546478e-02 -1.409399230033159256e-02 -8.209753781557083130e-02 3.444924950599670410e-02 -6.580971926450729370e-02 3.498091548681259155e-02 -8.165407925844192505e-03 -9.614708833396434784e-03 -5.885380879044532776e-02 -1.098255664110183716e-01 7.820482365787029266e-03 -1.129841208457946777e-01 7.027140259742736816e-02 -4.689683765172958374e-02 3.934855386614799500e-02 3.785687685012817383e-02 6.455870717763900757e-02 -3.620731830596923828e-02 -3.543579205870628357e-02 1.038766428828239441e-01 1.588563621044158936e-02 -5.073900893330574036e-02 -5.095709115266799927e-02 -1.101627480238676071e-02 2.374999038875102997e-02 8.385632187128067017e-02 2.113749086856842041e-02 -4.793452844023704529e-02 1.425836235284805298e-01 7.017920166254043579e-02 -1.165206134319305420e-01 -4.659941792488098145e-02 3.478568419814109802e-02 8.814406394958496094e-02 8.241698890924453735e-02 -1.270942483097314835e-02 -6.943119224160909653e-03 -5.007592961192131042e-02 -1.146616134792566299e-02 -2.300141006708145142e-02 4.317953065037727356e-02 -6.233848631381988525e-02 -6.311671435832977295e-02 4.132894799113273621e-02 -1.966125704348087311e-02 1.165009513497352600e-01 -1.323783653788268566e-03 -5.556393042206764221e-02 -1.110958680510520935e-01 -3.843533247709274292e-02 1.958896778523921967e-02 3.758394345641136169e-02 9.225200116634368896e-02 4.115032032132148743e-02 -9.350505471229553223e-02 1.321392320096492767e-02 1.562722921371459961e-01 8.291629143059253693e-03 -8.734174072742462158e-02 1.096972376108169556e-01 7.722729444503784180e-02 2.744972892105579376e-02 3.372246026992797852e-02 -2.020582370460033417e-02 9.811440110206604004e-02 5.413617938756942749e-02 4.020914062857627869e-02 4.996453411877155304e-03 7.394264638423919678e-02 -3.925688099116086960e-03 -3.668660530820488930e-03 6.676681339740753174e-02 1.036921963095664978e-01 -3.923099488019943237e-02 3.801472857594490051e-02 5.427448078989982605e-02 8.858742192387580872e-03 -1.466076523065567017e-01 -1.560026127845048904e-02 4.333830252289772034e-02 -4.409530758857727051e-02 -6.101416423916816711e-02 -1.273118238896131516e-02 -3.699764236807823181e-02 -1.648852485232055187e-04 -5.680555850267410278e-02 4.164561629295349121e-02 -9.352178126573562622e-02 -2.784229116514325142e-03 -6.303942203521728516e-02 -8.210872858762741089e-02 -2.247246168553829193e-02 5.009485036134719849e-02 4.050666093826293945e-02 -6.111787632107734680e-03 -1.267493609338998795e-02 -1.751436293125152588e-02 -3.009904921054840088e-02 -4.980044066905975342e-02
-4.119800776243209839e-02 -1.165423393249511719e-01 -6.283527612686157227e-02 3.713129088282585144e-02 8.657778054475784302e-02 5.549376457929611206e-02 -1.082536764442920685e-02 -6.004223972558975220e-02 -5.924545601010322571e-02 -3.487100079655647278e-02 -1.100071892142295837e-01 -3.290905803442001343e-02 9.659897536039352417e-02 -2.443871647119522095e-02 4.685022681951522827e-02 8.477672003209590912e-03 -2.193890810012817383e-01 2.049252949655056000e-02 -1.044951602816581726e-01 1.776045858860015869e-01 -4.732163250446319580e-02 -8.419955521821975708e-02 -1.067073047161102295e-01 1.495021209120750427e-02 7.097254693508148193e-02 6.577014178037643433e-02 8.180586248636245728e-02 -4.501384124159812927e-02 1.612657681107521057e-02 7.441706955432891846e-02 -1.006326824426651001e-01 -2.601786330342292786e-02 6.070837378501892090e-02 -1.432690583169460297e-02 4.684206098318099976e-02 9.932903945446014404e-02 2.575675770640373230e-02 -7.824442535638809204e-02 3.124061040580272675e-02 3.400136157870292664e-02 3.603119775652885437e-02 7.823656313121318817e-03 -4.734905436635017395e-03 5.553998053073883057e-02 -1.090195775032043457e-01 1.847237944602966309e-01 -1.622822135686874390e-01 -7.367434445768594742e-03 1.639830507338047028e-02 9.547192603349685669e-02 2.368766255676746368e-02 8.991388231515884399e-02 -6.611076742410659790e-02 -7.951155304908752441e-02 2.487960644066333771e-02 -6.282886117696762085e-02 3.639802336692810059e-02 -8.793804049491882324e-02 6.186748296022415161e-02 6.694528739899396896e-03 -1.059409976005554199e-01 3.147063031792640686e-02 6.157718971371650696e-02 5.363149195909500122e-02 1.215568371117115021e-02 -1.238700374960899353e-02 -4.378375411033630371e-02 1.649216115474700928e-01 -1.922008022665977478e-02 7.097018510103225708e-02 4.995735734701156616e-02 -8.050526678562164307e-02 1.474119350314140320e-02 9.096445143222808838e-02 -2.793214516714215279e-03 -3.329701349139213562e-02 1.481861062347888947e-02 -1.548119932413101196e-01 -4.052054882049560547e-02 -1.362507045269012451e-01 -2.334891073405742645e-02 7.573720067739486694e-02 1.082611307501792908e-01 -4.702802002429962158e-02 -6.452801078557968140e-02 1.066879034042358398e-01 -1.003718599677085876e-01 1.530856080353260040e-02 -2.823306806385517120e-02 -5.112096294760704041e-02 2.727563120424747467e-02 -8.239110931754112244e-03 4.121031984686851501e-02 2.298832172527909279e-03 -2.617799211293458939e-03 2.121777236461639404e-01 3.476365655660629272e-02 1.839765310287475586e-01 -3.428180515766143799e-02 -2.677234075963497162e-02 -6.578540056943893433e-02 3.931059688329696655e-02 2.389372093603014946e-03 7.784519344568252563e-02 6.989420857280492783e-03 4.199488833546638489e-02 7.051205635070800781e-02 -7.458048313856124878e-02 -4.983808845281600952e-02 -9.171923995018005371e-02 -3.563990816473960876e-02 8.831361681222915649e-02 -2.377253398299217224e-02 5.863326787948608398e-02 -5.003596842288970947e-02 3.500261157751083374e-02 -4.153629764914512634e-02 1.689857095479965210e-01 3.389914706349372864e-02 -5.342473462224006653e-02 6.935182213783264160e-02 3.843244630843400955e-03 -5.168418958783149719e-02 2.688244683668017387e-03 -1.124317571520805359e-01 5.601688846945762634e-02 -1.391869038343429565e-01 -6.969337910413742065e-02
-1.932723447680473328e-02 1.985656917095184326e-01 -9.211932867765426636e-02 -2.142786420881748199e-02 -4.068486765027046204e-02 6.759539991617202759e-02 4.828452691435813904e-02 3.057283535599708557e-02 2.983957156538963318e-02 -5.426745116710662842e-02 -2.054209075868129730e-02 6.393536925315856934e-02 4.466634243726730347e-02 9.853549301624298096e-03 1.750913076102733612e-02 3.069084603339433670e-03 8.308467268943786621e-02 4.657788574695587158e-02 -7.784563302993774414e-02 5.248089879751205444e-02 4.089248180389404297e-02 -1.642700433731079102e-01 -4.320739954710006714e-02 -5.282804369926452637e-02 7.960713654756546021e-02 2.233680710196495056e-02 4.635059460997581482e-02 -3.080787882208824158e-02 7.101538777351379395e-02 -7.488022744655609131e-02 -3.410118073225021362e-02 -4.524576943367719650e-03 4.021232482045888901e-03 1.618266664445400238e-02 2.925550099462270737e-03 1.970624923706054688e-02 -5.518982186913490295e-02 -6.361415237188339233e-02 -7.517480850219726562e-02 -1.426152139902114868e-02 -3.663214854896068573e-03 1.334733068943023682e-01 -1.070502102375030518e-01 1.027353182435035706e-01 -4.221989307552576065e-03 -3.042026795446872711e-02 -1.044305600225925446e-02 -4.113151505589485168e-02 1.237980462610721588e-02 8.100071549415588379e-02 -1.248340532183647156e-01 -3.615700826048851013e-02 -1.262197829782962799e-02 2.362955361604690552e-02 -2.470226259902119637e-03 -4.231178015470504761e-02 7.627314329147338867e-02 -1.664405874907970428e-02 -2.775018475949764252e-02 1.069282740354537964e-01 -1.496771536767482758e-02 -4.641356412321329117e-03 -7.590112276375293732e-03 -1.209950000047683716e-01 -2.332608029246330261e-02 4.830456897616386414e-02 -1.899340189993381500e-02 2.824552915990352631e-02 8.074242621660232544e-02 -5.053859949111938477e-02 6.635941565036773682e-02 -1.277846563607454300e-02 6.739173829555511475e-02 -9.977392107248306274e-02 -5.172596778720617294e-03 -5.579611752182245255e-03 6.075209006667137146e-02 1.861303672194480896e-02 1.774054951965808868e-02 -5.909534171223640442e-02 1.962991431355476379e-03 2.947312593460083008e-02 9.030418843030929565e-02 1.118221227079629898e-02 -5.297666415572166443e-02 4.793650284409523010e-02 -3.563883900642395020e-02 -9.168679267168045044e-02 -6.229249387979507446e-02 -1.294211596250534058e-01 -5.007297173142433167e-02 1.759809814393520355e-02 1.303905621170997620e-02 4.038589447736740112e-02 -2.037643641233444214e-02 8.780406415462493896e-02 3.389185294508934021e-02 -6.957826763391494751e-02 -5.229523405432701111e-02 -1.733239553868770599e-02 1.024589501321315765e-02 1.418184209614992142e-02 1.843387843109667301e-03 3.994467481970787048e-02 -5.405859649181365967e-02 -9.560886025428771973e-02 9.526192396879196167e-02 9.902949444949626923e-03 -2.049263939261436462e-02 3.679347783327102661e-02 2.007068842649459839e-01 9.201721101999282837e-02 -4.229538142681121826e-02 -6.534427870064973831e-03 3.888527676463127136e-02 1.294904351234436035e-01 -1.324534974992275238e-02 -1.095850318670272827e-01 1.768700592219829559e-02 -3.838791325688362122e-02 -1.573957502841949463e-01 9.003853052854537964e-02 4.162880405783653259e-02 -7.899510860443115234e-02 5.231659859418869019e-02 -2.304701320827007294e-02 1.363225281238555908e-01 -3.962926566600799561e-02
4.702512919902801514e-02 -2.938776277005672455e-02 -3.868111595511436462e-02 -1.711725629866123199e-02 -1.393175125122070312e-02 4.840410128235816956e-02 -4.336240887641906738e-02 8.508269488811492920e-02 1.787533547030761838e-04 4.458088055253028870e-02 2.435867674648761749e-02 2.557484246790409088e-02 -1.142135411500930786e-01 -3.783584386110305786e-02 -1.030290424823760986e-01 4.190753400325775146e-02 -3.603458404541015625e-02 -6.942462176084518433e-02 -6.872880458831787109e-02 -8.316204696893692017e-02 -3.472210839390754700e-02 -4.949086904525756836e-02 -2.329423464834690094e-02 -1.260894536972045898e-02 5.041860044002532959e-02 2.063430286943912506e-02 1.219625100493431091e-01 1.312029082328081131e-03 -2.825751900672912598e-02 6.556231994181871414e-03 -3.108058124780654907e-02 3.325860202312469482e-02 -2.299465611577033997e-02 9.248680435121059418e-03 7.161565590649843216e-03 6.485354155302047729e-02 1.633012294769287109e-02 -7.840507477521896362e-02 -9.790605865418910980e-03 9.005136042833328247e-02 2.158446982502937317e-02 8.598461747169494629e-02 -8.245607465505599976e-02 -5.496544018387794495e-02 7.042726874351501465e-02 1.749397255480289459e-02 -1.429595798254013062e-01 -6.683829426765441895e-02 -3.553639398887753487e-03 -3.852559998631477356e-02 5.762868747115135193e-02 -2.746714977547526360e-03 2.912552468478679657e-02 4.994972795248031616e-02 -2.129692956805229187e-02 2.592555945739150047e-03 -5.834001302719116211e-02 -1.158182770013809204e-01 1.238182336091995239e-01 2.121228724718093872e-02 -2.629265747964382172e-02 -3.943879622966051102e-03 4.418268799781799316e-02 -4.910906404256820679e-02 -1.539476215839385986e-02 -4.236721992492675781e-02 -2.443977817893028259e-02 5.897712707519531250e-02 -5.730817466974258423e-02 2.766749821603298187e-03 7.347847800701856613e-03 7.767100632190704346e-02 1.026358529925346375e-01 5.439794808626174927e-02 -4.870302230119705200e-02 -1.091799326241016388e-02 3.067002864554524422e-03 5.852610990405082703e-02 -9.402122348546981812e-03 6.217733025550842285e-02 8.476278744637966156e-03 3.870364651083946228e-02 -8.395339548587799072e-02 -2.084248512983322144e-02 -5.024465546011924744e-02 -6.561298668384552002e-02 5.623394623398780823e-02 4.094922449439764023e-03 4.220023751258850098e-02 3.151476755738258362e-02 3.586139529943466187e-02 2.228196896612644196e-02 7.572527974843978882e-04 2.434933558106422424e-02 -4.521703347563743591e-02 1.364496164023876190e-02 4.485918581485748291e-02 -5.652970820665359497e-02 -4.044427722692489624e-02 -3.358370438218116760e-02 3.728473559021949768e-02 -2.565827593207359314e-02 4.376974888145923615e-03 -5.743408203125000000e-02 -4.282302036881446838e-02 -8.136205375194549561e-02 -3.449513018131256104e-02 7.730901241302490234e-02 7.499675452709197998e-02 5.221928283572196960e-02 4.932891204953193665e-02 2.871263213455677032e-02 4.014781862497329712e-02 -1.128623820841312408e-02 -4.660294204950332642e-02 -9.740835987031459808e-03 3.042166866362094879e-02 4.128260165452957153e-02 -3.806895017623901367e-02 3.614894300699234009e-02 -1.304914988577365875e-02 7.004855573177337646e-02 -1.824129931628704071e-02 8.210533112287521362e-02 1.176995597779750824e-02 -4.543344676494598389e-02 -6.061825901269912720e-02 8.678070455789566040e-02
-6.363401561975479126e-02 -3.833560273051261902e-02 -9.140819311141967773e-03 1.027407050132751465e-01 -1.302307546138763428e-01 8.219075202941894531e-02 -4.818764328956604004e-02 3.351308405399322510e-02 3.208887949585914612e-02 1.222442556172609329e-02 2.334961295127868652e-02 -8.256273716688156128e-02 5.169153586030006409e-02 2.456380520015954971e-03 -9.157676249742507935e-02 2.680804394185543060e-02 9.222684800624847412e-02 8.484856225550174713e-03 6.154528260231018066e-02 -2.916551753878593445e-02 6.231936067342758179e-02 -2.140651643276214600e-02 4.644669592380523682e-03 -1.253320425748825073e-01 8.865673094987869263e-03 1.382637582719326019e-02 5.098683759570121765e-02 1.095947809517383575e-02 7.234570384025573730e-02 -3.815016895532608032e-02 8.791901171207427979e-02 -5.691439844667911530e-03 -5.348310992121696472e-02 3.650454431772232056e-02 -1.138856168836355209e-02 2.869367413222789764e-02 9.521616250276565552e-02 -1.173210889101028442e-02 -3.050082549452781677e-02 9.732685983180999756e-02 -2.306814491748809814e-02 -1.407086104154586792e-01 -7.740366458892822266e-02 3.105954080820083618e-02 3.197079896926879883e-02 6.160108372569084167e-02 -5.177996680140495300e-02 3.516717627644538879e-02 -9.810717776417732239e-03 -3.936782106757164001e-02 -2.117626182734966278e-02 -1.317219138145446777e-01 1.495435554534196854e-02 -9.522409737110137939e-02 -2.653309702873229980e-02 8.077234029769897461e-02 -4.561467468738555908e-02 -4.864925891160964966e-02 6.651629507541656494e-02 -2.331995964050292969e-02 -2.439122460782527924e-02 5.402734503149986267e-02 4.373450204730033875e-02 -9.953935444355010986e-02 3.610695153474807739e-02 4.658794496208429337e-03 3.762863948941230774e-02 -2.708713337779045105e-02 -7.560958713293075562e-02 -1.941267214715480804e-02 1.454484090209007263e-02 -5.945022404193878174e-02 1.543368846178054810e-01 -4.089109972119331360e-02 5.896319821476936340e-02 -8.476201444864273071e-02 3.876902908086776733e-02 9.023405611515045166e-02 1.071998625993728638e-01 3.188360854983329773e-02 5.446002632379531860e-02 4.485579207539558411e-02 3.813974559307098389e-02 -2.705321414396166801e-03 -4.960167780518531799e-02 -3.508742153644561768e-02 -1.007573306560516357e-01 4.347187001258134842e-03 2.165317162871360779e-02 -9.289033710956573486e-02 -8.175586909055709839e-02 -7.713350933045148849e-03 -4.116212204098701477e-02 9.136449545621871948e-02 -9.669836610555648804e-02 3.176093101501464844e-02 -2.100731059908866882e-02 -2.102841436862945557e-02 -2.604535780847072601e-02 -4.209306556731462479e-03 1.254232786595821381e-02 6.750335544347763062e-02 -1.586594991385936737e-02 -9.616316854953765869e-02 -1.146150007843971252e-01 -3.556970879435539246e-02 9.875640273094177246e-03 -5.139538273215293884e-02 3.278283402323722839e-02 -4.217537492513656616e-02 -1.015940494835376740e-02 -4.006114602088928223e-02 4.018802568316459656e-02 1.953876763582229614e-02 5.363430455327033997e-02 7.223369926214218140e-02 8.493724465370178223e-02 -9.024960547685623169e-02 -6.503697484731674194e-02 -7.136359810829162598e-03 2.321973256766796112e-02 2.816455624997615814e-02 -1.766080036759376526e-02 -2.432620897889137268e-02 1.848490536212921143e-02 -3.324220888316631317e-03 -3.616020083427429199e-02 -1.984855718910694122e-02
6.037426739931106567e-02 9.888255037367343903e-03 7.794750481843948364e-02 4.815839231014251709e-02 7.567597180604934692e-02 2.760492637753486633e-02 -1.116647049784660339e-01 5.368292704224586487e-02 7.626974582672119141e-02 1.047183498740196228e-01 -1.274342089891433716e-01 -3.593915328383445740e-02 -2.871416881680488586e-02 1.134417876601219177e-01 2.656042948365211487e-02 5.141221731901168823e-02 4.943335428833961487e-02 7.720154710114002228e-03 -2.717176638543605804e-02 3.323536738753318787e-02 1.203366294503211975e-01 -1.521858721971511841e-01 -3.839286742731928825e-03 1.922050863504409790e-02 6.108742207288742065e-02 -7.379058748483657837e-02 -1.310409884899854660e-02 -2.639558725059032440e-02 -5.184219405055046082e-02 -8.029974997043609619e-02 -5.770070478320121765e-02 -1.277290135622024536e-01 5.001528188586235046e-02 9.552785009145736694e-02 4.319659783504903316e-04 -1.023691967129707336e-01 -2.253461163491010666e-03 -9.523615986108779907e-02 -1.526231039315462112e-02 -7.668263465166091919e-02 -1.311718137003481388e-03 1.322396472096443176e-02 3.868692740797996521e-02 -1.869740709662437439e-02 -3.456574631854891777e-03 6.875817477703094482e-02 -1.117990911006927490e-01 -8.276618900708854198e-04 -4.364567995071411133e-02 1.886437647044658661e-02 6.023928150534629822e-02 4.909618943929672241e-02 -3.565312922000885010e-02 5.122748389840126038e-02 4.137600213289260864e-02 -8.792831748723983765e-02 2.853408688679337502e-03 1.106267794966697693e-01 5.390492267906665802e-03 9.188995510339736938e-02 3.769079223275184631e-02 6.386368721723556519e-02 6.622162461280822754e-02 2.542939037084579468e-02 -4.522345960140228271e-02 6.858125794678926468e-03 -8.275056630373001099e-02 -8.352453820407390594e-03 -4.735906422138214111e-02 2.625238709151744843e-02 4.614780470728874207e-02 1.336830202490091324e-02 1.059685349464416504e-01 9.484384208917617798e-02 1.116088628768920898e-01 -4.105831682682037354e-02 1.782997399568557739e-01 3.244701400399208069e-02 -1.579247973859310150e-02 5.357815884053707123e-03 1.175045594573020935e-02 1.106595247983932495e-02 4.285754263401031494e-02 1.127946898341178894e-01 6.305500119924545288e-02 8.176956325769424438e-02 -1.691531762480735779e-02 -1.015531420707702637e-01 8.869739621877670288e-02 1.513287704437971115e-02 -1.449069529771804810e-01 8.308792114257812500e-02 -5.416056886315345764e-02 -7.614601403474807739e-03 -1.704820059239864349e-02 -9.939089417457580566e-02 -8.427374064922332764e-03 -7.979928702116012573e-02 3.399326279759407043e-02 -9.404803812503814697e-02 -7.922756671905517578e-02 -2.959718741476535797e-02 -3.949411213397979736e-02 1.016443893313407898e-01 6.179866194725036621e-02 -8.072434365749359131e-02 -9.983893483877182007e-03 -3.884853795170783997e-02 5.135902017354965210e-02 6.649705767631530762e-02 1.895317994058132172e-02 8.982238941825926304e-04 -9.423677809536457062e-03 -7.913608103990554810e-02 3.254535049200057983e-02 5.179380998015403748e-02 -6.779617071151733398e-02 6.289615482091903687e-02 1.190557517111301422e-02 -1.709046810865402222e-01 -1.055974140763282776e-01 -2.277492545545101166e-02 -3.966555371880531311e-02 -4.268996044993400574e-02 3.875454515218734741e-02 -4.281266406178474426e-02 2.660006843507289886e-02 -3.528798371553421021e-02
2.000836189836263657e-03 1.919137239456176758e-01 5.085632670670747757e-03 -9.981882758438587189e-03 -1.855868473649024963e-02 -1.149560585618019104e-01 -9.750177152454853058e-03 -1.223263982683420181e-02 -4.970123246312141418e-02 1.161819323897361755e-01 -9.687625616788864136e-02 7.145599275827407837e-02 8.207374252378940582e-03 1.085773408412933350e-01 -5.274733155965805054e-02 -3.798172250390052795e-02 -1.721329800784587860e-02 -2.597207762300968170e-02 9.773313254117965698e-02 -5.508702248334884644e-02 2.175690606236457825e-02 -8.684271574020385742e-02 -6.346694380044937134e-02 4.108333960175514221e-02 1.170236840844154358e-01 -1.953765004873275757e-02 -4.992788285017013550e-02 -3.980264067649841309e-02 1.139451041817665100e-01 1.276940759271383286e-02 2.544105518609285355e-03 -1.651683449745178223e-01 -1.708557456731796265e-02 -1.297487877309322357e-02 8.346641808748245239e-02 -1.466497778892517090e-02 1.535705924034118652e-01 -1.466492377221584320e-02 1.451383903622627258e-02 2.050233073532581329e-02 1.908969948999583721e-03 -7.102746516466140747e-02 5.403707735240459442e-03 4.656137153506278992e-02 -2.135339379310607910e-02 1.912959367036819458e-01 2.798357978463172913e-02 -8.376256376504898071e-02 2.565048076212406158e-02 -4.816949740052223206e-02 -1.262243539094924927e-01 -1.583990268409252167e-02 -6.025433912873268127e-02 5.389411002397537231e-02 8.863696455955505371e-02 2.062836289405822754e-02 1.251603513956069946e-01 -7.930220663547515869e-02 6.004011631011962891e-02 -4.180046543478965759e-02 1.710194349288940430e-02 -4.610900580883026123e-02 -1.023354008793830872e-01 7.541117072105407715e-02 -7.447296380996704102e-02 1.062423363327980042e-01 5.830749124288558960e-02 -1.007550861686468124e-02 -5.925684049725532532e-02 2.140583284199237823e-02 4.075129330158233643e-02 -2.421571128070354462e-02 4.366499930620193481e-02 -1.012691631913185120e-01 1.378917880356311798e-02 4.165974631905555725e-02 7.699223607778549194e-02 -2.111735753715038300e-02 9.926907718181610107e-02 -1.001851335167884827e-01 1.027178112417459488e-02 1.307190656661987305e-01 2.009469317272305489e-03 -3.514839708805084229e-02 1.624900847673416138e-02 -8.555829524993896484e-02 -4.568631947040557861e-02 2.027314715087413788e-02 -1.839415356516838074e-02 -6.407231837511062622e-02 -7.809197157621383667e-02 3.765344247221946716e-02 -1.513317078351974487e-01 4.066277667880058289e-02 -2.158619277179241180e-02 1.655912213027477264e-02 2.547986619174480438e-02 2.105960249900817871e-02 -1.295533031225204468e-01 8.673847466707229614e-02 -1.213758718222379684e-02 6.970241665840148926e-02 -5.241470783948898315e-02 4.966296255588531494e-02 7.656926661729812622e-02 -2.293726429343223572e-02 -3.732846584171056747e-03 -1.224560514092445374e-01 -2.492096833884716034e-02 -3.187346085906028748e-02 7.010589540004730225e-02 -3.121584095060825348e-02 -2.590782009065151215e-02 -4.728929325938224792e-02 2.330233342945575714e-02 2.938314527273178101e-02 -4.201946407556533813e-02 9.342186897993087769e-02 2.598441764712333679e-02 3.206966817378997803e-02 -1.116155683994293213e-01 -2.456050179898738861e-02 -7.158040255308151245e-02 -8.819421380758285522e-02 2.835160307586193085e-02 9.868041425943374634e-02 1.006287857890129089e-01 -1.379581866785883904e-03
9.016469866037368774e-02 1.159436404705047607e-01 -6.075496599078178406e-02 -8.301388472318649292e-02 1.169623062014579773e-01 -4.872811213135719299e-02 -5.334501713514328003e-02 -5.194175988435745239e-02 3.979514166712760925e-02 1.940881647169589996e-02 -9.132144041359424591e-04 4.591739922761917114e-02 -1.709409058094024658e-02 8.327405154705047607e-02 -3.374203294515609741e-02 -8.810593187808990479e-02 -2.498125843703746796e-02 -1.049991920590400696e-01 1.708267442882061005e-02 -2.562397718429565430e-02 3.600634634494781494e-02 -8.132337033748626709e-02 -2.340115170227363706e-04 -4.857651516795158386e-02 7.417479157447814941e-02 -6.705699954181909561e-03 3.794074803590774536e-02 -4.458443447947502136e-02 2.531123720109462738e-02 -3.257760405540466309e-02 3.472802694886922836e-03 -3.880468662828207016e-03 1.882692724466323853e-01 -3.793417289853096008e-02 7.637227419763803482e-03 5.886913463473320007e-02 1.156213209033012390e-01 1.224243268370628357e-01 -9.811005741357803345e-02 -1.899929344654083252e-02 -4.346845671534538269e-03 1.642113924026489258e-01 -1.200971528887748718e-01 -5.862729251384735107e-02 -6.903126835823059082e-02 -4.813138768076896667e-02 -9.002605825662612915e-02 -9.962505847215652466e-02 1.360073685646057129e-01 3.023405000567436218e-02 -6.341422349214553833e-02 -2.634422294795513153e-02 -2.404493279755115509e-02 -1.104773357510566711e-01 1.195683479309082031e-01 -1.568067446351051331e-02 9.434130042791366577e-02 5.184574797749519348e-02 3.627865761518478394e-02 6.523746997117996216e-02 1.680308580398559570e-02 -7.278958708047866821e-02 5.941189453005790710e-02 -1.012285053730010986e-02 -1.862194947898387909e-02 -4.122363030910491943e-02 -3.431822359561920166e-02 1.298602204769849777e-03 9.233625978231430054e-02 -3.122692927718162537e-02 5.847110878676176071e-03 3.255082294344902039e-02 6.114462763071060181e-02 -5.109700188040733337e-02 -3.575843200087547302e-02 -5.353115499019622803e-03 7.698008790612220764e-03 -1.575474813580513000e-02 -1.069902032613754272e-01 9.329759515821933746e-03 -7.652079220861196518e-03 5.177482962608337402e-02 3.585573285818099976e-02 4.965227097272872925e-02 2.755689248442649841e-02 -1.476107910275459290e-02 5.070491135120391846e-02 -2.417983487248420715e-03 5.057353153824806213e-02 -1.009978353977203369e-01 -1.169583126902580261e-01 -1.626545339822769165e-01 -8.079721778631210327e-02 3.292897250503301620e-03 -8.108501881361007690e-02 2.795701846480369568e-02 7.540336251258850098e-02 2.177263051271438599e-02 -7.388047128915786743e-02 4.200227186083793640e-02 -3.672209754586219788e-02 -3.133394056931138039e-03 7.907040417194366455e-02 2.502306830137968063e-03 1.639199703931808472e-01 -8.342874050140380859e-02 -7.925539463758468628e-02 -1.722938939929008484e-02 1.625725030899047852e-01 -3.896957263350486755e-02 1.436322182416915894e-01 2.414092049002647400e-02 5.334725975990295410e-02 -3.895529732108116150e-02 -4.124267399311065674e-02 4.240648820996284485e-02 -2.536716498434543610e-02 3.415867313742637634e-02 4.424640908837318420e-02 3.519251942634582520e-02 -7.479470223188400269e-02 6.250026822090148926e-02 -3.429267555475234985e-02 -5.129487812519073486e-02 1.011457387357950211e-02 -1.306411530822515488e-02 9.798898547887802124e-02 2.202927879989147186e-02
8.406190574169158936e-02 -6.532771885395050049e-02 -2.542894147336483002e-02 1.525789406150579453e-02 -6.763692945241928101e-02 7.369929552078247070e-02 -4.262212663888931274e-02 -2.747520059347152710e-02 3.681821376085281372e-02 2.201178483664989471e-02 4.777858033776283264e-02 -3.029998578131198883e-02 -8.931021392345428467e-02 -7.244166731834411621e-02 -1.273854821920394897e-01 -1.351105235517024994e-02 -2.928910031914710999e-02 -2.398376911878585815e-02 -7.494606077671051025e-02 2.208269946277141571e-02 4.055763408541679382e-02 -2.952156402170658112e-02 -1.095410883426666260e-01 4.808353260159492493e-03 6.496863812208175659e-02 3.073201328516006470e-02 3.513262793421745300e-02 2.756905183196067810e-02 6.248539313673973083e-02 2.079256065189838409e-02 4.881668835878372192e-02 6.322044134140014648e-02 -7.150814868509769440e-03 1.366509199142456055e-01 -9.020099416375160217e-03 6.077104434370994568e-02 2.705996856093406677e-02 -4.349275678396224976e-02 -1.924315281212329865e-02 1.174452006816864014e-01 -6.045293807983398438e-02 -7.600320875644683838e-02 -2.946702530607581139e-03 -8.951899409294128418e-02 -2.056132815778255463e-02 -1.447468716651201248e-02 -2.768931724131107330e-02 2.058716118335723877e-02 -1.115293502807617188e-01 2.374383993446826935e-02 -1.050511840730905533e-02 3.589741140604019165e-02 1.338818762451410294e-02 -3.033496439456939697e-02 -1.171263027936220169e-02 2.202209085226058960e-03 2.121039479970932007e-02 6.105677690356969833e-03 1.460047625005245209e-02 3.975159674882888794e-02 -4.419170692563056946e-02 4.896882548928260803e-02 -4.865427315235137939e-02 7.136126980185508728e-03 2.136470749974250793e-02 8.824228495359420776e-02 -4.873334616422653198e-02 5.456984043121337891e-02 -4.550938308238983154e-02 9.070098400115966797e-02 -1.300993096083402634e-02 -4.016391932964324951e-02 7.936133444309234619e-02 4.103673249483108521e-02 -7.200948894023895264e-02 -1.057385187596082687e-02 -3.320838324725627899e-03 -5.209733173251152039e-02 6.650931388139724731e-02 -1.009826199151575565e-03 3.220929205417633057e-02 -1.571661420166492462e-02 3.162811975926160812e-03 4.205358773469924927e-02 -1.592105440795421600e-02 3.066017851233482361e-02 -7.496894896030426025e-02 -7.497238367795944214e-02 8.727354556322097778e-02 -3.009049035608768463e-02 -1.209700480103492737e-03 5.788978189229965210e-03 -8.073629438877105713e-02 -4.651891067624092102e-02 -5.267250165343284607e-02 -5.860670283436775208e-02 1.236926391720771790e-01 -7.036773487925529480e-03 -2.014822512865066528e-02 -1.315852254629135132e-02 3.895988315343856812e-02 1.975638978183269501e-02 -2.852439414709806442e-03 -6.855256855487823486e-02 -2.244598045945167542e-02 2.302674017846584320e-02 1.703555509448051453e-02 3.476083651185035706e-02 -1.753037050366401672e-02 3.058935329318046570e-02 -6.432744860649108887e-02 3.523408249020576477e-02 -3.862965852022171021e-02 -8.150012232363224030e-03 8.206015080213546753e-02 3.227035701274871826e-02 5.672748759388923645e-02 -3.702791407704353333e-03 1.044291164726018906e-02 5.812646448612213135e-02 4.767401516437530518e-02 -3.815336897969245911e-02 -5.947139579802751541e-03 5.803005024790763855e-02 -2.546163089573383331e-02 3.768734633922576904e-02 -9.553105384111404419e-02 8.546060323715209961e-02
-5.666547268629074097e-02 2.602554298937320709e-02 -4.735103994607925415e-02 -1.272352505475282669e-02 6.882840394973754883e-02 5.212501809000968933e-02 6.016026809811592102e-02 -1.992717385292053223e-02 7.345599681138992310e-02 1.649025268852710724e-02 -6.489543616771697998e-02 -8.425457403063774109e-03 -1.202498283237218857e-02 2.906969003379344940e-02 -8.593556284904479980e-02 -7.443875074386596680e-03 2.838752046227455139e-02 1.763435662724077702e-03 -2.763706631958484650e-02 9.174201637506484985e-02 1.046518050134181976e-02 -4.955551400780677795e-02 7.774210721254348755e-02 -8.456119894981384277e-02 6.215079128742218018e-02 4.990628361701965332e-02 4.869941622018814087e-02 6.655985862016677856e-02 -7.954011112451553345e-02 -1.674344576895236969e-02 -2.159461192786693573e-02 3.544117137789726257e-02 -4.039046913385391235e-02 7.672321051359176636e-02 -5.323058739304542542e-02 1.131218373775482178e-01 -4.766611382365226746e-03 -1.160016581416130066e-01 6.234891247004270554e-03 3.175203874707221985e-02 -1.574388295412063599e-01 1.274379193782806396e-01 -6.171726156026124954e-03 -5.019436776638031006e-02 2.543688286095857620e-03 2.587003819644451141e-02 1.646973565220832825e-02 1.113148853182792664e-01 1.293817907571792603e-01 5.533363670110702515e-02 -3.642027080059051514e-02 -5.286132916808128357e-02 5.212835967540740967e-03 -2.921956032514572144e-02 -5.121047422289848328e-02 -3.911411762237548828e-02 1.218695100396871567e-02 8.188767358660697937e-03 1.491635921411216259e-03 2.716630324721336365e-02 -1.092925202101469040e-02 5.140263214707374573e-02 2.129874378442764282e-02 -7.055737078189849854e-02 -1.318655759096145630e-01 -2.541283331811428070e-02 -5.178909376263618469e-02 3.067041002213954926e-02 -3.559549152851104736e-02 3.126937896013259888e-02 -2.735951356589794159e-02 -3.530836477875709534e-02 -3.302628919482231140e-02 2.688743406906723976e-03 -4.291247576475143433e-03 -1.295242309570312500e-01 1.064208745956420898e-01 -3.016794286668300629e-02 -5.476193502545356750e-03 5.579896736890077591e-03 6.331984698772430420e-02 -7.428528275340795517e-03 7.299254089593887329e-02 -4.414083901792764664e-03 -6.206193566322326660e-02 1.848810701631009579e-03 -8.669505268335342407e-02 -1.583254523575305939e-02 -1.159747764468193054e-01 -3.862782195210456848e-02 8.415278047323226929e-02 4.775070399045944214e-02 -9.408383071422576904e-02 -1.166923269629478455e-01 7.585952698718756437e-05 1.652050614356994629e-01 7.430051267147064209e-02 1.525160204619169235e-02 1.933927647769451141e-02 4.456347669474780560e-04 -4.151062294840812683e-02 1.207039505243301392e-01 -1.057549007236957550e-02 6.110534444451332092e-02 -5.194141343235969543e-02 9.915594756603240967e-02 -3.008563071489334106e-02 3.899317607283592224e-02 -4.546591080725193024e-03 -9.798857569694519043e-02 8.766050636768341064e-02 5.522951111197471619e-02 -2.217758260667324066e-02 -1.097644343972206116e-01 1.025827229022979736e-01 2.384046278893947601e-02 -1.146769151091575623e-01 9.392615407705307007e-02 -3.637180477380752563e-02 -5.052369460463523865e-02 -9.958681464195251465e-02 7.558675017207860947e-03 7.545397430658340454e-02 -1.096935197710990906e-01 -2.899163588881492615e-02 -1.882385276257991791e-02 4.609212744981050491e-03 -7.280180603265762329e-02
8.209460973739624023e-02 -1.968215778470039368e-02 -1.478097867220640182e-02 6.764756399206817150e-04 8.868489414453506470e-02 4.239077493548393250e-02 2.665007673203945160e-02 7.471913471817970276e-03 -1.265396028757095337e-01 -3.144313022494316101e-02 -6.265997886657714844e-02 3.864559531211853027e-02 -5.781925097107887268e-02 6.464424729347229004e-02 9.878881275653839111e-03 4.884587973356246948e-02 -1.202042680233716965e-02 -1.719077527523040771e-01 -3.691049665212631226e-02 -6.940822582691907883e-03 6.206825491972267628e-04 -1.978068612515926361e-03 -1.406424939632415771e-01 -9.635059535503387451e-02 -6.993066519498825073e-02 -4.354717582464218140e-02 2.706836676225066185e-03 -5.650274455547332764e-02 -8.137731254100799561e-02 1.257831752300262451e-01 7.523930398747324944e-04 -1.517453193664550781e-01 5.706397444009780884e-02 2.325394749641418457e-02 3.111228533089160919e-02 4.778272286057472229e-02 -4.525434970855712891e-02 -1.815244439058005810e-03 -8.811483532190322876e-02 5.497993901371955872e-02 -2.124417759478092194e-02 8.450231701135635376e-02 -2.685281680896878242e-03 -8.778110891580581665e-02 -2.577441558241844177e-02 -4.195648070890456438e-04 2.936543338000774384e-02 -1.671954430639743805e-02 5.547343567013740540e-02 -3.302749618887901306e-02 5.632782727479934692e-02 -1.444707624614238739e-02 -1.581186056137084961e-01 -1.483879536390304565e-01 -8.091062307357788086e-02 -6.433882750570774078e-03 1.049127131700515747e-01 5.857268348336219788e-02 5.136663839221000671e-02 9.553896635770797729e-02 -5.296054761856794357e-03 2.053270116448402405e-02 -1.409032195806503296e-01 -1.486899331212043762e-02 -7.651024311780929565e-02 2.584631741046905518e-02 -9.333118051290512085e-02 2.310165762901306152e-02 -3.802919387817382812e-02 9.428232908248901367e-02 4.906053096055984497e-02 -1.715468429028987885e-02 9.635069221258163452e-02 -1.596270650625228882e-01 6.434579193592071533e-02 4.288239777088165283e-02 1.408036705106496811e-02 2.622086741030216217e-02 8.278570137917995453e-03 7.427950622513890266e-04 -1.804415509104728699e-02 1.918699592351913452e-01 -4.074928909540176392e-02 3.586343675851821899e-02 4.606282338500022888e-02 1.302903294563293457e-01 -6.092235818505287170e-02 4.543355107307434082e-02 -4.047242924571037292e-02 2.092407271265983582e-02 9.960322082042694092e-02 4.563223943114280701e-02 -2.923293039202690125e-02 4.217019677162170410e-02 3.023251891136169434e-02 8.758684992790222168e-02 -1.261669024825096130e-02 1.577707082033157349e-01 -1.137561053037643433e-01 9.461446106433868408e-02 1.790730468928813934e-02 4.122589901089668274e-02 -1.249041706323623657e-01 3.919098153710365295e-02 -6.470315903425216675e-02 -3.542879223823547363e-02 7.378400769084692001e-03 -1.256469637155532837e-01 -1.746759633533656597e-03 -3.383972868323326111e-02 -1.567485369741916656e-02 -2.325880154967308044e-02 3.344784304499626160e-02 6.607601046562194824e-02 1.846027225255966187e-01 4.735489189624786377e-02 -1.412971019744873047e-01 1.440894883126020432e-02 -3.241286054253578186e-02 -1.473591290414333344e-02 -1.243363022804260254e-01 4.329844936728477478e-02 3.296003490686416626e-02 -1.809712685644626617e-02 -2.343080379068851471e-02 5.048774555325508118e-02 -7.336707413196563721e-02 -3.536708652973175049e-02
1.452434509992599487e-01 1.351364701986312866e-02 6.984102725982666016e-02 6.316210329532623291e-02 9.272330254316329956e-02 -2.203709213063120842e-03 -4.445352405309677124e-02 5.084257945418357849e-02 6.585001945495605469e-02 1.091320961713790894e-01 -5.047732964158058167e-02 -5.257054418325424194e-02 -1.230881549417972565e-02 -7.946232706308364868e-02 -6.700152158737182617e-02 -4.980856552720069885e-02 -4.744913429021835327e-02 -1.935558021068572998e-02 -6.715187430381774902e-02 4.218095913529396057e-02 -5.148285534232854843e-03 -4.558775201439857483e-02 9.776459075510501862e-03 -3.134328499436378479e-02 2.002249285578727722e-02 -3.447811678051948547e-02 1.218679547309875488e-02 -1.257462520152330399e-02 -6.386765837669372559e-02 1.695858128368854523e-02 1.752444170415401459e-02 -1.825809478759765625e-02 9.964625537395477295e-02 1.642729528248310089e-02 2.109959907829761505e-02 2.262555062770843506e-02 1.544988155364990234e-02 1.121412590146064758e-02 -7.556287944316864014e-02 3.296312689781188965e-02 1.066355183720588684e-01 -4.246863350272178650e-02 6.515091657638549805e-02 9.355397894978523254e-03 -5.948221310973167419e-02 7.461300492286682129e-02 -1.544818133115768433e-01 1.274744048714637756e-02 -1.076572686433792114e-01 -1.209748983383178711e-01 1.957829147577285767e-01 -9.547998197376728058e-03 2.934029884636402130e-02 -6.412596255540847778e-02 9.970781952142715454e-02 -5.762979388236999512e-02 -3.982619196176528931e-02 -3.165074437856674194e-02 9.251967072486877441e-02 -1.181577593088150024e-01 -6.905090063810348511e-02 4.712339490652084351e-02 8.128175511956214905e-03 -4.073824733495712280e-02 -1.348896771669387817e-01 3.724755346775054932e-02 -1.662780530750751495e-02 1.068519204854965210e-01 -5.538685619831085205e-02 1.278373152017593384e-01 1.074664518237113953e-01 -6.261752545833587646e-02 5.915804952383041382e-02 -1.038383841514587402e-01 1.841253787279129028e-01 7.275012880563735962e-02 7.801937311887741089e-02 -2.112030610442161560e-02 2.049644850194454193e-02 -4.630482196807861328e-02 -6.049088761210441589e-02 4.138948768377304077e-02 4.192048683762550354e-02 -7.436382025480270386e-02 6.460302323102951050e-02 3.842739760875701904e-02 -2.838361542671918869e-03 -1.676335930824279785e-02 -1.356659382581710815e-01 7.315190881490707397e-02 -1.528726071119308472e-01 -4.892814904451370239e-03 -4.788528382778167725e-02 -6.424591690301895142e-02 -8.118251711130142212e-02 1.162788644433021545e-02 8.811401575803756714e-02 -3.256721794605255127e-02 6.679233908653259277e-02 5.916361510753631592e-02 1.090514007955789566e-02 -5.876668542623519897e-02 -3.415931016206741333e-02 1.508514396846294403e-02 2.140619792044162750e-02 -3.614277765154838562e-02 -1.146868243813514709e-02 2.453983388841152191e-02 1.334138214588165283e-01 -6.405757367610931396e-02 -1.696216315031051636e-01 5.810001399368047714e-03 2.871576696634292603e-02 9.794668108224868774e-02 -1.977845653891563416e-02 7.009093463420867920e-02 -9.404956363141536713e-03 1.018915511667728424e-02 1.247178092598915100e-01 4.334826022386550903e-03 -3.791312500834465027e-02 -3.837664425373077393e-02 -3.727729991078376770e-02 -1.165764629840850830e-01 5.145275592803955078e-02 -4.077418521046638489e-02 -8.782085031270980835e-02 -1.977604813873767853e-02
1.010068804025650024e-01 5.049979686737060547e-02 -9.375990927219390869e-02 -4.844090342521667480e-02 2.461460232734680176e-02 -1.154053807258605957e-01 -8.797817677259445190e-02 -3.874563425779342651e-02 -1.144098490476608276e-02 9.577009081840515137e-02 1.478980109095573425e-02 2.453850395977497101e-02 3.283607959747314453e-02 -8.861936628818511963e-02 -1.132715865969657898e-01 -5.180779378861188889e-03 -6.647519301623106003e-03 -1.019790172576904297e-01 -7.788109779357910156e-02 -3.552725538611412048e-02 -2.033936232328414917e-02 9.097553789615631104e-03 5.511355027556419373e-02 3.638148680329322815e-02 2.216810360550880432e-02 -6.470992416143417358e-02 6.140307709574699402e-02 1.267487853765487671e-01 -2.136099338531494141e-02 1.029811128973960876e-01 -5.990150570869445801e-02 5.638244003057479858e-02 -3.063074685633182526e-02 -1.285674870014190674e-01 6.986372172832489014e-02 -1.450135745108127594e-02 7.546476274728775024e-02 6.550589948892593384e-02 -4.549141973257064819e-02 1.548092961311340332e-01 -9.322210401296615601e-02 5.035604164004325867e-02 -3.522920235991477966e-02 -3.420726954936981201e-02 4.540077596902847290e-02 5.681326612830162048e-03 -7.934498786926269531e-02 -6.357317417860031128e-02 -4.709137603640556335e-02 -7.411442697048187256e-02 7.885553687810897827e-02 1.077503263950347900e-01 -5.117785558104515076e-02 -5.795818287879228592e-03 -1.802371256053447723e-02 -6.479985266923904419e-02 1.001016572117805481e-01 1.764695718884468079e-02 -1.173994038254022598e-02 1.204419955611228943e-01 3.490561991930007935e-02 -4.587286710739135742e-02 -3.842698410153388977e-02 -7.536511868238449097e-02 -9.867465496063232422e-02 3.080951422452926636e-02 -4.471221938729286194e-02 -1.448426162824034691e-03 6.236305460333824158e-02 4.184243083000183105e-02 6.533539295196533203e-02 2.061839774250984192e-02 -1.876241527497768402e-02 -7.435884326696395874e-02 -4.876628145575523376e-02 7.397326827049255371e-02 -5.993177369236946106e-02 -4.665100574493408203e-02 2.389419451355934143e-02 -6.721168011426925659e-02 -1.011569146066904068e-02 9.372697770595550537e-02 8.935566246509552002e-02 2.368980459868907928e-02 -3.081645816564559937e-02 3.019712399691343307e-03 -9.916912019252777100e-02 1.056462228298187256e-01 1.188730895519256592e-01 -9.575176984071731567e-02 -5.668539553880691528e-02 4.771057516336441040e-02 8.597130887210369110e-03 9.746097773313522339e-02 -1.250639557838439941e-02 -1.344217453151941299e-02 8.384493738412857056e-02 7.058000564575195312e-02 -3.834154456853866577e-02 5.163627862930297852e-02 5.977048352360725403e-02 -2.545371279120445251e-02 5.785744264721870422e-02 3.901041671633720398e-02 4.607842490077018738e-02 8.020561188459396362e-02 -7.036774419248104095e-03 6.917399913072586060e-02 1.294491738080978394e-01 9.315196424722671509e-02 -3.497593337669968605e-03 2.741914801299571991e-02 -1.349925249814987183e-01 1.143460907042026520e-02 -1.322414074093103409e-02 1.144004911184310913e-01 -3.102891705930233002e-02 -1.897712983191013336e-02 -4.872676450759172440e-03 -2.598346211016178131e-02 -9.026884287595748901e-02 -7.484798785299062729e-03 8.810119330883026123e-02 -6.296620517969131470e-02 6.921404041349887848e-03 5.435504764318466187e-02 4.621589183807373047e-02 7.318501174449920654e-02
2.267659828066825867e-02 -1.019872277975082397e-01 -9.479580447077751160e-03 9.624719968996942043e-04 4.416041821241378784e-02 1.069561243057250977e-01 7.678335905075073242e-02 2.520840615034103394e-02 6.985325366258621216e-02 -1.470253467559814453e-01 -3.337712213397026062e-02 7.201073225587606430e-03 1.460085809230804443e-02 -4.622180387377738953e-02 -7.591953128576278687e-02 7.971812970936298370e-03 3.029829123988747597e-03 -2.389285713434219360e-02 -7.171271741390228271e-02 4.661442711949348450e-02 3.727266192436218262e-02 -6.388697773218154907e-02 -4.539739713072776794e-02 -9.156887233257293701e-02 5.250383168458938599e-02 -7.793518155813217163e-02 5.573189258575439453e-02 -4.210136830806732178e-02 -3.509909659624099731e-02 -2.267499640583992004e-02 -4.279870539903640747e-02 -1.765627227723598480e-02 -5.939563736319541931e-02 1.275083888322114944e-02 -9.583178907632827759e-02 1.032713130116462708e-01 -2.900761924684047699e-02 -7.942214608192443848e-02 2.120002172887325287e-02 -1.431916281580924988e-02 1.450786483474075794e-03 1.037085354328155518e-01 -1.210563816130161285e-03 3.478148719295859337e-04 -9.007679671049118042e-02 -2.575715817511081696e-02 -8.997583389282226562e-02 2.970520779490470886e-02 -1.874867267906665802e-02 -1.550263492390513420e-03 -7.467297464609146118e-02 4.797071218490600586e-02 4.107146523892879486e-03 -8.098680526018142700e-02 -7.326631993055343628e-02 -4.473910108208656311e-02 2.832792699337005615e-02 2.200786024332046509e-02 6.296407431364059448e-02 -1.104303151369094849e-01 -2.922539599239826202e-02 6.608556210994720459e-02 -5.710603669285774231e-02 8.287097513675689697e-02 5.251070484519004822e-02 3.934857994318008423e-02 6.561899092048406601e-03 1.254796683788299561e-01 2.456290274858474731e-02 7.663897424936294556e-02 7.617720216512680054e-02 7.357096672058105469e-02 -2.646579965949058533e-02 -3.274003043770790100e-02 3.180905058979988098e-02 -3.125190967693924904e-03 4.332058504223823547e-02 2.383968047797679901e-02 -4.689618200063705444e-02 4.866930097341537476e-02 -3.525270149111747742e-02 5.216722562909126282e-02 3.732374683022499084e-02 8.569315075874328613e-03 4.277328029274940491e-02 -2.637655474245548248e-03 3.795343264937400818e-02 3.254349529743194580e-02 -1.231053005903959274e-02 2.598803304135799408e-02 3.622283786535263062e-02 4.692134261131286621e-02 -7.937369495630264282e-02 3.213210776448249817e-02 -3.903791308403015137e-02 1.093996837735176086e-01 6.617437303066253662e-02 4.623808432370424271e-03 1.140700653195381165e-02 4.834829643368721008e-02 1.149756275117397308e-02 7.845550030469894409e-02 2.326011424884200096e-03 4.911803081631660461e-02 6.727596372365951538e-02 -8.117829263210296631e-02 2.263123728334903717e-02 -6.728906929492950439e-02 1.364649273455142975e-02 -3.744139149785041809e-02 5.331733450293540955e-02 3.314486704766750336e-03 1.222529262304306030e-02 -3.777328506112098694e-02 1.071138679981231689e-02 2.007139101624488831e-02 3.598382323980331421e-02 3.401897847652435303e-02 -2.114733681082725525e-02 -1.887025078758597374e-03 -2.153407968580722809e-02 6.215040106326341629e-03 -2.983339317142963409e-02 -3.484824299812316895e-02 -4.995439946651458740e-02 -1.261796802282333374e-01 1.137240380048751831e-01 -2.875111997127532959e-02
-1.083966195583343506e-01 3.060148563235998154e-03 -2.183347754180431366e-02 -8.470254950225353241e-03 5.632019415497779846e-02 -3.072777017951011658e-02 -7.477011531591415405e-02 -6.270503997802734375e-02 1.312474608421325684e-01 -9.049473330378532410e-03 4.171322658658027649e-02 7.927004247903823853e-02 -1.662715338170528412e-02 -3.861482441425323486e-02 2.065107598900794983e-02 -2.041382715106010437e-02 4.642775747925043106e-03 -5.469289794564247131e-02 5.566848441958427429e-02 1.076543703675270081e-01 5.743181705474853516e-02 1.542961411178112030e-02 -4.683133214712142944e-02 -2.634781971573829651e-02 4.125105217099189758e-02 5.262896046042442322e-02 5.781380459666252136e-03 -7.553493976593017578e-02 3.066492965444922447e-03 1.249461472034454346e-01 -3.918040171265602112e-02 1.413018908351659775e-02 5.268789827823638916e-02 -1.168004795908927917e-01 -3.933759406208992004e-02 6.211466714739799500e-02 2.947567962110042572e-02 -8.715813606977462769e-02 1.124377846717834473e-01 1.057003661990165710e-01 -7.079243659973144531e-02 -1.266631335020065308e-01 -6.431063264608383179e-02 -8.526980131864547729e-02 -8.108118921518325806e-02 9.255179017782211304e-02 -2.261922508478164673e-02 -1.820028014481067657e-02 3.477839753031730652e-02 -1.760360449552536011e-01 2.049171030521392822e-01 7.397733628749847412e-02 3.556574136018753052e-02 6.608955562114715576e-02 -2.201225422322750092e-02 -4.116158932447433472e-03 5.909521505236625671e-02 9.208650887012481689e-02 6.671337038278579712e-02 2.930258587002754211e-02 -1.167440935969352722e-01 8.266809396445751190e-03 -1.910623908042907715e-02 -1.281020343303680420e-01 -1.065325215458869934e-01 -7.656148076057434082e-02 -4.152572900056838989e-02 8.398023247718811035e-02 -6.144262850284576416e-02 2.363354563713073730e-01 -1.981533877551555634e-02 4.129401966929435730e-02 -6.222096830606460571e-02 6.682329624891281128e-02 1.009820774197578430e-01 3.332484886050224304e-02 -4.305717069655656815e-03 -3.203138709068298340e-02 5.680573731660842896e-02 -8.259380608797073364e-02 2.196778357028961182e-02 -3.950943052768707275e-02 1.768490821123123169e-01 -1.206179112195968628e-01 5.631560459733009338e-02 9.444423019886016846e-02 -7.437627762556076050e-02 7.032714784145355225e-04 -6.019783671945333481e-03 2.934226766228675842e-02 -3.571544215083122253e-02 8.562634699046611786e-03 -7.815561443567276001e-02 1.107424572110176086e-01 -1.674023270606994629e-02 4.568201303482055664e-02 2.482578158378601074e-02 2.642579376697540283e-02 4.052567854523658752e-02 -2.797828987240791321e-03 -7.929530739784240723e-02 2.663008309900760651e-02 -6.709357351064682007e-02 7.122324407100677490e-02 2.256063744425773621e-03 -2.475361898541450500e-02 6.981395184993743896e-02 -1.455962564796209335e-02 2.248110622167587280e-02 -1.201986148953437805e-01 -2.479721605777740479e-02 -6.799551099538803101e-02 1.821146160364151001e-01 -1.319813877344131470e-01 7.635447382926940918e-02 -2.330927364528179169e-02 2.341958880424499512e-02 -8.111655712127685547e-03 3.177000954747200012e-02 -7.428167015314102173e-02 -3.446602076292037964e-02 -1.879222132265567780e-02 -1.498977541923522949e-01 -7.081901282072067261e-02 -1.124698296189308167e-01 -1.031357701867818832e-02 -1.409506984055042267e-02 -8.449384570121765137e-02
1.218383759260177612e-01 7.635261118412017822e-02 5.333527550101280212e-02 4.606512933969497681e-02 1.036557257175445557e-01 1.006765570491552353e-02 -3.794428706169128418e-02 4.128130897879600525e-02 1.237155497074127197e-02 1.231712624430656433e-01 -1.104186289012432098e-02 2.911800704896450043e-02 8.427676744759082794e-03 8.235465735197067261e-02 -1.994806714355945587e-02 7.579986006021499634e-02 4.939626436680555344e-03 2.132675051689147949e-02 -8.418008685111999512e-02 -1.615083217620849609e-02 -1.130486931651830673e-02 1.092697214335203171e-02 1.815064065158367157e-02 -2.105436474084854126e-02 8.166502229869365692e-03 5.886239930987358093e-02 8.867859840393066406e-02 1.926282048225402832e-02 -4.704741761088371277e-02 4.226199910044670105e-02 -9.661681950092315674e-03 8.873260230757296085e-04 -3.076242469251155853e-02 -5.301326513290405273e-02 4.795385152101516724e-02 -1.135666295886039734e-02 1.283696293830871582e-01 1.595090259797871113e-03 -1.287330687046051025e-01 -2.656856924295425415e-02 4.881414584815502167e-03 -2.382330782711505890e-02 -1.058582291007041931e-01 5.166730657219886780e-02 -3.442350402474403381e-02 -2.441631071269512177e-02 2.934598363935947418e-02 -3.512899577617645264e-02 -2.987804822623729706e-02 -1.285453676246106625e-03 -1.017877086997032166e-01 2.739836461842060089e-02 -2.012394182384014130e-02 4.379899427294731140e-02 -9.742699563503265381e-02 -3.374692425131797791e-02 4.138735122978687286e-03 -6.517978757619857788e-02 1.615828275680541992e-02 2.600015327334403992e-02 -1.965897344052791595e-02 3.588040173053741455e-02 4.569632932543754578e-02 6.633848696947097778e-02 -6.053566932678222656e-02 1.350205298513174057e-02 -2.319689281284809113e-02 3.209795802831649780e-02 -1.900766789913177490e-02 1.823705881834030151e-01 -2.544342540204524994e-03 -9.654716402292251587e-02 8.815938234329223633e-02 -1.950577646493911743e-02 8.491142094135284424e-02 -1.266168057918548584e-02 6.887539476156234741e-02 7.244327105581760406e-03 -7.554338127374649048e-02 -5.408627167344093323e-02 2.591932751238346100e-02 9.831029921770095825e-03 4.656615480780601501e-02 4.953598231077194214e-02 8.615434169769287109e-03 -1.644523441791534424e-02 7.077348884195089340e-03 -6.623068451881408691e-02 6.586423516273498535e-02 -1.880882494151592255e-02 -9.168528020381927490e-03 1.651656627655029297e-02 7.323798257857561111e-03 9.564701467752456665e-03 -3.835295885801315308e-02 3.591652959585189819e-02 -4.508530721068382263e-02 -5.215899646282196045e-02 -1.407782081514596939e-02 -2.754908055067062378e-02 -3.314494155347347260e-03 -3.849829314276576042e-03 -4.430294036865234375e-03 -1.659945212304592133e-02 2.807038254104554653e-04 -7.602289319038391113e-02 1.080983038991689682e-02 1.080325990915298462e-02 2.667686343193054199e-02 -9.325746446847915649e-02 -7.982054352760314941e-02 2.046540006995201111e-02 2.812583371996879578e-02 4.644447937607765198e-02 9.063730388879776001e-02 4.379935562610626221e-02 1.243178383447229862e-03 -4.084670450538396835e-03 -1.132236793637275696e-01 -3.813101723790168762e-02 -2.578083425760269165e-02 5.972606595605611801e-03 2.460107393562793732e-02 -7.702591270208358765e-02 3.312977403402328491e-02 -1.083367131650447845e-02 -6.975548714399337769e-02 8.767460472881793976e-03
-7.575055211782455444e-02 1.362085342407226562e-02 -1.121598388999700546e-02 -8.188154548406600952e-03 1.057816669344902039e-01 1.284936815500259399e-02 -1.260531395673751831e-01 5.038615316152572632e-02 2.339407615363597870e-02 -7.283192127943038940e-02 2.171509526669979095e-02 1.096151769161224365e-01 1.329693496227264404e-01 -3.517452860251069069e-03 7.808442693203687668e-03 -3.137193992733955383e-02 2.180481515824794769e-02 5.633777007460594177e-02 5.006262660026550293e-02 6.051560491323471069e-02 2.523786015808582306e-02 -6.819331552833318710e-03 -1.936667598783969879e-02 -8.987925201654434204e-02 -1.332507119514048100e-03 5.919425934553146362e-02 6.613194476813077927e-03 5.109886452555656433e-02 3.656546398997306824e-02 -6.412381678819656372e-02 3.181531652808189392e-02 -2.939452789723873138e-02 1.249255146831274033e-03 -4.500018805265426636e-02 2.728178910911083221e-02 1.726111955940723419e-02 1.861621066927909851e-02 -1.193223707377910614e-02 5.548071116209030151e-02 -1.041203178465366364e-02 -2.973362617194652557e-02 -1.577010552864521742e-04 -1.133633032441139221e-01 3.189144656062126160e-02 9.711394086480140686e-03 4.592866823077201843e-02 -6.999222096055746078e-03 4.170299693942070007e-02 6.423361599445343018e-02 -7.932279258966445923e-03 -7.179895043373107910e-02 -1.850320398807525635e-02 3.362235799431800842e-02 -1.586111932992935181e-01 3.594776988029479980e-02 -8.773481100797653198e-02 7.673878222703933716e-02 -5.601748451590538025e-02 2.396919205784797668e-02 5.372850596904754639e-02 -7.762224413454532623e-05 -3.255251795053482056e-02 1.885798759758472443e-02 -8.189656585454940796e-02 3.023340599611401558e-03 4.853218328207731247e-03 -1.629235781729221344e-02 8.438150584697723389e-02 5.375229194760322571e-02 -4.709145426750183105e-02 9.647773206233978271e-02 6.491928361356258392e-04 -5.276106297969818115e-02 6.384731829166412354e-02 -3.974437341094017029e-02 1.277630310505628586e-02 3.820445388555526733e-02 -5.385368317365646362e-02 2.679310971871018410e-03 -7.365240901708602905e-02 1.602106168866157532e-02 -6.981268525123596191e-02 1.511594373732805252e-02 4.455543309450149536e-02 4.348722752183675766e-03 4.068889096379280090e-02 3.755412623286247253e-02 5.220849066972732544e-02 -6.655336171388626099e-02 -8.546511083841323853e-02 -7.083341944962739944e-03 4.226731136441230774e-02 -8.605006337165832520e-02 -9.743823856115341187e-02 2.425831742584705353e-02 -4.906595125794410706e-02 -1.497359387576580048e-02 3.849353408440947533e-03 -1.169194653630256653e-02 1.134276986122131348e-01 3.945306316018104553e-02 -9.138953872025012970e-03 -1.221362799406051636e-01 -1.085361093282699585e-02 1.636897027492523193e-02 -4.692130908370018005e-02 -8.470547944307327271e-02 -5.558985844254493713e-02 1.076262369751930237e-01 1.165173482149839401e-02 -4.680366441607475281e-02 1.943779736757278442e-02 -1.760636083781719208e-02 1.052933465689420700e-02 -7.463715970516204834e-02 5.797544494271278381e-02 -6.996411830186843872e-02 -2.626655809581279755e-02 1.241488233208656311e-01 1.058971136808395386e-02 2.794500673189759254e-03 -2.185718156397342682e-02 -8.242870680987834930e-03 -1.043036393821239471e-02 -2.809242345392704010e-03 4.493196308612823486e-02 1.428834628313779831e-02 -2.002430148422718048e-02
1.443706899881362915e-01 -1.178597211837768555e-01 -3.786117583513259888e-02 -2.285981317982077599e-03 -5.848980695009231567e-02 -7.776493579149246216e-02 -1.624523699283599854e-01 -4.424438811838626862e-03 -2.576347813010215759e-02 7.735650241374969482e-02 1.132036373019218445e-02 4.987380281090736389e-02 2.995889447629451752e-02 1.458783913403749466e-02 -3.323351964354515076e-02 -5.006065964698791504e-02 8.434531092643737793e-02 4.841901361942291260e-02 1.991751044988632202e-02 1.140108099207282066e-03 -9.583038091659545898e-02 1.026719808578491211e-02 7.107256352901458740e-02 -4.046082962304353714e-03 3.284404054284095764e-02 2.991720661520957947e-02 1.921630650758743286e-01 -3.078892454504966736e-02 3.410155698657035828e-02 -2.381294965744018555e-03 7.322432845830917358e-02 8.244691044092178345e-02 1.130548119544982910e-01 -3.524523600935935974e-02 -3.135468065738677979e-02 5.660275463014841080e-03 -5.422734096646308899e-02 9.484462440013885498e-02 -9.695398807525634766e-02 8.042503148317337036e-02 -3.531904518604278564e-02 -5.528156086802482605e-02 -5.288785323500633240e-03 -3.371616080403327942e-02 -6.563914567232131958e-02 1.598053984344005585e-02 -1.121248453855514526e-01 3.249630331993103027e-02 -4.409612715244293213e-02 -1.312865316867828369e-01 1.341077089309692383e-01 2.474975958466529846e-02 -9.825506061315536499e-02 -1.589295864105224609e-01 8.082833886146545410e-02 1.837274432182312012e-02 1.291531175374984741e-01 -2.003142051398754120e-02 1.513456809334456921e-03 -5.220359191298484802e-02 -3.733621165156364441e-02 2.274672314524650574e-02 5.775798112154006958e-02 6.133098504506051540e-04 -7.944481074810028076e-02 -5.885815247893333435e-02 -6.615525111556053162e-03 -9.189201146364212036e-02 5.628468841314315796e-02 9.009861201047897339e-02 1.455775648355484009e-02 4.720517899841070175e-03 -4.342910647392272949e-02 -7.186608016490936279e-02 2.590092271566390991e-02 3.400955721735954285e-02 -4.652054235339164734e-02 3.648103680461645126e-03 5.413271486759185791e-02 -5.541050806641578674e-02 1.883642375469207764e-02 -6.344696879386901855e-02 1.685933768749237061e-02 3.010258637368679047e-02 6.906436756253242493e-03 2.456100098788738251e-02 1.478821486234664917e-01 -9.484796226024627686e-02 1.700602285563945770e-02 2.347840555012226105e-02 -1.241087019443511963e-01 -1.153593137860298157e-01 -9.594724513590335846e-03 -6.226966157555580139e-02 1.275149080902338028e-02 1.088272407650947571e-01 2.073732167482376099e-01 2.544574625790119171e-02 3.544164076447486877e-02 -1.466379165649414062e-01 -3.939868416637182236e-03 6.046340614557266235e-02 -7.950133085250854492e-02 9.988576173782348633e-02 5.432051420211791992e-02 3.594998270273208618e-02 -6.672659516334533691e-02 1.616537384688854218e-02 5.590368807315826416e-02 3.830317407846450806e-02 -8.221615105867385864e-02 2.435116469860076904e-02 3.423315659165382385e-02 -6.752546131610870361e-02 4.591650143265724182e-02 8.463484793901443481e-02 -1.971192844212055206e-02 1.851667463779449463e-02 -1.080925911664962769e-01 -1.422786712646484375e-01 3.646535426378250122e-02 3.162366151809692383e-02 4.421146959066390991e-02 -3.593141958117485046e-02 -5.252708867192268372e-02 4.407328739762306213e-02 9.218138456344604492e-02 -5.571680888533592224e-02
6.898161023855209351e-02 1.405464559793472290e-01 6.631319224834442139e-02 -3.566998243331909180e-02 8.441454172134399414e-02 -4.944515228271484375e-02 -2.776664216071367264e-03 -6.611665338277816772e-02 8.404758572578430176e-02 -5.793382972478866577e-02 5.671669170260429382e-02 7.059139013290405273e-02 2.749404683709144592e-02 5.461085587739944458e-02 -3.585834801197052002e-02 -1.295070257037878036e-02 -8.969666063785552979e-02 -4.015576466917991638e-02 -4.121989477425813675e-03 1.633282601833343506e-01 5.755835771560668945e-02 -1.421642452478408813e-01 -2.805573306977748871e-02 5.643583461642265320e-02 -9.437155094929039478e-04 1.668446883559226990e-02 -4.017970710992813110e-02 -1.290842294692993164e-01 2.207175493240356445e-01 5.853204522281885147e-03 6.972993165254592896e-02 -1.650337725877761841e-01 5.431735143065452576e-02 -1.798895373940467834e-02 4.138848558068275452e-02 1.720550358295440674e-01 -1.614265888929367065e-02 -6.507843732833862305e-02 1.468009054660797119e-01 4.390934016555547714e-03 2.904406376183032990e-02 -6.864798069000244141e-02 -1.034343317151069641e-01 1.896851509809494019e-02 1.124579608440399170e-01 2.590401098132133484e-02 -8.195742219686508179e-02 -4.734566435217857361e-02 3.698750585317611694e-02 -1.213792487978935242e-01 -2.537505701184272766e-02 4.868272691965103149e-02 2.917819283902645111e-02 -1.035815663635730743e-02 1.415834426879882812e-01 -2.852829359471797943e-02 5.911021307110786438e-02 3.218136727809906006e-02 -5.241779237985610962e-02 -3.488205373287200928e-03 -4.576214030385017395e-02 -9.458909183740615845e-02 6.325033027678728104e-03 7.695008534938097000e-03 7.802350819110870361e-02 -4.274957999587059021e-02 -1.221876591444015503e-01 4.735935851931571960e-02 -1.078550703823566437e-02 3.841484431177377701e-03 1.004793047904968262e-01 -1.451632659882307053e-02 7.782227359712123871e-03 -4.942803084850311279e-02 8.329471200704574585e-02 8.763001859188079834e-02 1.468433439731597900e-01 -8.844757080078125000e-02 -1.005487143993377686e-01 -1.092269197106361389e-01 5.085274577140808105e-02 4.281333088874816895e-02 -8.262507617473602295e-02 4.132650792598724365e-02 -3.035758808255195618e-02 1.353023853152990341e-02 -6.037537753582000732e-02 2.589806169271469116e-02 -2.966597490012645721e-02 -3.906864672899246216e-02 -4.418079555034637451e-02 6.835027784109115601e-02 -6.355968117713928223e-02 -1.124480739235877991e-01 1.949317753314971924e-02 -3.853558003902435303e-02 -1.868958398699760437e-02 -3.129439055919647217e-02 -1.100270263850688934e-02 -9.189514815807342529e-02 -1.102928891777992249e-01 -7.183901220560073853e-02 2.100148797035217285e-02 4.372002929449081421e-02 3.817699849605560303e-02 2.436898089945316315e-02 -3.024283610284328461e-02 4.588246718049049377e-02 8.649978786706924438e-02 -4.688974469900131226e-02 7.632918655872344971e-03 -9.866823442280292511e-03 1.019111126661300659e-01 -8.127597975544631481e-04 4.961947724223136902e-02 -3.174372017383575439e-02 -1.186510846018791199e-01 4.890195652842521667e-02 4.008049145340919495e-02 -7.459253817796707153e-02 -1.817553490400314331e-01 6.038407329469919205e-03 -3.445203229784965515e-02 6.803691387176513672e-02 -5.539330095052719116e-02 1.393316313624382019e-02 1.568176746368408203e-01 -5.596998333930969238e-02
9.899827837944030762e-02 4.847627505660057068e-02 6.653035990893840790e-03 -4.599757492542266846e-02 -1.527461707592010498e-01 -1.210083998739719391e-02 7.071763277053833008e-02 -2.586746215820312500e-02 -4.426293447613716125e-02 -1.837081089615821838e-02 9.968467988073825836e-03 -6.882681045681238174e-03 1.091571245342493057e-02 1.186472028493881226e-01 -7.959240116178989410e-03 -8.382218889892101288e-03 2.766453102231025696e-02 2.316383086144924164e-02 -1.050405874848365784e-01 5.298756808042526245e-02 -1.111421175301074982e-02 1.799329742789268494e-02 5.707011371850967407e-02 -3.395918756723403931e-02 -3.202141821384429932e-02 -1.560731977224349976e-02 -5.481642484664916992e-02 -6.788562238216400146e-02 -1.753908395767211914e-02 -1.677952706813812256e-02 2.947522141039371490e-02 -8.814927935600280762e-02 6.313871592283248901e-02 -3.578564524650573730e-02 8.630703389644622803e-02 -5.060751736164093018e-02 9.287134557962417603e-02 -9.668668732047080994e-03 -1.103814989328384399e-01 -2.601232193410396576e-02 7.270856201648712158e-02 -3.625098615884780884e-02 -1.835694164037704468e-01 1.344744116067886353e-02 -3.620569035410881042e-02 -5.695212632417678833e-02 -9.684893302619457245e-03 1.226508431136608124e-02 1.127576804719865322e-03 -1.670275628566741943e-02 4.347501695156097412e-02 -2.468795701861381531e-02 -9.970402345061302185e-03 4.406489804387092590e-02 -6.887836754322052002e-02 2.222411893308162689e-02 1.694515645503997803e-01 -2.898547239601612091e-02 6.520474329590797424e-03 -5.535028502345085144e-02 -4.318627715110778809e-02 3.078216128051280975e-02 4.524338245391845703e-02 -7.487219292670488358e-03 -7.224120944738388062e-02 -1.405459921807050705e-02 7.404389907605946064e-05 1.767373178154230118e-03 5.801677331328392029e-02 -4.328199848532676697e-02 -1.959314011037349701e-02 1.024353411048650742e-02 1.733581721782684326e-02 -4.365733265876770020e-02 -7.022375706583261490e-03 1.012288685888051987e-02 -7.467073854058980942e-03 -4.007936269044876099e-02 2.440746314823627472e-02 -2.170640788972377777e-02 -3.591912984848022461e-02 6.356050074100494385e-02 1.056178659200668335e-01 4.171317815780639648e-02 -1.159943267703056335e-02 -8.158541470766067505e-02 6.309435516595840454e-02 1.119764614850282669e-02 -5.663879960775375366e-02 -1.637220010161399841e-02 1.896028220653533936e-02 -1.461271895095705986e-03 -7.763793319463729858e-02 -5.053390562534332275e-02 9.830273920670151711e-04 -7.245983183383941650e-02 1.773922145366668701e-02 2.194973267614841461e-02 -3.552251728251576424e-03 -8.699963800609111786e-03 3.654923290014266968e-02 1.303500402718782425e-02 3.332119807600975037e-02 -3.601110354065895081e-02 2.433068118989467621e-02 7.458299398422241211e-02 -2.647446841001510620e-02 -4.606131091713905334e-02 6.544533371925354004e-02 -9.812693297863006592e-02 3.540016338229179382e-02 1.379393506795167923e-02 1.183847561478614807e-01 9.826025925576686859e-03 -2.801264636218547821e-02 2.765405364334583282e-02 -7.390257902443408966e-03 -6.341318599879741669e-03 1.519197504967451096e-02 -1.249045506119728088e-02 3.519267961382865906e-02 1.921736821532249451e-02 -4.575247317552566528e-02 4.681602865457534790e-02 4.512808099389076233e-02 3.024542517960071564e-02 9.686535596847534180e-02 3.505612537264823914e-02
-3.829366341233253479e-02 4.417964071035385132e-02 -8.004698902368545532e-02 8.911306411027908325e-02 -3.026145324110984802e-02 5.110332369804382324e-02 -2.457644790410995483e-02 -7.754764705896377563e-02 5.913569778203964233e-02 3.085797652602195740e-02 3.161542490124702454e-02 -9.172620624303817749e-02 1.009904779493808746e-02 1.126444637775421143e-01 -7.512475550174713135e-02 3.480790182948112488e-02 7.500598579645156860e-02 -1.651574298739433289e-02 -2.826583012938499451e-02 -4.166190046817064285e-03 3.795494139194488525e-02 3.122297301888465881e-02 2.535974979400634766e-02 -3.928718343377113342e-02 4.872129857540130615e-02 3.239088505506515503e-02 3.263758867979049683e-02 1.297897100448608398e-02 3.516292199492454529e-02 5.186633393168449402e-02 -1.325788050889968872e-01 -1.942834258079528809e-02 -8.680991083383560181e-02 -4.622988868504762650e-03 -7.108754664659500122e-02 -5.220716446638107300e-02 4.651401564478874207e-02 -1.700648851692676544e-02 -6.472367793321609497e-02 2.819675207138061523e-02 -9.859037818387150764e-04 -1.565333455801010132e-02 -9.935108572244644165e-02 3.429425880312919617e-02 2.386950328946113586e-02 9.234571456909179688e-02 -6.084424443542957306e-03 -1.431558281183242798e-02 2.144013717770576477e-02 -8.253750950098037720e-02 -1.880447193980216980e-02 1.458012163639068604e-01 -2.434584312140941620e-02 -2.171841822564601898e-02 -2.222528867423534393e-02 4.855509102344512939e-02 1.119116172194480896e-01 -5.639678332954645157e-03 2.401580289006233215e-02 -5.159601941704750061e-02 -4.677839577198028564e-02 7.120440155267715454e-02 6.281692185439169407e-04 9.723651409149169922e-02 -8.176485449075698853e-02 4.362415522336959839e-02 -6.199035793542861938e-03 8.165946230292320251e-03 1.179696992039680481e-02 4.589645192027091980e-02 -3.967381268739700317e-02 -2.972630038857460022e-02 -1.843079738318920135e-02 -6.971437833271920681e-04 -5.296136811375617981e-02 -4.050401970744132996e-02 -1.545632351189851761e-02 -8.627384155988693237e-02 -7.818753272294998169e-02 -6.724262610077857971e-03 2.337696030735969543e-03 4.202700033783912659e-02 -4.745835810899734497e-02 -2.247032709419727325e-02 7.487359456717967987e-03 5.590759217739105225e-02 3.158869594335556030e-02 -1.078982721082866192e-03 -5.910089239478111267e-03 -2.147648110985755920e-02 4.791733250021934509e-02 4.464909434318542480e-02 -1.048869043588638306e-01 -7.056224159896373749e-03 -2.529975399374961853e-02 -5.205246433615684509e-02 5.030905827879905701e-02 1.047871075570583344e-02 -2.195494249463081360e-02 3.555919229984283447e-02 -9.486950933933258057e-02 1.080649048089981079e-01 3.314505890011787415e-02 -3.050041198730468750e-02 7.439509779214859009e-02 7.744485884904861450e-02 -9.564046561717987061e-02 -9.658574126660823822e-03 -1.545396260917186737e-02 1.117746308445930481e-01 1.000310778617858887e-01 1.773944348096847534e-01 2.719475142657756805e-02 -4.354190453886985779e-02 -4.539163038134574890e-02 3.135709092020988464e-02 -4.151661321520805359e-02 -1.967352814972400665e-02 1.827788539230823517e-02 -5.219354107975959778e-02 -2.514562569558620453e-02 9.306976571679115295e-03 3.499487414956092834e-02 -4.471337422728538513e-02 5.741782113909721375e-02 -7.653451059013605118e-03 -2.494700439274311066e-02 -6.530678272247314453e-02
1.159078925848007202e-01 2.888778783380985260e-02 7.940003648400306702e-03 3.973448276519775391e-02 -5.865228828042745590e-03 -2.304867468774318695e-02 -1.019437760114669800e-01 7.329363841563463211e-03 2.016512304544448853e-02 -1.593898236751556396e-02 -4.732903093099594116e-02 -3.729815036058425903e-02 1.326278001070022583e-01 4.876286536455154419e-02 -3.740693256258964539e-02 -1.003356184810400009e-02 2.494331263005733490e-02 4.103498067706823349e-03 8.768895640969276428e-03 1.318631470203399658e-01 -1.348316855728626251e-02 8.430706337094306946e-03 -4.641954600811004639e-02 3.901861235499382019e-02 1.864942349493503571e-02 8.617964386940002441e-02 -1.101325750350952148e-01 -2.185682579874992371e-02 -9.353411383926868439e-03 8.234759420156478882e-02 7.840591133572161198e-04 1.968588680028915405e-02 1.949785393662750721e-03 2.258793264627456665e-02 -7.825217396020889282e-02 2.007933519780635834e-02 2.640320546925067902e-02 6.969278678297996521e-03 4.109001904726028442e-02 1.096010301262140274e-02 -1.668359851464629173e-03 -5.872353538870811462e-02 1.374451443552970886e-02 -1.971095241606235504e-02 -1.679956726729869843e-02 3.086053580045700073e-02 -6.931653246283531189e-03 1.690654829144477844e-02 -4.071179404854774475e-02 1.434500049799680710e-02 1.168410308309830725e-04 -6.057225540280342102e-02 -2.667914703488349915e-02 5.053300783038139343e-02 -2.532891696318984032e-03 -1.129111573100090027e-01 5.727920681238174438e-02 -7.343795616179704666e-03 -4.525417461991310120e-03 6.360154598951339722e-02 3.437126800417900085e-02 2.799362130463123322e-02 -5.647691339254379272e-02 -5.254414305090904236e-02 3.244084492325782776e-02 -1.008081659674644470e-01 -1.272010654211044312e-01 -5.002491548657417297e-02 -3.708834527060389519e-03 -1.981383189558982849e-02 -1.353616360574960709e-02 -1.222556978464126587e-01 6.076613441109657288e-02 -2.607635594904422760e-02 8.888971060514450073e-02 -1.459594443440437317e-02 5.335230007767677307e-02 5.869202315807342529e-02 -7.667861133813858032e-02 6.270586699247360229e-02 4.316760227084159851e-02 3.976158797740936279e-02 9.262102842330932617e-02 3.639831766486167908e-02 -3.155095875263214111e-02 1.033657342195510864e-01 7.560047507286071777e-02 -3.922490403056144714e-02 -7.632766664028167725e-02 3.107951255515217781e-03 3.931159619241952896e-03 -4.486588388681411743e-02 -1.771204359829425812e-02 2.017892897129058838e-02 -1.311710104346275330e-02 -1.662021502852439880e-02 3.915386274456977844e-02 1.080544814467430115e-01 -2.809841558337211609e-02 -1.428001280874013901e-02 -8.858169615268707275e-02 1.774726994335651398e-02 -3.908052667975425720e-02 -2.595872431993484497e-02 5.703415954485535622e-04 3.545768186450004578e-02 2.469481714069843292e-02 -4.937467630952596664e-03 -1.719552278518676758e-02 -3.856357932090759277e-02 7.986503094434738159e-02 -1.137756630778312683e-01 -8.318412303924560547e-02 -8.485371246933937073e-03 5.142812430858612061e-02 1.922138407826423645e-02 -1.036345306783914566e-02 -9.608828276395797729e-02 -6.323869526386260986e-02 7.258561998605728149e-02 4.245895519852638245e-02 5.850028246641159058e-02 -3.742744773626327515e-02 5.827936157584190369e-02 5.027278512716293335e-02 3.802010044455528259e-02 -4.122718796133995056e-02 -2.894108928740024567e-02
-7.493610680103302002e-02 -8.777332305908203125e-02 4.593130201101303101e-02 1.356615871191024780e-01 1.232179775834083557e-01 -7.356746494770050049e-02 -4.315482452511787415e-03 4.687452316284179688e-02 1.449294760823249817e-02 -8.937476575374603271e-02 -9.644261002540588379e-02 7.997115142643451691e-03 -2.639363985508680344e-03 -1.986850425601005554e-02 -3.018681518733501434e-02 -4.400371387600898743e-02 3.911854699254035950e-02 -1.134167313575744629e-01 -5.019682273268699646e-02 -3.930746577680110931e-03 -5.131031572818756104e-02 -8.125331252813339233e-02 3.722693398594856262e-02 -1.179837360978126526e-01 4.283153638243675232e-02 -2.818988636136054993e-02 -3.602408617734909058e-02 1.599434949457645416e-02 1.747157238423824310e-02 1.631775684654712677e-02 -3.831558674573898315e-02 1.279190555214881897e-02 3.530858457088470459e-02 -3.462732769548892975e-03 1.077984198927879333e-01 -4.908415675163269043e-02 9.957604110240936279e-02 5.116919055581092834e-03 -2.810041606426239014e-02 -9.110826253890991211e-02 -4.500731825828552246e-02 8.823044598102569580e-02 -8.585511147975921631e-02 -3.338802978396415710e-02 7.702834159135818481e-02 4.361622780561447144e-02 4.241427406668663025e-02 -1.329564154148101807e-01 2.113692834973335266e-02 -2.308916766196489334e-03 8.206427842378616333e-02 -1.238105744123458862e-01 -1.219182554632425308e-02 -8.222091197967529297e-02 1.076697111129760742e-01 -4.866225272417068481e-02 3.130260482430458069e-02 7.115046679973602295e-02 3.393527865409851074e-02 2.806980162858963013e-02 -5.896452814340591431e-02 4.213355947285890579e-03 8.531538397073745728e-02 -2.196113113313913345e-03 -1.695964336395263672e-01 5.749834328889846802e-02 9.876601397991180420e-03 1.764661222696304321e-01 -1.083524823188781738e-01 1.562784910202026367e-01 1.556257158517837524e-01 3.660633787512779236e-02 4.121783748269081116e-02 -9.642039984464645386e-02 5.865606665611267090e-02 5.012902244925498962e-02 5.319569259881973267e-02 -6.979794055223464966e-02 1.157543659210205078e-01 -1.405194997787475586e-01 4.758293181657791138e-02 2.515674382448196411e-02 1.067226454615592957e-01 -7.344312965869903564e-02 -4.289507400244474411e-03 -2.776155434548854828e-02 4.119096696376800537e-02 -3.913129121065139771e-02 2.763352356851100922e-02 -3.670777659863233566e-03 -6.888254731893539429e-02 1.473348587751388550e-02 -1.448802798986434937e-01 2.218463644385337830e-02 -9.570940583944320679e-02 -3.975573554635047913e-02 9.638068079948425293e-02 5.532463267445564270e-02 -8.636844903230667114e-02 5.547508597373962402e-02 8.150888234376907349e-02 -4.213373363018035889e-02 4.976612702012062073e-02 1.288798917084932327e-02 5.950140208005905151e-02 1.951967552304267883e-02 -4.026795178651809692e-02 5.400232598185539246e-02 -2.714212285354733467e-03 2.733531221747398376e-02 -2.414502575993537903e-02 1.193453967571258545e-01 -8.687263354659080505e-03 7.806228846311569214e-02 2.826893888413906097e-02 1.058182492852210999e-01 -7.251926511526107788e-02 -2.017376013100147247e-02 1.984059065580368042e-02 -4.118087887763977051e-02 3.540564561262726784e-03 -6.435438990592956543e-02 2.682034112513065338e-02 9.204974025487899780e-02 -2.852185256779193878e-02 5.696905776858329773e-02 1.112076565623283386e-01 -1.579769700765609741e-01
-2.745664864778518677e-02 -6.228040438145399094e-04 6.615594774484634399e-02 1.965354010462760925e-02 -1.392000075429677963e-02 -2.028999477624893188e-02 -4.469355195760726929e-02 -2.076701261103153229e-02 -1.256678905338048935e-02 -3.151420503854751587e-02 -3.883746266365051270e-02 2.787448093295097351e-02 2.512608841061592102e-02 -3.518426790833473206e-02 -1.604335457086563110e-01 7.293810695409774780e-02 -4.212414845824241638e-02 -6.694006174802780151e-02 -7.430307567119598389e-03 -3.393979370594024658e-02 -2.791286632418632507e-02 -2.777460962533950806e-02 2.902158536016941071e-02 -6.556815654039382935e-02 1.246056985110044479e-02 3.245703503489494324e-02 2.161440998315811157e-02 -5.115520209074020386e-02 -2.675825171172618866e-02 -2.443271502852439880e-02 -4.708037152886390686e-02 -4.500035941600799561e-02 2.588103525340557098e-02 2.512098848819732666e-02 -6.033410876989364624e-02 1.448768097907304764e-02 -5.496256425976753235e-02 3.254383802413940430e-02 -8.685347437858581543e-02 -2.030161768198013306e-02 -1.647197455167770386e-01 1.111509650945663452e-01 -2.013241872191429138e-02 -1.236685216426849365e-01 -1.132846921682357788e-01 -5.515719763934612274e-03 -5.528124049305915833e-03 -9.016972780227661133e-02 1.185865625739097595e-01 -2.025349996984004974e-02 5.389095284044742584e-03 4.925160109996795654e-02 -1.006571874022483826e-01 -9.780489653348922729e-02 -2.125520072877407074e-02 3.720843791961669922e-02 4.010881483554840088e-02 5.460620671510696411e-02 3.735963022336363792e-03 -2.218510769307613373e-02 -3.849473316222429276e-03 -5.176252499222755432e-02 6.732122972607612610e-03 1.956828869879245758e-02 1.410332415252923965e-02 -3.827662393450737000e-02 -8.880180865526199341e-02 1.094583142548799515e-02 1.228131875395774841e-01 -8.799345232546329498e-03 8.460878580808639526e-02 -2.376013062894344330e-02 4.028405621647834778e-02 -1.224406156688928604e-02 3.758711740374565125e-02 8.822666853666305542e-02 -1.715311408042907715e-02 1.164082065224647522e-02 -4.957840964198112488e-02 1.035441756248474121e-01 -2.962099201977252960e-02 1.137753427028656006e-01 -3.406815975904464722e-02 -4.857954103499650955e-03 2.672825939953327179e-04 -3.894304856657981873e-03 8.995956927537918091e-02 1.414714567363262177e-02 -8.055644482374191284e-02 -5.729260295629501343e-02 -3.309588506817817688e-02 -8.418709784746170044e-02 1.297033429145812988e-01 3.140808269381523132e-02 4.957199469208717346e-02 4.181779921054840088e-02 3.382172202691435814e-03 4.828891833312809467e-04 1.049648784101009369e-02 3.190847486257553101e-02 7.493391633033752441e-02 3.636302798986434937e-02 4.361231997609138489e-02 1.057449355721473694e-01 4.216569941490888596e-03 -2.899819798767566681e-02 9.753628075122833252e-02 2.634607255458831787e-02 9.383644163608551025e-02 -3.233634307980537415e-02 1.216853335499763489e-01 -2.586275711655616760e-02 7.087265700101852417e-02 -1.659343764185905457e-02 2.964033000171184540e-02 -7.594909518957138062e-02 -2.176740579307079315e-02 -1.147111691534519196e-02 1.466880273073911667e-02 -1.718525891192257404e-03 4.576956387609243393e-03 1.284761279821395874e-01 -1.630926504731178284e-02 -4.246232286095619202e-02 -9.105065464973449707e-02 -2.294346503913402557e-02 -1.022908091545104980e-02 -1.216161064803600311e-02
