-5.293484777212142944e-02
1.304570934735238552e-03
-1.277001351118087769e-01
3.719283267855644226e-03
1.874681562185287476e-02
-1.002333033829927444e-02
-5.615089461207389832e-02
-6.281705200672149658e-02
4.174279794096946716e-02
-3.764211758971214294e-02
-7.019160781055688858e-03
7.160695642232894897e-02
2.000287733972072601e-02
-1.169657520949840546e-02
5.269506014883518219e-03
-5.173144862055778503e-02
7.207049522548913956e-03
2.210518904030323029e-02
-8.844901807606220245e-03
1.377554535865783691e-01
3.583270683884620667e-02
1.817040443420410156e-01
6.136389821767807007e-02
6.331399828195571899e-02
2.067946456372737885e-02
-1.807276718318462372e-02
-5.934741720557212830e-02
-9.684044122695922852e-02
-7.454505562782287598e-02
4.074640944600105286e-02
3.423449769616127014e-02
-1.300570517778396606e-01
5.077766254544258118e-03
-8.397520333528518677e-02
-2.409533783793449402e-02
-9.724014997482299805e-02
2.381266094744205475e-02
1.890800148248672485e-02
-4.635598883032798767e-02
-5.358646810054779053e-02
-9.240057319402694702e-03
9.348553419113159180e-02
-2.422139281406998634e-03
-2.985009178519248962e-02
-4.739367961883544922e-02
-1.591958105564117432e-01
-6.927767395973205566e-02
2.214705944061279297e-02
7.810366153717041016e-02
6.344033777713775635e-02
-4.298559506423771381e-04
1.767813116312026978e-01
1.209550350904464722e-02
5.532544106245040894e-02
-7.618399709463119507e-02
8.921619504690170288e-02
-6.467553228139877319e-02
-6.116725131869316101e-02
-1.153835132718086243e-01
-9.553403593599796295e-03
7.886349409818649292e-02
-9.339231997728347778e-02
2.688916586339473724e-02
-3.595735505223274231e-02
1.134259924292564392e-01
-3.350532427430152893e-02
3.406772762537002563e-02
-3.401585668325424194e-02
-1.021202728152275085e-01
4.135249555110931396e-02
-9.631241112947463989e-02
4.427573457360267639e-02
4.333056136965751648e-02
2.847471833229064941e-02
4.008857533335685730e-02
-7.330831885337829590e-02
1.238533556461334229e-01
7.731600105762481689e-02
5.897575616836547852e-02
5.344521999359130859e-02
-2.068603411316871643e-03
1.350090093910694122e-02
-4.147603362798690796e-02
-3.138900175690650940e-02
-1.346396375447511673e-02
-6.439388543367385864e-02
4.745618626475334167e-02
7.211689651012420654e-02
5.549541860818862915e-02
4.216908477246761322e-03
-7.818704843521118164e-02
-6.664644181728363037e-02
1.064595486968755722e-02
-3.090013284236192703e-03
-1.089520659297704697e-02
6.408384442329406738e-02
-1.330217570066452026e-01
1.988750323653221130e-02
6.715429574251174927e-02
7.035694271326065063e-02
-2.569545060396194458e-02
-2.225601300597190857e-02
6.738059967756271362e-02
2.795914933085441589e-02
-1.421640813350677490e-01
1.352590043097734451e-02
1.168780624866485596e-01
-6.490523926913738251e-03
-5.403273925185203552e-02
-3.882220014929771423e-02
1.628451980650424957e-02
3.668538108468055725e-02
1.318960338830947876e-01
-8.693131804466247559e-02
-4.995268210768699646e-02
-9.044609218835830688e-02
1.467922516167163849e-02
3.243329375982284546e-02
-1.422726213932037354e-01
1.814055070281028748e-02
8.768484741449356079e-02
-1.998773589730262756e-02
-7.492643315345048904e-03
-1.036279946565628052e-01
-9.060186333954334259e-03
-2.096914313733577728e-02
-1.826133765280246735e-02
2.144118770956993103e-02
