-3.315917029976844788e-02
-5.536311771720647812e-03
-7.153219077736139297e-03
-1.010576076805591583e-02
4.813937935978174210e-03
-1.376658584922552109e-02
8.340049535036087036e-03
1.611812599003314972e-02
8.297471795231103897e-04
-5.527446977794170380e-03
-9.103350341320037842e-03
1.882388070225715637e-02
-3.153446316719055176e-02
3.458805382251739502e-02
-5.626979283988475800e-03
3.036705311387777328e-03
-1.162999123334884644e-02
-2.642213739454746246e-02
-1.872829906642436981e-02
1.198382209986448288e-02
-1.446361932903528214e-02
-1.701421104371547699e-02
1.481551770120859146e-02
1.112115103751420975e-02
-2.155344933271408081e-03
7.629127707332372665e-03
9.429837577044963837e-03
1.879736594855785370e-02
1.940777897834777832e-02
4.020444117486476898e-03
-1.734285056591033936e-02
-3.822778351604938507e-03
1.962893083691596985e-02
-2.310384251177310944e-02
-7.809878792613744736e-03
3.033948596566915512e-03
1.005433872342109680e-02
2.016615588217973709e-03
-1.276838500052690506e-02
-4.588018637150526047e-03
7.064543198794126511e-03
2.240529516711831093e-03
3.755520796403288841e-03
-7.187127601355314255e-03
-9.734832681715488434e-03
1.578517840243875980e-03
1.416416838765144348e-02
-4.196345980744808912e-04
6.700517144054174423e-03
1.405374705791473389e-02
-1.689551048912107944e-03
-3.768958617001771927e-03
1.537730079144239426e-02
6.312001496553421021e-03
2.924445830285549164e-02
-1.310432143509387970e-02
-1.419410668313503265e-02
1.040403079241514206e-02
1.087234448641538620e-02
-2.080556005239486694e-02
-8.646241389214992523e-03
1.708609983325004578e-02
-1.375525491312146187e-03
1.711144670844078064e-02
-1.365574449300765991e-02
-1.108673587441444397e-02
-1.055679470300674438e-02
4.683611448854207993e-03
3.247083351016044617e-02
2.038256078958511353e-02
6.933072116225957870e-03
-3.504527732729911804e-02
2.161276992410421371e-03
-1.802198402583599091e-02
-8.406774140894412994e-03
1.877472177147865295e-02
-2.834185585379600525e-02
-7.376896683126688004e-03
-1.083918754011392593e-02
-1.800293102860450745e-02
-7.920873351395130157e-03
7.910974323749542236e-03
-7.033824920654296875e-03
2.204508334398269653e-02
1.544436905533075333e-02
8.396182209253311157e-03
-2.428928576409816742e-02
5.409253295511007309e-03
6.936769932508468628e-04
5.076663102954626083e-03
-9.122014045715332031e-03
9.243196807801723480e-03
5.163061432540416718e-03
-1.341651845723390579e-02
7.414493709802627563e-03
1.542443688958883286e-02
1.317591033875942230e-02
-4.209421575069427490e-03
-1.875948719680309296e-02
1.365966536104679108e-02
-3.835455281659960747e-03
-1.270186435431241989e-02
-1.006346009671688080e-02
9.764475747942924500e-03
5.919354036450386047e-03
5.948114674538373947e-03
-1.924567483365535736e-02
1.837511174380779266e-02
5.684276111423969269e-03
-3.724191337823867798e-03
-6.226752419024705887e-03
-5.757505423389375210e-04
8.737752214074134827e-03
-4.940436221659183502e-03
-6.351867225021123886e-03
2.965225465595722198e-02
2.103164419531822205e-02
5.890043452382087708e-03
9.394295513629913330e-03
-1.119749061763286591e-02
2.262179274111986160e-03
-2.490640617907047272e-02
-2.071633562445640564e-02
-8.453208953142166138e-03
-7.169434335082769394e-03
1.737530529499053955e-02
3.013847162947058678e-03
-2.267922507598996162e-03
