3.567192703485488892e-03
-4.315501719247549772e-04
-3.871734254062175751e-03
-7.150181103497743607e-03
5.058275535702705383e-03
3.931148909032344818e-03
-1.662335358560085297e-02
1.929091056808829308e-03
3.537240903824567795e-03
5.700814072042703629e-03
4.182979464530944824e-02
1.540379598736763000e-02
-6.570059806108474731e-03
-1.800895854830741882e-02
1.914499560371041298e-03
-3.337551839649677277e-03
3.533141687512397766e-03
1.284014247357845306e-02
-1.217392925173044205e-02
4.677999764680862427e-03
8.410182781517505646e-03
-1.145454309880733490e-02
2.394395705778151751e-04
2.043655514717102051e-02
3.047953592613339424e-03
-1.266299374401569366e-02
-7.115827407687902451e-03
-9.011074900627136230e-03
-3.410296514630317688e-03
-2.887497656047344208e-03
4.588217998389154673e-04
-4.620886873453855515e-03
1.128981821238994598e-02
-2.293786406517028809e-02
4.373151808977127075e-03
-9.257270954549312592e-03
1.142573659308254719e-03
-5.492569413036108017e-03
1.639254624024033546e-03
-3.399169072508811951e-02
-1.450211857445538044e-04
-6.952912081032991409e-03
-2.970950445160269737e-03
9.482817724347114563e-03
5.527013447135686874e-03
-7.076430134475231171e-03
9.572902694344520569e-03
1.024632831104099751e-03
-1.161024346947669983e-02
7.062789052724838257e-03
-2.727107494138181210e-04
9.353163652122020721e-03
5.531199276447296143e-03
5.338873714208602905e-03
5.085406824946403503e-03
-1.179980859160423279e-02
1.476263132644817233e-04
2.876402065157890320e-02
-2.299866080284118652e-02
9.512475691735744476e-03
-1.181482058018445969e-02
-1.187632419168949127e-02
1.320380158722400665e-02
7.636567577719688416e-03
-7.048667874187231064e-03
-5.391101818531751633e-03
-7.153440732508897781e-03
6.248976103961467743e-03
-1.538310549221932888e-03
-3.521392820402979851e-03
5.811642855405807495e-03
1.085627079010009766e-02
-1.767840608954429626e-02
-1.104182004928588867e-02
-5.702644120901823044e-03
1.184428390115499496e-02
-1.066997461020946503e-02
1.458348240703344345e-03
-1.857664808630943298e-02
-2.794434083625674248e-03
4.388159140944480896e-03
3.068523481488227844e-03
-1.034978590905666351e-02
2.279821084812283516e-03
2.271740511059761047e-02
9.196942672133445740e-03
1.546661369502544403e-02
-9.074456989765167236e-03
1.267675124108791351e-02
1.777398283593356609e-03
3.877605777233839035e-04
1.058642659336328506e-02
1.372636324958875775e-04
-1.407522987574338913e-02
1.815898902714252472e-02
-1.068999245762825012e-02
1.925544627010822296e-02
1.157863531261682510e-02
-2.553560584783554077e-02
-6.260639987885951996e-03
4.705527797341346741e-03
-2.320748521015048027e-03
-2.459537936374545097e-03
2.175905555486679077e-02
1.473524142056703568e-02
3.891992848366498947e-03
-2.104108408093452454e-02
2.294993586838245392e-02
1.122335717082023621e-02
4.628245253115892410e-03
-2.243598923087120056e-03
-3.954472485929727554e-03
1.427993993274867535e-03
4.232463426887989044e-03
1.270844880491495132e-02
2.198319882154464722e-02
5.397070664912462234e-03
1.629065140150487423e-03
1.447595283389091492e-02
-6.487363483756780624e-03
6.038922350853681564e-03
-8.865053951740264893e-02
-5.274452851153910160e-04
-3.877204610034823418e-03
-2.249354962259531021e-03
3.756302408874034882e-03
9.968434460461139679e-03
-5.016893148422241211e-03
