-1.559211313724517822e-01
2.512053959071636200e-02
1.749561727046966553e-01
-2.894690632820129395e-01
-2.413758486509323120e-01
1.254874467849731445e-01
1.104213520884513855e-01
2.792593538761138916e-01
-1.960546970367431641e-01
3.620742857456207275e-01
2.160287648439407349e-01
-2.357831001281738281e-01
1.820683330297470093e-01
-1.549358665943145752e-01
1.806540489196777344e-01
3.176746070384979248e-01
2.334943711757659912e-01
2.769610881805419922e-01
2.678977251052856445e-01
-1.933200061321258545e-01
8.890014141798019409e-03
2.436776310205459595e-01
-1.995098888874053955e-01
1.785575300455093384e-01
-1.605493128299713135e-01
-2.399862557649612427e-01
-4.086390510201454163e-02
1.917265504598617554e-01
-2.672490179538726807e-01
-3.286131918430328369e-01
1.548865586519241333e-01
3.276897370815277100e-01
-1.973035186529159546e-01
2.937989532947540283e-01
-3.526555895805358887e-01
-2.927749454975128174e-01
-2.195990830659866333e-01
1.930428296327590942e-01
1.102513745427131653e-01
-1.988880634307861328e-01
3.181588649749755859e-01
-2.334638088941574097e-01
2.793639600276947021e-01
2.422464042901992798e-01
2.492362558841705322e-01
-2.858355045318603516e-01
2.598307430744171143e-01
2.157677710056304932e-01
-2.108462601900100708e-01
1.144858077168464661e-01
7.899773865938186646e-02
-2.959474921226501465e-01
1.304734498262405396e-01
2.434033155441284180e-01
-2.966961860656738281e-01
2.390991002321243286e-01
-1.502575278282165527e-01
2.022331394255161285e-02
-3.000321984291076660e-01
1.746952384710311890e-01
1.746705025434494019e-01
3.392650783061981201e-01
-1.689914464950561523e-01
2.383563816547393799e-01
2.045525163412094116e-01
-1.674147695302963257e-01
1.197447925806045532e-01
-1.801788508892059326e-01
3.002427220344543457e-01
-2.104315757751464844e-01
-2.454005330801010132e-01
-1.507929116487503052e-01
-3.178073167800903320e-01
1.012498736381530762e-01
-2.973771989345550537e-01
-2.539996504783630371e-01
-2.593699097633361816e-01
3.079214394092559814e-01
6.357375532388687134e-02
2.779635488986968994e-01
2.754822969436645508e-01
-2.758594155311584473e-01
-2.560543715953826904e-01
1.104992777109146118e-01
-1.274809092283248901e-01
-2.431003898382186890e-01
-5.224193632602691650e-02
-2.142511606216430664e-01
-2.086185961961746216e-01
2.550356984138488770e-01
1.877974718809127808e-01
2.860953807830810547e-01
2.478794157505035400e-01
3.001515567302703857e-01
2.896697223186492920e-01
-3.021520674228668213e-01
-1.751213520765304565e-01
-2.109212428331375122e-01
2.856016457080841064e-01
3.055874705314636230e-01
1.291870027780532837e-01
-3.576595783233642578e-01
2.839529812335968018e-01
-2.086974531412124634e-01
-7.047466933727264404e-02
4.517235234379768372e-02
-2.465031594038009644e-01
-6.692480295896530151e-02
-2.492855191230773926e-01
2.808906137943267822e-01
-2.782349586486816406e-01
-2.138968408107757568e-01
-1.825701743364334106e-01
1.768136620521545410e-01
-1.124410405755043030e-01
-2.693229913711547852e-01
3.419356942176818848e-01
-2.159377485513687134e-01
1.386874616146087646e-01
2.776924073696136475e-01
1.766725033521652222e-01
-3.060943186283111572e-01
1.470610499382019043e-01
2.170129120349884033e-01
2.523743808269500732e-01
-1.380380690097808838e-01
-1.436667442321777344e-01
2.880914807319641113e-01
