-2.272607013583183289e-02 -9.429694712162017822e-02 -1.957508325576782227e-01 2.521610558032989502e-01 -4.317907989025115967e-02 -1.384376361966133118e-02 -1.822233572602272034e-02 -1.880626976490020752e-01 5.891603603959083557e-02 1.782628893852233887e-01 1.989399939775466919e-01 -6.244391202926635742e-02 -9.604781866073608398e-03 -5.807432532310485840e-02 -2.497940324246883392e-02 4.076289758086204529e-02 -5.026559531688690186e-02 -6.887234281748533249e-03 4.273359850049018860e-02 -2.631077468395233154e-01 -9.954585880041122437e-02 7.866515219211578369e-02 -3.633736371994018555e-01 1.373985130339860916e-02 -8.990258723497390747e-02 -8.393745124340057373e-02 1.677934080362319946e-01 -2.786285057663917542e-02 2.017763070762157440e-02 3.726206347346305847e-02 -1.785194501280784607e-02 3.621884062886238098e-02 5.866025574505329132e-03 5.149644017219543457e-01 -2.247477620840072632e-01 6.954944133758544922e-02 -2.692316845059394836e-02 1.738474518060684204e-01 3.548930585384368896e-02 1.201884672045707703e-01 4.490095376968383789e-02 1.535598337650299072e-01 -9.664385765790939331e-02 9.501931816339492798e-02 4.574687033891677856e-02 1.479948288761079311e-03 -7.158561795949935913e-02 -2.649979591369628906e-01 -1.144062951207160950e-01 6.420318037271499634e-02 1.414771527051925659e-01 1.354544609785079956e-02 -6.833299994468688965e-03 1.201806496828794479e-02 2.733011916279792786e-02 -1.376576572656631470e-01 1.550838947296142578e-01 -3.399459719657897949e-01 -5.464829131960868835e-02 -1.474758051335811615e-02 -7.210562471300363541e-03 6.970305740833282471e-02 4.883362635155208409e-05 -5.430450662970542908e-02 3.145675733685493469e-02 1.416435930877923965e-02 -1.292228553211316466e-04 -5.717046442441642284e-04 -2.747831940650939941e-01 9.131598472595214844e-02 2.069650590419769287e-01 -1.322631239891052246e-01 4.850785061717033386e-02 2.304425090551376343e-01 3.863280639052391052e-02 -2.947679534554481506e-02 8.243850618600845337e-02 -2.388507686555385590e-02 8.215662837028503418e-02 -7.847788929939270020e-02 7.170725613832473755e-02 -5.226794257760047913e-02 7.723544538021087646e-02 5.964992567896842957e-03 1.424395292997360229e-01 -5.126007199287414551e-01 -4.382421448826789856e-02 1.099128499627113342e-01 8.596071042120456696e-03 -1.839281916618347168e-01 -1.185961514711380005e-01 5.483604669570922852e-01 1.224530301988124847e-02 6.229494884610176086e-02 4.378028213977813721e-02 4.754944741725921631e-01 -1.596543639898300171e-01 -3.798739984631538391e-02 -9.802324324846267700e-02 -1.305248588323593140e-01 -1.243210285902023315e-01 5.118239521980285645e-01 2.181248515844345093e-01 -6.307600438594818115e-02 -3.279101252555847168e-01 9.663695469498634338e-03 -4.849300533533096313e-02 1.514355279505252838e-02 8.919212222099304199e-02 -1.466118916869163513e-02 2.754952013492584229e-01 -8.742869496345520020e-01 2.639534175395965576e-01 3.076093494892120361e-01 7.729028165340423584e-02 -8.721572905778884888e-02 8.070728182792663574e-02 7.932694256305694580e-02 -1.427681893110275269e-01 1.300767511129379272e-01 1.041267290711402893e-01 -2.141419053077697754e-01 -8.886138908565044403e-03 -1.925609409809112549e-01 5.971417427062988281e-01 6.345374882221221924e-02 2.065792679786682129e-01 -8.750489354133605957e-02
-7.110618054866790771e-02 7.123088836669921875e-02 2.557971701025962830e-02 3.808500990271568298e-02 2.020485326647758484e-02 1.580135710537433624e-02 1.000631824135780334e-01 -1.461474690586328506e-02 1.590075157582759857e-02 1.453839987516403198e-01 -4.445144906640052795e-02 -6.803654134273529053e-03 5.198032129555940628e-03 -3.952468186616897583e-02 2.281160838901996613e-02 -4.050785675644874573e-02 2.170184068381786346e-02 -1.176821719855070114e-02 1.761304773390293121e-02 5.156912282109260559e-02 -3.605898097157478333e-02 1.172207202762365341e-02 9.890550747513771057e-03 -9.941942989826202393e-03 -1.039950270205736160e-02 -9.314246475696563721e-02 1.124324128031730652e-01 -8.698576129972934723e-03 2.443205192685127258e-02 4.235481843352317810e-03 5.212038289755582809e-03 -6.627485901117324829e-02 3.233110532164573669e-03 5.709713324904441833e-02 -1.217037811875343323e-01 4.062402993440628052e-02 -4.873749986290931702e-02 7.542248815298080444e-02 4.042029380798339844e-02 3.331597149372100830e-02 -5.057735368609428406e-02 2.740376889705657959e-01 -3.200895711779594421e-02 3.118214011192321777e-02 -3.292225301265716553e-02 -5.729954689741134644e-02 -6.355315446853637695e-02 -9.860412031412124634e-02 -4.859548062086105347e-02 -9.095386601984500885e-03 6.141432374715805054e-02 -2.192744798958301544e-02 4.628980532288551331e-02 -4.069776460528373718e-02 1.577963307499885559e-02 2.456396818161010742e-02 1.530535370111465454e-01 7.871093228459358215e-03 8.129368722438812256e-02 -5.205627903342247009e-02 -5.180571228265762329e-03 1.029346585273742676e-01 -5.409410968422889709e-02 -2.151686698198318481e-02 3.264442831277847290e-02 2.090902626514434814e-02 -2.434538118541240692e-02 3.388750925660133362e-02 2.500629797577857971e-02 6.971501559019088745e-02 2.421078504994511604e-03 -5.668604746460914612e-02 2.445816528052091599e-03 1.260139346122741699e-01 8.849834650754928589e-02 2.408403530716896057e-02 -3.605769481509923935e-03 4.422903433442115784e-02 -5.856451019644737244e-02 3.480480238795280457e-02 -3.116703405976295471e-02 4.019319545477628708e-03 3.765932098031044006e-02 2.912888117134571075e-02 -1.293118856847286224e-02 -1.029768809676170349e-01 -1.291302591562271118e-02 -2.427774108946323395e-02 2.776489593088626862e-02 -3.211432695388793945e-02 2.748380228877067566e-02 9.745243936777114868e-02 7.257894426584243774e-02 -5.205895751714706421e-02 -4.878893494606018066e-03 9.112015366554260254e-02 -1.407010257244110107e-01 7.640835829079151154e-04 -6.449728459119796753e-02 -6.315810233354568481e-02 -4.725511372089385986e-02 1.206934526562690735e-01 2.813467010855674744e-02 -6.291086226701736450e-02 3.888006135821342468e-02 7.894575595855712891e-02 5.554246529936790466e-02 -8.280185982584953308e-03 -3.751672804355621338e-03 -1.649043639190495014e-03 6.670761853456497192e-02 -4.727735221385955811e-01 -1.397188566625118256e-02 1.136763617396354675e-01 -4.189379885792732239e-02 8.472719043493270874e-02 2.004891261458396912e-02 1.299349241890013218e-03 5.037517845630645752e-02 -4.306836053729057312e-02 1.378822326660156250e-01 -1.478782743215560913e-01 -7.248967420309782028e-03 6.130537018179893494e-02 1.244974732398986816e-01 5.382019281387329102e-02 8.733135648071765900e-03 -2.730906754732131958e-02
-7.464517652988433838e-02 6.714888662099838257e-02 6.574856117367744446e-03 -9.074744768440723419e-03 6.182264769449830055e-04 -8.231673389673233032e-03 9.525126218795776367e-02 1.289072167128324509e-02 6.841982901096343994e-02 1.446136981248855591e-01 -3.947319462895393372e-02 4.609305039048194885e-02 -3.421959653496742249e-02 -2.632196806371212006e-02 1.327135227620601654e-02 -3.140002861618995667e-02 -5.084428004920482635e-03 2.497974224388599396e-02 1.843415759503841400e-02 1.024984270334243774e-01 -2.859457209706306458e-02 4.472935944795608521e-02 2.094127610325813293e-02 4.493614658713340759e-02 5.901506170630455017e-02 -1.375223696231842041e-02 2.524095401167869568e-02 -2.047558687627315521e-02 3.848893940448760986e-02 -4.326754808425903320e-02 -5.345378071069717407e-02 -7.708561420440673828e-02 -6.262482702732086182e-02 -5.688468925654888153e-03 -6.999927014112472534e-02 -3.433466330170631409e-02 -7.634460460394620895e-03 1.097927168011665344e-01 -8.596289902925491333e-03 -1.119627803564071655e-02 2.837062627077102661e-02 2.669618129730224609e-01 -1.761314272880554199e-02 1.375263277441263199e-02 -4.657800775021314621e-03 -2.541329897940158844e-02 -3.285776078701019287e-02 -1.251141261309385300e-02 -5.352701991796493530e-02 -3.795973211526870728e-02 4.333465546369552612e-02 -2.089927904307842255e-02 3.528474643826484680e-02 -1.831325516104698181e-02 -3.536167368292808533e-02 1.037597004324197769e-02 8.190082013607025146e-02 -6.069259345531463623e-02 1.056609004735946655e-01 -1.840176992118358612e-02 2.756270579993724823e-02 9.536450356245040894e-02 5.300551652908325195e-02 -3.528392314910888672e-02 3.785435855388641357e-02 -2.768070995807647705e-02 8.560110814869403839e-03 1.806655526161193848e-02 1.478421036154031754e-02 5.559619143605232239e-02 -5.429528653621673584e-03 -2.504241652786731720e-02 -8.848103694617748260e-03 9.701849520206451416e-02 5.882949382066726685e-02 4.304173216223716736e-02 -4.257515072822570801e-02 6.985396612435579300e-03 -2.790455520153045654e-02 9.158159047365188599e-02 3.197070583701133728e-02 1.456517679798707832e-06 -3.151189535856246948e-03 3.816574066877365112e-02 3.601261228322982788e-02 -5.902815610170364380e-02 -6.996993441134691238e-03 -4.370874911546707153e-02 5.990781635046005249e-02 -5.275699868798255920e-02 -4.027343913912773132e-02 2.529041282832622528e-02 5.433835834264755249e-02 -4.117521271109580994e-02 4.118976369500160217e-02 9.544618427753448486e-02 -4.801763966679573059e-02 8.550418168306350708e-02 -5.396034196019172668e-02 -8.576594293117523193e-02 -1.044920906424522400e-01 1.327938437461853027e-01 1.481953077018260956e-02 -1.463730446994304657e-02 2.477594278752803802e-02 4.021641984581947327e-02 4.312301427125930786e-02 -2.407299727201461792e-02 -3.471615165472030640e-02 -3.545183315873146057e-02 2.750254422426223755e-02 -4.108393192291259766e-01 -5.398259311914443970e-02 1.143691539764404297e-01 2.112294780090451241e-03 9.775824844837188721e-02 -3.957169875502586365e-02 -1.368524879217147827e-01 4.367097839713096619e-02 -1.079409383237361908e-02 7.765778899192810059e-02 -6.675513833761215210e-02 -1.571428962051868439e-02 1.100355610251426697e-01 1.041357070207595825e-01 7.466066163033246994e-03 -7.615225855261087418e-03 -4.582533240318298340e-02
-4.930547997355461121e-02 6.015406548976898193e-02 1.028031110763549805e-03 -6.706540286540985107e-02 -1.065991446375846863e-02 9.558232501149177551e-03 9.719164669513702393e-02 2.134702354669570923e-02 6.417883187532424927e-02 1.307986378669738770e-01 -3.719580173492431641e-02 6.090350076556205750e-02 1.719643478281795979e-03 -4.528040066361427307e-02 -2.727550454437732697e-02 -2.163062058389186859e-02 2.859446220099925995e-02 -7.205583155155181885e-02 6.763841956853866577e-03 1.462107598781585693e-01 3.380848094820976257e-02 8.140727132558822632e-02 1.412414666265249252e-02 6.026383489370346069e-03 1.222356259822845459e-01 1.293793134391307831e-02 8.899529278278350830e-02 -6.231131032109260559e-03 6.164635345339775085e-02 -4.527336359024047852e-02 -1.614733831956982613e-03 -1.325626112520694733e-02 4.194656759500503540e-02 -1.424568612128496170e-02 -6.092676147818565369e-02 -1.665368862450122833e-02 8.336202055215835571e-02 2.645657956600189209e-02 -1.536184549331665039e-02 -1.417622864246368408e-01 -7.315550744533538818e-02 2.393925935029983521e-01 5.485902656801044941e-04 1.748569868505001068e-02 4.193242266774177551e-02 -2.339414507150650024e-02 -1.024139393121004105e-02 3.574011614546179771e-03 -2.658294141292572021e-02 -4.728197678923606873e-02 4.311705008149147034e-02 -4.873332101851701736e-03 7.228899002075195312e-02 7.558442186564207077e-03 -5.542572960257530212e-02 4.951742291450500488e-02 4.131526499986648560e-02 4.056928446516394615e-04 1.253076195716857910e-01 9.693443775177001953e-03 4.939692094922065735e-02 5.780856683850288391e-02 2.822156064212322235e-02 -4.627572000026702881e-02 1.310324762016534805e-03 -6.533218175172805786e-02 1.193692907691001892e-02 5.329468846321105957e-02 -2.006114087998867035e-02 7.865245640277862549e-02 1.769639179110527039e-02 3.482438856735825539e-03 -2.418023906648159027e-02 7.145622372627258301e-02 1.503451541066169739e-02 4.028158634901046753e-02 2.475582435727119446e-02 1.176046114414930344e-02 -1.854629069566726685e-02 9.571664035320281982e-03 -3.494413569569587708e-02 1.775098405778408051e-02 -4.302325099706649780e-02 4.374988749623298645e-02 8.549355901777744293e-03 -5.863794311881065369e-02 -9.532606601715087891e-02 -7.226223498582839966e-02 5.281164497137069702e-02 -6.681461632251739502e-02 -2.413434704067185521e-04 5.314157530665397644e-02 4.427829384803771973e-02 -3.137358464300632477e-03 7.763103581964969635e-03 5.080185830593109131e-02 -4.579395800828933716e-02 1.857215352356433868e-02 -7.067109644412994385e-02 -4.912123084068298340e-02 -7.681169360876083374e-02 9.813071042299270630e-02 4.639040306210517883e-02 1.723529584705829620e-02 5.651838611811399460e-03 2.706361748278141022e-02 1.889269612729549408e-02 -3.993096947669982910e-02 -5.952445417642593384e-02 -1.445752009749412537e-02 2.978275530040264130e-02 -4.002236127853393555e-01 -7.786805182695388794e-02 1.138753890991210938e-01 -5.473348125815391541e-02 3.312902152538299561e-02 -3.522625192999839783e-02 4.941222444176673889e-02 -2.141812257468700409e-02 1.907292567193508148e-02 1.568388342857360840e-01 -3.500020503997802734e-02 -6.008509173989295959e-02 8.667042851448059082e-02 6.664125621318817139e-02 -3.280358761548995972e-02 -3.591893240809440613e-02 6.457760930061340332e-03
-3.060454502701759338e-02 5.565236881375312805e-02 -2.576611749827861786e-02 -3.939190134406089783e-02 -5.865648761391639709e-02 -1.075118430890142918e-03 3.881426528096199036e-02 -5.873010959476232529e-04 8.262569457292556763e-02 1.187910437583923340e-01 -1.426574960350990295e-02 4.116439074277877808e-02 2.087230980396270752e-02 -2.171808853745460510e-02 -3.724475204944610596e-02 3.276688978075981140e-02 -3.713402664288878441e-03 -2.017797529697418213e-02 2.660526428371667862e-03 1.679678857326507568e-01 1.229186262935400009e-02 4.345661029219627380e-02 -6.974456831812858582e-03 -9.143475443124771118e-03 6.711290776729583740e-02 -1.207797601819038391e-02 2.165304683148860931e-02 1.243644766509532928e-02 3.342602029442787170e-02 -1.301655918359756470e-02 1.136154867708683014e-02 -2.470609359443187714e-02 1.116759330034255981e-02 -2.270133001729846001e-03 -5.993217602372169495e-02 -4.720352590084075928e-02 4.394903033971786499e-02 6.039437279105186462e-02 -4.373272880911827087e-03 -1.136443912982940674e-01 2.655852772295475006e-02 2.537977695465087891e-01 -1.483930181711912155e-02 8.643500506877899170e-03 -7.705787569284439087e-02 -1.720277965068817139e-02 2.977090142667293549e-02 2.408176474273204803e-02 -4.175724834203720093e-02 -6.865280121564865112e-02 4.448676109313964844e-02 -2.951401844620704651e-02 7.348327338695526123e-02 -4.236294422298669815e-03 -3.926232829689979553e-02 5.776209011673927307e-02 1.976454816758632660e-02 2.455948293209075928e-02 7.478827983140945435e-02 2.040786854922771454e-02 5.663377046585083008e-02 1.041837781667709351e-01 5.456085503101348877e-02 -4.647948965430259705e-02 1.061052389559336007e-04 3.032045625150203705e-02 4.503280296921730042e-02 3.786218166351318359e-02 -4.732263833284378052e-02 6.496603041887283325e-02 -2.921910770237445831e-02 4.226605407893657684e-03 1.252779504284262657e-03 6.002853438258171082e-02 -8.184268325567245483e-02 2.960912883281707764e-02 -1.191206369549036026e-02 -2.189634367823600769e-02 4.565387032926082611e-03 -5.049527063965797424e-02 8.857956528663635254e-02 4.200974851846694946e-02 -6.581956148147583008e-02 4.212155565619468689e-02 7.643955945968627930e-02 -4.827973619103431702e-02 -5.931724980473518372e-02 -8.633519709110260010e-02 4.527527466416358948e-02 -6.139994785189628601e-02 -1.560947159305214882e-03 1.888289302587509155e-01 6.322026997804641724e-02 2.964264899492263794e-02 -4.838809370994567871e-03 9.735483676195144653e-02 -2.424760907888412476e-02 -7.602520752698183060e-03 -8.461528271436691284e-02 -3.617749735713005066e-02 -8.326883614063262939e-02 9.682459384202957153e-02 8.907346427440643311e-02 1.885478198528289795e-02 5.168407782912254333e-02 2.879999019205570221e-02 1.006937772035598755e-02 4.792024847120046616e-03 -3.011002205312252045e-02 -3.328363224864006042e-02 2.528840862214565277e-02 -3.708180487155914307e-01 2.319998806342482567e-03 1.168573200702667236e-01 -4.986322671175003052e-02 5.257987231016159058e-02 -3.832681104540824890e-02 4.945662617683410645e-02 -4.591786861419677734e-02 3.262615576386451721e-02 1.095918491482734680e-01 -7.383401971310377121e-03 -3.050986211746931076e-03 6.534849852323532104e-02 3.118505701422691345e-02 -7.314670085906982422e-02 -1.654026098549365997e-02 1.199090573936700821e-02
-1.807382889091968536e-02 6.900414079427719116e-02 -9.285149164497852325e-03 -3.863596916198730469e-02 -4.811042919754981995e-03 9.643361903727054596e-03 4.712241515517234802e-02 3.697543218731880188e-02 5.455271899700164795e-02 1.215127557516098022e-01 -3.673102939501404762e-03 6.563576310873031616e-02 -1.500045228749513626e-02 1.410001143813133240e-02 4.192058369517326355e-02 -3.738313447684049606e-03 4.906522110104560852e-02 -3.150293231010437012e-02 2.118940278887748718e-02 1.462590545415878296e-01 -6.656925193965435028e-03 3.384490683674812317e-02 -7.892133668065071106e-03 1.233659218996763229e-02 -6.424459815025329590e-02 -3.735779598355293274e-02 7.265610992908477783e-02 2.057272940874099731e-02 1.037366595119237900e-02 -9.529624134302139282e-03 6.213781237602233887e-02 -6.135432422161102295e-02 9.561251848936080933e-03 -5.060716997832059860e-03 -6.059418246150016785e-02 -4.025056585669517517e-02 -1.951174065470695496e-02 -5.387177690863609314e-02 1.227967441082000732e-02 -3.944603353738784790e-02 -3.213652875274419785e-03 2.448682934045791626e-01 7.353693246841430664e-03 2.211086265742778778e-02 -1.231554001569747925e-01 1.099205948412418365e-02 3.992968797683715820e-02 -8.521375246345996857e-03 -6.769576668739318848e-02 -4.479837045073509216e-02 4.518741369247436523e-02 -1.707557588815689087e-02 6.455598771572113037e-02 3.842096542939543724e-03 1.626396784558892250e-03 8.708581328392028809e-02 5.185147747397422791e-02 5.965645238757133484e-02 6.039566174149513245e-02 -1.303439866751432419e-02 1.847793161869049072e-02 8.285810798406600952e-02 -4.500919952988624573e-02 -2.850354649126529694e-02 2.309761382639408112e-02 1.491179456934332848e-03 -4.465148225426673889e-02 4.189035296440124512e-02 -3.772933036088943481e-02 7.216133177280426025e-02 -3.051641397178173065e-02 1.387917995452880859e-02 -6.199191790074110031e-03 7.025524228811264038e-02 -3.693339973688125610e-02 2.738296985626220703e-02 2.436411101371049881e-03 -2.783242799341678619e-02 -1.010276470333337784e-02 -6.069002300500869751e-02 4.334664717316627502e-02 2.787298709154129028e-02 -7.974885404109954834e-02 9.113051928579807281e-03 1.612213067710399628e-02 -8.526855707168579102e-02 -7.333417236804962158e-02 -9.143538028001785278e-02 4.547195881605148315e-02 -7.117448002099990845e-02 3.375112637877464294e-02 9.144763648509979248e-02 4.827647283673286438e-02 -2.938654460012912750e-02 -3.114887140691280365e-02 3.435283526778221130e-02 -1.064399778842926025e-01 -4.055980220437049866e-02 -1.239485368132591248e-01 -5.355706810951232910e-02 -7.859359681606292725e-02 1.020430773496627808e-01 9.173066169023513794e-02 -2.710387669503688812e-02 1.342089921236038208e-01 8.762857317924499512e-02 3.925845026969909668e-02 1.251709461212158203e-02 -2.208401076495647430e-02 -1.182202622294425964e-02 5.585359409451484680e-02 -3.545618951320648193e-01 1.564871403388679028e-03 7.935813069343566895e-02 -6.844293326139450073e-02 1.149658411741256714e-01 3.244818374514579773e-02 7.556101679801940918e-02 -2.128758653998374939e-02 3.663429990410804749e-02 1.795537918806076050e-01 -4.445761814713478088e-02 2.070910483598709106e-02 5.567125976085662842e-02 3.207794204354286194e-02 -5.239166319370269775e-02 -5.959162488579750061e-03 6.008708104491233826e-02
-5.530564114451408386e-02 7.826659083366394043e-02 2.710660360753536224e-02 1.676169969141483307e-02 4.533571749925613403e-02 7.198633160442113876e-03 4.782039299607276917e-02 3.720674663782119751e-02 3.836137801408767700e-02 1.296901851892471313e-01 -7.242611050605773926e-02 8.501790463924407959e-02 1.313032233156263828e-03 -4.234635084867477417e-02 3.179039061069488525e-02 -2.474379725754261017e-02 2.459201030433177948e-02 4.963421449065208435e-02 2.575275860726833344e-02 1.458178162574768066e-01 -2.770411223173141479e-02 5.170598626136779785e-02 5.953779909759759903e-03 -1.542440708726644516e-02 -7.981752604246139526e-02 -5.079872207716107368e-04 7.012107223272323608e-02 -9.530871175229549408e-03 9.334032423794269562e-03 -2.102011628448963165e-02 7.504556328058242798e-03 -6.131551414728164673e-02 -1.318496000021696091e-02 -1.075171399861574173e-02 -5.364715680480003357e-02 -1.522860396653413773e-02 3.134045982733368874e-04 -5.628454964607954025e-03 -2.133708260953426361e-02 6.031905114650726318e-02 5.750911682844161987e-02 2.348472028970718384e-01 -8.462540805339813232e-03 1.378773525357246399e-02 -6.731028854846954346e-02 -2.785105258226394653e-02 3.265859931707382202e-02 -3.182464092969894409e-02 -6.535249203443527222e-02 -2.543607167899608612e-02 4.671043157577514648e-02 -4.331238742452114820e-04 1.547244656831026077e-02 -2.355617703869938850e-03 2.397235296666622162e-02 3.460655733942985535e-02 5.307947844266891479e-02 -1.595342159271240234e-02 7.507652044296264648e-02 -6.103635579347610474e-02 3.541642054915428162e-02 6.933925300836563110e-02 7.362145930528640747e-02 9.615182876586914062e-03 2.005379647016525269e-02 -1.876621134579181671e-02 -2.604785934090614319e-02 4.295625910162925720e-02 -4.752985760569572449e-02 3.948786854743957520e-02 -9.654033929109573364e-02 2.712563797831535339e-02 -1.626436039805412292e-02 4.040406271815299988e-02 -4.814351908862590790e-03 6.584729254245758057e-02 -2.188029140233993530e-02 1.273155212402343750e-02 -9.471520897932350636e-04 -4.544379655271768570e-03 4.726086556911468506e-02 4.677015356719493866e-03 -7.389858365058898926e-02 -7.974297739565372467e-03 6.666737049818038940e-02 -7.186867296695709229e-02 6.365853361785411835e-03 -8.690346032381057739e-02 6.118490546941757202e-02 -8.140299469232559204e-02 1.350316684693098068e-02 8.303928375244140625e-02 4.303671419620513916e-02 -4.427652433514595032e-02 -3.812254872173070908e-03 6.306111067533493042e-02 -5.851187184453010559e-02 -1.850437931716442108e-02 -6.866420805454254150e-02 -6.346290558576583862e-02 -4.011407494544982910e-02 9.239777922630310059e-02 6.905751675367355347e-02 -9.272560477256774902e-03 7.818924635648727417e-02 1.038365364074707031e-01 5.454777926206588745e-02 -3.478884696960449219e-02 -1.163917407393455505e-02 -2.522785216569900513e-02 4.859830066561698914e-02 -3.427644968032836914e-01 1.176504790782928467e-02 5.760671943426132202e-02 -3.089826926589012146e-02 1.614032685756683350e-01 5.126126483082771301e-02 -6.634900718927383423e-02 3.652798710390925407e-03 1.506009232252836227e-02 1.765720695257186890e-01 -6.829612702131271362e-02 5.429250746965408325e-02 1.029297858476638794e-01 5.976393446326255798e-02 -2.433091029524803162e-02 7.863154634833335876e-03 4.067239537835121155e-02
-7.462787628173828125e-02 6.505370885133743286e-02 4.121590033173561096e-02 5.003815982490777969e-03 4.450528696179389954e-02 -4.075470194220542908e-02 3.202413022518157959e-02 3.597984090447425842e-02 6.966946274042129517e-02 1.177783012390136719e-01 -4.652896896004676819e-02 4.251383244991302490e-02 -5.809947475790977478e-02 -1.891329139471054077e-02 1.836493983864784241e-02 2.445982024073600769e-02 -1.245201472193002701e-02 1.568949222564697266e-02 1.383659522980451584e-02 1.469765007495880127e-01 1.247529033571481705e-02 6.114701181650161743e-02 4.544923081994056702e-03 5.213193595409393311e-02 1.103220954537391663e-01 -1.829454302787780762e-02 3.019362129271030426e-02 -2.877494879066944122e-02 1.016035443171858788e-03 -5.205051228404045105e-02 -1.121728494763374329e-02 -5.319123715162277222e-02 -1.394450385123491287e-02 -3.351260349154472351e-02 -6.249080970883369446e-02 2.744916360825300217e-03 3.340750187635421753e-02 2.382671926170587540e-03 -3.116611577570438385e-02 4.707977920770645142e-02 5.641680676490068436e-03 2.246039956808090210e-01 6.469152402132749557e-03 2.359268441796302795e-02 2.331699617207050323e-02 -4.010870307683944702e-02 5.183243006467819214e-02 -1.393672358244657516e-02 -7.961994409561157227e-02 -2.797980420291423798e-02 5.790844559669494629e-02 5.119705945253372192e-02 5.712383240461349487e-02 -9.335557930171489716e-03 -1.884189248085021973e-02 7.221128046512603760e-02 3.783338889479637146e-02 -4.925238713622093201e-02 9.030718356370925903e-02 -5.145535245537757874e-02 -3.325887769460678101e-02 9.469250589609146118e-02 -1.244102884083986282e-02 2.183347195386886597e-02 2.892647124826908112e-02 5.660932511091232300e-03 2.797405235469341278e-02 1.842243969440460205e-02 -5.330895632505416870e-02 6.180033832788467407e-02 -6.554444134235382080e-02 3.581665456295013428e-02 -7.139287889003753662e-03 1.052214764058589935e-02 3.233741223812103271e-02 5.784382577985525131e-03 -3.232430666685104370e-02 5.835605785250663757e-03 1.031323149800300598e-02 8.225295692682266235e-02 5.485229939222335815e-02 5.220757797360420227e-03 -4.711461439728736877e-02 5.700197443366050720e-02 8.408582955598831177e-02 -2.236524038016796112e-02 -3.171929344534873962e-02 -7.658370584249496460e-02 6.502438336610794067e-02 -8.993048220872879028e-02 -1.392607204616069794e-02 -4.206490516662597656e-02 5.591432005167007446e-02 -4.844607040286064148e-02 5.980051681399345398e-02 5.884959921240806580e-02 -4.726713523268699646e-02 -3.356052190065383911e-02 -7.560914754867553711e-02 -4.692919179797172546e-02 -4.175556451082229614e-02 7.754287123680114746e-02 -7.129709236323833466e-03 2.621680684387683868e-02 2.002629823982715607e-02 7.534407079219818115e-02 9.817485511302947998e-02 -5.518348887562751770e-02 -2.194130234420299530e-02 -5.971246864646673203e-03 1.998064108192920685e-02 -3.425108790397644043e-01 -4.034989699721336365e-02 4.514668136835098267e-02 -6.139540299773216248e-02 1.085477247834205627e-01 -4.571381956338882446e-02 -8.397893607616424561e-02 3.372410312294960022e-02 4.171498119831085205e-03 1.102293133735656738e-01 -1.899072900414466858e-02 1.592538692057132721e-02 1.084841713309288025e-01 5.224448069930076599e-02 4.846540279686450958e-03 6.388226989656686783e-03 8.191869594156742096e-03
-7.999049872159957886e-02 5.165398493409156799e-02 2.866319380700588226e-03 -6.299193203449249268e-02 6.896784994751214981e-03 -3.781577572226524353e-02 7.367477566003799438e-02 5.844724923372268677e-02 6.541384756565093994e-02 1.102237850427627563e-01 -4.145226255059242249e-02 6.257396936416625977e-02 -4.117461666464805603e-02 -2.527438476681709290e-02 -3.305028378963470459e-02 -2.583856135606765747e-02 2.097130194306373596e-02 1.187418587505817413e-03 2.132207900285720825e-02 1.698139011859893799e-01 2.333698794245719910e-02 1.165622174739837646e-01 1.219476107507944107e-02 3.497043251991271973e-02 6.709180772304534912e-02 7.807518821209669113e-03 4.127330332994461060e-02 -1.677112095057964325e-02 4.460583254694938660e-02 -7.954025268554687500e-02 3.674681484699249268e-02 1.975513249635696411e-02 -9.015285409986972809e-03 1.074540615081787109e-02 -3.818849101662635803e-02 -3.532378701493144035e-03 3.986663371324539185e-02 -4.997145384550094604e-03 -5.458726733922958374e-02 -9.130310267210006714e-02 -9.698455221951007843e-03 2.168725579977035522e-01 9.082229807972908020e-03 2.799073606729507446e-02 1.283541023731231689e-01 -1.720861531794071198e-02 3.028554469347000122e-02 5.298285279422998428e-03 -2.490402385592460632e-02 -4.651825875043869019e-02 6.636311858892440796e-02 2.771093137562274933e-02 3.967464342713356018e-02 8.505306206643581390e-03 -2.589489892125129700e-02 3.740527108311653137e-02 4.953711107373237610e-02 -4.280329868197441101e-02 1.067620366811752319e-01 -3.967174887657165527e-02 -2.213037386536598206e-02 7.344930619001388550e-02 -2.030478231608867645e-02 2.142069861292839050e-02 -6.319345440715551376e-03 -4.788215458393096924e-02 3.013149276375770569e-02 1.346829906105995178e-02 -4.378787800669670105e-02 9.474893659353256226e-02 1.630069687962532043e-02 7.477770000696182251e-02 -3.551022335886955261e-02 5.452188104391098022e-02 5.714672058820724487e-02 4.880772158503532410e-02 4.387418273836374283e-03 -9.646999649703502655e-03 -1.207582652568817139e-02 7.667110115289688110e-02 -2.955242805182933807e-02 2.597497310489416122e-03 -4.532980918884277344e-02 2.649540640413761139e-02 3.109876066446304321e-02 -4.915708303451538086e-02 -1.244711223989725113e-02 -8.817855268716812134e-02 8.491041511297225952e-02 -1.144963502883911133e-01 3.887078026309609413e-03 -4.467981308698654175e-02 4.454281926155090332e-02 -3.982724994421005249e-02 4.217883571982383728e-02 3.717409819364547729e-02 -5.751157179474830627e-02 1.742257550358772278e-02 -4.329110682010650635e-02 -8.326733857393264771e-02 -7.241382449865341187e-02 1.103846058249473572e-01 1.911721006035804749e-02 3.785048052668571472e-02 -3.639263287186622620e-02 4.196184873580932617e-02 5.551815032958984375e-02 -8.185713738203048706e-02 -4.869770258665084839e-02 -5.259483307600021362e-02 1.925695128738880157e-02 -3.295134007930755615e-01 -5.437556281685829163e-02 9.088720381259918213e-02 -5.844965949654579163e-02 1.063605174422264099e-01 -6.115087494254112244e-02 -4.564134404063224792e-02 3.516675531864166260e-02 2.338885143399238586e-02 1.390190571546554565e-01 -5.190053209662437439e-02 -2.664350718259811401e-02 8.837412297725677490e-02 6.386312842369079590e-02 7.036606781184673309e-03 -1.043410226702690125e-02 -1.882398687303066254e-02
-7.371788471937179565e-02 4.412545636296272278e-02 -3.306894749402999878e-02 -5.075129866600036621e-02 -3.669790178537368774e-02 -5.175204202532768250e-02 2.180009335279464722e-02 1.681091263890266418e-02 9.979067742824554443e-02 1.048163026571273804e-01 -1.314727216958999634e-02 8.140874095261096954e-03 -1.021806383505463600e-03 -4.456537775695323944e-03 -5.287442728877067566e-02 1.474383007735013962e-02 2.795462962239980698e-03 1.105349231511354446e-02 1.418511383235454559e-02 1.737648993730545044e-01 4.940747469663619995e-02 8.068837970495223999e-02 -3.547840053215622902e-03 1.689242012798786163e-02 1.123013123869895935e-01 -2.383738197386264801e-02 -2.464114315807819366e-02 -3.691638121381402016e-03 3.895707055926322937e-02 -4.712256044149398804e-02 7.012459536781534553e-05 3.830813243985176086e-02 -8.224428747780621052e-04 2.764299046248197556e-03 -4.953317344188690186e-02 -1.277757156640291214e-02 3.012361936271190643e-02 9.559393674135208130e-02 -2.522217296063899994e-02 -1.515949070453643799e-01 2.693196758627891541e-02 2.271670401096343994e-01 3.861591219902038574e-03 8.781026117503643036e-03 5.177431553602218628e-02 -1.863960735499858856e-02 6.457860767841339111e-02 4.471496492624282837e-02 -1.746621541678905487e-02 -8.434709161520004272e-02 6.295307725667953491e-02 -6.756851915270090103e-03 5.809004232287406921e-02 1.624454930424690247e-02 -3.555491566658020020e-02 6.108791753649711609e-02 2.279276959598064423e-02 -8.974238298833370209e-03 6.260433048009872437e-02 1.522783190011978149e-02 7.387477904558181763e-03 9.682027995586395264e-02 -1.688367919996380806e-03 -2.472064830362796783e-02 9.731856174767017365e-03 4.851873219013214111e-02 8.924587815999984741e-02 1.615276327356696129e-03 -6.723270565271377563e-02 8.500514179468154907e-02 2.712462656199932098e-02 3.121989034116268158e-02 -5.161043256521224976e-03 5.096923559904098511e-02 -3.137871623039245605e-02 4.280757531523704529e-02 -9.548198431730270386e-03 -7.078247610479593277e-03 9.265932254493236542e-03 -2.564176451414823532e-03 5.419685319066047668e-02 3.055558353662490845e-02 -8.004514873027801514e-02 5.022374913096427917e-02 1.020706817507743835e-01 -3.144599869847297668e-02 -4.983977973461151123e-02 -9.906845539808273315e-02 7.693116366863250732e-02 -8.767875283956527710e-02 -6.473215762525796890e-03 8.133461326360702515e-02 6.562173366546630859e-02 6.298623979091644287e-03 3.669852390885353088e-02 7.619769126176834106e-02 -1.528567261993885040e-02 -8.123718202114105225e-03 -6.821748614311218262e-02 -4.355785623192787170e-02 -7.379928231239318848e-02 9.206953644752502441e-02 3.210214152932167053e-02 4.500949382781982422e-02 -3.364146128296852112e-02 2.583510614931583405e-02 1.684358343482017517e-02 -3.005580045282840729e-02 -3.327570110559463501e-02 -4.943005740642547607e-02 2.144812233746051788e-02 -3.114444911479949951e-01 -1.537020690739154816e-02 1.150931045413017273e-01 -7.533326745033264160e-02 4.691431298851966858e-02 -8.839605748653411865e-02 1.537716574966907501e-02 -4.212682321667671204e-02 8.266976103186607361e-03 8.333638310432434082e-02 3.132488578557968140e-03 -2.085027052089571953e-03 4.408146813511848450e-02 1.451854594051837921e-02 -6.268513202667236328e-02 -1.683217473328113556e-02 -3.805049229413270950e-03
-6.439850479364395142e-02 4.131701961159706116e-02 -8.968453854322433472e-02 -5.721376091241836548e-02 -2.877864800393581390e-02 -5.233830772340297699e-03 2.834626100957393646e-02 3.238754719495773315e-02 7.458476722240447998e-02 1.085328385233879089e-01 -3.511845134198665619e-03 4.877033829689025879e-02 -2.408152073621749878e-02 1.208002562634646893e-03 -2.206910215318202972e-02 2.430984005331993103e-02 5.732699763029813766e-03 1.552656013518571854e-02 2.233564108610153198e-02 1.794412136077880859e-01 3.262721467763185501e-03 6.088926270604133606e-02 -9.270324371755123138e-03 1.939454860985279083e-02 -7.830154895782470703e-02 -1.976924575865268707e-02 -2.590836770832538605e-02 2.043949440121650696e-02 3.049097955226898193e-02 -2.495268359780311584e-02 7.200962305068969727e-02 2.782044373452663422e-02 1.970829628407955170e-02 1.499684806913137436e-02 -3.990729153156280518e-02 -2.697891741991043091e-02 -4.257648810744285583e-02 -1.067998725920915604e-02 -6.819301284849643707e-03 -1.353314369916915894e-01 2.987013570964336395e-02 2.300081253051757812e-01 -1.045200508087873459e-02 2.572423219680786133e-02 -2.919452264904975891e-02 3.663535788655281067e-02 6.865209341049194336e-02 1.389087550342082977e-02 -2.352940291166305542e-02 -8.706602454185485840e-02 5.101107433438301086e-02 -2.655125036835670471e-02 4.421368613839149475e-02 2.103463187813758850e-02 -2.657989412546157837e-02 7.034033536911010742e-02 3.362044692039489746e-02 1.669267565011978149e-02 4.074354842305183411e-02 1.994346641004085541e-02 5.632831249386072159e-03 6.781029701232910156e-02 -5.692572519183158875e-02 -2.719989232718944550e-02 -5.576267372816801071e-03 -1.850967295467853546e-02 -1.925211586058139801e-02 9.207270108163356781e-03 -3.511198610067367554e-02 9.080158174037933350e-02 4.839932173490524292e-02 3.299679234623908997e-02 -1.615540683269500732e-02 9.983508288860321045e-02 2.407038211822509766e-02 3.981142863631248474e-02 -1.085738651454448700e-02 -3.096986003220081329e-02 -1.838332245824858546e-04 -5.106142908334732056e-02 -5.789906252175569534e-03 2.189688757061958313e-02 -1.108027473092079163e-01 -2.650011330842971802e-02 6.242005899548530579e-02 -7.583173364400863647e-02 -7.007888704538345337e-02 -1.083015948534011841e-01 8.214824646711349487e-02 -1.071916222572326660e-01 3.787849843502044678e-02 1.355694383382797241e-01 3.903315588831901550e-02 1.323857810348272324e-02 -2.879250608384609222e-02 6.444629281759262085e-02 -7.582310587167739868e-02 -1.859152130782604218e-02 -6.763876974582672119e-02 -7.063955068588256836e-02 -9.211405366659164429e-02 1.091110631823539734e-01 8.939131349325180054e-02 -5.136298947036266327e-03 4.213547334074974060e-02 4.683096706867218018e-02 -9.156678803265094757e-03 -5.235102493315935135e-03 -3.927702084183692932e-02 -6.096163764595985413e-02 5.055527016520500183e-02 -2.984159886837005615e-01 -1.732888864353299141e-03 1.045615300536155701e-01 -5.449011176824569702e-02 9.051509946584701538e-02 -3.787367790937423706e-02 8.040148764848709106e-02 -5.051074177026748657e-02 5.957223474979400635e-02 1.688233166933059692e-01 -3.431412950158119202e-02 2.457976341247558594e-03 7.508356589823961258e-03 2.845579758286476135e-02 -5.678820237517356873e-02 -1.223841402679681778e-02 3.152329102158546448e-02
-8.321850001811981201e-02 6.072022765874862671e-02 -8.520205318927764893e-02 3.084762766957283020e-02 1.075433380901813507e-02 -3.070793673396110535e-02 1.392380893230438232e-02 1.043500844389200211e-02 5.758462846279144287e-02 9.568575769662857056e-02 -4.773100093007087708e-02 4.585294798016548157e-02 2.665130421519279480e-03 -2.444207109510898590e-02 1.041123643517494202e-02 1.542937196791172028e-02 -3.388242475921288133e-05 2.730105258524417877e-02 -3.681288566440343857e-03 1.621896624565124512e-01 1.037543453276157379e-02 5.373923480510711670e-02 -4.016068764030933380e-03 3.584115207195281982e-02 -6.949121505022048950e-02 -1.726257055997848511e-02 -5.008751526474952698e-02 8.833182044327259064e-03 -1.723326928913593292e-02 -4.327033087611198425e-02 4.566144663840532303e-03 -1.120653469115495682e-02 -1.692819222807884216e-02 5.818497389554977417e-03 -5.105820298194885254e-02 -1.089042145758867264e-02 -1.316261477768421173e-02 8.970358222723007202e-02 5.782691878266632557e-04 -4.181504249572753906e-03 1.421566214412450790e-02 2.295812219381332397e-01 3.535107243806123734e-03 1.171732973307371140e-02 -1.184076294302940369e-01 -4.739685729146003723e-02 8.406927436590194702e-02 -1.544623356312513351e-02 -6.808695197105407715e-02 -7.075463980436325073e-02 6.044203042984008789e-02 -6.652101874351501465e-02 2.839777432382106781e-02 1.909514330327510834e-02 2.260416373610496521e-02 8.606288582086563110e-02 3.508452698588371277e-02 -1.614041044376790524e-03 3.766497597098350525e-02 -6.645143032073974609e-03 2.145393006503582001e-02 8.269719034433364868e-02 4.798074811697006226e-02 -7.714315783232450485e-03 3.342294320464134216e-02 2.723195031285285950e-02 -3.436746075749397278e-02 1.754505001008510590e-02 -3.720914945006370544e-02 7.921294867992401123e-02 -7.261694408953189850e-03 -1.784660108387470245e-02 -1.663665100932121277e-02 4.471425339579582214e-02 6.236143037676811218e-02 4.762838408350944519e-02 -3.188608586788177490e-02 3.701277449727058411e-02 -1.278556603938341141e-02 -1.061693802475929260e-01 3.660826757550239563e-02 1.915450394153594971e-02 -1.070399358868598938e-01 -2.968369424343109131e-02 9.181472659111022949e-02 -7.184669375419616699e-02 -3.076598048210144043e-02 -9.984738379716873169e-02 7.487098872661590576e-02 -9.339853376150131226e-02 4.858999978750944138e-03 1.351932287216186523e-01 3.982999548316001892e-02 -2.674116054549813271e-03 -3.537556156516075134e-02 4.963994398713111877e-02 -5.155475437641143799e-02 -4.649653285741806030e-02 -8.016655594110488892e-02 -6.579457223415374756e-02 -4.724242538213729858e-02 9.210572391748428345e-02 4.678292572498321533e-02 -1.284061186015605927e-02 5.832047015428543091e-02 9.023806452751159668e-02 -6.394032388925552368e-03 2.960822312161326408e-04 -7.441423367708921432e-03 -4.111179709434509277e-02 6.586103141307830811e-02 -2.897024750709533691e-01 3.278992371633648872e-03 8.977474272251129150e-02 -6.861017644405364990e-02 9.576541185379028320e-02 -2.540685003623366356e-03 2.509178221225738525e-02 -1.646405458450317383e-02 1.714711892418563366e-03 1.444590091705322266e-01 -2.706890180706977844e-02 7.878044992685317993e-02 -4.410179797559976578e-03 3.916966170072555542e-02 -8.453565835952758789e-02 -4.220647271722555161e-03 3.599280864000320435e-02
-8.646396547555923462e-02 8.156294375658035278e-02 -4.254347644746303558e-03 4.369226470589637756e-02 6.202714517712593079e-02 -2.456629648804664612e-02 4.327080398797988892e-02 4.917255043983459473e-02 3.284479305148124695e-02 1.042567566037178040e-01 -8.683241903781890869e-02 5.397182703018188477e-02 -2.497955039143562317e-02 -2.097335644066333771e-02 3.834410756826400757e-02 1.220958214253187180e-02 1.082238927483558655e-02 2.869277261197566986e-03 5.574483890086412430e-03 1.314682215452194214e-01 1.400420349091291428e-02 6.991016119718551636e-02 1.543721882626414299e-03 2.678189240396022797e-02 -4.580790549516677856e-02 2.145028440281748772e-03 5.302610993385314941e-02 -1.492483448237180710e-02 -9.933827444911003113e-03 -4.641695693135261536e-02 1.564663834869861603e-02 -3.446033596992492676e-02 2.684461139142513275e-02 -8.077590726315975189e-03 -5.049053952097892761e-02 3.209829702973365784e-02 2.298790030181407928e-02 1.126477494835853577e-02 -1.045692246407270432e-02 4.506296664476394653e-02 -2.788691781461238861e-02 2.161468118429183960e-01 9.324022568762302399e-03 2.513360977172851562e-02 -5.888912361115217209e-03 -3.869801014661788940e-02 7.243209332227706909e-02 -3.176709637045860291e-02 -8.882319927215576172e-02 -3.543173894286155701e-02 6.112144514918327332e-02 -3.611904010176658630e-02 3.613101691007614136e-02 1.279699150472879410e-02 2.435078658163547516e-02 1.163388714194297791e-01 6.542652100324630737e-02 1.797072216868400574e-02 6.218958273530006409e-02 -4.903425276279449463e-02 2.083053812384605408e-02 6.837146729230880737e-02 -4.118763282895088196e-02 1.429613307118415833e-02 2.493609115481376648e-02 -4.709199815988540649e-02 -6.782414019107818604e-02 2.910199388861656189e-02 -3.492965921759605408e-02 6.287805736064910889e-02 -5.524583160877227783e-02 2.943670563399791718e-02 -2.251232042908668518e-02 4.111872613430023193e-02 6.485989689826965332e-02 3.586882352828979492e-02 -1.351160835474729538e-02 4.246021807193756104e-02 -3.070257231593132019e-02 -3.038305789232254028e-02 -4.494082927703857422e-02 1.158413756638765335e-02 -8.437742292881011963e-02 -4.020100831985473633e-02 5.294140428304672241e-02 -5.315589159727096558e-02 -6.759309768676757812e-02 -9.355363249778747559e-02 8.007619529962539673e-02 -1.053637415170669556e-01 4.834093153476715088e-03 3.239778801798820496e-02 4.145194590091705322e-02 -4.479870945215225220e-02 -4.862888529896736145e-02 -1.916086673736572266e-02 -9.802433103322982788e-02 -6.889969855546951294e-02 -7.905264943838119507e-02 -6.015650182962417603e-02 -2.179348282516002655e-02 8.291828632354736328e-02 -1.337341265752911568e-03 -9.068425744771957397e-03 3.150521963834762573e-02 1.147482171654701233e-01 4.777124151587486267e-02 -4.009533673524856567e-02 -2.224225178360939026e-02 -3.076837770640850067e-02 8.291941136121749878e-02 -2.899688780307769775e-01 -4.123993590474128723e-02 4.897547885775566101e-02 -9.204605966806411743e-02 1.075191870331764221e-01 1.749610528349876404e-02 4.941871389746665955e-02 1.891488768160343170e-02 -2.241339907050132751e-02 2.146063297986984253e-01 -6.700471043586730957e-02 5.381343141198158264e-02 2.489920705556869507e-02 5.010848492383956909e-02 -4.533827677369117737e-02 1.332212612032890320e-02 5.733020603656768799e-02
-7.004827260971069336e-02 7.585490494966506958e-02 3.451486816629767418e-03 3.918588533997535706e-02 6.218593940138816833e-02 -1.519001834094524384e-02 6.805716454982757568e-02 5.789785832166671753e-02 4.450749605894088745e-02 1.078292280435562134e-01 -9.705734252929687500e-02 1.086087822914123535e-01 7.291184738278388977e-03 -2.889075689017772675e-02 4.157255752943456173e-04 -5.255001783370971680e-02 9.636284783482551575e-03 2.425107918679714203e-02 1.126275118440389633e-02 1.434380114078521729e-01 2.189073152840137482e-02 1.032851114869117737e-01 9.401871822774410248e-03 1.033028122037649155e-02 1.931912964209914207e-03 4.233709350228309631e-02 4.905458539724349976e-02 -1.702185906469821930e-02 1.620397903025150299e-02 -7.842223346233367920e-02 -5.438399314880371094e-02 -1.059827301651239395e-02 -3.737572208046913147e-02 1.137477345764636993e-02 -4.323017597198486328e-02 9.544302709400653839e-03 6.811740994453430176e-02 7.292785495519638062e-02 -4.816528037190437317e-02 -4.910669289529323578e-03 2.343188226222991943e-02 2.101904451847076416e-01 -1.980804605409502983e-03 1.817629858851432800e-02 7.932594418525695801e-02 -3.722178190946578979e-02 2.910895645618438721e-02 -1.620955020189285278e-02 -6.261350959539413452e-02 -3.188684210181236267e-02 7.168529927730560303e-02 -2.828600630164146423e-02 8.100818842649459839e-03 2.116972208023071289e-02 -1.071976125240325928e-02 6.089366972446441650e-02 7.047780603170394897e-02 -5.426754802465438843e-02 6.725040823221206665e-02 -6.912029534578323364e-02 3.953442350029945374e-02 5.131518840789794922e-02 4.135924950242042542e-02 -3.605692647397518158e-03 2.782757766544818878e-02 -7.574760168790817261e-02 -1.175532955676317215e-02 4.312544688582420349e-02 -2.563623152673244476e-02 7.972690463066101074e-02 -8.254490047693252563e-02 6.720890291035175323e-03 -2.324501052498817444e-02 4.708886146545410156e-02 4.182428121566772461e-02 6.787829101085662842e-02 -5.421129986643791199e-03 4.524797573685646057e-02 -2.895016409456729889e-02 3.105003200471401215e-02 -2.644763514399528503e-02 1.365138590335845947e-02 -5.480099096894264221e-02 -1.272469107061624527e-02 4.864161461591720581e-02 -5.036007985472679138e-02 -3.865839913487434387e-02 -8.078883588314056396e-02 9.427738189697265625e-02 -1.096892282366752625e-01 -1.001575775444507599e-02 1.353945117443799973e-02 5.994837731122970581e-02 -7.195425778627395630e-02 -1.956302300095558167e-02 -1.024501956999301910e-02 -6.053840368986129761e-02 1.667866669595241547e-02 -4.086410999298095703e-02 -9.998147189617156982e-02 -5.492082238197326660e-02 1.075384765863418579e-01 -8.305292576551437378e-03 4.976173490285873413e-02 -3.379298746585845947e-02 8.816801011562347412e-02 5.658450722694396973e-02 -9.017544239759445190e-02 -1.559446752071380615e-02 -6.743837147951126099e-02 5.106786638498306274e-02 -2.803114056587219238e-01 -5.513531714677810669e-02 5.832798406481742859e-02 -5.517034232616424561e-02 1.085728481411933899e-01 3.798315674066543579e-02 -5.114074796438217163e-02 5.524784699082374573e-02 -9.100446477532386780e-03 1.729549914598464966e-01 -6.264548003673553467e-02 -5.571151152253150940e-03 5.677554383873939514e-02 7.917899638414382935e-02 -3.524900972843170166e-02 2.002469263970851898e-02 6.375550292432308197e-03
-3.669212758541107178e-02 5.942868441343307495e-02 3.474667295813560486e-02 -3.735117241740226746e-02 4.184183105826377869e-02 -1.751165091991424561e-02 6.580518931150436401e-02 3.865525498986244202e-02 6.159638985991477966e-02 1.122713238000869751e-01 -7.567179948091506958e-02 9.984527528285980225e-02 3.516218811273574829e-02 -2.806559577584266663e-02 -1.535686897113919258e-03 -4.860952123999595642e-02 3.151852265000343323e-02 -4.569114372134208679e-02 2.305371873080730438e-02 1.646233946084976196e-01 3.835559263825416565e-02 9.227304160594940186e-02 -1.268867589533329010e-02 -2.805261500179767609e-02 9.673493355512619019e-02 3.165536373853683472e-02 9.062346816062927246e-02 -4.683030711021274328e-04 4.936632141470909119e-02 -4.447462037205696106e-02 -4.579426720738410950e-02 -1.090673357248306274e-02 4.114969633519649506e-03 6.471949163824319839e-03 -5.260545387864112854e-02 -7.687338162213563919e-03 1.012604832649230957e-01 3.765351325273513794e-02 -5.785478651523590088e-02 -1.099202483892440796e-01 -2.346727438271045685e-02 2.095810920000076294e-01 -3.371521364897489548e-03 7.718059234321117401e-03 6.052696332335472107e-02 -2.569566294550895691e-02 4.651951789855957031e-02 7.550654932856559753e-03 -5.263281241059303284e-02 -3.807722777128219604e-02 6.087480857968330383e-02 4.999634344130754471e-03 6.027634814381599426e-02 3.188389167189598083e-02 -5.282381922006607056e-02 5.166585370898246765e-02 4.450490698218345642e-02 -1.253356784582138062e-02 8.001685142517089844e-02 -5.672355368733406067e-02 4.667226597666740417e-02 4.235897585749626160e-02 4.956933483481407166e-02 -2.593345195055007935e-02 -7.506319321691989899e-03 -3.637862578034400940e-02 2.928229421377182007e-02 5.700490996241569519e-02 -4.065996035933494568e-02 6.769180297851562500e-02 -8.675947040319442749e-02 8.493521600030362606e-04 -8.891305886209011078e-03 5.536191165447235107e-02 -8.155326545238494873e-02 6.291905790567398071e-02 2.322329208254814148e-02 1.801763474941253662e-02 6.823899690061807632e-03 3.710467740893363953e-02 8.910856209695339203e-03 9.709987789392471313e-03 -5.707427114248275757e-02 4.539543017745018005e-02 4.303849488496780396e-02 -4.625118523836135864e-02 -8.857674896717071533e-02 -5.828638002276420593e-02 8.922703564167022705e-02 -1.011640727519989014e-01 -2.805750118568539619e-03 4.066657647490501404e-02 7.274921983480453491e-02 -5.395124852657318115e-02 -5.914239678531885147e-03 1.039282511919736862e-02 -4.591714963316917419e-02 6.826223339885473251e-03 -6.185437738895416260e-02 -4.592977464199066162e-02 -4.921922087669372559e-02 8.809565752744674683e-02 1.192743517458438873e-02 6.217420473694801331e-02 -3.874629363417625427e-02 7.378721237182617188e-02 5.672796070575714111e-02 -7.300540804862976074e-02 -1.912476681172847748e-02 -1.991914957761764526e-02 4.680437222123146057e-02 -2.692233920097351074e-01 -7.748090475797653198e-02 6.572586297988891602e-02 -7.111828029155731201e-02 3.818743675947189331e-02 3.535315021872520447e-02 2.636374346911907196e-02 7.974604144692420959e-03 1.038521295413374901e-03 1.530090570449829102e-01 -5.067563429474830627e-02 -5.121002346277236938e-02 7.184370607137680054e-02 6.134428828954696655e-02 -3.473177179694175720e-02 2.661631256341934204e-02 1.161604747176170349e-02
-3.238243982195854187e-02 5.197590589523315430e-02 1.017713733017444611e-02 -4.097905755043029785e-02 1.944633759558200836e-02 -4.011829942464828491e-02 3.454270958900451660e-02 1.716889254748821259e-02 6.883565336465835571e-02 9.602059423923492432e-02 7.408122532069683075e-03 1.136649623513221741e-01 -3.467633947730064392e-02 9.247240610420703888e-03 1.075314451009035110e-02 1.782998815178871155e-02 7.010290864855051041e-03 -1.044869981706142426e-02 4.573909565806388855e-02 1.822292953729629517e-01 -9.265466593205928802e-03 7.405253499746322632e-02 -4.308944568037986755e-02 6.381006678566336632e-04 7.720363140106201172e-02 -3.912186715751886368e-03 -4.484530165791511536e-02 -1.469109393656253815e-02 5.569435656070709229e-02 -2.961649373173713684e-02 -4.011081531643867493e-02 -1.811902783811092377e-02 -4.416593536734580994e-02 2.999390289187431335e-02 -3.144664317369461060e-02 -4.440060630440711975e-02 3.843826800584793091e-02 1.226021815091371536e-02 -5.454495921730995178e-02 -9.782209992408752441e-02 3.634161874651908875e-02 2.204785794019699097e-01 2.874518046155571938e-03 1.123983226716518402e-02 4.844393697567284107e-04 -5.106785334646701813e-03 6.997965276241302490e-02 2.633701451122760773e-02 -5.100012198090553284e-02 -7.256469130516052246e-02 6.986954063177108765e-02 2.840921841561794281e-02 7.250177860260009766e-02 2.059205994009971619e-02 -4.996498301625251770e-02 -7.850398309528827667e-03 1.409141160547733307e-02 -6.142281368374824524e-02 7.204122841358184814e-02 -4.538094997406005859e-02 -6.711991038173437119e-03 4.238050803542137146e-02 7.216911017894744873e-02 -1.779843308031558990e-02 -4.074736963957548141e-03 3.086533397436141968e-02 5.337011441588401794e-02 2.191304042935371399e-02 -5.787572264671325684e-02 8.528496325016021729e-02 -3.222716227173805237e-02 -1.512413844466209412e-03 4.819520749151706696e-03 4.551902785897254944e-02 -1.195623502135276794e-01 3.344355896115303040e-02 -4.511659499257802963e-03 -1.581431366503238678e-02 2.710965648293495178e-02 7.260945439338684082e-02 8.010314404964447021e-02 -1.436110679060220718e-02 -8.547438681125640869e-02 6.402274221181869507e-02 1.153084784746170044e-01 -5.414521694183349609e-02 -4.696007072925567627e-02 -5.896770954132080078e-02 9.496068209409713745e-02 -8.432008326053619385e-02 1.380258705466985703e-02 2.024651039391756058e-03 7.155619561672210693e-02 -3.870171681046485901e-02 8.065041899681091309e-02 8.915057033300399780e-02 -1.758956350386142731e-02 1.958730258047580719e-02 -5.237275734543800354e-02 -6.905566155910491943e-02 -6.648671627044677734e-02 8.590614050626754761e-02 3.466983139514923096e-02 3.737168014049530029e-02 7.804690394550561905e-03 4.271754249930381775e-02 4.536938667297363281e-02 -7.156360149383544922e-02 9.401018731296062469e-03 -2.759328112006187439e-02 2.606366761028766632e-02 -2.521878182888031006e-01 -5.478098616003990173e-02 6.659123301506042480e-02 -4.051759839057922363e-02 6.963481009006500244e-02 -5.189487244933843613e-03 -7.620956003665924072e-02 -3.415399789810180664e-02 5.265394970774650574e-02 6.023242324590682983e-02 9.860804304480552673e-03 -3.775687888264656067e-02 6.567537039518356323e-02 5.100148171186447144e-02 -3.195013478398323059e-02 2.250146307051181793e-02 3.834165865555405617e-03
-2.255940437316894531e-02 4.859675467014312744e-02 -2.512556128203868866e-02 -4.132190346717834473e-02 2.272315323352813721e-02 -3.891388326883316040e-02 1.569365337491035461e-02 5.302559584379196167e-02 5.417781695723533630e-02 9.379059821367263794e-02 4.050496593117713928e-02 7.836056500673294067e-02 -5.603782460093498230e-02 3.493111580610275269e-02 2.848133258521556854e-02 1.720794104039669037e-02 5.954873561859130859e-02 -5.156391859054565430e-02 5.859722197055816650e-02 1.841761618852615356e-01 2.597890235483646393e-02 8.568452298641204834e-02 -3.061407059431076050e-02 2.985052578151226044e-02 6.535096466541290283e-02 -4.051697254180908203e-02 -2.409072779119014740e-02 -2.498744055628776550e-03 3.568786010146141052e-02 -4.293076694011688232e-02 4.896096140146255493e-02 2.360287308692932129e-02 -3.883608384057879448e-03 2.657711878418922424e-02 -3.605653345584869385e-02 -6.603034678846597672e-03 4.081555455923080444e-02 -7.927568256855010986e-02 -2.064328268170356750e-02 -1.068600043654441833e-01 -4.632983729243278503e-02 2.274897247552871704e-01 4.698153212666511536e-02 1.967867091298103333e-02 2.678842097520828247e-02 -1.232064608484506607e-02 9.586780518293380737e-02 1.689692214131355286e-02 -6.312837451696395874e-02 -6.511927396059036255e-02 7.417479157447814941e-02 2.108335494995117188e-02 1.095272824168205261e-01 3.623947501182556152e-02 -9.034433402121067047e-03 6.028430536389350891e-02 4.301924630999565125e-02 1.616938412189483643e-02 5.664646998047828674e-02 -3.806855902075767517e-02 -7.079039514064788818e-02 5.928607285022735596e-02 -4.021485894918441772e-02 1.083652116358280182e-02 1.817443990148603916e-03 4.919363558292388916e-02 3.507052734494209290e-02 1.808160915970802307e-02 -4.654838144779205322e-02 1.291198730468750000e-01 5.833230540156364441e-02 3.254592046141624451e-02 3.308663377538323402e-03 4.739721119403839111e-02 -1.036953404545783997e-01 2.970576286315917969e-02 1.288458611816167831e-02 -2.998008765280246735e-02 8.048237301409244537e-03 1.040024496614933014e-02 3.915927186608314514e-02 1.872620172798633575e-02 -9.399932622909545898e-02 8.712045103311538696e-02 6.266093999147415161e-02 -5.470702424645423889e-02 -6.713800877332687378e-02 -6.847529113292694092e-02 9.547823667526245117e-02 -8.728626370429992676e-02 8.627414703369140625e-02 -4.450865834951400757e-02 8.788871765136718750e-02 -3.992982953786849976e-02 5.505844205617904663e-02 4.248838126659393311e-02 -6.117861345410346985e-02 -5.640587210655212402e-02 -6.831209361553192139e-02 -3.732224926352500916e-02 -4.240028932690620422e-02 6.704933941364288330e-02 4.608558490872383118e-02 3.678110614418983459e-02 4.583387076854705811e-02 5.302994698286056519e-02 5.564525723457336426e-02 -7.959889620542526245e-02 1.795743405818939209e-02 -1.462383102625608444e-02 4.943304136395454407e-02 -2.465099990367889404e-01 -4.673150181770324707e-02 6.286378204822540283e-02 -8.898362517356872559e-02 7.379737496376037598e-02 -3.618514537811279297e-02 2.276453562080860138e-02 -2.944496832787990570e-02 5.229508876800537109e-02 1.058935150504112244e-01 1.118187606334686279e-02 -2.189160883426666260e-02 1.241382118314504623e-02 2.648187801241874695e-02 -1.717154681682586670e-02 1.735677570104598999e-02 3.385894000530242920e-02
-7.017312943935394287e-02 6.697764247655868530e-02 -7.715172320604324341e-02 2.147447783499956131e-03 4.828172735869884491e-03 -5.304094776511192322e-02 -2.974468050524592400e-03 7.315368205308914185e-02 6.694561988115310669e-02 1.019722595810890198e-01 1.366097573190927505e-02 3.334175795316696167e-02 -5.484864115715026855e-02 2.898937463760375977e-02 -2.902021864429116249e-03 1.023864373564720154e-02 2.682368829846382141e-02 2.133070304989814758e-02 4.829256236553192139e-02 1.733426004648208618e-01 3.236379474401473999e-02 8.752857148647308350e-02 -2.460520528256893158e-02 3.519553691148757935e-02 -4.098546691238880157e-03 -6.211858987808227539e-02 -5.232609063386917114e-02 3.815704258158802986e-03 2.759882621467113495e-02 -4.634563624858856201e-02 8.118315041065216064e-02 5.115058645606040955e-02 -1.405430771410465240e-02 3.174592182040214539e-02 -6.346124410629272461e-02 2.854576334357261658e-03 -2.932604216039180756e-02 -2.473895065486431122e-02 -1.509089209139347076e-02 -5.907905474305152893e-02 6.825035065412521362e-02 2.267594486474990845e-01 1.416643243283033371e-02 1.911803521215915680e-02 5.327098816633224487e-02 1.194133237004280090e-02 8.790091425180435181e-02 1.072529330849647522e-02 -7.168150506913661957e-03 -7.490837574005126953e-02 8.036564290523529053e-02 -2.231355197727680206e-02 3.196081891655921936e-02 3.520704433321952820e-02 -2.521848678588867188e-02 5.290450155735015869e-02 4.927285015583038330e-02 -2.707269415259361267e-02 3.282678872346878052e-02 -4.625852406024932861e-02 -7.789491117000579834e-02 7.592000812292098999e-02 -5.560163408517837524e-02 3.541647270321846008e-02 2.489518187940120697e-02 3.969823941588401794e-02 3.383838757872581482e-02 8.509346283972263336e-03 -4.203537479043006897e-02 1.356035023927688599e-01 4.962088912725448608e-02 7.527033984661102295e-02 -6.304460577666759491e-03 6.785273551940917969e-02 -2.129247784614562988e-02 8.504584431648254395e-02 -5.146664381027221680e-02 -2.263717912137508392e-02 4.716017865575850010e-04 3.318280726671218872e-02 2.574013918638229370e-02 4.284743964672088623e-02 -1.162620931863784790e-01 3.304471820592880249e-02 7.785187661647796631e-02 -4.091717675328254700e-02 3.717464860528707504e-03 -9.590744972229003906e-02 1.130894124507904053e-01 -1.012362241744995117e-01 7.995233684778213501e-02 4.851866140961647034e-02 8.473865687847137451e-02 -4.779476299881935120e-02 3.018336556851863861e-02 8.032977581024169922e-02 -5.194910988211631775e-02 -2.087316289544105530e-02 -7.331241853535175323e-03 -7.877139747142791748e-02 -4.886467009782791138e-02 9.088563174009323120e-02 5.390267819166183472e-02 1.808731257915496826e-02 2.374491468071937561e-02 6.542456150054931641e-02 3.939057141542434692e-02 -6.639125198125839233e-02 -7.916789501905441284e-03 -7.835095375776290894e-02 4.707631096243858337e-02 -2.249000966548919678e-01 3.348512202501296997e-02 7.402526587247848511e-02 -5.370655283331871033e-02 1.284702271223068237e-01 -7.974686473608016968e-02 -3.927982226014137268e-02 1.230255328118801117e-02 3.810140863060951233e-02 1.342426240444183350e-01 -1.509838271886110306e-02 3.426416963338851929e-02 -7.139794528484344482e-03 3.124365024268627167e-02 -2.999877789989113808e-03 2.057588286697864532e-02 8.511621505022048950e-03
-7.439820468425750732e-02 6.242185458540916443e-02 -6.701431423425674438e-02 -1.749673113226890564e-02 4.062822461128234863e-02 -5.032452195882797241e-02 3.302783146500587463e-02 7.206902652978897095e-02 6.403601914644241333e-02 1.060818433761596680e-01 -6.430929154157638550e-02 1.358550228178501129e-02 3.427394852042198181e-02 5.847139982506632805e-04 -1.938322372734546661e-02 -8.730191737413406372e-02 5.513776093721389771e-02 -2.310547418892383575e-02 1.775680668652057648e-02 1.591495573520660400e-01 4.830769449472427368e-02 8.371423929929733276e-02 -6.352201104164123535e-03 1.466299965977668762e-02 -4.372276738286018372e-02 -3.790875151753425598e-02 -6.675340235233306885e-03 1.617683842778205872e-02 -5.724993534386157990e-03 -6.462728977203369141e-02 5.641351267695426941e-02 6.248189881443977356e-02 -3.974012657999992371e-02 4.480409994721412659e-02 -7.460165023803710938e-02 1.860843971371650696e-02 7.936635054647922516e-03 6.487714499235153198e-02 -1.580897532403469086e-02 -1.126639619469642639e-01 1.484821201302111149e-03 2.014297097921371460e-01 3.177743405103683472e-03 1.884804293513298035e-02 3.551250696182250977e-02 -4.160429164767265320e-02 1.013998836278915405e-01 -2.189455367624759674e-02 -2.553679235279560089e-02 -5.636531859636306763e-02 7.962168753147125244e-02 -4.633504524827003479e-02 3.253287449479103088e-02 3.715924546122550964e-02 1.698691770434379578e-02 1.068907976150512695e-01 6.380245834589004517e-02 2.983832499012351036e-03 2.350896596908569336e-02 -5.244622379541397095e-02 -2.307574078440666199e-02 2.252271212637424469e-02 -1.177124399691820145e-02 1.527927163988351822e-02 1.689998991787433624e-02 3.440781682729721069e-02 -3.865656210109591484e-03 4.042341560125350952e-02 -4.091660305857658386e-02 1.249820515513420105e-01 -5.018520634621381760e-03 1.871283166110515594e-02 -1.436046697199344635e-02 6.753224879503250122e-02 5.929524078965187073e-02 3.851337358355522156e-02 -1.108522247523069382e-02 6.892094970680773258e-04 -2.373313903808593750e-02 -8.615940809249877930e-02 -2.698969654738903046e-02 4.788352176547050476e-02 -1.104368492960929871e-01 6.310542114078998566e-03 2.357736788690090179e-02 -6.379777193069458008e-02 -2.188724651932716370e-02 -1.019525527954101562e-01 9.521361440420150757e-02 -9.235730022192001343e-02 9.784557670354843140e-02 5.851969495415687561e-02 8.043261617422103882e-02 -9.058982133865356445e-02 -4.521882534027099609e-02 -1.853278838098049164e-02 -7.501147687435150146e-02 -1.617266237735748291e-02 -5.941728875041007996e-02 -6.966122239828109741e-02 -4.597039148211479187e-02 9.137468785047531128e-02 2.506056241691112518e-02 3.400537371635437012e-02 -4.057739302515983582e-02 9.333676844835281372e-02 3.374285250902175903e-02 -5.304207652807235718e-02 1.578468084335327148e-02 -6.255778670310974121e-02 4.977386444807052612e-02 -2.278372347354888916e-01 -1.227969955652952194e-02 7.711400091648101807e-02 -9.521392732858657837e-02 8.921965211629867554e-02 1.740785688161849976e-02 7.384178042411804199e-02 7.561461627483367920e-02 -1.088472083210945129e-02 1.521149724721908569e-01 -5.740236490964889526e-02 3.731113299727439880e-02 -1.961847767233848572e-02 2.509736269712448120e-02 -3.897542133927345276e-02 1.631268858909606934e-02 3.004880249500274658e-02
-4.468708857893943787e-02 7.028686255216598511e-02 3.423444926738739014e-02 -3.420861065387725830e-02 4.608334228396415710e-02 -4.748342931270599365e-02 2.565981447696685791e-02 2.468899451196193695e-02 7.610746473073959351e-02 1.114030927419662476e-01 -1.001060381531715393e-01 3.423232957720756531e-02 5.014740303158760071e-02 -1.147565897554159164e-02 3.299508988857269287e-02 -3.853125125169754028e-02 3.318976610898971558e-02 1.148867700248956680e-02 2.064000815153121948e-02 1.744687855243682861e-01 1.354377716779708862e-02 7.020033895969390869e-02 -3.091342374682426453e-02 -4.541905596852302551e-02 -1.543678436428308487e-02 -2.737881056964397430e-02 4.538474231958389282e-02 2.661899430677294731e-03 3.804830089211463928e-02 -2.257017232477664948e-02 -1.124642044305801392e-02 1.936776377260684967e-02 -5.162828601896762848e-03 2.179992571473121643e-02 -7.427325844764709473e-02 -9.084393270313739777e-03 7.330302614718675613e-03 1.283807456493377686e-01 -4.547657072544097900e-02 -8.102634549140930176e-02 7.076785713434219360e-02 2.009156495332717896e-01 -1.600077934563159943e-02 6.593882106244564056e-03 1.822375319898128510e-02 -3.190010413527488708e-02 8.938780426979064941e-02 -3.501648083329200745e-02 -3.318265825510025024e-02 -5.095519870519638062e-02 6.524132192134857178e-02 -3.765041008591651917e-02 1.796224527060985565e-02 3.455480188131332397e-02 1.277937274426221848e-02 7.491391152143478394e-02 4.728362709283828735e-02 -1.505913492292165756e-02 2.006741985678672791e-02 -7.547173649072647095e-02 4.414225369691848755e-02 2.042767032980918884e-02 6.104329228401184082e-02 -1.943278685212135315e-02 1.625184202566742897e-03 7.641647476702928543e-03 1.291407737880945206e-02 3.972105681896209717e-02 -6.207684427499771118e-02 4.654056578874588013e-02 -1.048966720700263977e-01 2.075902558863162994e-02 1.516748452559113503e-03 5.983110889792442322e-02 -5.475726723670959473e-02 9.203357249498367310e-02 -1.067846827208995819e-02 2.761535532772541046e-02 -2.845114504452794790e-04 -4.411817993968725204e-03 1.783068641088902950e-03 2.623032964766025543e-02 -1.087070181965827942e-01 -1.485027186572551727e-02 8.002355694770812988e-02 -4.648356139659881592e-02 -1.468245405703783035e-02 -7.562453299760818481e-02 9.244365245103836060e-02 -9.230007231235504150e-02 5.770501680672168732e-03 1.461251378059387207e-01 7.293338328599929810e-02 -7.012407481670379639e-02 -2.187391743063926697e-02 2.783477492630481720e-02 -4.118102788925170898e-02 1.825448498129844666e-02 -4.347760230302810669e-02 -3.511389717459678650e-02 -2.268483676016330719e-02 7.444307953119277954e-02 1.703611487755551934e-04 8.236455731093883514e-03 -3.583791851997375488e-02 1.007731780409812927e-01 3.818039968609809875e-02 -2.497317455708980560e-02 -2.459644712507724762e-02 -4.296660050749778748e-02 6.937293708324432373e-02 -2.180871069431304932e-01 -3.690656507387757301e-03 5.877680703997612000e-02 -5.760241672396659851e-02 1.009520366787910461e-01 1.945083215832710266e-02 5.749308317899703979e-02 1.016885414719581604e-02 -4.418405517935752869e-02 1.519580185413360596e-01 -7.718833535909652710e-02 6.338578462600708008e-02 4.844063147902488708e-02 2.422758936882019043e-02 -5.336838588118553162e-02 3.391093015670776367e-02 2.346209250390529633e-02
-3.375427424907684326e-02 5.544972047209739685e-02 6.282556056976318359e-02 -1.141398325562477112e-01 1.018504947423934937e-01 -5.056089907884597778e-02 5.663717910647392273e-02 -3.713960759341716766e-03 1.042135059833526611e-01 9.715642035007476807e-02 -6.293461471796035767e-02 4.911450296640396118e-02 -1.103184372186660767e-02 -1.453527063131332397e-02 6.336270272731781006e-02 -4.396567493677139282e-02 2.870211564004421234e-02 -2.302745357155799866e-02 3.720037639141082764e-02 1.676467657089233398e-01 -3.704256191849708557e-02 4.626722633838653564e-02 -2.973321266472339630e-02 3.800549358129501343e-02 2.382870204746723175e-02 -2.492173016071319580e-02 1.251444965600967407e-02 -9.070776402950286865e-03 4.536823928356170654e-02 -4.517133533954620361e-02 -2.751937881112098694e-02 -2.031995169818401337e-02 -4.966052249073982239e-02 7.780629210174083710e-03 -4.318550974130630493e-02 -2.578527107834815979e-02 9.582464583218097687e-03 1.389186680316925049e-01 -5.407033860683441162e-02 -7.783690094947814941e-02 -2.682631602510809898e-03 1.949745267629623413e-01 -1.860002242028713226e-02 2.550983615219593048e-02 -2.489805780351161957e-02 -1.738974638283252716e-02 1.121190264821052551e-01 -1.937837712466716766e-02 -5.758168920874595642e-02 -4.258628934621810913e-02 7.409838587045669556e-02 3.910794854164123535e-02 8.636523038148880005e-02 5.827401205897331238e-02 -1.937236823141574860e-02 7.005843520164489746e-02 3.153148666024208069e-02 -4.166707023978233337e-02 7.598767429590225220e-02 -6.497293710708618164e-02 2.542762272059917450e-02 7.037883996963500977e-02 5.582281947135925293e-02 -2.234454639256000519e-02 2.283827960491180420e-02 6.409100443124771118e-02 4.442321602255105972e-03 2.441842108964920044e-02 -5.281870439648628235e-02 2.737649157643318176e-02 -6.973034888505935669e-02 -1.681803725659847260e-02 9.130800142884254456e-03 5.568385869264602661e-02 3.356939926743507385e-02 -7.754427380859851837e-03 -1.292037405073642731e-02 2.651217579841613770e-02 1.758387312293052673e-02 7.735953480005264282e-02 4.265856370329856873e-02 -1.095531415194272995e-02 -1.114730685949325562e-01 3.702145069837570190e-02 8.655215799808502197e-02 -6.089625135064125061e-02 -4.759362712502479553e-02 -3.344812244176864624e-02 1.007246077060699463e-01 -8.169841021299362183e-02 -4.191116616129875183e-02 2.024960238486528397e-03 6.499822437763214111e-02 -6.999600678682327271e-02 6.487046927213668823e-02 3.113503009080886841e-02 -4.919750988483428955e-02 4.225024580955505371e-02 -5.177601799368858337e-02 -2.495262958109378815e-02 -5.687796697020530701e-02 7.694645971059799194e-02 -3.989839553833007812e-02 -7.627755869179964066e-03 -1.978014782071113586e-02 8.168866485357284546e-02 5.384044721722602844e-02 3.188247326761484146e-03 3.395550325512886047e-02 2.300545200705528259e-02 6.348937749862670898e-02 -2.196623235940933228e-01 -8.526708930730819702e-02 4.723447188735008240e-02 -4.699622467160224915e-02 8.377523720264434814e-02 2.596756257116794586e-02 -1.922140456736087799e-02 3.398123756051063538e-02 -2.291921712458133698e-02 8.985842764377593994e-02 -3.353098779916763306e-02 2.531423419713973999e-02 9.297609329223632812e-02 3.908576816320419312e-02 -4.610965400934219360e-02 2.564566209912300110e-02 1.451066229492425919e-02
-4.488809406757354736e-02 3.952393680810928345e-02 6.250181049108505249e-02 -1.299050748348236084e-01 3.811744973063468933e-02 -4.930612817406654358e-02 1.014762371778488159e-02 -2.464670687913894653e-03 8.349393308162689209e-02 7.933984696865081787e-02 -2.609349600970745087e-02 3.914014250040054321e-02 -5.112064629793167114e-02 -1.265550497919321060e-02 1.978637650609016418e-02 7.221199572086334229e-02 7.119297049939632416e-03 -2.388996630907058716e-02 4.313813149929046631e-02 1.942754536867141724e-01 -2.140420489013195038e-02 5.385243520140647888e-02 -4.360924288630485535e-02 2.089722827076911926e-02 5.450927466154098511e-02 -8.182165212929248810e-03 1.830376684665679932e-02 -3.870223835110664368e-02 6.199193373322486877e-02 -3.633725643157958984e-02 2.338361926376819611e-02 -6.334277801215648651e-03 4.591907560825347900e-02 -5.393285769969224930e-03 -5.178554356098175049e-02 -1.948238536715507507e-02 1.526575442403554916e-02 1.594203710556030273e-02 -4.682765528559684753e-02 -1.212566196918487549e-01 -3.995627909898757935e-02 1.926695108413696289e-01 -1.855126023292541504e-02 1.562858931720256805e-02 2.869536355137825012e-02 1.527753379195928574e-02 1.015022099018096924e-01 1.446185912936925888e-02 -3.594362363219261169e-02 -6.619510799646377563e-02 7.278590649366378784e-02 5.541286244988441467e-02 8.298909664154052734e-02 6.149098649621009827e-02 -2.127715386450290680e-02 7.240264862775802612e-02 5.670707672834396362e-03 -1.749822497367858887e-02 7.412562519311904907e-02 -1.272883918136358261e-02 2.842240966856479645e-02 7.133188843727111816e-02 -1.923743262887001038e-02 -5.992168560624122620e-03 -3.244387358427047729e-02 -1.475889421999454498e-02 1.864683441817760468e-02 1.169538125395774841e-02 -7.890560477972030640e-02 1.018717419356107712e-02 -9.089516475796699524e-03 2.327084541320800781e-02 -1.153640681877732277e-03 6.092352792620658875e-02 -6.887146085500717163e-02 -6.783687509596347809e-03 1.959162764251232147e-02 -2.478951960802078247e-02 2.514225617051124573e-02 7.218118011951446533e-02 -5.296984687447547913e-03 -3.090161271393299103e-02 -1.098891273140907288e-01 3.677384555339813232e-02 9.887258708477020264e-02 -4.768911376595497131e-02 -7.242479920387268066e-02 -4.174452647566795349e-02 9.373534470796585083e-02 -1.086034327745437622e-01 -4.512136057019233704e-02 -1.037362264469265938e-03 4.651140421628952026e-02 1.065168995410203934e-02 6.714152544736862183e-02 5.746033042669296265e-02 -5.013370886445045471e-02 -2.755926921963691711e-02 -7.878575474023818970e-02 -5.061400588601827621e-03 -4.911456257104873657e-02 5.255015939474105835e-02 -1.425582543015480042e-02 -4.210981540381908417e-03 -4.487681761384010315e-02 4.639798030257225037e-02 2.717972174286842346e-02 1.520867645740509033e-02 -9.476040489971637726e-03 1.960140652954578400e-03 6.524102389812469482e-02 -2.144926190376281738e-01 -7.734477519989013672e-02 6.838069111108779907e-02 -8.680309355258941650e-02 6.456742435693740845e-02 -3.848954662680625916e-02 7.523392885923385620e-02 -6.718543171882629395e-02 3.016208671033382416e-02 1.110776141285896301e-01 -2.936318144202232361e-02 -1.445445511490106583e-02 5.828852578997612000e-02 5.936226248741149902e-02 -4.264861717820167542e-02 2.906736917793750763e-03 3.919327259063720703e-02
-5.727257579565048218e-02 4.405699670314788818e-02 -2.754369191825389862e-02 -9.461292624473571777e-02 1.794914528727531433e-02 -4.413484036922454834e-02 8.989830967038869858e-04 2.141768299043178558e-02 6.852407008409500122e-02 6.191232800483703613e-02 2.210344001650810242e-02 7.139625400304794312e-02 -9.449973702430725098e-02 2.503267116844654083e-02 1.644232310354709625e-02 6.782538443803787231e-02 -2.901666052639484406e-02 3.398278728127479553e-02 4.603889212012290955e-02 1.984878182411193848e-01 -4.607849940657615662e-02 3.305233269929885864e-02 -3.297334536910057068e-02 7.259852439165115356e-02 -4.885264858603477478e-02 8.404188789427280426e-03 -9.260170161724090576e-02 -1.468334998935461044e-02 1.864731870591640472e-02 -4.858386516571044922e-02 3.198206797242164612e-02 4.575293976813554764e-03 -4.446894302964210510e-02 2.466465719044208527e-02 -2.071936987340450287e-02 -4.057854041457176208e-02 -4.714290797710418701e-02 1.031554304063320160e-02 -2.094240486621856689e-02 -6.588393449783325195e-02 1.168883312493562698e-02 2.082102596759796143e-01 -1.266844756901264191e-02 2.144395373761653900e-02 -3.510026261210441589e-02 4.641499742865562439e-02 1.106470152735710144e-01 4.797689244151115417e-02 -4.710048064589500427e-02 -9.459783136844635010e-02 8.453039824962615967e-02 4.847151227295398712e-03 7.913275808095932007e-02 5.269729346036911011e-02 -2.891545649617910385e-03 5.519260093569755554e-02 1.743450760841369629e-02 -3.319284319877624512e-02 3.657616302371025085e-02 1.374303270131349564e-02 6.432402413338422775e-03 7.072980701923370361e-02 -1.002732105553150177e-02 2.867710543796420097e-03 -4.141917917877435684e-03 4.910953808575868607e-03 2.050025621429085732e-03 -3.422079840674996376e-03 -4.450456798076629639e-02 5.391106754541397095e-02 4.362260922789573669e-02 9.441695176064968109e-03 -1.137867942452430725e-02 7.622010260820388794e-02 -9.765434078872203827e-03 -3.941293433308601379e-02 -3.593296976760029793e-03 -5.137557163834571838e-02 4.087842069566249847e-03 2.119287475943565369e-02 4.047951847314834595e-02 -2.082729339599609375e-02 -1.342964768409729004e-01 -4.449140280485153198e-03 1.126035451889038086e-01 -7.082055509090423584e-02 -3.931925818324089050e-02 -5.452368780970573425e-02 9.599801898002624512e-02 -9.377124160528182983e-02 -4.196115583181381226e-02 -3.181643784046173096e-02 4.608550295233726501e-02 2.346758358180522919e-02 7.710436731576919556e-02 6.439691036939620972e-02 -6.100183352828025818e-02 -6.445260718464851379e-03 -5.700817704200744629e-02 -6.854024529457092285e-02 -9.522133320569992065e-02 9.137594699859619141e-02 2.546361088752746582e-02 -1.585035398602485657e-02 -1.563695259392261505e-02 2.751353010535240173e-02 -8.191308937966823578e-03 3.655052557587623596e-02 1.729127950966358185e-02 -4.280614480376243591e-02 6.055887416005134583e-02 -2.055813521146774292e-01 -4.715690389275550842e-02 9.043077379465103149e-02 -5.540948733687400818e-02 1.198129206895828247e-01 -1.407687645405530930e-02 -1.516084838658571243e-02 -4.743954539299011230e-02 8.515049517154693604e-02 9.621300548315048218e-02 1.752242818474769592e-02 -1.087490841746330261e-02 -2.653216070029884577e-04 7.042732834815979004e-02 -5.392437428236007690e-02 1.231490075588226318e-02 3.010022453963756561e-02
-7.714822888374328613e-02 5.863046273589134216e-02 -1.253897231072187424e-02 -9.996446780860424042e-03 4.573514685034751892e-02 -2.596112526953220367e-02 1.913995668292045593e-02 5.462449789047241211e-02 3.291017189621925354e-02 6.700842827558517456e-02 -2.294037304818630219e-02 7.581111788749694824e-02 -5.799760669469833374e-02 1.542381383478641510e-02 3.632979467511177063e-02 6.870098412036895752e-02 1.938331127166748047e-02 1.928438805043697357e-02 4.188960045576095581e-02 1.832551211118698120e-01 -2.586459927260875702e-02 5.418407544493675232e-02 -1.403696928173303604e-02 3.283304348587989807e-02 -1.087464541196823120e-01 1.988943852484226227e-02 -2.405692636966705322e-02 -1.952943578362464905e-02 -1.091066934168338776e-02 -5.053856968879699707e-02 6.505448371171951294e-02 -3.042114665731787682e-03 1.316668000072240829e-02 1.821083575487136841e-02 -3.071215003728866577e-02 3.079403564333915710e-02 -2.829466387629508972e-02 -4.597412422299385071e-02 -7.985160918906331062e-04 9.092410095036029816e-03 -3.427501022815704346e-02 2.066273838281631470e-01 7.028598338365554810e-04 3.678858652710914612e-02 -4.194867983460426331e-02 9.015453979372978210e-03 1.146845743060112000e-01 1.035720109939575195e-03 -6.807195395231246948e-02 -6.674075871706008911e-02 7.264900952577590942e-02 -2.387278713285923004e-02 5.813402310013771057e-02 5.794641375541687012e-02 5.393217504024505615e-02 9.532147645950317383e-02 4.934020712971687317e-02 2.611403912305831909e-02 4.010965675115585327e-02 -1.302911248058080673e-02 1.021807454526424408e-02 6.332082301378250122e-02 -2.806495502591133118e-02 4.025625437498092651e-02 -1.465407852083444595e-02 -3.390066325664520264e-02 -5.091232061386108398e-02 1.954358443617820740e-02 -3.669857233762741089e-02 5.137776955962181091e-02 8.836769498884677887e-03 3.421110287308692932e-02 -1.404781453311443329e-02 5.807745829224586487e-02 2.987634018063545227e-02 2.166805556043982506e-03 2.870833501219749451e-02 -1.519050262868404388e-02 -2.388609014451503754e-02 -5.664521083235740662e-02 -2.946387231349945068e-02 -1.199302077293395996e-02 -1.290649622678756714e-01 -2.911483310163021088e-02 7.073188573122024536e-02 -7.447689026594161987e-02 -3.189425170421600342e-02 -6.479749828577041626e-02 9.354030340909957886e-02 -1.009621918201446533e-01 3.288590162992477417e-02 -1.021259278059005737e-02 4.635361582040786743e-02 2.311588823795318604e-02 5.692116916179656982e-03 6.297726184129714966e-03 -9.011276066303253174e-02 -6.114194914698600769e-02 -7.980193942785263062e-02 -3.947557881474494934e-02 -3.002957254648208618e-02 7.003206014633178711e-02 4.569535329937934875e-02 -2.689585648477077484e-02 2.012514322996139526e-02 7.990946620702743530e-02 1.584938727319240570e-02 5.555818323045969009e-03 1.333061419427394867e-02 -2.939079701900482178e-02 8.495143800973892212e-02 -2.040156424045562744e-01 -2.274102345108985901e-02 7.071526348590850830e-02 -7.427494972944259644e-02 1.359824687242507935e-01 3.204739838838577271e-02 8.906583487987518311e-02 -3.439547121524810791e-02 6.014772132039070129e-02 1.783237308263778687e-01 -1.081561390310525894e-02 2.983625791966915131e-02 -1.736743189394474030e-02 7.004837691783905029e-02 -3.598801419138908386e-02 2.186725847423076630e-02 7.132278382778167725e-02
-9.582820534706115723e-02 6.907857954502105713e-02 -7.775900885462760925e-03 5.340356379747390747e-02 8.019757270812988281e-02 -1.862800307571887970e-02 3.145181387662887573e-02 5.106301233172416687e-02 1.744932867586612701e-02 7.065232843160629272e-02 -7.407250255346298218e-02 1.102875173091888428e-01 -4.109176620841026306e-02 -2.641941606998443604e-02 3.483108058571815491e-02 1.717430539429187775e-02 4.716234281659126282e-03 4.669849202036857605e-02 3.997299820184707642e-02 1.611055433750152588e-01 -2.984627708792686462e-02 8.021084219217300415e-02 -1.873972080647945404e-02 4.903277149423956871e-04 -9.763105213642120361e-02 4.072160273790359497e-02 -3.419060260057449341e-03 -4.258112236857414246e-02 -1.002740301191806793e-02 -5.868883803486824036e-02 -1.131684333086013794e-02 -6.495602894574403763e-03 -2.319242432713508606e-02 1.402719132602214813e-02 -4.040963947772979736e-02 3.411547094583511353e-02 1.601572521030902863e-02 -3.805964440107345581e-02 -3.905099257826805115e-02 6.945008039474487305e-02 9.611291810870170593e-03 1.979997754096984863e-01 -1.539794355630874634e-02 1.726686023175716400e-02 1.678769849240779877e-02 -2.244591712951660156e-02 7.637848705053329468e-02 -4.720712546259164810e-03 -6.498996913433074951e-02 -4.718387126922607422e-02 7.758811116218566895e-02 -1.776442676782608032e-02 2.602255903184413910e-02 4.421473294496536255e-02 3.540591895580291748e-02 4.943653941154479980e-02 5.443810671567916870e-02 -4.835994914174079895e-02 6.181738153100013733e-02 -5.775086581707000732e-02 2.811656333506107330e-02 2.723287418484687805e-02 5.558887869119644165e-02 5.939617753028869629e-02 2.710251137614250183e-03 -6.923107057809829712e-02 -3.987087309360504150e-02 3.728433698415756226e-02 -4.355769976973533630e-02 5.902559682726860046e-02 -7.249191403388977051e-02 2.470056526362895966e-02 -2.980827167630195618e-02 3.232054039835929871e-02 2.848436497151851654e-02 4.492998123168945312e-02 1.159629132598638535e-02 2.069717459380626678e-02 -2.582341805100440979e-02 -4.455244634300470352e-03 -1.778583228588104248e-02 -2.490828931331634521e-02 -9.548369795083999634e-02 -2.542157098650932312e-02 6.942795217037200928e-02 -6.364533305168151855e-02 -1.020657271146774292e-02 -5.955564603209495544e-02 9.683903306722640991e-02 -1.095860153436660767e-01 3.821830078959465027e-02 -2.971482090651988983e-02 4.646658897399902344e-02 -2.331737428903579712e-02 -2.903530374169349670e-03 1.025828439742326736e-02 -6.543456763029098511e-02 -3.829327970743179321e-02 -5.284593254327774048e-02 -7.357377558946609497e-02 -1.536423107609152794e-03 7.939854264259338379e-02 3.172354027628898621e-02 1.170044951140880585e-02 -1.935743726789951324e-02 1.015278026461601257e-01 3.458327800035476685e-02 -6.091516464948654175e-02 1.651887781918048859e-02 -5.703473091125488281e-02 7.227138429880142212e-02 -2.044247090816497803e-01 -2.452150173485279083e-02 5.877655372023582458e-02 -6.344563513994216919e-02 1.365219950675964355e-01 4.073677211999893188e-02 -4.275766015052795410e-02 2.002533338963985443e-02 2.555246651172637939e-02 1.793783605098724365e-01 -4.566710814833641052e-02 1.740133576095104218e-02 1.081368792802095413e-02 8.373342454433441162e-02 -4.747800529003143311e-03 4.823262244462966919e-02 4.493383690714836121e-02
-9.122353047132492065e-02 6.054332479834556580e-02 1.210422441363334656e-02 3.860659897327423096e-02 7.361282408237457275e-02 -2.371362783014774323e-02 1.388616487383842468e-02 2.598131634294986725e-02 1.574143581092357635e-02 6.768915802240371704e-02 -1.161366701126098633e-01 4.349749162793159485e-02 -3.124080132693052292e-03 -1.044822111725807190e-01 1.628747582435607910e-02 2.338323928415775299e-02 -9.456183761358261108e-03 1.323492079973220825e-02 2.200066111981868744e-02 1.514843255281448364e-01 2.060440741479396820e-02 8.766840398311614990e-02 -3.845024853944778442e-02 -5.433871597051620483e-02 4.206018149852752686e-02 2.373970858752727509e-02 6.873596459627151489e-02 -4.052563011646270752e-02 1.598609844222664833e-03 -4.654436931014060974e-02 8.005645126104354858e-03 1.730293733999133110e-03 5.622876435518264771e-02 -2.227523177862167358e-02 -7.740474492311477661e-02 5.957547947764396667e-02 1.053313985466957092e-01 -5.169564858078956604e-02 -7.596400380134582520e-02 3.342220559716224670e-02 -6.632770597934722900e-02 1.756621599197387695e-01 -1.901622302830219269e-02 5.089777056127786636e-03 7.327831536531448364e-02 -8.468434214591979980e-02 4.420071467757225037e-02 -2.612318098545074463e-02 -2.905681915581226349e-02 -4.345241561532020569e-02 7.049497961997985840e-02 3.738236427307128906e-02 3.441324084997177124e-02 2.429549582302570343e-02 -3.857303177937865257e-03 4.509044811129570007e-02 3.492444381117820740e-02 -3.829276934266090393e-02 7.306496053934097290e-02 -8.410535007715225220e-02 -5.341753712855279446e-04 4.222732782363891602e-02 2.421275898814201355e-02 6.516053527593612671e-02 -5.684644356369972229e-02 -4.554295539855957031e-02 1.414818130433559418e-02 5.174889415502548218e-02 -7.033301144838333130e-02 3.507477045059204102e-02 -1.283570230007171631e-01 3.322388231754302979e-02 -2.768490090966224670e-02 -2.276046760380268097e-02 -4.849493969231843948e-03 5.669257417321205139e-02 -8.949752897024154663e-03 3.237841278314590454e-02 -4.538075532764196396e-03 1.829461753368377686e-02 -1.609162427484989166e-02 -2.057646028697490692e-02 -6.314924359321594238e-02 6.838167458772659302e-02 6.452658027410507202e-02 -4.795289784669876099e-02 -3.764158114790916443e-02 -5.424633622169494629e-02 7.584867626428604126e-02 -1.134254261851310730e-01 8.284398168325424194e-02 2.779152616858482361e-02 5.041374638676643372e-02 -4.144210368394851685e-02 2.534842584282159805e-03 2.115882188081741333e-02 -2.759025059640407562e-02 -8.321823924779891968e-02 -5.398473516106605530e-02 -1.784716732800006866e-02 5.538306385278701782e-02 4.957122728228569031e-02 2.256527356803417206e-02 4.426071047782897949e-02 -6.648050993680953979e-02 8.661521226167678833e-02 5.357517302036285400e-02 -1.290107369422912598e-01 -1.293083466589450836e-02 -3.464260324835777283e-02 4.005012661218643188e-02 -2.095173597335815430e-01 -3.636167198419570923e-02 3.441468998789787292e-02 -8.915507793426513672e-02 3.915633633732795715e-02 -4.743941128253936768e-02 8.325536735355854034e-03 -8.065436035394668579e-03 1.076992135494947433e-03 1.729629188776016235e-01 -4.803600907325744629e-02 -1.624203845858573914e-02 4.858835041522979736e-02 4.560009017586708069e-02 2.435018122196197510e-02 6.244813650846481323e-02 3.932102024555206299e-02
-9.108300507068634033e-02 5.021895095705986023e-02 -9.380304254591464996e-03 7.420371752232313156e-03 5.587545037269592285e-02 -6.853912770748138428e-02 -2.001360245048999786e-02 1.538323238492012024e-02 5.981084331870079041e-02 6.067931279540061951e-02 -6.598406285047531128e-02 1.708291284739971161e-02 -2.790766954421997070e-02 -7.073063403367996216e-02 1.658636145293712616e-03 3.909905627369880676e-02 -7.708720862865447998e-02 4.377775639295578003e-02 3.798439726233482361e-02 1.613561064004898071e-01 -5.269733374007046223e-04 4.155285283923149109e-02 -4.776763170957565308e-02 2.332445979118347168e-02 7.472856342792510986e-02 5.395787768065929413e-03 -5.218572914600372314e-02 -3.318200260400772095e-02 -5.691218655556440353e-03 -5.859341472387313843e-02 -1.683991029858589172e-02 1.016259286552667618e-02 -3.293444216251373291e-02 -9.540390223264694214e-03 -5.677005648612976074e-02 -1.068635960109531879e-03 3.783855587244033813e-02 3.541527315974235535e-02 -8.004342019557952881e-02 4.337602108716964722e-02 5.682096350938081741e-03 1.791240423917770386e-01 -1.903022639453411102e-02 2.405472332611680031e-03 5.364920943975448608e-02 -6.771755218505859375e-02 5.215015262365341187e-02 7.611135952174663544e-03 -4.991095513105392456e-02 -6.055796518921852112e-02 8.428521454334259033e-02 5.031112208962440491e-02 4.409269243478775024e-02 1.809461787343025208e-02 -1.102745812386274338e-02 1.494888588786125183e-02 1.714507862925529480e-02 -6.436052918434143066e-02 4.221726953983306885e-02 -6.886385381221771240e-02 -2.261635102331638336e-02 6.358119100332260132e-02 5.157300829887390137e-02 7.361709326505661011e-02 -3.962825983762741089e-02 2.939279749989509583e-02 6.740669161081314087e-02 1.703978888690471649e-02 -7.895475625991821289e-02 4.020100831985473633e-02 -9.828174859285354614e-02 2.311936393380165100e-02 -8.528430014848709106e-03 -1.694763079285621643e-02 6.074545439332723618e-03 -6.944499444216489792e-03 -4.384343698620796204e-02 -3.579354844987392426e-03 -3.705144161358475685e-03 4.702726751565933228e-02 1.022203192114830017e-01 -1.258307136595249176e-02 -7.882301509380340576e-02 8.510601520538330078e-02 1.147419214248657227e-01 -3.394932672381401062e-02 6.776431575417518616e-03 -4.957744479179382324e-02 9.915172308683395386e-02 -9.792476892471313477e-02 2.527006343007087708e-02 6.655722856521606445e-03 6.648277491331100464e-02 -4.407425224781036377e-02 7.381858676671981812e-02 7.607333362102508545e-02 -9.396205656230449677e-03 -2.846009470522403717e-02 -3.412054106593132019e-02 -4.006167501211166382e-02 -5.490965675562620163e-03 5.478949099779129028e-02 8.638564497232437134e-03 7.297091931104660034e-02 -8.688016980886459351e-02 6.006820127367973328e-02 6.150259077548980713e-02 -8.973746001720428467e-02 3.104533255100250244e-02 -5.878273770213127136e-02 1.654892228543758392e-02 -1.989925801753997803e-01 -3.637303784489631653e-02 5.024988949298858643e-02 -7.407448440790176392e-02 6.844597309827804565e-02 -8.164191246032714844e-02 -1.253950148820877075e-01 3.081478737294673920e-02 3.371925279498100281e-02 7.236010581254959106e-02 7.225097157061100006e-03 -1.568316598422825336e-03 4.459664225578308105e-02 5.217327177524566650e-02 2.345879189670085907e-02 5.445746332406997681e-02 -8.164407685399055481e-03
-9.181295335292816162e-02 4.147752001881599426e-02 -1.730889454483985901e-02 -5.667802318930625916e-02 6.172457337379455566e-02 -8.621247857809066772e-02 -1.580927334725856781e-02 4.998243227601051331e-02 5.766859278082847595e-02 5.710656195878982544e-02 -3.331129997968673706e-02 -1.082931458950042725e-02 -5.816927552223205566e-02 -2.373609505593776703e-02 5.080942064523696899e-03 2.151786535978317261e-02 -4.086330533027648926e-02 -4.135059658437967300e-03 4.448821023106575012e-02 1.554437428712844849e-01 4.053851589560508728e-02 4.035346582531929016e-02 -3.200379759073257446e-02 7.615031301975250244e-02 8.087952435016632080e-02 -2.879989705979824066e-02 -4.858092963695526123e-02 -1.562412548810243607e-02 -6.055740639567375183e-03 -8.435036242008209229e-02 7.015686482191085815e-02 3.108971379697322845e-02 -3.554477170109748840e-02 -6.379899568855762482e-03 -4.794397577643394470e-02 2.107356488704681396e-02 1.992850191891193390e-02 -6.143186707049608231e-03 -5.598329380154609680e-02 -3.912094049155712128e-03 -5.542100593447685242e-02 1.805227249860763550e-01 7.886712439358234406e-03 1.957596652209758759e-02 9.680011123418807983e-02 -5.503360554575920105e-02 7.976505905389785767e-02 1.367585174739360809e-02 -4.667232558131217957e-02 -6.159547343850135803e-02 9.279207885265350342e-02 5.487560108304023743e-02 8.483655750751495361e-02 3.033396415412425995e-02 -1.300848816754296422e-04 7.661262154579162598e-02 3.082874976098537445e-02 -1.976376213133335114e-02 3.822467476129531860e-02 -5.227513238787651062e-02 -7.755773514509201050e-02 9.018740803003311157e-02 -9.737817198038101196e-02 7.116575539112091064e-02 -1.401882898062467575e-02 4.247854277491569519e-02 3.584914281964302063e-02 3.727013478055596352e-03 -4.677836596965789795e-02 7.657051086425781250e-02 -1.144247502088546753e-02 4.021028801798820496e-02 -1.119210198521614075e-02 1.973181590437889099e-02 6.409634649753570557e-02 -4.079702869057655334e-02 -2.828519232571125031e-02 -1.944489777088165283e-02 -1.787509024143218994e-02 4.104321449995040894e-02 4.856278747320175171e-02 1.298206858336925507e-02 -9.142522513866424561e-02 9.159111976623535156e-02 7.143913209438323975e-02 -3.985871374607086182e-02 -3.375802561640739441e-02 -4.841299355030059814e-02 1.021327674388885498e-01 -1.085999459028244019e-01 4.326503351330757141e-02 -7.555194199085235596e-02 6.673957407474517822e-02 -5.926100164651870728e-02 5.188133940100669861e-02 2.442360669374465942e-02 -5.603420734405517578e-02 -6.215123832225799561e-02 -5.707032233476638794e-02 -4.055903479456901550e-02 -1.991893909871578217e-02 3.683886304497718811e-02 -1.467959396541118622e-02 5.046933516860008240e-02 -8.516433089971542358e-02 4.615213721990585327e-02 6.923723965883255005e-02 -6.281224638223648071e-02 2.255783602595329285e-02 -3.559882938861846924e-02 3.243621066212654114e-02 -1.881785541772842407e-01 -6.114038079977035522e-02 4.906779900193214417e-02 -1.009970083832740784e-01 7.394602894783020020e-02 -1.152957528829574585e-01 -2.614442072808742523e-02 3.694242611527442932e-02 2.714359574019908905e-02 9.945971518754959106e-02 1.794175803661346436e-02 -1.605072058737277985e-02 6.911385804414749146e-03 4.215767979621887207e-02 1.278141792863607407e-02 2.998180873692035675e-02 1.089310925453901291e-02
-1.015485003590583801e-01 4.518051445484161377e-02 -2.992333285510540009e-02 -6.843262910842895508e-02 4.167127981781959534e-02 -7.430811971426010132e-02 1.962033845484256744e-02 6.385067850351333618e-02 8.342943340539932251e-02 6.497073918581008911e-02 -6.883648782968521118e-02 9.996002539992332458e-03 -2.039674483239650726e-02 1.341619761660695076e-03 -3.288115188479423523e-02 -2.816641703248023987e-02 -2.160977944731712341e-02 1.596629060804843903e-02 3.116935864090919495e-02 1.760751605033874512e-01 2.132056653499603271e-02 7.260265201330184937e-02 -1.297016534954309464e-02 7.037836313247680664e-02 6.375252269208431244e-03 7.582463324069976807e-03 -6.644859910011291504e-02 1.042679138481616974e-02 6.243308074772357941e-03 -8.578708022832870483e-02 4.542285576462745667e-02 6.350156664848327637e-02 -7.380181550979614258e-02 4.275971278548240662e-02 -4.103128984570503235e-02 1.088838279247283936e-02 -6.659845355898141861e-03 9.289517253637313843e-02 -5.061714723706245422e-02 -7.893676310777664185e-02 1.600153930485248566e-02 1.769085228443145752e-01 -1.094077713787555695e-02 2.221787162125110626e-02 1.073429435491561890e-01 -2.891240455210208893e-02 8.870491385459899902e-02 1.951494440436363220e-02 -2.709616161882877350e-02 -7.278343290090560913e-02 9.472873806953430176e-02 1.582940481603145599e-02 4.216417670249938965e-02 5.009836703538894653e-02 1.121267210692167282e-02 6.832563132047653198e-02 3.568149358034133911e-02 -2.764822728931903839e-02 2.901141159236431122e-02 -4.119379073381423950e-02 -1.455752551555633545e-02 5.842511355876922607e-02 -4.347196966409683228e-02 3.806527331471443176e-02 6.853191182017326355e-03 1.937364786863327026e-02 3.242031112313270569e-02 6.787872407585382462e-03 -3.172560408711433411e-02 6.793806701898574829e-02 -1.300511322915554047e-02 2.297215908765792847e-02 -1.594895869493484497e-02 7.063689827919006348e-02 9.728087484836578369e-02 -3.255291283130645752e-02 -2.171350456774234772e-02 -1.795972324907779694e-02 -1.724557206034660339e-02 -5.516079836525022984e-04 -3.953813575208187103e-03 2.253419253975152969e-03 -1.101770624518394470e-01 2.565594203770160675e-02 6.195358559489250183e-02 -3.968051448464393616e-02 -2.118153031915426254e-03 -5.582800880074501038e-02 1.236522421240806580e-01 -1.071971729397773743e-01 2.972196973860263824e-02 -5.028229951858520508e-02 7.037163525819778442e-02 -5.242127552628517151e-02 3.570931777358055115e-02 -2.671196591109037399e-03 -5.256385728716850281e-02 2.031611464917659760e-02 -3.434478864073753357e-02 -8.137855678796768188e-02 -5.272340774536132812e-02 8.890191465616226196e-02 -1.660748757421970367e-02 4.057905077934265137e-02 -1.144277900457382202e-01 4.523393884301185608e-02 1.578762754797935486e-02 -1.904482021927833557e-02 2.098732255399227142e-02 -7.576183229684829712e-02 3.255101665854454041e-02 -1.741080731153488159e-01 -5.339359492063522339e-02 9.191773086786270142e-02 -6.953687220811843872e-02 9.353346377611160278e-02 -4.426057636737823486e-02 1.893781684339046478e-02 6.347384303808212280e-02 2.102896384894847870e-02 1.030524522066116333e-01 -2.524915710091590881e-02 -4.187340848147869110e-03 -3.196175210177898407e-03 6.014354154467582703e-02 -1.679732650518417358e-02 3.005777858197689056e-02 1.289646024815738201e-03
-6.047347560524940491e-02 4.100436344742774963e-02 5.028757080435752869e-02 -8.949220925569534302e-02 4.878902062773704529e-02 -6.120647117495536804e-02 4.474290832877159119e-02 2.114789187908172607e-02 7.118902355432510376e-02 7.302589714527130127e-02 -8.394407480955123901e-02 3.844973072409629822e-02 2.466187439858913422e-02 1.046538073569536209e-02 8.275981061160564423e-03 -1.854458823800086975e-02 4.057050868868827820e-02 -4.900928214192390442e-02 3.413650393486022949e-02 2.028112858533859253e-01 2.194201946258544922e-02 8.651409298181533813e-02 -1.109366677701473236e-02 1.950246281921863556e-02 2.291711606085300446e-02 1.715187914669513702e-02 3.145476337522268295e-03 -1.223927363753318787e-02 3.648560866713523865e-02 -5.127718299627304077e-02 -1.830745488405227661e-03 4.180302843451499939e-02 -1.928011327981948853e-02 4.376708343625068665e-02 -5.177539587020874023e-02 -8.525107987225055695e-03 3.447426483035087585e-02 1.136943772435188293e-01 -4.676396027207374573e-02 -1.389736235141754150e-01 -3.542134165763854980e-02 1.708740741014480591e-01 1.267725136131048203e-03 1.496853772550821304e-02 7.467900961637496948e-02 -4.793426021933555603e-02 1.154773160815238953e-01 4.094206262379884720e-03 -5.569741874933242798e-02 -5.077633261680603027e-02 7.751311361789703369e-02 5.159033928066492081e-03 7.636751979589462280e-02 6.796058267354965210e-02 1.999901607632637024e-02 9.225360304117202759e-02 2.879234589636325836e-02 3.258945047855377197e-02 5.086844414472579956e-02 -2.705290727317333221e-02 3.554447367787361145e-02 3.432342410087585449e-02 1.573982089757919312e-02 1.303927600383758545e-02 -2.602170221507549286e-03 1.947964914143085480e-02 1.392253022640943527e-02 2.578050270676612854e-02 -3.843684494495391846e-02 6.259787082672119141e-02 -3.618473559617996216e-02 -5.663395859301090240e-03 -1.615131460130214691e-02 6.434430927038192749e-02 -1.996619254350662231e-02 -1.099057588726282120e-02 1.175860874354839325e-02 1.140667591243982315e-02 -9.718471206724643707e-03 -2.053738944232463837e-02 -5.080402269959449768e-02 -1.908363401889801025e-02 -1.281729638576507568e-01 2.525500580668449402e-02 4.423831403255462646e-02 -5.352758988738059998e-02 -4.929316788911819458e-02 -3.992555290460586548e-02 1.075174063444137573e-01 -9.649229049682617188e-02 1.044305041432380676e-03 -3.379893675446510315e-02 6.741107255220413208e-02 -5.007367208600044250e-02 1.595583930611610413e-02 -3.730995208024978638e-02 -5.653575062751770020e-02 1.146650756709277630e-03 -6.925528496503829956e-02 -3.692642971873283386e-02 -3.499156981706619263e-02 7.084505259990692139e-02 -4.274730011820793152e-02 1.991475187242031097e-02 -1.008177325129508972e-01 5.499467626214027405e-02 3.153247013688087463e-02 -4.418505122885107994e-04 1.171619072556495667e-02 -9.075965732336044312e-03 6.168408691883087158e-02 -1.697434782981872559e-01 -8.138756453990936279e-02 8.003959804773330688e-02 -6.854330003261566162e-02 6.266436725854873657e-02 2.515977807343006134e-02 1.422269791364669800e-01 2.728114463388919830e-02 -3.346990048885345459e-02 1.149035096168518066e-01 -7.433272898197174072e-02 5.731271812692284584e-04 2.008627168834209442e-02 5.002206936478614807e-02 -5.828651785850524902e-02 1.564695313572883606e-02 2.650789730250835419e-02
